<<<<<<< HEAD
0.2063923,-0.11636514,0.24807395,0.019113677,0.13044198,-0.20084311,0.14504772,-0.16877948,0.14726245,-0.10749328,0.12436588,-0.14832366,0.01589261,-0.035393607,-0.10719994,0.15973578,-2.4908254e-22,-2.6508415e-22,-2.5331508e-22,-2.6167958e-22,0.09295601,0.03270368,-0.025392897,-0.14120156,-0.041708264,0.23146872,-0.007182257,0.14031889,-0.12910402,0.12991902,0.18687217,-0.18483314,0.0890319,0.10009163,-0.017057788,-0.2444543,-0.0026851655,0.00909716,-0.12529482,0.13204089,-0.0155779,-0.0845352,0.09382513,0.0067908997,0.004593427,-0.12333042,0.15145081,-0.037035473,-0.038205612,-0.056425575,0.060384016,0.029579407,0.004318075,-0.22423847,0.14034545,0.057714213,0.15820076,-0.116355985,-0.07234943,0.116779566,0.048919942,-0.07479448,0.035640083,-0.03441858,-0.026546424,0.15087233,0.005426959,-0.11676778,0.16198681,0.016157951,0.10765497,-0.0043330197,-1.912503e-23,-2.0615064e-23,-1.8472396e-23,-2.0780191e-23,-0.11544134,0.18560681,-0.26702031,0.19480866,0.12562491,-0.10093244,-0.110572785,0.0874419,0.20443659,-0.20198798,0.08927301,-0.07694275,0.012247788,-0.109909035,0.24111193,0.05904846,0.042892803,0.0491824,0.15612324,0.21725,0.14276609,-0.13772608,-0.14679126,0.14312403,0.24538668,-0.0750813,0.23378152,0.013413418,-0.04368206,0.11064608,-0.083878726,-0.021332316,0.009868594,-0.024497125,-0.14780018,0.18624078,0.00072994665,0.13381198,0.13091482,0.09411067,-2.376863e-24,-3.091723e-24,-2.4980434e-24,-3.1358706e-24,-0.03373435,0.25853753,-0.019500636,-0.16942234,-0.05922076,0.14963529,0.13142252,-0.22032066,-0.01762423,0.090912804,0.050007284,-0.120808005,0.21061541,-0.13197064,-0.053237353,-0.0005383539,0.024558239,-0.005454867,0.20765117,0.17855157,0.14664859,0.05345032,0.21449517,0.019850163,-0.10813308,0.13531306,0.19908014,-0.20550624,-0.00048121036,-0.00077248993,-0.0006861913,-0.0008748426,0.24345154,-0.09139695,0.011844185,0.060040217,0.17386644,0.005878365,-0.17312455,0.005278684
=======
0.17397694,-0.12333724,0.24040297,0.0042549716,0.14026138,-0.19878761,0.14318971,-0.17144607,0.16160443,-0.09016931,0.09877518,-0.16945168,0.013706746,-0.030015074,-0.11100954,0.15601957,1.672474e-17,1.9839896e-17,1.8537955e-17,2.1760184e-17,0.10066319,0.03313891,-0.027168782,-0.15523651,-0.06989486,0.19317791,-0.02475964,0.11755785,-0.12841848,0.12866317,0.18429177,-0.18324941,0.081541464,0.10139461,-0.0019028869,-0.25012046,-0.0022229387,0.013268103,-0.12972173,0.13117333,-0.020873146,-0.08093197,0.09043238,0.009628456,-0.0014245588,-0.120428815,0.15109383,-0.035513304,-0.038542993,-0.050733436,0.05081458,0.03512614,0.003991855,-0.2286104,0.13257678,0.06375281,0.15649435,-0.11542926,-0.07223678,0.112076424,0.061374016,-0.080259725,0.030474639,-0.04200119,-0.028748237,0.15050374,0.00019182383,-0.111693524,0.16427962,0.018623112,0.10226318,-0.012088553,-0.02819649,-0.029936956,0.027296765,0.022048384,-0.12278828,0.18350191,-0.26498073,0.20306867,0.12489817,-0.09372417,-0.111233115,0.08144959,0.19270444,-0.1921717,0.07779997,-0.07719019,-0.0019579846,-0.11783145,0.23489912,0.055396896,0.04524968,0.04058368,0.14712739,0.2042032,0.14090587,-0.13189062,-0.14673547,0.13911755,0.23143753,-0.08051275,0.21884428,-0.0071706437,-0.06153475,0.12511253,-0.06631591,-0.04384626,0.0076758047,-0.016073905,-0.1452943,0.18754537,-0.014081411,0.13039224,0.11612122,0.085354514,-2.4068438e-14,-7.088734e-14,-2.2893722e-14,-9.232821e-15,-0.037745006,0.25850904,-0.025460133,-0.16290043,-0.060243372,0.15239117,0.12672487,-0.21734649,-0.020006383,0.08898915,0.049022097,-0.11526634,0.20669627,-0.13194802,-0.05100221,-0.0012023624,0.010025129,-0.0072958926,0.17257433,0.15074371,0.13862963,0.0491775,0.20969763,0.009410462,-0.106980555,0.13318145,0.19610195,-0.20473726,-0.0025078238,-0.0025548143,-0.0024601158,-0.002469435,0.23130503,-0.09494622,0.005927271,0.05410296,0.17020826,0.007187495,-0.17110458,0.0053655785
>>>>>>> 47d2039f7af34a40ee3264e90aedcff57159511d
