0.15872483,-0.13319226,0.21960747,-0.016573805,0.121411964,-0.18918368,0.119038716,-0.16622485,0.11552246,-0.07386287,0.1187006,-0.15800384,-0.010865088,-0.016328016,-0.08587754,0.15739359,-3.6500591e-09,-3.5587195e-09,-3.2679233e-09,-3.5139875e-09,0.064045176,0.026858034,-0.010373363,-0.11447392,-0.08611359,0.16049825,-0.038243797,0.11772955,-0.11350701,0.11850348,0.17614679,-0.17857744,0.035877302,0.09808874,0.005896854,-0.19777088,-0.00876687,0.04379671,-0.12206948,0.124989584,-0.006460081,-0.061556723,0.07287705,0.0027657694,0.00069752225,-0.09587002,0.12670434,-0.06124511,-0.022434616,-0.024013571,0.02727529,0.01936647,0.025441524,-0.21544941,0.10716245,0.050674148,0.14927715,-0.102944605,-0.05759964,0.099905774,0.033498425,-0.0643488,0.017914485,-0.020122994,-0.016681215,0.14302604,-0.008041619,-0.102213286,0.13815092,0.017185366,0.097638264,-0.0035958434,-1.8056777e-21,-4.6302533e-21,-1.20987726e-20,-5.5410256e-21,-0.10233803,0.16504325,-0.23308247,0.17269468,0.12513193,-0.07596998,-0.097666174,0.06265748,0.18116972,-0.17825657,0.086102575,-0.06268789,0.01933828,-0.09952679,0.21338792,0.041846294,0.05152047,0.03981335,0.13522655,0.16377166,0.13284697,-0.12038041,-0.13467063,0.124209434,0.21687941,-0.09092502,0.20970125,-0.026698729,-0.08283506,0.09000573,0.027726095,-0.0885297,-0.0049001104,-0.005311802,-0.11737841,0.18441772,0.0031751145,0.117857315,0.10453649,0.08255907,-1.7199514e-13,-1.6488637e-13,-1.6747544e-13,-1.7565821e-13,-0.022139154,0.2498862,-0.034649614,-0.1499222,-0.053834137,0.14730321,0.12113545,-0.21152721,-0.0063510262,0.07729797,0.046645083,-0.11392473,0.20860319,-0.11065075,-0.037579067,-0.016440412,0.010819801,-0.014944598,0.13418134,0.13439476,0.13409492,0.048333842,0.20359723,0.019466577,-0.08370665,0.13375914,0.1920032,-0.1974909,0.0013600287,0.001995518,0.0021901312,0.0032649375,0.21314284,-0.09782811,0.02064242,0.036873084,0.16395308,0.016483618,-0.15862633,-0.0047754985
