0.1719703,-0.12430487,0.23653173,-0.0007231668,0.13685736,-0.19448343,0.14110468,-0.16988564,0.1543994,-0.0873601,0.10455158,-0.16942707,0.010713821,-0.02751875,-0.10827027,0.15567183,-3.7594984e-20,-6.5357745e-21,-2.6255181e-20,-1.2301233e-20,0.09510673,0.03206086,-0.024990229,-0.14408179,-0.07629078,0.18461283,-0.028715286,0.11725748,-0.1262549,0.12767094,0.18294686,-0.18245125,0.076533094,0.10084002,-0.0011281391,-0.23920779,-0.0037414914,0.017098283,-0.12907007,0.12971546,-0.016144522,-0.0774741,0.085889205,0.0075303484,0.0019282516,-0.11609679,0.14785331,-0.04019325,-0.035326097,-0.046081174,0.04638307,0.032541603,0.0067184,-0.22614166,0.12930636,0.061273552,0.15448037,-0.114372,-0.07166568,0.10945219,0.05683145,-0.07404973,0.028978158,-0.04009788,-0.027361112,0.14868145,0.0010148244,-0.10988752,0.16046675,0.019509068,0.10286668,-0.009266319,-0.023211574,-0.02554127,0.023980208,0.019139593,-0.119692326,0.18045406,-0.2604312,0.1989142,0.12441574,-0.09158054,-0.10931162,0.07837643,0.18974881,-0.19065207,0.077874154,-0.076425284,0.0006538412,-0.11445509,0.22943065,0.054647736,0.046967927,0.042127725,0.14415309,0.1996804,0.13958926,-0.13014266,-0.1450067,0.13696772,0.22755755,-0.083107054,0.21655376,-0.009475937,-0.06156855,0.11953375,-0.05499401,-0.04664308,0.0058165025,-0.0144458525,-0.14212872,0.18665296,-0.009709494,0.12654954,0.11256011,0.08392291,-7.620339e-08,-9.7944e-08,-2.2341279e-08,-1.1394415e-08,-0.036610145,0.25643986,-0.025478134,-0.16082418,-0.05961062,0.15085675,0.12677892,-0.21676937,-0.018807562,0.087036975,0.049785547,-0.11392876,0.20666547,-0.12889892,-0.04955017,-0.0046874313,0.012007843,-0.011284884,0.16642208,0.14659932,0.13954869,0.049199697,0.20899056,0.01200883,-0.102160685,0.13427891,0.19576414,-0.20318484,-2.25093e-16,-2.3937508e-16,-2.4903674e-16,-2.3221241e-16,0.22776787,-0.096092425,0.0070544495,0.051014833,0.16935742,0.0075244363,-0.16710365,0.0052721933
