0.017591804,0.066513866,0.08799569,-0.13586304,-0.054945298,-0.0006021112,-0.020608723,-0.07926838,0.040797994,-0.0999662,-0.12773883,-0.009214297,0.033136845,0.13476816,-0.06481283,-0.024182469,-0.048820525,0.05163403,0.06799495,-0.11102951,-0.1244451,-0.007400796,0.11142425,-0.09033297,-0.11479138,-0.12381766,0.059466854,0.06116882,-0.13268924,0.11713639,0.12988904,-0.06122367,-0.036118306,0.05005911,-0.05480949,-0.014023535,0.10881698,0.068819284,0.13378835,0.1177533,0.0074273795,-0.12860832,-0.115796305,-0.11862868,-0.05036714,0.051113605,-0.10885742,-0.087966114,0.114599705,-0.03105332,-0.09693141,0.011291876,0.07613641,0.10432543,0.023482263,0.097754434,-0.0698582,0.0361882,0.006004527,-0.026800908,-0.07630339,-0.041335203,0.07468532,0.06628129,-0.05082295,-0.09670064,-0.11687215,0.10527836,-0.008504301,-0.025978766,-0.09600865,-0.05722238,-0.094916485,-0.12092685,-0.023862503,-0.052168332,0.07352388,-0.04497493,0.10206793,-0.038627706,-0.007022366,-0.104430094,-0.005797133,0.09319933,0.03356333,-0.03396976,-0.122404054,0.13142347,0.028256759,0.08487837,0.13428411,-0.12524089,-0.014798634,-0.060665213,-0.016962953,-0.06510394,0.011913568,-0.0056429952,-0.108954936,0.0014942735,-0.041913345,0.08461632,0.077198505,0.047644302,0.013538405,0.08319247,0.025110617,0.0992292,-0.09053224,0.113633215,-0.017799139,-0.10311985,-0.09955017,0.119054526,-0.04910113,-0.13456681,-0.053898446,0.008381054,-0.0018189847,0.05413167,0.06840773,-0.1283652,0.11878422,0.05406393,0.011415571,-0.09980939,0.050849497,-0.06884517,0.11793026,-0.1284259,0.10767627,0.027286395,0.1346964,0.11789018,0.016842946,0.13094014,0.045866027,0.040204972,-0.09304266,-0.031665087,0.030828252,-0.09534736,0.1048405,-0.1064892,-0.03362024,0.029576346,-0.12291592,-0.11252222,-0.10963226,-0.079709046,-0.059456073,-0.102164075,-0.11444564,-0.046895213,-0.029135682,0.06669201,-0.1292245,-0.08357025,-0.02840393,-0.0992386
0.027734771,-0.02813685,-0.057053335,0.03171429,0.0064866543,-0.07306692,0.07302193,-0.12393343,0.015610427,-0.11894105,0.11275065,0.094055235,-0.01085937,0.1102802,0.06199789,-0.10318899,-0.038946405,-0.06316028,-0.0101136565,-0.019137919,0.034165695,0.04936403,-0.023561463,-0.059984073,0.10369097,-0.06963225,-0.10400366,0.114757985,0.0020061731,-0.0701289,0.014544085,0.12120426,0.025248587,-0.034833983,0.09906739,-0.08391617,0.032146692,0.11895922,0.036940217,0.017265588,-0.10837977,-0.017754085,-0.09602866,0.06611514,-0.12327928,0.056799874,0.04176876,-0.121093705,-0.109367825,-0.019682698,0.015780136,-0.08554182,0.10685144,-0.012312613,-0.11701453,-0.11255347,0.07734816,0.025897771,-0.11742375,-0.06458741,-0.095074534,-0.11371302,-0.011465564,0.11623642,0.09161857,-0.04689975,0.036167055,0.032597095,0.059052855,-0.024425171,-0.07622834,-0.021423198,-0.05717563,-0.04528971,-0.10403102,0.055595204,-0.099525005,0.053441748,0.05039528,-0.069899105,0.09998958,-0.015843853,-0.04297711,-0.0039819926,-0.117578104,-0.040143825,0.005306378,0.056445524,0.038685292,0.03757471,-0.0864103,-0.0065738857,-0.12513049,0.04363762,0.01124832,0.10916926,0.009872943,-0.014632888,-0.043597005,0.06634037,0.0063215345,-0.017660715,-0.123419374,-0.088640235,-0.115195245,0.10170986,-0.072308764,-0.016436167,-0.11761865,0.027624711,0.053942457,0.050457597,0.063345686,0.09380339,0.035619825,-0.1036814,-0.07321504,-0.13047872,-0.061224975,-0.031683043,-0.13611294,-0.07493765,0.08001037,0.052798286,-0.06625059,0.09672518,0.11954433,-0.121156394,-0.041315094,0.043759584,-0.06566178,0.011142001,0.13117763,0.009864762,-0.07278538,-0.040184602,0.0974312,0.00062583387,0.0903614,-0.10981371,-0.07401149,0.017980233,0.12895086,0.11976048,0.07023929,0.034714952,-0.015580982,0.025261968,0.10690831,-0.06703653,0.08783966,-0.06962781,-0.026429422,-0.041352145,-0.026529975,-0.08908391,0.0040572137,0.001153022,0.05312498,-0.098281294
-0.04006113,0.12866092,-0.1000961,-0.07175511,0.05354263,0.09242289,0.02216506,0.104317784,0.13078612,0.113022596,-0.07155942,-0.13050614,-0.091966815,0.10684177,-0.10160693,0.11428255,-0.1139973,-0.08968425,0.025217503,0.03869395,-0.083332285,0.12952045,-0.068986036,0.12135613,0.02828288,-0.103547126,0.11251782,-0.13017635,-0.022808298,-0.080779016,0.12028995,0.08439106,0.035550714,-0.13342088,-0.1121682,-0.10315674,0.12126994,0.12095851,-0.0343768,-0.007752016,0.026834205,0.06330004,-0.12239338,0.037969127,-0.092799045,-0.13447319,-0.12151919,0.072824135,0.065426946,-0.0055746734,-0.05314976,0.07730572,-0.08140149,0.057262704,0.13001719,0.0009240359,0.11097206,0.056744695,-0.050466128,0.09576641,0.005911812,0.0017242134,-0.02188231,0.0078002065,-0.03481093,0.0036185682,0.07547766,-0.051876202,-0.027672544,0.09031655,-0.08250322,-0.022538997,-0.11841595,0.003817916,0.00048187375,-0.08345599,0.12747747,-0.025844097,-0.07038234,-0.09410332,-0.0049253553,-0.08176302,0.09075089,-0.11300448,0.05350411,0.13228005,-0.07838613,0.061459973,-0.038308285,-0.030864917,0.029140279,-0.0067537725,-0.0137017,-0.08879478,0.10144167,0.10654293,-0.109527275,-0.019300468,-0.079851225,-0.085988335,-0.080720246,-0.03524778,0.05155699,0.0023239255,-0.06738374,-0.0924443,0.0738858,0.13124353,-0.12653016,-0.12877283,-0.008727014,-0.04271975,0.08698024,0.059398383,-0.1174673,-0.029888839,-0.13579209,0.083049595,0.09753394,0.04254192,0.08356692,0.0348887,-0.044666126,0.016597286,-0.048852816,0.13483867,-0.05072149,0.09982461,-0.13275862,0.038199157,0.0425784,-0.0537199,-0.028996572,-0.046524018,0.06113334,0.12920833,-0.07148107,0.08329265,0.12494263,-0.11188525,0.07959293,0.105428234,0.119206876,-0.095573045,-0.06756649,0.099612996,-0.10080176,-0.07464236,0.048178136,0.060785845,0.09614201,0.12273899,-0.11504729,-0.08415152,-0.047341533,0.064557865,0.0877513,0.039828688,-0.10294773,0.0010738224
0.04349959,0.06683116,-0.048329815,0.09737486,-0.105376065,0.0094648,-0.11644549,-0.016553953,0.06294429,-0.0227592,0.006385714,-0.10168015,0.09023327,-0.07376978,0.08718294,0.021833465,-0.07502854,-0.089354776,-0.02270981,0.13511065,-0.05283279,-0.06974766,0.12673816,-0.091529146,0.10814403,-0.1102044,-0.12559186,-0.030184917,0.09561843,0.093064755,-0.04377895,-0.076841444,0.12966686,0.027968034,0.11792153,0.1215356,0.038386866,0.058836922,-0.083563395,-0.06039735,0.022294343,0.038520426,-0.10174826,0.044551373,0.11276978,-0.06623417,0.09175615,-0.10837644,-0.022169568,0.036387548,-0.0073314905,0.13659525,0.12443778,-0.08176197,0.05583313,0.045109928,-0.069943376,0.094652206,0.013979822,-0.094834864,0.08803278,0.024061054,-0.005570203,-0.07933149,-0.059342563,0.027674928,-0.035173148,0.120562404,0.07024026,-0.003750503,-0.06527537,0.11182234,0.051651075,0.010793388,-0.018950887,0.029746234,0.071420446,0.03303808,0.12921399,-0.115908414,-0.05337224,0.0964324,-0.09460951,-0.077913836,0.11638233,0.095374644,-0.0006199926,0.06972121,0.0009419322,-0.06418807,0.12446424,0.0055021048,0.08489427,-0.06332616,0.008462936,-0.029869087,-0.098289065,0.11983052,0.10665311,0.09028266,0.10188264,-0.026001975,-0.052909672,-0.11711521,-0.04462088,-0.041395694,-0.029309884,0.044344038,-0.07050248,0.0027523488,0.10647851,0.10600436,0.059052825,0.05267693,-0.03640815,-0.08230365,-0.079292834,-0.11882936,-0.1142051,-0.07746461,-0.12558235,0.12312803,-0.062789574,-0.105841056,-0.103254706,0.09335029,-0.11338466,0.12917063,0.0644179,-0.0030845702,0.057298288,0.06087944,0.06998585,0.049293578,0.039635748,0.09627049,0.1291843,0.053138226,0.017429411,0.112984955,-0.064373404,-0.074252136,0.06532779,0.049398154,0.13572282,0.018699244,-0.005931571,0.104990676,0.016475186,-0.018467322,0.10855472,-0.0055895895,-0.039070494,-0.007436484,0.029602394,0.081908554,0.11420944,0.10735221,0.09233609,-0.1253816
-0.052909933,0.09711176,-0.040327072,-0.05479245,-0.06265745,-0.007822856,0.08501889,-0.0702879,0.033523306,-0.034016542,0.0042073876,-0.08210098,0.080556884,-0.07947941,0.076388076,-0.0663772,-0.014617182,0.07726781,0.07764137,-0.11559021,-0.08035,-0.03453432,0.073355004,0.09177786,-0.11954703,0.122746706,-0.13329399,0.042643353,-0.097301275,-0.06610081,0.030957952,-0.08317901,0.04049994,0.12881434,-0.09520051,-0.056931436,-0.06840979,0.10452174,-0.05343052,-0.034630984,-0.0053301156,0.13589704,0.024597213,-0.09319959,0.016463757,-0.09132135,-0.07458474,-0.05421032,-0.012773387,-0.060862765,-0.09016514,0.12785634,-0.07981466,-0.07806368,-0.03467323,-0.06866587,0.1135554,0.10940386,0.066496104,0.04342124,0.015940875,-0.11382356,0.046429187,0.04537289,-0.114782624,-0.005704865,-0.1251095,-0.11196106,-0.13012238,-0.018024333,-0.015064709,0.11865166,0.08978793,0.062255666,0.008225426,-0.022491336,-0.08027315,-0.09425604,-0.001881659,-0.13244978,-0.13502893,-0.056646004,0.08024928,-0.12119482,0.13621163,0.0011293441,0.017515302,-0.08978689,-0.1202017,-0.04079607,0.029745653,-0.04390911,-0.034124076,0.027755111,0.05570662,0.114429,0.04893571,-0.08080301,-0.10598052,-0.12047456,-0.005567819,0.0041455925,0.103702754,0.062167883,-0.06745082,0.119339615,-0.13264373,0.10664596,-0.057831377,-0.09970574,0.11221045,-0.023540437,-0.13080056,-0.13244402,-0.00080539286,0.12562391,0.12660068,-0.10888733,0.10419305,0.10987699,-0.04137046,0.110716626,-0.052641608,0.016119227,0.022123307,0.11310452,0.080112755,0.0024857968,-0.07856552,0.086943746,0.13670722,-0.08673203,0.014753416,0.10524738,-0.051488817,0.0713941,-0.039960608,-0.13168685,0.082246125,-0.03192182,0.0023522675,-0.031619675,0.024578348,0.13496143,-0.1236401,-0.057465956,-0.018746354,-0.116550155,0.111672625,-0.13554756,-0.12314344,0.047495753,0.016762272,0.032618403,0.08792448,0.12650165,0.13044623,-0.06791362,-0.049144648,0.08264683
0.0015194118,-0.012829214,0.012690201,-0.004836172,-0.07345744,-0.098886795,-0.080348924,0.09759356,-0.04138656,0.0093958825,0.06310563,-0.11327503,-0.11106056,-0.06817868,0.09006804,0.09575106,0.033487037,0.12865579,0.110297054,0.03051804,-0.043994285,0.01075311,-0.08358964,0.11404413,-0.03481482,-0.0661331,-0.10033423,-0.096414484,-0.12389997,-0.118108615,-0.050058104,0.04207626,0.07626301,0.061848268,-0.010670185,0.011947662,0.076187074,0.06768647,-0.06437154,-0.0071406662,-0.0900857,-0.10233123,0.046343327,0.0511204,0.10657446,0.03029804,-0.02645769,-0.09720023,0.11328405,-0.047023647,0.031375214,0.00066305697,0.05278486,0.0179037,0.11155003,-0.11997693,-0.08587675,-0.11192704,0.021585718,0.070406765,0.11884007,0.11620414,0.026668102,-0.041120224,-0.053976506,-0.0033258945,0.1128072,0.046719387,0.068462774,-0.12255815,0.0047697276,0.050682932,-0.022731908,-0.116501674,0.00064738095,-0.10371797,0.07500079,0.015074924,-0.07553463,0.056761205,-0.07050934,0.06055996,-0.12005358,-0.10265721,0.05775413,-0.1217838,-0.11803719,-0.049944296,0.06922145,-0.08719395,0.03294769,-0.10352306,-0.043225385,-0.047454454,0.08580668,0.032752424,-0.08805612,-0.03081046,-0.12386869,0.09465906,-0.025173724,0.09131649,0.037444755,-0.103678,0.04400623,-0.11493163,-0.10145456,0.110329896,0.042458877,-0.13408192,0.003816083,-0.013971366,-0.011494413,0.095537856,0.0993191,0.10648459,0.12405884,0.10075331,-0.015124813,0.02872084,0.110525385,0.0808955,0.046233043,0.11961523,0.034819752,0.02262427,-0.12646982,0.020031422,-0.068937525,0.053540245,-0.0019415319,0.10994643,0.1309714,0.11981267,-0.10674371,0.10402775,0.033167228,0.017837897,-0.13452731,0.051606372,0.11203873,-0.12789851,-0.07392837,-0.08482709,-0.10728864,0.13104907,0.030660748,0.004099101,0.02686891,0.11823776,0.0035994798,0.10552816,-0.110706635,0.04531543,0.06442426,-0.08181918,-0.012043178,-0.10540336,0.05344224,0.088780284
-0.022254027,-0.0808193,-0.088036925,-0.07776539,-0.119947515,-0.077192076,0.09554912,0.021602005,-0.04241193,0.011899531,0.10375306,0.008479774,-0.06942912,0.096238196,-0.065213636,0.035646632,0.074983746,-0.11425022,-0.046707757,-0.039670996,0.061364606,0.07148051,-0.13032877,-0.013618417,0.09017147,0.12005696,0.015933111,-0.052460812,-0.06465808,0.0313109,0.11639917,0.017583966,0.109864354,-0.07216202,0.018813998,0.07690422,-0.09544324,0.11637324,-0.057816193,0.11375749,0.023127452,0.118083954,-0.07409422,0.12798688,0.019241601,0.039858982,0.109685645,0.115920216,-0.0073419064,-0.13371687,0.12261152,0.023358405,-0.12879618,-0.0679892,0.06118332,0.11602807,0.09086101,0.08671476,-0.018327758,0.12560305,-0.1260648,-0.09031789,-0.058052525,0.03848511,-0.006288424,0.12346691,0.10997982,-0.064078145,-0.101930946,0.08449252,-0.031595618,0.07780799,0.026936457,0.11375129,-0.013688549,-0.09834531,0.07001661,-0.0029612035,0.028389111,0.13453999,-0.08653778,-0.015555158,-0.1276025,0.1092152,0.032544196,-0.022200584,-0.07985638,0.119669974,-0.091478646,0.05653572,0.11078036,-0.054880068,-0.06382872,-0.07393902,-0.03655398,0.019035012,0.01754181,-0.03234744,-0.099580675,-0.09181647,-0.11302662,0.04116933,-0.09920987,-0.0071168393,0.08927505,0.13269424,-0.11414343,-0.064687595,-0.12935704,0.052429408,0.018416882,-0.1270278,0.0018906444,-0.09845899,0.07266256,-0.018139482,-0.07811624,0.12125102,-0.009242371,-0.041723475,-0.020938061,-0.07868652,0.071569964,-0.0054371953,0.039587975,0.08346063,0.00070124865,0.06222661,-0.071211345,0.096359566,-0.052735858,-0.046422325,-0.11881333,0.13199067,0.13492176,0.008694857,0.020679116,-0.020385683,0.08509351,0.074748695,0.024247184,-0.0569584,0.061011598,0.0010088235,-0.08524797,0.061930478,0.08113833,-0.115851745,-0.043395415,0.0010591596,0.088452816,-0.07554087,0.08259809,0.026494518,-0.12525249,0.11243492,0.022135675,0.10130243,0.106829464,0.07904863
0.039725557,-0.010928884,0.017432228,-0.019069396,-0.09520629,0.02811706,0.10628055,0.028073475,0.03901404,0.119978756,-0.07849422,-0.097321086,0.05006796,0.0788396,-0.07972002,0.0817035,0.0032495707,-0.055532552,0.018303081,-0.07155857,-0.08928269,0.0458733,-0.13426572,0.01166974,-0.11703852,0.08906357,0.009310573,0.009992406,-0.120296575,-0.035753578,-0.07826802,-0.10242815,-0.11828893,-0.01427599,0.04426013,-0.13641897,-0.0072906464,0.08600724,-0.106161416,-0.07447433,-0.0390718,-0.016817354,-0.0053097457,-0.028978124,0.028359145,-0.02594661,-0.070691444,-0.11698224,-0.017313093,0.11996704,-0.088495865,0.038519964,0.10835901,-0.034913577,0.021901175,0.035395935,0.050399885,0.026638106,0.07614806,0.0075583607,-0.08036567,-0.104358494,-0.08869456,-0.089218244,0.009450898,-0.08727345,0.12529284,-0.076192304,-0.042427957,-0.02624467,-0.07298654,0.13543066,-0.08284928,-0.12498932,-0.13629162,-0.109477125,-0.034308665,0.06554976,0.13540238,0.123208016,0.0508506,-0.059339494,-0.12656398,-0.06060449,-0.027702287,-0.05780206,-0.09565884,0.095390484,-0.09778046,-0.0017983168,-0.10915729,0.03283289,-0.09887086,-0.09300397,-0.102652244,0.016452134,-0.13675627,-0.0046199113,-0.10186115,-0.002566591,-0.058234826,0.015123144,0.13518825,-0.095563024,0.13045228,-0.102757275,-0.10969341,0.015253857,0.04272054,0.045339137,-0.12436463,6.186962e-05,0.0040587187,-0.092736304,-0.027979948,0.06283656,-0.11513234,0.11219478,-0.05922079,0.007467985,-0.08549511,0.011213139,-0.041747928,0.026660457,-0.037579842,0.11209074,-0.11739802,0.010954499,0.064931735,0.052898213,0.0151755065,-0.025845565,-0.08837727,0.05801873,-0.12896714,-0.0029422343,0.11248037,0.035134494,0.038790062,-0.07994962,-0.05930894,0.12219733,0.08657698,0.02058117,-0.012794875,-0.06722419,0.10450348,-0.1127088,-0.06596849,0.10386644,-0.03044805,0.13168219,0.0042126775,0.045716926,-0.02054359,0.113140166,-0.11867216,0.029712215,-0.13341247,0.023257941
0.04122214,0.05419749,-0.0013742,-0.104906835,0.08769518,-0.12683387,0.13225558,-0.061420336,-0.021732263,-0.060175642,-0.010246262,-0.032851405,0.042466283,0.11291121,0.13471541,-0.047692843,0.008637235,0.100375235,-0.034064136,0.04518883,0.064281076,-0.04968133,0.12068796,-0.00020390749,0.11032669,-0.018058844,-0.026744723,0.060420528,0.04440394,-0.008651629,0.07020415,-0.13046612,0.073556945,-0.12886035,-0.105124034,0.011782885,-0.058431096,0.08065547,0.13047096,-0.10547815,-0.023399994,-0.13408312,0.1050747,-0.05939705,-0.07841793,-0.045389645,0.06799191,-0.067583695,-0.008540243,-0.09598325,-0.02422341,0.12881455,-0.11956208,-0.05155682,-0.059581503,-0.060697213,-0.122519724,0.09648804,-0.04577396,-0.10662696,0.10273157,0.035298154,0.0031226724,-0.10708862,0.049004853,-0.009513959,0.108764604,0.09407799,0.062971935,0.13112018,0.06490296,0.051237434,-0.0036282986,-0.124498904,-0.061244242,-0.11858803,0.10526085,0.11967164,0.05434616,0.0036842227,0.0109846,0.100547865,-0.10073927,-0.08961213,-0.013069823,0.09935792,-0.10322778,-0.10596201,-0.07779167,0.100243896,0.063968256,-0.044315234,0.007624626,0.010077909,0.13255864,-0.099084705,-0.026955783,0.1251913,-0.024740666,-0.025273658,-0.10103153,0.09179407,0.06358303,0.0875082,-0.051826186,-0.07698503,0.09586941,-0.03490238,0.066671506,-0.13475585,0.1288721,0.05846362,0.057938516,-0.06171661,0.05981268,-0.12771386,-0.03885176,-0.13446571,0.07399216,0.11055352,0.025479004,0.07981998,0.11493397,0.081048965,0.04629886,-0.006050825,-0.10602906,0.10439487,0.06449063,-0.088649765,-0.033549428,0.12349075,-0.051280104,-0.0036615282,0.041446134,0.09371364,-0.099998906,-0.07118111,-0.10303235,0.11002171,-0.03712409,-0.053870633,0.03989035,0.057130054,-0.030782484,0.100026265,0.028843254,-0.10421276,0.021483392,-0.04864391,-0.025299452,0.05654578,0.016922608,0.0022173375,0.016177088,-0.10030109,-0.0244871,-0.07298181,0.1330303,0.027225748
0.07725988,0.059275478,-0.08121684,0.127971,0.11669195,-0.05881153,0.13233891,0.012124792,-0.07991241,-0.010516614,0.08836816,-0.12960675,-0.049178697,-0.025491543,0.0819654,0.116496176,-0.067730896,0.0014312714,0.030615553,0.12831166,-0.13491258,0.025531724,-0.02507317,-0.12701806,-0.103318855,-0.06833816,-0.09825736,-0.09951511,-0.12559283,0.035876095,0.066358924,-0.016589932,-0.07922836,0.058528215,-0.08656722,0.10309066,-0.07148617,0.08945458,0.020379215,0.119021,0.112752125,0.109871954,-0.116231814,0.11686051,0.07596168,-0.063763954,-0.07327534,-0.057633795,0.06296463,-0.09863737,-0.039328597,0.1314438,-0.0037069172,0.00022161007,-0.040141992,-0.13457818,0.12391263,0.10379453,-0.063367754,-0.016772136,0.12765539,0.04001066,-0.049426585,-0.12405745,0.120171905,0.11591786,-0.034315646,-0.0238766,-0.13011813,-0.075450696,0.012983054,0.012101755,-0.03791976,-0.11292427,0.016275346,-0.044304267,0.1368913,0.06480767,-0.044764422,-0.074372694,-0.05339513,-0.030875787,-0.001955375,-0.12278269,0.066155165,-0.103791,0.0978359,-0.062006317,0.096924886,-0.020507194,0.0776979,0.022940263,0.03155458,0.116793364,0.062784195,0.13296226,0.12300447,-0.0967513,-0.006992817,0.019034296,0.11847067,0.0066788793,0.087098494,-0.025126584,-0.11682935,0.059741676,0.074466616,-0.103366226,-0.06674738,-0.0437351,0.055066645,0.1342189,0.082708895,0.059665695,0.0002463162,-0.12251639,0.0795863,-0.033989966,0.039953724,0.0912192,0.118864894,0.13078594,0.109080896,0.0038125664,-0.11813075,0.10547297,0.0432598,-0.06902998,0.05911714,-0.068556994,-0.005290091,-0.12632047,0.047824964,-0.10045319,0.092255384,-0.029795207,-0.058360353,0.10680254,0.042383596,-0.06595393,-0.07472819,0.11235762,0.102224216,0.08217342,-0.134103,-0.102229506,0.016723946,-0.10336946,0.0015137345,-0.11598132,-0.12702534,0.06296381,-0.11083415,-0.12448888,0.11690995,0.11848533,0.11155555,0.1305606,-0.055155903,0.002731368
-0.10818278,0.10377902,-0.0069061667,-0.03438995,-0.08068675,0.122680604,-0.021005742,-0.003504172,-0.12811467,-0.096175864,0.07155272,0.094249085,-0.05444169,-0.0043194294,-0.12807804,0.043822274,0.014925763,0.062228516,-0.08283919,0.117605,-0.11695331,-0.022694431,0.09642911,-0.03137835,-0.08807443,0.05789788,-0.048406303,0.04394962,-0.05529031,-0.094746366,0.10540216,0.123399526,-0.08265921,-0.0012264699,0.03254427,0.0943788,-0.08382963,-0.00041227043,-0.05256574,0.1259363,0.031238914,-0.025648966,-0.018255018,-0.0044164956,0.07132916,0.046251252,0.059553847,0.07977304,0.08782354,0.010928646,-0.09077994,0.072085395,-0.13189426,0.13165188,0.038563162,-0.023037449,-0.09582713,-0.062057763,0.07470335,0.03259115,-0.08823355,-0.113164976,-0.11640158,-0.13657604,-0.06666606,0.06778565,5.030632e-05,0.061454818,0.0982987,0.13129684,0.057235926,0.037229344,0.0477629,0.12682211,0.070669666,0.07259965,0.08293632,-0.006682351,0.1000914,0.041446522,-0.0959761,0.106359616,0.12582034,-0.12093462,-0.0118552,-0.11149819,-0.08321388,-0.050779045,0.023681372,-0.021652281,0.055739492,-0.13366501,-0.12128982,-0.11153623,0.05724266,0.089935765,-0.13141258,0.0016716421,0.059930474,0.12443453,0.13072667,-0.120633066,0.088117555,-0.023115344,-0.05159998,-0.09186081,0.05787286,-0.12061478,0.12806442,-0.049334392,0.05467227,-0.11891607,0.089882806,-0.019704834,-0.003929168,0.029133648,-0.04259322,0.03862369,-0.07923854,-0.024795711,-0.0767708,-0.01488629,0.07645446,-0.10185677,-0.08597936,-0.10439432,0.04686244,0.08923039,-0.083232254,-0.09505598,0.011876479,-0.08399825,-0.067982346,0.06634399,0.05193977,0.008172482,0.0011634678,-0.020425081,-0.025063545,0.036119804,-0.087153435,0.11828351,0.13611159,0.10381578,0.1308957,0.035099924,0.016159385,0.040116504,0.00049202144,-0.021364108,-0.024592027,-0.0046675205,-0.079815015,-0.007118836,-0.079237655,0.1339373,-0.044746563,-0.12689832,0.030331701,0.083572924
-0.11309779,-0.0790934,-0.04610353,0.09818852,-0.061805703,0.11590403,0.06471352,0.026284277,-0.01664269,0.022972837,0.13041338,0.041373864,-0.083947845,-0.06600385,-0.13639624,0.075718686,0.010355204,0.051222295,-0.07807723,0.084126055,0.10732603,0.10962802,-0.0040493757,-0.13027863,-0.008260429,-0.010195866,0.089659244,-0.04230857,-0.1003259,0.04373063,-0.0847917,0.016114071,0.073740944,-0.10991851,0.056459203,-0.08473812,-0.12348398,0.018254593,0.008235261,-0.11043074,-0.05957886,0.09850167,0.00038291514,0.11229187,0.08300765,-0.037218377,-0.04345741,-0.11180827,-0.007339984,-0.07355402,0.006223038,0.05086164,0.040751904,0.08319628,0.049554586,0.120963216,-0.10184574,-0.0074470937,0.12972602,0.13248023,0.05816339,-0.1272408,0.048604637,-0.042974107,-0.10399034,-0.050598867,0.034378037,-0.032012187,-0.002670154,-0.01862745,0.091918886,-0.043331258,-0.055225477,0.113224894,-0.040025316,-0.11343542,0.04039073,0.122633874,0.011878639,0.1250355,0.09852275,0.0030409843,0.12639508,-0.030740008,0.08454235,0.012652665,-0.11608242,-0.07175096,0.100511596,0.0464582,-0.118878365,-0.1214537,-0.018380709,0.047469795,0.100397915,-0.10346773,0.05534251,0.050723538,-0.00033290684,0.09014113,0.054571748,-0.091107324,-0.11767882,-0.13179144,0.020071581,0.030614287,0.1200816,-0.04175484,0.08080816,-0.060213417,0.08670235,0.08931874,0.0064786673,-0.013511635,-0.08442201,0.04471895,0.08252147,0.0861914,-0.023034215,-0.050917074,0.13110417,0.021017164,0.08474694,-0.046674624,-0.062674075,0.084678575,-0.024949312,-0.06740766,-0.09560053,0.08214691,-0.13441935,0.06704427,-0.091402024,-0.0870724,-0.036876142,0.033036813,0.1283113,-0.08241096,0.0694823,-0.014256634,0.039231807,-0.12434432,-0.08394523,-0.09237006,-0.052076854,0.0016623735,0.112251356,0.12298027,-0.062727936,0.054937333,-0.06611152,-0.12787828,0.090160206,0.11758551,-0.07713792,0.049296394,0.06925067,-0.10539533,-0.056337066,-0.088691555
0.094114944,-0.113754965,0.09622438,0.07520023,-0.05564923,0.014262378,0.10701209,-0.108622104,0.13082188,-0.031028993,0.10963409,-0.020906627,0.018010467,0.027457431,0.1306454,0.056576952,-0.10426301,0.04894103,-0.056795456,-0.10104093,0.06371048,0.062035754,0.09739493,-0.071383424,-0.070499316,0.111452386,0.11931211,0.096879214,-0.12378671,0.013311535,0.04143931,0.04406865,0.05151543,0.001176849,-0.00629434,-0.13193767,-0.09113419,0.027025133,-0.032881998,-0.012036718,-0.038905628,-0.0027775913,-0.13303082,-0.06884011,0.009229422,0.08241886,0.055671692,0.078820795,-0.0705842,0.10558978,0.06889607,-0.07383827,-0.046431176,-0.0076165646,0.02201201,-0.010617986,-0.083250314,0.011345908,0.098624766,0.036697328,0.093120486,0.099508,-0.12658827,0.12461686,-0.047667675,-0.06644011,0.027900383,0.0127132535,0.019895658,0.13502857,-0.0061177462,-0.032234646,-0.062255993,0.12150544,0.01253438,0.117307246,-0.06471832,-0.027531348,0.121483624,0.02466382,0.11840144,-0.0688341,0.027620569,-0.093585536,0.038206205,-0.053084232,-0.13621065,0.099045694,-0.04584454,-0.12863986,-0.050820507,0.1349245,0.055764183,-0.11562942,0.06332834,-0.12828365,0.036339164,-0.074638635,0.081126675,-0.08197993,0.038391143,-0.13656695,0.09920105,0.054386586,-0.06353983,0.11791086,0.115332276,-0.034056693,-0.032226577,0.1332247,-0.02882237,0.09988971,0.011447474,-0.041022055,-0.09939011,0.12354481,0.10380262,-0.02514007,0.102344155,-0.015211746,-0.059207633,0.050071135,0.07010625,-0.022729166,0.074191645,-0.0065665394,-0.043151215,0.019747525,0.02081795,0.12291381,0.05630967,-0.02792915,-0.11359725,0.06645562,0.11418274,-0.042708233,-0.030061245,-0.10065985,-0.029660702,0.117922276,-0.046476,-0.13152766,-0.11646612,0.12789866,-0.13277014,0.099347904,-0.12571989,0.12653849,-0.009072587,-0.029107697,-0.03691241,0.12827891,0.02493018,-0.08388999,0.13366026,0.13257456,0.12913224,0.03334023,0.042034537,0.020387053
0.038168892,0.10902761,-0.08272623,0.11411455,0.021440372,0.100063816,0.038741127,-0.030395418,-0.11168333,-0.122267,-0.11499323,-0.12003498,-0.10389835,0.07101552,0.021422967,0.011204347,0.08448504,0.0760891,0.06272791,-0.1303924,0.043290675,0.03381841,0.117016226,0.009057954,-0.12814444,0.0495888,0.08638048,0.13618764,0.087430015,-0.07575141,-0.0009737611,-0.09014584,0.06168644,-0.052556433,-0.083519615,0.096929386,-0.076090276,0.11418289,-0.12215378,-0.10939453,0.07848701,-0.10330303,0.024781346,-0.09891285,0.032592684,-0.05367756,0.11667821,-0.11290651,0.099048495,-0.068474956,0.11666709,0.03565231,0.01096639,0.11718321,0.08522639,-0.11640053,0.032591537,0.032118425,0.047959864,0.04231125,0.12145245,0.10616775,-0.108239815,-0.00482516,-0.079806626,0.04674746,0.032484457,0.10763474,-0.12844832,-0.07966742,0.018642604,-0.11156818,0.12156013,0.024842292,-0.028273053,0.06694424,-0.05156342,0.110670134,-0.07858763,0.0068632066,-0.067852445,-0.05916843,0.07523255,0.01907371,0.03757201,0.03805025,0.08867298,0.06874922,-0.10542804,0.040928617,-0.098449424,-0.11135579,0.07600768,-0.034360275,0.019020945,-0.06148096,0.0069057792,-0.07226678,-0.03555332,0.13263014,-0.06770851,0.09647034,0.10658148,0.0038673729,-0.108650476,-0.009405747,0.08287951,-0.0730061,-0.08527722,-0.08136832,-0.13134366,-0.091035075,-0.10400072,0.032385215,0.046777233,0.033235177,-0.081410825,0.020091832,-0.1308078,0.013571769,-0.08864823,0.09533483,-0.11133068,0.11752942,0.02188459,-0.13434799,0.097334534,-0.09223014,-0.016653433,-0.108642966,0.048239768,0.036728308,0.109440625,0.07547018,-0.03414595,-0.08356597,0.09124206,-0.073531225,-0.12311514,-0.03752222,-0.014571577,-0.014515586,-0.030658655,0.06892891,-0.0015531033,-0.067628026,0.017675832,-0.06742043,0.09240356,0.06492004,0.07325235,0.008725539,-0.05534976,0.05882971,-0.09696037,0.042637512,0.06996453,-0.025652751,0.0013436377,-0.069724806
0.124501735,-0.10661152,-0.024689674,-0.06526505,-0.0123534575,-0.09149582,-0.10260197,-0.106355175,0.12839311,0.0060615987,-0.08063044,-0.08066876,0.08378212,-0.04671154,-0.018532977,-0.029207699,-0.08344227,-0.0397294,-0.015365057,0.09547873,0.09083906,0.012891665,0.05527085,0.09402947,-0.019331284,0.05518712,0.04285407,0.062361374,0.014546469,-0.10686225,-0.04414165,0.11375189,-0.09905803,-0.026639827,-0.009751171,-0.04621055,0.13011914,-0.03243111,-0.044973724,0.06574324,-0.121026,0.019257054,0.030925468,-0.014528714,0.057715803,0.11804256,-0.12359717,-0.05991339,-0.07525171,-0.10109708,-0.123191625,0.022995427,0.09998605,0.06340745,0.05425276,0.000670895,-0.06526375,-0.07649347,0.05088854,-0.0084928125,-0.102566026,-0.0778629,0.044596657,-0.13230325,-0.029063888,-0.05093895,0.1112376,0.12992409,0.10141814,-0.09680079,0.08838147,-0.07432634,-0.11134028,0.045532703,0.08183971,0.036937714,0.05748415,0.1046609,-0.03771905,0.02528368,0.08244021,0.055191487,-0.11500684,-0.1142352,0.03930281,0.066131756,0.07525092,0.06805077,0.119497836,0.047121942,0.06778376,0.100054115,0.1024961,0.098030075,-0.12692985,0.12103376,0.12433469,0.037427217,-0.10495685,0.118148685,0.06518324,0.06387521,0.11306429,-0.13186546,-0.13568471,0.054242253,-0.091183156,-0.10776245,-0.027364165,-0.053556964,0.0370965,0.07236998,0.069763005,-0.08594364,0.061971277,0.027784884,0.1301341,-0.0015029013,-0.012076281,0.13225368,-0.051842712,-0.0014291853,0.096914604,-0.08205688,-0.11481723,-0.091730446,0.058158398,-0.05423543,-0.103886396,-0.021760434,-0.1345406,0.09485306,0.11157717,-0.10816348,0.018162861,-0.03112328,0.051599234,0.12839499,-0.1262079,-0.105164975,0.07587722,-0.03262517,0.032395303,-0.12511034,0.035886347,-0.09429039,0.061441362,-0.0981892,0.016123548,-0.13233165,0.049709797,0.009681836,-0.020085461,-0.035615645,-0.072626024,0.05871895,0.013910845,-0.031853914,0.07216734,0.066823155
0.061160207,-0.10696466,0.10418625,-0.051351406,0.10898632,-0.0731155,0.060309395,0.11785862,0.037152454,-0.09043799,0.016753301,0.090607435,-0.00018765032,-0.09657129,0.09513375,0.08748317,-0.06871439,-0.111851856,-0.094615445,0.089194715,0.013986483,0.039263472,0.06627789,0.043085918,0.0019425154,-0.13493936,-0.04635282,-0.10744088,0.053914994,-0.088544086,-0.0721249,0.03173992,0.065841466,0.009301245,0.03747706,0.039484456,0.02951634,-0.06453726,0.12657696,0.052442044,0.055314273,-0.0084147155,0.00970237,0.13399938,-0.08755724,-0.019589879,-0.12888955,0.034168452,0.111341,0.057286203,0.07031764,-0.11096641,-0.113542534,0.020404875,-0.093221106,0.10192135,0.038834065,-0.086549595,0.022329211,0.059526727,-0.018252112,-0.13274401,-0.12653205,0.06916599,0.106707364,-0.08637879,0.10578324,0.035123914,-0.08184311,0.07889396,-0.075502664,-0.020883545,-0.092368856,0.021529466,-0.021528974,0.1271013,0.016443998,-0.06489673,-0.13601539,0.036783352,-0.10118229,0.1285654,0.050958738,-0.12376389,0.08886987,-0.08526778,-0.050080888,0.10304123,-0.13513066,0.015045971,-0.08593378,0.0817257,0.12566331,-0.097838566,-0.108019575,0.03508158,-0.13127236,0.0944403,-0.110640034,0.0567728,0.022451729,0.08392955,0.115294516,-0.028774932,-0.056578226,-0.016765378,-0.13157608,-0.12807043,0.08963789,-0.12871961,0.0020398349,0.0075288415,0.03801538,0.11621672,-0.059156604,-0.034898527,-0.03521154,-0.13257246,0.010764182,-0.04192128,-0.08147684,0.022250757,0.07351522,0.11889115,-0.046338193,0.061848864,0.04424733,-0.009279981,0.086775094,0.0021525323,-0.023386642,0.013425574,-0.040995777,0.06707415,0.12662074,0.099521354,0.10216959,-0.064818546,-0.009587392,-0.095501944,-0.11552514,0.04758811,-0.00092694163,-0.055435166,-0.0064076483,-0.021091148,0.13663763,0.047601953,0.07279092,0.066712216,0.115968734,-0.056264035,-0.032758825,-0.019189402,0.1342316,0.09357931,0.07616311,-0.0066119283,-0.10587971,0.01366213
-0.010858625,0.113974094,0.08012734,-0.025587365,-0.003891036,0.11772254,-0.02321978,0.11051999,-0.076783895,0.10621536,0.06822501,0.12073046,-0.008867592,0.111549675,0.09052324,0.08955428,0.122255474,0.12434468,0.011330336,-0.04987672,0.113040715,0.066547975,0.0067082047,0.026634961,-0.01870796,-0.023237802,-0.09013797,0.12593788,0.112910494,0.13258418,0.08888097,-0.03971847,-0.0015777946,-0.08212857,-0.10262316,-0.08150873,-0.09498273,0.044394508,0.073163584,0.12749255,0.02364707,-0.039541557,-0.10156067,0.085882366,0.13380468,0.07580775,0.06623793,-0.09094331,0.032116234,-0.029024906,-0.11400674,0.015916437,-0.13299386,0.060345113,0.0106122345,-0.0328976,-0.011479467,-0.047037363,0.12175158,-0.011260867,0.027762264,-0.044575952,0.09541206,0.03160058,0.13483834,-0.11643048,-0.0066460073,-0.08099452,-0.038062915,0.017314821,-0.037378572,0.10465774,0.088393256,0.004674107,-0.050005578,-0.13161568,-0.13183601,-0.13264765,0.024959505,-0.06659237,-0.090628296,-0.09690719,0.12760699,-0.03195852,0.11086984,0.04593508,0.13573062,-0.072741956,-0.11882746,-0.12505129,-0.12272259,0.12397894,-0.03019151,-0.0998186,-0.034933068,0.033897996,-0.10259838,-0.021754302,0.0040804297,-0.023724176,-0.043183304,0.047071084,-0.08184689,-0.0595311,0.006019935,-0.0029724985,-0.11627902,0.041305065,-0.088130295,-0.045218445,0.06294729,0.1291663,-0.044247262,-0.004661709,-0.09013745,-0.05580861,0.136462,-0.03384625,-0.054643445,0.07421583,-0.003718838,-0.00017975271,0.0154324025,-0.017088093,-0.069280155,0.043903455,-0.13044389,-0.118660085,-0.11553007,0.054451838,-0.0014349967,0.03419538,0.13323057,0.0995948,0.05910936,0.10237932,-0.004319042,-0.058950804,0.062313393,0.1359458,-0.045583174,0.019757554,-0.05433046,0.12855497,0.12700143,-0.0143017545,-0.017245904,0.06708899,-0.029587343,-0.06213589,0.027179345,-0.055756867,0.10150896,0.10897593,0.119114876,0.104296565,-0.11729571,-0.050660245,0.026559845,0.0921132
-0.12855367,-0.13167532,-0.12439381,0.09064461,0.121050775,0.08597201,-0.02352529,0.10457109,-0.12821355,0.094530016,-0.0031748414,-0.046568424,0.09612706,0.079384446,0.04174015,0.06153506,-0.01203952,-0.0378765,0.043964714,0.1317071,0.030171797,-0.018746778,0.124557376,-0.11202766,-0.008871675,0.053820327,-0.035940416,-0.06971011,-0.10811706,-0.09460938,-0.08972607,0.047399387,0.10946979,0.11771259,0.0100218505,-0.090754606,0.09425327,-0.10557319,-0.13379985,0.11362597,-0.01691895,0.09512794,-0.009772718,-0.039225824,-0.04789114,0.09448679,-0.07833589,0.11799997,0.13659224,0.0156029165,0.04321015,0.010164648,-0.09672427,0.027702391,-0.10063712,0.11407304,0.05387856,-0.06823813,0.005417317,0.013151154,0.055043697,0.08466405,0.035517573,-0.09997436,-0.1310789,0.06582567,0.026919872,0.09848736,-0.10843148,-0.04549633,0.05878058,0.1270456,0.1084574,0.039585337,-0.011380151,-0.11524938,0.11744523,-0.10059429,0.11620277,0.031389907,-0.13177502,-0.07898628,0.011575684,-0.10148672,-0.011734962,0.12568158,-0.112488694,0.13570404,-0.1115768,-0.10297848,0.11265412,-0.08430742,-0.045283675,-0.0041715503,-0.03725099,-0.09706122,-0.021617934,0.030220821,-0.10320567,-0.08737354,0.10780777,-0.13569878,0.04958287,-0.039845042,0.112617984,0.019945994,0.12990215,-0.06482018,0.056518644,0.0051495433,-0.03339021,-0.0383884,0.11720842,0.04761654,-0.035743684,0.08460392,-0.055684976,-0.06828609,-0.024903119,0.0073722005,-0.10739243,-0.10086049,0.042932093,0.055663854,-0.10899219,0.04071498,-0.13470168,-0.08893207,-0.09262487,-0.055125803,0.10887338,0.010337159,0.11081855,-0.07935261,-0.011007324,0.058714956,-0.11227626,-0.053450175,-0.119163305,-0.12621322,-0.0064763725,0.05822715,0.13148475,-0.08922592,0.06198013,0.037484616,-0.009489387,0.010539398,0.09690647,-0.0997235,-0.13521281,0.06080547,0.028896958,0.09559159,0.070197135,-0.0065279305,0.07024157,0.0071238577,0.0037312657,0.105119005
-0.049806036,-0.13320936,0.029699579,0.046406075,0.0779659,0.13072872,0.13511235,0.12359628,0.0647617,-0.012853995,-0.05481252,-0.11664307,0.061249882,-0.091686994,-0.03872679,0.10704847,-0.063338466,-0.111079104,-0.07294365,0.05299677,0.12096974,0.031381056,-0.12909698,-0.02741,0.067789495,7.300079e-05,-0.06271573,-0.09117882,0.07002078,-0.091800645,-0.025025606,-0.058006003,-0.056508884,-0.12390933,0.07517271,0.017322108,0.026822299,-0.089393064,-0.021826386,0.045605347,0.08109017,0.07407758,-0.0093918,-0.09691454,0.009345025,0.017545074,-0.0029609054,-0.027171806,-0.07705235,-0.096482754,0.050258428,0.07362051,-0.110158265,0.055995643,0.07417537,0.09864482,-0.053526334,-0.08774121,-0.110191375,0.039871052,0.007175967,-0.11287106,0.051184162,0.12608185,-0.03303273,0.09032546,-0.105550855,0.08658326,0.10554312,-0.12682593,0.04910162,0.03707567,-0.108317316,0.050644636,-0.106665194,0.043733627,0.041058496,-0.075071536,0.040200338,-0.006662622,0.051350787,0.110041946,-0.115333185,0.05226071,0.08812007,-0.05952359,0.042089567,-0.03419979,-0.124301,-0.06494583,-0.1085003,-0.00037635863,0.069479,-0.074747905,-0.019371703,0.12679377,-0.09451118,0.044448793,-0.12049441,-0.13517644,-0.012639962,0.0063963234,0.0064088255,-0.08455047,-0.08754108,0.08605732,-0.06603447,-0.05633471,0.030917674,0.08941853,0.06948547,0.08709063,-0.031181164,-0.10908046,0.075921044,0.120351195,-0.094802745,0.07264063,0.010431826,0.11986098,0.11822528,0.011242092,0.03646159,0.04537557,-0.032216005,0.0031531304,0.10834889,0.01697275,-0.11429958,-0.053452723,-0.03670696,-0.13501722,0.10452065,-0.07429101,-0.014264241,-0.10994564,0.08298056,-0.07957706,-0.12427566,0.10543923,0.034035012,0.11291307,0.10152991,-0.1262648,0.017740965,0.10156077,-0.027094275,0.047936752,0.1368348,-0.058648787,0.0859126,0.1060874,0.021180168,-0.13534068,-0.053903542,0.012704611,-0.012191072,0.045315146,-0.12700889,-0.09247852
0.12567613,0.03718759,-0.096892305,-0.06770011,0.069379374,0.1270912,0.011951998,0.13144258,0.09572989,0.09937075,-0.10661478,-0.10971989,0.100809425,-0.08765374,0.042339087,-0.0056024194,-0.07090146,-0.09308755,0.1218141,0.017666265,0.04450789,-0.09115969,-0.12183293,0.090941906,0.113026485,0.1095375,0.043452546,-0.11299564,-0.01828172,-0.026953109,-0.1319029,-0.12270604,-0.05564303,0.050729126,0.012495279,-0.08647232,-0.00047135353,0.0715846,0.008482322,0.041846186,-0.04530447,-0.06920245,0.026501045,0.10894841,0.023232684,-0.07583279,-0.1112822,-0.12218914,0.020478949,0.055807367,-0.13606165,-0.0071128905,-0.09256396,0.07387659,-0.0010496676,0.092005074,0.12965721,0.07850826,-0.0322321,-0.02988375,-0.09405507,-0.13132104,-0.051162973,-0.050457507,0.037363037,0.12624684,0.12047055,-0.06973643,-0.02449467,-0.010227531,0.05446127,0.045040905,0.082041204,0.07999855,0.05619067,-0.07937269,0.029137373,-0.11569197,0.018636718,0.060693845,-0.05997826,-0.03028752,0.010723203,-0.007985994,0.09004545,0.0107866675,0.04718101,-0.12235652,0.07450628,-0.06137254,-0.13482,-0.095645785,0.0055290014,0.092118785,-0.118283145,0.117191315,0.08757317,-0.08934351,0.10498509,0.117108315,-0.095318496,-0.12425265,0.0029311627,0.09697138,0.0050040036,0.07099095,0.04812613,-0.13089666,-0.13655537,0.10436466,0.09584996,0.09387955,0.017003834,0.13361311,0.05397539,0.058477715,0.0038987845,0.0069167167,0.096462384,-0.05916588,0.008020401,0.12705731,0.03573735,-0.07031822,0.023248062,0.07137647,-0.11772201,-0.08062606,-0.018987253,0.122011006,-0.073037244,0.008442655,-0.060449325,-0.08200794,0.11095348,-0.1362127,-0.03161765,-0.012106478,-0.03858389,0.036736473,-0.053785197,0.060959697,0.06738514,-0.036351472,-0.10677318,-0.10927831,-0.050985567,-0.11933845,0.03646274,-0.004541531,-0.036046386,0.04800847,0.10736674,-0.0772796,0.10397905,-0.020432629,-0.12847205,0.063415214,0.054779947,0.09432441
-0.015133135,-0.0012200773,0.1363824,-0.095869154,0.0045517534,0.08327417,-0.00542067,-0.015190005,0.07995553,-0.05822278,0.0868949,0.13066113,-0.052096374,0.021583825,0.0027380586,0.06765634,0.004423246,-0.05876997,-0.13359208,0.06819902,-0.06174645,-0.1353111,-0.11045075,-0.0057564825,0.09344503,-0.10342127,0.07483171,-0.035698406,0.05575964,0.0730755,-0.086480945,0.044854656,0.08825813,-0.12328049,-0.061550207,0.08185704,-0.00967668,0.009254679,7.382035e-05,0.065495566,0.13204634,0.054455265,-0.081226215,-0.11044602,-0.09342991,-0.10951549,-0.06129089,-0.014816105,-0.0031989962,-0.12154913,-0.081191435,-0.052340247,-0.123776786,0.08945921,-0.0286671,-0.084505744,0.12097958,0.050781786,-0.046088614,0.050106555,-0.08693297,-0.11512169,0.05846253,-0.016187593,0.11508894,0.10363479,0.012291029,-0.03775633,-0.11913268,0.10789774,-0.07862139,0.13382047,-0.10500392,-0.08673082,-0.032573454,0.01928085,0.11299081,0.10268894,-0.1251627,0.039479986,0.09011404,-0.015255362,0.014192119,0.0966329,0.08248922,0.08972724,0.11014697,0.12294811,-0.034229398,0.08244681,-0.124515295,-0.082470216,0.121576995,0.02110058,0.07291639,0.060964197,0.03314519,0.03425783,0.109708264,0.03399235,-0.07587295,-0.102269456,-0.0070314407,-0.10205007,-0.02356711,-0.008802101,0.13382423,0.00046005845,-0.08663291,0.11981827,-0.06808286,0.035080433,-0.11462285,0.01046516,0.04007432,-0.13551022,-0.010740891,0.063034,0.06523433,-0.12669045,0.0034516454,0.10503909,0.04037735,0.018363595,0.023608804,0.11472598,0.09563109,-0.09532784,0.072604746,-0.092831135,0.06070377,0.12961286,-0.058246672,0.08597502,-0.11334535,0.025977328,0.0008317828,0.087395504,0.004042983,-0.05563222,0.016969621,0.12406337,-0.029511511,-0.07267212,0.012251988,0.0059089363,-0.044318505,-0.1343396,-0.10740314,-0.1171708,0.03855732,-0.048957124,-0.09586008,-0.036570564,-0.008325458,0.03873776,-0.05131194,0.10525599,0.07248092,-0.1264251
-0.015712455,-0.04976546,0.10932584,0.022893116,-0.12575668,-0.012815736,0.11245839,0.02059044,0.07813622,-0.09080142,-0.04490242,0.08488017,-0.08626139,0.095375374,0.12468091,-0.10173957,-0.08605568,0.009989634,-0.09618831,-0.022733606,-0.13261725,0.05178988,0.070868656,0.06474042,-0.02181711,0.13146344,-0.0013713241,-0.0795923,0.11314118,0.09048501,0.0181925,-0.13097453,0.10738802,0.13540506,-0.06776678,-0.08642224,-0.085119605,-0.087719955,-0.12822674,0.046248287,0.0023069829,-0.042576373,0.03744191,-0.08656883,-0.121296056,-0.0625541,0.12334412,-0.13092445,-0.06896668,0.1347939,-0.09728978,0.03792815,0.08223072,-0.031261086,0.1328704,0.08055234,0.11742172,-0.022528127,0.1142039,-0.116777964,-0.02837827,0.12348598,-0.07417992,-0.1076569,0.0031900853,-0.049047552,0.00427863,-0.086820565,-0.019024566,0.12537852,-0.07356492,0.08897722,0.07119714,-0.09573458,0.08340123,0.13441375,0.018238336,0.10305472,-0.056779362,-0.00597322,-0.0710135,0.031500906,0.07738763,0.07353364,-0.022292316,0.115531564,0.12269968,0.13181797,0.066979274,0.010909975,0.010452494,0.00054748356,-0.011238083,-0.04715897,-0.13059534,0.0058026463,0.033711255,0.09717688,-0.039244995,-0.00091956556,-0.107593276,-0.07581265,0.069349825,-0.064435825,-0.04748436,-0.060486898,-0.033169158,-0.021988377,-0.124030255,-0.021989323,-0.12053502,0.06495005,-0.095606506,-0.050495245,-0.0726716,-0.115182355,-0.120886825,-0.01788637,0.04938042,-0.10074988,-0.0031271726,0.10332233,-0.028088793,-0.08455488,-0.097568065,0.01884593,0.09760815,0.09735817,0.101433575,0.064845115,0.11825025,0.07326499,-0.052231073,0.051369727,0.102684885,-0.09874922,-0.032018557,-0.104349196,0.018325835,-0.050599553,-0.0664896,0.044598147,0.05844882,0.123909265,0.017513871,0.018326417,-0.10403399,-0.07654978,-0.062461674,-0.06984462,0.08155307,0.100681156,-0.11512257,-0.04433476,-0.088665895,-0.056849293,-0.10122682,0.118264854,-0.035363026,0.027479574
-0.08175071,0.11608145,-0.09458816,0.08372721,0.0886164,-0.080969214,0.020699382,0.05911517,0.11492467,-0.13405478,0.06379467,-0.05127488,-0.08786259,-0.1263331,-0.10087051,0.11384553,-0.093241245,-0.07108667,-0.09531344,-0.013028398,-0.06407374,0.011287868,0.011196449,-0.10185716,-0.017988391,-0.010267809,0.009822026,-0.13466029,0.119104385,0.030685782,-0.03167227,-0.04219313,-0.09226008,-0.052405804,0.08512394,0.015229866,-0.023055762,-0.10408795,-0.11929954,-0.05793839,-0.027112879,0.026701048,-0.10807743,-0.049334913,-0.08966381,0.057580873,-0.0011208653,-0.013465434,-0.0040761232,0.032031253,0.09062052,-0.0026637465,-0.03784983,-0.12947059,-0.022112302,-0.01698669,-0.10556643,-0.013142727,-0.13644503,0.060847282,-0.013256498,-0.12261267,0.026946738,0.12660503,0.1049384,0.07426125,0.054141894,0.013930231,0.08390485,0.086756185,-0.02860406,-0.04007846,-0.043355092,-0.09272331,0.11224358,0.05709143,0.08205858,-0.025958098,0.10973729,0.012321264,0.041728497,-0.086769864,-0.08033685,-0.057433315,-0.05663082,-0.06324219,0.1057038,0.060520887,-0.07116642,-0.019408368,-0.064323716,-0.12574072,-0.0903031,-0.017887317,-0.057919487,0.103669524,0.055111304,0.08192305,0.016954243,0.01660332,0.095645875,-0.09549711,0.114159465,-0.09560324,-0.07089036,0.010502964,0.041758403,-0.031152986,-0.12995017,-0.04789754,-0.12420178,-0.04550769,0.13366577,-0.0026991367,0.057587504,-0.017811477,-0.07970817,-0.09057851,0.015244693,-0.06923007,0.061729312,0.066565245,-0.003921181,-0.09487398,0.13215527,-0.031845234,0.015883297,0.091445476,0.051125914,0.088451564,-0.13561024,0.1319415,0.027195647,0.03137897,-0.08638097,0.13423431,0.008387193,-0.05502411,0.025321126,0.06428231,0.111432806,0.12119803,-0.051530994,-0.027301677,0.064158455,-0.00712353,-0.12040581,0.04086356,0.023490682,-0.03738471,-0.09654096,0.028038055,-0.13598323,0.0651343,0.010912746,0.0662837,-0.0043424517,-0.05818566,0.02533415,-0.071468435
-0.00710617,-0.08128654,-0.04169575,-0.06674343,0.04663019,-0.03683752,0.045535743,0.012822419,0.0005860776,-0.02823551,0.08842343,0.12723762,0.054225534,-0.0055750012,0.085095406,0.10000409,-0.03726627,-0.09355195,0.059117228,-0.045979574,-0.016589016,0.13206062,0.10124171,-0.10191466,0.09656362,-0.07408371,0.021876663,0.09510884,0.0988788,0.0016721636,0.06566377,-0.09558608,0.11509198,0.09612732,0.010704398,0.105991945,0.12930715,-0.11377567,0.1135366,-0.08074682,-0.08392176,-0.03687934,-0.0019363165,0.13255712,0.061134443,-0.07178384,-0.050114743,0.017558232,-0.020689167,-0.0555048,-0.10021578,-0.13596652,0.039868876,0.09952837,-0.032267258,-0.005448818,0.0378163,-0.03678309,0.03139372,0.050943643,-0.12982047,-0.028541118,0.12929443,-0.02193898,0.04780005,-0.056850076,-0.038022302,0.036117136,0.12784165,0.006982073,0.13572708,0.12260398,0.11303797,-0.046343483,0.013792336,-0.09425735,-0.039028183,-0.050094508,0.009308815,-0.114206046,-0.03558904,0.09043512,0.092267364,-0.061027005,-0.11690885,-0.014198586,-0.107419565,0.045044437,-0.062485762,-0.0823093,0.054613963,0.049279347,0.020700589,0.093609795,0.11678374,0.12426108,-0.11519682,0.051715642,0.048646852,0.009088844,-0.08357169,-0.016109668,-0.09803837,-0.108554006,0.05515711,0.05052857,0.1002624,0.10678491,0.067253605,-0.06277965,0.08087163,-0.100521386,0.05388497,-0.055503197,0.08832911,-0.121869594,0.10867794,0.019609109,0.06181501,0.075990185,0.089380145,0.06458688,0.11712104,-0.11848784,-0.014685221,-0.019522823,0.1319584,0.047913477,-0.051365018,0.11455247,-0.057206057,-0.09872167,-0.07837474,0.13610488,0.051615417,0.10832757,0.13391757,0.016100258,-0.05088093,-0.06497525,0.11912134,0.003545016,-0.045650423,-0.08702007,-0.124390185,0.06024286,-0.078025684,-0.019794382,-0.07565118,-0.13428478,0.003721416,0.009799361,0.0052116364,0.058552742,-0.108911976,0.036256894,0.12597969,-0.035889097,0.05889967,0.01906228
0.03660664,-0.112604104,0.0061948597,-0.06884739,0.11552501,0.079312414,0.113270044,0.13551077,0.013401613,-0.09275063,-0.11033818,-0.08672038,0.0038079172,0.021393001,-0.04949978,0.04827562,-0.0741127,0.040183753,-0.03471355,0.05860965,-0.017281912,0.11707923,-0.0049931705,0.12654737,-0.12151116,-0.013695955,-0.10035613,0.115388334,0.12745059,-0.06945148,-0.019718282,-0.0136615485,-0.09598459,0.03482093,0.10234527,-0.07896865,-0.045029484,0.10330312,0.008576781,0.028506339,0.08094999,-0.075262874,-0.0021778643,-0.004640192,-0.07018754,-0.08534218,-0.0876482,0.066120535,0.06066169,-0.028625868,-0.07843148,0.07143371,0.072864115,-0.042338207,-0.13135852,0.09592776,0.12197587,0.057498872,0.08181183,0.13182136,0.10541129,0.09693687,-0.039109737,0.0010036975,-0.07526912,0.00056768954,0.06817503,-0.027595334,-0.113334775,-0.12743682,-0.02920825,-0.03640064,-0.069175065,-0.045888588,-0.041016802,0.03011407,-0.024469241,0.11978021,0.04209584,-0.124559626,-0.036071002,-0.06427788,-0.12797177,0.081544325,-0.042662293,0.07403484,0.103358656,-0.09395944,0.1062728,-0.042466156,0.0067616403,0.06430073,0.004525274,0.098345414,-0.12857884,-0.03302414,-0.12928423,0.045834422,0.09298821,0.039900318,-0.031744912,-0.0143497735,-0.11495108,-0.058399953,0.07059811,-0.12982891,-0.058012664,-0.029959098,-0.006932229,-0.0020050108,0.08010423,-0.048827022,-0.100224204,0.08100708,-0.09079903,0.11749348,0.11471671,-0.1243406,0.0064580888,0.009002984,-0.08953956,-0.025800742,0.07489815,0.059884995,-0.024889633,-0.098944575,0.114053905,-0.043977767,-0.08250633,0.097338066,0.03391485,-0.08508849,0.04219003,-0.06868275,-0.05264546,-0.13428949,0.112557545,-0.06998924,0.10436033,0.023555681,-0.0013193935,0.0604347,-0.12777811,-0.100719064,0.109666705,-0.01937598,0.0017886907,0.034111306,-0.019235171,0.038977772,-0.13018806,0.08351809,0.113458395,0.11124423,0.07589385,0.13351604,-0.11504726,-0.06702253,0.035833567,0.008415237
0.070128545,0.06448692,0.01077427,0.090105265,0.116298854,0.09669028,0.017043859,0.021418884,0.04224807,-0.07861133,-0.059885122,0.014249548,0.10349728,0.10102075,0.035687014,0.11504972,-0.095430054,-0.059584767,0.052724957,0.10870783,-0.075097516,-0.11108841,0.06602386,0.12161538,0.071252376,0.029673368,0.025049567,-0.1071976,-0.08367734,-0.08342233,0.049252287,0.03338717,0.1365585,0.10970062,-0.029610164,-0.006499037,0.010239735,0.12273961,0.014186829,-0.03364721,0.08890131,0.03757073,-0.12200599,0.10435018,-0.07778716,0.04322298,-0.13226068,-0.0052085966,0.015876338,-0.09176721,0.11182326,0.10760118,0.04515384,-0.13612345,-0.00846979,-0.09578319,0.051655322,-0.0034936965,-0.011224523,0.010726005,-0.01949364,-0.10512243,0.10519469,-0.13300104,-0.12927367,0.04670541,0.027560607,-0.014696024,0.13337827,-0.03942197,-0.08603401,0.011902109,0.13520044,-0.07989223,-0.04410649,0.08451599,0.024637595,-0.024160303,0.073098496,-0.03678342,-0.12345858,-0.050270997,-0.1208326,-0.1321508,0.054206535,-0.020041943,-0.1126187,-0.1313262,0.09415881,-0.093094565,0.12783143,0.047775835,0.13215312,-0.03185934,0.063177586,-0.05465752,0.019577116,0.06125246,-0.09582084,-0.03254991,0.13095894,-0.09110321,0.12738496,0.010823011,0.024077192,-0.022808462,-0.010874137,-0.058337793,-0.09599885,0.04806903,0.094224736,-0.033335693,0.124396354,0.04205513,0.08518666,-0.03532114,-0.120151915,0.058029905,0.071958885,-0.030142307,-0.10955058,0.13049498,0.10591447,0.071433574,-0.08208005,-0.08011615,0.076887,-0.047340944,-0.034838945,-0.12051198,0.052544683,0.11356187,0.12846443,-0.09595688,0.08726567,0.0705488,0.073888615,0.09704672,0.019589454,-0.10806303,0.13601339,-0.052272372,-0.03781855,-0.041527823,0.026718214,-0.12080593,0.05013098,0.13635796,0.05678296,-0.09500845,-0.033307746,-0.07966073,-0.08799836,0.07878275,-0.059343018,-0.04529105,-0.008763388,0.008345336,0.10608068,0.090610564
-0.022929229,0.07783401,-0.06809021,-0.012554526,0.11199701,-0.0059728622,-0.048988663,0.057044655,-0.061160564,-0.00047516823,-0.10508776,0.035659656,0.09873116,-0.029768243,-0.12617522,-0.019071512,-0.13182674,-0.082919955,-0.027544506,-0.09189822,-0.10579626,0.047084138,0.06929916,-0.108713485,0.011709169,0.05591902,-0.012291558,-0.039976247,-0.026403464,-0.05487579,-0.0731567,-0.09855291,-0.09549704,0.002855748,-0.050356038,-0.016514033,-0.019877404,-0.124274,0.032551676,-0.047641523,-0.0952979,0.02022329,-0.12716915,0.10265212,-0.08584969,0.1005905,0.07260823,0.028154254,0.06463735,-0.038941048,0.1359596,0.05907552,-0.10385476,-0.07165652,-0.03765793,-0.06484084,-0.0066853464,0.09250973,-0.06520048,0.09825015,0.075755,0.065903336,0.08346735,-0.068629764,-0.08414236,0.07972671,0.051653847,0.019273013,-0.08459464,-0.0712958,0.08060138,0.08705439,-0.11925514,-0.034176543,0.011224881,0.122627616,0.13170388,0.005457729,0.064052254,-0.10364568,0.11525336,-0.13522795,-0.05147948,-0.106361546,-0.084900215,-0.101649955,0.03076525,-0.03331078,0.11154482,-0.087628216,-0.09878798,0.016254291,0.051074043,0.067954436,0.050154537,0.10636611,0.058310956,-0.057492696,0.058022723,0.078628466,0.09182529,-0.07042087,0.08197245,-0.08189909,-0.048055485,-0.029556237,0.09207027,-0.089541584,-0.042256467,0.098249465,0.11547339,-0.042000122,-0.12508556,-0.004152611,-0.067205414,0.113967955,-0.010920167,0.00012484193,-0.059728578,0.112450734,-0.0047620237,0.13198611,0.10040432,-0.11958592,0.10560332,0.038932234,-0.007223338,-0.11421591,-0.035631187,0.02528058,0.084608644,-0.13457945,0.0035863519,-0.09000614,-0.010102391,-0.123512834,-0.07150843,-0.10653734,0.06797804,-0.03580614,-0.10105853,0.08127032,0.12681788,0.091241956,-0.13109173,0.0665718,-0.106883794,0.026442245,-0.11017309,-0.056756675,0.11198397,0.12528095,0.07369426,0.09264146,-0.028422475,0.11240199,-0.047631696,0.014422715,0.089639455,-0.0077783614
0.10901755,-0.018354654,0.10977107,-0.039839715,0.08872838,-0.042039037,0.02066797,-0.13380367,-0.046757907,-0.04975322,0.0077525675,-0.10813145,-0.013543464,0.12445268,0.08333203,-0.029459372,0.055961102,-0.13208991,0.020896345,0.06862147,-0.05330565,0.0047552437,0.07588738,0.030322,-0.047956698,-0.06035305,-0.06528017,-0.113434315,0.023190305,0.02904372,-0.11470845,0.008863807,0.029213935,-0.11966828,-0.09741576,-0.11127792,0.102897495,-0.057878748,-0.01188834,0.0623032,-0.096028104,-0.021510653,-0.0961982,0.11513218,-0.08386809,0.04815434,0.0311874,-0.13119327,0.06433694,-0.012834504,-0.011252373,-0.033965677,0.10189232,0.12456277,-0.09933363,-0.12242162,-0.007274851,-0.090546645,0.123096675,0.01846768,-0.031597897,-0.08220826,-0.0044490397,-0.0002399832,0.045256287,0.09416515,0.1309151,-0.012133941,-0.012748092,0.018253058,0.10677557,-0.002677068,0.010828555,0.10498369,0.013089582,-0.10716051,0.029983059,-0.06402928,0.049183756,0.061516345,0.0962407,-0.022621691,-0.067650065,-0.083631724,-0.08301209,0.056029245,-0.06822122,-0.052634135,0.023820743,-0.11531679,-0.070952095,-0.117476575,0.018260047,0.024466991,0.03030616,0.121110946,0.11517638,-0.13615061,-0.08704589,0.06905329,0.068334416,0.06957172,-0.03994053,0.09984432,0.036626324,-0.048354268,0.02584903,-0.008894727,-0.09190282,0.06933017,-0.10327988,0.0051425844,0.05451332,-0.06871213,-0.071684726,-0.10431544,-0.052309528,-0.11826186,-0.091846734,-0.071210496,0.12169564,-0.09504015,-0.12677203,0.0764918,0.107441634,0.0039917976,0.1032075,-0.10521998,-0.12650257,-0.044832267,-0.09345972,-0.13488166,0.07272819,-0.08380468,-0.10410042,-0.05088874,-0.07951271,-0.07258061,0.06359814,-0.04712809,-0.02655942,-0.09349008,-0.11425698,-0.05712317,0.11104323,-0.13070007,0.066136196,0.0005364865,-0.029966407,-0.05553875,0.102276,0.09340526,0.021662787,0.024461672,-0.1244608,0.09691329,0.0038315207,-0.008228168,-0.039068244,0.026156366
-0.0019919723,-0.056709662,0.09617603,0.085686356,0.11829066,-0.09835397,-0.1281431,0.091509044,0.021189764,0.044463158,-0.06763848,-0.08514047,-0.10769278,0.11301735,0.13383669,0.026277259,-0.004897639,0.085932806,0.010219634,-0.015178025,0.018990219,0.122033894,0.05677989,0.0055232495,-0.022163138,-0.09382573,0.13153914,-0.013830982,0.105627805,-0.08419886,-0.020968556,0.052049175,0.013938814,0.04577537,-0.0137835145,-0.082273096,0.049508557,0.037370414,0.023372114,-0.062783964,0.09130405,-0.006130412,0.080208376,0.079950765,0.00411056,0.09427367,0.047653824,0.03993514,-0.077457495,0.13070735,-0.05476117,0.04847747,0.11882982,0.090871125,0.123442024,0.038133785,0.019975245,0.0029266626,0.025883168,-0.015816562,0.065,-0.027941063,-0.10753582,0.105933875,0.09482817,0.122977495,0.066416904,-0.068879575,0.11247802,0.055816844,0.074839026,-0.070392884,-0.048320644,0.07882102,0.055262566,-0.012658738,0.009997338,-0.09191921,-0.12766254,0.1281606,-0.06275651,-0.11454639,0.13035819,-0.12705071,0.0086964965,-0.06900732,0.058883518,0.03952004,0.074329406,-0.065407686,-0.005311668,0.087782115,0.05576901,0.027019247,0.07823211,-0.055350743,0.025328279,0.05210924,0.03456694,0.11596736,-0.021107435,-0.13050121,-0.098591276,0.13410258,0.097268626,-0.08577988,-0.071600884,-0.127644,-0.08826156,-0.08740945,0.050331384,-0.120901555,-0.068419255,0.1125474,0.13041735,0.09710111,0.010338753,-0.003873244,-0.0608626,-0.05082132,0.055725455,0.03346765,0.021676138,-0.12118535,-0.10183719,0.07840285,-0.120623104,0.12644288,0.020032793,0.124946,0.038276583,-0.01805088,-0.0046756417,0.10919711,-0.13579538,-0.084436014,-0.037605435,0.07419571,0.13542038,-0.07478376,0.08742215,-0.072836764,0.010008201,-0.082646444,-0.046394445,-0.098085836,0.051738724,0.12724283,-0.06593598,-0.08322563,-0.029585548,0.10815352,0.048269585,-0.041065544,-0.075395525,0.13670987,0.07017921,0.047898322,-0.13072416,-0.06879574
-0.030993022,0.017983884,0.03976333,-0.023961715,0.0472641,-0.035327733,-0.036190815,-0.12384711,-0.110202536,-0.06167978,-0.1001293,0.009032264,-0.06896032,0.03918159,0.012175724,-0.043520153,-0.033906713,0.118671656,-0.062400587,0.032803774,0.0793353,-0.031059392,0.12612844,0.1368357,-0.09738971,-0.023350239,0.039723888,-0.005141735,0.10361503,-0.08552906,-0.13161358,-0.018831238,-0.045244433,-0.07670596,-0.0017832071,0.09471887,0.103442594,-0.11473343,0.026058584,-0.028817438,-0.06730107,0.12258148,0.084892154,0.04063444,-0.10754855,-0.033978768,-0.013707481,0.091868,0.030677482,-0.058602132,-0.019062832,0.11399025,0.090645865,0.06490998,0.10572803,-0.007824793,-0.074981004,0.04471013,0.10784981,0.026063547,-0.026691154,0.036716536,0.09451215,-0.09192464,0.07484141,-0.054018326,-0.04209222,0.07071306,-0.09727414,0.0318833,-0.111907,-0.07230795,0.12610257,-0.08666579,0.023657024,-0.12847388,-0.013434976,-0.07722123,-0.061280087,-0.109592535,-0.02903013,0.03641866,0.07036945,0.08023557,0.11932191,0.024253353,-0.0454074,0.034793764,0.10153526,0.12334293,-0.13265176,-0.015346222,0.13689741,0.026343226,0.12560177,-0.025390796,0.019114539,-0.109042436,0.008606225,-0.11477355,0.03230372,-0.04473912,0.09867531,-0.0018164665,0.009329215,-0.010125533,0.11701316,-0.08230016,0.06573422,-0.10729518,-0.082111195,-0.0069510937,-0.025569178,0.014596656,0.047495335,-0.10890035,0.11266999,-0.038244396,-0.012375429,0.131012,0.013110995,0.05133763,-0.112892404,0.07317726,0.058248207,0.08582203,-0.12533823,-0.02440659,0.017176107,-0.06132494,-0.041901983,-0.099966034,-0.013652831,0.02628535,-0.07799538,-0.047845237,-0.024718307,0.1273013,0.055971578,0.056633756,0.07263301,0.13151401,-0.080394536,0.058248475,-0.0026094913,0.027334914,0.120075285,0.11150877,0.020941526,0.09418748,0.045462117,-0.13439944,-0.039984405,-0.08197078,-0.020102695,0.12068036,0.02405952,0.09634857,-0.057059146,0.10679953
0.060927734,-0.009293705,0.02494438,0.008167386,-0.09757903,-0.06966914,-0.11971027,0.12641817,-0.005091667,0.031161219,0.12697989,0.10761832,-0.02637124,0.047413945,0.0011769235,-0.11888626,-0.010404572,0.048515156,0.11413327,0.0026428252,-0.03251782,0.10017902,0.0049025416,-0.102320164,0.08493495,0.03625314,-0.07314684,0.06714192,-0.056387633,0.10838267,-0.10108131,-0.021706276,-0.027088821,0.046603322,0.11828792,-0.011435494,0.010070369,0.10243815,0.11488855,0.029087916,-0.10749145,-0.10041052,-0.11219693,0.066997126,0.020391226,0.10111275,-0.01720415,0.08143306,0.091023,-0.12848762,0.11538416,0.08081721,0.13550279,0.06347121,0.103397086,0.105400026,0.12610129,-0.11119879,0.1187745,0.0121582,0.118680745,-0.046269476,0.024624348,-0.06355374,-0.1139039,-0.117529005,-0.028366975,-0.008313015,-0.055614397,-0.062420703,-0.06524112,0.08945137,-0.057423487,-0.12106182,0.056581333,0.07997632,-0.11396639,0.026763633,0.1096752,0.005032927,0.0038843155,0.061887935,-0.1358532,0.100103736,-0.029087164,0.03750384,-0.10270866,-0.12001966,-0.12642924,-0.0041688383,-0.103826776,-0.10381751,-0.08058434,0.018464908,-0.09940679,-0.11331933,0.03727998,-0.07064306,-0.006903067,0.04530388,-0.06783674,0.11173773,0.03763354,0.023718268,0.054165855,0.028899282,0.07767534,0.06951955,0.08677192,-0.10989413,-0.10552559,-0.10111281,0.03576556,0.13254598,0.1098793,0.13547084,0.073863834,-0.08115278,-0.12638141,-0.0036870688,-0.12407861,-0.043020464,0.09880544,0.10400529,-0.12559567,-0.0796607,-0.12439035,0.13001317,0.10983464,-0.13206017,0.02945055,0.026445523,-0.024308518,0.035921454,0.060577914,-0.09225561,-0.04227174,0.0844904,-0.08910437,0.103973135,0.091083944,0.0016525835,0.020898432,-0.11171924,0.05102645,0.10215491,-0.13140298,-0.06590294,0.11529842,0.02809535,-0.013174914,0.032562554,-0.1317791,0.011564836,-0.038244955,0.09045386,-0.13386403,0.032944977,0.07582793,-0.04066199
0.09146954,-0.035530016,-0.0577968,-0.123677574,-0.063353255,-0.1274517,0.07127197,-0.07208638,0.087104395,0.120583355,-0.13604178,0.08245471,0.12940452,0.103120044,0.11130802,0.12536487,-0.089475244,-0.11883628,-0.030312724,-0.029016383,-0.051461525,0.06794992,0.01851365,0.040246397,0.07617016,0.034267455,0.058091506,0.014802352,0.12052977,-0.08041069,0.069888204,-0.13023658,0.038297325,-0.011221856,0.11228804,0.062234417,-0.006128028,-0.12609138,-0.048872925,-0.0990974,0.03674881,-0.02467727,-0.12850437,0.09378719,-0.08257106,0.0787604,-0.06490607,-0.016892374,0.020097151,0.06787233,0.1120794,-0.09039461,0.08573297,-0.06507306,-0.10248783,0.021359563,-0.10946031,-0.046895966,0.103232026,0.08604066,-0.033287928,-0.05098684,-0.08292975,-0.04739576,-0.06665672,-0.045741253,-0.119049825,-0.106156126,0.11285065,-0.073558874,0.12579724,-0.07492253,-0.024892867,-0.05484373,0.03599575,-0.067901574,0.10444507,0.10127811,0.13586488,0.1199083,-0.072273605,0.08841485,-0.1364367,0.067693904,0.013216957,-0.13499485,0.08374266,0.09077403,-0.0353783,-0.025036871,0.076088935,0.08012739,0.045369267,-0.0020426065,-0.07010546,0.12636146,0.08494817,-0.027473629,-0.08345266,-0.08928648,0.01524508,-0.02374833,-0.11761095,-0.110577844,0.0020332485,0.079391,0.07066879,0.13590196,-0.08466062,-0.07935326,-0.1164246,0.0183575,0.06595501,0.117390215,0.009144664,0.0299097,-0.06354636,0.040697977,0.04704474,-0.099021435,-0.083307475,-0.07794523,0.018584326,-0.13365735,-0.10856759,0.09866607,0.045097917,-0.008871406,-0.09212078,-0.010227233,-0.002713576,-0.08694714,0.10296513,0.0031817555,0.08847511,0.13469255,-0.06789126,0.012178957,0.04518321,-0.111360654,-0.09542904,0.12460524,-0.12252067,0.07249597,0.08493534,0.04428856,-0.062203042,0.0073916316,0.086301476,-0.037575528,-0.029394075,-0.07892741,-0.06691685,0.09479733,0.00066387653,-0.022707164,0.016163632,0.059687123,0.10327189,-0.082740106
-0.105600774,-0.07471399,-0.03675528,-0.022516243,0.0371124,0.13100702,0.046453893,-0.05920914,-0.134519,0.06460321,-0.13629399,0.12524825,0.1029426,0.027677506,-0.12520473,-0.015422024,-0.12557931,0.13384217,-0.07966713,-0.12153794,-0.08855212,0.10883881,0.081873655,0.0356403,0.12421498,0.03705445,0.1320082,0.10543536,-0.024465978,-0.025893487,-0.12327223,0.1145671,-0.05775266,0.0008466989,0.07885791,0.024515733,-0.054682232,0.10575317,0.046020016,-0.024158575,0.011474147,0.07961346,-0.021203317,-0.029642746,-0.10591621,-0.02832561,0.052525222,0.061249137,-0.09247738,0.11165552,0.03165768,0.0957873,-0.049856707,-0.08622414,0.043271482,-0.06813171,-0.05480381,-0.0901286,-0.08402029,0.13428682,0.021065578,-0.10671609,0.015178546,-0.06690095,0.048584267,0.029047832,-0.010792479,-0.029477715,-0.11606097,-0.011413977,-0.03353229,0.087855995,-0.13311212,0.034077585,0.08222227,-0.0037439615,-0.0016453266,-0.09565456,0.11302635,-0.02988208,-0.0050350875,-0.12072934,0.016001865,-0.088790245,0.014010772,-0.01043646,0.11847842,-0.030518726,0.13612565,0.12534335,-0.022222817,0.13423297,0.07684174,-0.07667622,0.030821174,0.10277414,0.07579248,-0.01402396,-0.062355928,-0.10866605,0.030576542,0.11548275,0.06134413,-0.114851415,-0.037499987,-0.07775909,0.08489588,0.09192355,0.116203636,0.012402654,-0.08687244,-0.11019748,0.07873206,0.0922976,-0.026729703,0.08768904,0.13391304,-0.016117305,-0.0977229,-0.022397473,-0.028156273,-0.1151164,0.07299811,0.025665745,0.1265283,0.09309271,-0.00026091933,-0.042047754,0.049715146,-0.07276295,0.06539427,0.114267826,-0.008166432,0.06739375,0.009049669,-0.03145621,-0.015771933,0.13089663,0.09026718,-0.12535496,0.09581773,0.04098399,-0.095846005,0.021891966,-0.12955812,0.02681084,-0.13260557,-0.13175769,-0.103064775,-0.064688966,0.08801283,-0.1274173,0.022481248,-0.049482606,0.031385407,0.0670207,0.062122673,0.11305995,0.02674514,-0.06173554
-0.12222244,0.07550335,-0.096084654,0.06292248,-0.076164484,0.10998005,0.11396071,0.1324755,0.09710804,0.028623998,0.1264439,-0.09912926,-0.13065113,0.0129855275,-0.07891273,-0.054118484,0.05204907,0.022801518,-0.06235279,0.027911812,-0.044677384,-0.09886274,0.040521055,0.04012966,0.1157102,0.040199876,-0.107743874,-0.060862437,-0.06310324,-0.029765308,-0.100978605,-0.0039532334,-0.103612155,-0.11100529,-0.1333248,0.07798843,-0.039614357,-0.11442165,-0.08793049,-0.059723914,-0.036592633,-0.11352007,-0.10425341,0.0029101372,0.04999274,0.12219632,0.01526542,-0.040703125,-0.10704197,0.033272386,-0.08174434,0.09840208,-0.01831267,0.045737818,0.082806125,-0.0006673038,-0.09746963,-0.011819914,-0.069407314,-0.0067585707,0.09021981,-0.047659285,-0.002061978,0.00447689,0.11022399,-0.09957424,-0.0853149,0.02700521,0.11050935,0.056355476,-0.044184744,0.10134259,-0.019993067,-0.12709285,-0.006638497,0.05008386,-0.07209842,0.03993061,0.074201405,0.108197376,0.097960606,-0.051987007,0.014987633,0.051936343,0.054993585,-0.10768413,0.11217238,0.022105083,-0.07566555,0.12531948,-0.015793517,0.08227894,0.0008062124,0.046774685,-0.085627064,-0.053399116,0.013474539,-0.024709947,-0.117166564,0.035818055,-0.11817642,-0.12417831,0.11523089,-0.116059504,0.07009049,0.061847746,0.06268716,0.0999562,0.09462498,0.10635844,-0.015758194,0.11325604,-0.117411606,0.024041831,-0.050937057,-0.08086099,-0.10371,-0.05972545,-0.07806652,0.053083584,0.043810025,0.024830252,0.10355587,-0.013837315,-0.0774588,-0.118679285,0.01399079,0.033777237,-0.05597256,-0.002845496,0.10487379,0.09276454,-0.023232877,-0.08901779,-0.11184134,0.12962568,-0.034576528,0.07359022,0.034310788,0.08767745,0.006777346,0.04408616,-0.11787751,0.08603355,-0.06588965,-0.056234747,-0.06959193,-0.022443704,0.091734886,-0.011757448,0.0059165508,0.10296552,-0.100035965,0.013271973,0.1345796,-0.04700902,0.038984343,0.054756045,-0.11088166,-0.1313835
-0.10336584,-0.12612125,-0.08720848,0.075841635,0.0026854575,0.106829464,-0.08397533,0.020779952,-0.06574401,0.06674856,-0.042659946,-0.12820542,-0.10680283,0.019732222,-0.067258894,0.037921295,-0.048138373,0.0828131,-0.05413585,0.014672622,-0.05859045,0.10205573,-0.068667926,0.12845871,-0.057870418,0.08116372,-0.05519417,0.1297682,-0.080327444,0.0955006,0.08842796,-0.11288506,-0.03742575,-0.042653255,-0.1331316,0.052361786,-0.07746036,0.031385988,0.093548,0.040947035,0.027330443,-0.08060938,-0.10154258,0.027942732,-0.016330324,0.010048524,0.009307504,0.07974744,0.08623789,0.11635947,0.12697709,-0.072676435,0.07412736,0.011613935,-0.08692017,-0.060169965,0.05657588,0.0060082525,0.05825536,-0.004114151,0.051790997,-0.055837795,0.091883406,0.0676195,0.07779823,0.085841194,-0.033759803,-0.06582344,0.11601201,0.018214151,0.016351908,0.055120215,-0.01931914,0.053424478,0.039665878,-0.065206744,0.08099797,0.03340487,-0.041135304,0.12981305,-0.041988693,0.107647434,0.005282417,0.008824438,0.06622559,0.05779122,0.005640164,4.142523e-06,-0.092984706,-0.043970227,-0.06505445,-0.08719036,0.07895304,-0.10743063,-0.09977443,0.053439558,0.019815996,-0.07852259,-0.0073129237,-0.02991724,-0.042458616,0.061441496,-0.0026762486,-0.069694184,0.006483063,-0.032628886,0.053352103,-0.13658282,0.11646134,-0.028571054,0.10811442,0.008008584,-0.0811774,0.109019354,0.10067427,-0.09715341,-0.04708323,-0.09457497,0.012488022,0.0033798963,0.07290515,0.058870256,0.09472358,-0.037857994,0.040256187,0.013357833,-0.10931288,-0.13345666,-0.11166325,0.0089957565,-0.1071945,-0.06497411,-0.04605727,0.05303344,-0.11759306,-0.011100277,-0.06609448,0.03615856,0.013473138,0.09546965,-0.029117458,0.023647875,0.13462228,-0.07392922,-0.12789714,-0.09835018,-0.0350613,-0.13212284,0.014196068,-0.07890205,-0.0059900433,0.093065545,-0.10390363,0.088240206,-0.013712473,-0.089176685,-0.110861644,-0.04029057,0.027984187,0.00041510165
-0.046941802,-0.03300596,-0.13632952,0.11149874,0.08158161,-0.004702702,0.087363064,-0.003064692,-0.0018072873,-0.0023857057,0.109962806,-0.12456893,0.09271884,-0.004265696,-0.03264994,0.064944044,-0.13136244,-0.0038788915,-0.05009477,0.10311185,-0.06715815,-0.056312352,0.119881034,0.06455296,-0.044656657,-0.06789753,0.08215195,-0.059084065,0.10890463,0.02172038,-0.061566755,0.044395745,-0.09277724,-0.0392287,-0.02295877,0.015550956,-0.028776854,-0.07986282,0.123537034,0.059725016,-0.13633609,-0.015462771,0.0016506612,-0.10223972,0.11416456,-0.019118033,0.025188416,-0.0010863245,-0.036151707,0.044358075,0.13208368,-0.08134925,-0.10716936,0.118604094,0.017237648,0.059979275,0.014484838,-0.12023236,0.06436014,-0.056714036,-0.10460959,0.0833824,-0.07078024,0.034153923,-0.09330991,0.017169118,-0.09109511,-0.099319234,-0.12442427,-0.038248613,0.10712287,0.028038517,0.07478483,0.12205398,-0.04807935,0.10893388,-0.1319428,-0.11727942,0.0039237887,0.026987001,0.088233784,0.13578725,0.02662693,0.070590526,-0.021531977,0.12866879,-0.041143432,0.024247631,0.10368261,-0.08272526,0.029030517,0.04610102,0.03544271,-0.06808995,-0.04447677,0.0016286522,-0.09611005,-0.1366366,0.12872678,-0.09085189,-0.025549918,-0.07279929,-0.0031409562,-0.047228083,-0.114021234,0.021425515,-0.120656565,-0.052794494,-0.10590778,-0.09117363,-0.08666445,0.13581488,-0.11471201,0.11923915,-0.05465334,0.100887164,-0.1287312,0.117417276,0.09673329,-0.10606619,-0.10105422,0.09487711,-5.811453e-07,0.115012705,0.12642664,0.11711463,-0.11272219,-0.057905383,-0.055795908,-0.08022934,0.1279144,0.085039556,-0.053040944,0.008298919,0.017046005,-0.04644949,0.10465045,0.12385148,0.08278823,0.038947746,0.0049891174,0.05046022,-0.030812487,0.05463463,0.02043347,0.10074286,0.0106740445,0.10766761,0.10715908,0.061677203,-0.0957274,-0.07847428,-0.020157315,-0.07250181,0.04797481,-0.040134974,0.107957214,0.118726134,-0.011744857,0.10049592
0.09764537,-0.13121285,0.055842534,-0.055615865,-0.004426554,-0.12849008,0.124180466,0.016902491,-0.09956353,-0.12742966,-0.043074757,0.08045356,-0.022135578,0.1146,-0.114610866,-0.10888508,0.053258702,-0.026731603,-0.100187734,-0.13616443,0.096549734,0.032327846,0.07214132,0.12809554,0.10521492,0.049910218,0.039292976,0.0070056766,-0.0468961,0.02093774,0.00717178,0.1066093,0.06868601,0.010265857,-0.12172604,0.05586268,-0.112851925,-0.041444667,0.036071002,-0.05315002,-0.013362177,-0.12878318,0.048965514,0.12716663,-0.07971228,0.06078513,-0.05133871,0.097573966,-0.02641192,0.0410551,0.059209585,0.02734764,-0.02507069,0.06524347,-0.0036937892,0.044405833,0.06385647,0.08333552,-0.03369435,0.042823866,-0.04802466,-0.008227065,-0.017874882,0.04742138,0.0040891767,-0.05175025,0.12597245,-0.13502988,-0.070248455,-0.10498668,0.023224816,0.06923576,-0.005173743,0.061199352,0.08261624,-0.015392646,0.011758864,-0.038260333,-0.027731963,-0.10170062,0.09686178,0.10819015,-0.049396187,0.09822798,-0.1312262,-0.11681411,0.03354855,0.07882011,-0.042517543,-0.09993714,-0.106984735,0.00277178,0.10198361,0.09431189,-0.1280086,0.031938434,0.08069044,-0.012973778,0.13150752,0.10571399,-0.098884314,-0.0532777,0.022652611,-0.0349456,-0.07428383,-0.07535468,-0.07468803,-0.11681348,-0.07393931,0.028658673,0.07944706,-0.12124437,-0.05058963,-0.08758493,0.00824897,-0.04211866,-0.12707166,-0.08196165,-0.1288788,0.024022117,-0.10471745,-0.04841865,0.057807863,0.119074136,-0.086177126,0.049443558,0.1199128,-0.093971916,0.016336724,-0.004688278,-0.1304477,0.07049808,-0.011048436,-0.032089658,0.03995365,0.0876562,0.12669772,-0.10461918,-0.0745372,0.03645128,0.0633671,0.025726408,0.07604784,0.07541028,0.016424388,-0.00902456,-0.045786202,-0.04537061,0.065273374,0.086336285,0.09003256,0.083431825,0.025050089,-0.0008517504,-0.01725123,-0.09771745,0.12927315,0.120397985,0.066373706,-0.016605668
0.11525652,-0.039304994,-0.11895844,-0.0811615,-0.021714404,-0.033577733,-0.08181176,-0.103544906,0.07941565,0.09854096,0.01738736,-0.07374392,0.11924383,-0.052183382,-0.05000169,0.062035665,-0.13400847,6.8336725e-05,-0.026627198,-0.015256703,-0.006236419,-0.06115903,-0.11203328,0.018602833,-0.04786349,-0.0007380843,-0.068217956,0.06475857,-0.010225534,0.10424025,0.02816084,0.110144004,0.06862068,0.106011406,0.04671912,-0.09874746,-0.13349676,0.012604058,0.10748766,-0.101330176,-0.007951781,-0.08724504,0.062303558,-0.11714724,-0.12091905,-0.06394257,-0.13372721,-0.019220546,0.09361124,-0.08064774,-0.024611905,0.10686463,-0.112496726,-0.10069605,0.044852108,0.091776684,0.11975327,0.13039148,0.10276608,0.082922995,0.06468269,0.12511563,0.117274106,-0.066379614,-0.010136962,-0.1331939,-0.091348484,-0.07760075,-0.037835203,-0.08477831,-0.04564677,-0.04608032,0.049424782,0.13052458,-0.053405024,0.08834964,0.12713212,-0.03305091,0.03355445,0.03291425,-0.099412054,-0.13459162,-0.092632934,0.05633135,-0.082140416,0.115437925,-0.037641443,-0.10185834,-0.13072951,0.07608858,0.02823016,-0.011145756,-0.13277271,0.065223366,-0.03605181,-0.10857461,-0.0028376281,0.13099468,0.095649675,0.040686443,-0.1126262,-0.08662472,-0.0051703006,-0.019756116,-0.07786626,-0.07074574,-0.033953533,-0.056327008,-0.09067978,-0.037796646,-0.13460171,0.034971848,-0.10574661,-0.09229234,0.10544117,0.07056944,0.096614376,-0.13460854,-0.11344841,-0.096021324,0.081559375,0.0471562,0.042197824,0.11683658,0.09250428,0.11456314,0.1270515,0.13159633,-0.052507855,0.112782285,-0.023259118,-0.13012773,0.031440675,0.10027863,0.013584569,-0.07687573,-0.05450385,-0.06783161,0.03309247,0.09400858,-0.06782156,-0.028132148,0.11532089,-0.09526268,0.09151214,0.10248895,-0.03312414,0.100314245,0.0121831745,0.006400764,0.12663978,-0.09269135,-0.0045652986,-0.053557254,-0.026578844,-0.010206267,0.06012416,-0.03841602,0.119219005,0.0015726984
0.050964937,0.012077779,0.13610187,0.12647018,-0.11620377,0.081393525,0.07071726,0.029159188,0.06892499,-0.008231863,0.03507553,0.013999179,0.07161006,0.07287744,0.07909052,0.10107446,-0.028792366,-0.08137909,0.08058578,0.11539641,0.05834736,0.12028393,0.022144526,-0.03536632,-0.094437554,0.014513209,0.11870521,0.11579412,-0.11287168,0.12408808,-0.030238517,0.1219269,-0.09833692,0.049927354,0.031083196,-0.011008203,-0.05429004,0.1362912,-0.09779522,-0.09665751,-0.113900185,-0.051530994,-0.08748552,0.006637126,-0.016666457,-0.113291934,0.053942457,0.010859206,0.050903007,0.040584818,0.09704006,0.00702253,0.0031051338,-0.06242165,-0.13404359,0.026842177,0.13555107,-0.078857586,0.026089206,-0.13483746,-0.026640385,0.037368417,0.044664532,0.04369159,-0.015476614,-0.027641498,0.07123886,0.017220184,-0.032692224,-0.09060642,0.11982277,0.09627117,-0.113940105,-0.11577636,-0.1155761,-0.0037778616,0.0013714284,0.02802679,0.053178355,0.049089372,0.033120945,-0.018135726,-0.10924083,0.015480816,0.07256815,0.008804128,0.07187955,0.010297194,0.051867068,0.054665193,0.11411902,0.08279434,0.12150267,0.12550372,-0.024489649,-0.07601764,-0.110955246,0.08781998,-0.05410014,0.020838752,-0.034388877,-0.0943577,0.03924437,0.034584045,0.07886477,0.047405154,-0.0074083805,0.050073937,0.11691654,0.10790835,0.086881876,0.10197815,0.054341167,-0.083419584,-0.10890816,0.105415314,0.056127936,-0.06417619,-0.10145737,0.091010064,0.004952386,-0.007056743,-0.049625374,-0.06830927,-0.10689343,-0.11861203,0.03728886,-0.01758553,-0.05142522,-0.007575363,0.070668265,0.025747001,-0.1297539,-0.12335094,0.124435246,0.007315144,-0.014423557,-0.108514406,0.0435977,-0.03040786,0.026850507,0.050428018,0.01589626,0.079045996,-0.09991282,0.045309424,-0.0237405,-0.0067248493,0.017140627,0.10376723,-0.09399709,0.10499224,0.005776748,-0.069877625,-0.04002218,-0.110015765,0.0024655163,-0.08043635,0.08614732,-0.0005598217
0.0045337975,0.060127452,0.06351192,-0.028530538,-0.08787878,-0.05080144,0.038363814,-0.09697555,0.04632768,-0.086303115,0.13418597,-0.11006147,-0.023342371,-0.071900025,-0.11807972,-0.028771602,0.100883216,-0.09615295,0.04922542,-0.13640088,-0.1210514,-0.08986704,0.042768076,0.0926045,0.1153751,-0.050157577,0.029883713,0.07724434,-0.09440775,-0.027838878,-0.08297151,0.061519414,-0.123690404,0.007124841,0.027703762,-0.03436233,0.025949776,-0.13197358,-0.0057176054,-0.13135397,0.13256907,-0.028020494,-0.101159535,-0.101930685,-0.1345567,0.095458135,0.015513346,0.034498334,-0.0953946,-0.00083220005,0.02108556,0.123668194,0.112517595,0.039411724,0.10286513,-0.12664774,-0.05017309,0.13306046,0.029643953,-0.04094726,0.086744666,-0.09814878,0.039106086,-0.100566015,0.033440024,-0.12508543,-0.089382164,0.023440868,0.10035506,-0.11716029,0.10032496,0.07244983,-0.095892265,-0.027254082,0.09874073,-0.027774893,-0.052770823,-0.013854459,-0.015354514,0.11597991,-0.1102964,0.019897908,0.07251947,-0.041217573,0.063252866,0.12783054,0.11048986,-0.10297431,0.0696377,0.10193659,-0.12951179,0.120364785,0.101278365,0.017599374,0.009012222,-0.015607394,-0.055530623,-0.083475836,0.038532674,0.028426036,0.08341247,-0.011208534,-0.08689925,0.13077235,-0.12550233,-0.028693214,0.006138712,0.090917096,0.023249462,0.08927198,-0.1021025,0.07738483,0.018125176,0.043863147,0.07082699,-0.08162868,-0.053432904,-0.13209096,0.05764562,-0.10352996,0.10334259,0.08630213,-0.009932533,-0.01618965,-0.08995433,-0.028318495,-0.12068406,0.031140849,-0.11402558,0.081847444,0.10609378,-0.05957122,-0.053811766,-0.058971502,-0.03767334,-0.12260904,0.10368055,-0.08338263,0.05414337,-0.005460143,-0.09106537,0.11042453,0.12089953,-0.111294284,0.07519589,0.1137633,0.042271778,-0.076749414,0.024117216,-0.055598788,-0.12391505,-0.092086464,0.0063580573,-0.04088053,-0.05885054,0.01123713,-0.05096069,-0.0184872,-0.08324012,0.10990803
