0.108231604,0.00083418033,0.0012313277,0.109339036,0.09379713,0.100908786,0.106813826,0.05452777,-0.0559253,-0.13205084,-0.09650094,-0.08274352,0.13492641,0.049336303,0.1148797,0.09726209,0.103186674,-0.11358061,0.01718607,0.05756651,-0.04683257,0.00052737363,-0.013587103,-0.048136383,0.10575626,-0.00729113,-0.10886952,0.0037842176,-1.0600887e-24,-9.137413e-31,-1.3631798e-26,-1.2147324e-13,-0.0008907218,-0.0009311457,-0.00077277364,-0.00078269513,-0.100372635,0.11782389,-0.06707976,0.08523797,0.059159003,-0.09457093,0.06067976,0.12770036,-0.028382536,0.03045556,0.049127575,-0.08770994,-0.048890423,-0.037144117,0.11069937,-0.12114902,0.019993398,0.07030891,-0.12185866,0.10274669,0.06307055,0.06482715,-0.051591747,0.13356282,-0.13238627,-0.115474194,0.10335488,-0.014454635,-0.00023068002,-0.00044867754,0.0002475023,-0.00021642218,-0.021605702,-0.08728998,-0.05264204,0.08427653,0.09012905,-0.11586248,0.032814506,-0.0070029143,0.019870313,-0.09308731,-0.024464468,-0.11402708,0.0056455517,-0.00052269537,-0.0011844384,-0.0011664984,-0.058127146,-0.04190784,-0.020824855,-0.008946976,-0.0025624125,0.0031686195,-0.01939418,0.0012385461,0.10199571,0.08261478,-0.023161072,-0.09802075,-0.11669539,0.037480105,0.08457408,0.1258892,-0.11623725,-0.11217072,-0.086810656,-0.073997505,0.093816265,0.0014735842,-0.04327253,-0.085409015,-0.11215789,0.11871282,0.037869714,-0.12294881,-0.006932959,0.075635426,0.082417056,0.08916206,-0.10490681,-0.1051515,0.093497075,-0.09572794,-0.05911231,-0.1030325,-0.039061673,-0.08678698,-0.10376109,0.047288172,-0.06270479,0.06581565,0.050638754,-0.08480983,0.009769352,0.0711753,-2.2061083e-06,-2.7775152e-12,-2.9070468e-06,-9.960977e-13,0.0037988573,0.11017935,-0.10915356,0.022386938,-0.0013903683,-0.0068306476,-0.0022854193,-0.0012778974,0.07492015,-0.067226,-0.07958676,-0.042884044,0.13221645,-0.027121935,0.11597993,-0.0021263817,-0.014153102,-0.009169131,0.018364934,0.014892401,-0.033131186,0.09399354,0.0202419,0.127563
0.08152371,0.019431215,-0.004487151,-0.00063258014,0.024144296,0.060511444,-0.0780455,-0.07947925,-0.033128425,-0.105656385,-0.075181104,0.027507383,0.11121426,-0.095068716,-0.01297209,-0.1046052,-0.04552352,0.09808379,0.010285769,0.1288849,-0.113763414,0.04821323,-0.01910484,-0.08955894,-0.08392654,-0.018494407,0.046892773,-0.08607985,-4.2831132e-29,1.6323302e-23,4.5292625e-31,7.2419715e-29,-0.00051032036,-0.0005547104,-0.0005267271,-0.0005354797,-0.112841226,0.0840508,0.052026015,0.033020873,-0.06339377,0.046070293,-0.01114201,-0.04130374,0.08259448,0.06299474,-0.025146697,-0.0343563,-0.112412445,-0.068947725,0.080176316,0.0207197,-0.11588314,-0.118690416,-0.010116609,0.09573296,-0.085802786,-0.06785973,0.053632993,0.021084603,0.024750147,-0.009743738,0.051136896,-0.034193423,-4.4619904e-07,-5.0729145e-06,-3.732914e-10,2.3496413e-14,0.015662134,0.004813729,-0.01677318,-0.0070249187,0.010539983,0.08732648,-0.05193939,0.07390401,0.05117396,-0.10483396,-0.060166143,0.00437064,-0.0003731162,0.00092688965,-0.0025985434,-0.00050938403,-0.08552633,-0.036712322,-0.0076653124,0.038962316,-8.8287416e-05,-0.0025432294,0.0045760046,0.0008538163,0.14219067,-0.05059667,0.12590878,0.029687677,-0.055005923,0.016645204,-0.063831724,0.051762007,0.039972477,-0.012338634,-0.024045914,-0.021220667,0.10028771,0.029185224,0.037816748,0.0016751023,0.1129764,0.089055136,-0.046284735,-0.022728978,0.11325069,-0.058208045,0.054781504,-0.08946335,-0.05545209,-0.03917991,-0.13542405,-0.09606849,0.09340775,-0.058257412,0.017322311,0.040859982,-0.08509857,0.08163616,-0.004696803,-0.06647087,-0.021672655,0.015909944,0.002909638,0.024076698,2.9903745e-25,3.1797923e-26,8.172463e-26,-2.788267e-26,0.031847253,0.0080275675,0.08698098,0.12515688,-0.00011788426,-0.0003563254,-8.110823e-06,-0.0014786937,0.1216405,-0.109418996,0.017346995,0.021342443,0.10805432,0.017251812,-0.055969484,0.055057388,-0.01727337,0.019945137,0.025543192,0.04365583,0.02210776,-0.019818576,0.004213684,-0.0728094
0.09003356,-0.025078671,-0.061850492,-0.07672098,-0.021325683,-0.04340449,-0.02153566,0.09281826,0.08930588,0.06263383,0.13805667,0.01910649,-0.0857736,0.07681884,-0.09060985,-0.029799428,-0.045259032,0.059277136,-0.037796117,0.09872005,0.07878023,0.07986195,0.036872357,0.018346384,-0.11531739,0.094711706,0.010995056,-0.00214931,-6.807413e-25,-1.71508e-30,-3.8792479e-22,-2.715662e-22,-0.0007532149,-0.000762869,-0.0005620016,-0.0007113676,-0.07027871,0.11349505,-0.04261017,0.0074516633,-0.07442395,0.107249446,0.04430994,-0.12370109,0.12511022,-0.0047698733,-0.078879945,-0.09447922,0.08578488,-0.06324601,-0.07296118,-0.07765968,-0.07322439,0.09972697,0.11034804,-0.06698491,-0.013162053,0.12193841,0.07674629,0.011660479,0.08722675,-0.03817805,-0.10950353,0.04038055,-0.00012840367,-2.4238645e-05,0.002539645,-5.835143e-06,-0.0028816394,0.065222144,0.01520937,0.053366993,-0.089977674,-0.07210979,-0.10650279,-0.07673913,0.02685892,0.030400956,0.012130638,-0.018407688,-0.0010016037,-0.00061246834,-0.0012940072,-0.0025243629,0.07209603,-0.036327798,-0.034741316,-0.023103094,-0.005761998,0.00067873416,0.027750505,0.0006964441,-0.03786229,0.14319652,-0.024034047,0.009633116,-0.03302397,-0.066572726,-0.05091693,-0.100977205,-0.05225259,0.08729056,-0.024492761,0.09168449,-0.028282696,-0.05716749,-0.03434432,-0.12807491,-0.12519848,0.10871188,0.070418224,-0.13272895,0.089842655,-0.046674497,0.005205918,-0.026732082,0.07417889,-0.007514969,0.0754206,0.03556218,-0.020672614,0.020682666,0.02396294,0.08087075,-0.09821763,0.07898225,-0.0916141,0.026975581,0.05439642,-0.051996935,0.06524962,0.0016367793,-4.6444654e-08,-2.8906306e-27,-1.0269447e-06,-2.4288186e-23,0.032326438,0.00825325,-0.09988551,0.0226338,-9.794195e-05,-0.0034803925,-0.0012867801,0.0003760057,0.04886412,0.0021938393,0.115211025,0.054037053,0.11534128,0.0062688873,0.14632405,-0.069795266,-0.01492849,0.010905085,-0.017203445,0.034333523,0.06540164,0.13802697,-0.028975483,0.040286716
-3.9211196e-07,3.617661e-09,-1.5164827e-07,5.028109e-07,-3.4658096e-06,-1.2931356e-05,2.7717515e-05,-5.0342154e-05,0.00017663292,-5.0956947e-05,3.3046872e-05,0.00013365975,5.944586e-06,-0.0014851717,6.301452e-05,0.00018280924,4.539998e-05,1.1287952e-05,5.1637727e-07,2.3068249e-05,0.00016761388,9.064193e-05,4.3240212e-05,9.3398834e-05,-3.3932764e-08,-1.050959e-07,-7.7327733e-10,9.6309005e-23,-2.0563644e-22,4.789138e-25,2.7322136e-32,1.4357617e-33,7.191599e-33,-3.0806414e-26,-7.466195e-33,-3.6007914e-29,-8.1102564e-07,7.954917e-07,1.261885e-07,3.8610037e-10,-5.4305885e-25,2.6195674e-32,-4.4562515e-19,-1.9550775e-21,0.000234934,-0.00013965611,0.0001977081,2.779046e-05,-4.3751705e-24,1.3132114e-16,4.8961397e-25,8.079389e-24,-0.00019464156,-0.00020779908,-0.00018858521,-0.00027812723,0.00024660063,0.0002002931,0.0005902707,9.166919e-05,-4.473731e-07,-1.2754452e-07,4.5751384e-14,-3.950129e-09,8.226154e-26,6.1038323e-33,3.270279e-20,1.6539041e-19,3.908436e-08,-2.9670232e-08,-2.6268046e-07,1.0946096e-07,-3.9193423e-05,-6.5493485e-05,-9.841723e-06,-0.00013478199,-1.2276851e-23,-7.072084e-10,2.345606e-23,7.8573254e-23,3.9896606e-22,4.5896057e-26,-1.8117093e-21,5.3037993e-30,-1.04212154e-22,2.1243274e-09,6.3195085e-23,2.4547016e-09,-7.749202e-08,1.5095364e-09,3.8003083e-07,-4.061181e-07,-0.00014984727,-0.00031014963,-0.00022429193,-0.00014054394,-0.00048140666,-0.0005171628,-0.00042141642,-0.0006396956,-3.053416e-05,1.0849629e-05,-2.6129233e-06,-4.9948003e-06,-3.9331934e-18,-6.690559e-15,-9.999719e-08,9.329788e-08,-2.0747879e-05,-6.312632e-06,2.4714395e-06,-4.2676193e-06,-1.695491e-05,-1.959599e-05,1.871748e-05,4.433234e-06,0.000475692,0.00017010617,0.00032486478,0.00028334485,-4.4544482e-10,-2.0409427e-10,-2.5152876e-23,-1.8094349e-09,0.00014749433,0.00014771,-6.497147e-06,-0.00034627554,1.1609411e-08,9.297558e-08,-1.4079065e-07,4.3254103e-09,9.5523125e-33,2.467281e-32,5.678544e-19,7.617934e-33,6.311503e-05,0.000106913954,-3.7482823e-05,8.277495e-05,-9.00199e-19,5.0564244e-25,8.20858e-25,7.9881393e-23,0.0013975987,0.0006163938,0.0009480952,0.0011432044,0.00034048737,0.00023564325,0.00027987463,0.00022815952,-2.0208259e-07,1.960311e-08,-7.065559e-08,-2.3078316e-07,-2.0119025e-05,-1.7418464e-05,-2.9254043e-06,4.4567687e-06
-0.078691095,-0.039854232,-0.04363351,0.032813527,-0.08006106,0.033415448,-0.08700104,-0.0605466,-0.07251286,0.050605427,0.113780454,-0.053551145,0.012378315,-0.0705118,0.008968403,0.12413183,-0.07492443,0.124375954,0.049665816,-0.08579164,0.031492345,-0.022455499,0.09148591,-0.07816891,-0.08934222,-0.08373435,0.060361482,-0.088648744,-1.3083441e-29,7.705454e-29,1.0259059e-30,6.456061e-30,-0.00045887727,-0.0005999937,-0.00041914068,-0.00048100436,-0.039319433,-0.0517929,-0.019221636,-0.09673951,-0.1293947,0.08708249,-0.12107684,0.009396554,0.08809364,-0.08239762,0.1188716,-0.041730847,0.09550611,0.06251012,0.053168986,0.10477853,0.021752227,0.022514788,-0.12017201,-0.03245572,-0.021896295,-0.007706508,-0.103480585,0.091300204,-0.06188393,0.0326623,0.097198024,0.05502317,-6.834223e-07,-6.541564e-09,-1.1537634e-06,-8.8996995e-07,0.0066631343,0.022463968,-0.01831998,0.0306767,0.039765388,-0.027351728,-0.035094824,0.0124434875,-0.06069748,-0.00733699,-0.03751036,-0.031468257,-0.00038643085,-0.00025394073,-0.004919231,-0.00044429867,-0.07399073,-0.012957457,0.017192425,0.025840646,0.00067330466,0.0019866023,0.005040272,0.00576191,0.04214748,-0.10763281,-0.112028874,-0.02726093,-0.06723185,0.0053196936,0.065948784,0.051526204,0.003445489,-0.008603061,0.07053148,0.06322117,0.10762005,-0.121320575,0.021918444,-0.119628325,-0.10984046,0.02371178,0.072701514,-0.013834941,0.06555458,-0.009432575,0.024709387,0.09990541,0.00928988,-0.039970353,0.024916533,-0.067872845,-0.035650533,-0.0354752,-0.03790335,-0.05940853,-0.057216994,-0.091857105,0.030537184,0.11745039,0.036324017,-0.028190242,-0.054007526,0.035605352,2.5584074e-16,-2.1753792e-26,1.1143963e-19,3.3824578e-26,0.062445316,-0.05014826,-0.033518035,0.013144836,-6.560422e-05,-0.00097224757,-0.00023175598,-0.0017465869,-0.010108837,-0.040891852,0.00961999,0.10990107,0.06251935,-0.092706256,-0.10992444,0.12755343,-0.03035783,-0.009004725,0.007600695,0.02002815,-0.013231589,0.12331753,0.01714835,0.09434547
-0.029461954,0.014353163,0.06887113,0.08506335,0.08060304,0.13066068,0.11920881,0.04388791,0.021537328,-0.049363974,0.049745508,-0.10572791,-0.016784444,-0.083217576,0.052931387,-0.03645067,0.11177448,-0.092742786,0.031686936,-0.015783923,0.09977227,-0.020020803,0.06267036,0.0021882087,-0.09063849,-0.043433126,-0.10138837,0.029133314,-1.9278214e-31,1.0008457e-30,3.686522e-21,7.943943e-18,-0.0007729757,-0.00078778947,-0.0006516118,-0.0007737966,0.017877484,-0.1108001,0.11294678,0.020933757,0.040313374,0.072652854,-0.0058873654,-0.09757253,0.078287825,0.10128912,-0.074822605,-0.029761223,-0.12827264,-0.06038054,-0.062084053,-0.109460995,0.1261464,0.03208306,-0.06041765,-0.0036814066,-0.05105019,0.13401924,-0.0779567,0.12689853,0.08668791,0.010401977,-0.092991844,0.01839641,-1.565184e-05,-0.00014567516,3.596438e-05,-0.00015292602,0.028194118,-0.066374235,-0.08531472,0.0040664203,0.13376719,-0.111988224,0.026275594,0.016933039,0.08656729,0.024866568,-0.08488207,0.100691,-0.00052448915,-0.0017570013,-0.0010172672,-0.0008870965,0.06843309,0.053077318,-0.035570275,-0.032606453,-0.0020697846,-0.0016088998,-0.001522517,0.005671135,-0.06337005,-0.12361355,-0.1059606,0.1330414,0.09155161,0.07807889,0.07173153,0.11154798,0.066022895,0.07987065,-0.032563556,0.093626834,-0.12423946,0.1039205,-0.0099855885,-0.0075915963,0.03158769,0.10718176,-0.062178135,0.068274826,-0.009464867,0.00066397677,0.022509355,-0.05311511,-0.0736676,0.01857018,0.079922825,0.06222281,0.044635493,0.045129843,-0.004648288,-0.038110778,0.023376249,0.085820004,0.08961198,0.049939897,-0.03297698,-0.049471747,-0.029568503,0.099195704,-2.6372704e-09,-4.0368668e-21,-7.654995e-09,-2.0238173e-23,-0.022610253,0.13909867,-0.07243813,-0.0057918285,-0.0014231973,-0.0025537082,-0.004678986,0.007933999,0.06758203,-0.08109288,-0.024627944,0.102976225,0.119259626,-0.019014841,-0.07241782,0.035909813,-0.014179639,0.007066126,-0.001965113,0.011873908,0.03310504,0.048446894,0.07076119,0.006336584
0.0028466322,-0.012366968,0.011912796,-0.01948322,-0.024625417,-0.005435934,0.035009027,0.008872031,0.032200743,0.026651723,0.031979006,0.085791,0.030006513,0.047873653,0.010440379,0.074597105,-0.09382117,-0.05628564,-0.11066452,-0.046676975,0.07487962,-0.04715216,0.014806895,-0.0025310542,-0.00028099155,0.008004865,0.008599531,0.007314234,4.3298244e-32,6.946701e-23,-3.2954037e-29,2.8675526e-32,-0.00036055985,-0.00026949847,-0.00032549535,-0.00022083151,0.016908599,-0.0015753866,0.015595528,-0.010300551,-0.0010221959,-0.0003785936,-0.0017265169,-2.4043088e-06,0.0326739,-0.067258164,0.018760486,-0.03442665,8.2287855e-30,2.5446303e-27,4.4081204e-19,-2.9399635e-24,0.020978583,0.034103308,0.007656671,-0.0170641,0.003286554,-0.011225257,-0.008171216,-0.031183882,-0.0055928538,-0.004774429,-0.0030432486,0.002749228,-2.6528528e-07,-1.0814103e-05,3.8957307e-05,-1.5058691e-05,0.010055508,-0.0037229327,0.013621672,0.0008018611,0.091446124,0.071341075,-0.016810441,0.00696338,-0.0013987097,-0.00066723087,-0.0011818019,-0.0045141755,0.0007229211,-0.00084693765,0.00030341308,-0.00012562548,-0.0031254715,-0.010110461,-0.0037145086,0.00353048,0.00015611773,0.0016842922,0.0059365085,0.011789842,-0.052513424,-0.060922362,-0.04967511,-0.05340202,0.07722883,0.06901433,0.07281123,0.080947295,-0.052350778,-0.0030031784,-0.06364632,0.07462203,0.010731872,0.0130729675,0.011312805,0.013172727,0.0049111736,-0.028474709,-0.018391185,-0.091862604,-0.016577126,-0.04562153,-0.035797898,0.013342892,0.11732054,-0.009155427,0.07117221,0.015311122,0.0035331533,0.0021678428,-0.0052014077,-0.0034476644,0.050235238,-0.023841158,-0.01148063,-0.05788134,-0.0068858946,0.00070114597,0.005740412,0.020581784,7.074026e-23,-4.5733433e-27,4.8081127e-17,6.1030648e-27,-0.0050228504,-0.030880636,0.014398255,0.038750175,-0.0014507468,-0.0020461797,-0.0008721544,0.00047295753,0.006117632,-0.0028533677,-0.005643086,0.0013180755,-0.14449883,-0.10649753,-0.072848015,-0.038000725,-0.030409036,-7.967151e-06,0.014626793,0.016625922,0.03274579,0.008387822,0.07530902,0.0040849824
-0.089315705,-0.0102481805,-0.07936125,0.032698855,-0.07105375,0.12599392,-0.04635744,-0.06559014,0.09588765,0.083433926,-0.015939144,0.10016823,-0.016426506,0.01700146,0.012200235,0.061230794,0.08537113,-0.027689656,-0.0023427429,-0.1161859,0.05843638,0.035512745,0.04860959,0.011632056,-0.014814776,0.07054344,-0.0871459,0.0036128082,2.3937625e-19,-3.89978e-31,1.2007665e-30,1.5089437e-23,-0.0009147374,-0.00067609805,-0.000645421,-0.0006573137,0.07464502,0.081043325,-0.046667326,0.035129253,0.05545511,-0.01758202,-0.07253592,0.011483845,0.08005276,0.03505431,0.012761497,0.11408966,0.104433544,0.08573023,-0.06394899,0.008773623,0.051576164,0.1266887,-0.093197726,0.108472705,-0.12952776,-0.01261204,-0.11272584,-0.126,0.009254755,0.10616645,0.12054043,-0.10397755,-8.791989e-06,-3.3361343e-05,-2.726616e-05,-8.225041e-05,0.009520814,-0.0974282,0.0136375325,0.02371113,0.094425276,-0.011477595,0.03990793,0.026678115,0.056601487,-0.036736645,-0.086626925,-0.03217732,-0.00033065391,-0.0029110995,-0.000931691,0.0018175837,0.062240273,-0.075544305,-0.06814382,0.03615935,-0.001498286,0.0054868716,0.0030450562,0.006104985,0.079062626,-0.022638207,-0.097617626,-0.06698807,0.10793263,0.08434985,-0.08636657,0.12885444,-0.027383203,0.022919534,-0.025943926,-0.051340923,-0.114794195,-0.06538591,-0.12331927,-0.03881786,0.07223285,-0.037144773,0.124460466,-0.09362286,0.0398973,-0.12098723,0.026716048,-0.11007111,0.1429104,0.0172484,0.12083547,-0.014706752,0.018921774,0.028896956,-0.016267134,0.07305869,0.08417298,0.03157633,0.0191118,-0.12280151,-0.018859353,-0.0030551548,0.0033470262,-0.039647073,-7.227018e-11,-3.5860978e-21,-5.7322126e-07,-3.5044335e-25,0.059670743,0.03580897,-0.00972918,0.10457489,-0.0014756665,-0.0032598986,-0.004840248,-0.0027267043,0.119645044,0.13169234,0.10417501,0.06424148,-0.06977307,0.08692562,0.06968529,0.0057067927,-0.031056968,-0.011049898,-0.0211183,0.0040104464,0.034304764,0.029619824,-0.085774384,0.12900794
0.018447993,-0.0060793133,0.005642588,-0.0069907424,0.0788987,0.012168983,0.10524388,0.0088553,-0.122346476,-0.032149967,0.035838854,0.032684233,-0.10287383,-0.003937813,-0.039193075,0.0077962084,0.035481587,0.024005076,-0.039732933,0.18743002,0.058943793,0.1247312,-0.124392055,0.13675033,0.02245827,-0.0059495457,0.037919067,-0.018446771,-6.9672105e-28,-1.2971393e-31,7.714865e-32,-8.911073e-31,-0.00012158095,-2.2160505e-07,-0.00024783952,-0.0002709399,0.014011151,0.038986392,0.025328174,0.03782684,-0.0072754254,0.018999811,-1.3010374e-06,-0.0031869637,0.009666094,-0.034113497,0.024631504,-0.008578552,1.2489222e-05,-0.024958167,-4.430026e-06,0.0057873093,-0.011234958,0.05012946,-0.011875749,-0.115346365,-0.012808358,-0.0067606955,0.0257094,-0.0059308913,-0.019642878,0.008096996,0.034941815,-0.03342723,-4.4514822e-10,-3.5062128e-06,0.000104174454,0.00010050068,0.009181266,0.0073131006,0.02438068,0.007998457,0.13048156,0.0470052,-0.021371083,-0.05369164,-0.00035878044,0.0011870266,-0.001012595,-0.011453722,-4.041136e-07,-3.118162e-06,-8.073855e-06,-3.441563e-05,0.0011809171,-0.005439258,-0.007937684,0.010367521,-1.10711135e-05,0.002826097,0.0002662301,0.0056536356,0.054497585,-0.03303605,0.095214605,0.09779205,0.16134225,0.07539548,-0.08964066,0.00038345257,0.0036463353,-0.14590801,-0.08120648,0.07088366,-0.0079250615,-0.027687673,0.025328275,0.027566496,0.08847391,0.024908219,-0.014427995,-0.035549223,0.047517754,0.07092119,0.010332742,0.002200825,-0.07373337,0.005760447,-0.005946509,0.060702033,-0.022123076,-0.0041354247,-0.034379046,-0.0046145446,0.0809638,-0.09292118,-0.040225264,-0.07901901,-0.0005159321,0.027142303,0.01351613,0.042204946,-2.137363e-26,-2.817454e-27,-4.481431e-26,-3.462125e-27,0.025779983,-0.08483269,0.05462106,0.013789617,-0.0026493904,-0.0013740789,0.001543602,0.0011458634,-0.017353386,0.075469054,-0.04618504,0.13664065,-0.121451356,-0.07852604,0.0758748,-0.039395195,-0.02173522,0.011165535,0.040413737,0.0005768924,-0.10879697,-0.048379682,-0.030238664,0.0507387
0.042534936,0.0018866992,-0.019176435,0.0050159986,0.10819205,0.02709267,-0.10825325,-0.04446143,0.104433484,-0.07182113,-0.06824535,0.06325104,-0.100842014,-0.12484102,-0.012060908,0.094880685,-0.079958245,0.042586755,0.034671832,0.0871618,0.12011426,0.030363359,0.034298692,0.059533756,-0.099158816,0.05914811,0.11770987,0.1041835,1.0125979e-23,-1.9742957e-32,6.1124155e-32,-1.1547245e-23,-0.0005553857,-0.00043315275,-0.00044121215,-0.00042355596,0.05886592,-0.09031135,0.076999195,-0.020814445,-0.060957137,0.105187565,-0.074123494,0.057764646,0.01919817,-0.09589692,-0.076294124,0.05879064,0.054752745,-0.104783386,-0.1081643,0.018705972,-0.11233961,-0.0070436015,0.049144294,-0.009317748,-0.08206155,0.11908646,-0.12797609,-0.12266311,-0.05615804,0.085380025,-0.061459873,-0.11067156,1.7423586e-13,-1.7299353e-08,-2.8592253e-06,-9.716734e-06,0.01575762,0.062170148,0.052864768,0.09422132,0.0029183326,-0.07588342,0.07930915,-0.1007011,-0.011289168,-0.048688155,-0.08827933,0.069409646,-0.00017555038,0.0024867065,-0.003519374,-0.003779564,-0.01708867,-0.03260683,0.018692194,-0.028102726,-0.00040678456,-0.00040416236,0.001235183,0.0021422934,0.039044734,-0.12145359,-0.10229858,-0.032834724,-0.024624337,0.13194789,-0.0804976,-0.06653585,0.03965173,0.11189823,0.12446125,-0.1076727,0.0128191905,0.107999705,-0.0769336,0.11422673,-0.038942806,0.00049197866,0.06825187,0.12531336,0.017914418,0.053319197,0.00546633,0.07179835,0.07096171,0.04721536,-0.026729638,0.052897673,0.032489344,-0.020512985,-0.024252858,0.0539013,0.022186305,0.1097213,-0.07881771,-0.11724878,0.03298909,0.03029139,0.007349047,-0.013377873,8.584627e-27,-6.420497e-19,1.7149703e-25,-3.278342e-26,-0.04203029,0.08121374,-0.02940059,0.016675,-0.0008636774,-0.0009874697,-0.0010529154,-0.0008092648,0.07573245,-0.10495852,0.0007261013,-0.1161869,0.06504592,-0.07683038,0.05395825,-0.039875925,0.007860878,0.012562634,-0.028459957,0.0062341797,0.13672262,0.06827824,0.041626744,-0.018930888
-0.09055923,0.087468445,-0.053660918,-0.05246422,-0.115090445,0.008662466,-0.05748758,-0.10681328,0.11804357,-0.08781068,0.021723937,-0.07618838,0.11202448,0.020197107,-0.02801202,-0.106413044,0.03146403,0.016768351,-0.029093139,-0.09230035,0.062394854,-0.12427089,0.08586161,-0.03929206,-0.10206487,-0.113362245,0.0769913,-0.08974298,-6.736633e-27,-3.8893857e-19,-1.2741164e-29,4.0413338e-14,-0.00081525085,-0.0008327918,-0.00071457546,-0.0005968103,-0.09689668,-0.0065766303,-0.018437471,0.10344484,-0.052618373,-0.017920114,0.012542541,-0.08113919,0.0361822,0.119716875,0.031612914,0.0731027,-0.03425924,-0.13057183,-0.107129455,-0.022634396,0.13461308,0.07530787,0.017910743,-0.014602013,0.05501098,0.02134496,-0.05452577,0.0019867297,-0.037072323,0.0559034,-0.13043694,0.031488914,-2.6459074e-05,-0.00012669123,-0.00013536493,-0.00013516042,-0.019326948,0.10036308,-0.011673954,0.11024733,0.049281485,-0.09973856,0.063404486,0.057652388,0.03010155,-0.05198392,-0.090544045,0.035302654,-0.00065841497,0.007054583,-0.0011265205,0.007892658,-0.089155816,-0.030058062,-0.041178424,0.058959343,-0.0013633344,-0.0020607037,0.0066639646,0.005333655,0.032897968,-0.019187113,0.052403927,0.093216285,0.022812273,0.037607916,-0.08245888,0.1348522,0.054379202,-0.08117618,0.1181176,0.053151127,0.10591434,0.07164388,0.10712177,0.09833673,0.09737978,0.04239202,-0.0892454,0.10691137,0.02193749,-0.12691152,0.06342929,-0.03485601,0.018955817,0.026727596,0.0084296055,-0.11455706,0.061014123,-0.027157085,0.01247828,-0.07803124,-0.077613235,0.016632192,0.013976007,0.01022036,-0.072000325,0.023690257,0.04724433,0.013706308,-1.4072434e-07,1.165493e-19,-2.3372163e-06,-1.6499422e-18,0.062511526,-0.030135343,0.00040006248,0.03765652,-0.00092816394,-0.0028101604,-0.0019730083,0.000874557,0.0071765557,-0.12730558,0.04565121,-0.004525383,0.06255173,-0.0080230385,0.08687057,0.07353833,-0.015796043,0.015590854,-0.041964523,0.0361851,-0.051549073,0.08083729,0.07124205,0.13323385
1.1135681e-16,-1.29005186e-17,-2.298509e-17,-4.238705e-17,1.5466576e-15,-6.1936887e-15,1.5060577e-15,1.6268422e-15,2.3925494e-17,1.8880285e-16,-1.7072177e-16,-2.649259e-16,-1.2421995e-16,-1.1161611e-17,-2.9679984e-16,5.3697495e-17,-9.470203e-16,-9.742656e-16,1.1540453e-16,-5.2996993e-16,4.8802894e-16,-1.9428829e-15,1.9710046e-15,2.051971e-15,1.0485256e-16,3.5963087e-17,-2.4572976e-16,-5.3319822e-18,-2.4378854e-21,-6.107933e-20,-1.21117545e-32,3.6575783e-28,7.9735986e-33,-8.597089e-31,-1.137065e-26,-3.8321085e-31,-1.1476581e-15,-1.3192633e-15,1.3054763e-15,-3.1411926e-16,7.1532257e-17,2.4173452e-17,-3.4215003e-17,-2.2037106e-17,3.8245054e-16,-2.1621395e-16,-1.6471986e-16,8.8529164e-17,-2.0884276e-22,2.8442156e-32,-4.0292047e-25,-2.541848e-19,7.6869976e-16,-7.60416e-16,5.5671865e-16,1.1161571e-15,-7.8653934e-16,-8.0638987e-16,1.8103093e-15,2.6987634e-16,-3.1420548e-17,-3.00671e-17,1.71526e-16,-4.2071213e-17,-5.0545777e-27,2.7028065e-32,-6.000648e-33,-7.518791e-21,1.6196891e-16,-2.489227e-16,1.08263146e-16,2.1902738e-17,-5.87521e-16,-6.046739e-16,9.429403e-17,-6.102504e-16,7.50408e-29,-3.0021817e-29,-1.2871698e-20,-8.5649916e-23,-3.557915e-21,-2.6965738e-32,-1.9650577e-32,-3.7827044e-32,1.2471665e-16,-3.951427e-17,-6.381934e-17,-9.728501e-18,2.6216338e-17,1.3204104e-17,8.181172e-17,9.785939e-18,-7.15935e-17,-1.1422341e-16,-1.4870505e-16,3.3469784e-16,-3.810451e-17,2.035823e-16,-9.6476126e-17,-2.9959595e-16,-6.361716e-16,-3.7508562e-16,5.206746e-16,1.9918124e-16,1.1746366e-16,-9.6815674e-17,-4.0130016e-17,2.780246e-17,-1.2489978e-15,-4.6901797e-16,1.9214768e-16,-1.6416991e-15,-6.1656894e-16,-5.0115027e-16,1.533016e-16,1.1809715e-16,6.6945455e-16,9.555372e-16,-6.608998e-16,-1.8271549e-15,1.3156427e-17,-7.109121e-18,5.8532636e-18,-7.1483896e-17,-4.3527975e-16,-2.216856e-16,6.098273e-16,-1.6946674e-16,-3.6971765e-16,-5.876153e-17,1.7534736e-16,-4.465705e-17,2.426602e-32,5.0300505e-35,8.564034e-24,-2.1833591e-32,1.0174495e-15,8.881827e-16,-9.080359e-16,2.2259144e-16,2.5261762e-23,-8.147846e-21,2.4837502e-32,5.9584357e-30,1.77574e-15,1.2323694e-15,5.5454696e-16,-4.6715667e-16,2.0891841e-15,-1.2465024e-16,-1.1623497e-15,1.01302e-15,-2.3525955e-15,-1.4040773e-15,5.201498e-16,1.0740694e-15,4.6176716e-16,1.463391e-16,3.3044047e-16,-2.3609127e-16
0.04591039,-0.025866006,0.02668731,-0.0021084028,-0.072495915,-0.11932138,-0.11096994,0.042798255,0.06368425,-0.06263027,0.11183746,0.14556675,0.09178079,0.13466689,0.049300253,-0.08296419,-0.07513758,-0.093797654,0.03750607,0.11523657,0.12127304,-0.12158222,-0.0588722,-0.07267238,-0.0076553714,0.007534459,0.072723284,-0.014239907,4.4272446e-31,-2.2205324e-26,-3.4516134e-28,1.3559282e-22,-0.00060882577,-0.0006100546,-0.0005274542,-0.0004350244,-0.09980275,0.02253487,-0.03700702,-0.06933827,0.059389196,0.01594803,0.06115456,-0.10779877,0.1350135,-0.09305101,-0.028064644,0.057557225,-0.094692394,0.0973339,-0.07814924,0.065183535,0.025061375,0.0024766817,0.0030657453,-0.087461405,0.091714,-0.07181621,-0.077348724,0.046065908,-0.03253216,-0.028971022,0.08927309,0.06320646,-4.450003e-06,-1.9012838e-05,-2.8421473e-06,3.653145e-07,0.008364739,-0.04527423,0.018364735,-0.05585031,-0.022418521,0.120247774,-0.03358333,0.013250284,0.02893116,0.07387289,0.043719936,-0.048462503,-0.00042465713,-0.00011811764,0.001568372,-0.005203376,-0.034456857,0.023538698,-0.027371086,-0.025948528,-0.0006662279,-0.001375052,0.008665198,0.0080473395,-0.10279672,-0.09783199,0.048464425,0.11433887,-0.031184493,0.016598815,0.08614572,0.099971525,0.042618718,0.014793111,-0.026479073,-0.036721196,-0.06848705,-0.043966264,0.025588822,-0.010484971,0.1253113,-0.10774139,-0.09935368,0.121272475,0.063550875,-0.021774026,-0.021915494,0.1398363,-0.04119984,-0.13082018,0.12358382,0.02609422,-0.033948004,0.017977087,0.036420275,0.0023002767,0.050827786,-0.039110027,-0.07919748,0.119573526,0.04582561,-0.0058071977,0.019577425,-0.023354424,-1.2670734e-18,-2.640252e-26,-6.912125e-15,3.820659e-26,0.04217079,0.04905164,0.019748034,0.11835681,-0.0008562029,-0.0017780507,-0.001208243,-0.0005825671,-0.09328341,-0.028068326,-0.027740521,-0.020183949,-0.087073855,-0.081810504,0.109877765,0.009681378,-0.021029979,0.0224528,0.03282967,0.030076116,-0.070324905,-0.11020823,-0.025338544,0.0047824895
-0.023510668,-0.003230267,-0.012238269,0.06429913,0.13315971,-0.09336511,0.044658523,0.10959559,-0.11042646,0.04654782,-0.023231734,0.054935176,0.022678936,-0.09459428,-0.11076646,-0.042539425,0.06610201,0.00856675,0.11371259,0.10270394,-0.024791969,0.019795686,0.00037598,0.07291336,0.00020952628,0.09353957,-0.0034668983,-0.1199951,-4.1446038e-32,1.2803097e-32,-4.887099e-31,-2.951916e-28,-0.0005238419,-0.00039411383,-0.0003455113,-0.00055601366,0.038809016,0.0048771943,-0.07026433,-0.017960234,0.10058074,-0.09366888,0.10357987,0.013627041,-0.029279537,-0.09304875,-0.12374983,-0.116432026,-0.05519302,0.08991751,0.042839505,-0.08978873,-0.080282636,0.102766104,0.034422275,0.03167841,0.11514844,0.030802002,0.1125259,-0.030402526,0.060613338,-0.09720946,0.100872144,-0.0363551,-3.8654024e-10,-3.2126619e-07,5.739007e-06,-1.0059085e-05,-0.01673818,-0.051537752,-0.027199503,0.09879027,0.12145708,0.11766012,-0.055140644,0.052593656,0.10940663,-0.025294788,-0.042389177,0.043500092,-0.0002581369,-0.0036405763,-0.0040678703,-0.0016365522,0.028923485,0.027901774,-0.037374098,-0.05711787,0.001996947,0.00023654361,0.0020594504,0.0039134133,0.089119755,-0.04793118,-0.065741844,0.006062466,-0.09539736,-0.05485202,-0.07322579,0.009398485,-0.06566339,0.07699823,-0.0571183,0.070658565,-0.019743279,-0.12590495,0.036273222,-0.02361791,0.07535671,-0.02167323,0.0046307575,0.04458719,-0.030911515,0.05233949,-0.066009015,-0.06337498,-0.13932052,-0.023481058,-0.022071483,0.0063689933,-0.020844536,-0.034080382,0.016471503,0.0045789424,0.083267145,-0.029095959,-0.13451487,0.1171699,0.04395558,0.0049196156,-0.034347065,-0.027572835,-1.7108611e-21,-3.3131817e-23,-5.1982203e-21,2.3252609e-26,-0.015282636,0.006927351,0.054944057,3.9911632e-05,-0.0011426652,-0.0013780975,0.00020864439,-0.00097254757,0.04771006,-0.03607772,-0.024433844,0.073813714,0.013303226,0.006856156,0.083732754,-0.051095597,0.0061154063,0.027929233,0.020481983,0.012697009,-0.053446237,0.08403194,-0.06365879,0.0944877
-0.00038592,0.0018132767,-0.0010448091,0.0011810617,-0.01591423,0.0035283351,0.04268589,-0.028898751,0.00015127753,0.0031021582,-0.0075715873,-0.015613786,0.059076797,-0.029642096,5.563367e-05,-0.017860787,0.009277481,0.03302477,0.0014075919,-0.021743694,-0.03434186,0.029874945,0.06176345,-0.011856729,-0.0069879317,0.010757221,0.059199158,-0.0008739445,-9.657399e-31,-4.101243e-34,-1.3201889e-32,2.6264596e-32,-9.787859e-28,-9.426672e-27,4.7158142e-28,-5.6948192e-27,-0.0019423086,0.00084769935,-0.0013752885,-0.00013017959,0.0021497393,-0.0016523335,-8.3358194e-05,-3.1629235e-13,0.001209071,-0.013791495,-0.012185632,-0.0012604641,0.0016184832,-0.005352353,-0.0013699458,-0.0026598102,0.015518075,-0.009899897,-0.037445962,0.03050428,0.010035061,-0.0046008807,-0.028373688,-0.022931565,0.056875207,-0.0010957305,-0.040777765,-0.011913968,-2.1633035e-17,-2.9678043e-22,2.0524696e-18,8.0358697e-20,-0.0057649836,-0.00015601634,0.0009685032,0.001977112,-0.0032384947,-0.00040797683,-0.00020059939,0.0027416744,0.0039559966,-0.0016801262,-0.014282118,0.00076485134,-1.3392981e-28,-4.5995465e-30,-1.5902645e-28,-1.04765185e-32,-0.0015970344,2.8712066e-05,0.0026703659,-0.00037460832,0.00027582035,0.00023030337,-0.001277456,-0.0010606687,-0.031227242,-9.936989e-05,-0.0003473614,0.032335714,0.023336357,-0.0028290648,-0.010269574,-0.018254679,0.013410884,0.015012234,0.0009240724,-0.01174498,-0.010050629,0.008944944,0.010398232,-0.0056303455,0.0014990665,0.0044810134,0.0024953042,-0.014989067,0.0034674224,0.004160446,0.018066129,0.0022756536,0.021696957,-0.025015617,-0.010527628,0.009308385,-0.009643055,1.3054274e-05,0.01299216,-0.0059601376,-0.028253738,-0.022231992,0.005220706,-0.0066217175,0.00023401546,-7.7619756e-05,-0.0002786364,-0.0016654888,-2.5487227e-30,-2.7288378e-32,2.2909944e-32,1.6120288e-28,0.0019878878,0.00041928593,0.0027199008,0.001088354,-1.8309018e-18,6.746103e-17,-2.867889e-18,2.0299269e-18,-0.014219431,-0.02268832,-0.036973745,-0.005163531,0.0010071575,-0.023892906,-0.00922297,-0.013369569,-0.0010650465,-0.00035278292,-0.0018759171,-0.0008956281,-0.034736045,0.00922671,-0.028956091,0.0043558013
-0.01342631,0.12237477,-0.066947095,-0.027024243,0.11322955,-0.02052251,0.05524495,0.03579893,-0.06432655,-0.13216789,0.022833604,-0.092189744,-0.007981209,-0.033993,-0.10754203,-0.12822923,0.12726676,-0.079595365,0.001801348,-0.060874175,0.026374532,-0.11593228,0.115633614,0.048214708,-0.10817649,0.005358877,0.11033244,0.019503666,-1.6458713e-29,-3.1832824e-31,4.25188e-24,-1.4177467e-24,-0.0008323623,-0.00093671365,-0.00087699713,-0.00070880813,0.029483223,-0.1084053,0.047318473,0.06434213,0.00388163,0.12877376,0.0068962513,-0.027930249,0.0312992,0.05681608,-0.08075861,0.12511629,0.06421449,-0.07153454,0.12832126,-0.0603556,0.13202886,-0.02587282,-0.059890475,0.13930354,0.08059549,-0.123507254,0.10749479,0.03588203,-0.033116702,0.1156242,0.09144688,0.06478413,-5.916206e-05,-0.00012344503,-3.0322264e-05,-4.906431e-05,0.051093895,0.031286232,-0.022473922,0.011449659,-0.10801913,-0.07103103,-0.03959204,-0.021772858,0.08582959,0.07369849,-0.033920676,0.04469359,-0.0011963812,0.0033848966,-0.0008631599,0.007339983,0.047589276,0.047241468,0.073134676,0.049959328,0.0011496845,-0.0022636903,0.00071626215,0.002797059,0.05139026,-0.012622682,-0.07418016,0.11599669,-0.13694137,-0.011694931,0.0067014187,-0.016352598,0.059361417,-0.04136569,0.044880517,0.10410551,-0.09249763,0.121237874,0.044397976,-0.04592527,-0.10652969,-0.13301578,0.12024058,0.07280784,-0.034771837,0.12659284,-0.10164213,0.13469757,-0.040801987,0.03882619,-0.038393192,-0.07903559,0.031974062,-0.0670421,0.04872895,0.0053289207,-0.03921388,0.09394426,0.04180239,0.11684804,0.044529986,-0.03093448,-0.07258646,0.075592645,-4.482377e-08,-2.673727e-19,-5.0337227e-11,5.870046e-20,0.0051190117,0.113988675,-0.04337226,-0.0052558426,-0.00078225654,-0.0018063876,-0.0024923754,-0.004229449,-0.027462063,0.024756592,0.028571073,0.103712134,0.07549421,-0.04835068,0.041041967,0.11485148,-0.0004916718,0.005067054,-0.014100456,0.07585133,0.0017510039,-0.06799534,-0.046023026,0.00783194
-0.02301045,0.050437815,0.08591279,0.0182415,0.11588149,0.09273196,-0.057098657,0.108039096,-0.014649438,0.068685755,-0.026406152,-0.11215628,0.032787263,0.087254666,0.054927073,-0.048990093,-0.06611785,-0.000861542,0.064146735,0.09914729,0.0023067256,0.037196025,-0.0138127785,0.08404549,-0.042263616,-0.11351211,-0.09978649,-0.017474813,1.6975914e-30,-1.6560202e-29,-4.6846976e-31,8.495756e-31,-0.00058091944,-0.0007813556,-0.00071100006,-0.00074833765,0.056510694,-0.024685204,0.039830938,-0.002558399,0.12348419,0.07965234,0.112205826,0.04530936,-0.003976637,0.0017034203,-0.05837874,-0.034843627,-0.13662733,0.08452074,0.025311343,-0.04192791,-0.10118985,-0.032876033,0.0022321416,0.029914176,0.003933769,-0.114752516,0.11391968,0.07111667,-0.09194963,-0.073261745,-0.005725301,0.06493959,-2.2377204e-05,-2.7245728e-06,-2.5379415e-05,-3.133925e-05,0.006840524,-0.051097665,-0.038571917,-0.0557862,-0.024507768,0.069738515,0.10606104,0.051532358,0.04027895,0.073382,0.06964904,0.07221152,-0.0004400169,-4.816086e-05,-0.0007791565,0.003046067,0.029611884,0.027007025,0.04968901,-0.059090108,0.0006221096,0.0013663733,-0.0014027134,-0.0016913845,-0.05389042,-0.05661788,0.06771826,0.027514229,0.0036629627,-0.03820582,-0.12666251,-0.083879404,-0.11170616,0.12999174,-0.078825116,-0.012398804,0.038352203,-0.123058386,0.06551353,0.1001095,0.08375163,-0.07655539,-0.01627618,0.028098324,-0.03694749,-0.037393764,0.10092823,0.06943941,-0.07489182,0.0048492397,0.079689175,0.02917694,0.06883564,-0.020196792,-0.06793098,0.03693005,-0.053367138,0.10431432,0.04103689,-0.028855389,0.029590882,-0.028882828,0.05554159,0.008533128,-8.896e-09,9.627112e-25,-3.78932e-07,8.737351e-25,0.04014451,0.07663449,-0.037060477,0.0011402547,0.00028722166,-0.001856629,-0.00042582685,0.0037663302,-0.122553036,0.026509902,0.12312871,-0.11472638,0.118700564,0.13512251,0.1454752,0.073088,-0.016519617,0.0030688727,-0.012722475,0.030365935,0.021796186,-0.08713083,-0.09908755,0.09172186
0.100670904,-0.024021138,-0.050209314,-0.022200689,-0.070927896,-0.10378056,0.088230476,-0.05081139,0.08829466,0.09555247,-0.049238667,0.12935764,-0.0010517333,0.0838456,-0.06823457,-0.12757476,-0.027768781,-0.052884597,0.11342534,-0.003333092,0.012859456,0.022462087,-0.046471555,-0.03303641,0.073484294,-0.08494301,-0.03440891,0.09685408,2.237904e-25,-2.7934534e-29,7.6925907e-26,6.1039645e-21,-0.00083322177,-0.0008078663,-0.00071896747,-0.0007431758,0.007553011,0.0040523745,-0.026524989,-0.08125506,-0.09220778,0.022175064,-0.0653564,-0.062285677,0.13291472,0.036981948,0.11624758,-0.0046586925,-0.13818991,0.06787986,0.11518123,0.11524885,-0.05179565,0.037576392,-0.018688919,-0.018588586,-0.01548898,-0.04334896,0.04188079,0.060805306,0.11022448,0.074483864,0.025693541,-0.111156106,-6.7978166e-05,-0.00028391747,-0.00013516149,-0.0001508789,0.006892531,-0.07531419,-0.07632608,-0.024645422,-0.11640011,-0.00931682,0.07405518,0.10850056,-0.10957582,-0.016989315,0.035795297,0.064927034,-0.0014634195,-0.001853953,-0.0061296453,-0.008101242,-0.07601373,-0.07603404,-0.0021055965,-0.04923329,-0.0061356327,-0.00832596,0.0074202903,0.006884708,-0.077749684,-0.052532345,0.13004293,0.118274465,0.0882834,0.026874525,0.1190285,-0.06721715,0.029169353,0.10659987,-0.07851986,-0.11357821,0.011869636,-0.08459049,-0.004821847,0.0026687265,0.06240658,-0.041994467,0.046370376,-0.059752032,0.04559149,-0.0132089285,0.0683479,-0.018629335,0.011844144,0.04859706,-0.040521774,0.028765716,0.07419103,0.01720259,-0.034885444,0.045831185,-0.13271375,-0.06332505,-0.091508105,-0.07200206,-0.023167428,-0.015464827,-0.018823046,-0.03240403,-2.5739376e-07,-1.2266998e-19,-4.9044985e-07,2.3340171e-20,-0.0905166,-0.041106753,-0.09308767,0.019646557,-0.0009915715,-0.002730967,-0.0033533485,-0.0022255399,0.11078259,-0.12580898,0.0253538,0.08758567,-0.029273435,-0.049144518,-0.12224648,0.116474345,-0.009454941,0.002230181,0.0076406254,0.024607267,0.057590418,-0.08859762,0.105231754,0.02359366
-2.1456572e-22,-1.042512e-32,9.3757106e-33,-7.326827e-24,-6.8814835e-33,1.985507e-27,-5.5740097e-32,-2.178183e-22,6.301954e-33,-2.6497358e-28,-1.3472435e-27,6.419357e-23,-8.509651e-20,-1.3973538e-27,4.4145627e-28,-1.1081529e-22,9.904497e-20,1.3852543e-21,5.5709454e-33,1.187893e-22,3.1738953e-26,-2.9670257e-27,-6.996356e-27,7.2078006e-23,6.591948e-20,-1.9512409e-27,-2.1133904e-25,4.6308e-33,6.1675346e-21,4.9936317e-27,-7.146598e-33,3.5125052e-26,2.2427154e-32,2.2934865e-20,-1.3040268e-31,6.4660294e-24,-2.889707e-19,2.9872708e-27,3.5622722e-24,-3.46962e-24,2.2712582e-32,1.8883182e-32,1.34046e-32,-1.6964408e-31,2.8367497e-32,-9.515619e-29,-5.0190428e-27,2.5503554e-24,-2.3085667e-20,1.813992e-32,-3.747819e-33,2.51235e-32,1.5340263e-32,-1.4480586e-28,1.4134298e-27,8.3147385e-23,1.7983998e-32,1.60981e-26,-3.5710938e-23,-2.6595788e-22,-1.2308597e-32,4.160096e-27,-9.199824e-21,-2.2817798e-27,5.7696884e-24,-4.204876e-24,6.918924e-20,-8.4536236e-24,1.6614572e-29,7.755643e-24,-7.835592e-33,3.8173084e-33,1.5480686e-32,1.0330351e-23,-4.543468e-27,8.926973e-22,1.884003e-33,9.983461e-24,-1.6359425e-32,1.7285737e-32,-9.364236e-33,1.2872662e-28,2.8358404e-29,1.7727141e-22,-1.9889441e-22,-4.24001e-21,-1.8118613e-32,1.0977601e-24,-2.2707518e-32,-9.0967064e-27,5.6007484e-19,-1.0806978e-32,-6.0467407e-33,4.1361984e-28,4.7122567e-25,3.722839e-22,2.2768438e-32,-4.4248352e-27,1.6866582e-28,3.166727e-22,1.853981e-32,4.2347565e-23,-1.01097886e-29,-4.088329e-22,1.0249275e-32,2.0443347e-32,-2.350215e-27,1.5144989e-31,2.8018155e-32,7.054451e-24,-2.89059e-26,-1.0189547e-20,2.1803149e-32,1.1909675e-26,1.0904408e-20,-1.079275e-21,-4.144937e-29,3.3833836e-27,-7.025482e-23,4.1311757e-22,-2.6429562e-32,-2.6035521e-23,-9.659106e-30,-2.6955142e-28,1.6491487e-29,7.4955537e-25,1.8302975e-32,8.587805e-24,-1.8879575e-27,-1.2901783e-31,-1.10994956e-20,4.9697104e-19,-1.7876388e-28,7.857702e-34,-2.2508815e-26,1.736097e-32,2.8100369e-33,-5.520771e-19,1.425985e-26,6.2344466e-23,5.196654e-30,8.338352e-33,4.4638445e-23,1.6020214e-32,-1.5693755e-32,-5.203793e-28,-1.1948614e-28,-2.0102801e-22,8.8397915e-24,-1.9834255e-27,-3.351211e-27,-4.101293e-24,-2.0153971e-32,5.623467e-27,2.131206e-27,1.3071033e-22,3.0124154e-22,-8.210952e-27,-5.5261576e-24,3.239219e-23
0.055961173,0.006735906,0.054788772,-0.08749589,0.01010963,0.027582247,-0.06984382,0.09833103,-0.016468534,0.13065259,-0.015246958,-0.01860996,0.08481292,0.03517817,-0.024103802,0.12638563,0.070420384,-0.028295968,-0.089628965,-0.03410579,-0.049730208,-0.061331965,-0.020396426,-0.037260707,-0.013448232,-0.0013739102,-0.0020024783,0.06489102,1.4652912e-30,-6.9157537e-25,-1.7606039e-30,3.1595434e-17,-0.0008382672,-0.00081385334,-0.0006266069,-0.0008799465,-0.020291662,0.07543821,-0.092177585,0.037529696,-0.09381542,-0.01689093,-0.023892315,0.037208684,0.083248496,-0.07026039,-0.052553907,0.06452553,-0.09422155,0.034020614,-0.026100358,0.019285701,-0.0384673,-0.061127387,0.11882478,0.0068507586,0.0008841316,0.10890837,0.1069412,-0.10061397,-0.061575737,-0.06745062,0.081839465,-0.11124754,-2.810271e-05,-0.00011353959,-0.000244843,-0.0003080402,-0.010244714,0.06381719,0.050877564,0.008284242,0.08105222,0.09453826,0.06727221,0.06746626,-0.112829655,-0.11228122,-0.04540408,0.04819986,-0.00057409407,-0.0004893094,-0.012414599,-0.001050399,0.054213226,-0.08254383,-0.04554484,-0.05944751,0.00087800395,-0.0056797806,0.0033147112,0.0069420994,0.114458054,-0.096229605,0.093453184,-0.12037948,0.08476443,0.10643417,-0.0846009,-0.10519482,0.08776683,-0.029337585,0.0106612425,-0.101175226,0.06576296,-0.083471775,-0.1280301,0.048168838,0.02648374,0.009657527,-0.11697452,-0.018733576,0.044022143,0.10720333,-0.02263561,0.020495262,0.07056163,0.10235763,0.1373028,-0.047515158,0.063438885,-0.07366241,0.008763767,0.05113778,0.0055094585,0.023566177,0.07228987,-0.11554921,-0.03032547,-0.023083406,-0.04288786,-0.062452815,-2.6742269e-08,8.75075e-20,-3.20391e-07,-1.3024491e-19,0.022267811,0.07370286,0.08362616,0.04039925,-0.0013068219,-0.0046036453,-0.0043509346,0.014532562,0.1263993,-0.037298534,0.012094605,-0.062436458,-0.12929492,-0.11832299,0.054099362,-0.014199274,-0.007197245,0.00953308,-0.026044758,0.01216862,0.11575877,-0.09450049,-0.073780164,0.1457708
-0.011221696,-0.016388966,0.076351166,0.030445699,-0.015727714,0.05364947,0.09779581,0.024996804,-0.09573228,-0.016179012,0.114623055,0.056683198,-0.113786854,0.024486383,-0.07931316,0.038058028,-0.08210537,0.005211034,0.060070895,-0.08092076,0.017664792,0.023843806,0.1277826,-0.016876815,-0.12459803,0.05270436,0.045920063,0.044082824,4.6458977e-28,-3.8815482e-25,-6.111927e-20,2.3834831e-23,-0.0006013707,-9.384632e-06,-0.0002967829,-0.00044448805,0.10329636,0.068255,-0.01503543,0.030261427,-0.078151986,0.027263014,-0.0509331,0.12148189,-0.06607946,-0.033953197,-0.011981014,0.018572027,0.12268989,0.0933784,-0.017445743,0.03379614,0.1359518,0.08413586,0.04174496,0.12791783,-0.02035266,-0.11375178,-0.11870547,0.11437754,0.01795878,0.11442627,0.08936479,0.019611828,-5.1256505e-14,-1.9105708e-05,3.463682e-05,3.123071e-05,-0.05361282,0.08575418,-0.08269789,0.017294558,-0.056907542,0.012623583,0.047748536,0.0024225442,-0.004393582,-0.006635065,0.04839996,-0.11181004,4.430887e-05,-0.0040523177,-0.0044377907,-0.0017161715,0.07887925,-0.02809119,-0.061159227,-0.0437915,-0.0007694725,0.00039883616,0.00012030138,0.008567244,0.03453708,0.056415737,0.015456752,0.06811924,-0.12013848,-0.063340575,0.0726771,-0.048478317,0.120924264,-0.12785165,-0.13786203,-0.021412047,0.0060839425,0.04408947,0.09395586,-0.08830877,0.10585447,0.047071435,0.055602193,-0.12071211,0.11604475,-0.08000117,0.13187507,0.11532317,0.059716724,-0.08010606,0.0065313606,0.007844535,0.008046117,0.0038160079,-0.06561439,-0.025665658,0.0538632,-0.06211042,0.014509473,-0.08145208,-0.009848317,-0.0060173892,-0.016756387,-0.03241103,-7.642984e-33,3.5780102e-26,-1.535841e-19,3.689968e-26,0.008757043,0.0073129227,0.020078314,0.08216285,-0.00043616036,-0.0010053349,-0.00044825734,0.00029814526,0.014603732,0.13522543,0.12684663,-0.0067008636,-0.028786533,0.07947576,-0.06449701,-0.10493213,-0.008838766,0.034435328,0.040643763,0.041622873,0.031799342,0.03535968,-0.024332646,-0.016236674
-0.09903039,-0.074019,0.051653866,0.046367377,0.018348102,0.12890396,-0.12905692,-0.103678465,-0.024581783,0.103912145,0.033845417,0.11117695,0.09540038,-0.1111176,-0.073281296,-0.11716364,0.024129292,0.12684938,-0.041119646,0.13213056,0.071039915,-0.018733464,-0.02911706,0.009643588,-0.11928807,-0.030299949,-0.048136827,0.089864895,1.9502258e-26,5.223166e-19,-7.7577863e-25,-2.2534889e-26,-0.0007264986,-0.00063552754,-0.00044011572,-0.0006616716,-0.053466987,-0.07580948,-0.03596456,0.10456722,0.016895268,0.11686446,-0.054553483,-0.093483135,0.06554373,-0.0047734603,0.03434819,0.012982539,0.1176247,-0.106523305,-0.027041519,0.014197478,0.04883709,0.04121063,-0.124377705,-0.04576302,0.02647917,-0.10748299,-0.04849008,0.038168006,0.027694441,-0.0011543897,-0.024028549,-0.016341602,-2.7231508e-07,-1.0284033e-05,-2.06736e-06,-9.3248345e-06,0.05620934,0.044459414,0.026210977,0.035168923,0.038222063,-0.022028191,0.04744339,0.008920552,0.06485792,0.08939718,-0.014633968,-0.10631032,0.0015220831,-0.0018824476,-0.00065356505,-0.004049244,-0.028867576,0.07716654,-0.047563594,-0.0020024723,-0.0010743518,-0.00053332583,0.005391082,0.0033343683,-0.11465958,0.05283872,-0.01799851,0.08939429,0.120744795,-0.0584606,0.09818222,-0.12775335,0.08431199,-0.12684089,0.03722936,0.054759204,0.092232935,0.014383957,-0.073995315,-0.029205883,0.03637826,-0.10702119,0.053874325,0.119778976,-0.12546664,-0.045450658,-0.086826965,-0.08911723,-0.098791525,-0.031119894,0.10770334,-0.052274417,-0.032896783,0.064141564,-0.052443583,0.06280192,0.016762838,-0.0207259,0.102527544,-0.06852584,-0.0734193,-0.056673404,0.023949098,0.0291605,-8.90739e-24,-7.6868763e-20,7.41194e-24,6.437622e-20,0.062699825,0.031398565,0.086239055,0.050983977,-0.001297224,-0.0017413936,-0.0016634185,-0.00086043985,-0.043106508,-0.08109574,-0.05336285,0.11126211,0.029802216,-0.013919581,-0.08099687,0.11320907,-0.00011992409,0.009268173,-0.01388578,0.018602457,0.08343058,-0.11010642,-0.020227328,0.082426295
0.04090114,0.042953126,0.016816258,0.041820157,0.06463558,0.0129343495,0.019193405,0.0021373262,0.0543066,0.03111427,0.018411258,-0.13719095,-0.07337094,0.0038017908,-0.01454246,0.06232244,-0.07565348,0.023135148,-0.015134635,0.026672387,-0.116508424,0.071501695,-0.11274012,0.0107973805,0.040600266,-0.03402867,-0.066240884,0.0957499,-1.2672613e-20,9.332075e-31,-7.753798e-20,2.1626882e-27,-0.00013059947,-0.0002977268,-5.3056743e-07,-0.00010112919,-0.011331681,-0.0016129831,0.007872962,0.073928624,-0.0036605527,0.11307768,0.07732738,0.038123194,0.076877795,0.07188638,-0.039842177,0.11176688,0.06081896,0.1095948,-0.0575179,0.052136205,-0.09270425,-0.018094836,0.12799983,0.06199935,0.054977875,-0.1045727,-0.11646798,0.07314986,0.092723906,-0.037823826,-0.03930322,-0.026673136,-1.01491805e-16,-5.079349e-17,-2.1312708e-16,5.5591434e-17,0.0029760739,0.010607629,-0.0012393211,-0.0010544565,-0.026278209,-0.0385327,0.036262155,-0.09559834,-0.021714319,0.055769034,0.06145453,0.048929643,-1.32174555e-05,-7.0238055e-09,2.6967962e-06,-1.6294028e-06,-0.016057292,-0.0023525695,-0.024432605,-0.0025441695,0.0010189319,-0.0024259083,0.002046042,-0.00016534686,0.11800354,-0.093189426,0.1095785,0.10990121,-0.05747047,0.025782155,0.054443855,-0.15235403,-0.0022483577,0.09848407,0.11536999,-0.050133217,-0.032121286,0.050917692,-0.0489041,0.047981746,0.07623972,0.079649,-0.021491071,-0.11380126,-0.004249269,0.12579106,-0.036781773,0.0066173845,-0.02461488,-0.013430989,0.024159554,-0.10221869,0.030435694,-0.002186722,0.0050266027,-0.0018821247,0.107070096,-0.019803533,-0.055937897,0.086429894,-0.007192752,0.00805838,-0.008437351,0.012489838,2.0845825e-22,1.0596443e-26,3.8483374e-26,1.4389213e-27,0.035530724,0.060861908,0.04187469,0.095553555,0.0004980254,-0.00027614622,-0.0002532246,-0.00032520315,-0.09571723,0.033320624,-0.04887184,-0.032223865,0.090876125,0.14184365,0.01922425,0.091139205,-0.008398895,0.011901342,0.0072193188,0.021636704,-0.055085603,0.029093018,-0.0066385963,-0.08753054
0.009220338,0.015303578,0.00020725976,0.008429367,0.10019652,0.08784782,-0.00695429,0.03524728,-0.124230295,0.09638186,-0.12161151,-0.11732149,-0.093600616,0.009743416,0.09034676,0.047881585,-0.11512077,-0.08679269,0.10789906,-0.08240827,-0.07308088,0.06797016,-0.0876565,-0.05360771,-0.06874656,-0.019326186,0.06336544,-0.0938481,8.9573387e-32,1.667403e-31,-2.2045203e-33,1.8673907e-28,-0.0004907582,-8.762329e-05,-0.00045025395,-0.00011097355,-0.0017812792,0.02455652,0.05758647,0.06894676,-0.06816615,0.010607714,0.117005214,0.11166837,-0.0049936995,0.057093676,0.069968574,0.09126168,0.06946148,0.09803743,-0.060579192,-0.06155801,0.0610597,0.028724112,0.13663653,0.013630036,0.0874779,-0.04602108,-0.10912879,-0.05196044,-0.09288354,0.10563679,0.03253892,0.015152596,6.225054e-17,-3.4612748e-07,2.9070893e-06,2.071229e-07,0.011483669,-0.046803746,0.07345054,0.05493921,-0.052058123,-0.025183778,0.04589683,-0.09400039,-0.042769697,0.0040397584,-0.022937024,-0.033031832,1.31653915e-05,-5.5841523e-05,-2.4855513e-05,0.0029461407,-0.02388225,-0.038355663,0.010157415,0.013218707,0.0014475741,-0.0002367837,0.002312166,0.0032337885,-0.08821708,0.052053444,0.04647698,0.13884823,0.023253864,-0.1396816,0.06924995,-0.011181078,0.012969427,0.034096126,-0.04954177,-0.055180516,0.063188665,-0.09637979,-0.07717617,0.017583687,0.045359373,0.1284598,-0.025669241,-0.011784433,0.12962414,-0.12638012,-0.081444494,0.03139388,-0.041978445,0.108512804,0.05262637,0.0049049915,0.05875522,-0.028275866,0.03640756,-0.03643308,0.035125375,0.05095204,0.052063752,-0.10955575,-0.02662572,-0.023907227,0.010500868,-0.0060270517,3.3538712e-28,3.4649887e-28,2.288359e-27,-1.049724e-26,-0.011878144,0.035844438,0.07455106,0.120407626,-0.0012035026,-0.0015628932,-0.0018510848,-0.0009831191,-0.038788073,-0.07179026,0.036805194,-0.05176458,0.13426946,0.074378885,-0.09782976,0.019218119,-0.006122601,0.013442192,0.010271791,0.058423873,-0.10792927,0.030006004,0.08609394,0.051290374
-0.010747002,-0.014189274,-0.07598644,-0.05206654,-0.13930504,0.037752975,0.11579414,-0.099672474,0.1376704,0.07996765,0.07566242,-0.0010667744,0.00055804243,-0.03607704,-0.08787872,0.057808578,-0.05868607,-0.095014594,0.13532825,-0.108345024,0.1359944,-0.061674245,0.06731506,0.17036946,-0.078919336,-0.09717313,-0.06630171,0.120286904,9.319165e-31,1.4462165e-30,7.1501985e-21,-1.39978e-11,-0.0009048263,-0.0009087644,-0.0008004895,-0.0007752608,0.07313375,-0.07978151,0.11329629,-0.012096302,0.11882859,-0.09724172,0.10470554,-0.10375501,0.12324639,0.012050167,0.05100474,-0.037881095,-0.06006709,-0.030013489,0.017249376,-0.11876483,-0.04262859,0.01266629,-0.122133434,0.09173445,0.122441575,0.076580875,0.0642202,0.051839046,-0.045753617,0.043528516,0.110261366,0.117247574,-0.00013707041,-0.0004317805,-0.0007108451,0.00013876094,0.023928301,0.029143624,-0.069947906,0.07353356,-0.0011112281,-0.08195917,-0.08318772,-0.12041385,0.031663347,-0.10094763,0.04351215,-0.039106935,-0.0006035043,-0.013919277,-0.0012220923,-0.0011998687,0.08993807,-0.028991073,-0.073586315,0.06765176,-0.002178738,-0.004317826,0.02523003,0.0022368373,0.13740765,-0.06905333,0.12317502,0.106791675,0.09574123,-0.111289315,0.0007249595,0.111145504,0.09918028,0.07519344,0.053459838,0.018448848,-0.025059763,-0.08705117,-0.11556839,-0.03163318,0.011345097,-0.06956566,0.11848396,-0.1355016,0.13600528,0.03509886,-0.044102065,0.098289244,-0.106671974,0.09392177,0.015978081,0.1366657,0.042300068,-0.04861692,0.080642685,0.014125854,-0.102247074,0.05362979,0.0991794,-0.004420419,-0.08995646,-0.01568133,-0.033588346,0.0620201,-4.0966964e-07,-8.970879e-12,-2.353029e-06,-2.2623737e-12,-0.08901338,0.048394334,-0.0074491594,0.123378225,-0.0012635204,-0.0028714936,0.0005067199,-0.0020911999,0.111763045,0.00985459,0.121915326,-0.1250853,0.09423602,0.10591375,0.070550114,-0.035516407,-0.0068995375,0.0066922153,-0.016049096,0.013235788,-0.12551157,-0.011304792,0.026323393,0.115185924
0.03252234,-0.013006783,0.02362168,0.0024478151,-0.16265717,-0.09930702,0.027344594,-0.10618464,-0.0042700972,-0.09289388,-0.01545201,0.099984616,-0.09742498,0.0946167,0.04062299,0.13695158,0.03590405,0.0014847866,0.029176408,0.08270555,0.033890557,0.02767449,0.061276607,0.058741473,-0.04296326,-0.015916673,-0.018497419,0.0027763858,-2.670629e-21,-5.2413625e-28,4.3711386e-21,4.9469966e-29,1.1149152e-16,-5.797138e-08,-1.1833923e-10,-6.31108e-05,0.07920737,0.0427735,0.074685015,0.043041114,0.045330007,0.000108923196,8.7487815e-06,-5.282717e-19,-0.047133107,-0.033186838,-0.017363869,-0.058191564,-0.008549999,-0.0001339227,-0.00088025053,-2.4100103e-27,-0.04210858,-0.033439256,0.039808128,-0.056087807,0.022851909,-0.010034855,-0.030261118,0.02245582,-0.09935947,-0.03368382,-0.06467249,0.007833015,7.5549134e-16,-4.9861887e-06,6.6642475e-05,-3.2203066e-06,0.0031859952,-0.02199749,0.010854961,0.00029526302,0.014036666,-0.0006294605,-0.072904356,-0.051778246,2.9438282e-10,-0.0004265252,-0.0013931667,-0.0039650514,2.0905687e-21,2.0483232e-21,-9.277472e-24,1.4078462e-14,0.0011758023,-0.0074805766,-0.0008032486,0.0058764666,0.00094170636,0.0051459516,-0.0049112886,0.00888855,-0.034201212,0.08272917,-0.011923549,0.05944001,-0.12335972,-0.016850032,-0.091306396,-0.07271148,-0.11583743,-0.029253958,-0.058565605,0.14043741,-0.04321227,0.016709385,0.0024067773,0.020373711,0.098186575,0.05785322,-0.0016546936,-0.02692867,-0.025460416,0.056514494,0.013682566,0.040799722,0.028598733,-0.08089316,-0.06400397,-0.025728824,-0.006750468,-0.0042198794,0.002634137,0.002722753,-0.028685778,-0.062128365,-0.068690285,-0.06510394,0.027010266,0.015195071,0.053430703,0.037538752,-9.4983015e-33,-1.3016136e-26,-3.621374e-26,-1.5190861e-27,0.022345899,-0.055004615,0.118312694,0.10339454,-0.0005200285,-0.0009501195,0.000537159,0.0011799828,-0.06891312,0.088251434,0.018786054,0.090805426,-0.05183451,0.03479987,-0.11185532,0.026691772,-0.003211513,0.020590369,0.046526864,0.027304819,0.027187238,-0.045995764,0.010622329,-0.05149376
0.055218786,0.07536663,0.021420652,-0.03183911,-0.086593084,-0.07518322,0.097850725,-0.00047353393,-0.10961002,-0.10118323,0.13533022,-0.04085571,0.123835854,-0.06013197,0.033806283,0.12504044,-0.05193065,-0.033065226,-0.103925064,0.10857283,0.11661723,0.023280237,0.12115938,0.08700793,0.040986408,-0.0138756065,0.055838928,-0.08454528,-1.5153222e-31,-4.6571755e-29,-4.8556615e-31,-8.067464e-31,-0.0005560213,-0.00047467422,-0.0006554687,-0.000562583,-0.05681869,0.03319199,-0.096547596,-0.11051534,-0.043138683,-0.065425634,0.121553965,0.07977133,0.07438749,-0.053103473,0.0125416275,-0.06851621,-0.092027776,-0.02997248,0.10824676,0.027739737,-0.07509565,-0.09616412,-0.06800205,-0.032796957,0.108280145,-0.0539539,-0.123228915,-0.12043977,1.0704754e-05,-0.004433925,-0.019869441,-0.080241576,-4.6129296e-07,-5.092487e-05,-6.428729e-06,-5.9151336e-07,-0.006593713,-0.007793612,0.0764726,0.042961117,-0.061095167,0.020926317,-0.0306131,0.10443077,0.0288542,0.07114211,-0.010261095,-0.023500094,-0.00044213756,-0.0011726319,-0.00047863444,-0.0010182249,0.039091203,0.039036807,-0.026789451,0.04515718,0.001428033,-0.00040569948,0.003505897,0.0077827116,0.077461936,0.12522583,-0.03722447,0.027459184,-0.014418346,0.051519796,0.047523726,0.016393846,-0.109127924,-0.0701262,0.1176642,0.124988295,0.050999336,0.09342611,0.041320615,0.06672239,0.045364458,0.042252686,-0.11187207,-0.09433214,-0.06522186,0.022469845,0.0061438824,0.051066276,-0.11027477,-0.106819674,-0.107257396,0.01551922,0.028392887,0.047001213,0.05147312,0.04163075,0.045363214,0.10547251,0.09410606,0.08306103,0.0009177205,-0.047587007,0.069368795,0.061839245,6.567329e-20,-5.6560453e-22,7.078043e-20,1.68711e-20,-0.022042124,0.024219066,-0.012147287,0.0012031919,-0.00074299704,-0.0011459958,-0.0013786887,-0.0019854042,0.012366274,0.1269546,0.013328922,0.08749773,-0.12837487,0.030685427,0.08894162,-0.06359675,-0.036584925,0.017395519,0.026905678,0.035281908,0.10518472,-0.048419088,-0.019398129,0.011772074
0.08030454,0.042696614,-0.042694926,-0.07431775,-0.0036243252,0.021856228,0.13696514,-0.085144244,-0.0972173,0.09909882,0.06185896,-0.058283795,0.13568273,0.08656374,-0.0423951,-0.04010094,-0.09130404,0.037144605,0.03389382,-0.040631685,-0.06398668,0.0665765,-0.08548003,0.0728139,0.068781056,0.071896106,0.0839332,-0.022854276,-2.8541142e-22,3.1322987e-31,-4.9390712e-21,1.4305118e-30,-0.0006980974,-0.00077435945,-0.0006271961,-0.00064338604,-0.046498004,0.07322583,-0.10361261,0.105085425,-0.116968855,-0.1029936,0.01838508,0.011012525,0.011870242,-0.01592842,0.16436452,-0.006376091,0.010295714,-0.0246643,0.092619054,-0.015778737,0.056868587,-0.12863486,-0.07856431,0.057902094,0.035768457,-0.07379892,0.123648204,0.08991181,-0.0024619044,-0.072593175,-0.052105673,-0.0502608,-8.360427e-06,-1.1210551e-05,-0.00015069787,-7.697165e-07,0.000990412,0.016992088,0.002324034,0.022537217,0.12142984,0.12933524,-0.12104311,0.04136337,0.008373202,-0.06150813,-0.0073783556,-0.08410185,-0.0007341328,-0.0010070588,0.002142024,-0.001332988,-0.022825161,-0.023177505,0.02641171,0.00032913534,0.0002133966,-0.0011052629,0.0032740296,0.0048491415,-0.042622887,-0.07287459,0.12067777,0.10405853,0.04660974,0.10150454,-0.01963753,0.049387068,0.12079933,-0.06560647,-0.13427007,0.06639087,-0.09614116,0.08257176,0.043728173,0.03760623,-0.059640825,0.111461625,0.040523693,0.122839704,-0.06781607,0.029657159,0.035207715,-0.032933746,-0.049604367,-0.014340579,0.06349442,-0.012728625,0.06347814,-0.06463755,-0.033076473,0.010759165,0.13393015,-0.0032759223,-0.0006110054,0.12663357,-0.02548256,-0.02513523,0.027342496,0.062291514,-2.3520993e-08,-9.049065e-21,-5.725672e-09,-3.6558082e-19,-0.015199915,0.04333851,-0.10987892,-0.064224355,-5.0901835e-05,-0.0018477475,-0.00051491515,-0.002389273,-0.022888187,-0.05929152,-0.118102804,0.09882006,0.013322083,-0.055759218,-0.05262879,-0.002551998,-0.02598633,-0.003772138,-0.019303659,0.008905076,0.09721592,0.114747405,-0.006220212,0.041353095
0.016741166,0.017128682,0.0313113,0.07428126,-0.0024273333,0.005106782,0.12209004,-0.106928855,0.13234527,-0.014049735,0.10893766,-0.020254191,-0.045580167,0.110182196,-0.052486278,0.081998825,0.0043514674,0.09707928,0.13273995,-0.11810383,0.12971613,0.019091079,0.12848033,-0.022037541,-0.07839104,0.033316653,0.00069247145,-0.09398919,-2.0218906e-22,-1.6452232e-26,4.63326e-18,-1.0207623e-11,-0.00090507156,-0.0009101717,-0.0007836321,-0.0008087103,-0.022175092,-0.03596373,0.041316178,-0.0030639442,-0.019545084,-0.0924901,-0.0031881314,-0.09721653,0.056958348,0.051608473,-0.036020633,0.10382194,-0.13112977,0.077710316,0.103390485,-0.037023816,-0.11235966,0.13577715,0.124749936,-0.00191625,0.11178492,0.030073421,0.117701046,0.060552716,0.0043833815,-0.08746857,-0.015349347,0.028969437,-0.0007580602,-0.0007213546,-0.0006338405,-0.00027762156,-0.06691932,-0.052958727,-0.09998218,-0.07440486,-0.09075343,0.051244147,0.08081323,0.08844798,-0.09288354,0.009065055,-0.09751605,-0.0355174,-0.001181828,-0.008209789,0.0099028945,-0.0013097893,0.081393085,-0.0007896333,0.09019589,-0.026053011,-0.003569952,0.0091035,-0.010610633,-0.007573559,0.0565498,-0.061135918,0.104575224,0.10722464,-0.1004471,0.041382745,0.04068447,0.0017404968,0.005741003,-0.050246537,0.09010282,-0.021763375,0.0707822,-0.05068384,0.015989482,0.0507978,0.04088317,0.00021144553,-0.11634374,0.026408771,-0.0007334359,-0.07827323,-0.12521477,0.03970193,-0.10566088,0.10535773,-0.08696573,0.041798286,-0.026254948,-0.07970999,-0.047713347,0.04454679,0.037702166,-0.09794194,0.04020458,0.051731996,0.0141720055,0.068617284,0.096413784,-0.092114165,-1.4209925e-05,-1.0272887e-10,-2.2682505e-05,-1.513502e-10,-0.022913106,0.032690305,-0.15886766,-0.0719041,-0.0028505155,-0.0026917043,-0.008514256,-0.0015832629,0.10795598,0.016409887,0.038428623,-0.032564104,0.034820497,0.073391095,-0.10077851,0.08408118,-0.011206576,0.008946209,-0.030874869,0.010711679,0.020643532,0.0092757605,-0.10613477,0.07203406
-0.014989391,-0.016365275,0.043812864,-0.027826859,-0.117511526,0.107630074,0.09180256,0.12765011,-0.017886141,0.08328727,0.11515388,-0.07754639,0.0021551196,-0.009604212,0.090431996,0.02687799,-0.11403969,0.014342989,-0.10047251,0.026433919,-0.0887584,0.021030104,-0.09234549,-0.10602285,0.061933357,-0.0038160153,0.09845553,-0.028625028,9.753521e-28,-2.5358962e-33,9.109092e-24,-1.752126e-32,8.131932e-07,2.4738855e-18,-1.587186e-09,2.2634041e-25,-0.03757331,0.075509764,0.022177279,-0.0630681,-0.08644547,0.054576747,0.0039606225,0.0887617,0.02545096,-0.06109245,0.0237253,-0.018007368,-0.011829663,0.034709282,-0.11084678,0.116325244,-0.006809212,0.019474493,-0.05255034,-0.0670562,0.046176936,0.055783477,0.06370511,-0.10333522,-0.06435823,-0.10872828,-0.03168434,0.07489355,-7.137943e-16,-1.7792715e-15,-2.4138582e-12,-3.463867e-17,0.004566255,0.002949362,0.011493617,-0.041241974,0.04696266,-0.067754835,-0.090763904,-0.043684665,0.100266404,0.058387402,-0.03286382,0.041758236,-1.7910148e-07,-6.836335e-13,-1.0818211e-09,-9.9345185e-11,0.0114563685,-0.01661295,0.02298616,0.0032197416,0.0025464804,0.005340175,0.0036949487,0.0012831347,-0.014540666,0.029649248,-0.025150688,-0.07131908,-0.07623833,-0.058651194,0.0042584855,-0.05338787,0.10794384,-0.113597155,-0.033793204,-0.03113159,-0.0386589,-0.08697562,-0.07465037,-0.036815323,0.081632234,0.09953582,-0.014925091,-0.08318965,-0.045197163,0.11986085,-0.054968458,-0.050426837,0.0012365461,0.0538639,-0.0083451485,-0.07080505,0.040106997,-0.008312831,0.040599465,0.011723713,0.037223782,0.037480798,0.08476414,0.08909008,0.032707907,-0.023322383,0.02518913,-0.026867988,-1.7784034e-26,-1.56908e-33,3.3880898e-20,-1.4118538e-26,0.016144058,-0.078027904,0.0638384,0.041032366,-4.276613e-06,-1.3816368e-06,-3.6840117e-08,1.2443921e-07,-0.036364615,0.025037125,0.102219455,0.007764497,0.070511945,0.085909314,-0.020043137,0.019694619,-0.019140115,-0.011884685,0.003001232,0.0055841994,0.106007434,0.088307895,0.07029605,-0.06761999
-0.06367928,-0.014481099,-0.010693021,0.020210423,-0.08025941,0.11112399,-0.065565936,-0.07426056,0.10457101,0.09284753,-0.05307088,0.13767116,-0.07246693,0.08360804,0.08021619,0.1415224,-0.016838295,0.023073561,-0.08945059,0.029270299,0.11657224,-0.122140914,-0.09182764,0.015675845,0.120141365,0.11188504,0.11221801,0.05663797,1.1337988e-27,-1.5469027e-22,-5.023474e-27,3.6840587e-26,-0.0007569953,-0.0007107028,-0.0005595968,-0.0006223468,-0.08685807,-0.07818416,0.08419466,0.020170825,-0.10629757,-0.028002918,-0.06842703,-0.012380238,-0.089207016,0.01061442,-0.091683105,-0.07138757,-0.098464355,0.100005545,-0.08739061,-0.02758195,-0.046844527,0.07129604,-0.12753542,0.029525775,-0.03655117,-0.083847195,0.122416854,-0.10996205,-0.07409589,0.07768321,0.08883024,0.06797463,-3.0854183e-06,-1.1505019e-05,-0.00011202665,6.3969215e-05,0.006459603,0.10285468,0.10070002,0.0675075,0.011347622,0.12856577,0.07826208,0.05178011,0.035351116,-0.045264002,-0.038164195,0.04845572,-0.0026776725,-0.0005133241,-0.0085602375,-0.0011540066,0.016264787,-0.025906146,0.021228587,0.031581253,-0.002888921,0.0006425945,0.0031323817,0.0063925693,0.105638266,0.13517557,0.10586771,-0.024680503,-0.044191733,-0.118329935,0.012425753,0.04157056,-0.04936803,-0.0054889247,0.1302953,-0.061422095,0.075805075,-0.10664934,-0.012714239,-0.10671001,0.06346886,0.08702421,-0.114936516,-0.010013893,0.08639688,0.03100456,-0.0069998493,0.07529675,-0.08676118,0.058530934,0.08858656,0.115191594,0.00016948125,-0.021921135,0.020462029,0.039584253,0.11907691,-0.09958577,0.07980889,0.09883336,-0.04320492,-0.0030750178,-0.059169684,-0.032532535,-1.22334e-11,-4.9736545e-21,-6.908913e-09,5.8264735e-20,0.038580235,-0.07638877,-0.07117956,0.06964107,-0.001323348,-0.0027573826,-0.0008961529,0.0067649474,0.046071537,-0.08844285,0.027358877,0.018010905,0.071523026,-0.09205618,-0.012843701,-0.09659352,-0.023114478,0.0034800977,-0.029383183,0.017485917,-0.099642,0.04014147,0.0986109,0.09000761
-0.033235446,0.008350711,0.004269395,0.034954008,-0.012478063,-0.11115769,-0.00909771,-0.09092675,-0.112109005,-0.13791169,0.013638175,0.11286081,0.03383184,-0.0032352128,0.0045608003,0.019129973,-0.059086166,-0.036186267,-0.075830124,-0.06933835,0.06928425,-0.019576272,-0.06750876,0.028384965,-0.04443731,0.033717204,0.02845218,-0.024840865,5.628387e-24,-3.5545455e-19,-2.7002993e-23,-7.0350947e-29,-0.0004029806,-1.8259357e-07,-0.00051745534,-0.00017320384,-0.014760241,0.03836469,0.077238426,0.07415897,-0.06739174,-0.027525563,0.030034265,-0.058248546,-0.0528647,0.094249986,0.10880953,0.041216467,-0.028620634,0.032216035,-0.07428516,-0.10131554,0.10375669,0.1379193,0.08081746,-0.05276567,0.06347687,-0.124249786,0.10591972,-0.062979534,-0.04620024,0.075964466,-0.014114117,0.022277512,-8.1300805e-10,-2.6757922e-05,-9.103543e-09,-4.849253e-11,0.012012048,0.0034379247,0.038358506,0.028193163,-0.03129059,0.11332329,-0.045400668,-0.02122018,-0.054388292,-0.04713055,0.029557986,-0.02104584,-1.735462e-05,-0.00011585834,0.00016776966,-0.00028527787,0.025249211,-0.010283645,-0.0015336672,-0.014319978,-0.002407641,-0.00487014,0.0033111514,0.005648533,0.108041406,-0.055644203,0.093612045,-0.0029589932,0.045026757,-0.16763432,-0.018983463,-0.07285944,-0.062481705,0.0359533,-0.11268939,0.034570064,0.08441731,0.088452615,0.078691624,-0.12211588,-0.08278782,0.08485212,0.022386001,0.048394587,0.066077106,0.02280928,-0.019568108,0.009311682,-0.098959684,-0.06392379,-0.07398754,0.048856497,0.07491838,-0.026155576,0.016720254,-0.052425478,-0.11427157,-0.0725084,0.025058005,0.11709179,0.0023907104,0.026588658,0.0053297332,0.03982906,9.510642e-31,3.5179485e-24,-1.842084e-22,-3.9929115e-27,0.15064412,0.124024495,0.13421603,0.13744338,0.00010726273,0.0001649715,-0.0009009935,-0.0006209914,0.10571746,0.011610329,-0.03369167,0.12523752,-0.065944694,0.11389816,-0.09361287,0.11746937,-0.023329206,0.025422577,0.09106342,0.07933959,-0.121930525,-0.032030806,0.1024034,-0.11340904
0.02282809,-0.020632282,0.031747524,-0.012953384,-0.06964474,-0.05063269,0.14028199,0.019277854,-0.0039669694,0.048163623,0.07882082,0.06926441,-0.07459944,0.07269127,-0.0031384788,0.12734964,-0.056335233,0.023412896,0.051809397,0.046528425,-0.024696324,-0.0252664,-0.017128859,0.028077723,0.052826304,-0.06304974,0.03540775,-0.06050244,-3.793314e-30,1.7930311e-31,6.1543708e-21,-4.286331e-31,-4.401461e-09,-0.00013748687,-1.5321644e-05,-0.00013782669,-0.018911563,0.035751108,-0.012609812,-0.10943065,0.039925497,0.03279562,-0.101685345,-0.07302836,0.16253433,-0.08282075,0.0038073333,-0.05859268,-0.095265664,0.09528779,-0.024080958,-0.08302843,-0.105283424,0.116321415,-0.11033533,-0.07241294,-0.07543551,0.11686066,0.10158152,-0.010747385,-0.017029913,-0.08232515,-0.017649557,0.0028339375,-1.2496853e-08,-1.6793985e-16,-5.3494887e-06,7.2639277e-06,0.010019323,0.0021653436,0.0137468185,0.012780594,0.0041224295,0.114664204,-0.09616251,0.09058251,-0.05566813,-0.0076942123,0.05027326,0.00816864,-4.0128387e-05,-4.6609935e-06,-2.4862871e-05,-6.1209765e-05,0.017220825,-0.0022366222,-0.008241366,0.0023799464,0.0018683653,0.0037228193,0.007102136,0.0055397977,-0.03434867,-0.024943383,-0.06573747,0.014650891,-0.09643188,0.03803027,0.035884086,0.05281458,-0.0857607,-0.02570422,-0.0185998,0.04518078,0.023553375,-0.037104197,-0.06522709,0.029068546,0.08301378,0.008483541,0.067742616,-0.045553673,-0.073138304,-0.089115046,0.07017877,-0.03740155,0.14602315,-0.051200163,-0.06417366,0.052760474,0.0016544265,-0.010648846,0.052676328,-0.0069943187,0.093133494,-0.1207087,3.86494e-05,0.015715992,-0.0175632,-0.0109377215,-0.028300894,-0.011613747,-1.0337783e-18,1.0578049e-26,-1.055026e-21,1.7210589e-32,-0.086441204,-0.15008995,0.08549875,0.022463873,-0.00010423806,-0.00084147666,2.0541102e-05,-0.00032106542,0.007804651,-0.03204523,0.040405072,0.05808345,-0.0049488726,-0.06501645,0.0376045,0.11848049,-0.040322028,-0.0108636,0.022762254,0.0029412976,-0.047836736,-0.023563318,0.0913315,-0.08896539
0.08167118,-0.067292474,-0.025963953,-0.08816416,-0.05685318,-0.05088038,0.039698217,-0.09125875,-0.03361886,-0.086701185,0.11047174,-0.12994187,0.08663662,0.071695685,0.09307728,0.041163806,-0.015155333,0.1159384,0.042512845,0.05166044,0.040428065,0.0993303,0.06607128,0.028664723,0.08834221,0.065276444,0.07055307,0.04192218,-5.1416454e-30,1.4295613e-23,-7.184628e-28,-2.5089024e-14,-0.0008654642,-0.00093255256,-0.0007233218,-0.0007675657,0.0023942257,-0.07761966,-0.009589448,0.008075469,-0.08603292,-0.006410609,0.067248195,-0.12404055,-0.10721981,0.04959817,-0.06838198,0.07890621,0.10351728,-0.017393397,0.0073099905,-0.12778349,0.065594055,-0.024943607,-0.07241303,-0.017260706,0.02772419,0.0872993,0.09613504,0.02128488,-0.06171369,0.03222211,-0.07744183,-0.115170814,-1.4539479e-05,-7.7539415e-05,-4.9458667e-05,-7.04246e-05,0.07447622,-0.0786174,0.033591647,0.013587166,-0.1329534,0.10624163,-0.068889715,0.06988506,0.057517607,0.11734593,0.106185876,0.11191558,-0.00026073185,0.0033221215,-0.0023525709,-0.001276609,0.08034952,-0.060860056,-0.08160383,0.0044635255,0.012052191,-0.0019905018,-0.0013574867,0.003025954,-0.040772762,-0.069626234,0.063650824,-0.06798009,0.06638574,-0.10830587,0.02961168,0.021241432,-0.05017472,-0.008516318,0.0063732243,0.12895948,0.03495305,-0.047462672,0.071479216,-0.005900939,0.075287804,-0.07012481,-0.053891696,0.0345503,0.13393447,-0.08189953,0.026482793,-0.004717364,0.11298953,0.12756716,-0.052887972,-0.016708823,-0.084068164,0.039715502,-0.029990278,-0.0423448,0.028687438,0.08768652,0.04242865,-0.008835435,-0.06794154,0.06374168,-0.063641846,0.062266015,-1.5013767e-07,2.3498936e-16,-6.0006187e-07,1.1781888e-16,0.019229133,0.11871355,0.09118452,-0.10933878,-0.0016003404,-0.0025775204,0.0005603852,0.00021605418,-0.10672303,-0.104688324,-0.08457922,-0.13233249,-0.03227292,0.041207276,-0.019940939,-0.077526584,-0.0039559836,0.014042859,-0.008495999,0.0052928412,-0.053821582,-0.0044214744,0.0026173096,-0.031962927
-0.000527835,0.0019392906,0.0048302044,0.0037008503,-0.105370216,0.020277936,0.02476578,-0.015730081,-0.027647382,-0.0019553604,0.093446106,-0.030995296,0.01871565,0.022508528,0.093983434,-0.0023066145,0.08340415,0.092755854,-0.06600401,0.022847516,0.03348309,0.07311363,-0.07786249,0.07234404,0.05477433,0.04448233,0.08014787,0.050619848,2.41271e-32,-2.3896848e-32,6.815772e-32,-2.549474e-32,-3.100697e-25,8.4248184e-20,4.795874e-20,-4.2779777e-28,-0.0054050265,-0.031695716,0.0021580537,0.0012951121,0.038917027,0.007633286,0.0047636894,-0.038307756,-0.03848147,-0.0030182544,0.050221294,0.050126724,0.085414544,0.053625785,-0.09375005,0.08521619,-0.09160686,-0.10014737,-0.011095793,0.04003336,0.10458433,-0.097985946,0.046200715,0.108539335,-0.01810759,0.01974921,-0.04145402,0.03644734,2.8861578e-16,5.6936004e-18,-4.3685425e-30,-7.77455e-26,0.003494884,0.00060450274,-0.0030618936,0.00028884743,-0.052836567,-0.068375304,-0.016542558,-0.03367075,0.006886202,-0.02478162,-0.012800922,-0.021070303,-1.8724347e-08,-8.44789e-09,1.3978662e-08,-1.2472278e-24,-0.0059527317,0.0007445633,-0.0019569916,-0.015894081,-0.00011406486,0.00023073614,-0.0005611292,0.00053468475,-0.04008553,-0.04471398,-0.07990515,-0.052476708,0.07652741,0.044060115,-0.048923783,-0.044998668,0.08350704,0.09161051,0.07741274,-0.07087884,-0.011700771,-0.020308668,0.026221372,-0.02869465,-0.049329784,0.0057384134,-0.0015933887,-0.0042404854,-0.07913802,-0.047471914,0.049540196,-0.045027442,-0.013992063,0.016560312,-0.018248599,0.04557481,0.040877514,0.004628832,0.021203011,0.019142777,0.06295795,-0.044392135,-0.07634288,0.05872394,-0.0018630009,-1.910673e-05,-0.0016046021,0.002170705,1.7026759e-22,8.9440706e-33,-2.1333245e-19,2.7689387e-33,0.00020761671,0.0049539474,0.00804576,0.008305742,-1.05561613e-16,1.7644946e-09,-1.34403036e-17,3.1564293e-11,-0.0008263153,0.10790598,0.035103783,0.020175176,0.051647555,0.047096673,0.05624564,-0.031291783,-0.0062664053,-0.0025809354,0.00076496333,-0.0015967829,0.09766035,0.01076195,-0.022108756,0.043616056
0.015255448,0.03830189,0.012409981,-0.014900458,-0.09593848,-0.019769588,0.009471575,0.0301402,0.04511872,-0.0660621,0.0331508,0.13841729,0.02269373,0.04064941,-0.04339884,0.08536013,-0.091302425,0.035833083,-0.108291306,0.01051777,-0.096707314,-0.18547496,0.024802817,-0.084435426,-0.0043210164,0.06564756,0.043369487,-0.06264878,-4.8261864e-33,-3.0139666e-31,5.4716314e-31,-1.7092002e-32,-0.00034380003,-0.00026887184,-0.0004532201,-1.7350247e-05,-0.01625825,-0.025213169,0.054019064,0.0061151437,-0.05063313,0.012230454,-0.019244852,0.07101572,0.10939173,-0.11882192,0.052965686,-0.057411343,-0.04882511,-0.049199093,0.043914784,-0.036308054,-0.039674487,-0.033810973,0.04380681,0.038500678,0.012782711,-0.02087922,-0.071860656,0.009883193,-0.036650177,-0.065999344,-0.029318837,0.06046078,-6.058072e-07,-3.0877534e-05,-9.483998e-06,-3.0540366e-06,0.008359868,-0.0005422949,0.016276455,0.005443504,0.022446513,0.1438952,-0.079676114,-0.081682794,-0.029781818,-0.0007504692,-0.013449012,-0.00047651527,-1.1408821e-05,1.9272389e-07,2.5816286e-07,-1.00036666e-10,-0.0007953798,-0.012223835,0.0115803005,-0.0015297567,-0.00075857097,-0.0011036347,0.008282862,0.011775028,0.020608928,-0.12897465,-0.068182535,0.08556969,0.08040469,-0.027469909,0.040083323,0.12657484,-0.017443603,-0.066740826,-0.10746148,0.011582416,0.027685266,0.03979262,-0.057313982,0.07563608,-0.04467214,-0.012918115,-0.032729458,0.025334904,-0.042500872,-0.031737078,0.007108726,0.14203082,0.10667135,-0.09842968,0.08483641,-0.0621691,-0.045059964,0.01497642,0.01752161,-0.0019789096,0.050232388,-0.1179265,0.08624596,-0.021752184,-0.0037760052,0.0039109453,0.0048180004,0.026907235,1.1193161e-23,2.0226136e-25,-3.166148e-14,-1.3712351e-23,0.0711389,-0.048214607,0.10216658,0.12864293,-0.0009942299,-0.0013931359,-0.0010768947,-0.0010898105,0.010109051,0.14778024,-0.117092155,0.0752013,-0.16103655,-0.025718102,0.08759347,0.040640026,-0.03364003,0.016805219,0.05953662,0.06015301,-0.015608404,-0.010366169,0.027361277,-0.027094604
0.01637235,-0.009387524,0.0128558045,-0.009344254,-0.04180558,-0.077322975,0.030412534,-0.068510585,0.00121897,0.031476587,0.029900284,0.04803173,-0.032111943,-0.06638524,-0.06921477,0.076797314,-0.07338977,-0.032019403,-0.04766808,0.0587107,0.10092104,0.058510866,-0.044935923,0.042100295,0.003529861,0.008609717,0.012627001,0.010369217,-2.1591682e-31,-3.0863847e-32,-3.3818493e-31,-1.4552293e-30,-0.00051219715,-8.978362e-06,-0.0003397807,-0.0003174373,0.045123916,0.037116274,0.030847339,0.018435461,-0.0028540217,2.80743e-07,-0.0002705261,1.839683e-06,0.039080974,-0.056957714,-0.006259698,-0.033250574,3.8754396e-11,-1.259795e-07,4.9105128e-24,-3.3885585e-32,0.010215896,0.08671237,0.03576287,-0.037627216,-0.079742916,-0.10207522,0.019301346,-0.027234001,-0.009781767,-0.036735047,0.0076698684,0.008315384,-2.7181255e-07,-2.4600307e-05,0.00023021395,3.3604505e-05,0.011910089,0.0008830674,0.017796585,0.0054385867,0.062294908,0.06840302,0.03966474,-0.010521295,-0.0011947383,-0.00066246436,-0.0016726244,-0.008259185,-1.1936932e-33,2.167043e-22,-4.9694104e-33,4.9208988e-29,-0.0027537139,-0.008771716,-0.0075033293,0.008022014,-0.0015071773,0.0041348306,0.00051912444,0.008346368,0.07799107,0.06924576,0.034965653,-0.0038630953,0.084326945,0.03577914,0.067210466,0.0041053505,0.045382958,-0.13716769,-0.119841546,0.0075181774,0.0053099887,0.026109388,0.008009092,0.011697809,0.09179458,0.039766874,0.019316357,-0.090483055,0.06445438,-0.003938262,0.01926786,-0.018225605,0.12088215,0.052040096,0.0143073555,-0.018332742,0.008530505,-0.002460407,0.00196381,0.008922653,0.038721234,-0.028669203,0.04028378,-0.09271553,-0.0020781388,0.009426489,0.01442701,0.04135601,-4.609285e-27,3.023856e-24,2.0309493e-16,-9.832643e-21,-0.0047501056,-0.02709937,-0.00089943816,0.013112943,-0.0026111603,-0.0024432978,-0.0002915051,0.0016647151,0.039551057,-0.011127091,-0.01974517,0.04978783,-0.062315267,-0.121795334,-0.029372264,-0.018314205,-0.024562353,0.0041199774,0.00074735476,0.011424591,-0.0065875268,0.026012719,0.055707965,0.029708495
-0.0016857592,-0.0006524743,0.0023808721,0.0009954538,-0.0046831695,0.0010216763,0.0014873025,0.0009870308,-0.0025456168,-0.0015791354,-0.00015576715,-0.0006180804,-0.0041050464,0.0015365129,0.012200473,0.0021457926,0.0015993214,0.0012478669,0.0017485678,0.0016978288,0.0067776972,-0.0022870775,-0.0067734076,0.0020932632,0.0050764037,0.0005158609,0.0041549914,6.259128e-05,-2.4556669e-32,-1.4557028e-32,-3.4556522e-34,-6.2768737e-31,3.481183e-26,-9.468864e-35,-2.3019048e-24,2.1271996e-26,0.0004327456,0.0014765082,-0.0020777206,0.00044777535,-0.001298419,-1.5503748e-13,4.5086643e-20,1.8233247e-32,-0.0039496394,-0.0055320305,-0.00028311543,0.00039024887,-3.4705838e-06,8.2203195e-07,1.2171759e-08,4.8575645e-13,-0.001620166,-0.0028161723,0.0024150303,-0.0011989664,0.0020927838,0.0002557162,0.002432028,0.003531899,-0.010979191,-0.00027381408,0.002294531,0.00015043712,-6.691454e-18,3.5990462e-16,2.5221144e-08,3.604441e-08,0.0022752455,-8.645706e-05,0.003925356,0.0018682828,-0.0055734515,-0.003102177,0.004130031,0.0031110412,-3.559529e-17,-1.4205702e-10,-1.1162864e-09,-0.00012566491,-8.091672e-22,1.4880204e-23,4.4422636e-20,-3.964398e-18,0.00063245924,-0.00015005076,-0.0006588912,-0.0008926257,0.001679201,0.0014778948,0.0006570662,-0.0005394315,0.013484088,0.0024510983,0.0055284863,0.00035175445,-0.013558065,-0.0038961829,-0.0010130705,0.002847464,-0.004199208,-0.0015863472,-0.0005352836,-0.000798284,0.0021291429,-0.0010156224,0.00075624057,0.0014180638,-0.0019233375,-0.00064547895,0.0012678539,0.0019644087,0.005821792,0.004124193,0.002233126,-0.00017461057,0.00016947475,-0.0108883055,0.026824666,-0.0014988446,-0.00078527804,-0.00040879266,0.006338152,0.0019499055,0.007460608,0.0006264324,-0.0032765802,-0.00043063212,0.0012697227,0.0031337035,-0.00076868,-0.001503633,-1.2083986e-32,4.594946e-28,2.9351653e-32,-1.2124572e-22,-0.00041766374,-0.0011646573,-0.0016548361,-0.00021538514,-2.211254e-18,-1.1522618e-09,-7.496072e-12,-2.0585518e-17,-0.0015745474,-1.0753924e-05,0.0009209073,0.0012946986,0.0017256346,0.003940355,0.002948987,0.0017917699,0.00086863566,0.0046489765,-0.0018765634,-0.002865462,0.000166999,-0.004313674,-0.0024056486,-0.0032176003
-0.091340356,-0.06020605,0.061957635,-0.093165845,0.1292578,-0.03844101,0.017354073,-0.093500115,-0.07580383,-0.11339407,0.10753245,0.001882617,0.13161029,0.011261482,0.08238055,0.082726255,0.1187596,0.11221427,0.031687107,-0.049979504,-0.067659974,0.092528336,0.08108582,-0.104417704,0.008731877,0.12339583,-0.10879175,0.015298422,-2.1612868e-24,6.4826525e-31,-4.2451617e-28,-1.1435435e-22,-0.000761624,-0.0006382453,-0.0006007166,-0.00063842704,0.038904473,0.06976641,0.036672816,-0.03128199,0.094673365,-0.06623722,-0.07846518,0.104290545,0.011223653,0.004287499,-0.08733864,-0.079394214,0.061459035,0.068996206,-0.0632225,-0.018614518,0.048207954,-0.042729806,0.09659462,-0.04748878,0.08533663,-0.10035333,-0.107156,0.02132276,-0.064478114,-0.018674616,-0.010414664,-0.11307634,-5.216495e-09,-1.6191336e-05,2.8552313e-06,-2.0408235e-05,0.018116439,0.12030018,-0.071037754,0.032143336,0.13436466,-0.07911425,0.102395386,0.13400334,0.03473211,-0.053906538,-0.002290874,0.12019451,-0.00026470356,-0.00047552015,0.0074810535,-0.001153936,0.055605143,-0.04882319,-0.07225163,0.0007378984,0.00062479224,0.0011864798,0.0033354308,0.0037984462,-0.09517393,-0.08361975,0.08237869,-0.0011146964,0.108642876,-0.099616125,-0.008918216,-0.08972733,-0.102012254,0.046693295,-0.03431495,0.12813628,0.039581355,0.07447735,-0.09332813,0.07406655,-0.0664765,0.022796186,-0.06422019,-0.102554984,0.084401615,-0.08350406,-0.116018035,0.09512223,-0.07184126,-0.035641372,-0.060861,0.12953925,0.0045718458,0.06482582,-0.07950545,-0.09395616,0.033338092,0.07380323,0.036237575,0.09276355,0.0807319,-0.039110303,0.017393494,0.097164385,-4.364533e-13,4.017597e-22,-7.0179773e-09,1.1035268e-23,0.05361635,-0.06267804,0.037358947,-0.01363776,-0.0021463092,-0.0035221293,-0.0027769327,-0.0062481454,0.016999815,-0.0782783,-0.013527554,-0.0666757,-0.07294032,0.0042064935,-0.08363161,0.03977097,-0.0028176047,0.027823359,-0.01803473,0.00987311,-0.005712844,0.00067804754,0.1016227,-0.012365359
-0.006579992,-0.018903434,0.05720521,-0.05058525,-0.013536604,-0.05673206,0.11291371,-0.00366765,0.13407266,0.103923,-0.076821566,0.12411957,0.08307779,-0.09817331,0.061535783,0.1014691,-0.0764442,-0.032198444,-0.1579462,0.03300035,-0.031094287,0.02551704,-0.1053759,0.07963848,0.12123512,-0.0994902,-0.056375597,-0.060883287,1.0098851e-30,-1.6854161e-26,4.46958e-24,1.0371666e-30,-0.00047604073,-0.00065189827,-0.00042995077,-0.000397991,-0.0025552914,-0.049531188,-0.08211481,-0.09520828,-0.006891888,0.06492302,-0.016817426,-0.10954981,0.14519088,-0.11634648,0.13485308,0.0006854863,-0.05029463,0.031053666,0.043113675,0.009320525,-0.05409727,0.087874934,0.032181032,-0.021101201,-0.084989265,-0.08353695,0.07312328,-0.05736528,0.053068984,0.10161615,-0.10906597,0.07053115,-3.2658843e-06,-1.1712569e-06,-8.395249e-07,1.0675826e-05,0.011189412,-0.009283953,0.07101156,0.09804689,-0.045764577,-0.0997763,-0.0694419,-0.007099314,0.0065031494,-0.024447497,0.06668545,0.01067135,-0.00037820858,-0.00045811862,-0.0046086144,-0.00074653345,-0.028950078,0.018017858,-0.007026983,-0.007192722,-8.721534e-05,0.0008771573,0.0148842875,0.0070378073,0.06885073,0.081029385,-0.116599426,-0.010138591,0.08671333,0.04187519,0.082022674,0.0970359,0.0070243394,0.120872304,0.047485843,0.12922032,0.08808258,-0.012508836,0.07617488,-0.0761044,0.05095101,-0.09282677,-0.02825732,0.10973863,-0.014249457,-0.06733854,0.09724662,-0.028518455,0.1696103,0.027627748,0.11953796,0.12058568,0.045164365,0.053429656,-0.024908224,-0.039055977,-0.057679348,-0.07922154,-0.07707773,-0.14078063,-0.009552025,-0.0082398625,-0.056825705,0.061280552,-2.3263645e-21,2.0819922e-26,-7.701992e-09,1.3717153e-26,-0.07975065,-0.07747776,0.048347753,0.00087355985,-0.0009618512,-0.00246121,-0.0011267023,0.00018149549,-0.072295755,0.028977238,-0.121942505,0.034263697,-0.05304019,-0.04742214,-0.1016093,-0.12064447,-0.03941889,-0.008833575,-0.010628305,-0.0051010693,0.0059131146,-0.08579185,0.08410459,0.07244662
