-0.021933282,0.023741,-0.01745992,0.020828811,0.119692564,0.100342005,-0.13306424,-0.040187903,-0.02938668,-0.033693343,-0.11346116,-0.041954976,-0.08789693,-0.0063019097,-0.0011303574,0.018200532,0.054482725,-0.09042651,0.124634564,0.033018153,-0.069101185,-0.038365684,-0.112585396,-0.11800163,0.09883668,0.025793187,-0.09756379,-0.06287216,-0.05094549,-0.11247984,-0.017157381,-0.058093496,-0.06318983,-0.0095551,0.11398653,-0.022617733,-0.021405187,0.13637519,-0.014944103,0.09329703,0.08262146,-0.100382775,-0.007802185,0.0259558,0.08491882,0.08137185,-0.014304273,-0.069274835,0.053856917,0.094219565,0.14927012,-0.120625585,0.00930349,-0.03833047,0.06297723,0.041734632,0.0633968,0.109701425,-0.032076787,0.09100887,-0.036603928,0.03514004,-0.10204184,0.12477237,0.070719615,0.011860028,0.014417938,-0.0687919,0.036910865,-0.057358846,0.037287712,0.06579361,0.068737224,0.12863481,-0.11324317,0.0040766536,0.112884745,0.019756718,0.072068594,0.008635224,-0.034158695,0.06360417,-0.027967338,0.17379573,-0.1257838,0.08794645,-0.0815091,-0.1128962,0.050359014,-0.11049006,-0.12887257,-0.12143111,0.073885724,0.07954644,-0.10378683,-0.124425806,-0.044136204,-0.03671754,-0.057706796,-0.10788608,0.038488895,-0.06827453,-0.098360896,0.056641612,-0.032529153,0.016959652,-0.022952862,0.034449592,0.07541832,0.030907264,-0.093569785,-0.0610452,0.10475947,0.017676055,-0.0022251457,-0.05658123,-0.10730608,0.023646643,0.05313294,0.008513216,-0.025250664,0.013178415,0.11071439,0.10293246,0.10776626,-0.038905215,-0.110404484,0.034258336,-0.0032640493,0.0402924,-0.028549766,0.10748227,0.027335368,-0.11006108,-0.062648945,-0.12921365,-0.04292235,0.046645656,0.07301526,-0.12426554,-0.028982298,-0.076429024,0.044697344,0.05918995,-0.086982496,-0.11478253,0.106676005,-0.0011361112,0.0096588,-0.033744413,-0.10474334,0.05674709,0.009700082,0.093429215,0.058495447,-0.00029903348,-0.10202385,0.053989884,0.014023853,0.06373095
-0.025186647,0.024339177,-0.010997929,-0.03600382,0.18463899,0.12487334,0.06613174,0.052217256,0.0012039385,-0.007901192,0.023578469,0.037419483,0.12824225,0.023784935,-0.058254965,-0.10237279,-0.11970344,-0.11017014,0.010239872,-0.081003584,-0.05263234,-0.05670441,-0.056462787,-0.044678956,-0.08866548,0.01962342,0.08332504,0.10922025,0.11220993,0.04088913,0.11067372,0.08992878,0.10075282,-0.047183793,0.0393897,0.05040911,-0.10222343,0.04716359,0.097010575,-0.06948144,0.12038053,-0.006496311,0.08047465,0.096946426,0.14629625,0.027019111,0.035513446,-0.008650799,0.12294512,0.026380755,0.011164038,-0.09359896,-0.011690073,0.082243964,-0.109438695,-0.1451014,-0.034716625,0.12888758,-0.0015900324,0.1015778,0.051496673,0.13425697,0.0007790088,-0.120744675,-0.085840315,-0.12402017,-0.020737974,0.033748683,0.12642859,0.03900955,0.033154603,-0.020956507,-0.0732233,-0.023808096,0.042861145,-0.11122098,-0.026748892,-0.062425017,0.057323877,0.009565539,0.06701958,-0.042962655,0.17893657,-0.09251107,-0.012295201,0.02378093,-0.07253029,-0.08960673,-0.039100617,0.102524936,0.075296864,-0.010747479,-0.07668553,0.09638094,-0.102081016,0.074674934,-0.026353486,-0.04347559,-0.023735441,0.052082494,-0.09404664,0.024318848,0.07205663,0.09528379,0.11247368,0.086787105,0.013716191,-0.112237446,0.11054708,0.06318032,0.04273287,-0.09685446,0.11744201,0.02794224,-0.10175525,-0.06531611,0.15276782,-0.06389211,0.12939294,0.123234764,-0.04142452,0.11712293,0.10889259,0.07166819,-0.04763682,-0.11596754,-0.080515616,0.06070765,-0.054582153,-0.0037183557,0.08335868,-0.081968464,0.11974834,0.06481315,0.08294398,0.047002904,0.078667186,0.11056445,0.12190953,0.08695409,-0.07209407,-0.09219435,-0.093873374,0.022237258,-0.09409681,0.07754018,0.058866046,-0.12396416,0.008908169,-0.117365204,-0.06487979,-0.1268814,0.11843963,-0.03096545,0.08619068,0.039665356,0.0027750966,0.09966224,0.058869425,0.05758351
0.0044009374,0.06950626,0.07205211,0.0915608,-0.07176616,-0.03185232,-0.05457476,-0.073733486,0.029391963,-0.07598647,-0.02551795,-0.05387675,-0.059056804,0.110415,-0.1361176,-0.1361608,-0.06725586,-0.063116945,-0.019107237,0.029854137,-0.13504072,-0.12652124,0.067883745,-0.10433686,-0.0040347013,-0.031940572,0.06280088,-0.04424122,-0.10864623,-0.026640343,-0.0034589372,0.12115892,-0.10845096,-0.059794627,-0.10145929,0.0025478157,0.07533575,-0.023074768,-0.008894714,0.04951988,-0.11839317,-0.021054823,0.09617666,0.11705996,-0.084223434,0.051964395,-0.07163286,-0.12879042,-0.04761038,-0.08956321,0.11295497,0.018809669,-0.12091902,0.0004242496,0.11318647,0.067637645,0.0659191,0.0044423323,0.11374513,-0.13924931,-0.13834228,-0.10619769,0.051735416,0.10095827,0.08288588,-0.063242674,0.09138976,-0.03569871,0.10302101,-0.10704552,-0.09844017,0.1359907,0.11881012,0.09500744,0.07320668,-0.12327505,0.078135625,-0.0341572,0.0773827,-0.085997894,0.039328147,0.07361428,-0.087280534,-0.002591507,-0.033927966,0.104821116,0.10757733,-0.09025156,-0.070102975,0.08481856,0.109516114,0.107306994,-0.122279614,0.092661336,0.038539648,-0.12929738,0.09508051,0.046601042,-0.033715308,-0.098289296,-0.035642497,-0.044991583,-8.960679e-05,-0.016462673,-0.056581296,0.05685824,-0.016031966,0.13105765,0.13791716,0.083092116,-0.08532316,0.093366794,-0.08675857,-0.11302149,-0.10829684,-0.13506237,-0.043286614,0.14368927,0.1005474,0.0671522,-0.041325405,-0.05582092,0.020090854,-0.11335521,-0.10989304,0.071811326,-0.12312777,-0.09650815,-0.0740781,-0.06456597,0.13717332,-0.020092884,0.05825613,0.08862799,0.09711135,-0.05967543,0.06913683,0.11704311,0.061282292,0.014170219,0.105945826,-0.029212551,-0.0034590268,0.14058211,0.08843722,0.084026575,0.0732769,-0.0021209614,-0.011308854,-0.12771666,-0.03226507,0.12607592,-0.13662115,-0.0399818,0.03703416,-0.10176312,-0.128175,0.06408577,0.03527941,-0.0141232945
0.029313395,0.1426718,-0.055633128,0.10691049,0.022309527,-0.043548364,0.028930947,-0.07219626,-0.05991662,0.089334905,0.09605586,0.07104533,0.10179034,0.06376304,-0.120147966,-0.021977738,0.082775906,-0.11056018,0.064914316,0.017141039,0.054675415,-0.12476586,0.06680079,-0.069285445,0.09242065,0.015244136,0.093012325,0.05016988,-0.03106255,0.04327305,-0.03077081,0.082623,0.034677565,0.10137969,0.029620357,-0.040951256,0.11642944,0.05271295,-0.09918419,0.045924477,-0.09731135,-0.02349796,0.08163405,-0.008718281,0.018656682,-0.09116372,-0.004236928,-0.10647774,-0.10512882,-0.029593034,0.024099814,-0.059767198,-0.11148175,-0.06247777,-0.02244664,-0.057856325,0.08847236,0.0036532502,0.04758326,0.09471899,0.03725161,0.12472566,-0.07742922,0.109549835,-0.058249015,0.003547411,-0.034518506,-0.06207789,0.14555517,0.010104688,0.047277994,-0.07325403,-0.07757812,0.06787214,-0.022143552,-0.04950175,0.024564546,-0.036300573,0.057948776,-0.1357091,0.13550514,0.011328553,0.080961235,-0.08070714,-0.04615903,-0.10798769,0.082377985,-0.087858416,-0.08996849,-0.097804226,-0.095878,0.0060177078,-0.12556219,0.0768663,-0.022840088,0.044966627,-0.09881364,0.0148576945,-0.13212644,-0.10074939,0.05453221,-0.064791374,0.09801505,0.030957729,-0.026674502,0.009675443,-0.03834779,-0.08567797,-0.080554634,-0.108127415,0.04446021,-0.0707187,-0.00514099,-0.10589381,0.10267092,0.052369043,0.07271271,-0.016169513,-0.033851076,-0.08764393,0.080046706,-0.06291349,-0.013122745,0.06711889,0.1148396,-0.076269515,-0.025251467,-0.109005556,0.08529925,-0.067109816,-0.079942375,-0.008181929,0.014027242,-0.09191046,0.13281412,-0.08194304,0.054933,0.046328314,0.051717956,-0.064456455,-0.077202015,0.016037734,0.09285271,0.086754605,0.063772134,0.02006395,-0.12286578,0.004459315,0.066614576,-0.06171497,0.015154604,-0.0666355,-0.08113876,-0.038920023,-0.12844297,-0.013667419,-0.10195254,0.1297305,0.081394166,-0.11242514
0.12717564,-0.08005706,-0.09958919,0.1099921,0.024034845,0.06373994,0.08378172,0.06123168,-0.013624327,-0.05887648,-0.07489648,0.107932925,0.028531387,-0.093100995,0.030783132,0.0026949942,-0.02714979,-0.033587825,0.113153726,0.0035059683,0.094624266,0.06123382,-0.035538465,0.08519404,0.06376156,-0.0073057152,-0.088607445,-0.01363639,-0.018971505,-0.13435376,0.105382256,0.05657615,0.022565717,0.06260209,0.048715636,-0.12111363,0.009675579,0.12211896,0.0931122,-0.06379965,-0.07644482,-0.113328226,0.09350661,-0.09788752,-0.1068963,0.08504021,-0.11688032,-0.10499211,0.0023818193,0.11740314,-0.10065751,-0.06746438,-0.08498606,-0.12158053,-0.09988962,0.025671463,0.10934001,-0.007096665,-0.11837421,0.062277663,-0.10869098,-0.10324658,0.115694076,-0.09264143,-0.025073798,0.02222777,0.08507886,-0.08227005,0.06547428,-0.02635433,0.08667137,0.09155879,0.11305562,-0.027073713,-0.051718608,0.092147544,-0.06662764,0.12807544,0.0498924,-0.12720992,0.08459127,-0.055833053,-0.094545454,0.14439055,-0.113903336,0.021761738,0.023873251,-0.056972098,-0.061543822,0.13739955,0.048641022,-0.010545428,-0.06846613,0.017520813,-0.04492312,-0.11001999,0.066866904,0.003048107,0.007762268,0.1044772,0.08988738,-0.1320865,0.11787002,0.12329046,0.13365075,0.025570229,-0.07901716,0.07517803,-0.04454835,0.064911395,-0.13547336,-0.06285971,-0.013423033,-0.07441684,-0.039346978,0.111001566,-0.07609337,0.101027645,0.108947575,0.041164175,0.14057904,0.00082121545,-0.037841152,0.06468007,-0.021515345,-0.0917414,0.0162394,-0.09179544,-0.05924947,-0.049557555,-0.04776047,0.08346504,0.042876735,0.10494062,-0.06469349,0.120452344,0.02408129,0.10055667,0.11512022,0.105929144,0.07701217,0.113045484,-0.09251255,0.13960806,0.09627953,-0.07485333,0.089095876,-0.11148249,-0.11718521,-0.08656007,0.12309466,0.068066485,-0.04305549,0.078499764,0.10296853,-0.06518597,0.04718751,-0.085068755,0.04766118,-0.016278503
-0.11936948,-0.07458642,0.109783635,-0.084957756,-0.015693747,-0.087984115,0.07305187,-0.09397116,0.018740503,0.0056937365,0.010831746,0.1009876,-0.11029715,-0.1305318,0.011922523,-0.06639395,-0.08306512,-0.038905106,-0.0403728,0.025404906,0.10927704,-0.055830553,-0.08889651,0.017828807,0.06210633,-0.11971774,0.007624694,0.047812916,0.0026444718,0.0091042295,0.089972556,0.098840564,-0.027956001,-0.020112561,-0.124212846,0.018065209,0.10198716,0.12747473,0.009579153,-0.080874585,0.04358393,0.024117786,-0.09660288,-0.026508423,0.08082497,-0.045890465,-0.042539626,-0.07229091,0.014052247,0.08831398,0.016800603,-0.087610014,-0.09331389,0.11326927,-0.07341996,0.009259987,-0.13695951,0.11908106,0.036892045,0.047279477,0.124260835,0.102196604,0.04367455,-0.04331192,0.028361311,0.08448142,0.03593655,-0.034291524,-0.03692899,-0.11941346,0.11501738,0.10514118,0.057535734,-0.0998804,-0.10517603,-0.11412933,0.12352091,0.08765567,0.06497322,-0.03965801,-0.057780158,0.08824366,0.12650356,0.103240386,0.07927728,0.042382363,-0.02394972,0.0954574,0.0046080705,0.10067494,0.028599646,-0.083084695,-0.09074829,0.07088283,0.11835989,-0.084167734,0.0031726211,-0.06445525,-0.12757753,-0.012432359,-0.11611624,0.09081352,0.08626393,-0.09875014,0.10405123,-0.13539468,-0.067130886,-0.13284434,-0.11779194,-0.013571438,0.12171602,0.10736832,-0.09334376,-0.06254378,0.08404213,0.022059157,-0.08473974,-0.033920147,0.11676091,-0.06556291,0.03824003,-0.032273795,0.13112822,0.12781373,-0.012785065,0.035025723,-0.09017418,0.006004219,0.099750355,0.070351854,0.018329097,0.021311784,-0.10397917,0.024684785,-0.119444296,0.042652868,-0.0598046,0.083639175,-0.050435375,0.08678183,0.020332899,-0.0866621,-0.028236398,0.016477615,-0.06802013,0.02425,0.12389487,-0.1305107,0.12348961,-0.008040682,0.101074256,-0.06685833,0.077443056,0.028092349,0.09210503,-0.120506965,-0.1385801,0.054219086,-0.027793746,-0.09183845
0.13097881,0.059644137,0.013774098,0.12910043,-0.0767676,0.033538125,0.06486711,-0.101598375,-0.009721678,0.11823861,-0.036547486,-0.011181169,0.07013507,-0.11168761,0.02979058,-0.0031335652,-0.02950562,-0.016678233,-0.06560046,0.1193528,0.008756295,0.05476594,0.02237077,0.1154283,-0.03109951,-0.076663464,-0.13075532,0.021311853,0.121509165,0.1262451,-0.054398585,-0.07647469,-0.031229515,0.05646229,0.0274806,-0.034066882,0.0490392,-0.0054411283,-0.103133895,-0.012293087,-0.016478678,0.050056793,-0.06809531,-0.11733231,0.12865725,0.12053874,0.117542304,-0.046961147,0.021404944,-0.106166504,-0.09813635,-0.08700342,-0.020109642,0.13806997,-0.09806795,0.121733174,-0.07972479,-0.040524732,-0.13993396,-0.10545989,-0.060595676,-0.07187878,0.086046964,-0.09578823,-0.1105074,0.12068415,-0.047030553,0.053894415,0.103107885,0.028453737,-0.08848924,0.08212989,0.08749251,-0.0032534346,-0.07683899,-0.028475955,-0.0025343099,0.097393446,-0.13568348,0.05862767,-0.0959284,0.103884034,-0.0898276,0.08142434,-0.015481787,0.07358074,0.10824499,0.13006413,-0.048180047,0.13359821,0.030917652,-0.037014727,0.12434114,-0.06830417,0.053607903,-0.07732541,-0.110452354,0.109057024,-0.11873442,-0.12384786,0.110636845,-0.0648753,0.049161196,0.10742861,0.015911832,0.024350628,0.005565405,-0.04868625,0.017752493,-0.11659305,0.021668624,-0.123106636,0.11920869,0.07114491,-0.11411206,0.0141251385,-0.030804789,0.05422769,-0.04635228,-0.10648526,0.036782853,-0.05840596,0.009654675,-0.0785133,0.067646064,-0.05629941,-0.030875668,0.11660541,-0.11074579,0.065401845,0.093048505,0.02300273,-0.12459091,0.029517587,0.072478496,-0.119758725,0.01456599,0.1198789,0.12085307,-0.059514266,-0.09648378,-0.0074321334,0.063725784,0.1098164,0.033461694,0.0715735,-0.016331593,-0.10452078,-0.057186022,0.0057619503,0.09811428,-0.07469987,-0.023783786,0.10082193,-0.07567169,0.032639243,-0.06927309,0.016450137,0.014260646,1.4588252e-05
0.019706879,0.051085126,-0.117341705,0.12737076,0.037235703,0.1551614,0.0811606,0.020397544,-0.0058655334,0.13731918,-0.10622314,-0.06083893,0.07763381,-0.009184912,-0.10632214,-0.0950552,-0.052051228,0.11621047,0.10182282,0.048913464,0.10547459,-0.034863688,-0.07411351,-0.03323233,0.015968362,0.06370485,-0.1272139,0.040231228,0.120051906,-0.030214468,-0.129315,0.06805342,-0.07614288,-0.081227146,-0.08568209,-0.09846085,-0.12682089,-0.05739403,0.11967167,0.09516205,-0.059391856,0.107090876,0.13151497,0.09421479,-0.05916088,-0.069416516,0.14080714,0.018973822,-0.08810346,-0.13032436,0.13193825,0.07382444,-0.0053006765,0.036819637,-0.07589364,-0.090542786,-0.07909784,0.088007994,-0.010146583,0.026205553,-0.018877693,-0.023019336,-0.056489542,-0.02765601,0.05787144,0.11457768,-0.11501882,-0.08146718,0.046476662,-0.0765142,0.16348983,-0.065364406,-0.04480524,0.057307888,-0.05823646,-0.0027367764,-0.113470554,-0.08954242,-0.018163662,0.099918865,0.061978936,-0.07118679,-0.047570027,-0.012674295,-0.12843339,-0.12554212,0.12119099,0.012573165,0.03841897,0.13988605,-0.121751525,-0.04824524,-0.10267723,0.014110021,-0.09232583,0.096645154,0.10665572,0.035154477,0.117848724,-0.047586218,0.08070545,0.10965,0.09516683,-0.11693099,0.10658726,0.06831293,0.12522233,0.017389685,-0.0947522,0.02031995,0.0020687426,-0.10272153,-0.10381989,0.116208255,-0.005271092,-0.089338645,0.062553,-0.08024617,0.11764568,-0.025068322,-0.0021479574,0.03820527,0.0098882485,-0.058822513,0.051145896,-0.0877151,-0.12186949,-0.009424809,-0.044690497,-0.043194726,0.043951567,0.09287002,-0.10815173,-0.049232587,0.061423782,0.06534233,-0.06068658,-0.04195671,-0.08363828,0.12766859,-0.0501997,-0.12174345,-0.06045982,-0.05856578,0.062056206,-0.050329227,-0.020198125,0.02501408,0.118563265,0.06305447,-0.064114735,0.05018852,0.02720092,-0.0032508883,-0.14521503,-0.07961896,-0.030990472,-0.0954429,0.1266003,-0.04302581
-0.035288163,0.12597732,0.06100748,-0.07654933,-0.057851855,-0.017614964,0.1220124,0.10746452,-0.103241235,-0.02773973,0.03289816,0.034352288,-0.101546764,-0.067379035,-0.022569358,-0.1333886,-0.07793499,0.111193016,0.13781407,-0.0120730875,0.10034582,-0.0508444,-0.118020505,-0.10465291,-0.11968942,-0.11935642,0.042661425,0.11164216,0.0104206335,-0.09461966,0.03696781,-0.011190335,-0.069807485,0.12812938,0.08032249,-0.1103859,-0.023966487,0.050825045,-0.12523139,-0.0480017,0.031683035,-0.117725536,-0.004131309,0.110491335,0.08240936,0.042910706,-0.042625234,0.14149348,0.10832628,0.10516309,0.036255203,0.13698916,0.13200146,0.03127575,0.04041648,-0.10613421,-0.114340544,-0.010716494,0.03392352,-0.10241148,-0.084017694,0.024926629,-0.038548436,-0.038884945,0.008131311,0.06805152,0.13013221,0.024594247,-0.09082367,0.075064406,-0.059382346,-0.09654636,-0.02941297,-0.12953754,0.100787684,0.0817361,-0.1258349,0.057466,-0.10389377,-0.03225104,0.010094033,0.032416392,0.23183201,0.10411074,0.029950239,0.07498682,0.0714939,-0.08467752,-0.13328987,0.018816225,-0.011029473,-0.015960095,-0.049064282,0.047836408,0.021355115,0.12020395,0.114679664,-0.11125991,0.04444273,0.0037895143,0.06798791,-0.087994896,0.10023812,0.0036056205,0.04382521,-0.03974752,0.07359165,-0.11316638,-0.10340458,-0.054658856,0.13801168,0.12794983,-0.092155024,-0.055286326,-0.067498684,-6.660819e-06,0.082800716,0.062302925,-0.003779645,0.03915077,-0.08605521,-0.109829694,-0.09147284,0.08478625,0.100169204,0.1084417,-0.028810091,0.063585475,0.07909366,0.0052100164,-0.10752998,0.0597567,-0.09425336,-0.12674262,0.08469898,-0.075098395,0.09955581,-0.11991198,-0.038952295,0.06999872,-0.07051067,-0.087643236,-0.06407534,-0.049430743,-0.1018106,-0.108957276,0.039196324,0.051222093,0.12934919,0.021090025,-0.11662938,-0.080724046,0.0017363192,-0.09348958,-0.01360803,0.03826005,-0.1356526,0.004927534,0.0805195,0.07887995
0.11894799,0.04331675,-0.120886296,-0.12690283,-0.036771547,0.13287345,-0.042971894,0.0688273,0.135508,-0.0042848876,-0.02769543,0.041576613,-0.058714665,0.12617946,-0.058736637,-0.06622422,-0.06605057,0.016533632,0.09745958,-0.1002302,-0.07176121,0.07339232,0.09244309,0.13319054,0.03983989,-0.093244694,-0.1276646,0.12031371,-0.066826805,-0.07701357,0.12054601,-0.08855423,0.122530185,0.03761464,-0.13057278,0.057539728,0.12594394,-0.114784196,0.060934488,-0.06456042,0.12753887,0.015859561,0.024389874,-0.061533004,0.09806949,-0.086335875,0.13834246,0.022448162,0.065982506,0.0483056,-0.08605218,-0.1128279,0.12923376,-0.119617514,0.14095548,-0.021696718,-0.06369461,-0.09844607,0.09415853,0.072971776,-0.043009605,-0.0052740844,-0.073030725,-0.10903454,-0.0597178,-0.0065259477,0.007980917,-0.09209783,0.031266022,-0.07532543,0.08792515,0.120303154,-0.1158486,0.092910394,-0.124961,0.096443355,-0.08282112,0.07920477,0.08065273,0.086314976,-0.06236341,-0.027735386,0.21432328,0.0828158,0.024775993,-0.053175546,0.102844216,-0.052743524,0.07249184,-0.09576839,0.012628688,0.10508642,0.013019253,0.10171991,0.014453763,-0.024540614,-0.019424722,0.11681911,-6.0528517e-05,-0.02935265,0.13941135,0.14079294,-0.04254335,-0.086387604,0.11632204,0.021226406,-0.060052596,0.025687516,-0.12232846,-0.025178095,-0.12254697,-0.0023376017,-0.08082906,0.076828286,0.088287786,0.08703111,0.07792103,-0.056121398,0.10860202,-0.0035812526,0.065917246,0.012637689,-0.008617576,-0.04029807,0.12852003,-0.044990174,-0.08374874,-0.046132334,-0.06485783,0.14397341,-0.10763943,0.08169772,-0.13558896,-0.111727856,-0.032576587,0.06958675,-0.10333549,-0.06313013,-0.050243966,0.08601585,-0.003352034,-0.059332278,-0.09332241,-0.050592706,-0.08796258,0.07715005,-0.026782606,0.09480548,-0.07821194,0.06700305,-0.10389166,-0.0843815,0.0693424,-0.04661189,0.034504663,-0.09834522,-0.055507004,0.06397167,0.068358436,-0.073541135
0.098801196,0.076816365,-0.0064792046,0.029624494,0.15465395,0.09929517,0.0013713965,0.10465846,-0.12404444,-0.031123647,0.0167182,0.030140782,0.10176037,-0.021712154,-0.00022432208,0.07166506,-0.08863077,0.12210242,0.10891438,0.024065362,-0.115808256,0.08245869,0.067223564,-0.046081558,0.075027965,-0.025131337,0.024975957,-0.016655771,0.13101782,-0.07343133,0.13724525,-0.066378586,0.04473691,0.0033539634,0.051585212,-0.11237028,0.09111235,-0.0037897078,0.08164657,-0.029570138,0.0784645,0.11800191,-0.07804565,0.13600878,0.08818811,-0.08455915,0.119223505,-0.0020543558,-0.07770784,-0.030337604,0.07211823,0.10863114,0.08980476,-0.055495597,0.022159714,0.06594987,0.11161505,0.066915706,-0.106631,-0.0758741,0.05059153,-0.0322261,0.10301093,-0.000315647,0.005374738,0.000978331,0.00017087995,-0.09371863,0.025307156,0.10748464,0.023458192,0.062207296,0.070643015,-0.06964661,-0.0787837,0.10981996,0.12785886,0.10767658,-0.05350257,0.12523964,-0.10145906,0.09890066,0.083776996,0.08465623,-0.050521165,0.0004169516,0.13607767,0.016449878,0.029883647,-0.10822554,-0.079066165,-0.113583826,-0.120306686,-0.13127297,0.11288024,0.020582756,0.030821204,0.052102774,-0.110785544,-0.022861548,0.07382873,0.120234534,0.07101386,0.039325625,-0.07453472,-0.058290973,-0.013181701,-0.076866224,-0.05088285,0.11066103,0.1050593,-0.005617891,-0.026006386,0.019245073,-0.10907841,0.11171085,-0.056828927,0.02764893,0.047079884,0.043761015,0.13954215,0.07111262,0.101851545,-0.051012907,0.021629661,-0.12581345,0.039936215,0.00841178,0.023291301,-0.0785921,0.0113325985,-0.0054248157,0.07780932,-0.06125418,0.071248636,0.07108321,-0.0685664,-0.03331233,0.06854498,0.12931634,0.08136008,-0.09794611,-0.032795336,-0.05357672,-0.092939794,-0.10079057,0.09207072,0.11880505,-0.123695776,0.13267249,0.12800032,0.045755345,0.06566125,-0.008800452,0.11780447,0.014364687,-0.060252056,0.02689225,-0.12709878,-0.1234546
-0.048442073,-0.114032485,0.05365227,0.06322152,-0.102765895,0.03795812,0.06456133,0.13514422,0.09117583,-0.071966104,0.09657954,-0.023830825,0.038314074,-0.038568974,-0.019083463,0.028470472,-0.005594523,-0.026136527,-0.07305392,-0.04853044,-0.049310915,-0.05594831,-0.09551164,-0.048035733,0.099389814,-0.10112339,-0.1019418,0.0025473791,0.024617102,0.10305848,-0.12458086,-0.116955996,0.059589386,0.09494409,0.07029368,-0.049435336,-0.045407016,-0.0065743197,0.03672211,-0.11463424,-0.019285224,-0.023556054,0.061856117,-0.031368323,0.059925433,0.07210226,-0.12170066,0.12286585,0.027825415,-0.09103575,0.07551988,0.08485388,-0.13567436,0.003589817,-0.081706405,0.024516864,0.06688167,0.005785316,-0.023205688,0.101966515,0.00360663,0.013889661,-0.11447966,-0.09255156,-0.061276756,0.022265598,0.14018387,0.013027575,-0.083587,0.1026261,0.019886404,-0.15162179,0.09730114,0.07443518,0.06650005,0.07076713,0.1154958,-0.10509112,-0.057599302,-0.03157852,0.016718037,-0.015966957,-0.08439716,0.015005862,0.0058101006,0.07216373,-0.12683812,0.11633438,0.09132822,-0.03169144,-0.10731694,0.034412473,0.07734264,-0.005652305,0.113908045,0.005560498,-0.08861493,0.10933639,-0.011647984,-0.0018222481,0.1211178,0.121786445,0.048777115,0.058471553,0.10010795,0.10666904,-0.09975895,0.009871289,0.00023751843,-0.0529308,-0.07770828,-0.047564328,0.06580314,0.02681671,0.09016742,0.12326917,-0.08318897,-0.10801753,0.072045386,0.02697668,-0.07704375,-0.028832348,-0.12933792,-0.11432264,0.1274204,0.024910806,0.07058359,-0.00841363,0.07950375,-0.012717599,-0.11938727,-0.10106337,0.009290808,-0.024061365,0.10407589,-0.079790406,-0.041399118,0.09504007,-0.09935722,-0.114120945,0.1336373,-0.097402535,-0.09508249,-0.01048349,-0.02306642,0.11911771,-0.057741642,0.066608295,-0.117466524,0.075155675,-0.13775568,0.07373204,-0.11313594,0.10454221,-0.09428043,-0.021389078,-0.12629491,-0.13272755,-0.11280968,-0.06645951
-0.07052992,0.102199465,-0.034811687,-0.029903803,-0.1152178,-0.09722877,0.09953791,0.1273703,-0.019006506,0.06791613,0.025367083,0.08154985,-0.065733306,0.018988162,-0.017518476,-0.039041735,0.094734624,0.14097232,0.10820578,-0.03989306,0.051405147,-0.058476932,-0.0929725,-0.055581063,0.094541565,0.067240775,-0.020736516,0.12393562,0.12052636,-0.13561466,0.13490827,0.057060566,0.05760079,0.09450714,-0.048104532,0.07137625,0.076754026,0.12770475,-0.028522275,0.109280124,0.08524384,-0.13818628,0.060700987,-0.062177934,0.1273859,0.10336152,0.13680707,0.078600034,0.043445423,-0.045819838,0.014988362,-0.036900997,0.14247754,-0.06613233,0.08419242,-0.07773404,0.12349382,0.015392507,0.112891704,0.059164077,-0.01903606,-0.079347156,0.05752219,-0.04556306,0.11586614,0.101271264,0.09831785,-0.082496636,-0.054835826,0.05306563,-0.0013361475,-0.009739122,0.121863656,0.047488056,0.0007883944,-0.046338968,0.07094956,-0.012974217,0.10752875,0.06329252,0.13378114,-0.007294465,0.11937694,-0.018045343,-0.13475063,-0.03211481,-0.022386607,-0.08785264,-0.045819312,-0.007606751,-0.02338038,-0.061930574,0.10664378,0.11655109,0.095419645,-0.100913584,0.061609104,-0.019482374,0.11844832,-0.12228816,-0.09424354,-0.12601385,-0.06779786,-0.0042478023,0.04602854,-0.08684319,-0.054196022,-0.076445214,-0.050644245,-0.12643377,0.0017606795,0.010006988,0.060297057,-0.056361124,-0.09432594,-0.06392578,0.11355231,-0.122523665,0.14031515,0.13530599,-0.04690887,-0.046012584,0.032932684,0.12157539,-0.057835232,-0.056380443,-0.1328092,-0.059281345,0.06391232,0.06812654,-0.0697615,-0.074803054,0.018077163,0.1176334,-0.071482636,-0.08020112,0.080004916,-0.10854669,-0.057376873,-0.009974531,0.028980723,0.13818999,0.054745644,-0.006969166,-0.12230772,0.10125318,0.032921087,-0.09734004,-0.09264652,-0.08597673,0.08033483,0.00038745685,-0.016795266,0.08289318,-0.10030511,0.093154415,-0.061613835,0.101134144,0.05211678,-0.11803549
0.022428678,-0.009149253,-0.07796708,-0.08434197,0.13220415,0.04868767,-0.08365605,0.07381064,-0.083157055,0.11317399,0.1400312,-0.042334482,-0.014919005,0.0055878907,-0.010669395,-0.0022949725,-0.08847257,0.029774202,0.029971166,-0.08447797,-0.050246343,-0.053934813,-0.05598905,0.0075600594,-0.02427202,0.113978274,0.13033666,0.104867585,0.13145164,0.10267394,0.06091205,0.10670765,0.082804285,0.033386085,0.10353884,-0.01269913,-0.066647075,0.10111002,-0.1029914,-0.05436188,0.11388687,0.100028,-0.045676816,0.010777026,-0.102849334,0.12123556,0.10926566,-0.09510274,0.027306652,0.028133713,-0.0010197306,-0.092080615,0.08080719,-0.0421562,0.1058838,0.0362986,-0.03891644,-0.08679683,-0.057262488,-0.1410293,0.00692178,-0.122592926,0.089350715,-0.0040502655,-0.062349465,0.12547427,-0.033964463,0.024987157,-0.11721612,0.10477798,-0.06546408,0.016735295,-0.062499326,-0.04815433,-0.05350464,0.054075826,-0.03928807,0.054302227,0.08267504,-0.029548755,-0.0874529,0.08107856,-0.040265456,0.008181726,0.050479047,0.06546331,0.082718015,-0.010807317,-0.102733135,0.04964499,-0.048971415,0.002383212,0.13326354,-0.03494295,0.09384684,0.08394923,-0.09383078,0.0989089,0.04896058,0.08213128,-0.058841877,-0.004233737,-0.120518886,-0.11566477,-0.009926528,0.04703358,0.062690586,-0.003788367,-0.068658546,0.11488799,0.048214428,-0.12974443,0.06645265,0.11692694,-0.08702034,-0.10238719,0.1306725,-0.089946285,-0.038541626,0.14095466,0.020610563,-0.043403227,0.085436374,-0.0489562,-0.1137181,-0.074647576,-0.09058364,-0.13554847,-0.10738874,0.14541699,0.0016816765,-0.1135746,-0.028635295,0.039812062,-0.01575628,-0.06210553,-0.020685364,-0.070901185,0.0041516093,0.11941189,-0.030915312,-0.12861726,0.122239634,0.087861225,0.021111785,0.1202085,0.05041454,-0.07680854,-0.0038431077,-0.058958754,-0.055916823,0.0015546699,0.12338005,-0.08688167,0.12586452,-0.04866686,-0.06441481,-0.07567227,0.013518923,0.015460911
-0.08617337,0.061310176,0.01664428,0.051838294,-0.008902387,0.05384909,-0.03556372,-0.04682093,0.12731479,0.045849614,0.022843614,-0.07288053,0.0790298,0.10689333,-0.11348054,0.08226271,-0.08234198,-0.06229118,-0.009530794,0.095008336,0.10929632,-0.10458915,-0.10997189,0.03334953,-0.057947736,0.078089505,0.0943618,0.12355295,0.015137514,-0.016846035,0.10425016,-0.08063152,0.13793592,-0.05144114,0.14683194,0.11046654,-0.1112522,0.024816379,-0.113438725,-0.020199915,0.16320528,-0.0007258866,-0.080120325,-0.06280273,0.11227886,-0.05848922,0.037256747,0.14586951,0.016625287,0.13448828,-0.05667478,0.00034567798,-0.01754177,0.11235614,-0.08500998,-0.026334431,-0.053528387,0.015923914,-0.06327255,-0.017382381,-0.031451534,0.021476267,-0.020839976,-0.024264315,-0.0027279947,0.10842393,-0.08469907,-0.06806933,0.13759232,-0.01661226,0.12978385,0.049908858,0.07919952,-0.10985275,-0.08278785,-0.11902703,-0.018541038,-0.10008137,-0.011810981,-0.103670776,0.05602257,0.12539916,0.059869748,-0.0036100608,-0.116969004,-0.058598522,-0.12021438,-0.04579734,0.07311113,-0.0674617,-0.00015314524,0.0828137,-0.11446075,-0.12511614,-0.055106986,0.06358817,0.12227252,-0.06408598,0.058291107,-0.0704066,-0.041472983,-0.024354648,-0.1281756,-0.08116266,0.0057459027,0.13502923,0.087482736,-0.009714842,-0.07828478,-0.11926364,-0.0734475,-0.051015284,-0.09793367,0.06208241,-0.08410935,0.07524012,-0.08773661,0.11299412,-0.11396262,-0.067612946,-0.069794826,-0.009932852,0.10920738,0.12391931,-0.105770834,-0.05453643,0.031060858,-0.023228208,0.11941902,-0.049725868,0.0864496,0.12832606,0.07528015,-0.024527537,-0.077761866,-0.10906191,-0.11250738,-0.11138729,0.052369937,-0.06573995,0.050626766,-0.015558344,0.014783731,0.037464656,0.13049747,-0.09702339,-0.0648244,0.061419047,0.028507056,0.03458906,0.028038718,-0.12585054,0.04708452,-0.047575355,0.034723066,0.0618123,0.014393825,0.12749691,-0.06258838,0.037074957
0.07540851,-0.06231396,0.12569278,0.096968405,0.0015472834,-0.1217261,-0.11085727,0.07574023,0.08903038,-0.11265225,0.034081224,0.12875605,-0.04014823,-0.10900799,-0.09488061,0.13586575,0.06706923,-0.0915054,-0.039142653,0.0446007,-0.049161457,-0.030670695,0.0036750138,-0.07456182,-0.1273802,0.069154166,0.052447286,-0.067013144,-0.12148468,0.055390764,-0.07496708,0.015228878,-0.044274338,0.08514991,-0.056890775,-0.1311064,0.049988966,-0.09754221,-0.1276705,0.09697236,0.085355036,0.043520875,0.12727004,0.09821492,0.110997975,0.121662475,0.1188507,-0.06468511,0.07937907,-0.04064237,0.089998364,0.065155886,0.11893687,0.086161755,-0.017598405,0.0986554,0.046324305,-0.010406687,0.10978637,0.06000415,0.11927166,-0.00534379,0.1250096,0.0658277,0.1171986,-0.028620217,0.11496337,-0.1138469,-0.074692145,0.101020336,-0.08996947,-0.042997118,0.11834679,-0.026357261,0.1427547,0.12747388,-0.077141464,0.12613149,-0.13546143,-0.109683625,0.07504579,0.065207206,0.07142062,0.11046825,-0.033396915,-0.045123458,0.10086167,0.044812974,-0.11679853,0.09669724,-0.11614714,-0.036821336,0.07071025,-0.12409462,0.10383475,-0.04069697,-0.0061775893,-0.006513104,-0.01740989,-0.040442444,-0.12752607,-0.043805398,0.065121315,-0.041442476,-0.082981795,0.02590476,-0.092561476,-0.03570559,0.14162077,0.05969864,0.12363506,0.08406945,0.12363446,0.09804013,-0.1363907,-0.0072971135,-0.012773848,-0.043730088,0.11554689,0.06382202,-0.089314975,-0.025734147,-0.029741477,-0.12852898,-0.12037577,-0.016689727,-0.0031528817,0.102499805,0.14241159,-0.105088994,-0.03704109,0.14083993,0.08776775,-0.13001934,-0.05506913,0.050258894,0.053025216,-0.060546648,-0.017094081,0.01538403,0.11427801,0.13962868,0.024860814,0.075207114,-0.0026183086,0.13503425,0.118851475,-0.12502973,0.039946064,0.08823209,-0.048622314,-0.016384069,-0.1156751,0.03129669,-0.13878797,0.10537531,-0.12827572,0.12161319,0.017984977,-0.07475775
-0.04351685,-0.09217118,0.11862636,0.07914448,0.03997537,0.11852962,-0.09864485,0.08775859,-0.113200195,-0.0881634,0.109732926,0.03212095,0.08285287,0.06720136,0.007591918,0.019246116,-0.10747987,0.05422844,-0.0867832,0.07171665,0.02267082,0.11688998,-0.051225193,-0.057523355,0.019896677,0.022476325,-7.018985e-05,-0.053613327,-0.12917417,-0.009929452,-0.06364592,-0.07859777,-0.12090525,0.14333011,-0.020883067,0.09182862,-0.09485166,-0.1013209,-0.03710043,-0.07551885,0.13098463,0.1403584,-0.030169526,-0.047491364,0.12629798,0.051489323,0.007183291,0.08809967,0.056019235,-0.047243793,0.041108705,-0.0933847,0.0011471737,0.01213076,0.03786873,0.08014336,-0.009033374,-0.122039385,-0.053854614,0.0032034344,0.06769203,-0.078781225,0.015469929,-0.0739024,0.012514645,0.09756498,0.07285308,0.054788943,-0.023192259,0.028780704,0.030209573,0.0014668241,0.011323092,-0.012633923,-0.089542806,0.022836331,-0.010866078,0.026183873,0.07945647,-0.10409929,0.12336202,-0.0019419611,0.16392677,0.047725752,0.059803415,-0.08559543,-0.0037163629,0.111289375,0.00046944228,-0.049208555,-0.064761184,0.117756836,-0.0063177804,-0.04017608,-0.1320427,-0.0064684055,0.006656483,-0.115873516,-0.06058719,0.09275758,-0.13405795,0.0047317883,-0.116369486,0.027123539,0.039803743,-0.05194336,-0.045400485,0.1334612,-0.12847827,-0.08384573,-0.088310674,0.11791127,0.07609521,0.09716314,0.0045952946,-0.12090922,-0.039267734,0.10671074,0.024820993,0.017484931,-0.084758855,0.130661,0.11112635,-0.08941142,-0.12065311,-0.027637582,-0.09676195,0.08642159,-0.015845148,0.04498311,0.073743425,-0.015996514,0.050409485,-0.13384773,-0.07254146,-0.10447826,-0.09560075,0.07129223,0.03526226,0.08606299,-0.1277709,0.058909874,-0.09793957,-0.046318866,-0.02198289,-0.062104497,-0.054385506,0.043000657,-0.027329894,0.13110779,-0.12527744,0.064378455,-0.0138923675,0.007762795,0.007634285,0.028255664,-0.13442935,0.029193694,-0.0647773,-0.12260298
-0.07767182,-0.089767456,-0.11731124,0.07298352,-0.020321192,-0.08571781,0.022523487,0.08251377,-0.09726866,0.12591565,0.117108434,0.09655762,0.13325226,0.053438842,0.090269536,-0.05238259,0.054146983,0.106644064,0.027284293,-0.08696407,-0.072422996,-0.13544989,-0.07193699,0.093896896,-0.11812998,-0.049163822,0.10927341,0.057958957,0.12710279,0.045664344,0.029207595,-0.042326022,-0.01052001,-0.10221692,-0.0042396467,0.030939989,0.064150736,-0.094794594,0.029179363,0.040185492,0.08780866,0.0133298375,-0.135234,-0.018777795,0.052982528,-0.0032909492,0.09095299,-0.08326072,-0.1267657,0.13816038,0.032011688,-0.1270206,-0.035427496,-0.0905751,-0.111810714,-0.042928904,0.09156307,-0.11278329,-0.023620753,-0.099035025,0.12016134,0.08883758,0.04895538,5.5962904e-05,0.1260152,-0.12567809,-0.023210462,0.071028404,0.040395577,0.09931909,-0.04835416,-0.10644144,-0.041467942,0.12523022,0.028638892,0.113147445,-0.03134896,-0.047833998,-0.05639719,-0.027728304,0.07761825,-0.091494866,0.023232786,0.08523842,0.040604677,-0.082809724,0.02350237,-0.058571793,-0.13510321,0.039885517,0.11169807,-0.023771271,-0.11805386,-0.07711549,-0.064884685,-0.063887976,-0.00021886826,-0.036763802,-0.091435224,-0.11056851,-0.1274066,0.081844226,-0.13398872,0.07362191,-0.13625509,-0.083019406,0.04833272,-0.07528175,-0.10650574,-0.0003870968,-0.043882992,0.075705335,0.020844564,-0.100702904,-0.07211876,-0.08757895,0.040008895,-0.030728173,0.010979599,0.04001824,0.08466178,-0.11210072,0.13043764,0.04612664,0.028258583,-0.06864409,0.08185391,0.060463615,0.10100193,-0.099431396,-0.052831348,0.08108897,0.12004872,-0.12086048,0.07839839,0.015385717,-0.033166405,-0.07194606,-0.017217187,-0.09995934,0.046728566,-0.036563125,0.07450794,0.06413884,0.10855272,0.059498772,-0.03432686,0.1097687,-0.08000915,-0.12672922,0.00836245,-0.11145868,0.025871968,-0.011643355,-0.07251726,0.12335282,0.12634355,-0.03355561,-0.10883709,0.09812435
-0.117629394,0.12424289,-0.008238463,0.018894373,-0.047468472,-0.04860287,-0.15607262,-0.1404691,0.12326102,0.10222538,0.057127647,-0.12753534,-0.08880882,0.040317476,-0.029337697,-0.057135016,0.050509382,-0.08077138,-0.08356343,-0.08688531,0.056103483,0.0487805,-0.11074343,-0.049773715,0.08912554,0.1013871,-0.030344607,-0.0830174,-0.03506362,0.000834501,0.105325,0.012475324,0.011966859,0.17646249,0.1316253,0.10879213,0.11335483,-0.06365604,-0.0799363,-0.09148939,-0.12863328,-0.020761633,-0.11324706,0.0959844,0.10846043,0.038486015,0.0885216,0.018030351,-0.04375411,-0.11857982,0.12151219,-0.025909381,-0.07139263,0.08694429,-0.0039062826,-0.035180684,0.027238654,0.085210055,0.10372337,-0.124405295,-0.12995832,0.001211917,0.0060767173,0.11618795,0.011555059,0.046526264,0.07093188,-0.09143502,-0.06514607,-0.016201653,-0.0875798,0.0041856095,0.09415861,0.014268453,-0.0051598777,-0.02683788,0.04019788,0.13133982,0.032947194,-0.022462666,0.09368162,-0.07483358,-0.018389957,0.054984964,0.11556227,-0.107989565,0.097719245,-0.12870473,-0.02833774,-0.14154255,0.04422089,-0.05110461,0.029792033,0.0707118,0.0137552535,-0.069710314,0.108108774,0.09270176,-0.0004260093,0.0026486367,-0.118458845,-0.124719284,0.119166695,0.070569545,-0.037324116,-0.049897842,0.0048181117,0.05431381,-0.07769891,-0.11482131,0.1073977,-0.007674481,0.08570053,0.027661607,-0.0022932738,0.01438804,0.113841355,0.014302448,-0.028821591,0.06474478,-0.017125152,0.0116209155,-0.086169064,0.071693204,-0.014211371,0.04235437,0.09268904,-0.02642972,-0.004398704,0.045967035,0.08634695,0.01274731,-0.100067124,-0.036122866,0.0636459,0.06194782,-0.067851536,0.069249555,-0.12583278,-0.093453534,-0.037370566,-0.060966257,0.043022204,-0.04594022,-0.050154902,0.019912118,0.007839805,-0.0073579005,0.13210692,0.05491067,0.13870975,0.04959304,-0.11172365,-0.0691483,-0.047998663,0.033159245,0.059072476,0.11700522,-0.03539159,-0.06509377
0.031866718,0.031647716,-0.085167065,-0.04680851,0.13108277,-0.008786828,0.11150835,0.050633922,-0.07101905,0.0047573578,0.022661537,-0.122618176,-0.0762368,0.0011070222,0.026628435,-0.054119952,-0.052340277,0.13304155,0.03739403,0.09066418,0.059394404,0.09229985,0.025111213,-0.11494076,0.12577793,0.11002164,-0.05595068,-0.08766705,0.039991867,-0.03794353,0.11604999,0.07645193,-0.018873803,0.087903574,0.122210704,-0.12218171,0.10765797,0.008353291,0.1334887,0.077740155,0.082363196,0.11315781,-0.081036694,-0.03656146,0.14180686,0.044150498,-0.06371547,-0.06476028,-0.109321505,-0.11811655,0.04604861,-0.101164214,0.10550568,0.08435735,0.13511866,0.07039289,0.021794531,-0.10973912,-0.12309117,-0.054615032,-0.09173306,-0.063116245,-0.03469614,-0.08539026,-0.0021366286,0.11608781,-0.032440204,0.06690332,-0.1266738,0.08804025,0.07764642,0.06266593,-0.017368145,-0.014035819,-0.06992655,0.033010628,-0.075056076,0.09282113,0.12962827,0.02644394,0.093299724,-0.049071092,-0.047994945,0.09349444,0.05701488,0.046964437,0.13886228,0.00041616836,0.07657247,-0.083128124,0.034167208,0.06356978,-0.073813625,0.051768877,-0.099628605,0.11263735,-0.1326113,0.12974197,0.07882206,-0.119751565,-0.104850866,0.0052058566,-0.06609719,0.009301718,-0.121490955,-0.12423091,0.09337406,0.04067427,-0.012837759,-0.059055883,0.0028249996,0.07695703,0.11172421,-0.040330626,-0.014307596,-0.122039326,0.13543802,-0.0645678,-0.064793535,0.14326283,-0.07273822,0.12858033,0.053180832,-0.013798933,-0.03988206,0.018709496,0.108989194,-0.018466894,-0.08198677,0.09021418,0.050099146,-0.010299864,0.12823609,-0.039039023,0.06697627,0.07365682,0.114202484,0.009517357,0.09267782,0.07882408,0.064625755,0.058392968,0.010523328,0.008347952,-0.025143677,0.01912485,-0.1362897,-0.12997271,-0.105219014,-0.08925948,-0.032119535,0.06438394,0.041146927,0.027844816,-0.0011886149,0.031787597,-0.11180686,0.11493973,-0.0142242545,-0.062938824
0.062284302,0.13154219,0.11881572,-0.07151015,-0.10431284,0.027283233,-0.09263101,-0.0015376449,0.11832931,-0.12993196,0.068776794,-0.1122797,0.033854544,0.015094876,0.13449287,0.07662065,0.019890988,0.06510094,-0.035925407,-0.0149276005,-0.06709736,0.018538684,0.12267277,-0.08173409,0.119065695,0.031310715,0.01726171,0.110953905,-0.028346904,-0.019399447,0.110988915,0.04651989,0.14119339,0.07231031,-0.07267786,-0.11096609,0.036975883,0.018704632,0.116343506,-0.060352974,0.10409573,-0.0004551762,0.07124315,-0.0028465805,0.03671049,0.1009007,0.026146768,0.14211468,0.032499667,0.09923098,0.11140793,0.07110791,-0.02186463,-0.13536902,-0.027002763,0.051966365,0.1098027,-0.12059786,-0.032262597,0.029397598,0.033956464,-0.0732234,0.015786985,0.06799747,-0.017881416,-0.048946112,0.020345537,0.10283111,0.0018810721,0.031859156,0.00046634715,0.09328975,0.10269014,-0.063302316,0.014330815,-0.040531896,-0.07681316,0.11017663,-0.099528156,-0.12553126,-0.13574137,-0.048513565,0.020252112,0.042205013,-0.020596351,0.09274058,-0.053074908,0.0017272824,-0.05880039,0.09542622,0.08020532,0.084170945,-0.107158005,-0.06267985,-0.07629672,0.001507596,-0.009341493,0.056012616,-0.068637505,0.005635172,-0.042679932,-0.041448466,-0.038377754,0.017894583,0.023669496,0.045001835,0.044708923,0.014143214,0.008166815,0.10757938,0.06121097,0.031542055,-0.03592497,-0.048983894,-0.13521725,-0.046772398,0.13681167,0.06794975,0.12074336,-0.029221373,0.09430844,-0.07953353,0.011711664,-0.032609995,-0.10634132,0.060908593,0.052631613,0.083506055,-0.09806319,-0.04016794,-0.08356733,0.12801059,-0.13439603,0.09828052,0.04486251,-0.06351007,0.113412276,-0.038343593,0.14240812,0.049677853,0.0006991194,0.1339496,-0.071209826,0.07221628,-0.039586328,-0.019537335,0.12660336,0.06183729,-0.037571695,-0.07899822,-0.0981025,0.072406344,0.10235977,0.112209275,-0.13668394,0.06151405,0.09658004,-0.012632879,0.077949435,-0.083247475
0.112384334,0.031069724,-0.12906681,-0.003832854,-0.09067444,0.13902284,-0.00644717,0.011517399,-0.030797536,-0.12534909,0.018371101,-0.12315257,-0.012651257,-0.09648898,-0.088415526,0.08683267,-0.035483226,-0.06924831,-0.08009787,-0.013605983,-0.07273709,-0.02779641,0.055709228,0.13008928,-0.101604015,0.06981874,-0.0029913492,0.12753552,0.10280159,0.055621732,-0.061347272,0.08946719,0.14416617,-0.000934823,-0.02787976,0.08757145,0.07805999,0.11876065,0.031411313,0.06430662,0.09835865,-0.09980694,-0.119758494,-0.03936087,0.04566948,0.06502953,0.01534767,0.045104817,0.07451795,-0.11897191,0.12344002,-0.045589335,-0.0068737646,-0.079192065,0.07147672,0.014829687,-0.044561997,0.090189256,-0.057540033,0.09526425,0.040597435,0.042397507,-0.034560166,-0.12439545,0.05825425,-0.12184909,0.07288357,-0.08455003,-0.09228582,0.041814428,-0.11098304,-0.08596009,0.0998895,0.096055105,0.028094187,0.009701731,0.08559075,-0.017720947,-0.12781674,0.05969526,-0.14089975,-0.09342563,-0.14248352,-0.09364576,-0.014843696,0.03445246,-0.12678844,0.032919973,-0.02276389,-0.1070584,0.018846372,-0.020187415,-0.12810846,-0.04739876,-0.09427167,-0.074361265,0.025134087,-0.13195589,-0.0019732714,-0.0008454472,-0.015846761,0.0976411,0.04479617,0.10171914,-0.03468159,0.06128615,0.019173607,-0.062389128,-0.01288915,-0.08221062,-0.10214306,-0.029299283,0.07388097,0.018084407,-0.049530566,-0.036603898,0.0679562,-0.015463345,-0.011708725,0.12501042,-0.012304668,0.0022537855,0.1134007,-0.121316865,0.03027701,-0.1295317,0.07810634,0.064982064,0.107445225,0.006331834,0.021729143,-0.11608308,0.004828784,-0.106790826,-0.09275217,0.044576716,0.10127569,0.08847253,0.04663632,-0.037155937,0.07542204,-0.03971104,-0.048331805,-0.028260563,-0.06703231,0.08082258,-0.11579979,0.06026988,0.12643377,-0.032089934,-0.09865421,-0.067194134,-0.056317236,-0.10160108,0.026922567,-0.039624594,-0.08348448,-0.015285168,-0.005320532,-0.13730988
0.07619092,0.06783679,-0.0016776989,0.088366255,-0.12459467,0.0043107043,-0.03816629,-0.015175272,0.106892936,-0.12592617,0.030883286,0.12082741,-0.06782838,-0.06902015,-0.1313907,-0.06992708,0.020710079,0.093802534,-0.11507062,-0.10728131,-0.077325076,-0.08750178,0.0045131,0.027844787,-0.07880159,0.02011947,-0.038663533,-0.09858641,-0.0064178538,-0.06408564,-0.10414007,-0.0536322,0.09966553,0.036384627,-0.036020786,-0.06817744,0.087004,-0.10401664,0.0070688426,-0.08356142,-0.11574187,-0.10229194,0.017709915,0.13499343,0.09910589,-0.023586152,-0.0018494818,0.09881075,0.106292166,0.07011226,0.050688133,0.050687194,-0.036883093,-0.12128116,-0.09456212,0.085500106,0.088219,0.05643827,-0.13918647,-0.047405235,0.12570527,-0.11992156,-0.092176534,0.06348474,0.07977652,-0.03803463,0.14389594,0.0005766706,0.05081076,-0.1101504,0.0041691195,0.00044363993,-0.107821725,-0.08350353,-0.053405773,-0.06580852,0.0028552504,-0.11970766,-0.050861154,0.024458783,-0.019606723,-0.11433397,0.042043526,0.07917434,-0.087551214,-0.10712683,-0.04175358,-0.04695843,-0.054830085,0.06611257,-0.12935624,0.06863068,-0.020097433,0.08546454,-0.064771995,-0.063212834,-0.13411933,-0.041976385,0.07504164,-0.067139536,-0.04284077,0.10080375,0.06004385,0.0412189,-0.013204135,0.0103390515,-0.026630491,0.025774494,-0.06389552,0.101381,0.08602274,0.117932014,0.07593569,0.05102569,-0.053906642,-0.028981097,0.042666715,-0.050427373,0.022142407,0.056072097,-0.042103462,-0.07389173,-0.02906249,0.04086959,0.04165937,-0.11758771,0.03128499,0.027078137,0.11120573,-0.013610039,-0.112925015,-0.0831233,-0.034999765,0.09902375,-0.030567605,0.071562,-0.041685138,-0.06791249,0.014072199,-0.06314062,0.08416018,-0.021729296,0.12819807,0.03671557,-0.1282417,-0.020642458,0.025783611,-0.09488298,-0.031829175,0.09895898,-0.04619787,-0.107354164,0.11449353,-0.12399496,5.3457483e-05,-0.05407467,0.09742937,0.088745095,0.014298386,0.006844559
-0.03766765,-0.018119507,-0.026750054,0.04794845,-0.048722494,0.08568092,-0.07724869,-0.014281956,0.04046085,0.14114058,-0.04431209,0.1044178,-0.033475712,-0.060654737,0.06972118,0.05157043,0.0026977442,0.1113029,0.05852189,-0.06437693,0.021049157,-0.03080494,0.120450586,0.055467322,0.024187958,-0.09208871,-0.0452798,0.12612474,0.06427329,-0.09465725,-0.035881326,-0.0053037447,-0.062742256,-0.0780022,-0.07068733,-0.088609725,0.05728655,-0.1366746,-0.10959075,-0.079200186,0.080056265,0.079583414,0.11539015,0.100909375,0.039070323,0.10770171,-0.096302316,0.020168375,0.021529118,0.021733629,0.0030341903,0.046888687,0.07871436,-0.055370204,0.099786356,-0.006887769,-0.035277605,-0.05422182,0.07207565,-0.118216954,0.071364686,0.023661425,-0.007328428,-0.12908806,-0.029033497,-0.09597181,0.0010640307,0.012071781,-0.04041365,-0.046364754,0.05845801,0.08082166,0.09466281,-0.0332982,-0.10556625,0.0798541,-0.03490907,0.09165334,-0.10882262,-0.079365864,0.04988731,0.09088798,0.070689596,0.09480118,0.023386786,0.054839123,0.03787528,0.064975545,-0.10630803,0.012737015,0.07263003,0.05199614,0.06174061,0.041060396,0.10074171,-0.09041712,-0.033132985,-0.022279225,-0.06548607,0.039964944,-0.09818734,0.003246442,-0.04383444,0.04590478,-0.02020625,-0.051946916,-0.098778635,-0.12172412,0.112859234,-0.05181247,-0.07535837,-0.11852855,-0.096740395,-0.06873469,-0.06659267,0.04876992,0.077612504,0.09230196,-0.016536037,0.03331361,-0.08162754,-0.006420937,-0.07838136,-0.013609075,0.085129246,-0.051718514,0.070308365,-0.0774018,-0.10081057,0.04162265,-0.07552777,-0.043771587,-0.06067377,0.10492146,-0.049013387,0.093295634,0.016821899,0.0565563,-0.08891241,0.08430564,0.081376284,0.12657404,-0.120571,0.01708001,0.08961874,0.116803974,0.020100063,-0.07077688,-0.13102634,-0.046598244,0.13400526,-0.101246536,-0.1407403,0.03435265,0.11723806,-0.100359,0.037915014,-0.0574596,-0.026616342,-0.008557961
0.023824845,-0.108121365,-0.07709615,-0.007913497,-0.1415078,0.014354622,0.010163788,-0.1307512,-0.10024867,0.09172534,0.110962465,-0.026492288,0.09366265,0.11900309,0.07819995,0.088673204,0.09303615,-0.041360356,-0.025014872,0.053327117,-0.12429418,0.01762925,-0.090693265,0.037288725,-0.10118036,0.092315614,-0.020909455,-0.03385268,0.07262256,-0.02122093,0.17073359,-0.07811891,0.051492803,0.064899586,0.089874946,0.091706246,0.04204487,0.05389428,-0.043562327,0.116672374,0.031134557,0.07083436,-0.036873635,-0.11142586,0.113024175,0.025096998,0.05014274,0.0032751695,-0.13235159,-0.10429648,0.04788019,0.06489406,0.011105373,0.10955336,-0.007672999,0.11536624,-0.021601545,0.021309758,-0.042311132,0.011556347,-0.10837345,-0.054196797,0.010547457,0.024893275,0.071811005,-0.10299434,-0.019215101,-0.022484744,-0.007967842,-0.0070212856,-0.10888998,-0.013799259,0.10439988,0.077534616,-0.1145263,-0.07761857,0.041290097,0.0029807845,0.086871855,0.06917962,-0.08629434,-0.1587373,-0.014362777,0.020695634,0.00178819,0.02101904,0.06714753,-0.08751435,0.022361528,-0.017635796,0.09523374,-0.15373674,0.034915406,0.03589058,0.03976862,-0.029523786,-0.012143731,0.040449306,0.0019414723,-0.04151985,0.01879731,0.011513293,-0.03704671,-0.005455287,0.011709198,0.13068944,0.07307349,0.10079154,0.080459945,0.10641364,-0.038764454,0.17375782,-0.047131516,-0.13226704,0.057959378,-0.12366203,0.12377784,0.042208355,0.09053174,-0.01619495,0.11065538,0.034350067,0.037446532,-0.11754378,0.023076477,0.08184215,-0.08685644,0.045107152,0.06705848,-0.0439513,0.10345801,0.0038448055,0.008858356,0.08173597,-0.072564475,-0.0509743,-0.04246186,0.047014996,0.13886943,0.11428125,-0.07769335,0.08267032,-0.09109272,0.011349309,0.10733011,0.07809322,-0.11255886,-0.14250433,0.059648056,-0.06746729,0.06593526,-0.13363487,-0.00023638006,-0.13633986,-0.032806948,-0.11607678,0.06667629,0.032757554,0.14647958,-0.06576216
-0.084493496,-0.0063615344,-0.014886466,-0.12065588,-0.08741857,-0.03318394,0.08138046,0.08355263,-0.09644994,-0.11433752,-0.028831532,-0.102701016,0.025422096,-0.06947081,-0.12821251,-0.06991148,-0.0018240109,-0.015455883,0.09702988,-0.008948448,0.028844267,-0.008062229,0.12013823,0.00313361,-0.10648562,-0.010927418,-0.023503838,-0.014958033,-0.074747205,-0.002779428,-0.057267915,-0.10683466,-0.08086261,0.13451043,0.017677471,0.039049745,0.11210002,0.062033042,-0.09964418,-0.08242152,0.08486504,-0.12200682,-0.025977291,-0.048942428,-0.09506549,-0.059989695,0.09178317,0.0031208945,0.032384634,0.06678594,-0.043414652,0.15121423,-0.12011165,0.102579825,-0.07022811,-0.10017852,0.070678115,-0.04011826,-0.07248278,0.08333728,0.044583313,-0.101337664,0.037813146,0.10585761,0.060506724,0.03469141,-0.10353575,0.05226288,0.077460304,0.070207186,-0.09408547,0.049097676,0.09191829,0.0036678102,-0.06946074,-0.0060246065,-0.116897754,-0.08734506,0.11892471,0.062583424,0.03966414,-0.014343625,-0.02826982,0.014797501,-0.13990088,0.12270464,-0.11092078,-0.0805638,0.12145635,0.095929176,-0.09577951,0.035995148,0.07989414,0.043279164,-0.03024136,-0.1402786,0.09023833,0.026666343,-0.043200932,-0.108115986,0.14192761,0.08689043,0.14696667,0.058542546,-0.073506966,-0.10499116,0.06092313,-0.0317927,-0.03192555,-0.12743361,0.04649345,-0.06319657,0.06807174,-0.037576742,0.027852759,0.08236134,-0.10548189,-0.11091352,-0.029398993,0.030078813,-0.07875829,0.06371906,0.008123429,0.08094108,0.05974989,-0.057273146,0.06674461,0.029501246,0.112478726,-0.08751832,-0.08145799,0.012600847,-0.10639109,-0.010146974,0.06757763,0.056790955,0.09672717,0.092639,-0.0112165045,0.033669095,-0.005040996,0.015811164,0.13796301,0.08195387,-0.07260775,0.028385652,0.10424787,-0.104125604,0.10485081,0.055553775,0.061523516,0.094059184,-0.058584083,-0.026765453,-0.023252374,-0.13513817,0.07375441,-0.015497894,0.0050186003,0.021636145
-0.026883004,0.10919743,-0.10652041,0.09002135,0.021112593,-0.102810375,0.03547778,0.031168343,0.10803549,-0.12872377,0.120794475,0.048295066,-0.07211148,-0.00010976195,0.055648506,0.015122786,-0.087126054,-0.07668589,0.049334012,-0.063647114,0.05220911,0.051071793,-0.03970074,-0.0013466477,-0.0150716705,-0.081685975,-0.090590835,-0.013660204,0.010668365,0.047955863,0.11930747,0.053063497,-0.015483253,0.008889357,-0.11308635,0.076068886,0.12947525,-0.12425297,-0.03365206,-0.03872008,0.10004282,-0.027096702,-0.11846488,-0.044182453,0.03627368,0.050490636,0.054287147,-0.08464149,0.043543026,0.050297122,0.09398592,-0.06731823,0.12556468,-0.06927862,-0.03774555,0.10606846,-0.043181583,-0.025566036,-0.0493373,-0.06771279,-0.034824777,0.037048787,-0.03427634,0.04986229,-0.06322663,0.01695552,0.12977698,-0.06770465,-0.13483866,-0.0033287397,-0.07060502,0.076809905,0.14227168,0.06709799,-0.055478506,-0.093562126,0.0442634,-0.01085217,0.035438918,0.12040161,-0.13292108,0.03611433,0.12223141,0.108460695,-0.10054856,-0.033735808,0.0373043,-0.008139274,0.07702188,-0.11668905,0.11840455,-0.11797812,-0.07724535,-0.014020541,0.068821564,0.112523146,-0.10902833,0.027238965,-0.09622249,0.07917361,-0.100950964,0.04701958,-0.07349193,0.024330072,0.087981984,0.11342302,-0.046797372,0.07372005,-0.044024512,-0.09463859,0.03343004,-0.019608373,-0.05077193,-0.08227691,0.12825254,0.07450293,0.081834756,0.10849973,0.14563206,-0.005635497,-0.08396776,-0.07673107,-0.07097838,0.0009784474,-0.08807916,0.1140694,0.07492275,-0.107175104,0.116449,0.021340216,0.1067749,0.00581138,0.10070544,-0.11031191,0.12476534,-0.040160768,0.02648101,0.06732681,0.055114865,0.08434713,-0.077609286,-0.06600183,0.12762521,-0.11621499,-0.12331431,0.032657325,-0.13664033,0.09218222,0.13242549,-0.0908804,0.10034589,-0.007986267,-0.13396543,-0.059009213,-0.13663682,0.01247845,0.12497496,0.11358773,0.034639664,-0.0751529
0.06856496,0.038251247,-0.007892786,-0.12996,-0.037178975,-0.036264125,-0.12099593,-0.08604495,0.13585365,-0.06932809,0.040022094,-0.0019067614,-0.0127301365,-0.07730716,0.11277279,0.093113855,0.046716545,-0.0151900835,0.13309397,0.04931512,-0.13444994,-0.09037587,0.06088823,0.0065615177,-0.04882904,0.10321332,0.093178235,-0.089930296,-0.115295544,0.10550034,0.050466318,0.06858257,0.035700753,-0.12595919,0.03238905,0.042413127,-0.08798811,-0.0107899755,0.07988017,-0.12030263,0.06881666,-0.032534488,0.081059664,-0.1272979,-0.033997584,0.07402448,0.06609936,0.07488356,0.13887548,0.091813475,0.03257867,-0.015033267,0.066230126,0.13185082,-0.008809931,0.03686479,0.09612605,-0.0044543594,0.04557292,0.13367158,0.057335824,0.055398047,0.008608535,0.13008058,0.10014234,0.13578786,0.09840979,-0.039752845,-0.11899585,-0.050205488,0.088784076,0.0877702,-0.024656922,-0.054509733,0.06584845,-0.12530588,-0.071195066,0.010584585,0.059390627,0.099044435,-0.042971957,-0.046774454,0.109689236,0.062017247,-0.08344979,-0.075797126,0.096215695,0.02969366,-0.017767018,-0.08525677,0.08551977,-0.06919662,0.0076476308,0.08647296,0.045327827,0.07297352,0.098641485,-0.07863937,0.07604252,0.108612806,-0.084851496,-0.118548416,0.041393884,0.071036875,-0.08078028,0.0071792006,-0.0928836,0.049711943,0.10846734,0.07512732,0.05399151,-0.13307025,-0.0003760308,0.0050777495,-0.045325525,0.107221425,0.09111047,0.034202155,0.10818776,-0.04463299,-0.11243703,-0.040453494,-0.004594134,-0.02636426,0.05381526,0.0056712776,0.12437722,-0.02519916,0.002613341,-0.024916444,0.0707556,0.024589198,-0.044845566,0.13672087,0.13505791,0.084870905,-0.11358113,0.11054977,0.0820197,0.052674595,-0.07739416,0.13210753,0.03887031,0.11717998,0.0055926293,-0.13209242,-0.053670496,0.04376717,0.049299877,0.083344944,0.10592234,-0.03629163,-0.11439889,0.041843306,0.030823559,-0.03222253,0.09723642,-0.1263873,-0.094403446,-0.08365352
0.056737084,-0.054819863,0.09166346,0.09749413,-0.0136279,0.10077453,-0.12011806,-0.018752618,0.051025916,-0.0052473843,0.01709198,0.12758881,0.05190301,0.007729009,-0.08181999,-0.049025096,0.058442257,0.006878026,-0.047505967,-0.11889964,-0.13663173,-0.033042878,-0.12518804,-0.017153904,-0.006189013,0.12929131,-0.000996676,-0.0782761,0.018587042,0.037035633,-0.06611982,0.12661318,-0.12366945,-0.066715874,0.0018832852,-0.050766785,-0.13624644,-0.03858842,0.07839513,-0.1279388,0.13356268,0.03505623,-0.13028423,0.0048854076,-0.06721427,-0.026678445,0.096960224,0.0935068,-0.11188075,-0.002100622,0.18502545,0.03247362,0.09616418,-0.11569351,-0.008389425,0.099025145,-0.1412074,0.108680844,0.0027039757,-0.05098563,-0.023759993,0.0927022,-0.09160501,-0.07800171,0.05066754,0.055949245,0.057991274,-0.05616919,-0.11914382,0.11920527,0.08746416,-0.033628237,-0.0951161,-0.008749639,0.03443443,0.016949955,-0.022703914,-0.12275497,0.07606911,0.13252611,0.2117068,0.043120433,0.16430551,0.19207458,0.07257071,0.07355903,0.030121235,0.07327183,0.06375722,-0.109225005,0.022828497,0.013198817,0.09352345,-0.114259854,-0.074356325,0.069114126,-0.033919744,-0.102842614,-0.010691464,0.03378305,0.02784798,0.017292842,-0.11118053,0.09131123,0.026445642,0.1176891,-0.007917732,-0.042932056,-0.061003268,0.1148715,0.097369686,-0.11808744,0.09738971,0.12042943,0.10105693,-0.08364521,0.02270579,0.11574751,0.044710662,-0.09188387,0.050201762,-0.07111108,0.085483916,-0.06426861,-0.08629903,0.028268747,-0.08870788,0.0029951513,0.02360036,-0.033536527,0.07743332,-0.059632722,0.013198889,0.018548427,0.07207147,-0.13333243,-0.096759155,-0.006513915,0.06728613,0.096336395,-0.10101222,0.064503804,0.053728428,0.0069554583,-0.09250588,0.12222304,0.013118926,0.018151546,0.0989151,-0.09244031,0.13146129,0.038128443,0.06623678,-0.051338665,-0.120459415,0.07037419,-0.086100705,0.07869519,-0.008439844,0.107569456
-0.060892504,0.08842947,0.16099826,0.12210631,-0.056960564,-0.09688589,0.01687375,-0.018161518,0.059380073,0.052245732,-0.12983197,0.098555714,0.09935266,-0.028921746,-0.11353953,0.058529586,0.1219359,0.084758595,0.06565003,0.08794473,0.042474255,0.009028569,-0.0066006333,0.10095173,0.115664326,-0.100663655,-0.091510944,0.07001442,-0.07259567,-0.08051019,0.04455308,-0.059705507,-0.06537717,-0.048120454,-0.00533343,-0.037547693,-0.13332069,0.12271848,0.11631556,-0.072615445,0.04413893,0.004159757,-0.05399729,0.005246984,0.036073178,-0.037388984,0.20056467,0.0059721,0.016939728,0.032318376,0.073906854,0.1263089,-0.07175778,0.021452304,0.07537154,0.042683586,-0.0098289605,0.013427949,-0.008453827,0.031456023,-0.07925966,0.043043043,0.0976187,0.10820287,-0.008101533,0.1389096,0.13027452,0.0104367295,-0.011356367,-0.040480606,0.13673429,0.08635327,0.025390886,0.025442667,-0.0162297,0.099295855,-0.11833795,0.070654035,0.123691924,0.065663785,0.039467562,0.10740149,0.11743763,0.10450895,0.02333053,-0.1165835,-0.06066334,-0.001945475,0.1937968,0.058158066,0.10168952,-0.059756495,0.050734784,0.029509963,-0.06967766,0.035652965,0.10754949,-0.122680604,-0.011265889,-0.096391335,0.082486175,0.057002828,0.15084647,0.0029896721,-0.10736726,-0.08537343,0.0243368,-0.11995026,-0.16675903,0.09782892,-0.15964894,-0.059797868,-0.091824666,0.07901093,0.09300044,0.031563357,0.111107334,0.1274366,-0.069819964,-0.04033226,0.029515604,0.036314502,0.03907178,-0.031846356,-0.10481243,-0.066016585,-0.13187765,-0.040808022,0.12952179,-0.06326945,-0.05306466,-0.020924356,-0.08918292,0.018930612,-0.05173989,-0.054351397,-0.029415006,0.04215416,-0.11617525,0.096723266,0.10759918,0.0051329313,-0.041264657,0.08523935,0.034706637,0.14635786,-0.11319326,0.027071673,0.0973959,0.028670235,-0.06584703,-0.091338664,0.06541588,-0.108104825,0.09747028,0.021211615,-0.07974066,0.048022084,-0.10325133,0.1093001
0.062472302,-0.10069241,0.115824424,-0.08517859,-0.066364884,-0.07528848,-0.10254334,-0.12947057,0.036039144,0.1147085,-0.096838415,0.03145826,0.033909395,-0.0443137,0.03756146,-0.12746042,-0.08022481,0.055795312,-0.13060495,0.04015575,0.09694539,0.065164864,0.08469124,-0.13454181,0.049365293,0.1325793,-0.07444407,-0.024384728,-0.12554917,0.08583663,-0.01240908,-0.031232446,0.025234377,0.047624316,-0.12118283,-0.006711838,0.113411576,-0.1216932,0.12727056,0.027684132,0.06052726,-0.020964077,0.005616016,0.035835978,-0.06911356,0.03754378,-0.0032861594,-0.04452397,0.10295893,0.07886781,0.060795438,0.13550787,0.1212255,0.11899563,0.026722055,-0.028445654,-0.13530484,0.0248811,-0.03546214,0.05892413,-0.022360403,0.06244337,-0.038595844,0.09539689,-0.03798049,-0.05920127,0.13411778,0.026649926,-0.013535536,0.06453473,0.0145035675,0.009359355,-0.02366099,-0.07222898,-0.13249482,0.07201027,-0.036476776,0.08907357,0.0611885,-0.044321764,0.09915586,-0.09923149,0.21471606,0.061897203,-0.10947822,0.10963487,0.059778206,0.13487436,0.11516269,-0.1282574,0.12404703,-0.076985285,0.016496914,0.080937535,0.061769284,-0.103810556,0.0308716,0.019894406,0.10236058,0.13310412,-0.09248666,-0.08777203,-0.025107734,-0.039213322,0.042281106,-0.00531663,-0.075700834,0.0677771,0.0053842603,-0.11440324,0.003019945,0.052263048,0.04043752,0.074220374,-0.010925293,-0.019831762,-0.11692196,0.12163847,0.0672322,0.014047321,-0.07105156,0.061235663,0.02485218,-0.10638336,-0.019082002,0.088784985,0.045552038,0.047493454,-0.0848929,-0.053866476,0.035526946,0.13825847,0.012849724,0.09774426,0.11100315,0.041043837,0.14110412,-0.034631103,-0.0024853267,-0.084619306,-0.017072547,-0.0756778,-0.06541323,-0.10590362,-0.03442333,0.071187586,-0.096227445,-0.12897258,0.054468766,-0.039828144,-0.0033702077,-0.13199195,-0.022491446,-0.10214492,-0.035019014,-0.10863701,0.08099232,0.023628827,-0.074569665,0.0043956926
0.053222667,0.060697626,0.073123,0.09151383,0.026722642,-0.051584557,-0.017411254,0.111601144,-0.05170464,0.06557617,0.084384926,0.08364199,-0.045337245,-0.014765926,0.103538215,-0.004348919,0.109435044,0.067896865,0.047032706,0.04174855,0.019159108,-0.0063671023,0.018254653,-0.115465075,-0.016090205,-0.0040917355,0.082135804,0.0648094,-0.12670633,0.05008658,-0.007916015,-0.10955135,-0.07733816,0.12994175,0.047269102,0.11587559,0.01192556,0.0031494806,-0.100320846,-0.09680304,0.13480075,0.016633926,-0.041153945,0.04719086,0.11795371,-0.033481266,0.09492795,0.11055275,-0.090089686,-0.10899988,-0.047790594,0.0037895348,0.12891214,-0.012657369,0.06077987,0.0558071,-0.11525885,0.12195822,-0.07902478,-0.08406685,-0.11242583,0.098008364,-0.048509512,0.026076911,-0.11217504,0.053940468,0.10904457,-0.0036888723,-0.04170989,0.1133471,-0.06367218,0.063944556,0.035561036,0.10081842,0.045088895,0.088102184,-0.0643165,-0.14086212,0.061195858,-0.13675062,-0.021870151,-0.105692945,-0.082006365,-0.101636894,0.08671677,0.02263621,0.047459684,-0.02912333,-0.11216353,0.010476311,-0.06720684,0.0968062,0.13415381,0.08201155,0.028503433,0.021363243,-0.055377804,-0.10489084,-0.119972914,-0.102813065,-0.03209194,0.026753128,0.095763884,0.1236562,0.0041432083,-0.001240313,-0.047704235,0.0056432933,-0.01534793,0.059925202,0.0930835,-0.056065813,0.053177565,0.06781307,0.05283302,-0.04997012,-0.013134192,-0.099240035,0.06875523,0.07578171,0.0099043455,-0.10951614,-0.081942864,0.09294767,0.043400902,0.06238247,-0.14375171,-0.11535713,-0.018687403,-0.041308954,-0.056974716,0.10862311,0.0631548,0.03918421,0.08824054,-0.1309045,-0.1035358,0.12959215,0.10001832,-0.11090626,0.100052655,-0.11685356,0.0264055,0.052814562,-0.039311502,0.10048088,-0.106916,0.06537106,-0.067561716,-0.06445498,-0.09301935,-0.034911633,-0.032231003,0.07769735,0.101751275,-0.088039994,0.014686116,0.008888168,0.08925239,0.053013235
-0.1166475,0.09046301,0.034655873,0.0060003405,-0.0136739295,-0.076226406,0.06245616,0.011047432,0.10491445,-0.040877894,-0.03875154,-0.0024427196,-0.08353963,0.02186416,0.027780935,0.122869015,-0.03318293,0.028629338,0.029261768,-0.080322765,0.072558805,0.076355726,-0.121200755,-0.06680572,0.121392325,0.08402867,-0.0023831357,0.073156565,0.014061768,0.0895299,-0.070414335,0.015610599,-0.05715698,-0.04700315,-0.09733277,-0.10480915,-0.027015327,-0.06638572,-0.042997036,0.093825705,0.086326376,-0.026866166,0.04938918,0.01184753,-0.0524345,0.040758125,0.08377849,-0.12831487,0.111047916,-0.07926738,-0.039415404,-0.015370501,0.080706544,0.045109812,0.13590309,0.0915821,0.014715421,0.031126285,-0.13543615,-0.009379034,0.018727819,-0.13026509,-0.08217033,0.039888836,0.062390696,0.13642476,-0.020944582,0.046490774,0.029685512,0.054702025,0.013087896,0.06847883,0.007525733,-0.033903122,0.069065556,0.085892245,0.13092767,0.028768608,-0.07470707,-0.07948856,-0.03384268,-0.0563931,-0.14143945,0.003467896,-0.084872946,-0.11167684,0.0061616795,-0.04095755,-0.07556247,-0.12546512,0.08435403,0.13892648,-0.060808845,-0.11959212,0.05134914,-0.057329968,-0.06252282,0.053423017,0.067241296,0.075139314,-0.121143125,-0.03355145,0.08813688,0.0050134202,0.030999094,-0.037986584,-0.00789237,-0.0021764934,0.08854041,0.014664065,-0.11265219,0.06271369,-0.035032637,-0.006089285,-0.00252451,-0.03203886,0.09988516,-0.01569965,-0.06838724,-0.048284855,-0.054065328,-0.1151349,-0.10713048,-0.0064315903,0.037912674,-0.05959377,0.07934457,-0.07992174,0.11729648,0.006538017,-0.0069585475,0.033592958,-0.1117277,0.04252611,-0.0023451343,0.11597647,0.012932153,0.037593093,-0.008045281,0.10604835,-0.032248124,0.08423577,-0.03816214,-0.0855291,0.1188305,0.09389668,-0.050762024,-0.027519459,-0.0840664,0.11795379,0.1268257,-0.013381071,-0.0012505694,-0.112793796,0.11122943,0.086492665,0.12301304,0.06890731,0.10699904,-0.10923514
0.13621336,0.111940905,0.07496321,0.12846038,-0.043133195,-0.119766004,0.12717064,0.07127289,-0.023513919,-0.01238558,0.13661085,0.047504645,-0.019201845,-0.050406672,0.0070106685,0.110425845,-0.03680444,-0.003326974,0.11086196,0.06575261,0.013772517,-0.013195805,0.1066488,-0.07066014,0.022964148,-0.07485162,-0.023670584,-0.115082,0.0018780448,-0.011847732,-0.055565238,0.0057271468,0.018133165,-0.019565124,-0.11017989,0.057569034,0.08330052,-0.12834604,0.030997086,-0.081767395,-0.033815432,0.03876112,-0.13057551,-0.10395383,0.13398091,-0.009361512,0.05729913,-0.04553246,-0.095196314,-0.010179531,0.019795882,0.076948084,0.11194993,0.066878036,-0.024077108,0.11732352,0.04393255,0.090938605,-0.04249988,0.0048597143,0.039232478,0.07230366,-0.13859181,0.040220402,-0.0030993647,0.05102673,-0.12644424,-0.013903322,-0.10087363,0.05530842,-0.07446862,0.06982917,-0.015524431,-0.032064106,-0.02764634,0.03652821,0.12239586,0.109404676,0.061108977,-0.08002425,0.09809617,0.059696496,-0.08916668,0.012893905,-0.017883573,-0.08376149,-0.0078774085,0.035631582,-0.07875473,-0.1319038,0.10019083,-0.06282175,0.11401709,0.12083041,0.071306504,0.08574528,0.049816027,-0.024310902,-0.04586792,0.061180487,-0.07482942,-0.08115157,0.03305565,-0.02375138,0.074744344,0.0972427,0.056351036,-0.0061526895,0.027633963,-0.075929314,0.12729655,-0.043843705,-0.11495311,0.09056519,0.032522947,-0.09527148,-0.06880004,0.124587,0.061793864,0.04502221,-0.009350214,-0.07656152,0.021778887,-0.089620695,0.102974676,-0.023412455,0.013731223,-0.055188667,0.07437893,0.13040712,-0.10654025,0.07796434,-0.06409854,-0.1282658,0.08115785,-0.1001452,-0.06862611,-0.024617368,0.020940416,0.014114634,0.0031716607,-0.0532749,0.0880213,-0.029396519,0.073011026,-0.015074198,-0.12168799,-0.054465037,-0.13597977,0.031234661,0.0210543,0.13562265,-0.11502124,-0.11105607,-0.053866845,0.03169137,-0.082729675,0.1102285,0.013023583,0.11988474
-0.07061275,-0.03414601,0.12917557,-0.12393713,0.09708197,0.08241855,0.13345122,0.09177208,-0.05355059,-0.07338887,0.11343374,0.08559407,-0.0120975,0.05851935,-0.027106255,-0.052616604,-0.097099826,-0.07243734,-0.08204799,0.12766637,0.11018331,0.054927185,-0.02879589,-0.0058062673,-0.13948768,0.03372546,0.11666366,-0.018672813,0.13327907,0.11757303,0.08696642,0.022211254,0.14811587,0.023459025,0.07204936,-0.025597751,0.024066536,-0.04869825,-0.122276455,0.11886695,0.08065676,0.062282767,0.11495489,-0.10538307,-0.04080327,0.018923238,-0.061884597,0.09773419,0.06837459,-0.07256825,-0.02108278,-0.11779006,0.002253862,0.114878915,-0.082799636,-0.049580865,-0.019878035,0.11320509,0.1081692,-0.0053194147,-0.04013621,-0.11182112,-0.0006367142,-0.033735707,0.07022999,-0.106261306,-0.11892053,-0.103987776,0.030343398,0.11861473,-0.046470974,-0.08531118,-0.0048410273,0.10307055,0.1425203,0.13428047,-0.003906515,-0.065422475,-0.03084073,0.059636418,-0.076011404,0.051423933,-0.113564864,-0.060172167,-0.07171627,0.09617612,0.07581957,0.057702586,0.083022244,0.12688373,-0.110803,-0.003917519,-0.09646532,0.07338798,0.06502848,-0.077824526,-0.033106968,-0.032472968,-0.1342933,0.038024068,0.034224782,0.092193045,-0.09147506,0.117433436,0.0058841556,0.022715226,-0.065415815,-0.043840684,-0.02564698,-0.067681395,0.08140806,0.12739104,-0.093117416,-0.058957003,-0.115297236,-0.044160455,0.02715769,0.11013943,0.1114552,0.13031554,0.09493943,0.12612563,0.108876385,0.12075675,0.039488282,0.10232494,0.050903723,0.06325763,0.14269671,0.0833343,0.09695581,0.144378,0.08777111,-0.03214184,-0.09973989,0.047166295,0.10791929,-0.08887236,0.007142221,0.10437257,0.096529834,-0.09387174,-0.085178666,-0.03312881,-0.12205051,0.08198634,-0.022529697,-0.051961124,0.07615283,-0.103323966,0.084107354,0.0708531,0.13108172,0.055577643,0.09939713,0.015347569,-0.095696494,-0.10603174,-0.051724732,0.11859555
0.0034689254,0.061789613,-0.099765316,0.08189736,0.09962454,0.17056726,-0.05968574,-0.13425161,0.07711577,0.016584966,0.11497894,-0.00986356,0.072864875,0.056712374,0.06225276,0.046804592,0.12501776,0.03701983,0.015137311,0.13567185,-0.073861025,0.049431935,0.13167974,-0.07056859,0.12326437,-0.03226673,-0.038666565,-0.02776305,-0.01975878,0.08295301,0.11791447,0.12753397,-0.061393533,0.055375125,-0.07980224,-0.0532761,-0.075133175,-0.06769209,0.006091984,-0.031092243,-0.08516205,-0.03530118,-0.01801423,0.08932917,0.018913435,0.0005245075,0.011996372,0.0008843805,-0.13127485,0.016588816,0.04669625,-0.08152315,-0.026019156,0.02981661,0.13490368,0.05230378,-0.040552687,-0.070712574,-0.0168472,-0.07588065,0.015478543,0.06335231,0.13454376,0.13185272,-0.093709394,0.106319845,-0.029160503,0.08222609,0.0026942384,0.028806064,0.04358805,0.005860976,-0.104898006,0.08618033,0.13702664,0.017446263,0.057553545,0.04555539,0.10033469,0.063382186,0.01533671,-0.074597955,0.20324613,0.098395064,-0.10754992,-0.13314544,0.047188446,-0.12183759,-0.10701783,-0.1301095,-0.1263985,0.096145056,-0.021942664,0.075227,-0.013186822,-0.041429497,-0.021405041,0.09173149,0.08885273,0.053293735,0.108543135,0.08446581,0.1172297,-0.082704365,-4.965067e-05,0.09445727,0.04761207,-0.12810314,-0.02153804,-0.09216262,-0.10987101,0.1211781,0.12341368,0.004845634,-0.08785616,0.019949645,0.031217491,0.09101984,0.09930386,0.097123206,0.12224245,0.15946184,0.020017747,0.053151086,-0.013421225,0.10283493,0.09718624,0.021123387,-0.021381482,-0.08560751,0.14521332,0.086813666,-0.12223641,0.11413041,0.06405798,0.056367822,-0.0110692,0.020626564,0.068298735,0.0689404,-0.04633648,0.10408949,-0.031033125,0.04639911,0.09934594,0.07771792,0.03384437,-0.05225801,0.066203244,0.1257672,-0.09998686,0.060957804,-0.088562846,-0.1205407,-0.019652572,-0.13741475,0.012537475,0.080537386,0.013439,-0.042590294
0.09940024,-0.12296639,-0.0757897,-0.12977141,0.036420986,-0.05566162,0.11152315,0.10419611,0.021872306,-0.09611997,0.015692838,0.016957508,0.08182475,-0.007580295,0.04898128,-0.1313118,-0.106359,0.032688625,0.012648998,-0.007824433,-0.0695271,0.05612588,-0.08227052,-0.092380546,0.10041897,-0.11637813,-0.08982474,0.047675703,0.12515435,-0.10737653,0.068137854,-0.06689071,0.12248799,-0.037532892,0.0730515,0.06446915,0.014204568,-0.07844996,0.120217256,-0.016702766,-0.036701366,0.12796013,0.027489059,0.116011426,0.07585241,0.14095409,-0.029918041,0.081091285,-0.04439445,0.121356964,-0.055691898,0.099689126,0.082431704,-0.053198274,0.024925483,-0.13850282,0.08122092,-0.056154326,0.10597577,0.09484092,0.0127259735,-0.07335712,0.042179044,-0.11297609,0.13098705,0.05767991,0.12898143,-0.10253106,0.068091124,0.106447645,-0.05463961,-0.10744868,-0.093352914,0.069569476,0.13058661,-0.02179885,-0.09493061,-0.06537696,-0.08465469,0.12205149,0.09013609,0.08942732,-0.122484535,-0.07536636,0.11339749,0.07957608,-0.013533479,0.04887738,0.007621319,-0.1105718,0.08346701,0.09768484,0.04252368,-0.03409467,0.1230966,-0.07555972,-0.028290875,-0.0838597,-0.08061607,0.08040984,0.07124645,0.025417335,-0.06451949,0.08958289,-0.119861126,-0.0033854693,-0.040377967,-0.009341821,0.11070952,-0.0898057,-0.07803085,0.0607391,0.12326729,-0.105519325,-0.031161018,-0.038871117,0.028442092,-0.09227631,-0.059409503,0.08059466,0.06711431,-0.05662135,0.0108432,0.10903156,0.077316724,-0.078966424,-0.011576999,0.03738346,0.13420576,0.047806654,0.12302953,0.13989758,0.033594113,-0.057182394,0.11843249,-0.12546116,-0.10539198,-0.058790043,0.0028353524,0.049901996,-0.0476563,-0.074721,-0.08063278,0.08313733,-0.00072076375,0.027458759,-0.13401589,0.03373734,-0.10398127,0.077995144,0.11554887,0.13492809,0.047377676,-0.083261296,0.056205183,0.06528823,-0.13039719,-0.020361042,-0.04586324,-0.007868596
0.11671919,0.0641069,0.07704168,0.13854761,0.0817973,0.053354032,0.05902583,0.045279983,0.13301975,-0.014924311,0.121558584,-0.06754496,0.06054759,-0.06460601,0.047924697,-0.08076272,-0.124388665,0.014279607,0.008417064,0.14398716,-0.067133754,-0.108597,-0.02232059,0.10075602,0.10891664,-0.04440933,0.0813419,-0.049743712,-0.0047831573,0.12669377,0.13159491,0.018429901,0.060126007,0.045839332,-0.038396418,0.037131373,0.104768574,-0.08933075,0.099998154,0.10051094,-0.015230576,0.0009011678,-0.11454902,-0.020021802,0.016585272,0.065615974,0.035977624,-0.07432489,-0.03998034,0.021359628,0.043652914,0.007362616,0.031892512,0.09976412,-0.0847713,0.11959876,-0.025284247,-0.08370083,0.030056382,-0.015935255,0.08790042,-0.008835626,0.09555244,0.0160736,0.10018337,-0.12798353,-0.12340593,0.002137842,-0.08570482,-0.11007535,-0.1164236,0.13489263,-0.07997353,0.020306373,0.08753181,0.11625074,0.10839285,0.0059794923,-0.06066871,-0.09491719,-0.07693527,-0.045733307,-0.052709658,0.16853058,0.027463185,0.09563414,-0.040056698,0.0021035417,0.043350823,0.054155435,-0.035865255,0.02801392,0.118529186,-0.08719011,-0.07314671,0.0628091,0.07161845,-0.10462676,-0.04686355,-0.13100584,0.041103885,0.057025652,0.091625206,-0.061611272,0.08579388,-0.032207645,-0.084872596,0.045885324,0.07746033,0.08007594,0.029413654,-0.087814376,-0.048461773,0.07259123,-0.1080896,0.12269643,0.12311076,-0.0582064,0.065839306,0.1100683,-0.012169508,0.054899424,-0.1322113,0.072993435,-0.08726794,0.072020024,-0.04858417,-0.043921933,0.09639379,-0.016464205,-0.039201874,0.13109078,-0.1332586,0.12771899,0.12426836,-0.06531405,-0.00915915,-0.0869908,0.11601597,0.13046458,0.12417139,-0.09953657,0.03402415,0.0044054706,-0.09831769,-0.077495374,0.033727925,0.0777394,-0.061116107,-0.083594814,-0.04125305,0.06949577,-0.039010048,0.0805271,-0.07762641,0.009864104,0.02300755,-0.13603266,0.043632254,-0.05751005
0.05245546,-0.10259521,-0.04454686,0.1176304,0.12967026,-0.0775974,0.0370428,-0.05993759,-0.04105968,0.11474093,-0.061523102,-0.077122636,-0.051629916,-0.09188676,0.09554288,-0.026455179,0.11251989,0.05154856,-0.04955475,-0.02201528,0.06062685,0.07864283,0.050282,0.049807966,0.023407403,-0.121540874,0.04306584,-0.10777391,-0.005349542,-0.008586886,0.082688875,-0.050585944,0.14431502,-0.042884905,-0.082406364,-0.10026049,-0.08326736,0.0016140752,-0.034148768,-0.11753114,-0.09857437,0.05356333,-0.054285172,-0.058980074,0.007022463,0.048201513,0.08295747,-0.12418593,-0.099914454,-0.102057844,-0.11090423,-0.08773026,0.063764594,0.06360044,-0.024383163,0.04055094,-0.088502705,0.02085411,0.07861032,0.039280348,-0.085764736,-0.10126989,0.10795762,-0.09521306,0.0009932984,0.00067065656,0.045730673,-0.008987316,0.019631166,-0.09749118,0.04330257,-0.09267024,0.10626989,-0.12190985,0.12585099,-0.11442236,-0.076999836,-0.06419451,0.11726879,0.022334129,-0.040339157,0.14046836,0.13577399,0.032746445,0.11155533,-0.07194763,-0.019817842,-0.0002341371,0.12964873,-0.029670527,-0.1094517,-0.08195767,-0.0954907,0.019856038,-0.11628264,-0.06418287,-0.021828994,0.04946576,0.030675307,-4.1887164e-05,-0.099188544,0.107777104,-0.05687191,0.13608402,0.0241545,0.08376397,-0.1365894,-0.034324892,0.02879686,0.12902877,0.08187564,0.12749183,0.098260134,-0.111867756,0.038374662,0.023915485,-0.10648119,0.02815586,0.102269016,0.044849932,-0.026947763,-0.105561316,0.12115318,0.13522327,0.12213235,0.09552993,0.039764456,0.09816309,-0.061570436,-0.06926512,-0.043701198,0.10411034,0.056261454,0.009484416,-0.11805333,0.06352342,0.041998725,0.122992136,-0.022307536,-0.12689833,-0.02135286,-0.06887321,0.13237242,-0.10020723,-0.07641594,-0.09434825,-0.05249236,-0.037625924,-0.1379309,0.002594525,-0.050542347,-0.011293394,-0.07719127,0.12687105,0.09311271,-0.0942305,-0.14094548,0.07268413,-0.021372767,-0.045749493
-0.011140196,0.11343787,0.048491493,-0.11554004,0.018163301,0.008468308,0.104699425,0.065798745,-0.10987461,-0.003694732,-0.03544609,0.084623866,-0.04957196,-0.0573626,0.06422636,0.07136968,0.005507571,0.10438675,0.015964318,0.0150711695,0.083627835,0.07355809,0.10393903,0.06972079,0.15426208,0.07236078,-0.13398233,0.029114714,0.119928926,0.0056859897,0.04352512,-0.113877214,0.12220228,-0.06728229,-0.023319924,0.12903157,-0.1305726,-0.12278796,0.044745106,0.11608415,-0.04321178,-0.103657275,0.094956584,0.08889431,0.16579267,0.032501206,-0.07982755,0.004874286,0.037924513,-0.016424807,-0.011625977,0.025190903,0.11880758,0.08621135,-0.045028973,-0.07341632,0.04506384,0.06443891,-0.062085103,0.0753398,-0.082059845,0.029095173,0.05087827,-0.11185015,0.12134776,-0.090374865,0.09550317,-0.12872504,0.04721125,-0.118399754,-0.035737853,-0.0038244557,0.07772175,0.018214302,-0.0042444225,-0.097625494,0.035821974,-0.028947126,-0.120583475,0.123067416,0.02141142,-0.098652646,0.1554695,0.0052551785,0.05350044,-0.11965419,0.12115563,-0.10084773,-0.09444727,0.13300806,0.001157447,0.115381844,-0.119391486,-0.088669255,0.075175084,-0.05289599,-0.0768345,0.05349797,-0.08084865,-0.036843196,-0.07478242,0.0522284,-0.076649405,-0.094781354,-0.088306785,-0.06027274,0.073172405,0.014936432,-0.11714801,-0.061792966,-0.046446122,-0.0024060616,-0.11705305,0.05283977,-0.084015,-0.0067494065,-0.012334527,0.05952905,0.014309001,0.079812735,-0.09055704,0.004979314,0.07932728,0.12345479,-0.058547985,0.106832504,-0.04768882,-0.12676716,0.12681755,0.0022785603,-0.09140214,0.0012856801,-0.0030085936,0.0476779,0.073115535,0.124387644,-0.0150967585,-0.0034616813,-0.07949679,-0.018177737,-0.0024913552,0.13784094,0.022919012,-0.12089664,0.074472174,-0.07147353,-0.10444164,-0.076942034,0.0042278282,0.019295486,0.10809712,0.11416001,-0.011452309,0.039862156,0.08394623,0.10884228,-0.08009442,0.06500599,-0.076306015,-0.12975833
