0.029218236,0.007846365,0.09525901,0.14196907,-4.5259452e-07,-4.414265e-07,-2.165876e-07,-2.1914311e-05,-0.024036597,-0.024959417,-0.088312656,0.01693204,-0.056458898,-0.037113637,-0.054879893,-0.05196808,0.006872598,0.14041844,-0.020861479,0.041503895,-0.03656728,-0.0020984,-0.042046823,-0.03780969,0.004620559,0.12193838,0.104580015,0.10444496,-0.005279128,0.01794152,-0.010901669,-0.028888833,0.0875237,0.0722127,0.024416905,0.14874743,0.09289017,0.007376436,-0.0005888502,-0.017679714,-0.04215007,-0.005772158,-0.017972047,0.011732946,-0.004318374,-0.024033327,-0.046769183,-0.037303187,0.0809307,0.03238458,-0.06144652,-0.052544326,-0.079992406,-0.01668177,-0.021250509,0.008431878,-0.045755245,-0.042061336,0.03181875,-0.0845675,-0.091828085,0.059021056,-0.07501506,-0.007865267,0.029728776,0.01661506,0.016940286,0.0070319865,0.02411409,0.029312816,0.024904782,0.11656133,-0.00034047032,-0.0002266889,-0.0002688792,-0.00010485942,0.0008574885,-0.101958126,-0.0456225,-0.09536066,0.0065750587,0.0081759235,-0.007629018,-0.0066330074,0.015279044,0.058931284,0.030528259,0.049159564,0.03878646,0.03165657,0.083423294,0.04321955,0.002430779,-0.00730556,-0.01790225,-0.0002450465,0.029977718,-0.0804246,0.010806613,-0.007867418,0.063170366,0.07546096,0.03658965,0.10699553,0.0059904503,-0.008049013,-0.016008092,0.019559095,-2.4814455e-29,1.2428291e-29,-2.3221528e-30,-1.1938807e-28,0.045598857,0.03542807,0.0138020655,-0.07733633,-0.0044965297,-0.013329207,-0.0054937513,-0.08654918,-0.0042289775,0.0004812508,0.009454177,0.007818205,-0.0015888531,-0.002379279,0.00031226248,0.00025189223,-0.031974718,-0.078627974,-0.026205305,-0.058628894,0.19169147,0.03586971,0.12042907,0.040046077,0.009323803,0.07186554,-0.00553975,0.10243733,-0.06599014,-0.020925278,-0.008713004,0.04528633,-0.0480777,-0.07257567,-0.057647962,-0.09092696,0.06814945,-0.04605358,0.058988024,-0.037135947,0.08562206,-0.0412269,-0.030322684,-0.087712035,-0.03173511,-0.031369075,0.009055166,0.008788241
0.0032671012,-0.027794575,-0.038761906,0.041666124,2.5048064e-15,-3.1109767e-08,2.462528e-09,-5.413388e-06,0.04768237,0.016602105,0.039015148,0.013811093,0.09819912,0.008131746,0.02860493,-0.0090457825,0.11061061,0.03386744,-0.033782355,0.008526547,0.056422524,-0.09077313,-0.050298672,0.031334046,0.0042817025,-0.06130298,-0.052393045,-0.047720604,-0.0717926,-0.043275617,-0.013657413,-0.06794914,0.0012016268,0.02369135,-0.080217436,0.0046107806,-0.084885485,-0.027612269,-0.05870343,-0.09159419,-0.0191025,0.04245425,-0.06195027,-0.005831897,0.14513585,0.09101574,0.05231193,-0.00026367672,-0.027858185,0.10932648,0.0037858132,0.07306698,0.1436834,0.04209457,0.024954319,0.00022161011,-0.015700271,0.014620515,0.1252345,-0.055321377,0.021810489,-0.050227184,0.031029936,-0.040421586,0.033072162,0.15211588,-0.05926114,0.09736853,0.051802155,0.024248615,0.039455526,-0.05021652,-0.00011901638,-3.6219135e-05,-0.00022200657,-4.7372732e-06,0.008445074,0.024927191,-0.010786228,-0.022115612,0.038657103,-0.018370835,-0.09314772,-0.12062716,0.06929486,0.035723597,0.061510034,0.08747515,-0.16478139,-0.08421791,-0.0368372,-0.017763974,-0.0052353367,-0.076709226,-0.030132463,0.022041414,0.101888604,0.047932718,0.0055700103,0.050106395,-0.058824077,-0.041912988,-0.046537872,0.036319807,-0.031796135,-0.0022205126,-0.051525082,-0.05105351,1.3085143e-32,7.018399e-34,9.67296e-33,9.600749e-33,-0.0018458228,0.059408143,-0.06659901,-0.040860716,-0.035510156,0.056917656,-0.0056934026,0.09867312,-0.0029439505,-0.013587646,-0.04181401,0.011283223,0.0019353874,0.0020401718,-0.00051765045,0.00065215764,0.05827422,0.065191664,0.11003059,-0.0026475813,-0.112905554,-0.08292016,0.006518556,-0.018997945,-0.044992693,0.007309674,-0.0504175,0.0912551,0.01156633,-0.009189685,0.06930137,0.035816673,0.0069208215,0.064930275,0.05358996,0.051576514,0.00499047,-0.008859603,-0.02787563,-0.0016969704,-0.04561039,-0.011880792,0.05867868,-0.020039285,0.007122211,0.0047483705,-0.03092409,0.015012928
-0.064383134,-0.05487323,-0.041492093,-0.004092993,1.1462219e-13,-1.2159392e-09,-1.5952125e-13,7.417366e-11,-0.0008566524,0.062497627,-0.033623613,0.02988709,-0.036911037,0.0067840954,-0.0027451525,0.03710036,-0.03658992,-0.047597952,-0.060576804,-0.0012022052,-0.09265152,-0.011146803,-0.05636794,0.0069845207,0.019187385,-0.04362845,-0.0187973,-0.019367617,-0.017788254,-0.020435248,-0.03168515,-0.014661993,-0.048920818,0.0024693483,-0.07808414,-0.028249107,-0.067123696,-0.051252414,-0.038546544,-0.032724485,-0.021151802,-0.013024095,-0.062128123,-0.016736949,-0.039851032,-0.027241696,-0.011798906,0.02149432,-0.064933375,-0.03772691,0.030122166,0.04649961,0.036252618,0.08579216,-0.03368006,-0.025747381,0.005787287,0.013572842,0.048656948,0.0047871936,0.003713212,0.00872956,-0.015828375,0.032906644,-0.044507463,0.10471694,-0.037606683,0.06582516,-0.01683782,0.018829124,-0.01533957,0.038211923,-0.00016851643,-1.1519642e-05,-0.00013203846,-6.226405e-06,0.039981775,0.021946924,-0.002608369,0.06882518,-0.07157922,0.02392222,-0.04346785,-0.041239448,0.041591655,-0.01735501,-0.013750346,-0.059432313,-0.06482981,-0.078261636,-0.038850684,-0.04773617,-0.0391684,-0.042935938,-0.028857883,0.02516623,-0.03660311,-0.036854405,0.009562663,-0.019982819,-0.06018848,-0.07629295,-0.018613443,-0.02618908,-0.00629539,0.007712848,0.0031198903,0.02213916,-1.1245468e-33,1.9823692e-32,1.0503002e-32,-1.0188672e-32,0.022626864,0.051495332,0.07077548,-0.063017115,-0.006530851,0.06249984,0.029891355,0.07566804,-0.009271599,-0.03439858,-0.0041462686,0.006564456,-0.001349709,0.00067224354,-0.0024758636,0.0006909351,-0.032856666,0.05292318,-0.06176976,-0.01416402,-0.01821181,-0.07327013,0.023186173,0.016756848,-0.10126023,-0.06073125,-0.081036076,-0.04586879,0.10772865,0.05325388,0.045000497,0.029193815,-0.007871712,-0.04332269,-0.014010841,0.0018702375,0.0071894024,-0.0795481,0.03538095,-0.028067766,-0.031370603,-0.04436889,0.004643487,-0.017377393,-0.088581055,0.0087325545,-0.102693506,-0.060434844
0.031667206,0.035912503,0.04447301,0.03196271,-2.7761692e-11,-4.0102856e-07,-5.651417e-06,-6.0818684e-07,-0.02772269,-0.08144016,-0.0436138,-0.04192748,0.027061276,0.028557554,0.02571535,-0.008236294,0.0592695,0.03922699,0.078184694,-0.086978815,-0.018236298,0.045195237,-0.046692498,-0.06857607,0.030324489,0.084969364,0.10149925,0.062331695,0.09188431,-0.055416424,-0.0026427016,0.028221304,0.09558373,-0.047941785,-0.0008064683,-0.074293464,0.00991894,0.0126658855,0.055886142,0.00021268745,-0.0015426382,0.01615875,-0.049253788,0.036024224,0.055740755,-0.03866014,-0.053526893,-0.05652356,0.05175039,-0.042899244,0.005422194,0.05296196,-0.050519925,0.003232091,0.011206487,0.029765328,0.0030847285,-0.0003513579,-0.042615697,0.023093406,0.041948773,0.07772486,-0.035244405,0.056923397,-0.01776288,-0.037507255,0.038806006,-0.04192511,0.103546694,0.056288704,-0.059279952,0.0460582,-0.00020928484,-0.00016756782,-0.00016989546,-0.00012561743,-0.0021357217,-0.024959095,-0.008390376,-0.04367608,0.03560096,0.037814192,-0.062026575,-0.090483084,-0.07318994,-0.0067010205,-0.00077546603,0.020618303,-0.031011632,-0.025038755,0.04687617,-0.05812096,0.00051870215,0.00082637504,0.013705893,-0.0053807767,-0.016852807,-0.10140041,0.049783327,-0.027827654,0.0240768,0.008547057,0.0430973,0.026734173,-0.004294588,0.00034086267,0.034898903,0.038296543,6.332763e-33,-3.3849616e-33,-1.0777257e-32,-1.3126967e-32,0.00837781,-0.008815707,-0.025859077,-0.006506904,-0.031268694,-0.005632343,-0.014022455,-0.031362932,-0.015088317,-0.0053646266,-0.009939905,0.028444016,-0.006487579,0.004678244,-0.0008314717,0.00014593171,-0.046109144,-0.032696012,-0.033135664,-0.07236254,-0.0069139535,0.043133657,-0.044644292,-0.00050887564,-0.00072945125,-0.0194904,0.07064954,-0.009117112,-0.066435985,-0.04384054,-0.026102938,0.022339988,0.004608324,-0.090940975,0.058796078,-0.052681446,0.020604905,0.049479704,-0.022714306,0.017598355,-0.039365105,-0.0002458074,-0.0011040883,0.015643988,-0.098989695,-0.058824718,-0.026698356,0.080962904
0.05188822,0.044901397,-0.011092329,0.006030582,-1.618493e-32,-9.329433e-33,9.299846e-33,7.331716e-33,0.004343161,-0.010922781,-0.00048608496,-0.001237077,0.0011955276,-0.00408902,0.0015613482,0.02310383,0.009308554,0.0015126847,0.0075518866,-0.001180094,-0.025262572,-0.016725361,-0.014791701,-0.018717045,-0.016573878,0.0072128875,-0.0072500356,0.014659763,-0.040272128,0.002452673,-0.031401288,-0.018269798,0.00766962,-0.0038788475,-0.001086707,0.0044700745,0.0006615416,-0.0072923247,0.013046141,0.0065466845,0.0021097565,0.04062442,-0.02105485,0.044023924,-0.032646865,-0.01185779,-0.027862644,-0.038938046,-0.006976018,0.0019147756,0.015200005,0.03002691,0.01177219,0.0021990922,-0.0044883564,-0.005821678,-0.011012938,-0.019127661,0.000952668,-0.020384893,-0.012865326,0.000678359,-0.013806748,-0.019547192,0.029772276,0.034303594,0.017588103,0.02673092,0.023272207,0.04584627,0.0054312497,0.016902743,2.4721745e-32,-4.952052e-33,1.5923255e-32,-5.0677365e-33,-0.01685397,-0.0039612595,0.0043089297,-0.03257898,-0.022286197,-0.004961944,-0.027473535,-0.01677187,-0.0138025815,-0.012148594,-0.012785123,0.00030116815,-0.0061884956,0.0020899985,-0.006422056,0.007999104,0.015021872,-0.015961813,0.053042423,0.012046816,0.031226935,-0.0014088707,0.0071501704,-0.0030669058,-0.0056950566,0.02100547,0.009322774,0.036634743,-0.0023493802,0.004199805,-0.010859633,-0.015595271,1.2739787e-32,-2.1505089e-32,1.9735605e-32,-1.65462e-32,0.008333542,0.019287564,-0.0012038458,-0.015989551,0.028866194,0.013329725,0.01559198,0.008823802,-0.0026494123,0.0067536756,0.0032173782,0.014062695,8.580661e-05,3.8694834e-05,-3.8982376e-05,2.7870741e-05,-0.021663109,-0.036940247,0.0087159695,-0.025391258,0.0068390854,0.0065410747,0.00855213,-0.017365824,0.002682489,0.010658739,-0.003504027,0.020262403,0.013992902,-0.0043453593,-0.001613639,0.0066482755,0.0027045954,-0.017747624,-0.0040794685,-0.014894777,0.0067189587,-0.007938669,-0.014057549,0.0018112134,0.0021330782,-0.00066961016,-0.00079362263,-0.02303511,-0.043792494,-0.02369086,-0.019548057,-0.02804791
-0.024250781,-0.006850112,-0.034460194,0.042182915,-1.1991128e-06,-1.4501498e-05,-8.362988e-06,-4.1269504e-05,-0.032612026,-0.012591686,-0.057450183,-0.0064586774,0.0012909274,0.04227664,-0.028992414,0.006589925,0.009365032,0.07636271,-0.032431874,0.064720675,-0.019090898,-0.08313247,-0.08337724,-0.08445067,0.0036455549,0.023579905,-0.006152882,0.12794466,0.09256578,0.111060865,-0.033136964,-0.084873356,-0.032539506,-0.032453693,-0.09533901,0.06922615,0.014264396,-0.035738014,-0.037360247,-0.002308104,0.010563794,-0.017950812,-0.09527201,-0.030487616,-0.005171828,-0.00580509,-0.06972992,-0.039664563,0.081968196,0.1046776,0.024218025,-0.032730483,-0.03565781,-0.0020237134,-0.01758441,0.03729497,-0.08761236,-0.07669065,-0.005807784,-0.1092714,-0.039968744,0.023496203,-0.10651428,0.0120032625,-0.041476622,0.092289485,-0.009295342,0.11684537,0.03927575,0.08800176,0.00841737,0.08949228,-0.0005529131,-0.00036751738,-0.00046660934,-0.00025276022,0.03765752,-0.074816614,-0.05215077,-0.07329792,0.021237636,0.035282042,-0.03240819,-0.008922974,0.1644188,0.13094133,0.09887782,0.09366656,0.05588842,0.041054994,0.05477793,0.032939605,-0.052662905,-0.028256856,-0.028203933,0.06434607,-0.027534053,-0.07467052,0.12216971,-0.0098308,0.069353715,0.0698039,0.009355917,0.015513802,-0.008751493,0.016256496,-0.035540357,0.011628878,-4.032117e-15,-6.288867e-14,-4.277265e-15,-2.6921103e-13,0.04347183,0.08151054,0.10692095,-0.022579927,-0.0030438835,0.035665903,0.0315457,0.048057336,0.00902376,-0.028595535,-0.01058626,-0.0107543925,-0.0020282473,-0.0036557817,-0.001232407,-0.00043974645,-0.061169643,-0.10307857,-0.025670856,-0.044587687,0.12609407,0.02727145,0.030534996,0.035422113,-0.013643241,0.061169095,-0.00061596115,0.06930823,-0.09176541,-0.034173,0.06725101,0.15116291,-0.042852107,-0.049057446,-0.06940344,0.010549044,0.10948603,-0.045562945,0.12099701,-0.049995445,0.042328745,-0.073525555,-0.024122473,-0.026428953,-0.006063545,0.036409,0.025985735,0.03220286
-0.04255645,0.026379753,0.02570862,-0.08892153,-1.0086189e-11,-1.1730148e-09,-1.5890063e-07,-1.082239e-06,0.053169154,-0.014553573,0.055550348,0.026415505,0.059584145,-0.018240925,0.087457106,0.05339251,-0.05619197,-0.06910692,0.03565723,0.023255307,-0.042952504,-0.032136064,-0.041770067,-0.013373704,-0.11573918,0.08001173,-0.072138034,-0.04235247,-0.081467345,0.042726222,-0.033262324,0.0625516,-0.08251166,0.0890099,0.0026872798,0.03827146,-0.03274618,0.071434736,-0.027265392,-0.037182603,-0.02197246,0.03078711,-0.00052517396,0.03647954,0.022874068,0.0004917629,0.091220036,0.0780336,-0.06522097,-0.07277464,0.0151943,0.038087793,0.028973872,0.14949395,0.0537343,0.046606664,-0.09978865,0.035534874,-0.048269056,0.05597067,-0.01580313,-0.022406489,-0.0047511263,-0.05725729,0.059183907,0.004336563,-0.014123204,-0.038456466,-0.048869632,-0.032630306,-0.01806348,-0.055432715,-4.310855e-05,-0.00012489509,-1.2160518e-06,-4.9608687e-05,0.039751288,0.0075902566,0.037099767,0.06165137,-0.023388676,-0.037748497,-0.03608385,-0.13367291,0.0708677,0.026260747,-0.04298694,-0.034369476,-0.003227107,-0.018685803,-0.117018715,-0.1080021,0.017828887,-0.003767748,0.014854463,0.020712566,0.06488185,-0.04625117,0.077373184,0.0077941497,-0.046857808,0.01799033,-0.07718893,0.04007036,0.009718086,-0.009176936,0.023763336,0.013444863,-1.3716668e-33,-1.3266183e-32,-6.105161e-33,3.073072e-33,0.025332646,-0.043060023,-0.1130955,-0.016622484,0.035497252,0.024017647,0.022111053,-0.007269827,-0.0154073285,-0.04184255,0.03617425,0.0218343,0.0009743303,0.00046928955,0.0021579226,-0.00026055763,0.09093363,0.076340154,-0.043298915,0.065297246,-0.096833475,-0.041203886,-0.051078986,0.012869618,0.04377474,0.006157678,0.028249059,-0.05893474,0.02820333,0.060143057,-0.015514551,-0.013933153,-0.01820844,-0.09379938,0.14205527,0.067280695,-0.006240103,-0.036793426,0.046353064,-0.00845272,0.05251631,-0.063183755,-0.027982082,0.013367134,-0.047953572,-0.0059125335,-0.029773101,0.03888798
-0.08017043,-0.02475595,-0.007406993,-0.06253937,-9.081264e-06,-3.811148e-07,1.3781611e-06,-1.07584665e-05,-0.015534089,0.05661008,0.0547855,0.019224739,0.12612692,-0.08870915,0.041575816,-0.037143584,-0.0572872,-0.08805046,-0.10937949,-0.07958201,-0.020802304,0.074849494,0.01030533,0.02410824,-0.050708074,-0.12276623,0.006364045,-0.07325805,-0.029077828,0.015434059,-0.0064045307,0.03203841,0.0020831139,-0.16684721,0.021145206,-0.006043561,-0.066213906,-0.06141261,0.034710467,-0.015463016,0.065979324,0.08770296,-0.029772282,0.055262797,0.10220267,0.1147866,0.03327097,0.09403172,-0.019015301,0.04462437,0.0070212926,0.17969048,0.15740778,0.08475502,0.09989264,0.04246871,0.012319601,0.18799265,0.051149335,0.093681924,0.027413653,0.07685227,0.069643274,0.013929847,0.05323152,0.065838926,0.07187663,0.11838022,-0.10255376,-0.029218007,-0.035792824,-0.019048307,-1.3193138e-05,-8.573646e-05,-0.0001289774,-0.00014612766,-0.013349348,0.16451778,0.008261807,0.12999842,-0.02011197,0.112378344,0.03029842,0.032475315,0.028183738,-0.13318416,0.021390041,-0.15322968,-0.0032678898,-0.11444159,-0.023792626,-0.07423274,-0.0025634342,-0.08432353,0.084870934,0.10725954,0.018902624,-0.02028358,-0.04318293,-0.012846616,-0.041727822,-0.15136807,0.0042720754,-0.039227743,-0.027447533,0.009315332,-0.0149095515,-0.03910476,-2.634799e-33,-1.3807667e-32,-6.488045e-33,-1.2351527e-32,-0.05029142,0.104942605,-0.12438875,0.09078787,-0.046473697,0.07942215,0.082539864,0.18108425,0.02685783,0.0037288081,0.007770175,0.02194196,0.001869489,0.0021399243,6.8196874e-05,0.0009797196,0.113911554,0.14533924,0.06751081,0.089887425,-0.13975434,-0.08346229,-0.04317543,-0.061775256,-0.05075084,-0.18444343,0.034679197,-0.08850493,0.026055345,-0.018548194,0.05961386,-0.07566105,0.033950355,-5.3219614e-05,0.027613062,-0.005126388,-0.0013618515,-0.017765658,-0.036039814,-0.011694904,-0.05708452,0.049856946,0.085326396,0.12272829,-0.00041602735,0.0207119,0.020210123,0.071361795
-0.06486613,-0.005372898,0.00917986,0.09808342,-2.9652469e-08,-5.49659e-06,-2.8017325e-17,1.04408135e-10,-0.037284292,0.044304673,-0.07639687,0.04120396,-0.054802634,0.09810519,-0.055865593,0.025873281,-0.060773022,0.01601432,-0.10152549,0.08870175,0.03326244,-0.030115016,0.120927304,0.0926907,0.06403226,0.024506517,0.14136444,0.023298092,0.06328861,0.05676529,0.097097084,0.09872332,0.017628405,-0.008659039,-0.012174839,0.034751937,0.06213893,0.09742187,0.12142706,0.060378343,-0.025774736,-0.027853156,0.015707811,-0.013173908,0.0011584432,-0.036621,-0.013908334,0.0521902,-0.047254212,0.004079995,-0.014401349,0.029907962,-0.028304843,-0.013706711,0.02087504,-0.04140494,-0.036363386,-0.044256397,0.09236058,-0.055517685,0.06431152,-0.011883386,-0.046703506,0.097938426,-0.064084284,0.075415,-0.0011516518,0.037882842,0.06236552,0.06418743,-0.048713725,0.091301635,-0.0003004486,-0.00025631645,-0.00013380128,-0.0001938937,0.07558971,-0.043254666,0.031646993,0.024277046,0.07897723,0.059055958,0.053976905,0.09689569,0.0035311242,0.045327693,-0.030885136,-0.0715036,0.12484007,0.03976326,0.10906956,0.069058314,0.05580286,-0.024521403,-0.02587091,0.01231631,-0.11648321,-0.057264566,-0.05683495,-0.0067957323,0.029047959,0.030698044,0.0067273164,0.010332696,-0.0023457368,0.041261237,0.0154493125,0.025559993,-1.9067401e-32,-1.2760147e-32,-1.1897232e-32,-2.0005196e-32,0.06603629,0.05900764,0.111581564,-0.07947142,0.028982172,0.04988846,0.020712642,0.041654464,0.011602567,0.0016719745,-0.00037260202,-0.009401833,-0.0039642346,-0.0026972527,-0.0019076425,-0.0013516296,-0.0068970965,0.018316941,-0.01574018,0.01484212,0.10494844,0.009878748,0.029382873,0.07403661,0.0089973435,-0.037507873,0.010969667,0.11080701,-0.0341381,-0.088880174,0.07346143,-0.0063100024,-0.0058013843,-0.12768002,-0.1521801,0.00027057368,0.019921327,-0.014524627,0.035272803,-0.025908206,0.035698116,-0.022614649,-0.027317086,0.044226855,-0.0042752563,0.07644909,0.046565793,0.072503105
-0.116972096,-0.14305691,-0.049098957,-0.053105243,1.3848361e-06,1.294788e-16,5.3620247e-06,3.0636545e-11,0.05840992,0.11185048,0.026647683,-0.015863815,0.08050061,0.08799637,0.05786132,0.055112794,-0.001490119,-0.041671798,0.029131722,-0.02226359,-0.09675395,-0.04012764,0.04765022,-0.08640208,-0.032803766,-0.14365476,-0.08912208,-0.06674686,-0.08519179,-0.08126787,0.0025925976,0.04137417,-0.095197484,-0.06611969,-0.10250378,-0.0060920333,-0.08989876,-0.020499537,-0.08250639,0.008035609,-0.02204022,-0.03620474,-0.021431064,-0.021883434,-0.029884761,-0.027415287,0.10709223,0.04238468,-0.03756026,0.0007399541,-0.033756923,0.006922691,0.05325543,0.031647854,0.042726938,0.014476685,0.031118244,-0.028560497,-0.0068447413,0.032537736,-0.015458913,-0.03237832,-0.019595874,-0.029186193,-0.05670476,0.03961361,-0.08957644,0.038515836,-0.07705975,0.006374276,0.0022904356,0.010120516,-8.85591e-06,-0.00016400151,-7.8178655e-06,-4.679861e-05,0.07105461,0.05032785,0.059310444,0.11720433,-0.061898764,-0.02291007,-0.09302598,0.044722863,0.03331553,0.10388019,-0.046443786,-0.09375081,0.022831872,-0.026273178,-0.1208044,-0.03649098,0.04116231,-0.017340384,-0.013198754,0.038252454,0.06779151,0.08024839,0.080390394,-0.0019500626,-0.060650546,-0.06491561,-0.07091541,-0.08120843,-0.0022605013,0.014592284,0.014894119,-0.026464185,-1.6975614e-32,-1.2887547e-32,-1.21551736e-32,-2.1552593e-32,0.017198907,-0.0030450847,-0.018816816,0.065008245,0.024884192,0.0705613,-0.05553662,0.09711575,0.020074107,-0.008635829,0.00066160166,-0.03729609,0.0029835156,0.0028381313,0.001704726,-0.0023273285,0.10036452,0.13039711,-0.04679247,0.06060084,-0.05724262,-0.060641274,-0.09892966,-0.010975867,-0.08167802,-0.012016885,-0.13810606,-0.15022132,0.10469115,0.085474044,0.07460813,0.09033985,0.002212125,0.07469612,0.18363896,0.10799325,0.014297861,0.06511766,-0.005322714,0.10781792,-0.035124537,0.07991248,0.05334162,0.0006935234,-0.08263203,0.029752202,-0.029040432,-0.039509617
0.025156138,0.05474981,-0.017269311,-0.009970728,0.0001011774,-0.0003154255,-0.00011836968,-1.2306136e-06,0.03469172,-0.033440866,-0.064290084,0.026787072,-0.062235996,0.07822436,-0.02221305,0.023691457,-0.077595845,0.036236353,0.089283675,0.014534888,-0.05227757,-0.04507058,-0.020615421,-0.00781784,0.066889316,-0.056425963,0.0962147,0.03526043,-0.016189273,0.091335654,-0.035331417,0.0734849,0.018813713,-0.018284727,-0.010494856,0.0017434566,0.023133416,-0.01251164,-0.052453358,0.028380537,-0.014031599,-0.086898506,0.031147297,-0.06466746,0.053135738,-0.033382643,-0.04479145,0.007885692,0.07835928,-0.040844176,-0.027300542,-0.060702614,-0.02443852,-0.059127748,-0.029136417,-0.049998138,0.07337397,-0.022222072,-0.054638244,-0.031638328,0.0018746197,-0.03324711,-0.0105458535,-0.084903196,0.06684392,0.054551553,-0.09016336,-0.062137358,-0.02678827,0.032137368,-0.06534736,0.015793918,-0.00047348815,-0.0004321069,-0.00032506773,-0.00033329218,0.03423695,-0.011370078,-0.019406276,-0.022271696,0.07336718,0.036883593,-0.038885582,0.05478237,-0.008024081,0.08705034,0.064036064,-0.09852828,-0.035437126,-0.022568429,0.043747284,-0.008968448,0.040913843,-0.022491599,-0.0111569185,0.013237833,0.014919894,-0.06367714,0.024903268,0.103274815,0.05629773,0.02214777,0.0007097768,0.06320301,0.069922745,0.033862475,0.05503832,0.08489014,4.766834e-19,-6.500104e-21,2.4716273e-18,1.668568e-20,-0.008050711,0.04725033,0.042471696,0.015553284,-0.011845828,0.04404444,0.01930704,-0.017214563,0.02817167,-0.0068435646,-0.006443137,0.012871953,0.0076215346,0.0013275421,-0.0038371996,-0.0014724376,-0.07866562,-0.08241553,0.044536285,-0.01791582,-0.0384018,-0.07214233,-0.05762306,0.03814619,0.03458912,0.061770603,0.07847818,0.034830123,-0.034071635,-0.002327266,-0.026075969,0.0019112099,-0.038712073,-0.037066586,0.05105779,-0.09465254,0.0477975,-0.014833279,0.0823278,-0.03869384,0.09707021,0.09948605,0.0017571066,-0.10587769,-0.084691264,0.0045779706,-0.03844866,0.06014863
-0.03214124,-0.015842546,-0.036973998,-0.054496635,-2.9282313e-05,-1.2015508e-05,-1.3321303e-05,-1.0016343e-11,0.031035304,0.05055428,-0.08567912,-0.025028221,0.03296758,0.073597774,-0.00097398495,0.014866997,-0.001476311,-0.06783592,-0.10011863,0.061246023,-0.022689218,-0.021609595,0.01946292,0.038821068,0.080735505,-0.038485475,-0.05826049,-0.0042962404,0.037306953,-0.09688862,0.09996261,0.046958227,-0.06446344,0.04619968,0.041952442,-0.032660246,-0.0024829148,0.0168928,0.06152683,0.041925255,0.07610599,-0.0052859946,-0.034943532,-0.037752565,-0.0419272,-0.0072420994,0.009674833,-0.044183437,-0.019526696,-0.019776862,0.035644304,0.10737063,0.004921103,-0.03203101,0.03845758,0.03486898,0.033215627,-0.10500839,-0.044500675,0.04002969,-0.04800909,-0.017320652,0.094738066,-0.011034347,-0.080190845,-0.11459683,0.010420074,-0.024731398,0.019737164,0.0037941218,-0.0069940593,-0.06043376,-0.00038591537,-0.0004144621,-0.00018186685,-0.00027168146,0.04467593,-0.0035133385,0.011349546,-0.0014786912,-0.014553853,-0.040920388,0.063012786,-0.074953735,-7.621087e-05,0.072404735,-0.05201601,-0.06674906,0.046351414,0.08177599,0.030361049,-0.0036679164,0.035098653,-0.019843075,0.013472398,0.014985176,0.08178156,0.075599596,0.0039165793,0.08646866,0.05501075,-0.040321257,0.01772612,0.01697318,0.013312496,0.030889139,-0.006191757,-0.04782227,-1.0620784e-28,-5.324364e-32,-1.4877107e-28,-1.8575564e-31,-0.0061040632,0.04699393,0.0849414,0.060191777,-0.003614245,0.024849052,0.008312179,0.0052151247,0.063403696,0.035104718,-0.023239704,-0.04941366,-0.0017604285,0.004498137,-0.0012180357,-0.0029434806,-0.040275965,0.02480008,-0.06321566,-0.048687227,0.02387059,-0.0043947822,0.06846746,0.0692326,0.103359066,-0.047844928,-0.031532176,-0.064477496,-0.04292396,-0.01728826,0.02679948,-0.0063656573,0.070684925,0.09979864,0.10253427,-0.013454218,-0.046231326,-0.08714395,-0.0020071096,0.11450095,-0.043061133,-0.02385994,0.110236034,-0.028890781,-0.04812572,-0.039982893,0.010336411,0.07573997
0.018025214,-0.042508055,-0.05066552,-0.0074713365,0.0019730502,0.0013154588,-0.0013632061,-0.00024656477,-0.027886331,0.034862824,-0.08757494,0.10834555,-0.01594943,0.13364826,0.08788794,-0.08377195,0.035845444,0.044622097,0.017967165,0.08108676,0.05115043,0.035997104,0.08883816,0.015537311,0.013704404,-0.014863827,0.041785497,-0.05925368,0.04728593,0.11008602,0.01450108,0.022295548,-0.10062062,0.047001448,0.06887262,-0.07986603,-0.03917571,0.048907556,-0.049361862,-0.015372125,-0.0029029113,0.051086623,0.036611002,-0.08379207,-0.028265648,-0.04360187,0.020903682,0.06152756,0.08520264,0.03656199,0.08154138,0.03973429,-0.028746694,-0.053737644,-0.0049771233,0.022559728,0.07623031,-0.051758163,-0.002858624,0.06281816,-0.08904479,0.10735154,-0.04583534,-0.067139804,0.10366673,-0.12726274,-0.09908121,0.050776463,-0.00091943034,-0.04147527,-0.03177841,-0.09736114,-0.00064069586,-0.00062750094,-0.00048505352,-0.0005156818,0.0320445,-0.014518454,0.0024623403,-0.0079166815,0.019922895,0.06574915,-0.054471374,0.100700356,0.013332331,-0.035618268,-0.089844264,0.06586009,0.05796925,-0.00022724201,-0.028470496,0.07809547,0.012568085,-0.033061597,0.025088824,-0.024932869,0.09872603,0.10152174,0.086690634,-0.040221393,0.035093874,0.016032018,0.008866834,-0.031648826,-0.0336467,-0.008122982,-0.040298168,0.09647261,7.586365e-12,-1.6621724e-12,-6.853351e-12,-1.0759384e-12,-0.03976209,0.0272786,0.0161435,0.10671525,0.050099187,0.008720681,0.0053923307,-0.003119098,0.013749251,-0.015240983,-0.023952434,-0.08773887,0.007441447,-0.016695682,-0.0023411203,3.9324812e-05,0.09834743,0.035020415,0.047378168,-0.00064049085,0.04100288,0.03888024,0.052462116,0.08267393,0.1048663,-0.10705546,0.047448322,0.043311954,-0.03678347,-0.0023762768,-0.016161129,-0.0029305795,0.10766031,0.10508129,-0.04158146,0.0619188,-0.024835186,0.12655215,0.038001884,0.0015535587,-0.06311423,0.065995045,0.11126438,0.04391468,-0.01807273,-0.06567679,-0.07955706,0.16528669
0.055329032,0.09397085,-0.055031125,-0.03866892,0.0003959907,0.0006342575,-0.0007393349,1.9402763e-05,-0.007203381,0.114800066,0.0801228,-0.08544677,0.05854305,0.0102039,0.03169678,0.10222916,0.025485193,-0.041651,-0.04034226,-0.045964874,0.032016244,0.07261905,0.050939426,0.0130953025,-0.027236488,0.09326373,-0.09182328,0.044844173,-0.019298054,-0.09330796,0.07116911,0.028191527,-0.061382767,0.07552826,0.07155209,-0.09225484,0.028969437,-0.047755018,0.08106276,-0.08802397,0.06283308,-0.0791985,0.03889658,-0.08520468,-0.008984163,0.0095215,-0.06553289,-0.04467327,-0.03431049,-0.024628468,0.061101686,0.0054127825,-0.03162596,0.025176616,-0.013501312,0.04350451,0.081624724,-0.009161653,0.02346363,-0.06749388,0.074336275,-0.10968472,0.053826477,0.08841845,-0.012972034,-0.09532035,0.00079524703,0.002892983,-0.08514313,0.018863136,0.09258111,-0.0957195,-0.00052144245,-0.00056000985,-0.0004120985,-0.000448149,0.025208302,0.0051761176,-0.010584502,-0.022420453,0.1341379,-0.037231136,0.02816395,-0.011409522,-0.011048775,0.053851135,0.08943025,-0.09477352,-0.049121585,0.024871022,-0.07289327,-0.042359497,0.06726732,-0.016374305,0.010163889,0.019891217,0.107642494,-0.0770317,-0.06763084,0.004155187,0.017519576,-0.013101702,0.060764533,0.011955058,0.04856407,-0.045437146,0.02011294,-0.00722336,-2.52864e-14,2.6039605e-14,-4.679665e-14,-2.4294385e-15,-0.05723612,0.006241349,0.0013626574,0.07144889,-0.005051444,-0.04686265,-0.0024101662,-0.0015396491,0.047096055,-0.05437812,0.036862656,-0.03039929,-0.004574071,0.010265758,0.0022002512,-0.0026587795,0.038443286,0.010293268,-0.0026594666,-0.095451474,0.049865186,0.031927835,0.028702658,0.037462916,0.09844117,-0.09113349,-0.089387245,0.010351727,-0.021379933,0.024553832,-0.03604328,-0.010982437,-0.020129658,-0.013150408,0.03973731,0.053267594,0.023102708,0.020695925,-0.020110441,0.019329164,-0.029723926,0.060198896,0.087154634,-0.094065085,-0.02221462,0.026459008,0.0010100144,0.13513984
0.07210031,0.06310801,0.06008733,-0.022356564,-0.0006203779,-0.00051307026,-0.00031888927,-4.72994e-05,0.032425694,-0.0054150014,-0.037705798,0.0066236155,-0.05019275,0.06528516,-0.01642363,-0.01873006,0.024103088,0.08596602,-0.07789697,0.065283105,0.13034059,-0.05931032,-0.0712516,-0.008145848,-0.0331889,-0.029453909,-0.03186346,0.077650875,0.016015243,0.13631855,-0.032194313,-0.045674473,0.11935554,-0.09350746,-0.0456177,0.07140532,0.057384428,-0.0018878671,0.089666314,0.057007518,0.038793612,-0.051210806,0.032954704,0.013466129,-0.0066300565,-0.035531357,-0.035774793,-0.062485788,-0.047212597,-0.010480835,-0.06166576,0.09178355,-0.0065474315,-0.060694538,0.05249423,-0.010285309,0.07698201,-0.10829526,-0.020497553,0.08322113,0.034480687,0.026775287,0.014731838,-0.035159938,-0.13871877,0.058880895,0.01960095,0.054250687,-0.08323898,-0.048070367,0.0224252,-0.11818357,-0.0006471243,-0.00066964154,-0.00054067135,-0.0005620721,0.050465174,-0.0050373655,-0.003977524,-0.022176925,0.08448492,-0.061009273,0.08059296,-0.014527845,-0.0588918,-0.04786091,0.041571286,0.10745514,-0.020357318,0.06276925,-0.03928718,-0.02961075,0.06286359,-0.03788556,-0.0066065537,0.026584059,0.005347373,0.07773783,-0.002225618,0.056776527,0.011514836,-0.019132469,0.067481026,0.030061603,-0.017418865,0.047192644,-0.03240675,-0.044282623,-8.985992e-15,-2.1964466e-14,-1.6628997e-14,-2.3720897e-15,0.027412452,0.014254537,0.02456259,0.08618754,0.06571372,0.002309255,-0.010547388,-0.0275241,-0.028086409,0.016394297,-0.08566188,0.07148757,-0.007881248,-0.004847205,-0.0017959798,-0.0030728378,-0.033507295,-0.09026089,-0.05457962,-0.04261462,-0.041545574,0.034473173,-0.049330108,-0.09579174,-0.025578393,0.10738983,-0.0132560795,-0.0905426,-0.0032276232,-0.013753407,0.023168992,0.006785527,0.10436027,0.047185227,0.054125074,0.037204344,0.12150613,-0.051090375,0.092185415,0.08711897,0.11300226,-0.029648565,0.057911042,0.015210165,-0.14394914,-0.031218488,-0.07418526,0.13200425
0.010388174,-0.021712048,-0.045303307,-0.014352799,4.503754e-21,-2.7255732e-08,-4.1478027e-10,-3.4675662e-19,0.031101199,0.0045084083,0.0067348666,0.010787836,-0.017422887,0.034392674,0.015510425,0.04962113,0.10519122,0.06611665,0.039252497,0.026007012,0.04717376,0.031686775,-0.008053165,-0.02016339,0.02559317,-0.010986613,-0.029493758,-0.01404862,0.053469617,-0.018283278,-0.06763546,-0.03548416,-0.03693744,0.011682425,-0.054267406,0.06772443,0.0036163987,-0.0160757,-0.006846892,0.012533755,-0.00013512376,0.0069445204,-0.012192734,0.010749223,0.049669623,0.036834322,-0.014830127,-0.031737916,-0.0056650466,0.023204874,0.015419727,0.09466028,-0.007115649,0.0019386419,0.017552966,0.0013233026,0.017510789,0.017714288,0.015291368,0.057801187,0.009810546,0.0061459914,0.019755313,0.02938397,0.045045238,-0.024687825,0.02053276,0.01704342,0.05986155,-0.021990567,-0.010568662,-0.0052280524,-6.110195e-05,-3.3342942e-06,-9.2305606e-07,-7.112044e-06,0.02087104,-0.02597185,0.0063306824,-0.05582271,0.009404284,-0.032108273,0.04829368,-0.030112987,0.07102959,-0.035242334,0.068075374,0.0502961,-0.005856913,-0.08617574,0.008747969,-0.0058217943,-0.04491197,-0.050980352,-0.0141686555,-0.018209638,0.018532466,-0.032685712,0.010337406,0.028790398,0.006078631,0.03254732,-0.028277863,0.040385567,0.028516646,0.009217705,-0.017550386,-0.018057406,-1.4896662e-32,-1.665624e-32,-1.3055487e-32,-1.8114815e-32,0.039039925,0.027088445,0.057455223,0.0062985625,-0.029889286,0.0026892126,-0.012393236,0.028597852,-0.005105646,-0.00032269137,0.03967256,-0.00030476163,-0.0008858443,-0.00042155062,0.00013256942,-0.00022440394,-0.016384445,-0.01723654,0.02922655,-0.029347982,-0.0018358838,0.021295464,-0.051379524,0.016954442,0.0475429,0.046819903,-0.0014674006,-0.047542233,-0.0048791664,-0.068057016,0.039049666,-0.0043296614,0.076386005,0.050147634,0.020047745,0.045942873,0.011269667,-0.0594377,-0.04341681,0.033367116,0.030632889,-0.04079595,-0.0049157892,0.030865375,0.006617092,0.06579193,0.015323109,0.037525896
-0.09130783,-0.078340456,0.03368198,0.022872929,9.477806e-27,-2.348253e-12,-1.027171e-09,-1.568002e-11,0.072001345,0.061225876,-0.04086569,0.02204766,0.0152039565,0.006052656,-0.03637227,-0.018950664,0.015115755,0.038279004,0.024173811,0.01640998,-0.0073823496,-0.0849546,-0.0756781,-0.011235344,-0.056609657,-0.102832034,-0.08329397,0.024868205,0.04309656,-0.031606246,0.026726283,0.061090622,-0.030240182,0.07204371,-0.02088436,-0.048080858,-0.0061984053,0.019373704,-0.13291265,0.050139364,0.035343476,-0.046989348,-0.002495577,-0.034605566,0.02521933,-0.019337932,0.05531858,0.0122304335,-0.006851546,0.0010219967,-0.02432267,-0.049399834,0.025082078,0.030996928,-0.024083544,-0.010923315,0.057102602,-0.033013366,0.004145131,-0.009652618,0.022086967,-0.012503775,-0.012543524,0.033889797,-0.08553619,0.014703951,-0.065330036,-0.059891257,0.013561816,-0.03903198,0.03225015,0.016524041,-0.00022183383,-5.4638873e-05,-6.5797874e-05,-5.8353842e-05,0.091064885,-0.029080296,0.028434088,0.004495507,0.08150443,-0.05120907,0.04913387,-0.10455038,0.079017594,0.080217615,0.082537554,-0.0113538755,-0.013047645,0.012292948,0.01859654,0.027568178,-0.048754454,-0.03947555,-0.11177141,0.02362733,-0.03183239,-0.035349686,0.1140156,0.07908311,-0.031676404,-0.016350558,-0.06447867,-0.019888576,0.011969896,0.0010872883,0.0078021027,0.04402488,-1.6125151e-32,-1.4718341e-32,-1.234036e-32,-1.9061614e-32,0.03225694,0.029604815,0.011364093,0.009674277,0.039809596,0.064012304,-0.038052544,-0.05150298,0.04732281,0.02834185,0.02909028,-0.055610526,4.851513e-05,0.00034894218,-2.7624994e-06,-0.0023195723,0.074603274,0.053190775,0.06145605,0.024185743,-0.025384447,0.0071039447,-0.034561533,0.07333726,0.0024646185,-0.025735997,-0.027317058,0.042700045,0.020693887,0.0008365738,0.03837599,0.099494815,0.023485169,-0.03004885,0.03292009,0.019126873,0.057369314,-0.01677058,0.08494783,0.024316348,-0.070803225,-0.04377241,-0.044147406,-0.03787365,-0.010459563,-0.007598441,0.0055172336,0.025965877
-0.009107884,0.040085692,0.02538336,-0.03979721,1.1540679e-19,-1.2734981e-12,-2.5914915e-07,-4.4923937e-07,0.04909117,-0.03763967,0.06538106,-0.0030244407,0.068825334,0.102795474,0.059707116,0.09312753,0.016717667,-0.037130766,0.051399566,0.02594827,-0.016638393,-0.015126345,-0.10732155,-0.06067254,-0.03835713,-0.047853917,-0.0539618,0.06020659,-0.013895545,-0.07950205,-0.06896607,-0.035439644,-0.025134515,0.08414765,0.009629213,-0.0293499,-0.014098817,-0.058662463,0.003036862,0.042847473,-0.057212483,-0.009611332,-0.003657323,-0.0068213413,0.07787095,0.019533606,0.047347393,0.038294468,-0.019967783,-0.07547377,0.013803478,-0.043604504,0.053548094,0.098954804,0.047672495,0.05553197,-0.012857252,0.04051701,-0.0048337737,-0.0050946185,0.017417518,0.039834745,0.0399692,0.027330142,-0.0063370494,0.03157216,-0.07790887,-0.036842972,0.0070837447,-0.055586305,-0.03845552,-0.017284464,-0.00012985269,-4.6369118e-05,-8.812676e-05,-4.487784e-05,0.05481778,0.013344582,-0.012978891,0.05671408,0.00033458284,-0.100627065,-0.087366045,-0.082620755,0.02921574,0.022204215,-0.0353436,0.06570818,-0.042058617,-0.02080284,-0.01621549,-0.03327098,-0.013164399,-0.07456384,-0.02935906,0.04804457,0.08628334,0.0040041185,0.120011345,0.065491095,-0.07519049,-0.020863658,-0.0062669897,0.040947005,0.0002775718,-0.005891604,0.005093849,0.042136014,-1.306919e-32,-1.608379e-32,-1.0400153e-32,-1.0842331e-32,0.017064078,-0.035839025,-0.031366196,-0.060407206,0.113274656,0.034787893,0.02959589,-0.07660158,0.038817342,0.006840926,-0.018694324,-0.030410154,0.0010239809,0.0015511117,-0.0020119431,-0.0020260673,0.058016784,0.05504367,-0.013548893,0.058766916,-0.09911989,-0.022689352,-0.005352778,-0.0055302414,-0.063442,-0.07990188,-0.024339631,-0.026451027,-0.057631463,0.029339952,0.0018189773,0.034201767,0.024085041,0.025993181,-0.0014563539,0.07535387,0.008763598,0.030227205,0.08334326,0.03414344,-0.08347804,0.05036413,-0.027064806,-0.02250722,0.01780066,0.051741954,-0.0029746008,-0.021899277
0.008846688,-0.0884717,-0.06588754,-0.018918853,-9.812438e-12,8.192189e-08,-4.6192166e-09,-1.078958e-06,0.025693273,0.0045555183,0.02383525,0.075103134,0.003513412,-0.019034475,-0.044831507,-0.021169841,0.105049156,0.10522325,0.028713537,-0.05361075,-0.0038702807,-0.021348046,0.03675286,-0.05573656,0.01958241,-0.05507083,-0.03407815,-0.14555193,0.03900457,0.045373645,0.074345924,0.019880895,0.060708046,-0.012930963,0.04704012,-0.045605015,0.035986464,0.028912744,-0.031985957,0.007085339,-0.045410126,-0.019342314,-0.0029419109,-0.03255864,0.024090169,0.04951365,-0.020997105,-0.0047546625,0.014372709,0.079243354,0.020560285,-0.017371058,-0.039115354,0.021502426,-0.03377426,-0.0031576913,0.04559012,0.084796414,-0.019185236,-0.012783521,-0.029312741,-0.031128699,0.018201722,0.0030108357,-0.017226383,0.059864856,0.014237318,0.027651886,0.022353275,0.009157236,-0.09341726,-0.08328505,-9.279788e-05,-1.167341e-06,-4.1399202e-05,-9.624937e-08,0.020219859,-0.029496526,-0.00578582,-0.032569915,-0.004929123,-0.10349634,0.102294356,0.0599054,0.100214206,0.024339369,0.028494434,-0.03196484,-0.014615827,-0.12868656,0.027814036,-0.05942364,-0.005587656,0.022251246,-0.09752917,-0.0034721184,0.033237062,-0.07224926,-0.08624419,0.05045088,0.015989818,0.029814787,0.025299221,0.0038146577,0.04415727,-0.039248552,0.021213792,0.00546911,5.5545283e-14,-1.2961237e-15,2.017011e-13,-1.6658201e-15,-0.057446804,0.008921811,0.0038873064,0.018913995,-0.0171421,-0.044455525,-0.027259039,0.025533311,-0.03321308,0.05364215,-0.03558827,0.015664982,-0.007066048,-0.0039901887,-0.0017534371,0.0024341678,-0.042650726,-0.011168629,0.15454096,-0.030942041,0.079313345,0.03185657,-0.030400995,-0.06366397,-0.004421083,0.03207295,-0.08339018,-0.031392805,-0.06659773,-0.03798199,0.008725608,-0.026641801,-0.05113833,0.009143346,0.08890217,0.06155126,-0.012045251,0.04208443,0.0050161695,-0.031680815,-0.003664876,0.057361986,-0.0068069026,0.040542435,-0.01942079,0.027261356,0.0065299356,-0.01509072
-0.06486347,-0.02433446,0.0026452562,0.024651784,5.3042276e-10,-1.07774525e-10,-2.0634659e-32,-1.2544868e-20,-0.013400516,0.03217784,-0.015376232,0.008232111,0.004378904,0.020280337,-0.0029230833,0.054140784,-0.043891035,-0.017115401,-0.08808981,0.013129463,0.026909363,0.026376922,0.045313563,0.05380538,0.040846385,-0.0196025,0.07637534,0.015379527,0.08487192,0.02244685,0.053215817,0.04546188,0.00988142,-0.011044189,-0.008085088,0.009087939,0.03515727,0.046419483,0.036583893,0.0035006122,-0.01080347,0.012772665,-0.0073641436,0.041185107,0.05342915,0.00040066408,0.028388781,0.07302627,-0.028811345,-0.01360952,0.016052455,0.0101404,0.009681933,0.060501255,0.037420753,-0.026964897,0.032292217,-0.029456446,0.058724593,0.020447643,0.051599324,0.014043006,0.037742443,0.05337003,-0.063250355,0.069713056,0.02775406,-0.016071739,0.052433673,0.0027507537,-0.016288318,0.01488802,-6.478503e-05,-5.935779e-05,-1.0009762e-05,-1.3667054e-06,0.04674519,0.032549273,0.00846688,0.09203361,0.060147263,0.06909553,0.04298548,0.031273387,-0.010397078,-0.00252042,-0.02602799,-0.08814776,0.050802864,-0.00848309,0.0210192,0.0008713121,0.035964996,-0.02216714,-0.020644028,0.026582662,-0.055226445,0.0007417846,-0.0247954,-0.027875485,-0.01419789,-0.05279709,-0.010517704,-0.02427235,0.023548357,0.033651404,0.022693243,0.011333767,1.211509e-32,-1.3173634e-32,2.0167198e-32,-1.531625e-32,0.07263261,0.051452022,0.08453708,-0.08305004,-0.015348577,0.06706802,-0.0105204545,0.056011774,0.011787384,-0.022018883,-0.0015218083,0.000162571,-0.0020006138,-0.000424896,-0.00068422616,-0.00022110659,0.028350996,0.041755654,-0.035524473,0.052172016,0.033793326,-0.0674008,-0.013117924,0.03050345,-0.032342292,0.029865142,-0.012633356,0.011089215,0.0039399364,-0.044753544,0.047929473,-0.029022215,-0.040493097,-0.05004203,-0.04874591,-0.008634459,0.007754183,-0.032948114,-0.0037777189,-0.0063261352,0.027670026,-3.3748795e-05,0.03465592,0.0011407068,-0.010110727,0.08235413,0.036398683,0.047864836
0.0066973125,0.020984422,0.03364708,0.04625945,-1.0680945e-05,-1.2537811e-06,-1.408756e-05,-1.2255323e-05,0.016854951,0.009687895,-0.002307542,0.009427541,-0.028360562,0.04972687,0.003860701,0.00021010685,0.02595289,0.00832892,0.01984516,0.027435476,0.026166705,0.018729843,0.004505861,0.0041196537,0.021479677,0.0074664904,0.025059082,0.0059606326,0.035304658,0.018278705,-0.026308823,0.014354303,0.029883292,-0.0018646102,0.027625846,0.023063347,0.021013306,0.006560977,0.010109864,0.017626904,0.019964984,-0.00569364,0.011203259,-0.007750041,0.031790607,-0.00046065712,0.0020623696,-0.00973475,0.040491384,0.021912616,-0.012777401,-0.015126429,-0.01954579,-0.008940921,0.024165923,-0.0038063135,0.005125239,0.02692225,0.044293154,0.00091716845,-0.0007102962,0.017798014,-0.0076220087,0.021422463,0.0043847235,-0.02159791,-0.010811089,-0.014884285,-0.0078056366,-2.5514259e-05,-0.018923769,0.01773791,-0.00035015246,-0.00036370615,-0.00027446082,-0.00020493485,0.033906337,-0.013629993,0.0013272113,-0.015315604,0.05480521,0.016903685,0.028830757,0.027644899,0.02057692,0.022988582,0.059651285,0.020242041,0.045276664,0.045511585,0.05258582,0.034834027,0.040271133,-0.0055271178,-0.0034757573,0.058432974,0.0029931038,0.015663201,-0.0017330736,0.021281384,0.027721463,0.025174957,0.019462125,0.044255413,0.0050886236,-0.0013336884,-0.011307975,0.011930198,-3.0981892e-07,-1.8597848e-07,-4.8144165e-07,-1.7133029e-07,-0.0060006967,0.02938551,-0.012565881,0.026749218,0.010387961,0.027483275,0.027942516,-0.0030491655,-0.020997541,0.010121031,0.014995047,-0.006227061,-0.0018945396,-0.0013782295,-0.00058140984,-0.0019417885,0.03502442,0.0042628194,0.035546545,-0.0023916862,0.06925044,-0.005033065,0.013375589,0.042469274,0.015970435,0.007052065,0.008331043,0.006734167,-0.016790774,-0.012637913,-0.010572758,-0.0059685335,0.011222835,-0.018864691,-0.026524678,-0.033660557,0.028718915,-0.0072155837,0.022686578,0.009649,0.0360312,-0.03979058,0.001331274,0.0074981847,-0.022551827,-0.003942049,0.029026965,0.08134206
-0.014224707,0.0058703283,-0.01742021,-0.02749483,-1.2178281e-09,-7.9743025e-08,-1.5670167e-11,-6.5954936e-10,-0.013065451,0.0033352529,-0.004860321,0.053702403,0.010320149,0.01952926,0.0046814536,0.05517005,-0.06747004,-0.1130151,-0.07122541,-0.03582692,-0.032247726,-0.011948515,-0.019068725,-0.062097352,-0.009310895,-0.058521863,-0.059490845,0.040432394,-0.051530052,0.046732057,-0.014763473,-0.04282691,-0.04903991,0.0019010997,-0.03603395,0.026811717,-0.049168188,-0.06530615,-0.012179743,0.028042236,0.040418386,0.043054804,-0.080832124,0.03364701,0.0033777615,-0.03189778,-0.016184853,-0.0008642725,-0.051899202,-0.01757184,0.04196038,0.020994669,0.043670483,0.0735857,0.01347068,0.07832154,-0.029390704,-0.0073014135,-0.019388387,-0.06695073,0.07123995,0.05243908,-0.03781612,-0.016422704,-0.07309761,0.15101695,-0.0040854923,0.20737715,0.016097223,0.053355176,-0.06023654,0.085121155,-9.454546e-05,-7.0896904e-06,-0.00014777467,1.3300863e-06,0.06262967,-0.016283544,-0.058009803,0.06614701,0.02389457,0.07501805,-0.040105227,0.0067421324,0.03151855,-0.04999281,-0.015899554,0.025547558,3.547273e-05,0.035594773,2.1587162e-05,0.06117927,0.019028781,-0.05389434,0.013586055,0.1484293,0.044515315,0.020745596,0.02783305,-0.05066728,-0.042855933,-0.0118345,0.016320003,-0.035465535,-0.0066585024,0.021230636,-0.019101676,0.01718457,-2.6739975e-32,-9.2818165e-33,-3.6309408e-33,-2.1534823e-32,0.06906408,0.16639708,0.14050998,-0.0006132319,0.06587009,0.08453243,0.07925534,0.13674736,0.027635666,-0.04896271,-0.036793362,0.0054126624,0.0017671045,0.00024090054,-0.00047740265,0.0018501679,-0.0053112456,0.017274296,0.00061844557,0.061392147,-0.066981144,-0.10157696,-0.018652268,0.0026316836,-0.0683938,-0.00021117422,-0.012351273,-0.012997426,0.040829398,0.071663834,0.01037457,0.02129788,0.007286798,-0.048415966,0.021261038,-0.04726381,0.01263244,-0.03334232,0.030940466,-0.029836155,0.060192864,0.002983344,0.033137277,-0.015651338,-0.021094663,0.059895486,0.027321763,0.03822522
-0.11202174,-0.023452368,0.059703287,-0.029010184,-1.2517645e-11,1.4369563e-32,-3.6807417e-13,-9.1243054e-23,-0.019281007,0.019592589,-0.032028984,0.022059482,-0.06618414,0.093580015,-0.071266845,0.0031115126,-0.030462133,-0.0075640087,-0.06635676,0.01824287,-0.0375528,0.080231026,0.035253525,0.15853852,0.02135203,-0.015396873,0.10869094,-0.081990115,0.022045135,0.022485156,0.084882155,0.051188942,-0.010580371,-0.031257376,0.015570001,0.018043326,0.013611884,0.09177279,0.01142798,-0.04500342,0.0026031402,0.020607248,0.081504166,0.019401107,0.037080828,0.033312812,0.0232404,0.15126018,-0.033297244,0.056880154,-0.0032121972,-0.0003837725,-0.00043131952,0.03628019,0.0634108,-0.05206273,0.023255954,0.07662125,0.045262963,0.058197528,0.03658841,0.00534603,0.033202134,0.11153306,0.017479261,0.007898143,-0.0047230264,0.00807749,0.04053442,-0.04719844,0.012136759,-0.0013985697,-8.28409e-05,-1.9704541e-05,-1.7129985e-05,-1.3806726e-05,0.047486477,-0.027351985,0.03289143,0.15610877,0.05562632,0.061556317,0.04635793,0.037882227,0.0096684,-0.016479408,-0.02063593,-0.07119854,0.07191839,-0.0790231,0.053123083,0.030132093,0.028150344,-0.021192392,-0.09773559,0.027425433,-0.049329255,-0.02294667,-0.072594956,-0.027195089,-0.0063287686,-0.019968554,-0.018583748,-0.024834042,0.02263449,0.027114782,-0.027311152,0.014743823,-1.4067589e-32,-1.07643434e-32,-1.0296661e-32,-9.018125e-33,0.049939115,0.06818738,0.017144619,0.0071375435,-0.054801762,0.055802353,-0.026280774,-0.033336855,0.020608088,-0.023859257,0.043032154,-0.009775051,-0.0009171474,-0.00082791015,0.00023650726,0.0018383117,0.08184838,0.016170302,0.0019846018,0.13903615,-0.0019741922,-0.02477039,-0.04695166,0.035247818,-0.012444027,-0.012387171,-0.0029289331,-0.025023416,0.041946974,-0.050696254,0.06870632,0.016485456,-0.09380235,-0.018941388,-0.09151513,0.08459894,-0.02637599,-0.013132298,-0.032058537,-0.07823367,0.0029502977,0.028960783,0.013759277,0.06607488,-0.035315372,0.098637015,0.053315587,0.121031955
0.012538529,0.016774192,0.032453395,-0.059560407,2.0111056e-18,-6.908829e-13,1.4434108e-32,-1.0371157e-15,-0.016551152,-0.0026091856,0.014154717,0.073041335,-0.00016869136,0.026250869,0.030300176,0.032434627,-0.044136234,-0.03167899,-0.013569354,-0.06250887,-0.001465035,0.013871524,-0.015965823,0.068370976,-0.016155696,0.04372744,0.032884244,0.013157972,-0.02319473,0.002476232,0.006736856,0.03145338,-0.014091048,0.022247724,0.00074407255,-0.0047814627,-0.0025891094,0.03107949,-0.0071687098,0.0055368487,-0.03971638,0.04066433,0.023832725,0.018692475,-0.027627839,0.011822805,-0.0015967536,0.06587332,-0.008457272,0.03032513,0.016026633,0.04733176,-0.0045186044,0.11450169,-0.015938401,0.046275675,-0.06292186,0.050507225,-0.054295585,0.053698782,-0.007389181,0.04840692,-0.02306579,0.008891779,0.06493933,0.023406439,-0.018489165,0.047801316,0.031397887,0.019685693,0.02274239,0.043327827,-1.6102222e-06,-2.2167523e-09,-1.2768534e-07,-4.949473e-06,-0.019529376,0.002236779,0.027254304,0.10320066,0.026837667,0.058429986,-0.012772246,0.028772345,-0.009476161,-3.7415964e-05,-0.032999273,-0.06205753,0.03280644,0.012684242,-0.010772266,-0.069904655,0.021828836,0.0077484334,0.030994363,0.054549612,-0.008152628,0.005474139,-0.03187886,-0.0707999,-0.027927035,-0.0023219106,-0.018529447,-0.01963074,-0.0062602265,0.0057405056,0.017914347,0.029131442,2.2209432e-32,-2.2507427e-33,-2.6305742e-32,2.7467427e-32,0.0150980335,-0.066564396,-0.039026055,-0.058486957,0.030507559,0.019624265,0.019746952,-0.0030075924,0.02149025,-0.020422505,0.015905436,0.037315413,-2.155293e-05,0.0006068064,-0.00023282359,0.0010480428,0.004493379,0.046538826,-0.04730122,0.07653941,-0.024683414,-0.0062202285,0.05015913,0.009754433,0.027329817,-0.027556283,0.021160277,-0.04967095,0.024515718,0.017807726,0.005644655,0.029108066,-0.0038487678,-0.016509674,0.012055558,0.045829322,-0.043721937,-0.02204851,0.0013375463,-0.01731704,-0.017595604,0.049431823,-0.0139803765,0.031985763,-0.02864534,0.010375067,-0.015054642,0.010555149
-0.08896378,-0.10430085,-0.053711526,0.058440004,8.7568834e-16,-1.9820145e-06,2.0974553e-09,-7.506197e-06,-0.045884836,0.02151763,-0.0050972346,0.091325104,0.049064282,-0.043714635,-0.044624515,-0.032145265,-0.0132224215,0.052173473,-0.036003787,0.11267485,-0.0485646,-0.05893331,-0.050210275,0.033478353,-0.027315844,-0.023278955,-0.0115339225,0.031810798,0.06276244,-0.020791184,-0.068449885,0.032141853,0.038510744,0.0354271,-0.12634243,-0.0705649,0.026393866,0.006231498,-0.08967257,0.058314405,-0.05981421,0.05447279,0.020083193,0.06933986,0.091854945,0.037673023,0.06387566,0.023790061,-0.057161376,0.049734056,-0.013814067,0.009650669,0.025634656,-0.03663336,-0.035324793,-0.03440999,0.060738448,-0.004737632,0.028960766,0.01784522,-0.057233203,-0.020887977,-0.015467527,0.019331979,0.022698179,0.0981546,-0.026936458,0.01941363,-0.03630821,0.02275828,-0.022701109,-0.021119786,-0.0002755378,-4.3431432e-06,-0.0001261913,4.9169305e-08,0.014378194,0.0011108121,0.013037124,0.01283066,-0.11134892,-0.043290608,-0.013856995,0.04871252,0.03792716,0.019458463,0.008178422,-0.009720846,-0.06923689,-0.011024995,-0.046069294,-0.04737084,-0.01686119,0.043868273,-0.09392078,-0.01311769,0.04063602,-0.015750604,-0.0041836845,-0.003302021,-0.028293045,0.046115305,-0.025645778,0.04723672,-0.0030849173,-0.014597533,-0.019756278,-0.00086191745,1.0454456e-32,-1.9418545e-32,1.4758653e-32,5.0630973e-33,0.007944523,-0.039562162,-0.093170635,-0.11711508,-0.05640685,-0.012968313,-0.014420437,-0.021683209,-0.03350818,0.009863606,0.004015474,0.014476186,8.165811e-06,0.0022978394,-0.002580599,0.0014682604,0.021966495,0.060213637,0.11846571,0.020041315,0.020961393,0.013462542,-0.037559535,0.06016986,-0.086200915,-0.0040991893,-0.03368726,0.028350113,0.02286953,0.031965304,0.029442951,0.058021758,0.006162878,-0.032875843,0.05483265,0.011167789,0.038779628,-0.0512243,-0.012355727,-0.025883188,0.002968441,-0.08713734,0.001298755,0.0069455504,0.030504683,-0.08434221,0.004599513,-0.038989846
-0.08998722,-0.104027554,-0.030580766,0.01623247,-2.365355e-05,-5.77589e-05,-9.974079e-07,-0.0001668224,-0.061323974,0.051538933,-0.022578366,0.070124835,-0.010592564,-0.16287749,-0.062280074,-0.115558356,0.056676593,0.11773995,-0.07124722,0.098168075,-0.0009230243,-0.016191201,0.010821282,0.0030115107,0.05628696,-0.012013509,0.05804139,0.0044469424,0.06348736,0.046169605,-0.009799781,0.023249405,-0.00380763,0.0171342,0.055315666,0.03970335,0.021047208,0.049139347,0.02316417,-0.0003830562,-0.021553367,0.09887283,0.026484087,0.084373266,0.102998964,0.070961215,-0.005524291,0.058133848,0.030193998,0.049443558,-0.0017235329,-0.014884778,-0.037022706,0.032465328,-0.017295437,-0.0031033729,0.052235287,0.088830024,0.0991092,-0.044441,0.028234622,0.16702601,-0.007878832,0.12095964,0.09514468,0.056850065,0.038369503,0.044806875,-0.0076407534,0.0197226,0.0038244345,0.03361627,-0.00040542745,-0.00010382442,-0.00024155623,-6.702862e-05,-0.011527343,-0.027525725,-0.05429774,-0.01068399,-0.019923273,0.06668714,-0.020927818,0.0067560137,0.030563446,-0.037900195,0.021880982,-0.04969601,-0.015442574,-0.041757464,1.2755932e-05,-0.069928996,0.008128517,-0.0410067,-0.05372412,-0.0033218556,0.008188011,-0.07994028,-0.044868726,-0.057813525,0.03461755,0.06642508,0.070846505,0.04601141,0.0039638733,-0.01768707,-0.0071852542,-0.018798875,-1.3788536e-16,-6.576698e-17,-4.3901082e-15,-9.523273e-17,-0.026552353,0.024356877,-0.09536684,-0.081781566,-0.035872046,-0.0058406657,0.0009297695,0.009597544,0.002388586,0.042454135,-0.008589265,0.047799937,0.0004456278,0.0028611408,-0.0015112554,0.0022105903,0.027926212,0.019654462,0.05594604,0.04675456,0.12651479,-0.031398583,0.07553762,-0.051439803,-0.01603381,0.023998339,0.03310039,0.07130711,-0.050353274,-0.053884618,0.044411186,0.003950313,0.010329431,-0.07126297,-0.027206386,-0.022080334,-0.019690396,-0.080173,-0.012486237,-0.105512716,-0.007765524,-0.042613253,-0.0031655214,-0.031652708,-0.047929484,-0.06839832,-0.03436512,0.025119169
-0.08740417,0.0019030552,-0.012679972,-0.096980006,1.7888269e-09,-9.448233e-07,-1.9365536e-06,-1.08797536e-07,0.0896439,0.08401936,0.049505137,0.061827593,0.10494138,-0.003342681,0.03422595,-0.035523433,0.016999116,-0.08396,-0.04973826,0.017966807,-0.030293878,0.029348906,-0.003027765,0.07802355,0.015160969,0.010973952,-0.15351738,-0.10908988,-0.05041344,-0.0954202,-0.017859297,0.020962123,-0.11008394,0.076842956,-0.05830136,0.0010661436,-0.12382869,-0.07811471,-0.0008442992,-0.023293745,-0.079928994,0.007206669,0.067932874,0.026286082,0.050466638,-0.014434076,0.044430733,0.077067964,-0.025310747,0.023824027,0.027025824,0.121481724,0.023901166,0.13276367,0.026290342,-0.014838273,-0.025849331,0.1279476,0.04488072,0.120003015,0.015376247,0.08731535,0.038615447,-0.023477932,0.019838225,-0.0019074866,-0.011230442,-0.03751645,-0.029868228,0.020477988,-0.007719408,-0.03841984,-4.913903e-05,-0.0001786001,-4.461724e-06,-0.00011653302,0.05145992,0.01783312,0.030340461,0.03978768,-0.08656161,-0.060805786,0.022473665,-0.05039676,0.07557902,0.04844225,0.034379546,0.031355057,-0.005080158,-0.07214595,-0.11665007,-0.17388125,0.007076102,-0.0012281978,-0.010870354,0.019858532,-0.039740723,0.06436151,0.02450106,0.0012241413,-0.051561397,-0.015949748,-0.07564524,-0.016451772,-0.03993521,-0.027369153,-0.020620521,0.022676144,-6.161601e-28,1.3985738e-32,-9.315043e-29,4.4256322e-32,-0.039280977,-0.10614716,-0.03848551,-0.007475835,-0.013499508,-0.0068424167,-0.008109144,0.0068290625,-0.014697871,-0.034507632,0.011075736,0.01958399,0.00050098257,-0.0005010677,0.0021937143,-0.0014857225,0.03746236,0.078829125,-0.0012628449,0.02727719,-0.09008507,-0.059886374,-0.07507922,0.01736594,-0.10615056,-0.09989826,-0.09514188,-0.013559189,0.059888575,0.06869542,0.0788912,-0.020768369,0.017473442,0.08035823,0.012852182,-0.030716032,-0.045467973,0.0128457025,0.043648098,0.049640782,-0.1303507,0.013589897,-0.09718124,0.058592234,-0.08363341,0.022609923,-0.10736108,0.03309214
-0.049799096,-0.00072778214,0.028630476,-0.048174564,8.3124796e-08,7.54483e-09,1.1844269e-06,-4.032694e-07,0.10272702,0.027691754,0.080566935,-0.020522565,0.078665294,0.029176667,0.04509917,-0.051131293,0.037865583,-0.015001465,-0.040450517,0.08541232,-0.023101827,-0.059406266,0.07226715,-0.04879269,-0.07011457,-0.082615316,-0.09028882,-0.09849576,-0.12884906,-0.08878602,-0.08586526,-0.058769997,0.029688701,-0.005205682,0.054814283,0.012401635,-0.06344533,0.013903097,-0.028063469,0.0036052107,-0.049499806,0.0414489,-0.013023205,0.039384343,-0.0074009905,-0.0073892213,0.030048424,0.04350955,-0.06916087,-0.033282623,-0.032097116,0.012797943,0.06709108,0.06103666,0.039184824,0.0056796353,-0.010438337,0.09155156,0.0461013,0.02218177,-0.03832829,0.040032774,0.006628133,-0.002969988,-0.0067386385,-0.044891138,-0.06175832,0.0049839783,-0.080380745,0.028263502,0.0203646,0.026383983,-9.518433e-05,-8.502015e-05,-7.290446e-05,-8.338974e-05,-0.010844406,-0.025291625,-0.029840779,0.023139779,0.024253933,-0.04198195,-0.004058314,-0.036237635,0.08076284,-0.019169299,-0.014419592,0.049159516,0.0058144364,-0.016046323,-0.066652685,0.050501935,0.022600012,-0.024918659,-0.03285905,0.062096264,0.0070313946,0.06729553,0.04607334,0.0015653169,-0.005939976,0.037822813,-0.0029531708,0.020266939,-0.029288553,-0.024471814,-0.008831244,0.026226362,-2.2691033e-32,-2.5271733e-34,-1.06370396e-32,-1.1456115e-32,-0.021459868,-0.03605551,-0.12874646,0.0115564065,-0.006079585,0.020260917,-0.018688587,-0.036600005,0.030260243,0.041061405,-0.04331377,-0.006555292,0.0025183551,0.0029230828,0.00035436216,-0.001441883,0.04951205,0.04461902,0.079781756,0.05745525,-0.004391596,0.033643983,-0.06817153,-0.00336143,0.05808201,0.039386857,0.079853795,0.086850874,0.032148547,0.05211914,0.020751093,-0.0035698523,0.0052678254,0.01977503,0.13672177,0.04711941,0.08221739,-0.025628446,-0.02553907,-0.016573636,-0.0633563,0.06066605,0.05732481,-0.046753928,-0.050151747,-0.012356118,0.00404163,0.057519343
0.0065749264,0.014976467,0.082112715,0.00536346,-1.693763e-05,2.2061522e-06,7.65398e-06,-7.5803214e-06,-0.068163365,-0.014917531,-0.11498151,-0.0077385046,-0.054569665,-0.04196183,-0.07513524,0.043367248,-0.012034217,-0.08514015,0.046310127,0.087313294,0.058291808,0.070574224,0.05091594,0.0829193,-0.014185686,0.054772392,-0.07574803,-0.006625982,-0.01350523,0.080757685,-0.061696604,-0.013486162,-0.003153754,-0.12019462,-0.0075096204,0.040227342,-0.045999113,-0.07782157,-0.0036303564,-0.11423663,-0.046557292,-0.020256354,0.070836365,-0.036822863,0.04991352,-0.002425829,-0.054930624,0.04084034,-0.04735363,0.07254348,0.024314152,0.03999476,-0.04187378,-0.041764982,0.045284305,-0.050123166,0.08007081,-0.023986094,0.03823368,-0.0918143,0.08765491,0.03680044,-0.050276123,0.09746005,-0.07428051,-0.025475275,0.010487273,-0.0667164,-0.020860078,0.06792583,0.07298013,0.06998126,-0.00041560526,-0.0003492844,-0.00029373285,-0.00034671373,0.035752855,-0.004634155,-0.020478208,0.024670472,0.11570891,0.13274989,-0.05323478,0.029426895,0.06491746,-0.10318521,0.07065088,-0.028184336,0.033842593,-0.07470513,0.11107103,-0.014784419,0.02239403,-0.010152448,-0.042302385,0.065553926,0.010768212,-0.013684654,0.048450645,-0.006955351,-0.015425402,-0.011988222,0.040425166,0.00039004948,0.017842704,-0.012090116,-0.0675,-0.020725254,2.7822735e-22,-1.5564131e-22,-3.0392381e-24,-1.7245338e-24,0.015355323,-0.046223007,0.045516428,-0.026523327,-0.003763137,-0.0041644704,0.00249345,0.0032375809,0.02119649,-0.004332007,0.032537304,0.062157318,-0.0037549455,0.0032486145,-0.00028161044,0.001003357,0.070467725,-0.07402607,-0.09059756,-0.051656153,-0.020678608,0.06309146,-0.028105253,0.08292122,-0.024472058,-0.062494956,-0.07718131,0.02246731,0.00570799,-0.037126377,0.0049842354,0.03075988,-0.091498986,-0.08719252,0.0010110141,0.06328339,-0.004514639,0.0539347,0.019173196,-0.097130485,0.056200545,0.04606038,-0.06406169,-0.07845622,0.0036969457,-0.007686346,0.039671548,0.12935251
-0.06750576,0.0062348917,-0.020666683,0.022947427,-9.314301e-11,-2.5755546e-07,4.435469e-18,-7.7105466e-07,-0.08995885,-0.013570213,-0.04057207,0.015694605,-0.009943817,-0.041829713,0.0073275985,0.057840813,-0.01128318,0.08213033,0.016243493,0.036748115,0.08740725,0.038544394,0.029341297,0.071749866,0.0005308774,0.020538697,0.09775858,-0.016673438,-0.015943915,-0.047223937,0.053289585,0.009302073,-0.016111743,-0.058948573,0.07980102,0.030589081,0.11892232,0.086500265,0.10074339,0.096064426,0.03591041,0.11820054,0.0373638,0.091215655,0.1375079,0.08415473,0.086132996,0.105795376,0.018295858,0.0028103662,-0.0027612979,0.015145604,-0.023055889,0.018638022,0.004965433,-0.053583305,0.016586484,-0.0056903143,0.008366169,-0.033803765,-0.038395155,-0.023582883,0.02970092,-0.053832926,0.07091056,0.03557934,0.0006216283,-0.024841009,-0.0052704443,0.047548417,-0.04688477,0.0064498726,-0.00014756978,-4.172585e-06,-3.9407907e-05,2.6384676e-32,0.035818323,0.057860393,0.042759247,0.09401511,0.061095547,0.06713224,0.031679805,-0.059766147,-0.0666344,0.0045401216,-0.090809815,-0.16282582,0.0509497,0.019396417,0.047448926,0.02369709,0.051302344,0.03031104,-0.038411222,0.087326095,0.05062376,0.02613946,-0.032714654,-0.0022821128,0.04101492,0.041502297,0.025674652,0.07718751,0.001350146,0.013922947,0.004646142,-0.0111716045,8.808285e-33,-9.201098e-33,-1.491812e-33,-1.5264551e-33,0.037445597,0.03784663,-0.04245512,-0.053977694,-0.024317537,0.032150514,0.030706646,0.00011004806,-0.00029917297,0.054509215,0.004500883,0.045348797,-0.0011256156,0.0033997297,-0.0022000703,-2.4672745e-05,0.07542739,0.08311825,0.11245011,0.123404376,0.019021515,-0.005426435,0.0937288,-0.019021606,0.052996147,0.039490286,-0.032560226,0.027105087,-0.060832717,-0.094009034,0.028441364,-0.10726026,-0.11803341,-0.05199455,-0.09218917,-0.022845633,-0.053414382,-0.07038986,-0.06563023,-0.06102627,0.033259142,0.048751432,0.07995133,0.022217214,0.028710289,-0.060791116,0.024586592,0.03143384
0.015300601,0.10982966,0.041033667,0.119968474,-1.7159638e-09,-3.3976207e-08,-5.1514226e-06,-4.3731747e-05,0.013532679,0.01370139,-0.044710442,0.04348173,0.067550935,0.11818586,0.032839417,0.08421953,-0.044630352,-0.12165374,-0.0706386,-0.09050152,-0.060425185,-0.04152992,-0.013014182,0.033317745,-0.014071996,0.08424545,0.06662676,0.062370896,0.0034759825,-0.065816686,0.012212701,0.017426953,-0.011060431,0.13589159,0.036445595,0.055715077,-0.091852345,-0.056146063,-0.036596313,-0.035648156,-0.09621559,-0.054844394,0.08650831,0.03525157,-0.007463271,-0.05701793,0.02013974,-0.029233275,0.03842307,-0.0031844582,-0.072762676,-0.062875375,-0.006313561,0.10899974,0.060113914,0.003860228,-0.0660852,-0.056358762,0.122598976,0.027390985,-0.007682753,-0.033913203,0.020883571,-0.027307924,0.00017627107,0.13253753,-0.0744132,-0.075182065,0.0024487826,0.08277347,-0.060150646,0.03516196,-0.00044671868,-0.0004157663,-0.00036132376,-0.0003911627,0.002119919,-0.012080393,0.044181272,0.013433563,-0.00093149825,0.0065915706,-0.010360918,-0.049606953,0.114049144,0.036883213,-0.04055408,0.043430075,-0.01696255,0.00019816829,0.07518562,0.060208164,0.011248098,0.059608728,-0.012472847,-0.0065200618,-0.015994173,-0.06303815,0.12629901,0.0372366,-0.048986472,-0.025755337,-0.030427456,0.054900732,-0.016104313,-0.017086266,-0.011098433,0.051241398,-2.2457835e-19,-1.9582043e-14,5.9475296e-22,-6.2402973e-18,0.018212786,-0.10714532,-0.06064792,-0.12023886,0.08729247,0.13001601,-0.02914822,-0.063244216,0.014295748,-0.027051337,-0.0066455263,0.038341235,-0.0006893035,-0.0038542475,-0.00059803494,-0.0020495432,-0.06640619,-0.07051447,0.027579216,-0.011649259,-0.027395282,-0.07288298,-0.037682354,-0.038520385,0.02089378,-6.203272e-05,-0.02169947,0.055933848,0.03637391,0.033144325,0.11307456,0.20512766,0.052789994,-0.059829473,-0.034828976,0.0022715037,0.06341307,-0.002284165,0.103710726,0.008873856,0.03376077,0.034455635,-0.0019452794,0.04124053,-0.06257117,-0.018363534,0.0117888395,0.009823224
0.051189672,0.032089915,0.018814575,0.021165738,-0.001202888,-0.00044712916,-0.00048578525,-0.0005153148,0.014455561,0.030909065,0.043201815,-0.004539829,-0.02041675,-0.01688744,-0.08165667,-0.08863338,0.07801492,0.025261879,0.0656512,0.13665375,-0.0018069923,0.07272368,-0.011402195,-0.08273114,0.03959034,0.010703528,0.07454147,0.06641405,0.02587779,0.027268115,-0.01963521,0.012287967,0.084048234,0.07325603,0.08181288,0.055390235,0.00428429,0.017519917,-0.029276066,0.022337124,-0.00018370847,-0.0035780885,0.011381139,0.0012578446,0.031197902,0.00017426857,-0.011598758,-0.0039010474,0.04119009,0.026967287,0.007966278,-0.020757936,-0.026387097,-0.022479082,-0.023550509,-0.008158546,0.05301304,-0.0038927204,0.06481991,0.017527107,-0.046080958,0.053904954,-0.07147064,0.076794386,0.020452611,-0.044105187,0.002559824,0.003286272,0.05415733,0.047396213,0.0012001744,0.068866774,-0.0007389106,-0.0006996983,-0.000615701,-0.0005719184,0.039319504,-0.024326041,-0.01540211,-0.030903032,0.0516762,0.029743744,0.098734826,0.022065869,0.1149446,0.071135074,0.018907048,0.14190756,-0.014094013,0.004610806,0.059575446,0.09502995,0.0376519,-0.012110913,-0.008010044,0.02015569,-0.010589013,-0.06312571,-0.034618247,-0.02891548,0.039321262,0.004045115,0.056674965,0.0762038,-0.019220494,0.028450213,-0.007656903,-0.02281769,-8.570431e-06,-6.103141e-06,-1.1614408e-05,-6.0582865e-06,-0.0041136276,-0.0038421783,-0.01223197,-0.005456269,-0.025526082,0.0007313686,0.0029884728,-0.019456811,-0.029855302,0.004817381,-0.005004106,-0.024778042,-0.0027230778,-0.004756362,-0.0019450882,-0.003430793,0.06481417,-0.022304935,0.0430056,-0.0011324262,0.08804074,0.04589503,0.05818302,0.07360455,0.039528605,0.04455989,0.050014578,0.052306008,0.01765615,0.021813782,-0.03649464,0.05500698,0.0029037977,0.011012289,0.03176033,0.103321806,0.098221876,0.05614754,0.10262159,0.040224884,0.001188335,-0.0010095832,-0.025455251,-0.009590548,-0.05881442,-0.025803758,0.033214927,0.054633595
0.010673719,0.06594308,0.050009858,0.04975028,0.00010238601,-2.8770257e-05,-3.3372144e-05,-6.235588e-05,0.078973375,0.058496553,-0.062182356,-0.026364295,-0.039909516,0.024695057,0.029383188,0.04080915,0.11169336,-0.0015201012,0.047178242,-0.010285763,-0.018197972,0.08895191,0.07346491,-0.06782305,0.113731265,-0.0045840377,0.020818967,0.008409432,-0.048302438,-0.08809733,0.09407661,-0.099355236,-0.044398297,0.07595382,0.09602988,0.113832146,0.029763937,0.0026094788,0.10222977,0.10370877,-0.050056305,0.016891323,0.011678109,-0.011789363,0.034412432,0.00096526707,0.0056931186,0.0066585867,0.033466104,0.043896563,-0.07339861,-0.011682147,-0.022252757,-0.005593511,-0.0010566661,0.046117853,-0.06043219,-0.015638303,0.060904063,0.10514769,0.0072715776,0.08275619,0.08843567,0.07925562,0.016339425,-0.042913854,-0.06375735,-0.028664744,0.09342848,-0.06284831,-0.018628882,0.075882,-0.0005050208,-0.00044338164,-0.0003903867,-0.00028325472,0.027266905,-0.032507237,0.00080100284,-0.030963615,-0.049275506,0.087307096,0.093965225,-0.114494175,0.09498165,0.026643686,0.08079447,0.029175576,0.0014474775,0.10402955,0.044845488,-0.040142808,0.04912776,-0.018132403,-0.01355754,0.026168212,-0.0005008925,-0.116706654,0.07376851,-0.051294293,0.046606675,0.059622705,0.04495209,0.10790876,-0.0014212041,0.010042126,-0.049652766,0.045627214,-6.1069197e-12,-8.1085393e-14,-1.3172573e-12,-1.20405e-13,0.0062475353,0.01817175,-0.01630312,-0.027594412,-0.024301011,-0.026855594,0.0006113555,-0.06462422,0.009315055,0.009495585,-0.012572602,0.05233104,-0.003130397,-6.817901e-05,-0.00073950493,-0.0012396525,0.046656746,-0.080344565,0.13068701,0.045558657,0.08376645,-0.00026090068,0.009180957,0.052072853,0.028850483,-0.00066551927,0.04279712,-0.0031010637,-0.048785515,0.02813736,-0.05402335,0.05310474,-0.0658026,0.093143426,0.060281876,-0.06801147,-0.07444701,-0.0203082,0.10965997,-0.054008443,0.11812,0.017248547,0.1010868,-0.07116708,-0.11966046,0.02284775,0.025828088,0.048599884
0.031320695,0.15403776,0.044725485,0.020323036,1.5141445e-07,-3.0573224e-12,-9.9864934e-08,-2.0888933e-07,0.025338227,-0.014909382,0.012348533,0.023468314,0.034294784,0.15724975,0.02117485,0.09503141,-0.0653782,-0.063740246,-0.0735331,-0.11956273,-0.049208973,0.12959948,0.021388285,0.014302381,-0.035307214,0.017388439,0.034154024,0.09723167,0.14954074,-0.002330455,0.06297964,0.052052327,-0.0143191,0.06721066,0.011666569,0.00797629,-0.023741502,0.016292159,0.045065742,0.048267085,-0.08407334,-0.033703223,0.076793455,0.040070813,0.105923176,-0.018956881,-0.006340893,0.020247554,0.011169506,0.08101784,0.03689616,0.11873198,0.015168948,0.12859467,0.09400994,0.07877705,-0.018436957,-0.0052856854,-0.10229683,0.085035555,0.10304878,-0.008372459,-0.050929345,-0.03325231,-0.037001982,0.17940764,-0.14611816,-0.019669725,-0.013721909,0.06398136,0.038613956,0.052194353,-0.000278693,-0.00010319589,-8.4311665e-05,-0.00017936464,0.04708491,0.03881547,0.043189015,0.08477664,-0.0049753455,0.0712702,0.037968475,-0.011596162,0.003507839,-0.11383548,0.06696648,-0.027889969,0.031145634,0.12041104,0.07591347,0.03233999,-0.00079547806,0.004558738,0.01572362,0.066106774,-0.02833866,-0.08035425,-0.018398907,-0.10040689,-0.12872201,-0.10743149,-0.0874682,-0.046085414,0.017117089,0.020648757,-0.0015325373,0.041143697,1.6689244e-32,-3.8795913e-33,-7.8480984e-33,-1.034516e-32,-0.0120571405,-0.038455673,-0.049909018,-0.10020295,0.1013781,0.20868483,0.057400305,0.07792982,0.051190935,-0.05832478,-0.0007612223,0.043760642,0.00044345265,-0.0072534154,-0.0024726826,-0.00064182235,0.008399636,0.0065318984,-0.025740178,0.072685234,-0.13623561,-0.045098357,-0.03373049,-0.011888758,0.07723064,0.016470484,-0.04016477,-0.076788604,-0.025746657,0.010581219,0.037755057,0.047868326,0.1076399,-0.07989673,0.020157324,0.04855555,0.046283934,0.073418796,0.17024517,0.09359277,0.00052963046,0.10186466,-0.03169159,0.11648119,-0.093781814,-0.011974801,-0.034857806,0.018814808
0.070668645,0.051052745,-0.0004944549,0.02276817,-2.5804127e-07,4.4573613e-07,1.705412e-05,-3.178599e-05,0.055249654,0.022101453,-0.018530078,-0.056219883,-0.014473384,-0.05002655,-0.026253538,-0.032415297,0.08344632,0.053737767,-0.092223845,0.039825916,0.052866884,0.06912974,-0.05439485,0.08794014,0.052568987,-0.03692192,0.09801581,-0.040704824,0.03273936,-0.074700415,-0.08097623,0.053746182,-0.008007887,0.07107239,0.042779736,0.05659275,0.04674983,0.07334848,-0.021253536,0.057018984,0.033031892,0.020596249,0.017275177,0.067873746,0.016871445,0.028803801,0.006322511,-0.005040643,-0.027098676,0.048830558,0.0016508595,-0.014478967,-0.018430281,0.018867813,0.05234877,-0.04714508,0.01813865,0.07693589,-0.059729666,-0.032761537,0.06516764,0.017609194,-0.07966701,0.053328615,0.044100363,0.099271126,-0.03203122,-0.024719236,-0.009099658,0.005505798,-0.06902903,-0.021546474,-0.0003173356,-0.00027681538,-0.00026579635,-0.00011377481,0.0211349,0.014479673,0.018150777,0.013024672,-0.04171732,-0.059462007,-0.06522813,0.031034065,-0.033630524,0.027132673,-0.01282688,0.022564089,-0.031900313,0.07280839,0.032322776,0.05210131,0.02405739,0.03904606,-0.009070766,0.017561788,-0.044782322,0.03314224,0.0557229,0.08507467,-0.012042528,0.031399507,-0.015022723,0.031803038,-0.04173543,0.024086531,-0.05880375,0.028504906,8.194048e-28,-1.05571535e-27,9.6345933e-29,1.4963744e-30,-0.00768953,-0.020693209,-0.08459212,0.034122873,0.03221723,0.041382946,0.034893934,0.011564446,-0.027054695,0.04340481,0.045709137,0.0791062,0.006277905,0.003103605,-0.00152662,-9.22137e-05,0.00905912,0.020851709,0.056714214,0.04739774,0.08938089,0.062062956,-0.08447245,0.06329817,-0.029946623,-0.112193674,-0.025030583,0.08409324,-0.018943978,0.007231878,-0.039856084,-0.046206314,-0.070179805,-0.037647527,0.0154997865,-0.010848492,0.10936356,0.051472872,-0.015726134,-0.03493761,0.0762372,0.054409135,-0.011692043,0.03801522,-0.0020507465,-0.06477429,0.016264994,0.056902412
-1.4765568e-31,-3.0045007e-29,-1.3419041e-30,-1.557088e-23,1.3240663e-32,-1.625386e-32,-1.02607374e-32,-2.4895298e-32,-2.043561e-14,-8.5507754e-20,-7.619764e-15,-2.0216151e-19,-2.3916771e-26,-5.1413174e-27,2.4538655e-27,1.7350801e-27,1.1419083e-32,1.3609043e-32,2.0438222e-32,2.554955e-32,5.068527e-30,4.2612637e-30,-1.2456371e-30,-3.638408e-28,4.7419113e-12,4.495048e-13,1.1344186e-11,1.5552374e-12,-1.2349924e-27,1.2753714e-27,6.3803276e-28,-3.7674906e-29,8.244109e-33,1.1613686e-32,1.2453818e-32,9.7592796e-33,-3.227868e-32,-1.00335586e-29,6.9537154e-31,6.689173e-31,-2.2312337e-32,-5.492383e-33,-2.5541976e-32,-6.874438e-33,1.6109719e-24,-8.686664e-25,-1.7391022e-21,1.316703e-15,1.0610622e-32,1.334221e-32,2.560031e-32,2.714781e-32,4.733221e-12,6.730532e-14,4.257949e-13,9.1263895e-15,1.8988766e-26,-4.9821216e-25,1.3441821e-22,1.0383677e-24,6.8147633e-25,1.1653663e-24,-1.00630726e-23,-1.01670926e-23,7.520783e-14,5.081967e-15,3.4066794e-14,9.451468e-15,1.4319516e-33,-1.1437061e-32,-1.551225e-32,1.03758146e-32,2.4381343e-32,-1.9424581e-32,2.9333095e-32,1.04773024e-32,1.7084282e-11,7.164026e-13,6.97941e-11,7.234687e-12,1.0658334e-32,5.7460816e-33,1.1282568e-32,8.0245144e-33,-1.6160836e-33,-2.3425711e-32,4.4128238e-33,-8.708159e-33,8.580913e-14,9.363536e-16,2.2181187e-14,1.0100964e-14,-2.8566684e-32,-2.7696616e-33,2.4433757e-32,5.843987e-33,2.8769816e-26,4.9241086e-30,6.679141e-22,2.6091232e-29,2.7838072e-17,-4.3746917e-21,-3.4755112e-21,-1.85915e-21,1.946018e-32,2.7033663e-32,-6.368968e-34,1.7365247e-32,2.6175115e-32,-7.177535e-33,2.7584177e-32,2.356837e-32,3.9221852e-29,1.9945496e-25,1.6131352e-24,-3.642759e-21,-3.1365366e-10,-2.3955376e-11,-4.839834e-10,-1.1031052e-10,-2.8500545e-32,2.1243394e-32,-1.755021e-32,6.992935e-34,-2.8916132e-34,-1.1359121e-32,-1.5825387e-33,-7.79558e-33,-6.7036464e-16,-2.0264048e-15,-9.940137e-16,-1.1688998e-14,6.1097795e-22,-1.3691788e-27,-1.1407374e-23,4.105901e-27,-8.801006e-14,-1.5221361e-13,-1.526069e-13,-1.2297636e-13,6.114917e-24,-3.1016168e-23,6.868098e-25,-1.9250296e-21,7.4959234e-22,6.758283e-23,3.1740063e-21,-2.1088057e-24,-1.6299043e-27,8.4626226e-33,1.3902211e-27,4.6025864e-32,-6.646136e-24,-3.9083386e-25,2.1900562e-21,2.3324845e-22,-6.586951e-14,-1.6039492e-13,-2.5059425e-13,-1.3051664e-12
0.045048945,-0.05560231,0.09646594,-0.068680644,-9.015735e-06,-2.8175033e-05,-4.684619e-06,-5.3800533e-05,-0.08693153,0.053244732,-0.09521989,0.08730591,0.003796601,-0.026683068,-0.09087961,-0.03653239,-0.06591514,0.043397088,0.02682333,-0.0039767893,0.07491706,0.015130822,0.083486,0.1049471,-0.02946109,-0.09744282,-0.079762965,-0.11652474,0.0720475,-0.007772908,-0.005081091,-0.015550042,0.119064935,0.05097739,-0.100988984,0.103253946,-0.006798542,0.08462806,0.065823585,-0.023927541,-0.0631054,0.032034744,-0.021050107,-0.005308439,0.005109136,-0.049061738,-0.011542175,0.0041889,-0.033108234,-0.02142316,-0.014536331,-0.08647687,-0.015540011,0.019237913,-0.008420721,0.012354506,0.098290205,0.07553283,-0.06643375,0.024365062,0.057220805,0.08931194,-0.06978603,0.047639843,0.01747792,-0.052745227,-0.033426736,0.03850943,0.0826534,0.020885684,0.006806838,-0.0366072,-0.0005089306,-0.0004101793,-0.0003635799,-0.00032320368,0.0055373027,-0.028236154,-0.02715312,-0.014256183,-0.07705975,-0.05020442,-0.03409578,-0.030290514,-0.041283004,0.010557123,-0.039274026,0.068507,0.038282838,-0.07666098,0.067355305,0.042142622,0.053435065,-0.009982453,-0.02664615,0.0015987732,0.08786682,0.012112116,-0.110526115,0.102804385,0.014098732,0.05973969,0.04306715,0.090092845,-0.007059183,0.009934606,-0.03246084,0.061933752,-4.7544304e-24,-1.171914e-21,-1.0316915e-24,6.1986718e-27,-0.034698308,-0.025736678,-0.047278285,-0.045953006,-0.040402617,-0.009232323,-0.002700447,-0.03458044,-0.044318594,0.056001015,0.036006212,0.060409825,-0.0018380434,-0.0022249976,-0.0006127735,7.099837e-05,0.031488683,-0.038993724,0.114985764,0.08078045,0.028497763,0.018909117,0.030131562,0.041694432,0.04162176,0.11261877,0.039211836,-0.096253596,0.015732625,0.040739648,-0.045798205,0.03557757,-0.014545307,-0.03791687,-0.11556433,-0.072661094,0.022647044,-0.06124443,0.090452954,0.028101547,0.072207406,-0.11189126,0.008021898,0.006174481,-0.030093675,-0.11419408,-0.034363117,0.117553204
-0.07094224,-0.11701289,-0.034233883,0.040874694,2.0712815e-12,-6.8104185e-07,9.013404e-13,-1.2092762e-07,-0.011895329,0.050414093,-0.007765326,0.08450166,-0.007899551,-0.05747133,-0.07125674,-0.046971887,0.04809622,0.067343615,-0.045348167,0.08066254,-0.019920671,-0.063254125,0.0017033145,0.02929242,-0.033527587,-0.048910126,-0.038250316,-0.0030808966,0.073907845,0.017195527,-0.010452897,0.0028028209,-0.015316912,0.010431187,-0.06994706,-0.033263575,-0.042938374,-0.0128240185,-0.08109794,-0.0073119844,-0.080740236,0.03477894,-0.0040319567,0.052040316,0.08796496,0.04646666,0.035531085,0.028274199,0.009639829,0.0839245,-0.02771501,-0.032597583,-0.009606848,-0.022194317,-0.040766027,-0.009679513,0.07880504,0.027344277,0.014423313,0.03639606,0.00024600737,0.018997183,-0.012830433,0.08134135,-0.04202647,0.064719126,-0.032639887,0.009703935,-0.04963685,-0.014286338,-0.041342117,-0.029380754,-0.00021486744,-1.6745913e-05,-9.441408e-05,-6.7294274e-11,-0.009221332,-0.017824361,-0.008449469,0.0073884893,-0.07752062,-0.017462026,-0.031376824,0.01960338,0.017387515,0.0328444,0.0402295,-0.011651026,-0.11716837,-0.061761223,-0.043033242,-0.08580293,-0.034773037,0.012397319,-0.09828437,-0.06961336,0.02348209,0.00089205755,-0.012256527,-0.020125506,-0.032515757,0.008653458,-0.026308535,-0.021265041,0.0018210676,-0.019055374,-0.014463829,0.0017909443,1.7902914e-32,2.4589239e-32,-1.3136717e-32,1.1122974e-32,-0.010812146,-0.07262121,-0.06739577,-0.14099433,-0.07070075,-0.026093047,-0.03616771,-0.014941989,-0.03622314,0.001745828,-0.023810342,0.026131459,-0.0016364433,0.0011634954,-0.0019181548,0.0024039296,0.00028695428,0.045708627,0.056191057,0.044756785,0.025024569,-0.018864118,-0.06591767,-0.020147994,-0.052625455,0.03207939,-0.0024651275,0.040574137,-0.02166873,-0.02153696,0.032791212,0.046284627,0.08956628,0.029883107,0.0579651,0.07189365,0.06652791,-0.02062732,-0.020047335,-0.053948674,-0.024218598,-0.05739513,-0.045648042,-0.05060823,-0.009377373,-0.04437776,0.00035001204,-0.003282301
-0.013180941,-0.005324342,0.019010983,-0.06336003,8.669894e-23,1.3765501e-23,-1.9762178e-06,-3.1385926e-07,0.089640394,0.013384074,0.041463822,-0.121123716,0.10416051,0.04731961,0.010039408,0.048291,0.082508646,-0.094868,0.021374224,-0.06367719,0.0026671838,-0.044946667,-0.08036729,-0.014186012,-0.059451733,-0.062304135,-0.060427535,0.11726619,-0.03498936,-0.075573206,0.0918201,-0.03902303,0.0016673448,0.07563072,-0.029080097,-0.020103324,0.026723582,-0.020866552,0.07745383,0.039207976,-0.05829534,-0.045228306,0.034416754,-0.016621063,0.048862778,-0.035191696,0.12850712,0.03217386,-0.0040947027,-0.09321204,-0.029716112,0.023164745,0.06614011,0.06794806,0.08651709,0.014429521,-0.005166258,0.060312726,-0.016270082,-0.02024609,0.044934116,-0.034822825,0.107689194,-0.06014048,-0.027625758,0.04253233,-0.081406936,-0.09204958,-0.013277884,-0.10247216,-0.036227793,-0.05978158,-0.00017374338,-0.00013064407,-2.3904915e-05,-0.00010964936,0.030582791,0.022613041,0.06026738,0.053949136,-0.029981343,-0.0031393727,-0.08316646,-0.12213295,-0.003949329,0.110709034,-0.09648865,0.11689753,-0.07318362,-0.017118135,-0.022084419,0.010109964,-0.02020735,-0.0469385,0.023055106,0.03249888,0.028348047,-0.04648687,0.097412184,0.0024055217,-0.04628832,-0.028512284,-0.031481307,0.01784209,0.002224876,0.03571331,-0.03415962,0.0071365605,2.813943e-32,-1.8467359e-32,-1.5611145e-33,-1.4326696e-32,-0.015112352,-0.053763986,-0.07713843,0.005083167,0.025773808,0.028819581,-0.01927637,-0.07226589,0.034769222,-0.047028363,0.050267026,-0.012607524,-0.0031442766,0.013398305,-0.0036977755,-0.003620266,0.05050401,0.0002541837,0.0163819,0.022743063,-0.16948503,0.033302665,-0.037511766,0.037648316,0.07638319,-0.03785583,-0.07259742,0.003908327,-0.03359645,0.008874908,-0.06243494,0.049865175,0.034043916,-0.097166285,0.0978864,-0.006414906,-0.043776024,0.017298259,0.0047222995,0.051338553,-0.06700117,-0.0664305,-0.08928744,-0.059775922,0.028348058,0.0041259998,0.014347765,-0.030885993
0.05552205,0.1119771,0.06223815,-0.05292227,-1.6541522e-18,-1.4367573e-20,-8.839785e-12,-8.540734e-12,-0.031365067,-0.03638255,0.031322386,0.0020988875,0.017077232,-0.017093416,0.022393635,0.007017926,-0.084286146,-0.0837986,-0.046297584,-0.044631217,0.10719848,0.07376149,0.03484697,0.08765387,0.011681109,-0.038454447,0.06579544,0.07714477,0.022944618,0.070087016,0.04406643,0.04935231,0.09877589,0.019442331,0.030444108,0.09801867,0.0040179472,-0.03090289,0.008301487,0.094405554,0.05899855,0.059282456,-0.06601066,0.03980664,0.013017317,0.021974115,0.025941208,0.07176414,-0.019499734,0.03799218,0.06666349,0.0988885,0.03702684,0.08832879,0.045681942,0.15687568,-0.121199146,0.022355188,-0.023868235,0.13056128,0.012568068,0.06727838,0.0057054884,0.08720577,-0.019487374,0.0379992,0.041688215,0.12568414,0.04623758,0.041703545,-0.024171334,-0.028556326,-8.756006e-05,-2.6707716e-05,-2.2411361e-05,3.5667224e-08,0.0352082,-0.007949316,-0.027456542,0.061209522,0.066049464,0.12337919,0.06266977,0.04259883,0.06880231,0.013277451,0.053032953,0.016558265,0.14116508,0.080559224,0.02087957,0.0154180415,-0.00014575601,-0.0923612,0.057523213,0.17475803,-0.040821835,-0.0060016885,-0.08706419,-0.07180749,-0.0340738,-0.04267181,-0.025097825,0.026287857,-0.016023472,-0.0002979627,-0.034728,-0.0060733943,-9.340467e-33,-1.848641e-33,1.0923945e-33,-1.3871775e-32,0.025469901,0.12999506,-0.04007428,-0.0066352375,0.05451218,0.087382205,0.06423065,0.069644816,0.017190713,-0.006340891,0.0019064182,0.009559933,0.00057711545,0.00033745897,0.00048660245,-0.00033373162,0.06911672,0.045093235,0.016300516,0.09879429,-0.06391979,-0.05925123,-0.02501525,0.037036728,-0.004964509,-0.0020647026,0.06975062,-0.033920858,-0.020009067,-0.019359197,-0.02644897,-0.06749776,0.0018548338,0.005494135,0.015408982,-0.0354225,0.027288536,-0.00081773166,0.07344956,0.03431199,0.034104552,0.022204138,0.03218175,0.10285803,0.04068761,0.09487525,0.09493246,0.15207128
