0.1577831,-0.13377005,0.21751222,-0.01939652,0.106413014,-0.19151664,0.106389195,-0.1730728,0.121137165,-0.06289516,0.12399045,-0.14829123,-0.014247446,-0.0094533255,-0.083791256,0.1554535,-0.000944845,-0.00064393476,-0.00078034046,-0.0006682728,0.053944465,0.015110009,-0.02312832,-0.093953595,-0.084686555,0.15849705,-0.03678687,0.11586994,-0.10862725,0.1212783,0.17676541,-0.17385647,0.026356712,0.08702662,-0.0004894282,-0.18809512,-0.0024650057,0.054694306,-0.1189213,0.12330859,-0.001918517,-0.051621556,0.06666844,-0.0027878676,-0.0048379684,-0.09816423,0.11759758,-0.06897418,-0.018021613,-0.01808137,0.010710779,0.005302177,0.012072229,-0.2132543,0.09383806,0.036179017,0.15067555,-0.0992613,-0.05314261,0.09868153,0.024794433,-0.04428463,0.005528401,-0.02864641,-0.012205572,0.14179574,-0.0025531265,-0.09595417,0.13632894,0.021235295,0.099914126,0.0012711271,0.0016096095,0.0020700528,0.00035285292,0.0008333337,-0.0959207,0.16551141,-0.21809137,0.17534795,0.12704656,-0.070233814,-0.092024185,0.059169892,0.18454312,-0.16998924,0.088637784,-0.056484405,0.01882876,-0.09534222,0.2060096,0.03906793,0.057906665,0.0500679,0.13740182,0.16423422,0.1345482,-0.11599187,-0.13028924,0.12084335,0.21218093,-0.094340384,0.20486471,-0.03339974,-0.09588232,0.08398974,0.014036969,-0.09521615,-0.004063172,-0.0026835694,-0.11333748,0.18248837,0.0040970123,0.113793366,0.096879125,0.07442061,0.015860863,0.01438185,0.01519299,0.015863273,-0.017730847,0.24801163,-0.031986725,-0.1447306,-0.051032253,0.14597675,0.12484187,-0.2072998,-0.006714837,0.071059026,0.047843575,-0.11147308,0.2099649,-0.106278256,-0.03349138,-0.0162872,0.014588857,-0.013542168,0.12886344,0.12627481,0.13678408,0.04810999,0.20134042,0.018087981,-0.07526072,0.13614707,0.19228359,-0.19383968,-0.00044969804,-0.0003055238,-0.00037751693,-0.0002352593,0.21360467,-0.09458295,0.026785446,0.038509883,0.16329165,0.02090309,-0.14947568,-0.005134043
