0.16133603,-0.13066293,0.2222019,-0.01450361,0.10269269,-0.19297604,0.10336678,-0.17874745,0.12796372,-0.0568061,0.13387485,-0.13907626,-0.016898254,-0.011981329,-0.08991992,0.15515079,0.011271491,0.011331623,0.011513286,0.011734083,0.046232194,0.0070940163,-0.027856588,-0.09757917,-0.08054762,0.16257389,-0.031496428,0.12157938,-0.107646555,0.12393694,0.17749882,-0.17670085,0.022608593,0.08172668,-0.004201447,-0.19113442,-0.00015149523,0.056855585,-0.11827941,0.12630802,0.0053967945,-0.047752514,0.07096741,0.00033222235,0.0046491926,-0.0890961,0.1262539,-0.062943056,-0.010232756,-0.011456122,0.014968004,0.00840976,0.011899071,-0.2105772,0.09232802,0.03562471,0.16167432,-0.0894223,-0.042639617,0.1094274,0.019208675,-0.050965656,0.00047691993,-0.030024964,-0.007870881,0.1458488,0.00038156338,-0.095190845,0.13768432,0.024003914,0.10154157,0.004174112,0.012891949,0.0129023995,0.0132569475,0.013425325,-0.08723708,0.17468348,-0.20806797,0.18664333,0.13360995,-0.065168776,-0.088909745,0.06425679,0.18913707,-0.16645233,0.09466753,-0.051085327,0.02216863,-0.093372464,0.20964564,0.043098204,0.07055136,0.06232376,0.14965047,0.17113963,0.1349609,-0.11737905,-0.13311481,0.11966353,0.21605001,-0.0915343,0.20948668,-0.029239474,-0.10281536,0.07590793,0.0024557104,-0.10923244,0.0049374946,0.0065974295,-0.10289108,0.19287443,0.008033117,0.116755135,0.10142337,0.07887193,0.011999759,0.011498465,0.012337861,0.01252924,-0.0090124,0.25531483,-0.024671437,-0.13936318,-0.054329786,0.14346081,0.11969009,-0.2124318,-0.005872881,0.07160367,0.04745378,-0.113541335,0.22014335,-0.09746894,-0.023600452,-0.006128496,0.01621749,-0.012985263,0.13212958,0.13019852,0.13911654,0.050523426,0.20435056,0.021675238,-0.06911444,0.143061,0.19910356,-0.18874566,0.010728714,0.010782498,0.010994602,0.011217096,0.22398467,-0.08643072,0.037988003,0.050016347,0.16929263,0.025224693,-0.14802432,-0.0014630603
