0.048870973,0.040675856,-0.12801172,0.036444496,-0.080548026,-0.051134508,-0.03968215,0.11424151,-0.05284372,0.19781788,0.018039403,0.16845264,0.111678645,0.014009018,-0.21108085,0.13550155,-0.08147838,0.16568448,0.085871816,0.021486918,-0.04512295,0.0041778916,-0.06792173,-0.026985856,0.012988763,-0.1046107,0.1003329,0.048428662,0.16737163,-0.12684353,-0.12339822,0.096968815,-0.0907907,0.031119602,0.06478343,-0.07546912,-0.10008733,-0.13257217,0.18917097,0.04866236,-0.17990382,-0.037476357,0.17690456,0.14882393,0.0040305834,-0.13055423,0.050461665,0.09164232,-0.10314408,0.10953913,-0.05227634,0.057558667,0.06210342,0.03743085,-0.14725274,0.1063676,0.007596544,0.13079223,0.20273718,0.110126086,0.097177945,0.08424913,-0.0089665605,0.10895324,-0.070363335,0.02740651,0.18860556,-0.16296692,-0.008368372,-0.008999244,-0.02464766,-0.0029742618,0.059872195,-0.0431656,0.12275612,0.025631623,0.004001364,0.0038239923,0.0035045743,0.00364477,-0.08602231,0.111346245,0.07458645,0.066360585,0.11116049,0.10091846,-0.016187394,-0.10823131,0.038143523,0.03422837,0.022493336,0.031894974,0.13515067,0.14468193,0.06496875,-0.037585203,0.02510331,-0.08053992,0.20234303,-0.10376354,0.17287724,-0.14138348,0.17390652,0.18506867,0.06372151,-0.11298417,0.09990603,0.1616516,0.2067871,0.09896979,-0.0019925847,-0.18096665,-0.025875797,0.11212322,0.058219135,0.084760115,0.013118343,0.0095087355,0.013237485,0.01132993,-0.08594689,0.10981603,0.16144074,0.10318925,-0.016494635,0.19280443,0.010395642,-0.1963953,-0.15343261,0.07474934,0.054042224,-0.018525342,0.08855864,0.032789007,0.041754976,-0.034178972,0.11662436,-0.02882324,-0.04108844,-0.08797667,-0.138111,-0.004390511,0.039060485,0.08916054,-0.05707456,-0.1098544,0.054093074,0.16233858,0.16609995,0.024430564,-0.16362342,0.025677191,-0.013838018,0.10116024,-0.012235978,0.065291576,0.020132478,-0.05385079,-0.113269456,0.15231386
0.11190697,-0.049125567,0.16071416,-0.09858934,-0.09034148,0.10025979,0.03354821,0.07855246,-0.11179566,0.11760821,-0.043982983,0.021138662,0.022640117,0.103287935,0.13124202,-0.1594243,0.030042551,-0.040931143,0.17552797,-0.050470274,0.061350327,0.08371542,0.06278744,-0.061151672,0.06722569,0.13243197,0.037089627,-0.009212116,0.007128269,0.11509433,0.08140214,-0.05015728,0.1845872,-0.0022184872,0.19454731,0.23423202,-0.046513885,-0.08240324,0.0393402,0.07063634,0.22864667,-0.1242651,-0.28303263,-0.14313923,-0.08436621,-0.03820204,0.044769503,0.05162587,-0.07020598,-0.04348336,-0.03656327,0.15065485,0.11256854,0.15096885,0.12844428,-0.025062524,-0.17431894,-0.24709874,-0.052226104,-0.15659806,-0.008132812,0.12130123,0.16969186,-0.12470059,0.035846524,0.06469205,0.056226198,-0.059364982,0.0050313547,-0.010273536,0.06262901,-0.021699758,-0.09956838,-0.10140023,0.05370475,0.2089052,0.0029937068,0.0040906654,0.004618362,0.0043891133,-0.12727213,-0.11809154,-0.080332026,0.0039405287,0.19763714,0.014111372,-0.18090655,-0.23810714,-0.025377389,-0.0076478957,-0.021872886,-0.31090802,0.03118067,0.02345916,0.088599995,0.20164768,-0.015451782,-0.13335274,-0.023430167,-0.015116999,0.091413766,-0.11061741,-0.12942061,0.0581415,-0.039607875,-0.060838867,0.111535795,-0.13021588,-0.15283339,-0.104684845,0.006094526,0.02441805,-0.13137801,0.19725488,0.06276321,-0.043607056,0.011691086,0.008714063,0.01240096,0.010752711,0.1895233,-0.0875883,0.08769196,-0.09712696,0.004614695,0.11330805,-0.011363511,-0.016181268,0.15309677,-0.006929492,0.21470833,-0.07625774,-0.14280763,-0.12543401,-0.055548005,-0.10880455,0.13239731,-0.14362042,0.2710151,0.02220862,-0.1397141,0.02949996,0.029407956,0.15546508,0.13354567,0.18866013,0.036307268,-0.092556305,-0.021538375,-0.02896283,0.12444626,0.20015718,0.055013422,-0.14902115,0.0035251535,0.14594932,-0.07867668,0.12063923,0.03505927,-0.0077339206
