0.04658045,0.047418613,-0.13201298,0.047685143,-0.13323352,-0.029847845,-0.03995921,0.1782587,-0.053790428,0.17570627,0.0028940625,0.14184624,0.12530436,0.027978312,-0.24944264,0.12641503,-0.11420122,0.13726059,0.060481645,-0.0174436,-0.01820674,0.036196496,-0.050203014,-0.025852064,0.008555277,-0.11462601,0.09761084,0.032322597,0.18158758,-0.17263623,-0.12555285,0.1017254,-0.07791871,0.02556056,0.08059243,-0.06365113,-0.123014875,-0.15659639,0.2126422,0.06743227,-0.19290447,-0.043671835,0.17062628,0.14426763,-0.019530155,-0.17372748,0.058317393,0.1328627,-0.15683109,0.14607464,-0.08137246,0.10146112,0.050947,0.01314513,-0.16665003,0.0845994,-0.00494001,0.10525021,0.17549415,0.087904565,0.07462802,0.066216305,-0.028297842,0.078551464,-0.053075302,0.059117865,0.22061871,-0.22152676,-1.3771466e-13,-1.40234936e-14,-1.2016163e-12,-6.0846917e-15,0.042239208,-0.07107386,0.117206536,0.0063993796,-3.671931e-05,-4.211564e-05,-4.683921e-05,-4.2261832e-05,-0.1112939,0.1105381,0.054727178,0.0644801,0.1074055,0.10519947,-0.028540118,-0.13715582,0.024747439,0.035015967,0.019517368,0.028540801,0.11116285,0.120182104,0.051575378,-0.05274647,0.029746609,-0.10469514,0.22790037,-0.13492317,0.15400884,-0.16825797,0.13037412,0.14819388,0.047191553,-0.14701816,0.077957354,0.1298487,0.20610112,0.10017906,-0.009977833,-0.20597847,-0.046250444,0.0866448,0.031700216,0.053114254,-6.8766206e-13,-4.519791e-13,5.392979e-13,-6.271134e-13,-0.101776555,0.07632496,0.123154156,0.07006019,-0.0040603434,0.23432523,0.01244196,-0.23988083,-0.16759507,0.102321014,0.0687377,-0.0020516182,0.08445601,0.028677434,0.03422136,-0.04222659,0.13274372,-0.017762257,-0.023802748,-0.09132937,-0.19138233,-0.029159466,0.06238908,0.13452095,-0.056232262,-0.12863152,0.05378184,0.14833413,0.16571966,0.0070242765,-0.1517237,0.03301667,-0.02936347,0.092829034,-0.043614507,0.04427057,-0.0047346284,-0.04502993,-0.15586877,0.19278118
0.15625383,-0.100961566,0.17886369,-0.100184456,-0.0758893,0.08982467,0.0070097675,0.057585597,-0.1319011,0.124314465,-0.06596099,-0.0016387213,0.009507129,0.047943052,0.08635894,-0.17003636,0.012475448,-0.06611414,0.18944508,-0.09798436,0.10162997,0.07345921,0.05340843,0.050204493,0.07617991,0.1544836,0.030950977,-0.026267055,0.045017324,0.039513476,0.07045212,-0.083018765,0.20702115,-0.027398307,0.26449302,0.29707646,-0.0974704,-0.08267288,0.05499913,0.075954296,0.3083969,-0.10867847,-0.43270338,-0.25920233,-0.11819378,-0.056732096,0.079003304,0.066236384,-0.065963745,-0.04282538,-0.068658195,0.13881233,0.10030466,0.08762345,0.09741103,-0.013094461,-0.21100557,-0.2695862,-0.09097387,-0.23344584,-0.042276483,0.08522786,0.16099714,-0.13680996,-0.023705475,0.02885566,0.041707434,-0.10680119,1.5958363e-16,-1.1568371e-30,3.1426098e-14,4.4518428e-32,-0.11123242,-0.092664264,0.07671251,0.2062037,-2.6722864e-07,-5.979792e-07,-1.1953844e-07,-1.4228775e-07,-0.16458197,-0.12147297,-0.13608551,-0.040329907,0.21248579,0.029444553,-0.24004278,-0.29114553,-0.048060507,-0.045157276,-0.08379624,-0.45188072,-0.011995456,0.03867445,0.093291394,0.20425124,-0.014636012,-0.1697913,0.015798094,-0.029971043,0.11878111,-0.11942294,-0.1814993,-0.033233315,-0.072275296,-0.079172194,0.09414333,-0.18840861,-0.23241423,-0.16691463,0.021081196,0.022335488,-0.22301686,0.19169584,0.029879974,-0.07313298,-2.4074821e-14,-3.904401e-14,-1.2395375e-14,-6.6170085e-14,0.22611015,-0.12296365,0.03497408,-0.13321376,0.008041272,0.09941295,-0.040729262,-0.0857819,0.19093136,0.011874234,0.28404957,-0.06631092,-0.2302223,-0.21457046,-0.07313751,-0.1839238,0.17119212,-0.16700776,0.32367608,0.000579642,-0.1431747,0.045510862,0.050242852,0.1386141,0.1597256,0.20194647,-0.027020825,-0.107990555,-0.04389489,-0.08308794,0.17158875,0.25494978,0.06672554,-0.21119547,0.019753436,0.123957805,-0.05677099,0.08969973,0.019140085,0.0017018205
