0.05760264,0.051248338,-0.11957326,0.046499167,-0.08024911,-0.0502312,-0.039198115,0.117629044,-0.043380316,0.20903376,0.028618969,0.17964719,0.122239985,0.025423042,-0.20054403,0.14721318,-0.071232215,0.17783868,0.09735529,0.035434786,-0.040738583,0.006460184,-0.06721609,-0.025453465,0.028574366,-0.0893348,0.1152069,0.06250958,0.18099286,-0.113104306,-0.10982457,0.10965299,-0.07631989,0.04685731,0.079449475,-0.059202027,-0.09600455,-0.12929657,0.19461726,0.053646807,-0.1681059,-0.027598342,0.18589237,0.16158725,0.003587305,-0.12990125,0.052647028,0.09334249,-0.08782694,0.12589836,-0.037138864,0.07349841,0.07699248,0.052485276,-0.13137366,0.12190988,0.013253501,0.13332933,0.21049795,0.11504242,0.11127513,0.09802946,0.0046630143,0.119968206,-0.07026293,0.026097294,0.18901876,-0.16418627,-0.009431563,-0.009443689,-0.024230935,-0.0041624038,0.07823964,-0.026173742,0.13948487,0.04205423,0.01236991,0.013920816,0.011634355,0.013030833,-0.07754117,0.12075276,0.084988005,0.07685175,0.114696205,0.1042592,-0.013361465,-0.10638322,0.0476554,0.044424165,0.033877816,0.042372104,0.15325847,0.16188635,0.08217479,-0.020789357,0.035554767,-0.074767895,0.21025503,-0.096709475,0.19229995,-0.12352316,0.19343688,0.20405702,0.08092206,-0.093403965,0.1180243,0.18081798,0.21342039,0.106919296,0.0048966757,-0.17436329,-0.008723588,0.13018581,0.07581848,0.100903496,-0.0022317737,-0.0022302156,-0.0022298275,-0.002230464,-0.07824541,0.12206206,0.17216158,0.116186254,-0.017434372,0.19270863,0.008899695,-0.19868608,-0.14574498,0.082959145,0.06042152,-0.008403801,0.08498079,0.028743334,0.038928457,-0.039071195,0.12711711,-0.020985141,-0.033627484,-0.07842659,-0.13356835,0.0013549033,0.04310421,0.094309136,-0.04958801,-0.10094057,0.063860536,0.17233668,0.17779899,0.03547782,-0.15334888,0.037293304,-0.007602111,0.10836468,-0.006214611,0.07331621,0.031143734,-0.039557956,-0.10185292,0.16605867
0.12116261,-0.04096037,0.16957405,-0.089196496,-0.091518305,0.10308006,0.033073388,0.07949331,-0.1022598,0.1272364,-0.03219848,0.032542344,0.033550512,0.11414833,0.1441289,-0.14704032,0.04339159,-0.028207738,0.19213778,-0.03640312,0.068417475,0.08600504,0.06574308,-0.06021239,0.08383846,0.14650604,0.054188892,0.0061708335,0.021795616,0.12885585,0.09681189,-0.03587148,0.20023967,0.012428758,0.21145728,0.25101835,-0.042043887,-0.07957024,0.04717482,0.07685434,0.23860608,-0.11605627,-0.27267167,-0.13668644,-0.0837915,-0.036833398,0.049842026,0.055088807,-0.05731936,-0.029530805,-0.022551257,0.16621228,0.12587103,0.16446368,0.14350997,-0.009750126,-0.17696057,-0.2523274,-0.052611034,-0.16174018,0.004831368,0.13324629,0.18355463,-0.11316762,0.03470949,0.06447039,0.057236966,-0.059817288,0.003203605,-0.009241777,0.05395862,-0.01705769,-0.08216657,-0.085301876,0.07018712,0.22693558,0.011024393,0.011999498,0.0134447655,0.014333298,-0.12258315,-0.11340058,-0.07332664,0.010775028,0.19862902,0.01642225,-0.18134604,-0.23933484,-0.014942909,0.002198863,-0.009252349,-0.30219883,0.04896696,0.03946829,0.10603816,0.21897422,-0.007852438,-0.12840815,-0.015794696,-0.009013022,0.10928176,-0.094136305,-0.110075854,0.07745042,-0.020890785,-0.04248447,0.13312893,-0.1099772,-0.14724244,-0.099812634,0.012650454,0.029702907,-0.116022944,0.21402375,0.078756265,-0.0270379,-0.0022065653,-0.0021986766,-0.00210339,-0.002203576,0.20188323,-0.07603612,0.10361191,-0.08214661,0.004584463,0.11264939,-0.010965624,-0.017084092,0.1621411,-0.0028594413,0.23087929,-0.06561673,-0.14488357,-0.13009886,-0.061151274,-0.11389189,0.14072503,-0.15142749,0.28087774,0.023418328,-0.13858016,0.033166472,0.034975782,0.16148569,0.14432617,0.20034374,0.048219685,-0.08172447,-0.010501801,-0.01981213,0.13727896,0.21224166,0.06201651,-0.14138082,0.01133923,0.1556638,-0.06629472,0.13371888,0.048971586,0.0071430425
