-0.013784959,0.3201023,0.3293555,-0.12632547,0.2563038,0.28865722,-0.08187273,0.0767287,-2.780779e-32,0.00011297478,-0.055655606,0.056071237,-5.828168e-33,-0.050501604,-0.012980844,-0.25802583,-0.13341738,0.07538482,0.1848818,-1.10846494e-32,0.36451527,-0.20766243,-0.020021493,-0.037819073,-0.00013772228,-0.14266534,0.10001649,0.34622225,0.017127119,0.028192211,0.030666132,2.2137633e-32,0.07995642,0.0997017,9.385839e-33,-0.031235887,0.21108745,0.14424649,0.009202272,0.17300647
0.1266139,0.1571421,0.21938673,-0.04483272,0.07961049,0.12426017,0.22838439,0.06682588,1.639053e-32,-0.0007672098,-0.13165027,-0.25607136,-6.328221e-32,-0.15096626,-0.20844746,0.3461737,0.22623158,-0.256881,-0.28880215,-2.212333e-33,-0.04122702,-0.23442312,-0.055636983,-0.028762406,2.1080145e-06,0.029167239,-0.21195655,0.08518505,-0.096684285,-0.098583125,0.07429066,4.3687318e-21,-0.13230728,0.25978693,1.369922e-32,-0.12727445,0.10311365,0.07861605,-0.07064389,0.18202484
-0.31235766,-0.36199504,0.026643528,0.054060332,0.26675287,0.14420389,0.16431537,0.21566547,9.230787e-33,0.009031387,-0.02582582,-0.0021982787,-9.667137e-33,-0.3082305,0.20908546,0.19459158,-0.18262614,0.1403151,-0.29381865,-1.0303673e-32,-0.1500756,-0.025148705,0.029620832,0.019730892,0.00015962771,0.17439114,0.013133196,0.09808975,0.01451383,-0.07012231,-0.14566949,6.720817e-32,0.22900577,0.024182118,-1.5012406e-32,-0.04730895,0.09988761,0.13120581,-0.10678666,0.029490048
-0.045485724,-0.13855061,-0.23230991,-0.030982835,0.2691111,0.11397474,-0.20653267,0.28077534,1.761025e-32,-0.0026701703,-0.045654505,0.017412934,6.4931105e-33,0.08647067,0.15273388,0.13648303,0.20568022,0.032941166,0.19655274,1.5887757e-32,-0.11531394,0.014804493,0.0040230877,-0.039532464,8.048286e-07,0.099810295,-0.26051015,0.21292073,0.047293793,-0.08485632,0.26354587,-2.349892e-32,0.10838069,-0.012217959,1.11993814e-32,0.013099917,0.11360681,-0.10419274,0.103201374,0.18048036
-0.14407119,-0.20298275,-0.012325478,0.02365658,0.21807729,0.19355527,-0.049617134,-0.22948241,2.0636062e-32,0.0010156196,-0.0017977355,0.046243608,-1.5420274e-32,0.26430118,0.12381301,0.119063504,-0.007237052,-0.084246136,0.038189244,-1.0189567e-32,-0.05341824,0.30972138,-0.02645662,-0.03659337,1.1119591e-06,0.23414378,-0.27392808,-0.08448881,0.13056564,-0.102965236,0.17068893,-5.67395e-32,0.18598782,0.15861157,-9.155913e-34,-0.015393076,0.33124238,0.0682972,-0.08710217,0.25898463
0.27731407,-0.22200157,-0.041918945,0.043399133,0.081405446,-0.14521264,0.223664,0.23792367,-1.9294937e-32,-2.1308588e-06,-0.030487016,0.15075035,-2.6965623e-32,-0.1999532,-0.024548411,-0.040564124,0.0024938926,0.18199247,-0.028734908,-2.7476992e-32,-0.06930252,0.049474746,-0.006908499,-0.07215084,2.4516504e-07,0.26761836,-0.17583452,-0.35262752,-0.16685894,0.0064464915,0.092714325,6.205429e-32,0.26104495,0.049675178,-9.340994e-33,0.048620723,0.2697591,0.17600542,-0.056218747,0.022176683
-0.11778277,-0.25074032,-0.0026730173,-0.029885879,-0.08544034,-0.03908474,0.08547718,0.22543663,-1.4774927e-32,-0.0016929924,0.04278595,-0.067663886,8.195203e-33,0.32515234,0.19242397,-0.048498433,-0.049770653,0.0073269373,0.04806836,1.675542e-32,-0.13722555,0.15934525,0.04023153,0.006035004,3.261033e-07,0.15210791,-0.14901267,0.16974132,0.035562593,-0.03127602,0.14285053,-8.488603e-23,-0.17127831,0.29561087,1.4432656e-32,-0.0065034665,0.24434671,0.14394209,-0.15277632,-0.29612282
0.123022154,-0.03973113,-0.21786112,-0.04994414,-0.23220977,0.13369149,0.19897798,0.28553924,4.243384e-33,-0.00036264284,0.00088679057,-0.074653946,6.099639e-32,0.10332513,-0.031937968,0.20950593,0.09199569,-0.067413256,0.13606139,2.2680368e-33,0.037987195,-0.05857055,-0.019454319,-0.008549504,-1.16406746e-07,-0.29612264,-0.062201064,0.10548734,0.3326042,-0.0051896325,-0.13883272,-1.20093484e-32,-0.120281175,-0.26004022,1.8183652e-32,-0.029878583,0.17560697,0.13651553,-0.1150098,-0.18926784
0.33387414,-0.25236198,0.17912824,-0.013722151,0.24051067,-0.09168087,0.2276583,-0.23588288,-2.0805426e-32,-0.00024942707,-0.011719477,-0.046746455,-1.3716444e-32,0.31948823,0.2279927,0.31856412,-0.056580994,0.17434372,0.094231315,4.4634806e-33,-0.14325427,-0.009219098,0.0070427796,-0.032969523,7.585866e-09,-0.13053407,-0.13190524,0.1262719,-0.040036492,-0.0017831431,-0.0025219375,6.5255394e-32,-0.12764269,-0.2697749,-2.765599e-32,0.023348413,0.02696013,-0.043709252,-0.018577186,0.0074107093
-0.15707278,-0.2739043,-0.17208768,0.019252617,0.20689929,0.29177308,0.3290896,0.21738078,-1.2251612e-32,-0.0012594488,0.09816486,-0.036058042,1.619001e-32,-0.26464114,-0.057999853,-0.1566405,0.27435884,-0.10437823,0.30089143,9.174722e-33,-0.1680461,0.097876586,0.028732035,0.010104629,-1.3715372e-06,0.24812904,0.14312336,-0.21183838,0.11078886,-0.081454016,-0.008506211,-1.0926925e-32,0.09908046,0.08568006,-1.1753918e-32,0.040751856,-0.12156085,0.012656117,-0.115445346,-0.13077672
