<<<<<<< HEAD
-0.007366722,0.32279578,0.33919585,-0.07225354,0.25956124,0.29014823,-0.07522837,0.078088574,-3.8056737e-07,0.00019668792,-0.06434346,0.04382225,0.00016738227,-0.04084833,-0.015487779,-0.24293667,-0.12536459,0.06595907,0.18313012,0.00022297906,0.44187206,-0.202287,-2.2773826e-10,9.4726323e-07,-0.0012981949,-0.14642358,0.1009753,0.35001215,0.03824277,0.14044783,0.08513691,-0.0003781728,0.092504345,0.103608795,-0.0025411525,-0.044098552,0.2301213,0.15440978,-0.05512148,0.18762274
0.107628725,0.15672705,0.20825589,-0.07471727,0.0938021,0.12287688,0.2139513,0.06549796,4.714243e-06,-0.0024596828,-0.119579196,-0.2201254,-0.00032310857,-0.12045488,-0.18543786,0.34423298,0.23044433,-0.25139588,-0.2636606,-0.0002334283,-0.05159714,-0.22297801,-3.130452e-08,-2.786961e-08,0.00034491887,0.035453673,-0.24218632,0.08830365,-0.093821555,-0.11167724,0.09569691,0.0003145892,-0.12400112,0.25857753,0.0020201297,-0.12280511,0.12522739,0.06706254,-0.014467693,0.22034188
-0.33508313,-0.42826766,0.032612067,0.06000064,0.26948202,0.15775761,0.16593441,0.22651434,-4.7179077e-07,-0.0026133587,-0.017741367,-0.024299106,-4.597574e-05,-0.29721013,0.2062699,0.19210134,-0.17243953,0.12657689,-0.28573903,0.0002423369,-0.17699377,-0.020053077,7.4862545e-13,9.987464e-07,-0.00016870286,0.17734785,-0.021525605,0.11295479,0.0062892674,-0.08572959,-0.13370344,-0.00033616615,0.2286505,0.043591302,0.00029161965,-0.046912316,0.08714228,0.13808104,-0.100634225,0.030706313
-0.038455125,-0.21147038,-0.22672836,-0.04370219,0.27678698,0.13924392,-0.21371971,0.28226256,1.1883329e-06,0.0008289549,-0.025758479,0.021331804,0.0003899731,0.08762502,0.15221249,0.13269603,0.21098585,0.003456537,0.20140359,0.00016573667,-0.19112124,0.014259454,-1.3159554e-08,-1.3935967e-06,-0.0014004402,0.12746897,-0.36039233,0.21704958,0.054124765,-0.08864008,0.36616498,-0.0006422289,0.11725785,0.022203295,0.0018044865,0.072167374,0.14264843,-0.093574606,0.11808772,0.21955663
-0.1328222,-0.29723987,-0.016306689,0.013205992,0.23055543,0.20989488,-0.046230488,-0.21553184,3.6486208e-06,0.0017541652,-0.013318996,0.04205925,-0.0012891758,0.27430126,0.124068305,0.13180616,0.014071024,-0.085247904,0.04643805,-0.00025461035,-0.08750803,0.30611944,9.943652e-07,3.376369e-08,0.00012339845,0.23408361,-0.35826597,-0.060910486,0.14787923,-0.12483222,0.2542202,0.001414813,0.20009108,0.17510515,-0.0018673994,-0.002982041,0.3589163,0.083544314,-0.037501045,0.28815997
0.29823127,-0.33141735,-0.03288711,0.064158246,0.07709464,-0.15414461,0.21629824,0.23607185,5.4933103e-06,0.0010155721,-0.0031436817,0.1684856,-0.00019268262,-0.18027934,-0.011573575,-0.04157308,-0.0001542348,0.2183286,-0.02403066,4.1433327e-06,-0.090191744,0.050920982,-5.859167e-12,-9.938528e-09,0.00079206063,0.27974638,-0.30098206,-0.3573322,-0.1854905,-0.07060733,0.12811711,0.00012294286,0.2753737,0.054014064,-0.00033450275,0.071872294,0.29187563,0.18327871,-0.08705764,0.042023655
-0.12188765,-0.33139494,0.014140256,-0.041964687,-0.063971974,-0.017171308,0.09097211,0.23104489,1.0195124e-05,-0.0006467907,0.057654474,-0.039266206,0.0004298589,0.33779678,0.20217176,-0.036652014,-0.04233939,0.010660397,0.05116646,-2.967403e-05,-0.14824137,0.15594962,1.6646665e-11,-1.03715266e-07,0.00040445026,0.16907455,-0.18009217,0.17973918,0.032828014,-0.005591549,0.18792382,0.0006779925,-0.14109777,0.2924341,0.001638236,0.04871639,0.25802565,0.1486568,-0.23621097,-0.25994217
0.093535,-0.025154145,-0.21673717,-0.01203517,-0.22215596,0.15481985,0.17871177,0.26943657,-5.0288572e-06,0.001152474,-0.022496235,-0.06038959,-0.00061068736,0.10718905,-0.02606253,0.19414254,0.07550628,-0.05632101,0.14815468,-8.043133e-05,-0.0027722216,-0.037639476,5.499389e-12,2.458311e-07,-4.2150936e-05,-0.2793985,-0.22445582,0.12166223,0.35422456,-1.8227347e-05,-0.08450452,0.000748138,-0.098511145,-0.23721585,0.0002609811,-0.029304037,0.1951395,0.13865155,-0.10081362,-0.15942097
0.34652647,-0.2580982,0.19593608,-0.025936339,0.23770586,-0.08860376,0.23616521,-0.22910148,-2.9325392e-06,-0.00033678667,0.010319868,-0.03282137,4.9532588e-05,0.3280954,0.21850602,0.31555584,-0.052875742,0.1859007,0.09839981,2.6832273e-05,-0.10962042,-0.010646254,-6.5561748e-15,1.364691e-06,-0.0015803635,-0.12248933,-0.11755827,0.12561412,-0.055005502,0.008397024,0.054049134,-0.00040462354,-0.12158148,-0.26140878,-0.0016110456,0.07594083,0.021255083,-0.03980866,-0.07294508,-0.000364764
-0.150067,-0.30523357,-0.16149913,0.024883809,0.21793531,0.29168823,0.3315717,0.2118507,-2.8716886e-07,0.00028136082,0.10865026,-0.005186176,0.0005355862,-0.27228722,-0.050248023,-0.16051269,0.26281613,-0.077178635,0.30096206,0.00017562823,-0.2132692,0.09254508,-5.324593e-14,-1.8543484e-05,0.0012435991,0.24850051,0.22842905,-0.21469793,0.10261715,-0.099898554,0.005139917,-0.0007989205,0.10567972,0.06473723,-0.0010003225,0.062640876,-0.13831082,0.0026149605,-0.12553257,-0.13382915
=======
-0.043523874,0.32070556,0.3333428,-0.20703673,0.2637754,0.2899168,-0.07594335,0.07804063,-2.780779e-32,0.00076680066,-0.097794615,0.04056799,-5.828168e-33,-0.04161719,-0.0104749035,-0.25061378,-0.13275729,0.072627395,0.18062401,-1.10846494e-32,0.4423637,-0.19662462,-0.05692117,-0.13142318,-0.08373023,-0.1498238,0.081578515,0.3537203,0.03761449,0.07368291,0.0658417,2.2137633e-32,0.07157462,0.109996155,9.385839e-33,-0.029790055,0.2212495,0.15110925,-0.07862689,0.16698302
0.10959651,0.17825739,0.21500178,-0.1368446,0.09134984,0.1332469,0.22439267,0.07144243,1.639053e-32,-0.01835369,-0.2084703,-0.24854484,6.3310315e-32,-0.13230444,-0.1936331,0.3488914,0.23378968,-0.25974095,-0.27006376,-2.212333e-33,-0.07600974,-0.224267,-0.13546851,-0.11170822,-0.031080762,0.032955438,-0.22824682,0.09276423,-0.093819834,-0.18028958,0.116141416,-1.1013795e-32,-0.11956908,0.26312983,1.369922e-32,-0.16925757,0.1203086,0.07950793,-0.039320514,0.20537852
-0.31037056,-0.40870783,0.04625533,0.09298314,0.28897884,0.16780667,0.16735908,0.22867917,9.230787e-33,-0.0062493365,0.023065766,-0.014074876,-9.667137e-33,-0.31551838,0.2125528,0.19982944,-0.1821459,0.13354899,-0.29392043,-1.0303673e-32,-0.18468885,-0.022240356,0.08458979,0.1226716,-0.013819508,0.19431174,-0.039558697,0.11902355,0.011398585,-0.11419528,-0.15335141,5.737842e-32,0.25549874,0.04627926,-1.5012406e-32,-0.07556101,0.100037046,0.14814927,-0.13453396,0.047105897
-0.049627624,-0.17786014,-0.22529349,-0.063328125,0.287923,0.13871586,-0.2132554,0.28786036,1.761025e-32,-0.039760485,-0.09721051,0.023013262,6.4931105e-33,0.08888513,0.17010364,0.13448206,0.21060215,0.036888685,0.21341398,1.5887757e-32,-0.24905692,0.021379646,0.03237252,-0.13224751,0.0020899798,0.10865113,-0.3585581,0.2262474,0.059490547,-0.1773367,0.36398217,-2.349892e-32,0.12258876,0.0005663061,1.11993814e-32,0.017549518,0.13988574,-0.09337405,0.09109334,0.22742957
-0.1286761,-0.29054618,0.0009047623,0.025099719,0.2402058,0.21371424,-0.03930953,-0.21960391,2.0636062e-32,-0.018877005,-0.014772066,0.0419098,-1.5420274e-32,0.27876022,0.14044032,0.1340068,0.0036156243,-0.07643835,0.04718523,-1.0189567e-32,-0.13748275,0.31981608,-0.05655764,-0.112981364,-0.0020075715,0.23932007,-0.32638916,-0.06783783,0.16367029,-0.14851211,0.23635887,6.0087075e-32,0.20341575,0.16730294,-9.155913e-34,-0.048622034,0.35935277,0.08794477,-0.13945824,0.28149086
0.28607154,-0.28272712,-0.03388591,0.104366615,0.08211157,-0.15072213,0.21853235,0.23480777,-1.9294937e-32,-0.019208353,-0.03283823,0.17069632,-2.6965623e-32,-0.21442401,-0.021829,-0.05327871,-0.0014020033,0.21396704,-0.028367616,-2.7476992e-32,-0.13270158,0.04653285,-0.019020889,-0.117223375,-0.030689327,0.2834423,-0.28894415,-0.37111482,-0.18857558,0.0049474374,0.1378516,6.223576e-32,0.2751725,0.053344175,-9.340994e-33,0.11393639,0.28298822,0.18651883,-0.10023324,0.044873383
-0.13032669,-0.3281846,0.012396121,-0.045565832,-0.058751278,-0.01173143,0.09215786,0.2450211,-1.4774927e-32,-0.016187832,0.054184195,-0.04530702,8.195203e-33,0.33675665,0.21305518,-0.038069632,-0.040687297,0.024810497,0.06139085,1.675542e-32,-0.10357352,0.15997332,0.09764273,0.05825398,-0.10868525,0.1714282,-0.17774405,0.1928718,0.05438811,-0.054148454,0.20246696,1.646276e-32,-0.1480084,0.31458893,1.4432656e-32,-0.016287355,0.26530808,0.15774383,-0.26118228,-0.26354253
0.10029108,-0.023340916,-0.21870358,-0.07023562,-0.21808563,0.1623615,0.1953049,0.28982332,4.243384e-33,-0.025369367,0.018336402,-0.05948917,-6.588083e-32,0.11830176,-0.027090002,0.21348876,0.0949369,-0.06253557,0.15386698,2.2680368e-33,0.007586677,-0.036237564,-0.031012889,-0.04246713,-0.014319913,-0.2780328,-0.22297956,0.12415645,0.38567665,-0.0070574055,-0.07338811,-1.20093484e-32,-0.09091378,-0.2320169,1.8183652e-32,-0.063464746,0.21421605,0.15456513,-0.14042416,-0.1489909
0.3542905,-0.24868414,0.20934032,-0.015160455,0.2629289,-0.068181284,0.24274836,-0.2225698,-2.0805426e-32,-0.0038563574,0.0055079754,-0.03339807,-1.3716444e-32,0.3280242,0.23525396,0.32719752,-0.047830183,0.1950664,0.10577897,4.4634806e-33,-0.109570585,-0.008799809,0.041657604,0.008001306,-0.04573781,-0.10813374,-0.12187686,0.13903059,-0.06045261,0.013527216,0.057500545,6.123557e-32,-0.111921,-0.25468037,-2.765599e-32,0.056252588,0.04077763,-0.03070141,-0.067057304,0.022079589
-0.12515314,-0.3150633,-0.15054221,0.033237774,0.21640518,0.29643244,0.33286148,0.21537352,-1.2251612e-32,-0.04452044,0.16013494,-0.0151826255,1.619001e-32,-0.27409524,-0.059619315,-0.15888448,0.27256554,-0.084234744,0.30052418,9.174722e-33,-0.20799427,0.083420806,0.11130871,0.06668994,0.03886753,0.25628924,0.21266213,-0.22047998,0.09596868,-0.162637,-0.0009146508,-1.0926925e-32,0.10856698,0.08185872,-1.1753918e-32,0.08210514,-0.12810782,0.007386197,-0.13593256,-0.12620151
>>>>>>> 47d2039f7af34a40ee3264e90aedcff57159511d
