0.1725492,-0.12651098,0.23838036,-0.005254448,0.07625814,-0.21813117,0.08290815,-0.2053045,0.13229759,-0.05939364,0.1408902,-0.14221877,-0.020877657,-0.012113126,-0.10126819,0.16575272,0.009805722,0.010151447,0.010086222,0.0125207165,0.028546803,-0.007531112,-0.03873221,-0.10672486,-0.08117994,0.17775974,-0.030244352,0.13625039,-0.121195324,0.12510724,0.18236056,-0.1885607,0.015056777,0.06665655,-0.010032786,-0.20230623,-0.007955932,0.057396494,-0.13492188,0.13416812,0.014468703,-0.038217388,0.092396565,0.014533591,0.0028452866,-0.095445,0.14328773,-0.054198608,-0.020744504,-0.019918833,0.0248387,0.013705365,-0.008909785,-0.23219064,0.06530718,0.009646998,0.16648135,-0.09673911,-0.04749084,0.11092148,0.020828944,-0.053355277,0.012832659,-0.029726041,-0.01381256,0.15872924,-0.004880701,-0.10061374,0.15510674,0.031179806,0.11952395,0.015455052,0.013076545,0.013317484,0.013713127,0.015924927,-0.0989522,0.1782531,-0.22601195,0.19096255,0.1412248,-0.07094527,-0.09658213,0.06827619,0.20330286,-0.16452421,0.10525856,-0.04579606,0.033955935,-0.08452052,0.2303731,0.051362682,0.077594526,0.066485226,0.1571897,0.17354822,0.13981856,-0.12554193,-0.14513695,0.12800981,0.22961073,-0.085788354,0.22481753,-0.019550169,-0.07459756,0.11520165,0.023169605,-0.06489766,-0.0037592088,0.0027661757,-0.11437715,0.20497163,0.015751753,0.1259721,0.11492993,0.08881768,0.012109367,0.011562204,0.012676242,0.014995406,-0.013139402,0.2680987,-0.027347632,-0.14142404,-0.06062732,0.1570301,0.12512001,-0.22436647,-0.009242778,0.08423784,0.050312232,-0.12764418,0.23072188,-0.101694755,-0.023233533,-0.0065243165,0.015029483,-0.011756295,0.1469968,0.14331818,0.15091994,0.05949707,0.2216669,0.034827266,-0.0786351,0.1446029,0.20541288,-0.19768824,0.009247232,0.009610145,0.009557212,0.011990968,0.23318137,-0.089589454,0.03826422,0.048194133,0.17861989,0.02448412,-0.15920828,-0.0024658542
