0.061754182,0.049941182,-0.12768748,0.049112312,-0.104888216,-0.04260899,-0.038532726,0.13872647,-0.047775794,0.20030266,0.023663178,0.1693424,0.11661605,0.023527006,-0.20934424,0.14704625,-0.08519726,0.16489173,0.08530668,0.015215051,-0.024721248,0.028460776,-0.06645948,-0.02539466,0.0127416225,-0.10468153,0.10301865,0.045859866,0.17445844,-0.13628,-0.12616365,0.099901475,-0.0868067,0.033183224,0.064249925,-0.08358581,-0.10966674,-0.14137565,0.2016547,0.06253691,-0.17926522,-0.03540756,0.18169034,0.1564216,-0.00047030166,-0.14625947,0.058973204,0.11022982,-0.12065171,0.12369032,-0.061797414,0.07393187,0.06468948,0.030901704,-0.15223978,0.101053596,0.006735449,0.117979825,0.20202732,0.11034069,0.094781354,0.080965795,-0.0090051005,0.10717094,-0.07051443,0.04217636,0.19788547,-0.18951039,-0.00046499821,-0.0002248727,-0.0009030853,-0.00017342682,0.05771963,-0.05075835,0.12493959,0.024326257,-0.0007798588,0.0019135042,-0.0005721614,0.00011486588,-0.082434766,0.11324048,0.0839489,0.08037521,0.11181041,0.110904396,-0.019102655,-0.10883136,0.03437923,0.038171105,0.028732665,0.04628697,0.1361849,0.14708899,0.06865389,-0.037888575,0.034290347,-0.086835325,0.21895462,-0.11058197,0.17209043,-0.14744724,0.16704544,0.18298835,0.068593115,-0.113182664,0.10164365,0.16379061,0.21454872,0.106309034,0.0044356263,-0.17315298,-0.025563616,0.115181476,0.061698157,0.087976485,-0.0018759051,-0.0018112182,-0.0015863404,-0.0018612196,-0.08820634,0.102591895,0.14931567,0.09497859,-0.015360761,0.2086401,0.009192687,-0.21767524,-0.16706085,0.07584275,0.06640802,-0.017414704,0.09357713,0.040309496,0.05012073,-0.025358038,0.12428997,-0.0324968,-0.04990404,-0.09571347,-0.1693505,-0.019640798,0.05349846,0.11006131,-0.056981266,-0.11743583,0.054292005,0.15637566,0.17776974,0.019306859,-0.16333634,0.02689627,-0.016751865,0.101734966,-0.019148191,0.06911618,0.034212604,-0.04577123,-0.103487834,0.16078083
0.14042228,-0.06634871,0.18818563,-0.094056115,-0.10551892,0.10354126,0.01752784,0.09507256,-0.1219127,0.12399181,-0.05330474,0.023099562,0.032582417,0.09244265,0.15173961,-0.1618381,0.027222343,-0.050302535,0.1866009,-0.060145427,0.08008967,0.10598467,0.05007898,-0.038325846,0.0705848,0.13880004,0.046541024,-0.010693635,0.025759432,0.1010309,0.09372538,-0.054211333,0.20069405,-0.010301608,0.22288848,0.2502832,-0.07443369,-0.0946825,0.05567226,0.08247098,0.2592737,-0.10878891,-0.32122698,-0.17270628,-0.110293,-0.057415385,0.05897362,0.064608805,-0.0863697,-0.04834243,-0.04839585,0.15870781,0.112333596,0.13294448,0.12726486,-0.017470697,-0.19026949,-0.26061928,-0.0614461,-0.17966425,-0.008412657,0.111042686,0.18026106,-0.13114548,0.019991547,0.054974712,0.068348736,-0.088723645,6.7071705e-05,-4.622788e-06,0.0011152683,-8.397716e-06,-0.10297708,-0.10911309,0.059324782,0.21312149,-0.0034120134,-0.0072327866,-0.0020651533,0.0019932545,-0.1490973,-0.12634489,-0.10797414,-0.01354335,0.20100068,0.017995235,-0.19868545,-0.25206375,-0.036464732,-0.015430166,-0.0338981,-0.3594696,0.02569139,0.029487912,0.09476915,0.20952651,-0.008102664,-0.14448476,0.00013959949,-0.021152124,0.097645536,-0.1153135,-0.15065718,0.045605466,-0.031827133,-0.06733009,0.121327706,-0.14454125,-0.17377464,-0.12664017,0.012498294,0.02472598,-0.15416758,0.20289874,0.052328605,-0.039760966,-0.0014667697,-0.0013598718,0.00019006977,-0.001489928,0.2168389,-0.09353328,0.074824736,-0.10760404,-0.0007434365,0.1174914,-0.025888989,-0.04758909,0.19378668,-0.012927191,0.29531404,-0.075044855,-0.17170817,-0.15250917,-0.04870765,-0.13013881,0.17731367,-0.18375319,0.34924245,0.026021997,-0.17711908,0.025652958,0.046582222,0.1832571,0.14158018,0.19602804,0.02187952,-0.09924201,-0.021578325,-0.058547366,0.13416977,0.22148837,0.04958478,-0.1702886,-0.0013531873,0.14693227,-0.061450176,0.11198155,0.06493002,-0.0072018746
