-0.066510245,-0.1381853,-0.050029986,0.13943388,0.08051496,0.0063138497,-0.04355232,-0.11013761,-0.052305724,-0.15841499,-0.09051333,-0.38923916,0.05038189,-0.038850754,0.20316201,-0.0632788,0.014219745,-0.0551679,-0.062682465,-0.10375643,-0.066809416,-0.08165862,0.15519857,0.067246296,0.21936569,0.17855084,0.072502114,0.19301762,0.12561283,0.14803971,0.02941346,-0.12907076,-0.088919945,0.123599485,0.052321624,-0.0049130823,-0.036395177,0.093146004,0.0037187473,0.043477464,-0.14443135,-0.082829416,0.05198047,0.07379668,0.1680942,0.11477411,0.09858155,-0.052047893,0.039920676,-0.018886276,-0.19269611,0.124548405,0.048986096,-0.12743834,0.25920776,-0.09167805,0.05826629,-0.023536053,0.13138556,-0.040668312,0.22109427,-0.30039302,-0.18951589,-0.020745192,0.1670874,-0.11261534,-0.11165689,0.18018734,0.051260542,-0.07051099,-0.019288268,-0.09826534,-0.10423438,0.0014963123,0.049546033,0.1174151,0.08634306,-0.11462387,0.12720275,-0.06116157,0.18603283,0.113837555,-0.016107261,0.031583287,0.104799405,0.08548635,-0.0409434,0.2237525,0.09130918,-0.34159023,0.04116415,-0.28783515,-0.3198109,-0.17473061,0.08648797,0.084699735,0.09697952,-0.050795753,0.0679093,-0.15000243,-0.20698951,-0.1875875,0.15302475,-0.0012689712,0.03336848,0.021020517,0.11925525,0.07813469,-0.022909142,0.1388323,-3.1341646e-05,-0.24585791,0.033353735,0.09014875,0.2052264,-0.35887954,0.09113501,0.09908741,0.024151279,-0.04193281,0.05220951,-0.13547303,-0.22782582,-0.009457781,-0.058819626,-0.10915556,0.004793166,0.07680289,0.1443707,-0.252982,-0.44242457,-0.27863336,-0.008834039,0.021896936,0.108941376,-0.13079087,0.056024138,0.17330202,-0.069362625,0.14203314,-0.11543523,-0.044009306,-0.18677212,-0.09546431,-0.060788102,-0.044636503,0.034266453,0.35581902,0.07375306,0.16679078,0.010272584,-0.20058608,-0.05922764,0.29812485,0.24351616,-0.060607854,-0.1930572,0.003496383,-0.12331233,0.07443199
0.35348114,-0.12130178,-0.004287391,0.24960032,0.010053268,-0.04798499,-0.09901549,0.028458394,-0.052522503,-0.22513825,0.2593228,-0.24211012,0.4685704,-0.03833673,0.055658676,0.18863748,0.3148037,-0.15172534,-0.08122734,-0.0017470298,0.113967575,0.2922919,0.11062516,-0.13296765,0.16550562,-0.014483454,-0.0107240975,-0.21574794,-0.20748453,-0.16046087,0.047427192,0.12276093,0.062631436,-0.037050825,0.28430364,0.1895018,-0.11907575,0.15636948,0.17450052,0.22593442,0.15570441,0.108567044,0.07681971,-0.13198496,0.1930008,-0.08146358,-0.08592237,0.03465175,0.18612778,0.20313694,-0.0076777395,-0.040431824,0.30618107,0.08107576,0.0020904099,-0.16833179,0.19910711,-0.16599694,-0.05789939,0.06794786,-0.121989995,-0.046623632,0.22712758,0.09044316,0.2520505,0.02112116,-0.085941836,0.038316227,-0.1634837,-0.15424152,0.18670408,0.39321056,0.0049704923,0.22536647,0.12656815,0.123698406,-0.24544537,0.07823916,0.20823409,0.20900378,-0.18546969,-0.16358772,0.057579152,-0.14070378,0.061659794,-0.10654419,-0.18234815,-0.1187259,-0.30558035,0.08745525,0.19711417,0.1269187,0.013356189,-0.1883154,0.09984556,0.07611251,0.15031561,-0.13946205,-0.045993295,-0.16285557,0.0012461916,0.034735538,0.6344191,-0.11083493,0.2156044,0.10371513,-0.029396862,0.15832414,-0.086663656,-0.1433289,-0.027770363,0.18530595,-0.2016001,0.38611668,-0.3363269,0.088362806,-0.065600865,-0.19806553,-0.07009434,0.17097515,0.20860614,0.08607812,-0.066265844,0.22471265,-0.026732191,-0.13609163,-0.23348211,-0.09852936,-0.24299608,0.078545615,-0.074026294,0.30949318,-0.013800289,0.09155916,0.13691513,0.03623967,0.06818217,0.11911765,0.114924625,0.12789573,0.12368774,0.18623435,0.34928674,-0.10445549,0.19051675,0.100042,0.032986257,0.32972774,0.049473412,0.027360694,-0.10549556,0.012802034,-0.2653121,0.06436659,0.17155808,0.121709414,-0.3097694,-0.044175446,-0.002533217,0.16027237
0.21682063,0.025871562,-0.07184771,0.056737166,0.12237052,0.050104767,0.14907543,0.05287674,0.1179373,-0.20673545,0.18198982,-0.14550756,0.08608001,0.017163593,-0.04573136,-0.032144513,-0.02861894,0.16881548,-0.0074414,-0.02186284,0.07298581,0.3146788,0.10176614,-0.005645533,0.17376706,0.083491616,-0.031611048,-0.12903596,-0.104362644,0.17169829,0.16376385,-0.14457756,0.049362164,0.0014727259,0.24814314,-0.08783369,0.05762336,0.0037971474,0.108214706,0.22374706,0.030707104,-0.0041799857,0.1248696,-0.09643781,0.1473386,-0.18907066,-0.08056492,-0.23560993,0.012930593,0.057704527,-0.20013423,0.10853517,0.43826112,0.036833707,-0.17551371,-0.04147412,0.24856707,-0.07658256,-0.027930904,0.07036391,-0.18492956,-0.10531117,-0.1782421,0.14530756,0.3866966,-0.03491646,-0.076997414,0.116339795,0.004205892,-0.07229155,0.17283332,-0.029319745,0.28849176,0.14863233,0.09361751,0.3075296,-0.23916067,0.0016964655,0.22734296,0.28687662,-0.14463569,-0.027712721,-0.038717307,0.1433474,0.03307051,-0.17654516,-0.09568979,0.03371668,-0.22838274,-0.24682242,-0.118881874,-0.1180532,-0.08561555,-0.010364869,0.37877917,0.07199145,-0.25436607,0.042238474,0.137157,-0.077135496,0.2890927,-0.0047775228,0.23122749,-0.14916822,0.022558983,0.03037493,-0.033347946,-0.019150173,0.19370362,0.013246462,0.15495133,-0.15641572,0.015113817,0.17131628,-0.20375474,-0.18586081,0.035673697,-0.20051996,-0.09507496,-0.043258447,0.17347881,0.03644384,-0.20057122,-0.07221664,0.06781891,0.07469387,0.11201919,0.14255819,0.034095995,-0.06519634,-0.45648575,-0.16520481,-0.16964248,0.015061129,0.038840488,0.122071646,-0.028898833,-0.111876786,-0.031293903,-0.12598158,-0.188667,-0.2830094,0.2182344,0.18417402,-0.08033061,-0.14802516,0.20187086,0.023476597,-0.037559215,0.12827013,-0.041606423,-0.11886773,0.028776616,0.015240324,0.064781286,0.15502703,0.003099236,0.017400265,-0.0959939,-0.16067477
0.09664254,0.016283175,0.17348364,0.09924778,0.0771624,-0.032933988,0.0021150976,0.091977105,-0.036289435,-0.17418319,-0.1591687,0.0016539679,-0.13091257,0.041488335,-0.021246137,0.08039481,0.14025107,0.07927708,-0.16618516,0.10115274,0.0018728053,0.121463865,-0.08999246,-0.010960608,-0.25152853,0.04696546,-0.2129585,0.032931436,-0.06128772,-0.134989,-0.14576475,0.21509327,-0.105558224,-0.058986716,0.015675096,0.022968993,0.064614765,0.011318408,0.13975173,0.06459746,0.06392268,-0.1321421,-0.14406732,0.06006125,-0.028615039,-0.14027552,-0.06335086,-0.16340168,-0.13045913,0.009712393,0.2649762,-0.110296,0.17180793,-0.13683352,0.14994666,0.018797345,-0.12031877,-0.02412392,-0.13528448,0.18290643,-0.011301363,0.12540041,-0.025632765,-0.041931078,-0.023296706,-0.041528102,0.15344404,-0.09821442,0.15276119,-0.14361417,0.17922893,-0.1354785,0.009046719,-0.056179836,0.020145947,0.0661157,-0.0078888275,-0.1305534,0.109265864,-0.08203335,0.06959866,-0.11584118,0.02869033,-0.12543279,-0.1432805,0.13950022,-0.122189954,-0.053773344,-0.043668173,0.13237351,-0.045424003,-0.044799544,-0.21946424,0.056357566,-0.0325469,0.14260896,0.087826274,-0.1133028,0.120014064,0.105836146,0.0064980495,0.21172951,0.07084479,-0.090347834,-0.077423,-0.02885193,-0.01264494,-0.070151016,-0.063406974,0.03726542,0.08618451,-0.080387585,-0.16746204,-0.15286396,0.15482567,-0.046574913,0.042038027,0.16167006,0.0083965575,0.11535364,-0.13310671,-0.025644887,-0.030973136,0.051437203,0.06808077,0.056963522,-0.028147308,-0.09992795,-0.042838786,0.17973314,-0.09397953,0.014100256,-0.016859863,-0.08000817,-0.021442557,-0.1723432,0.103056096,0.07937804,0.07198639,0.094526865,0.11788576,0.034380566,-0.18395738,-0.12447153,0.19913302,0.032296874,-0.055766843,0.16329435,0.15987715,-0.15609582,0.15013388,0.025645768,0.13725835,-0.14434108,-0.15059377,0.017234456,-0.029597634,-0.16844419,0.06405848,0.04894471
0.31221786,0.09339876,-0.07234132,0.2461309,-0.055577096,-0.058118783,0.11342599,-0.0033889872,-0.015931856,0.26690802,-0.010018796,0.09298497,0.031199526,-0.08734238,-0.0347443,-0.0076253223,-0.023148367,-0.0032151248,0.054850012,-0.061009653,0.0033925571,0.04298669,-0.13270284,-0.12613328,0.14324634,0.043671325,0.14964099,0.011181515,-0.04246181,-0.12274447,0.22118746,-0.050360553,0.21904138,-0.081452005,0.052044116,0.1038521,0.12687346,0.06103476,-0.08102789,0.06971734,-0.047573876,0.07014402,-0.0069698435,0.1739854,0.21147458,0.20932713,-0.015401372,-0.1857571,0.13779439,0.38587034,0.015086903,0.05359064,-0.07614194,-0.07322588,0.023416225,0.16515805,0.19516474,0.012480156,-0.13131581,-0.08961128,-0.0055441083,0.17311919,-0.032945354,-0.01130489,0.050046958,0.110167,0.17290476,0.015547409,0.11809266,0.08071603,-0.046300594,0.07426051,0.061599437,-0.10057899,0.23537181,0.15984342,-0.036097277,-0.08636903,0.16108598,0.077671014,-0.12895602,0.18864666,-0.04506503,-0.20075613,-0.10227114,0.15189977,0.05458555,-0.08182717,0.1393227,0.07554331,0.0545821,0.2683043,0.20920032,0.05575411,0.14992453,-0.14780925,0.06301637,-0.10466464,0.16163465,0.15776649,0.31763062,0.040842816,-0.07534797,0.0063723265,-0.0591042,0.057144485,0.12609571,0.13306531,0.05522643,0.15171047,0.14771807,0.12532708,-0.114677876,-0.17146796,-0.088464595,0.0660822,0.17327762,0.100866,-0.07343779,0.029548366,0.10666195,-0.047549427,0.030111331,0.10602588,0.04975805,0.14409277,-0.045940213,0.05273185,0.004971417,0.34807906,-0.26374716,0.28673673,0.08806394,0.0137924,0.06510422,0.1751285,0.12328696,-0.10207388,0.0068452526,0.05964812,-0.120770596,0.28405133,0.013730334,-0.005856946,0.25042203,-0.07924384,0.07643678,0.11607129,-0.028398285,0.16645183,-0.16309242,0.2920756,0.10574107,-0.1347403,-0.05240251,-0.048975285,-0.11435901,0.094911024,0.112122506,0.00090652367
0.18553147,-0.045135703,-0.0049605756,0.15390722,0.0927311,0.00926691,0.02494026,0.18889892,0.21811289,0.10085608,-0.018679585,0.14233083,0.33004698,0.16799164,-0.04731481,-0.12244684,-0.03756732,-0.011135336,0.038206767,-0.09166646,0.013335332,0.04125607,-0.09299101,-0.052946687,0.17900975,-0.07396783,0.17954293,0.08789577,-0.09632728,-0.023682972,0.017148694,-0.054344956,-0.02271604,-0.22112173,-0.02174709,0.023437314,-0.0977081,0.05619271,-0.05059838,0.13595597,0.06297796,0.042406425,0.052019157,0.118579224,0.1849858,0.17452146,0.13573559,0.05284381,0.2193916,0.35481796,0.14342323,0.09825187,0.07214173,-0.095686585,-0.0039565596,0.014471552,0.0019541795,-0.054334886,-0.14254841,-0.12594397,-0.13386938,0.31959558,0.05706449,0.033954285,0.37176508,-0.1616615,0.20026042,-0.029058218,-0.07892708,0.060294483,-0.05163484,0.1758006,0.29655045,0.02823845,0.07935709,0.1887824,0.0720867,0.1513136,-0.1435076,0.16417812,0.07727065,0.17672174,0.23273407,0.0915057,0.18110605,-0.06257224,-0.11307721,0.074693665,0.0548308,0.4656945,0.1528317,0.34724042,0.29245615,0.10477127,0.22269617,0.087289445,-0.03584939,-0.09841878,-0.0523466,0.077690214,0.25644958,0.355113,-0.23948814,0.15927231,0.107744224,-0.1398333,-0.11975769,0.08802654,0.04329412,-0.12168825,0.011141387,0.2672824,-0.091592126,-0.31510913,-0.02725857,0.41701254,0.20559372,0.020661691,0.06700315,-0.019820979,0.13819624,0.07215643,0.15509488,-0.03224716,-0.15127252,0.1951712,0.12452049,0.10639111,-0.21993856,0.24024585,0.34073868,0.4058554,-0.12004636,-0.06478078,0.16494596,0.038811877,-0.017044134,-0.12884878,-0.019787418,-0.08334346,0.15205918,0.67710555,0.30342802,0.035723098,0.011225132,0.007408105,0.22555304,-0.15048192,0.011834418,-0.008689077,-0.12919359,0.22760408,-0.15226258,-0.22909881,0.085681096,0.18904555,-0.05440807,-0.14277525,-0.09485481,0.0202255
0.01443978,0.11855836,0.26015967,0.0940052,0.152472,-0.12674263,-0.11806968,0.06339888,0.10724084,0.018700141,0.0409643,0.195191,-0.012283452,0.1419485,-0.14172575,-0.06830211,-0.117590666,0.12008777,-0.06348372,-0.068043105,0.21806748,-0.20370632,-0.17413095,0.1816358,0.129535,-0.0781608,0.17530352,0.29565305,0.030889997,0.06392823,-0.012181459,-0.24452125,-0.027817285,-0.069073536,0.021179454,-0.1677608,0.05524827,0.1319283,0.09025513,0.05814571,-0.08351458,0.07600814,0.068374716,0.047802586,0.095003344,0.18649922,-0.14622252,0.055897303,0.124853924,0.036756627,0.36413434,-0.17816,0.10425921,0.1452555,-0.04712621,0.0038451378,-0.019005671,-0.021372972,0.09492617,0.05535729,0.15403192,0.14132158,-0.10658095,0.043086667,-0.13365185,0.006089066,0.068229556,0.17986219,0.03381922,-0.028242337,-0.019430036,-0.08108929,-0.16397996,-0.058685217,-0.19915445,0.011196115,-0.014351623,0.10215162,0.05286697,-0.124973945,-0.06605128,-0.09413613,0.19363484,0.055876292,0.18600975,0.16570324,0.0035965524,0.013036225,-0.12762228,-0.010513141,-0.14849707,-0.119262025,0.059717413,0.079891935,0.27806434,-0.018999435,0.0030132427,-0.021999002,0.123850204,0.09057844,0.25351262,-0.1728324,-0.2269529,-0.15911733,0.16778687,0.27317667,0.013908056,-0.24468374,-0.004327981,-0.16814533,-0.05986027,-0.2743503,0.19347356,-0.3362536,-0.01038719,0.080724955,0.09750859,0.114650026,0.11810072,0.0014293788,-0.03475329,-0.10994597,0.17206351,-0.027808798,0.100398414,-0.0767053,-0.14682543,-0.08272111,0.07367768,-0.08661457,0.0071051535,-0.16966456,0.011729891,0.06825936,0.17899406,0.09763462,0.096059844,0.007596864,-0.027067503,-0.049766537,-0.15194935,0.010881507,-0.22384143,0.15696327,0.0699036,-0.011984741,0.14255022,-0.19422868,-0.09286267,0.119633004,0.12292266,-0.22451782,-0.048652783,-0.20001689,0.0029838197,-0.2585713,0.057749,0.20017406,-0.027621811,-0.1079508
0.15745638,-0.11260589,-0.028149592,0.13299486,0.14727992,0.09304671,0.15204224,0.09908898,-0.009711026,0.0518567,-0.07424074,0.17651723,-0.023222685,-0.08850563,0.002617257,0.18142113,0.18075271,0.06877829,0.099344105,0.088485755,0.13961427,0.2034604,0.1030851,-0.02897898,0.05672698,-0.13078,0.13166334,0.14860512,0.07754482,-0.085443586,-0.012468752,0.20250967,0.14998505,0.06634674,-0.048337966,-0.12069247,0.0133311115,-0.140024,-0.08838122,-0.09259828,-0.04455202,-0.10076423,0.10021456,0.15872541,0.046712734,0.13596983,0.14589666,0.07559102,0.15712145,0.14300542,0.13623033,0.096667066,-0.09280964,0.11029318,0.052513137,-0.0304331,0.18214603,-0.11042029,-0.17776278,-0.11133084,0.012299731,0.14736557,0.04598527,0.15790448,0.11438339,0.030254563,0.15776125,-0.044016,0.1508522,-0.04160438,-0.075855374,-0.031478845,0.16359189,0.03649101,0.23210602,0.09784901,-0.020884486,0.11524816,0.08058437,0.10558311,0.12280347,-0.042371005,0.18864949,-0.088618904,0.015423819,-0.08716236,-0.016778952,-0.124839514,0.006334095,0.20955092,0.14292717,0.23482147,0.26277587,-0.070351034,0.11874921,-0.09417734,0.03463328,-0.114459,0.17951012,0.039624162,0.24694602,0.32064524,-0.018181568,-0.12319776,0.09521971,0.061221898,0.04157637,0.28426608,0.058996513,-0.077696495,0.12117606,-0.013125042,-0.027854932,-0.28056496,0.15485777,-0.0033096657,-0.04298207,0.11208269,0.19350775,0.12171987,0.13048898,-0.06697036,0.051146038,0.11961637,-0.11803954,-0.091908276,-0.10220887,0.035725478,0.034110025,0.11735869,0.12043927,0.008689166,0.3486525,0.07183122,0.06757691,-0.10670807,0.21484087,-0.051092017,0.016041953,0.083032735,0.2861814,0.14689861,-0.10014509,0.10671605,0.34210467,0.13964786,0.0013506036,-0.010534749,0.18560046,-0.17071268,-0.10278711,-0.030928068,-0.017138645,-0.15191069,0.05906614,-0.03148708,-0.07927062,-0.14334586,-0.025311833,-0.0313527
0.14153121,0.14772646,0.007350147,-0.096494354,0.13398437,-0.08351677,0.13911897,0.10241967,-0.07845319,-0.08811136,0.16109732,-0.06107378,-0.11644612,-0.056189667,0.11106697,-0.04192622,-0.005769397,0.11595861,0.102408715,-0.12645668,0.02286087,0.16170564,-0.090900056,-0.15514952,0.048501298,0.052195556,-0.07574104,0.051695704,-0.106668875,0.03391117,0.14786191,0.077351905,-0.07878033,0.075272515,-0.12448049,-0.10008379,0.00643475,0.14860742,-0.0070151407,-0.1747158,-0.09199423,-0.046316862,-0.059158172,0.0030469485,-0.06112412,0.035008203,0.054712266,0.11111005,0.032050904,0.04421079,-0.010493233,0.08087474,0.009875655,-0.086054474,-0.08020586,0.111379355,-0.13508038,0.048600025,-0.17100804,0.032520056,-0.08545085,0.11945051,0.009378973,-0.032708995,0.057589322,-0.13616031,0.10714458,0.059571162,-0.13353147,0.022787005,-0.15485005,0.15526623,-0.066810444,0.1290638,0.15441509,-0.14107645,-0.010883849,0.14951783,-0.000977479,0.08493299,0.02885901,-0.11423628,-0.08501213,-0.11325058,0.001558628,0.11631833,-0.018257648,0.15686098,0.12872967,0.0112724155,0.09277317,0.115591556,0.15403312,0.084626004,0.11233848,0.026456077,0.15096685,-0.12401414,-0.11025802,-0.15415943,0.16402555,0.039731458,-0.16051123,-0.17607771,0.023472786,-0.017338544,-0.12663533,-0.13161942,0.024837477,-0.12701702,-0.08488647,0.053776987,-0.07622265,-0.0075332075,0.16208671,-0.10970596,0.044901643,0.0733676,0.007031724,0.10576714,-0.024796715,0.013622632,-0.137487,-0.112274356,-0.040788468,-0.16795617,-0.072151504,0.07656168,0.09534275,-0.16337782,-0.1477442,-0.086055584,-0.09656875,-0.16857572,0.16609192,-0.13704476,-0.112809755,-0.0595114,0.07152994,0.09084496,0.1327619,-0.155739,-0.09246271,-0.058942944,0.109612375,-0.088261515,0.011272221,0.010099388,-0.16896331,-0.0057588816,-0.12636715,-0.11863162,0.0043461095,-0.13197403,-0.050211355,-0.005621658,-0.11009558,-0.04015747,-0.16804017,0.05366266
-0.05455774,0.03209795,-0.011833542,0.020426229,0.084482305,-0.12338143,-0.0054376097,0.08520504,0.09471201,0.067630924,-0.07737683,-0.021129727,0.16781901,0.03834806,0.004394084,-0.035114504,0.16331755,-0.09087955,-0.088928916,0.105559774,0.110414535,0.0350067,-0.016435899,-0.087834194,0.15314236,-0.073732056,-0.1580286,0.0009136028,0.18153702,0.14829022,-0.011603126,0.14555617,0.023248374,-0.042999692,-0.09966147,0.061356645,-0.088980556,-0.06696764,0.007993894,0.06398271,-0.15321916,-0.04715727,-0.08901498,-0.06722215,-0.14264093,-0.12309383,-0.0649543,0.09425642,0.1328191,-0.107949115,0.103561066,-0.14166896,-0.010879614,-0.07870258,-0.0123618925,-0.13133901,-0.057878267,-0.06814466,0.0046022506,0.12220078,0.03308497,0.0598018,0.1985569,-0.09481621,0.05477976,0.005723434,-0.012204537,-0.020940382,-0.027397063,0.060017318,-0.03082773,0.106475785,-0.09381942,0.053295482,-0.015278734,0.034925118,0.0660123,-0.027459666,-0.17887698,-0.083742455,0.16105941,0.09191514,-0.052188702,-0.020661276,-0.015341568,-0.14430381,0.023132382,-0.051759038,0.066670306,-0.12541844,-0.04448185,0.083754085,-0.06831689,0.106052525,0.048433457,-0.15681134,-0.039271347,0.1138651,0.038657412,0.0776407,0.039427847,0.049352545,-0.07783635,0.086635694,0.025516331,0.09776834,0.05269746,0.12936419,0.06740622,-0.0416189,-0.036939587,-0.11394856,0.05078729,-0.03712667,-0.05951022,0.005069282,0.111562654,-0.1350092,-0.053120486,0.18523075,-0.10084729,0.07694383,0.16651426,-0.10408604,0.1628223,0.07230663,-0.15664612,0.10812974,-0.02530146,0.09475036,0.03439795,0.03220273,0.107713535,-0.09258281,0.13499859,0.08611923,0.012019943,-0.04415344,-0.14903647,-0.16343285,-0.0032915457,-0.008990802,-0.10017596,0.033364244,-0.06286659,-0.15055479,-0.044308476,0.16685084,-0.123188265,0.008643106,-0.0006609958,-0.012208855,-0.046084553,-0.07643773,-0.030107051,0.084741004,0.029594831,-0.12938775,0.032209545,0.0494815
-0.09833164,-0.06403902,0.056348536,0.017757295,0.066921175,-0.12639953,0.1477712,-0.013270218,0.099568956,0.24065816,0.07496601,0.03965662,0.016619038,0.10986617,-0.15425725,-0.090030275,-0.12317128,-0.08852918,0.007875068,-0.04311871,0.027586857,-0.12299793,-0.2331856,0.111814566,0.18617554,0.10990262,-0.13233852,-0.10882552,-0.09760789,0.010148078,-0.11752793,-0.13412943,0.17372492,0.08263678,0.05729941,-0.080048606,0.12006377,0.0036194196,0.111260906,0.06971376,-0.12683116,-0.18743354,0.000599293,0.1610662,0.06879041,0.011606743,-0.12993339,0.019730743,0.10839347,0.11223541,0.22218305,0.09983013,-0.041945595,0.1678017,-0.051539082,0.018428508,-0.1975459,-0.019906178,-0.07613908,0.12251947,0.057614923,0.23127037,0.017997721,-0.10914776,-0.015525036,-0.0170257,-0.21439187,0.16623847,-0.1878016,-0.08993422,-0.028604783,0.13652456,-0.10477198,-0.046650678,-0.03134133,0.046915293,0.12731704,0.048273742,-0.08382816,0.114061326,-0.11042389,0.023339324,-0.042840205,-0.12343432,-0.08841429,0.010207136,-0.09257008,-0.19399863,-0.14850596,0.015083673,0.21894662,-0.04361456,0.3109577,0.082644284,-0.10953109,0.14879735,-0.06793641,0.08750278,0.13889785,0.011046537,0.24834226,-0.17724954,-0.101208344,-0.037501052,-0.10573656,0.008903824,0.062142137,-0.09572306,-0.08986483,0.030444384,0.007874389,0.18178016,-0.065388784,0.00035364926,-0.1736735,0.18390258,0.16312784,-0.14338678,0.18864773,-0.079147555,0.1254875,-0.057968367,0.06969876,0.21468093,-0.0030340564,-0.04822437,-0.04891178,-0.0790122,0.056437623,-0.040623195,-0.0038882697,-0.039083187,0.008032498,0.17903627,0.09253188,0.17743929,-0.19484971,-0.15471219,-0.15725307,0.16668525,-0.09549402,0.045640454,0.05773674,0.05840451,-0.022606488,-0.12024993,-0.17169914,-0.0693448,-0.090793945,0.07671769,0.037996326,-0.12746657,0.11051121,-0.063502446,0.012553939,0.123269014,-0.13543068,0.050587736,0.09785872,-0.058124833
-0.09117455,-0.09797648,-0.05849954,-0.016449386,-0.0055532223,-0.019894982,-0.007354268,0.059157908,0.046758607,-0.19155584,-0.061132208,0.013354854,-0.25491056,-0.08703343,0.0135524655,-0.12653495,-0.11695371,-0.015498537,0.17020582,-0.037512604,0.12962998,0.17944665,0.084828116,0.16693875,-0.046092935,0.20313032,-0.060922097,-0.0048561897,0.14388782,-0.09610921,-0.149183,0.07046755,-0.24507506,0.070642695,-0.03898554,0.053161215,-0.16156565,-0.06797146,0.111894,0.08901892,0.06502103,-0.053560562,-0.025878511,-0.06307548,0.0954405,0.14831236,0.08558762,0.025199423,-0.17203778,0.117566444,0.031651776,-0.057407197,-0.111613624,-0.021628123,0.24183668,0.06077568,0.04158685,0.034175266,-0.040172707,0.026660394,0.12695323,0.14867854,-0.16749863,0.13943808,0.02466521,0.11704334,-0.06463881,-0.1929045,-0.07241467,-0.15440246,-0.123672254,-0.12504543,-0.032948017,-0.031581946,-0.036958028,0.16998456,-0.05807385,0.07064675,-0.105530076,-0.05653556,0.15953876,0.044992454,-0.08908863,0.13804567,0.11766604,-0.17016686,-0.079355605,-0.063668266,-0.12697783,-0.2609493,-0.116927706,-0.13322337,-0.040225886,0.06668292,0.03438634,0.053389136,0.18719949,-0.021275455,0.061309636,0.063072115,0.14481193,0.18668295,0.18392862,-0.08502153,-0.15308903,0.12596574,-0.121069126,0.21996877,0.101599306,0.049266756,0.14803433,0.20000212,0.08040646,0.31272146,-0.07712022,-0.017013948,0.13866596,-0.0643689,-0.08729428,-0.12693046,0.012634208,0.017022047,0.024636444,0.14954859,0.13800266,-0.06626797,-0.12854174,-0.10898428,-0.014662149,0.09452518,-0.08079887,0.051026687,0.016888667,0.13915941,0.06804523,-0.0077681537,0.034327947,0.007502273,-0.08910581,-0.15346943,0.007804687,0.11019522,-0.0038851134,-0.03784427,0.38353404,-0.12266604,-0.1394928,-0.04219234,0.010898088,0.02343579,-0.13629408,0.060366396,0.11871948,0.02736259,-0.048001006,-0.095097706,-0.10981826,0.14379083,0.16740829,-0.06038198
0.052843403,-0.08184863,0.10301337,-0.04425635,-0.0016195667,0.090688996,-0.10191504,0.13135022,-0.043797392,-0.13082117,0.012206879,0.031405658,-0.030988459,-0.10925448,-0.11776064,-0.06571792,-0.09195529,-0.11869608,0.110629424,0.13889883,0.1015764,-0.113736294,0.06328538,-0.17487057,0.07929112,-0.02162189,-0.019952752,0.11448289,-0.028165285,-0.06685157,-0.02291171,-0.036770914,0.064496584,-0.10391814,-0.05188279,0.0809063,0.016304677,-0.02378483,0.027878342,0.055941135,-0.15883218,-0.031721227,0.13426556,-0.08227287,0.07802718,0.014434978,0.15098755,-0.1497822,0.15722594,-0.043903656,0.051082395,0.06327317,-0.04611964,-0.15107918,-0.1366402,0.14338788,0.15000884,-0.11231898,0.12141916,-0.11758286,0.13456453,0.06303778,0.105314136,-0.16215724,-0.06344507,0.014038733,0.03208364,0.030993044,-0.12697947,0.15938205,-0.11713201,0.06630393,-0.06632236,-0.004545817,0.039716315,-0.04500325,0.059134454,-0.12568295,0.040769517,0.049585596,-0.066313125,-0.12431638,0.14001246,-0.067331135,-0.10145718,-0.021138271,-0.13197693,0.08439669,-0.07329691,-0.14793816,-0.016066967,-0.11551471,-0.15824734,-0.14338584,0.08605968,0.16330461,-0.13032006,-0.09840699,0.08854052,-0.021135746,-0.011096257,0.014017894,-0.12089444,-0.15926327,0.061984725,0.032675926,-0.009414004,-0.14999449,0.07590205,-0.07468831,0.018177828,0.024291558,-0.09596502,-0.03189867,-0.09085061,-0.13759391,-0.09908242,-0.08809475,-0.08796574,-0.12835474,-0.04594475,-0.034300182,-0.1775982,-0.07782783,0.09904945,-0.0011225987,-0.13806811,-0.037002716,0.06324189,0.0037907213,-0.1770398,0.004853374,-0.16112302,-0.10354818,-0.079496644,0.014807546,0.07011938,0.13495202,-0.04351809,0.06787272,0.10322066,0.054470375,-0.13755572,0.033064775,-0.12819174,0.09468602,0.016449492,-0.13128836,0.13074417,0.15188551,-0.12507473,0.0048150755,0.16419044,-0.02889215,0.10039767,-0.08010431,0.13133992,0.10114358,0.16206057,-0.06485513
-0.046934348,0.04442134,0.04649012,-0.16647631,0.042364564,0.05994214,0.12085783,0.029396819,-0.03489274,-0.061793968,-0.14491978,-0.22890009,-0.05918516,-0.041214537,-0.02542092,0.058547433,0.086698465,0.063105255,0.10617735,0.017052857,-0.14448072,-0.01813501,-0.15291339,0.03368077,0.08201827,-0.02668304,0.01756404,-0.08160352,0.1156681,0.14131917,0.06934646,0.13385803,-0.26240158,0.10688445,-0.06267403,-0.23368903,0.032075576,0.07603242,0.027064927,-0.054498773,-0.12997524,-0.06345352,-0.06524145,-0.03590796,0.063029334,-0.0058220206,0.048202824,0.22216126,0.12799059,0.017598901,-0.57344973,0.0796411,0.10513009,0.053981215,0.2038344,0.15315525,0.055647884,-0.10808239,0.056600027,0.013699269,-0.09769167,-0.52639264,-0.061362248,0.13183342,-0.25879177,0.2431581,0.22873972,-0.027908115,0.14524448,0.13301921,0.1349723,-0.15004544,-0.00088776107,0.13034518,-0.021765865,-0.004447803,-0.13134834,0.10386698,0.020840265,0.14306137,-0.22770506,-0.04834922,0.09582135,0.116686866,-0.13542908,-0.08268436,-0.018373532,-0.048869845,0.05347429,0.008117152,-0.30594042,-0.1436749,-0.012524619,-0.06012959,-0.4146456,0.15404631,-0.07688332,0.14319846,0.1740645,0.05775976,-0.4612925,-0.12374837,-0.19420107,-0.049791873,0.018886894,0.10013327,-0.026052538,0.11632625,0.07966563,-0.07254305,-0.009754351,0.117532246,0.11011858,-0.25355008,-0.07594246,0.068177335,-0.114944175,0.20210597,0.09476473,-0.028399635,-0.13120094,0.23145537,0.08659113,-0.14194459,0.100566834,0.0067120995,0.04874739,-0.010953554,0.13009118,0.20717882,-0.20403224,0.052910574,0.09305955,0.08546424,-0.24819767,-0.04311072,0.09259622,-0.082140304,-0.086737536,-0.0428753,-0.32568684,-0.07111066,-0.3472912,0.09133655,-0.12766044,0.14136644,-0.07359601,-0.3902341,0.049165193,-0.044168994,-0.02737713,0.13837914,0.04493654,-0.17208295,0.04603319,0.1445474,0.18121785,0.09920938,-0.12825519,-0.015304179
-0.06353887,-0.15747906,-0.040860217,-0.0431427,0.1330612,0.019905334,0.12696074,-0.097334445,0.16348872,0.20891364,-0.2731394,0.38244867,0.05404207,0.035211556,0.13602886,0.048904948,-0.16878863,0.15971111,0.16426748,-0.07072067,-0.08910194,-0.11389247,-0.18381755,-0.042207807,0.14117844,-0.027431823,0.072986886,-0.047063086,0.0018682989,0.13414218,-0.07873116,-0.06757063,0.08899069,-0.16042604,-0.0800573,0.109917454,0.04518337,0.07943626,0.0965533,-0.03426282,0.013092781,0.14549468,-0.19148046,0.10016949,0.04860991,-0.035447173,0.01762564,0.1430207,-0.14463763,-0.082509525,-0.25739208,-0.015443497,-0.2336965,-0.12412883,0.085397795,0.088914424,0.2805917,0.1471,0.10367538,-0.033363696,-0.09468269,-0.111256674,-0.09871776,-0.082516536,0.04751337,0.048724446,0.13446844,-0.031402234,-0.01793665,-0.12416145,0.03260341,0.05394673,0.10720172,0.02118195,0.13435851,0.02852248,-0.1192742,0.021825498,0.0138906455,0.15042976,-0.05845775,0.19558638,-0.06616479,0.109474234,-0.102985896,-0.077147424,-0.014573898,0.0107050305,0.109031916,0.04113964,-0.16734253,0.0003304677,0.3750919,-0.029051514,-0.2985311,0.17724504,-0.0827186,0.041827638,0.15265612,0.10297998,-0.07973888,0.0053382954,-0.41540736,0.16115676,-0.11267554,0.11595373,0.12686801,-0.15696238,0.15187427,-0.14368744,0.1314204,-0.096854724,-0.03250267,-0.47678035,0.1257258,0.1883564,-0.13261133,-0.13137396,-0.028556427,-0.007429839,-0.09999685,0.23712559,0.04592673,-0.038172018,0.086372964,-0.027062973,0.11740711,-0.03158538,0.06767187,0.15576905,-0.13665694,0.11534292,0.27749664,0.058651425,-0.14388454,0.10623049,0.037568454,0.07512164,0.12504254,0.03962276,-0.21956874,-0.14061971,-0.12432125,0.032268148,0.17448623,0.07385514,-0.15720604,-0.23682,-0.10883927,-0.07767036,0.14166859,0.006061074,0.023914233,-0.25035954,-0.12596083,-0.030175824,0.17354308,0.16376638,0.21875432,-0.025921939
-0.19391514,0.13529073,0.22468013,0.059573703,0.16522413,0.14876156,0.1501922,-0.16164495,0.10988878,-0.030979387,0.059235897,-0.15187971,0.2504043,0.018742487,-0.14515641,0.10960812,0.05781284,0.06433052,-0.06968215,-0.103477776,0.24986203,-0.03290075,0.06738934,0.13330236,0.26987568,0.11012241,0.1308452,-0.024132345,-0.05348284,0.122315176,0.12316351,0.121633254,0.13705179,-0.033238016,-0.21878599,-0.033448882,0.10613863,-0.12640597,-0.13111866,0.02362199,0.044460755,-0.025077797,0.18976897,0.15376484,-0.04447015,-0.09823514,0.17118636,0.18817392,0.15803078,0.28646457,-0.38658416,0.1587992,0.29182848,-0.018819096,0.053499654,0.081361115,0.059288625,0.03663796,0.044247016,0.083867006,-0.060494047,-0.49424094,-0.18204059,0.13321531,-0.18165542,0.04654294,-0.08278622,0.008637555,-0.038787432,0.06785057,-0.007638819,0.008179153,0.043224398,-0.0059786206,0.23876138,0.19715165,-0.08252163,-0.04658388,0.09677743,-0.10780485,0.08069049,0.14831161,0.13199626,-0.10826866,0.020886851,-0.117756374,-0.019192062,-0.08115828,-0.09485365,-0.061621245,-0.16067308,-0.034950525,0.021451462,0.06692249,-0.07632684,0.097799994,-0.09937817,0.12572873,0.12812117,0.1700239,0.09290012,-0.2513814,-0.5398631,0.10808104,-0.13947223,0.2517742,0.13040754,-0.24160385,-0.16034707,-0.07868356,0.14808661,0.022662524,-0.021810913,-0.45865616,-0.07667378,-0.049877293,0.0049645375,0.099374086,-0.08797008,0.030715391,-0.012343475,0.17033559,0.1629115,0.053293582,-0.0034620562,0.063774064,0.18832031,0.17995116,0.09894011,0.1492936,-0.18213908,0.33114544,0.22204478,0.052900918,-0.2255213,0.13287745,0.18723026,0.13617563,0.09595456,0.14693783,-0.036854684,-0.2545012,-0.35406345,0.1436658,0.044112176,-0.03483948,0.11550497,0.06209054,0.07425365,0.031983096,-0.064798295,0.06208388,-0.104691915,-0.17786963,0.050466165,0.34191465,0.015872747,-0.04931101,-0.11761286,-0.05642778
-0.11554739,-0.1294177,0.032636,-0.12858209,-0.066995874,0.020994605,0.15837796,-0.103520736,-0.12360115,-0.14657134,0.00555356,0.048747826,0.35245472,-0.066509224,0.10141204,-0.05059582,0.24073046,0.052954655,0.02865964,0.13020419,0.10960437,-0.06918616,0.11869516,0.10958506,0.2054183,-0.15108243,0.09007327,0.2294188,-0.11893514,-0.13565125,-0.03529288,0.20138603,-0.115887456,0.003192366,-0.077351,0.16176128,-0.04950002,-0.024736641,0.1500088,0.0871542,0.16978592,0.0057158307,0.1730182,-0.11025578,-0.0819605,-0.09837731,0.08364193,-0.09703459,-0.09979359,0.18657519,0.14127982,0.17299604,0.28443807,0.16496776,-0.12213882,0.13641599,0.1294872,0.15889521,0.006360591,-0.08980544,0.010407097,0.32247514,0.045041,0.1350999,-0.08643393,0.08872444,0.17768347,0.19869342,0.09068619,0.13484594,-0.0849452,-0.0032245775,-0.08395953,0.10425186,0.17344016,0.08018706,-0.05005293,0.026777558,0.017339716,-0.11610643,-0.018342298,0.17909817,-0.22944354,0.11283371,0.021865847,-0.0860856,0.070245914,-0.04883228,0.20015956,-0.02717826,-0.04477333,0.30085048,0.30439326,0.052886304,-0.09428982,0.11490424,-0.018613456,-0.039282754,0.12782213,-0.023301043,0.17735803,-0.045800064,-0.09805965,-0.048602626,0.30889288,0.09985138,-0.016157655,0.083912686,0.108194515,0.07902301,0.13538197,0.041972276,-0.14804935,-0.18442717,0.06187255,0.009091969,-0.029377345,0.13515545,-0.06747032,0.0794343,0.007187038,0.21479984,-0.13160235,-0.13092655,0.12842314,0.23737776,0.05574146,0.19515413,0.031762414,0.12290339,-0.027914627,0.19818099,0.25750345,0.11503439,-0.17827794,-0.1243532,0.18908648,0.017301507,0.114106536,-0.011133601,-0.16166891,0.34694347,0.10957273,-0.024295203,0.06529839,0.14002994,0.13235116,0.14190243,0.13770995,-0.07616565,-0.06888357,0.25956097,0.13348822,0.046601847,-0.12264943,0.025685731,0.13383658,0.07180517,-0.16868086,0.2679468
0.036266785,-0.1482369,0.007930422,0.036336634,-0.16124082,0.16805166,0.018209163,-0.028443981,-0.024451744,0.0986354,0.0033443612,0.106884904,-0.11930531,0.01633754,-0.04409834,-0.11239322,-0.119868785,-0.12550431,-0.11724389,-0.0014392452,-0.030027661,0.110045895,0.017617954,0.059125062,0.038142778,0.10652235,0.03066866,-0.15774915,-0.01336258,0.0799416,-0.046104707,-0.017732773,-0.19548303,-0.101652935,0.1577935,-0.17012973,0.11212527,0.13301817,0.1481929,0.08803167,-0.061134413,0.0028503449,0.10824344,0.09568213,0.15174377,0.05957468,0.04436618,-0.20163856,-0.025302468,-0.12510826,-0.066528,-0.24871664,-0.30211228,-0.15935624,0.22447419,-0.13241747,0.05537481,0.07948253,-0.08286839,0.15153421,0.016143573,-0.13054612,-0.08215492,0.10537882,0.07735716,0.05475868,0.035419255,0.10525058,0.1421971,-0.10000352,0.06535983,-0.11078406,-0.01389289,0.009179268,0.16011228,0.026084322,-0.07081029,0.0022985016,-0.13629778,-0.16223538,-0.051754165,-0.057462245,-0.036491293,0.09833276,0.16354764,-0.036448576,0.12689592,-0.06498014,-0.013819364,-0.101041764,-0.13908422,0.0011821251,0.061101567,-0.09549235,-0.052388445,0.09498519,0.002583678,0.024695935,-0.17333032,0.11327651,0.25063732,-0.02131979,0.26961145,-0.100687295,-0.11017813,0.12964407,0.012808359,0.0129838595,0.20215693,-0.0024658465,0.0004315772,-0.02012247,0.17944454,-0.02542572,-0.056657813,-0.08374544,-0.041030023,-0.12018151,0.056884903,-0.12915763,0.13182546,-0.004515321,-0.14443761,-0.07708342,-0.14189571,-0.01677205,0.073418714,0.07851281,-0.10057049,-0.22198486,-0.27818847,-0.25976458,0.07614768,0.1620577,0.11070068,0.1518352,-0.08004156,0.13288379,0.08945988,0.16892394,-0.01683001,-0.39166245,-0.20715871,0.092103615,0.28547108,-0.11773686,0.06639437,0.07288342,-0.0448344,-0.0732082,0.020241976,-0.14243917,0.04195698,-0.048439234,-0.010776857,-0.18704739,-0.13222085,0.04065351,0.16911177,-0.09608449
0.037909906,0.15044498,-0.03809181,-0.07182214,0.014906706,0.020126093,0.20836067,0.25283948,-0.0023551397,-0.10807947,-0.04742899,0.11112968,-0.06440171,0.09747032,-0.1739765,0.0023455452,-0.15206498,-0.08483784,0.21482526,-0.048485506,-0.46833074,0.17494243,-0.022007005,0.18326657,-0.0051954314,0.07426039,0.208509,0.1284144,-0.13835397,-0.15455715,-0.0504822,-0.18742041,-0.19335309,0.2639145,0.10413694,-0.19269283,0.06384654,-0.047685597,-0.09225952,-0.026741121,-0.1212576,0.23765525,0.17121151,-0.11895891,-0.010907834,0.14477131,-0.034229986,0.021802673,0.03199825,0.0105740605,-0.056186654,-0.10576982,-0.18932772,0.13060471,0.2868796,-0.009090812,-0.05567751,0.13909851,-0.010094536,0.0101754125,-0.07111177,0.5102441,0.21893445,0.18411697,-0.06938599,0.09769434,0.176055,0.046805475,0.09478921,0.1427083,0.22020024,0.079382844,-0.016393118,-0.14309855,0.03034137,0.05479462,-0.016656106,-0.23822235,0.05831447,-0.01862505,0.057156183,0.28775707,-0.11570505,0.090661265,0.13873614,0.059796207,0.034550313,-0.1743092,0.038117588,0.092682466,-0.11007697,0.22598113,0.120386116,0.038927753,-0.17227879,-0.08982813,0.18071574,0.009131191,0.14946252,0.039202467,-0.007927319,0.21400082,0.20004264,0.046282917,0.12597819,0.017004237,0.042450067,0.24136385,0.014276855,0.07510712,0.048938654,0.070659146,0.061827302,0.0074987826,-0.09333801,-0.05804631,-0.10768329,-0.021976069,-0.047394853,0.028604534,0.01308318,0.10057682,-0.11713868,0.06998398,0.042002983,0.051482543,0.12030739,0.17080595,-0.008824075,0.0937021,0.27247006,0.115663774,0.060669057,0.108285785,-0.04463735,-0.12263482,0.07486056,-0.020220686,-0.10102331,-0.006629066,-0.11129047,0.49102455,0.30302233,-0.018540362,0.33434808,0.14727642,0.17943293,0.08247999,0.054726977,-0.09983599,0.090134256,0.12141206,-0.059315134,0.1743621,-0.11453119,0.009949551,0.2044131,-0.07497016,-0.07971136,0.11576275
0.009984836,-0.07367232,-0.037081912,-0.030508026,0.09721848,0.038411364,-0.16821532,0.061720595,0.077296555,0.10049799,0.0020931363,0.14441943,0.17218444,0.12854174,-0.03694266,-0.15409265,-0.14126633,-0.008677676,0.08617011,0.0053654164,-0.009897038,-0.0921115,-0.08702094,-0.14237247,-0.010127053,0.03590916,-0.039266676,0.0919064,-0.06404023,-0.070892274,0.11870152,0.05904098,-0.103588164,-0.07991803,-0.018430218,-0.07173235,0.09099695,-0.1574304,-0.09925129,-0.121862166,0.0734428,0.012906194,-0.08346265,0.08334574,-0.08178201,0.14472482,-0.1081202,-0.038351864,0.10389987,-0.14837804,-0.07354443,-0.04306081,-0.07849383,-0.16785295,0.095890224,-0.07885888,-0.11772033,-0.028954491,-0.15597019,0.14083463,-0.14640488,0.16877356,-0.044760272,-0.041452065,0.04608953,-0.14397985,0.013808653,-0.11684099,0.061708942,-0.101045325,-0.14161487,-0.088238165,-0.049163923,0.116760015,0.06586817,-0.08442417,0.06348468,-0.12925448,-0.09601729,-0.13467115,-0.03685838,0.042524964,0.1427758,0.15076,-0.08731088,-0.14988038,0.01967144,-0.015679866,0.057271183,0.058888346,-0.13743983,-0.16394635,-0.07317235,-0.06571872,0.051522046,-0.09664341,-0.15054473,0.14481768,-0.11117284,-0.1322237,0.037007004,0.16452518,-0.020284459,-0.07490952,0.032958776,-0.040120333,0.020981118,0.00296925,0.0155020505,0.11484444,0.019289702,0.018616214,-0.1480713,-0.16883707,-0.009089634,0.010993883,0.08512366,-0.06884068,0.009575263,0.14504635,0.015998796,-0.08769509,-0.11050348,0.16946405,-0.04666035,0.037880108,-0.026679292,0.17211944,-0.07386835,-0.012970448,0.013283789,0.007198304,-0.14029337,-0.13056375,-0.13225326,-0.043434978,0.09936935,0.0768882,-0.04651533,0.09836736,0.11785969,0.09463203,-0.11589049,-0.14348976,0.06967254,0.05891387,-0.0030807555,0.08359331,-0.044662282,0.15985918,0.09373751,0.07343665,0.0793733,-0.0125362575,0.017074496,0.13934061,0.044072002,0.044982478,-0.06496045,-0.16960838
0.014835449,-0.05740068,-0.15278518,0.030559016,-0.13601063,0.010634326,0.012866061,-0.009926504,-0.054717913,-0.0471711,-0.030528992,-0.22416624,0.1890674,-0.13378377,-0.010471021,0.12457485,0.21861015,0.07993481,0.034268845,-0.04964232,0.088022836,0.17998435,0.28131095,-0.029360184,0.10118755,0.14992733,-0.016782014,0.20395057,0.10479871,-0.06307908,0.0168421,-0.13777563,0.029536562,0.03361616,0.22426403,-0.2341495,0.17600504,0.114541166,0.06901569,0.04112558,-0.11649872,0.17495829,-0.11011514,-0.0345193,0.19027461,-0.008104826,-0.12581655,0.01259671,0.12518442,0.14203818,0.015538941,0.10955065,-0.019110762,-0.12741534,0.100280344,-0.054075427,0.104791984,0.030983062,0.16324848,-0.110792145,-0.049006883,0.23908968,0.19499326,-0.11038628,0.52674234,0.20816685,0.15872867,0.25637954,-0.049351532,-0.07194494,-0.0376908,0.371889,0.22376506,0.46616963,-0.005682167,0.16916904,-0.09264405,-0.15104327,-0.12679687,-0.09522908,-0.047483012,0.037647832,0.12015146,0.03397083,0.0065258136,0.06254118,0.12485469,-0.09104086,-0.2850481,0.11123475,0.038632523,-0.05856986,-0.09384422,-0.08984215,0.08275233,0.0041590286,0.3076657,0.05233141,-0.13414763,-0.1601022,0.14503495,0.24337448,0.42454252,0.012717652,0.0075711575,-0.20375389,-0.090348035,0.1251133,0.12052124,0.09846917,-0.036525585,0.18891157,-0.009924544,0.27940843,-0.3291133,-0.16374162,-0.041541025,-0.22221787,-0.12892245,-0.1645608,0.17417665,0.10875221,-0.08114327,0.04624084,-0.09376216,-0.10887659,-0.13766047,-0.012040614,-0.2734134,0.10505393,-0.006882347,0.17384358,-0.16761358,-0.03931702,0.12510292,-0.06528258,0.0011707466,-0.019531287,-0.14803256,0.0004406445,0.10956982,0.3191552,0.20012867,0.009698247,0.18224819,-0.022839868,0.000910037,0.20579103,-0.062808536,-0.17030011,-0.1592572,0.1753144,-0.30941603,0.33726883,-0.19002365,-0.026507335,0.029621357,0.07033888,0.0869606,0.13627334
-0.109303005,0.12719578,0.076738946,-0.11039113,0.09932898,0.05620045,0.064386524,-0.14460322,0.03346608,0.045147628,-0.10762263,0.29233745,-0.14931843,-0.054037713,-0.10946713,0.11979875,-0.2371353,0.10255208,0.16098145,0.16095318,-0.15907277,-0.11607449,-0.17377882,-0.08799737,0.14198628,-0.10370007,0.14768267,0.14128456,0.037956245,-0.005045391,-0.13558063,-0.09341644,-0.035526693,0.044848394,-0.18853663,-0.21184321,0.10633375,0.19512892,0.11772077,0.09446557,-0.1268921,-0.05589522,-0.0044970685,0.13065787,0.039825127,0.14747956,-0.17157458,-0.13682923,-0.12589622,-0.2206263,-0.0947219,-0.19110063,-0.124238566,0.014682194,0.19176856,0.1360187,0.0029944438,-0.1311692,-0.045469865,-0.04845121,0.29238185,0.010241365,0.067901626,-0.12130524,-0.28242883,0.11777022,0.17639664,0.032770988,-0.12719141,0.06846858,0.10289974,0.11073666,-0.20112489,-0.05635831,0.07516131,-0.17064874,0.07821425,-0.16715918,0.018826528,-0.109052755,0.0510175,-0.08126258,0.15124317,-0.055499874,-0.027057458,0.10047825,0.14433165,0.10726936,0.037697658,-0.02984881,0.009765837,0.07284141,0.30848464,-0.010101277,-0.20899992,0.13792367,0.19624232,-0.14019501,0.15320584,-0.050426047,-0.18336146,-0.05952385,-0.42275503,0.13118084,0.015236552,0.10365261,0.0052478816,0.029205544,0.045385834,-0.06715903,-0.1281503,0.11695372,-0.14366676,-0.10600583,0.020744275,-0.041311264,0.15398647,0.17403577,0.08146238,-0.04389775,-0.10195243,0.041777287,0.1628222,0.080349565,-0.16485764,-0.050220344,-0.0632373,-0.06654419,-0.055620037,0.17607418,0.114433944,0.03195322,0.01629535,0.098297685,0.014630479,-0.10323154,-0.20488389,0.14586838,0.22152701,0.12746601,-0.04924877,0.03023028,-0.1595593,0.022649875,0.31227043,0.19368978,0.071062185,-0.3971921,0.023482766,0.17121732,-0.1220584,-0.00028092237,0.12515254,-0.16568813,-0.14935867,0.21149793,0.07491726,-0.03166921,0.18623215,-0.15848148
-0.004000376,-0.039309457,-0.006660433,-0.14400943,0.017084131,0.09271213,0.14587706,-0.14364278,-0.14602369,0.17236887,0.13861927,0.12845759,0.20023513,-0.15325584,0.0373182,0.14135846,0.14751896,0.014535897,-0.09827371,-0.004597936,-0.17220871,-0.059232354,0.14180844,-0.12571098,0.12299387,-0.08002095,-0.09803315,0.021787632,0.09258567,0.11331913,-0.16601282,-0.11624322,0.07062362,-0.16829275,-0.09180658,0.2235912,-0.16185667,0.033071935,0.15123293,-0.10796704,-0.1276144,0.08362871,-0.15369941,0.13447195,0.14038831,0.05799674,0.08899222,0.021450704,-0.052366536,-0.12172619,0.1580995,-0.023129128,-0.1773948,0.056867845,-0.043064166,0.024785118,-0.15122578,0.004970938,-0.15524113,-0.11047778,-0.08385816,0.1433211,-0.16103393,0.029946918,-0.008970007,0.098131716,-0.079433054,-0.038267136,0.04953447,-0.15779626,-0.05265714,-0.036035087,-0.11082634,0.031480685,-0.13376684,0.086236164,-0.170756,-0.044084255,0.03002681,-0.17759682,0.0054598916,0.22206978,-0.053601116,-0.103005245,0.17610973,0.11179076,0.046957385,-0.18674609,-0.16664003,0.01733849,0.12349167,0.066367574,0.06296886,-0.14931059,-0.08092061,-0.092008695,-0.15209489,0.04768153,0.11282695,0.003827192,-0.14701962,0.16886775,0.07967606,0.007213721,-0.072261505,-0.13419734,0.13017014,-0.15370253,-0.06574212,0.020989284,0.030067375,-0.046900302,0.17270483,-0.05607059,-0.022981748,0.12691899,-0.0807274,0.11573111,-0.10653624,0.013089436,-0.0061253556,0.020536052,0.0597462,0.12715,0.02185053,0.15885781,0.016481467,0.147041,0.06782533,-0.009217564,0.0013067342,0.082586266,0.17969558,0.09275812,0.04544974,0.17037155,-0.2273903,-0.030447785,0.10245752,-0.15628631,-0.006454865,-0.093474716,0.11492531,-0.044358984,0.049508687,0.030632958,-0.13510568,0.064071916,0.0675735,0.05278945,0.15486398,0.086288966,-0.16726072,-0.061351307,-0.0687804,0.1209191,0.15098268,0.15956324,0.1124629,0.10901239
-0.17075258,0.070941225,0.100929365,0.06322708,0.14133298,-0.087047316,0.02044134,0.06795507,-0.08155909,0.2240745,0.12156609,0.23231487,0.21144171,-0.06263943,-0.085653305,-0.11208221,-0.078761026,0.14082256,-0.16608195,-0.14153118,0.1540494,-0.1931705,-0.03232891,-0.12914154,0.1405952,-0.12431311,-0.11372561,-0.048135016,-0.060334537,0.1716342,-0.14261717,0.09430149,0.026611768,-0.022467444,-0.13241567,0.17269969,-0.026453454,-0.015944025,-0.057820786,-0.057426777,0.10357839,-0.115054786,-0.23027936,0.062699944,-0.095974274,0.03367692,-0.13352554,-0.065061875,0.15230909,0.19395165,0.11552361,-0.12579931,-0.08805981,0.040002305,-0.04784451,0.0036768303,0.10817218,-0.065307625,0.12017928,-0.04744328,-0.106763385,0.21171571,-0.08286236,-0.093234435,-0.06458211,0.0727518,0.04199863,-0.067231014,-0.100646526,0.15823764,-0.16667637,-0.05770724,0.032794517,-0.09804389,0.008211694,-0.048074782,0.18380803,-0.13694642,0.060260423,-0.08389202,-0.0011408177,0.052095763,0.1419148,-0.064552344,-0.08543773,0.13353413,0.14872289,0.020101098,-0.06331302,-0.020658482,0.030109856,-0.10899919,0.1282682,-0.11885373,0.13204508,0.16078879,0.006074765,-0.13050768,0.1312906,-0.0035152154,-0.051053997,-0.14311711,-0.10777093,-0.07199552,0.030894956,0.06288564,0.16755623,0.08927287,0.15305835,-0.13092166,0.05857307,-0.039037466,0.027329072,-0.14040385,0.12774211,0.20632921,0.062288426,-0.008787062,-0.04541889,0.12510286,-0.13684565,0.16879307,0.04419316,0.084635265,0.0066548656,0.17867102,0.077219576,-0.0036036468,0.04971182,0.16568767,0.07936995,0.03435346,0.06602492,-0.025035016,0.16962129,-0.024301138,-0.19366787,0.071396425,-0.009792478,0.15994865,0.09773468,0.17023546,-0.026700407,0.14381246,-0.016424436,-0.06506122,0.01181814,-0.20635694,0.07338878,-0.024459466,-0.030839587,0.20619102,0.10814027,0.07614854,0.11647484,-0.033459354,-0.05076463,0.14337231,-0.017253166,0.20001824
-0.10384394,0.045531265,0.048771214,0.15675968,-0.024751807,0.039987158,0.031093432,0.027194599,0.028272122,0.05991651,-0.04037856,0.11668497,0.13662598,-0.14794086,-0.1539136,0.116024405,0.05877355,-0.08909917,0.16409026,0.11409741,-0.093657345,0.02914191,-0.16893081,0.048403397,-0.1116763,0.113827,0.049207177,0.116542995,-0.04616478,0.04010898,-0.12678784,-0.07325377,0.029139603,0.051590264,-0.17174396,-0.046759956,-0.13945866,-0.096856944,0.14613843,-0.0018907127,-0.07806923,-0.041445155,-0.10451375,0.15975885,-0.07147384,0.04306287,-0.10852442,-0.082730226,-0.13573994,-0.12605922,-0.07920705,-0.08838348,-0.10562118,-0.15723093,-0.012687144,0.159201,-0.10383421,-0.11067003,-0.15527484,0.09310931,0.14611486,0.007256177,0.035610393,-0.1681555,0.10466059,-0.10861865,-0.06837119,0.03617591,-0.05360733,-0.029459491,-0.10068479,-0.17096117,0.054473445,0.011224757,0.14985892,0.15110178,-0.16506013,0.0115943,0.15133284,-0.07968549,-0.03480768,0.11888806,-0.09634353,0.02023003,-0.054119978,-0.11409772,-0.06335139,0.0021097583,0.025443995,-0.08920815,0.15584704,0.16084766,0.054036185,0.111199796,0.023255937,0.04695477,-0.058442675,-0.030283123,0.026720284,-0.026383072,0.13524416,0.113655224,-0.11772607,0.052472368,-0.13728216,0.07576574,-0.06564432,-0.09146102,-0.032928977,-0.00017686188,0.09821676,-0.09919469,-0.03571556,-0.15353455,-0.033514716,0.10143742,0.12244035,-0.07101166,-0.071284935,-0.10484693,-0.13765381,-0.007390088,-0.01289802,-0.04973942,0.14693505,-0.08502154,-0.10034478,0.051969215,-0.05095524,0.15153381,0.09694944,-0.065795735,-0.061315563,-0.11166646,0.08142417,0.11880036,0.111371666,-0.10306015,0.11398605,0.02612006,-0.12029739,-0.070545234,0.06660929,0.045690335,-0.10140322,0.06530744,0.07074003,0.023137571,-0.038158312,-0.07258117,-0.15114406,0.11351466,0.08832796,0.0541033,-0.13445431,0.10139995,-0.10478985,-0.14486466,-0.16617082,0.17037793
-0.029116152,0.14563055,-0.0041329516,-0.0001238481,0.10678661,0.05223951,-0.100331955,0.16155502,-0.0817654,0.27048692,0.08879747,0.213522,0.07106909,0.111600436,0.12347716,0.19348732,-0.08508591,0.08960327,-0.17507824,0.027173156,0.23995233,0.081164144,-0.047950916,0.11823108,0.29451823,-0.09967642,0.09485555,0.055674944,0.16097525,0.13649474,-0.042329904,0.04192632,-0.10452153,0.057222128,-0.12679425,-0.14273128,0.02895544,0.048281014,-0.05003176,0.16747053,-0.123230115,-0.1621617,-0.029856928,0.16192754,-0.020281019,0.17431064,-0.08849485,0.04904012,-0.016805941,0.22331375,0.25174382,-0.02230265,0.13290711,0.067413054,0.011215653,0.120191395,0.06123007,0.14539903,-0.17085288,0.15968491,0.033885807,0.070595525,-0.026860718,-0.015071527,0.07262619,0.007526795,-0.15641496,-0.06622719,-0.11356293,-0.0051720114,0.10471181,0.16508855,0.03001036,-0.20805533,0.13770032,0.0016378388,-0.11666612,-0.12696739,-0.13488968,-0.17114231,-0.14015563,0.040308125,-0.02605201,0.12483768,0.14196607,0.15942359,-0.11992116,-0.1034806,-0.016871,0.24291985,-0.05418293,0.028261937,0.4674012,0.17215914,0.20587617,0.155611,0.19662744,0.14289512,0.044879843,0.14429075,0.21989459,0.04189416,-0.2808904,-0.06701262,0.12883386,-0.083651796,0.1668864,0.32511714,-0.07168615,-0.14740427,0.09446115,-0.07640866,-0.16504629,-0.28350624,-0.027900793,0.23636125,0.08861332,0.17805248,0.059468392,0.050078638,-0.19366185,-0.104661606,-0.0701302,0.06936875,0.07930653,0.057693973,-0.10649903,0.05617657,-0.054134328,0.1484647,0.03942937,0.24970911,0.5092841,0.09686046,-0.19439529,-0.098609015,0.16106696,-0.039680786,0.062334344,0.10538258,0.14079171,-0.19590446,-0.28768706,0.1453602,0.2232587,-0.13179684,-0.009764453,0.08862796,-0.02348595,-0.08850014,-0.075860254,0.21070206,0.08741506,-0.16868831,0.0853397,0.18589999,0.043334465,0.11278509,0.16339684,0.2172819
0.14448129,-0.23380767,0.002627182,0.08309359,0.12736243,0.09726393,0.02577328,0.19884327,0.16156682,-0.21388716,0.08347201,-0.045141958,0.19081219,-0.010047202,-0.0005181932,0.056015,-0.14949723,-0.042936638,-0.016551247,-0.062243026,-0.041067567,0.1870231,0.036720358,-0.15019651,0.07460964,0.16872199,-0.0425951,0.24945416,0.018393362,0.058566615,-0.07002585,-0.057295173,0.027461471,-0.038565658,0.04884365,0.2261387,-0.08817603,0.26555526,0.20666313,0.040362444,-0.12323049,-0.17514594,-0.19406627,-0.20179495,0.043868408,-0.12307488,0.18732198,-0.08718814,-0.20510922,-0.041451227,0.52340436,-0.27314126,0.085813895,-0.04987156,-0.027484598,-0.073078506,0.15940243,-0.10490607,0.069953054,-0.103999175,0.11330102,0.5868176,0.25024948,-0.14902745,0.26276162,0.09852075,0.16101827,-0.093232065,-0.1778069,-0.031146362,0.201119,-0.19100343,-0.031030586,-0.029180761,-0.31334087,-0.22497632,0.038215917,-0.22509384,0.019730592,-0.11919192,0.019693442,0.037384547,0.061098427,0.13257568,0.15846224,0.07014495,0.0513249,-0.13801697,-0.08506951,-0.0360136,0.28069925,0.039095007,-0.050247062,0.14693709,0.29733068,-0.12918168,0.037081238,0.16988191,-0.16655754,0.001411858,0.4093081,0.26228678,0.43906966,-0.11643794,-0.08397824,-0.16643639,0.09966103,0.2640914,0.21731889,-0.08010377,-4.3183274e-05,0.17307091,-0.06164096,0.4546517,-0.11022066,-0.2249618,-0.068338186,-0.085345715,0.0033176765,-0.021635724,-0.045378458,-0.041357957,0.09671181,0.09420524,-0.16161998,-0.107452415,-0.07623491,0.021132821,-0.31878182,-0.1886378,0.28938144,-0.16161318,0.020478277,-0.19034533,0.31243706,-0.05120393,-0.28276253,-0.032424964,-0.21538942,0.075906605,0.15926969,0.22718129,0.54779553,-0.19038688,0.19976883,0.096152276,0.067446835,0.039815664,-0.06910591,0.005023703,0.21573518,-0.2694181,0.03326824,0.16903265,-0.28293526,-0.3645673,-0.077774495,-0.2339223,0.042333893,-0.14532319
0.07410669,0.08737011,-0.024180813,0.16048415,0.0939686,-0.0055153607,-0.10281616,0.054377653,0.16965653,-0.032353133,0.12594414,-0.012765671,0.08545503,0.23116244,0.007222062,-0.008450294,0.35291466,-0.056073934,0.101179585,0.088226475,-0.012269857,0.12336529,0.069803245,0.18996713,-0.012084526,0.20888536,-0.10074118,-0.31987423,-0.079934806,-0.14205766,0.08733545,0.055397525,0.21143372,-0.2053599,0.09747928,0.08558855,0.27191183,-0.120091416,-0.021832097,0.1919761,0.35838556,0.17835125,-0.16849501,0.31010735,0.15631093,0.05548594,0.05750749,0.02914614,0.18829551,0.20953634,-0.24898322,0.15300551,-0.016113237,0.04268472,-0.047009427,0.23662531,0.4154392,-0.028175276,-0.039276503,0.03931844,-0.18645282,-0.08584622,0.052662138,0.015094403,0.19556011,-0.15495245,0.028697565,0.08223777,-0.08507381,-0.05447653,0.031135911,0.14957377,0.21425143,0.08843868,0.14744033,0.04929748,-0.046661515,0.08799172,0.08891402,0.18234298,0.0951885,0.003959011,0.030849967,0.06594816,0.07962871,-0.17038025,0.04927864,-0.04697727,0.24533325,-0.0010709806,-0.27219793,0.03417107,0.29601482,-0.11639652,-0.138234,0.053738315,-0.06286795,0.018675923,-0.12764645,0.024021022,-0.040167544,-0.09882591,-0.02583365,0.1465146,-0.23079078,-0.23095892,-0.16517486,0.05399942,0.19963315,0.11757333,0.02496731,0.17972115,-0.09278029,0.05080409,-0.16451226,0.0796046,0.04355331,0.044641577,0.05508466,0.05683227,0.20925008,0.018089583,-0.0745477,0.24274978,-0.05301667,0.0061500887,0.10453262,0.18900101,-0.08484872,0.07447058,-0.0116376635,0.18255323,-0.19073509,-0.044397354,-0.3035279,-0.009818298,-0.05029658,-0.08455936,0.10914455,-0.050615713,-0.07217903,0.15441175,0.080842644,-0.06344055,-0.15511122,0.12345276,0.073944286,-0.16831395,0.15710855,0.120126665,0.08615764,0.23151353,0.036838382,-0.07739734,-0.018348888,0.12711473,0.055597126,-0.075297356,0.012620367,0.035150103
0.017165001,0.08754824,-0.032837287,0.070903264,-0.039335243,0.16079906,0.0063571422,0.055499002,-0.07436804,0.038437415,-0.16422814,0.3270547,0.0036296975,-0.009849474,-0.2741522,-0.07813826,0.14834972,-0.15536559,0.11175041,-0.051347885,-0.11869999,0.09495766,-0.36029714,0.14740908,-0.13499312,0.16607466,-0.014310821,-0.05062215,0.1532063,-0.06279056,-0.09429855,-0.036745097,0.05457229,0.082074404,-0.020522544,-0.035323523,-0.1181632,-0.058805604,0.04067651,0.1772921,0.003984208,-0.026974052,0.09019018,0.04655085,0.1570159,0.22452733,0.05951683,-0.119577825,-0.06323564,0.0034701847,-0.13591534,0.06241871,-0.18027373,-0.021840777,0.1339819,0.21812858,0.21307077,0.07201204,0.0076343794,0.093947664,-0.07933933,0.17651413,0.17574364,-0.086462274,-0.12340349,-0.027073277,0.14035806,-0.41072983,-0.0010911137,0.0033884011,-0.06740374,0.2653379,0.17531659,-0.17014985,0.09066099,-0.21419455,-0.023909375,-0.16936976,-0.08802774,0.18989286,0.016080344,0.15801576,0.20850399,-0.16623996,0.11555806,0.03607272,0.15075153,0.009628783,0.20208551,0.37691578,0.042115714,0.10445349,0.08404931,0.17257623,-0.44556254,-0.13403666,0.25585207,-0.14407544,0.073942736,-0.022446003,-0.12746996,0.007433951,-0.32226643,-0.06022268,-0.13176078,0.055177063,-0.01128801,0.012751686,0.050723664,0.16583274,0.015415111,0.13516618,0.0075215576,-0.1143454,-0.13522463,0.17867866,0.0989714,0.11158531,0.08802412,0.123286314,0.020459583,0.08969806,0.18473409,0.11274961,0.16344962,0.086279124,0.021613417,0.19824877,0.0545203,0.052506298,0.11820304,0.29047614,-0.033497084,-0.03790645,-0.0887142,-0.05642917,-0.15738632,0.0032614067,-0.15259804,-0.16154619,0.0055725067,0.52124316,-0.00518432,0.1013381,-0.079143584,0.22964592,-0.075155504,-0.2467774,-0.0068096095,-0.09815216,0.2041752,0.037168372,-0.14599213,-0.035445962,-0.11620411,-0.04695337,0.18064794,-0.14275968,0.08015602,0.06612787
-0.07586459,-0.0750687,-0.1316498,0.08830889,0.16364697,-0.10834479,-0.11374262,-0.06702595,0.11187942,-0.13350254,-0.05201848,-0.1396483,0.07297344,-0.02296233,-0.057852574,-0.03968866,0.1336414,0.09863264,-0.04893065,0.16133483,-0.07575983,0.025530633,0.21935663,-0.049863428,-0.072714455,0.007917613,0.11734581,0.14613818,-0.118777856,-0.054516666,0.11591238,-0.031050298,-0.13248378,0.16252288,0.13197157,-0.0291428,-0.10264158,0.058710724,0.018989481,0.05074191,-0.041120585,0.046883732,0.08990932,0.13089392,0.05767076,-0.057789564,0.019328158,-0.18446025,0.13714206,0.128644,0.06576757,0.12513505,-0.11769949,-0.0020636157,0.15760112,0.03922359,0.019803759,0.02605719,-0.116754115,-0.023207996,0.13530436,0.20020428,0.06981016,0.04940179,-0.0623311,-0.016202865,-0.10008893,0.028095806,0.022697594,-0.05923044,0.1562054,0.10358126,-0.10997255,0.05983125,-0.049712375,-0.10107419,-0.16916241,-0.10192597,0.13600667,0.10500803,0.11942637,0.033049088,-0.027746823,0.13483573,-0.06397501,-0.03160328,-0.09747878,0.14970253,-0.07359586,0.07747715,-0.006763557,0.16207373,-0.124398775,-0.065893315,0.025029272,-0.14802048,0.14421396,0.06682307,0.010906239,0.07340223,0.11156039,0.007900677,0.41293156,0.09487884,0.10307951,0.11230515,-0.110978425,0.1179621,0.11645709,-0.15811601,-0.07986362,0.23810025,-0.11419847,0.33113182,-0.10203385,-0.027304683,0.022347128,-0.19172966,-0.13345516,0.04149357,0.16169566,-0.06955299,0.023810102,-0.046731643,-0.14370716,0.036998834,-0.15115502,-0.13755943,-0.05509048,0.15736285,0.03564816,-0.024140723,0.12397666,-0.030045224,0.0071279444,-0.09838351,-0.00018439829,-0.13038383,-0.13658278,0.14476436,0.113174416,-0.024672559,-0.03547092,0.102054596,0.2359263,0.007107931,0.1675982,0.092881665,-0.06585132,-0.09118504,-0.034599736,-0.0844857,-0.15626003,0.16670072,-0.08545733,-0.15112714,0.09909818,-0.07243555,-0.13781774,0.15058406
0.07773821,0.14020972,0.16989735,0.029180795,0.17348889,-0.058311805,-0.06160839,0.124649525,-0.083262585,-0.038637456,0.0040069553,-0.14740464,-0.06670859,0.0016598763,-0.14528523,-0.051554002,0.014105233,0.0051153717,-0.047259573,-0.1595585,-0.03960265,0.12674838,0.122387454,0.13111368,0.2132623,-0.2089506,-0.16486077,-0.060954034,-0.07611694,0.097629085,-0.10424536,0.17281641,0.010547365,0.12604144,0.059752554,-0.12111732,0.12875272,0.10388334,0.15048993,0.032547675,-0.043975655,-0.02690863,-0.10034607,0.18914773,-0.03223819,0.06623357,-0.13744684,0.034572545,-0.17303704,0.08658025,-0.18222597,0.17372541,0.01098713,-0.0026815617,-0.0013838955,0.08708123,-0.00188865,-0.07125006,-0.091629714,0.025182376,-0.11842892,-0.07204692,0.15977839,-0.14144199,0.12228575,-0.15100056,0.018020384,0.062261496,0.088714875,-0.05391897,-0.030520864,0.12210924,0.006141136,0.036045562,-0.14250141,0.17994113,-0.05170279,-0.14844309,0.05285976,-0.011017544,0.18077071,0.21580033,-0.017136276,-0.03037344,0.066904716,-0.13322309,-0.018809898,-0.0761785,0.0044521196,-0.078699656,-0.048146497,-0.0068236683,0.3309472,0.12823042,0.07941355,-0.082856886,-0.052232396,-0.06169988,-0.08408005,-0.09304763,0.22326021,0.24543466,0.05165682,-0.0005275647,0.28891677,0.094310775,0.109552816,0.14059316,0.09944581,-0.1581351,0.12127538,-0.03280176,-0.060339842,-0.20529139,-0.08567893,0.040673353,-0.031008804,0.23481674,0.11365915,0.23790745,-0.08400888,0.1528715,0.12201769,-0.03274445,-0.09639414,-0.104953535,-0.11198299,0.09095515,-0.040767834,0.08205086,-0.061035734,0.034301534,0.17198029,-0.04318049,0.0025221824,0.083902396,0.21315026,-0.024658173,-0.1729422,-0.13122818,-0.09142539,0.16822152,0.023016362,0.17209211,0.2445864,0.101741195,-0.2180414,0.07062445,0.08394427,-0.14869429,-0.17282143,0.1222486,0.13036999,-0.119988576,0.046108562,0.30996802,0.10273076,0.12387941,-0.1222446,0.07153216
-0.08673885,0.018257232,0.07782421,0.02892916,0.040890567,0.12138457,0.09874207,0.04056481,0.09162726,-0.0631481,-0.014461007,-0.13466439,-0.063976206,0.12728454,-0.14698328,-0.1634008,0.15857114,0.11957564,-0.12649049,-0.07509188,-0.031218093,-0.031669427,-0.09181019,-0.17191485,0.032287538,-0.14454654,0.1088873,0.14048769,0.076611534,0.016872214,0.09675187,0.058945805,-0.07229065,-0.019063793,0.09039498,-0.055281498,-0.012018199,-0.05637717,-0.07258344,0.06158637,0.13613541,0.1193982,0.10483301,-0.17868772,-0.015408119,-0.10861991,0.13519448,-0.16198054,0.05735192,0.062647365,0.15542208,-0.07059779,-0.012954734,-0.029074963,-0.13007817,-0.12890267,-0.027578792,-0.1215652,0.08043706,0.14629509,-0.07770182,-0.1234512,0.034165833,-0.106568776,-0.15624958,0.04828658,-0.042562116,0.10049809,-0.1535567,0.118651316,-0.08404618,0.009370214,0.08353676,0.011599959,-0.098737314,-0.13754696,0.13570532,-0.050361652,0.1403087,0.056225743,-0.08321733,0.12859075,-0.07724642,-0.029913126,0.066949144,-0.06543871,0.1353142,0.0125949895,-0.08728376,0.1033357,-0.12740162,0.04277699,-0.10596264,-0.03564461,-0.16664565,0.10367451,-0.16297464,-0.0730942,0.08974005,0.044340737,0.05593249,0.09602484,0.03486454,0.05720381,0.031206239,-0.067242905,-0.12121341,0.10346028,0.15154006,0.10000869,0.0964971,-0.07521906,0.068847515,0.036938276,0.141362,0.057178587,0.14964524,-0.06804457,-0.16291068,0.034508917,0.029704973,-0.075964704,-0.13578431,0.0833275,0.09563108,-0.00039176064,-0.07557971,0.07161045,-0.03824016,-0.0900448,0.07134307,0.08836069,-0.049303055,0.122716054,-0.08337532,-0.16833559,-0.17243172,0.08025961,0.0037075512,-0.058743563,-0.13214678,-0.14765008,-0.05202165,-0.06821713,0.12962261,-0.1746976,-0.09863454,-0.10153603,0.04322791,-0.12877408,-0.033729635,-0.107721984,0.12121651,-0.102825925,-0.00025026573,-0.07899282,0.07462343,0.16008405,-0.13318397,0.16661341
0.055003405,0.111012936,0.012708233,0.22673637,-0.043181475,0.102549255,-0.09986236,0.1750066,0.011666511,-0.061053604,0.0062142997,0.15842482,-0.07818936,0.020589655,0.028547212,0.11476458,0.008343352,-0.022639807,-0.13816002,-0.11237782,0.032304373,0.54072505,0.022104362,0.089385584,-0.09710973,0.13566326,-0.10776463,0.15483433,0.010657603,-0.16366787,-0.15270433,0.08466367,-0.18280585,0.028054532,0.11569347,-0.16610575,-0.021420507,0.15523963,0.025804428,-0.12189393,-0.14754024,-0.012004876,-0.13942435,0.045109894,0.16722657,-0.062399417,0.10591839,-0.012902745,0.15186124,0.21109165,0.266362,-0.05063495,-0.19634767,0.1531983,0.26252124,0.090030916,0.12620743,-0.1554443,0.05517457,0.06963975,0.31208366,0.33363673,-0.112957485,0.0711916,-0.0809973,-0.1304673,-0.15084259,0.016955636,-0.020739937,-0.03336198,-0.13175322,0.0055193976,0.014636882,-0.18587139,0.05866558,-0.07106368,-0.16759029,0.025327649,0.06512601,-0.12627317,0.098601036,-0.0031685303,0.15818161,-0.07821778,0.039840024,0.07498012,0.13760245,0.1578063,-0.081075415,-0.056764223,0.13512282,0.08896021,0.38919264,-0.06286964,0.24850938,-0.026543524,-0.0014715334,0.10675174,-0.11199678,0.14184533,0.25506485,0.45474246,0.08682117,0.047461785,-0.09299237,-0.024834473,0.1320218,0.30184892,0.14576657,0.11635615,0.055471495,0.14929837,-0.1791517,0.013111443,-0.042963956,0.083712436,-0.08187771,-0.18033408,-0.21885215,0.17368941,-0.034888193,-0.020492135,0.1503824,-0.047005523,-0.023222711,-0.06667583,0.057890877,-0.14804286,0.07793877,0.33863378,-0.13040417,0.066192485,0.24182127,0.033594072,0.0057447026,-0.16554372,-0.045760054,-0.07181531,-0.19054964,-0.07251262,0.10374009,0.2508705,-0.0039401767,0.023242258,0.49721703,0.09453126,-0.19818847,-0.030031493,0.13615336,-0.13482223,-0.12439892,0.2946722,0.0895656,-0.0825496,-0.061124083,0.004909006,-0.13971506,0.08342085,0.12886053,-0.04644965
0.20880176,0.18018617,-0.07628166,0.10491837,-0.046521302,-0.09619049,-0.042390298,-0.13778663,0.06642642,0.23550351,-0.02525934,-0.1283781,0.18168993,-0.03069742,0.061706442,-0.108105436,-0.06361365,-0.1555943,-0.0026554705,0.13287306,0.20160986,0.24402174,-0.09857543,-0.12180366,-0.029586231,-0.19894387,-0.11017913,0.20467833,0.047717635,0.046099573,-0.0012439075,0.2813512,0.03628287,-0.058245547,0.14144264,-0.10155934,0.1042763,-0.16469723,0.021636,-0.017421963,0.13879974,0.014961326,0.082959056,0.20304026,-0.06704843,0.039522417,-0.046987157,0.19552098,0.08655143,0.11534916,-0.08249609,0.2793371,0.20279913,-0.041581113,0.016155805,0.087629125,-0.056078777,-0.1527686,0.07738738,0.15551925,0.028413266,0.14235163,-0.07066638,-0.08736204,0.21160533,-0.06611109,-0.018439064,0.13231252,0.069105946,-0.050244335,0.087766856,0.013244832,-0.1460014,-0.06378142,0.05913658,-0.052023675,0.10138048,0.20244528,0.001309765,-0.021585554,-0.023400152,0.12690994,-0.02764676,-0.07490882,-0.014482312,-0.030674454,0.0797118,0.09952237,0.13149565,0.25437135,0.15108833,0.20844378,0.3283513,0.1692804,0.37214115,-0.01976585,0.14202788,-0.04130337,-0.035992324,0.03255205,0.29906714,0.0062477244,0.10105301,-0.100377835,0.15463084,0.12919742,-0.04850557,0.2314938,0.10749011,0.05235258,-0.04264054,0.20034412,-0.0690423,-0.059065796,0.0032234914,0.0011201479,-0.032052808,0.040916085,0.08014486,-0.02363056,-0.066623226,-0.042707466,0.1144027,0.037100364,-0.09396156,0.111837804,-0.008198095,0.07381373,-0.10964511,0.19321033,-0.083488956,0.30427703,0.2019368,0.0492133,0.022457784,0.16262242,-0.06731776,-0.02862166,0.21192604,0.03559528,0.096614026,0.03718912,0.057568654,0.16017348,0.20432056,0.11508895,-0.08131045,0.08673018,0.021309312,0.054075345,-0.1544787,0.18095912,0.014678674,-0.037527125,0.09462607,0.109856196,-0.057532948,0.083155595,0.15082203,0.058957487
-0.009298548,0.13454878,-0.104959995,-0.099346474,-0.14605874,0.08469939,0.046679467,-0.04794328,0.102606535,-0.08290029,-0.13068876,0.17185539,0.10336241,-0.079787984,0.11534113,-0.08090172,0.10281354,0.09514287,-0.020474166,-0.031424373,0.07921752,0.12609035,-0.17185444,-0.047111884,0.07943863,-0.045842588,0.13590884,0.08463237,0.010879904,-0.054699726,-0.087610684,0.03455563,0.011229888,-0.006431207,-0.06787148,0.08131826,0.0024745762,0.02613172,-0.09603175,0.09464249,-0.047836438,-0.100939736,-0.024915159,0.09595129,0.15555543,-0.054290116,-0.08864851,0.14795294,0.012849331,-0.0037437975,0.17308131,0.0048742443,0.13652614,0.07332787,-0.054705672,0.056224927,-0.023562938,-0.13633403,-0.16885053,-0.11819559,0.06441672,-0.048429318,-0.010088727,-0.043554083,-0.14489442,-0.09676201,0.09472686,-0.066058785,-0.018654943,0.015241072,-0.07516791,-0.01571402,0.066549584,0.042671144,-0.15551934,-0.17190167,-0.14316353,-0.07548035,0.049947217,-0.089748375,0.08437458,-0.026298374,-0.0055615753,-0.1705775,-0.0077043027,-0.07404204,-0.14221811,-0.07592209,0.053807616,-0.16173625,0.0626435,-0.09101197,-0.1265168,0.017316699,-0.0029466748,0.0973489,-0.07532293,0.13302958,-0.16015774,-0.10119766,0.037943825,-0.06787078,-0.04546015,0.005593404,0.06202221,0.043524176,-0.029290274,0.11063522,-0.0023448318,-0.02546975,-0.16915232,0.079683304,-0.10238511,-0.028903827,-0.041135117,0.08336404,-0.11508772,-0.032588273,-0.0926784,-0.035199836,-0.110220894,-0.0054892153,-0.159086,-0.16608733,-0.07029733,0.11075699,0.03922452,-0.057994843,-0.105591446,0.13946256,-0.030999064,0.08870265,-0.032426074,0.025875598,-0.14499043,-0.0083027035,0.16723076,0.03619021,-0.14288342,-0.04889509,0.16690618,0.03662981,0.08231315,0.14011887,0.14562985,0.08872607,0.07069525,-0.08534712,-0.12759887,-0.05014427,-0.09892382,-0.08936953,0.059622988,-0.10055903,-0.03625509,0.061189577,-0.15414205,-0.08403079,0.14082208,-0.13341258
-0.06009639,0.16446951,-0.10032529,-0.13330248,0.08815285,0.104540534,-0.057250135,0.016106494,-0.06990539,0.22101048,-0.1300607,-0.064598724,0.11245422,0.14482743,-0.14181802,-0.03572165,0.092438966,0.07369393,-0.12355047,-0.026870672,0.0053688325,-0.17091976,0.058127437,-0.014663825,0.13908452,0.03772873,-0.043958507,0.015773656,0.0006490375,0.09660706,-0.105631046,-0.093376294,0.13308416,-0.047587026,0.0662316,-0.064445,0.06426903,-0.085015744,-0.128476,-0.10898826,-0.15146498,-0.12134368,0.06583361,-0.007604885,-0.01469549,-0.04351848,0.12378583,-0.114120625,0.13737997,-0.1797538,-0.12026903,-0.021645546,-0.13163881,-0.07925178,-0.012527829,-0.06693029,0.15718748,0.09404827,-0.058872513,0.017778905,-0.049134027,-0.037556905,-0.05762881,0.052122876,-0.04282501,-0.18003067,0.09179836,0.094487354,-0.015356598,-0.14098936,-0.086214855,0.07956881,-0.120855376,-0.020502806,0.032818403,0.07267098,-0.030787323,-0.13360581,-0.072497174,-0.017428111,0.14368539,0.22989549,0.19099033,0.14127083,-0.15398392,0.033779748,-0.058125954,0.16516788,-0.029309673,-0.12534787,-0.10211952,0.14890724,0.13699389,-0.08643302,0.03172749,-0.07609457,-0.11740114,-0.13583899,-0.05037703,-0.0016198904,0.08887069,-0.063786164,0.0014078828,0.11995308,0.07887594,0.001822966,0.040330317,-0.12124169,0.16801104,-0.15092778,-0.0021806955,-0.04538439,-0.024033822,-0.15330283,-0.1530034,0.19342084,0.1825949,-0.1667107,0.18906423,-0.009126871,0.17025878,0.018698318,0.0900696,0.17644821,0.1104696,-0.08358089,-0.13713452,-0.100261,-0.10067471,-0.01246299,-0.008679329,-0.11003692,0.22193487,0.075949386,0.12942643,0.17308772,0.07456748,0.015649678,0.069053546,0.14565524,-0.009889305,-0.18947881,-0.1596226,0.046805225,0.09790418,-0.06372206,-0.12959017,-0.11733322,-0.06708023,0.014224082,0.0072480063,0.07017982,-0.046984676,-0.19688845,0.13846838,-0.12754649,0.0090257665,0.069969766,0.18951729,0.14555065
-0.061889704,0.010100019,-0.042423725,-0.058598474,-0.0944462,-0.05035272,0.095946096,0.10372634,-0.054767206,0.07151885,-0.06530923,-0.28611177,0.2041711,0.07648639,-0.13503887,-0.029428411,-0.07522985,-0.071762964,-0.09689997,0.16614363,-0.08103197,0.6063754,-0.016952006,0.052078456,0.29358584,0.17962106,0.1397168,0.18364052,-0.03997683,0.070336826,0.19208972,0.20021838,-0.06243552,0.107241035,-0.16413024,-0.056485593,-0.0006895844,-0.0592354,0.16192575,0.10719926,0.21429005,0.012382567,-0.053753205,0.08557178,0.028142698,-0.08208736,0.07761387,0.0833316,-0.06294124,0.31428838,-0.5305906,0.46115556,-0.02239357,0.11457676,0.17283945,-0.06394094,0.3329135,0.09952884,0.21787322,-0.009008233,0.26566207,-0.33079526,-0.25779742,0.12348641,0.39893085,-0.09767435,0.23777732,0.17000856,-0.04866707,-0.1275091,-0.053868696,0.082199216,0.005178237,-0.061869472,-0.03312438,0.0421773,0.15107454,-0.012130014,-0.04219319,0.4118509,-0.085095815,0.13538603,0.120128326,0.16930908,-0.09194303,-0.13761829,0.068336636,-0.041262347,-0.023558289,-0.045149427,-0.16989718,0.11731842,0.47493234,-0.15734437,-0.08766663,0.17418265,0.19452399,0.1446414,0.11630659,0.14897105,0.063937694,0.19728144,-0.21810961,0.042763844,0.26875558,0.12717408,-0.0436537,0.20642692,0.07512805,0.15786923,0.13822417,0.15319034,0.040140092,-0.27563795,0.14639744,0.04281953,0.050181072,0.014072955,0.12888749,0.09244616,0.058392845,0.07939038,-0.060879342,-0.014462199,0.07217907,-0.12855214,0.10846015,0.03560304,0.00030298528,0.5330112,-0.39752826,0.23048507,0.22847828,-0.12056921,-0.12515573,-0.03893371,0.078413695,-0.024638804,-0.063332096,0.13529325,0.13617639,0.19436967,-0.16926378,-0.027009228,0.30879942,0.14563276,-0.10983639,-0.1332022,-0.018189432,0.11735634,0.12092933,0.20038989,-0.2341164,-0.278489,-0.1740524,0.22145441,0.048393443,0.16933139,0.022135548,0.2324049
0.27035964,0.087138034,0.18804283,0.03256045,0.18875532,0.12336412,0.10784756,0.23914768,-0.030769462,0.0044255015,0.07131827,0.101251505,-0.008687245,0.12326626,0.012088491,-0.09303197,-0.18984227,0.12298697,-0.02466694,-0.15138854,-0.20503509,0.5959294,0.07507828,-0.11162374,0.24797618,0.15181439,0.15660684,0.14229803,-0.08694489,0.06908845,0.11202143,0.11425009,0.069463976,0.078821875,-0.031036098,0.05705241,-0.035401516,0.26531854,0.07305988,-0.10833479,0.04311594,0.020719938,0.17562471,0.12632975,0.04590496,-0.09339936,-0.0016510532,-0.101405516,-0.10212771,0.26293576,-0.20783345,-0.0026311374,0.13224903,-0.06332929,0.20993444,-0.024418622,0.09607973,-0.020341164,0.027648494,0.13520734,0.12426986,0.102750994,-0.22898594,-0.09963891,0.20612036,-0.17578392,0.1842353,-0.06859962,0.023038808,-0.13807331,0.10652507,0.21689644,0.12901883,0.082895935,0.07452795,0.2430608,-0.105161294,0.16854554,0.18745841,0.2919805,0.15878072,-0.09811767,-0.005543866,0.24000007,0.072078854,-0.12576483,-0.023590738,0.1160317,-0.0011131943,0.08297019,-0.085129544,0.0100674415,-0.021298194,0.060080286,0.09543946,0.21113144,0.061320983,-0.10993634,0.08315414,-0.060309205,0.1950567,0.34454343,0.07175614,0.1346198,0.06733346,-0.0075938385,-0.015167795,0.15507165,0.10632865,0.025318958,-0.07927833,0.225909,0.17694099,-0.2497798,-0.1236019,0.19326602,-0.13290973,-0.13303028,0.015688963,0.005589903,0.1971512,-0.002049743,-0.049173962,-0.0004966122,0.06337732,0.04006718,-0.023438582,-0.11561619,0.028412392,0.15144572,-0.14351685,-0.15923937,0.28885093,0.19925636,0.20895527,-0.0937749,0.06483241,0.009100085,0.13865508,-0.06363327,0.01876711,-0.0056875832,-0.20091146,-0.077453986,0.04492266,0.19868866,0.16774195,-0.0678836,-0.019808922,-0.0498194,0.034404762,0.123370394,-0.016019756,-0.28149873,-0.02066468,0.21108614,-0.22322793,0.13028884,0.2940865,0.00787656
0.033838477,-0.05824629,-0.19499287,0.099258535,-0.16383235,-0.11054041,0.10117083,-0.0009085339,0.002957695,-0.10591977,0.076099075,0.012373896,-0.102617644,0.021051511,-0.19223553,0.045713995,-0.024516137,-0.123021014,-0.16053085,-0.097568356,0.0025495272,0.39653477,0.14535233,-0.06352011,-0.09697649,-0.015207524,0.05404471,0.17189008,0.042155534,0.14506657,-0.12249068,0.17482115,-0.042965803,-0.01997125,0.14493087,0.036468707,0.120872706,-0.0276869,-0.0459093,-0.17008379,0.09374805,-0.12233228,0.006282638,0.046054773,-0.12913221,-0.06364935,0.10714795,0.16161703,0.13332139,0.1390292,0.11134388,-0.07001202,-0.07912637,-0.03221137,0.061997846,-0.03789059,-0.13161348,0.15184516,-0.057107884,0.0016867266,0.09574385,0.17273596,0.058750868,-0.020557137,0.022830512,0.20122297,0.22091001,0.048047043,-0.08244022,0.14898224,0.015869914,-0.113571696,0.08264771,0.10862515,-0.122592896,-0.15289654,-0.016168838,-0.15920034,-0.14598635,-0.04874609,0.009667888,0.13651712,0.20506102,0.059205696,-0.17031339,0.14910251,0.023850618,0.16957766,0.10540719,-0.022010705,0.011854103,-0.010209069,0.25766593,0.18971701,-0.021196485,-0.106815875,-0.035542343,0.07647652,-0.07955762,-0.019235024,0.07409959,0.104098916,0.077645406,-0.15850012,0.13345893,0.0604539,-0.10238309,-0.03810405,0.09673814,-0.15245423,-0.07495542,0.1266551,0.042544797,-0.09951355,-0.074772105,0.20075439,-0.16420728,-0.12257261,-0.1532942,0.138294,-0.16353862,-0.04704379,-0.015280669,0.20653272,-0.17246154,0.033348788,0.024768554,0.09383143,0.14655676,-0.07283111,0.25543922,0.15030369,-0.019768413,0.17389174,0.05660255,-0.08261571,0.14972381,0.0008866446,0.08885016,0.15798508,0.078805804,-0.0016640383,0.097716756,0.050322454,0.20952804,-0.11611677,0.06881293,0.09583021,0.11690251,0.0434531,-0.036018588,0.096702985,-0.08461504,0.29367143,-0.1408474,0.1703114,0.05586611,0.0824951,0.09300886,0.08607061
-0.007208146,0.029936858,-0.13622525,-0.043690417,0.035203908,0.05119859,-0.13612145,-0.053109724,-0.013840381,0.017562777,0.45915538,-0.18090366,0.10499445,-0.09895005,-0.013341947,0.15425117,0.13022642,0.095805936,-0.21118212,0.13060303,0.07526252,0.508732,0.12829867,-0.1403081,0.22996287,0.11626674,0.0316552,0.120968476,-0.07059076,0.09221633,0.14409256,0.09454543,0.14667074,-0.04759658,0.15853977,-0.092594564,0.23195748,-0.13969813,0.12610735,0.2280901,-0.012663164,0.043420352,0.017577026,0.022458827,0.14151584,-0.11517211,-0.06371996,0.030118963,0.0618412,0.13682035,-0.27728316,0.2058772,0.19741426,0.14210175,0.10091895,-0.08173824,0.14813876,-0.08868334,0.19325687,-0.068743795,0.18830198,0.11364777,0.099077284,-0.016597342,0.3659633,0.14514394,0.040794052,0.22127081,0.023388477,-0.052215204,0.10925481,0.1747058,0.25915208,0.26665276,0.24970198,0.25316155,-0.11673224,0.0089405235,0.16251451,0.1794548,0.015791602,0.1614696,0.044277158,-0.12736194,0.097372435,-0.17297561,0.100962184,0.18437119,-0.07123671,0.06830737,0.008976793,0.22433844,0.169013,0.11970151,0.09827947,0.02591758,0.12927096,-0.1160584,0.050994545,-0.12975645,0.058577288,0.2450747,0.1771993,-0.11722043,0.029787304,-0.10589852,0.08361338,0.31328166,0.096282706,0.045192413,-0.15146163,-0.035336524,-0.034256488,0.13429824,-0.04229985,0.13308954,-0.06500844,-0.002547673,-0.07540015,0.05326658,0.027053706,0.18970175,0.01095064,-0.06591204,-0.2016255,-0.12033908,0.15402885,0.20364435,-0.13899858,0.14744107,-0.068977274,0.31874782,0.10981216,-0.003602345,0.21976599,0.07015873,0.2443289,-0.15103078,0.121602386,0.11172143,0.16939485,0.45652404,-0.1936663,-0.1610146,0.1986684,0.10551426,0.14297321,0.41333497,-0.15592054,0.08636187,-0.10196526,0.3945343,-0.05156402,-0.022212626,-0.029350648,0.29288706,-0.016386298,0.06709955,-0.12085037,0.2550369
