-0.018669933,-0.054161113,0.028904106,0.14121716,0.13440351,-0.081679404,-0.0850096,-0.13014662,-0.15021226,-0.02178793,0.10781383,0.085017145,-0.02823399,-0.14834705,0.16389261,0.054676045,-0.047141936,-0.16948107,0.100726634,0.10016926,-0.06318339,0.019210814,0.006245467,0.02903159,-0.051466383,-0.049372535,0.15630001,0.14595434,0.015508413,0.03306829,-0.00047825967,-0.035459917,0.009764508,0.16723013,0.03728599,-0.14520526,0.07681787,-0.05340907,-0.05178704,0.017475687,0.15270975,-0.14731872,0.11883205,-0.086160585,0.12546337,0.0596289,-0.15540887,-0.029887855,-0.0070996745,0.011705865,-0.07668099,-0.04908642,-0.15620516,-0.06373529,0.031632498,-0.0965463,-0.089234985,0.069205485,-0.043897122,0.030974185,0.083979316,-0.11866339,-0.11640157,0.11719769,0.10508611,0.08505963,0.15119353,0.13583864,0.14548576,-0.051297568,0.057507917,-0.06025388,0.06433255,-0.10351705,-0.10364113,-0.073508434,-0.057137452,0.1368222,0.10567285,-0.08820241,0.09057897,-0.16272138,0.114801235,-0.08017781,-0.086945206,0.15417641,0.15248218,-0.05872032,0.11068163,0.16664062,0.07138339,0.027565338,-0.013026476,-0.09835568,0.026380684,0.14239477,0.15570842,-0.0056144996,0.01801579,-0.10628161,0.16052642,-0.064146996,-0.11485361,-0.06334098,0.119641334,-0.037600942,0.14069058,-0.14613515,0.13811824,0.12906805,0.16151327,-0.033538457,0.0782316,0.008718655,-0.15910181,0.15270548,0.052723087,-0.13740063,-0.02655293,-0.06368381,-0.15303521,0.043483313,0.046508808,-0.13073125,0.10793618,-0.15096757,-0.008106761,-0.09524255,0.051265378,-0.02132524,0.13380104,0.010235106,-0.10530597,-0.14885153,0.1112133,-0.043502767,-0.07601341,-0.005005893,-0.17130189,-0.03160208,-0.12011785,-0.039038684,-0.13068083,0.07841891,-0.06447462,0.13542609,-0.05160137,0.07829848,-0.120191894,-0.05403074,0.013050252,-0.10165415,-0.15091603,0.16871056,-0.15803039,-0.025776431,-0.04500628,0.04667414,0.1547828,-0.02687745
0.117839545,-0.09439636,0.15250868,-0.16001545,0.037610244,0.12830092,-0.0373794,0.039848655,0.16204406,0.04557807,-0.15513471,-0.12215662,0.03831312,-0.14132518,-0.12965739,-0.15892752,0.09189754,0.10104705,0.14434846,-0.12698881,-0.01997576,-0.12508047,0.04622612,0.10345957,-0.13795416,0.08266477,-0.018898645,-0.12555526,-0.08592794,0.07626289,-0.0003468859,-0.15922646,0.024350405,-0.029633814,0.15699327,-0.047409378,0.15898134,0.12503526,-0.03325516,0.15965955,-0.06331661,0.17172346,-0.043330714,0.10276182,0.14166719,0.005523843,0.08736065,-0.119184166,-0.16034763,-0.06669248,0.057781305,-0.11171843,-0.16921347,0.12588349,-0.019258603,0.14031377,0.009594143,-0.15564086,0.15086707,0.007476267,-0.14922547,-0.07717333,-0.043270122,0.13149199,-0.09019659,0.06002955,0.009867713,-0.09642845,0.10470778,0.12404081,-0.1241018,-0.112275235,0.058526978,-0.07170243,-0.090684295,0.10238528,0.037121013,-0.14719662,0.052139834,0.02110778,0.08193308,-0.107913785,0.08985238,-0.14289667,-0.033511896,-0.042494413,0.012392551,-0.0007184148,-0.17111994,0.057148665,0.019649632,0.03513371,-0.0034820586,-0.123393565,-0.16299918,0.09988698,0.14390555,-0.055184003,0.15827607,0.15539548,0.05412856,0.063432746,0.049471717,-0.024257436,0.050505083,-0.15157129,-0.13976742,0.09040064,-0.089297846,-0.11222657,-0.0049456735,-0.11930183,-0.049601495,0.10687509,-0.012834668,0.16792184,-0.066677585,0.14284062,-0.037546113,-0.022875441,-0.01650478,-0.025213253,0.010661305,0.12229597,-0.08803529,0.015531667,-0.022715226,-0.05090683,-0.1441646,0.024252137,0.002612783,-0.11262135,0.12642393,-0.17262883,-0.1333024,-0.02942948,0.018994514,0.031204399,-0.1107479,-0.12122323,0.116464436,-0.042074956,-0.1307422,0.10303232,0.14349312,-0.06208568,0.04668039,-0.011229226,0.116407275,0.09737685,0.105775684,-0.014710968,-0.019264013,0.018552745,0.020467892,-0.053941622,0.1234619,-0.03665686,-0.14562732,-0.10924443
-0.14196754,0.1611466,0.16680913,0.15913865,-0.017804215,0.11585607,0.11084064,-0.1452788,0.03600258,-0.13915199,-0.1611753,0.08282128,0.009964369,0.03665296,0.047522746,-0.07014961,0.14255638,0.16699094,-0.04778752,0.0017393121,-0.13830552,-0.15208311,-0.08989281,0.13797015,-0.0034173978,0.025066081,-0.118406974,-0.09892252,-0.15722883,0.0049848384,-0.16098893,0.1653673,0.10792213,0.059502978,0.05771477,-0.094770975,-0.10711134,0.11699091,-0.0858935,0.10836403,-0.11889068,-0.16295558,-0.15916005,0.0147690615,-0.12645791,0.046628654,0.08502329,0.09846714,-0.12459534,0.06267671,-0.03596254,-0.0007016686,0.041848812,-0.08440004,-0.11201192,-0.07761525,-0.1542725,0.07334386,-0.14941178,0.14392751,-0.1169857,0.111067586,0.1672528,-0.082506046,-0.025197083,-0.055054486,-0.1277436,0.0013684604,-0.040959373,0.11276862,-0.088169,-0.15039945,0.06656558,0.110630415,-0.025481394,0.1147391,0.078629985,0.08012042,0.050310783,0.028804837,0.15131038,0.08472976,-0.073334426,0.06917503,0.16108873,0.12886779,0.15120897,-0.13970517,-0.1656926,0.049900133,-0.10634566,0.06575155,0.116898686,0.14531982,0.097076155,0.0156256,0.064802155,-0.03203189,0.0914065,-0.060056254,-0.028438728,-0.030166348,0.03583607,-0.01139912,0.034705322,0.091625,-0.05431436,-0.035706755,0.027643621,-0.04108888,-0.1672392,-0.132759,-0.085702956,-0.03987088,-0.09444745,0.171947,-0.15664619,0.15982398,0.02097632,-0.08872383,0.16520289,0.00207804,-0.1271598,-0.08827702,-0.015468229,0.042636614,-0.15332319,0.083616465,-0.035673495,0.06265944,0.04338666,-0.14256054,-0.10154875,0.10445004,0.16040848,-0.10806842,0.120256186,0.1254446,-0.07307363,0.1561081,0.010706519,0.038671784,0.14250053,-0.08044619,0.1389688,-0.090505034,-0.15451717,-0.03798813,0.16974181,0.13433021,0.09568619,-0.020029726,0.079931155,-0.08388647,-0.02714515,0.112460315,0.0019411102,0.023956943,0.14825186,0.14648964
-0.045751065,0.10223239,0.1430615,-0.16417272,0.055690978,-0.14248444,-0.13927656,-0.021315977,0.16726445,-0.0034361337,-0.03692096,0.02201981,-0.0073246136,0.15625226,0.15078677,0.11698033,0.09696723,0.07407023,0.098136105,-0.15123953,0.028923076,0.15645263,0.1633087,0.018035278,0.050651103,0.03131684,-0.17292912,0.10707692,-0.15042844,-0.13118984,-0.1459029,0.15011467,0.15652685,0.15666439,-0.07514704,0.031063953,-0.074629374,-0.15681086,0.039241377,-0.0150323985,0.08038601,0.1262771,0.13273767,0.046033196,0.15574862,-0.1315782,-0.030423053,-0.16051152,0.020202525,-0.041345138,-0.0037067952,0.16003379,-0.13985284,0.15349245,0.113310084,0.11156427,-0.11325405,-0.12416892,0.09203331,0.07853075,0.12137487,0.14209655,-0.014712205,-0.07945222,0.14250147,0.056675203,-0.12177657,-0.023559706,-0.052578263,-0.13451774,0.092702344,-0.09144613,-0.14286777,0.03176637,-0.0019987945,0.14893365,0.05781137,0.018168954,-0.13627914,0.16488773,-0.14014524,-0.0771562,0.11488887,0.015455462,0.004548787,-0.13787608,0.010903826,0.13800764,0.087771304,-0.15126058,0.14516886,0.15375026,0.070984274,-0.12998763,-0.05827565,0.064255714,0.009610649,-0.16159742,0.029377755,0.016112987,0.044639423,-0.008624545,-0.14916892,0.01854448,-0.11948663,0.025279278,-0.07614686,-0.05813644,-0.013230398,-0.08658507,-0.15545891,0.0017753337,-0.022467764,0.17176728,-0.052155487,0.08520359,0.0010997294,0.09498142,0.16362265,0.14715755,-0.024753764,-0.09149112,-0.13440861,-0.020743335,-0.08347572,0.055986527,0.14710586,0.023772433,0.044892542,-0.06667431,0.119797975,0.026621506,0.059466075,0.10681638,-0.15073697,-0.06989803,0.13879447,-0.10983709,0.09154586,-0.04291413,-0.14642088,0.101936325,0.042569965,0.14869434,0.13747287,0.16809012,-0.048156835,0.12770888,-0.13800743,-0.16381824,0.16180843,-0.08891609,0.06742875,-0.1374354,-0.12448722,-0.1434414,-0.16125168,0.16906236,-0.14643942,0.13000268
-0.00025433302,-0.009467128,0.107711494,0.11038807,-0.13976523,0.059252497,-0.030182578,0.12662968,0.07248297,0.09735954,-0.10218156,-0.016284615,-0.11353666,0.16344616,-0.16840637,0.004135734,-0.03704969,0.16059507,-0.15633693,0.050387952,-0.16791348,-0.10975271,0.07786731,-0.14822799,0.1722451,-0.15641388,0.07990456,0.10445666,0.10512596,-0.076467305,-0.10246225,0.060595397,0.12635231,0.1318431,-0.06668251,0.0025113584,0.11276688,0.041432288,-0.093409784,0.029946145,-0.02299793,0.073511355,-0.14450036,0.049275212,-0.044983875,-0.046922006,0.113827154,0.06520021,-0.0736143,0.029497007,-0.10272774,0.085425325,0.15690477,-0.10218337,0.12387972,-0.1685316,-0.013987438,0.14216816,-0.04335129,0.02464156,0.073182866,-0.1259512,0.15420909,0.033829153,-0.010526368,0.10227392,0.13483314,-0.010533798,-0.14520591,0.031174622,-0.17134549,-0.1569653,-0.12010294,-0.0070727267,0.055575002,-0.08978002,-0.03856057,-0.04097545,-0.07922204,0.16179387,-0.14727546,0.07130204,-0.16716757,-0.06600683,0.073788315,0.06125515,-0.023936478,0.057237938,0.044465438,-0.05450959,-0.17177263,0.16013,0.021816334,-0.078399286,0.026927434,-0.12834713,0.002931256,0.032289416,-0.059878115,0.15451255,0.13510934,0.16048758,-0.07083254,-0.00202851,-0.026521364,0.14345151,0.057809535,-0.09690781,-0.12968057,0.12563363,-0.06048812,0.15162247,0.13039921,0.16481957,-0.16690463,0.1228042,0.091860354,-0.10877529,-0.026925176,0.064523615,-0.07038232,0.08389908,0.16879925,0.00068564486,-0.031707857,-0.027244408,-0.13189426,0.09490797,-0.023967944,0.17290811,0.06348156,0.12449161,-0.1135415,0.0003975644,0.14235578,-0.07759726,0.05714963,0.08483651,-0.10303616,-0.07764091,-0.064868756,0.08225563,0.049697682,0.035675973,-0.0030959027,-0.05758151,-0.095193624,0.02290297,-0.14546673,-0.09766993,0.08959751,-0.04605359,0.16215047,-0.12521511,0.06843111,0.15434147,0.10275773,0.0028017992,-0.023981806,-0.10073754
-0.1557498,0.08812843,-0.06554902,-0.05868752,-0.15919936,0.14036916,0.03430826,-0.118483715,-0.019562647,0.16647644,-0.022349259,0.023065679,0.01297001,-0.00021662228,-0.013672361,0.10075013,0.13720763,0.15185511,0.13212875,0.12558213,0.04159686,-0.06932286,0.088254385,0.048660114,0.12946989,-0.006492289,0.09414681,-0.1519829,0.002666235,-0.11450072,0.004382364,0.060741458,0.14081891,0.16828315,-0.07572011,0.14106151,-0.07899282,-0.15601778,-0.11288555,0.13374737,-0.058927454,0.06456525,-0.09965374,-0.06098949,0.039405994,0.025379341,-0.058796395,-0.037687466,0.08807675,0.13250223,0.123196825,-0.14691879,-0.02069136,0.122527815,-0.039739873,0.026966901,0.10438911,0.15906362,0.05783954,-0.07859075,0.095674396,0.15163577,0.041649938,0.0026497096,-0.05763189,-0.074568644,-0.096712135,-0.08751785,-0.108181484,0.13833854,0.10419994,0.1613956,-0.087863795,-0.03460908,0.13316932,-0.11015961,-0.030529292,-0.11502054,-0.16521886,-0.09283975,-0.16678254,-0.16752753,0.05667059,0.014829765,0.07583937,0.07675816,0.027254019,0.086471766,0.15908356,-0.057362057,0.09498913,0.006271142,-0.11449626,-0.14579554,0.16502039,0.14150986,0.029662177,0.009069502,0.09470607,0.1322298,-0.14300121,0.0310891,0.14234956,0.17117533,0.090847954,0.112834185,0.07681056,-0.0019578037,0.07419677,0.032862768,-0.00481849,-0.17099947,-0.025690341,-0.018337097,-0.112905696,0.08230641,0.03855534,-0.029596984,-0.14178124,0.09278419,0.14323851,-0.07502956,-0.11823663,-0.008455453,0.118723154,-0.08921996,-0.126562,-0.10170204,-0.02354394,-0.14373767,-0.10125046,-0.0092970375,0.03201682,0.122199886,-0.11742488,0.16036214,-0.06849733,0.16618995,-0.07973769,-0.01238775,0.09098589,0.11790924,0.09462472,0.10712415,-0.04640236,-0.17181014,0.1536897,-0.05142269,0.15827116,0.03428188,0.04402076,-0.13005318,-0.03977817,-0.069085844,-0.01709747,-0.14408714,0.15422122,0.047535248,-0.12775584,-0.16452296
-0.06449927,0.07355994,0.09399993,0.11789886,-0.06443817,0.035496756,-0.111283466,-0.09277643,0.13098319,-0.16474919,-0.1632759,-0.01185429,0.0042925975,0.15002775,0.14973873,-0.13013363,0.02280988,-0.0071675098,0.053128757,0.16546519,-0.05509105,-0.040846616,0.022919387,0.034409687,-0.04432022,-0.10934456,-0.09741117,-0.031160953,0.031267196,-0.10841348,0.102900565,0.10355808,-0.1270921,0.077117115,0.091724634,-0.16690986,-0.0066835326,0.10791873,-0.122127615,0.030636271,0.0061021596,0.11008762,-0.064878725,0.14024848,-0.02112535,0.11964964,-0.042236175,-0.15779085,-0.14532956,-0.04228651,0.013866596,-0.11262426,0.010581375,-0.041963603,0.094273746,0.1405962,0.002000949,0.10212571,0.11014034,0.041515287,-0.16112275,-0.029745376,-0.12854734,0.16609639,-0.07045705,0.13696863,-0.14736122,-0.023952,-0.12836036,-0.055584628,0.111348934,-0.113066405,0.070643224,0.0047470448,-0.16918144,-0.026028002,-0.10930456,-0.082961164,-0.023381347,0.003701585,0.018009096,0.1244878,-0.011945395,-0.08517122,0.08030061,-0.15971771,-0.121916324,0.16637388,-0.084727645,0.13940246,-0.11874509,-0.008856026,0.11268515,0.08832827,0.10457338,0.14126442,-0.089485765,-0.017620366,0.101652734,0.010898385,-0.11201893,0.031706277,-0.15872817,-0.1233886,-0.05397282,-0.07235174,0.012550971,-0.050153233,0.05667992,0.17033052,0.14603005,0.080401026,0.14690882,0.15474336,-0.002903643,-0.03832469,0.06940193,-0.102573425,-0.020364081,0.17070879,-0.12361102,-0.08257837,0.15864581,0.10610995,0.029091636,0.11488099,-0.024566574,-0.11216714,0.047867242,-0.16871387,0.020161543,0.04183286,0.15809661,0.06206412,-0.08119907,-0.06159876,0.15764926,-0.09768807,0.041023403,0.11357237,-0.03515376,0.15894778,0.14161663,0.13824064,-0.12798622,0.10461957,-0.11540352,0.10030109,-0.12248722,-0.036541015,0.15686606,0.019910108,-0.07512718,0.005723449,-0.104053006,-0.1295374,-0.06264592,0.07253829,-0.07568517,0.08420436
0.046002105,-0.10418567,0.16249505,0.05104717,-0.036596477,0.0034944916,-0.0033983588,0.1273739,-0.021175353,-0.03141102,0.12658353,0.049485,-0.033897996,-0.051004075,0.03043071,0.02172833,0.17057852,-0.13834009,-0.11368095,-0.14282416,-0.04823929,0.123965174,-0.0828159,0.14978102,0.14701259,-0.082495704,0.14389348,-0.029208118,0.112881064,-0.10720101,-0.041391652,-0.051672686,-0.10865015,0.030732486,-0.025317326,-0.06692987,0.051859155,0.0035381163,-0.11450739,-0.0014595004,-0.048286438,-0.029172823,0.04601994,-0.16707386,-0.088023424,-0.033329956,-0.051197533,0.12837806,0.060400374,0.009231022,-0.03940004,0.15519796,0.12754247,0.13489282,0.09402841,-0.038426682,-0.07359774,0.058395334,-0.15416119,-0.112236105,0.016681386,0.032452814,0.021266596,0.12183893,-0.027321959,-0.10368121,0.070315234,-0.14223309,-0.058277965,0.0012025237,-0.13336235,0.061761376,-0.11584888,-0.15547757,0.003672853,0.100940794,-0.10587461,-0.060395792,-0.028536871,0.12843585,0.10791886,-0.15593076,0.16337198,-0.084686644,-0.03603846,0.16288419,-0.031517863,0.16253132,0.10415762,0.008605987,0.1025396,-0.06600068,0.07173772,-0.012748197,0.16466275,0.043989956,0.008187544,-0.11241068,0.037416343,-0.14058402,0.021570317,0.063578516,-0.14772141,0.066094086,0.114300564,-0.061135873,0.10164387,-0.08876128,0.037593976,0.038683012,-0.0021418286,0.13146096,-0.10250367,0.14889042,0.17018718,0.05894889,0.027067412,-0.057421133,0.06644857,0.12488681,-0.0020170659,-0.12220682,0.08165339,0.0015055977,-0.014431804,0.04860246,0.1008839,-0.08073588,-0.16555303,-0.045299962,-0.031497538,-0.068145856,-0.03121546,-0.1035684,-0.028284475,-0.044125363,-0.045574654,0.17238496,-0.002956482,0.078229964,-0.13760477,0.04661736,0.056376982,0.14751396,0.12545097,-0.13176665,-0.0818536,0.15468608,-0.0068373084,0.08964118,0.05406218,0.066164665,0.0034156144,0.05224583,-0.10231144,0.13993007,0.07595665,-0.16370514,-0.10679392,-0.15806106
0.14273843,0.10042413,-0.09403842,-0.17238535,-0.14348282,0.056298006,-0.079964474,-0.016630411,-0.09523416,-0.15967509,0.004585956,0.15432993,0.099526346,-0.12606615,-0.16473575,0.10741416,-0.12546372,-0.09611544,-0.053347807,0.08376526,-0.07571619,0.11386218,0.13513412,0.098055124,-0.020160282,0.052938767,0.1006207,0.11263041,-0.07597247,0.15828633,-0.04359234,-0.04960958,0.02051647,-0.16435331,-0.08621313,-0.15323874,0.11442098,0.102416866,0.085838564,-0.09455206,-0.15491031,-0.046053655,-0.028116092,-0.1101533,0.081665136,-0.04758521,0.15273716,-0.10688287,0.015985893,-0.14436513,0.0015247779,0.115259804,-0.07899553,0.08307166,-0.00072049664,0.08573384,0.12117706,-0.0124067245,-0.11563551,-0.053919993,-0.00077004766,0.07964621,0.06221144,-0.06937401,0.083129324,-0.056448232,-0.09058233,-0.0010943514,0.12105909,-0.021328054,0.046475146,0.099329986,0.116025545,-0.1538872,-0.06270644,0.06559027,-0.049884263,0.08053983,-0.02322316,0.046077054,0.048305273,-0.06958029,-0.13414654,0.013123897,0.12726691,-0.078593,0.06251549,-0.12868312,-0.07482645,-0.16282436,0.030527418,-0.06586993,-0.00034975077,-0.13723412,0.09962905,0.10985149,0.11918713,0.13942021,0.08515551,0.12162571,0.17285497,0.025094373,0.17383663,0.14847034,0.17333815,0.12829167,0.14855532,0.13582723,0.10485667,-0.13350348,-0.16217208,0.08649621,-0.13821197,-0.03158289,0.07559082,-0.06743217,0.15818383,0.16219337,-0.019404195,0.103299215,-0.00503844,-0.13173617,0.076651976,-0.07518488,0.025169853,0.13107662,-0.17094442,-0.0066669583,-0.028548064,-0.031694937,0.06399747,-0.09841496,0.15418798,-0.10996129,0.16166832,-0.063428625,-0.06254592,0.0035415222,0.08880156,0.08574444,0.172991,-0.02010563,0.06642479,-0.012806997,0.041317455,0.123801515,-0.13410531,0.042811487,0.0002271682,-0.099069014,-0.023134166,-0.029441375,0.029084489,0.17164521,-0.09209886,-0.08652006,-0.027195826,-0.15445034,-0.11782343,-0.067141816
-0.014672309,-0.12012589,0.08333877,0.10780107,0.10245143,0.047812738,0.006800015,0.031703934,-0.08824304,0.06323923,-0.03524983,-0.10222107,-0.14451489,0.058513053,0.13538636,-0.031840395,-0.09058217,-0.024194863,-0.04896032,0.046948183,-0.08278073,-0.16620848,0.061798103,0.17303506,-0.14808543,0.107269995,0.15861073,-0.07116789,0.030659541,0.07639778,-0.084374756,-0.07590279,-0.017935222,-0.024833886,0.05797176,-0.12624799,0.106603466,0.023051832,0.019223921,0.13331167,0.014868751,0.035705265,0.12727271,0.11944813,0.009262713,0.023423119,-0.049704105,0.031771824,-0.045191303,0.035491005,-0.14351381,-0.07264583,0.16943538,-0.13150848,-0.032916278,0.1391122,0.11743796,0.13595387,-0.101549566,-0.06507732,0.02980227,-0.036561303,-0.03574527,0.052325696,0.051802218,-0.08454963,-0.12458521,-0.0077234637,-0.1622688,0.153878,0.17204945,-0.10811865,0.077897385,-0.11453093,-0.0006472796,0.042646267,-0.15358561,0.023919431,0.14823529,-0.1106764,0.13017482,-0.13677537,0.15832184,-0.13048111,-0.09990284,-0.07430806,-0.16653961,-0.124110535,0.010272213,-0.10768476,-0.013648014,0.027003055,-0.14843558,0.12772658,0.14773364,0.1538712,0.16295949,0.15949512,0.13856943,-0.019203564,-0.15434393,0.14377998,-0.029193345,-0.110441744,0.17121737,0.10741932,0.12547342,0.11390498,-0.098519914,0.03336157,-0.00069681165,-0.0009951268,-0.029450541,-0.02066532,-0.03634239,0.14565845,-0.0209057,-0.02195301,0.1391573,-0.0056376676,0.09871298,-0.14934523,-0.16152155,0.113443084,0.053640284,0.06555154,-0.16494444,-0.065337434,-0.07466615,0.026906384,0.06887863,0.03759192,-0.1028389,-0.011747313,-0.11246201,-0.022021921,0.048906367,0.058585647,-0.08204989,-0.023243995,0.16474077,0.019704603,0.026352303,-0.104037546,0.054083936,-0.1100078,-0.16049895,0.09349226,-0.13472751,0.05491227,0.036515165,-0.020056998,0.09078682,0.033566162,-0.095532395,-0.13390788,0.124401115,-0.08141557,-0.003976162,-0.12149988
-0.035592556,0.020357402,0.15955845,-0.13119557,-0.009571318,0.11793294,-0.09606586,0.0036245733,0.08590069,-0.081324786,-0.111739926,0.07740316,-0.02797155,0.03259331,0.054609913,-0.056249008,0.10419182,0.15606338,0.023549914,0.033777803,0.007820914,-0.015492387,0.0029403,-0.1691751,0.14622271,-0.1296723,0.09318558,0.13240565,0.12086657,-0.1044374,-0.052426837,-0.011985717,-0.06876996,0.08729346,0.0742317,-0.029904334,0.026909795,0.096012235,-0.09506294,0.07198422,0.09256181,-0.15739432,-0.1528836,-0.05024369,-0.04892947,-0.09615391,0.066803664,0.069267765,0.037885126,-0.15547067,0.09135637,-0.07052646,0.019471006,-0.1141457,0.016392037,-0.030525422,-0.14110443,-0.06099581,-0.1156028,0.14906967,-0.13984016,0.027839359,-0.1398975,-0.07808282,0.040920474,0.057462763,-0.06244097,0.07957538,0.080940634,-0.10166348,0.032143265,0.05381667,-0.11277912,0.12781513,0.17114204,0.114021525,0.03657438,0.024064422,0.16528207,0.069716506,0.0058896244,-0.16729382,0.12635413,-0.056038033,-0.048638012,-0.07193381,-0.031178162,0.009317547,0.13659208,-0.12960313,0.12648001,-0.052183185,0.100137085,-0.13465238,0.10139938,-0.055175237,0.06863516,-0.009553108,-0.103493765,0.15176795,0.037439078,-0.13278288,0.116582684,-0.07966096,0.13139974,-0.07934636,0.06956612,0.0045545395,0.062034726,0.00045140088,0.07128212,-0.10032243,0.030654192,-0.04979969,0.02730197,-0.07150512,-0.1257104,-0.081722,-0.018766284,0.083756275,0.0049521327,-0.14817625,0.091518015,-0.111165546,0.021095598,-0.028997697,-0.08229193,-0.11403621,-0.0048617222,-0.13912728,-0.08513373,-0.07237889,-0.059640795,-0.093639664,-0.0142575465,-0.123899356,-0.03324887,0.15608639,0.046874184,0.13005652,-0.06640618,0.09833217,-0.12031971,0.11732921,0.08852924,-0.10186497,0.010781316,-0.09277348,0.08491501,0.11000985,-0.16104786,0.13788666,0.06357826,0.14379296,-0.15885149,-0.11331547,0.0057647,0.08558492,-0.13961925,-0.026423706
0.04117179,-0.09891332,-0.16066055,0.060136616,0.09787597,0.04449436,-0.07761735,0.012528673,0.117760435,-0.012999755,0.11227839,0.08322114,0.0047735525,0.13447659,-0.1318296,0.09155644,-0.0071547586,0.031347655,-0.10205193,0.12279266,0.035130065,-0.022688467,-0.007188705,-0.09035818,-0.046150662,-0.14646836,-0.12996392,-0.16934134,0.15884969,0.14560577,0.1017078,-0.17209797,-0.02924766,0.16519876,0.09027416,0.11479763,0.14910057,0.007203931,0.09612827,0.0055882153,-0.09509178,0.028225305,-0.13950375,0.12671472,-0.08912942,-0.13767616,0.051211067,-0.13465591,0.0659552,-0.10386688,-0.003438507,-0.10615869,0.13154717,-0.07165071,-0.0066760518,0.13053732,0.03778608,-0.078802705,-0.086610734,0.022302933,0.093520984,-0.027145857,0.09173164,0.12920076,-0.08199922,-0.14418113,-0.049318023,-0.1296377,-0.07227567,0.02489762,-0.110173166,-0.082379945,0.15785673,0.019719448,0.16427135,0.01453393,0.07825415,-0.019265136,-0.16343349,0.07859376,-0.0032102615,0.11032734,0.13694339,0.09942284,-0.15392213,-0.0045796065,0.011164712,-0.030833468,-0.05789493,0.04539758,-0.028317796,0.062198766,0.024364714,-0.09988163,0.06870624,-0.010554764,-0.14434502,-0.1672249,0.16880609,-0.16846798,-0.033097357,-0.020930927,0.17075613,0.009149477,-0.112546586,0.0665403,0.13152127,0.10143291,0.1001547,0.13638869,0.17035134,0.004526967,-0.12600987,-0.009424599,-0.027364522,0.1120426,-0.025574058,-0.0045923125,0.06399436,0.15268141,-0.14048998,0.14809614,0.041685298,0.09151204,0.17185794,-0.12971304,-0.029929249,-0.104794115,-0.11533287,-0.07791911,-0.05252109,0.12990743,-0.13153113,-0.16310446,8.6071406e-05,-0.083046176,-0.089219496,0.011369439,-0.15215006,-0.01089831,0.1443855,-0.13681419,-0.09124713,-0.041630834,0.03520984,0.15947986,-0.037528723,0.01693345,-0.12322454,0.11216247,0.045903113,0.021763219,0.11486068,-0.16948414,-0.040203497,-0.04485794,-0.06888301,-0.16366641,-0.02300573,0.17031056
0.12671375,-0.14212523,-0.029337618,-0.12840313,0.015472904,-0.13295446,-0.146969,0.0614174,0.0919557,0.15736857,-0.12302253,-0.05211585,0.00039315576,-0.040032417,0.16112837,0.12601693,0.15214035,-0.0022330433,-0.17132837,0.14816399,0.0038788351,0.14894666,-0.04446895,-0.051611617,-0.089122966,-0.10475831,-0.02356906,-0.028141221,0.0892452,0.11168453,-0.07802363,0.17206246,0.07980931,0.046491176,-0.04821834,-0.056453124,0.15771802,-0.13453573,0.17175323,-0.13761583,-0.12627238,0.052466568,0.13061644,-0.115906276,0.10395251,-0.12750109,0.07388896,0.16279933,-0.1320893,-0.10604594,-0.1447623,-0.123265736,-0.16299522,0.13072732,-0.028816076,0.079321176,0.026668824,-0.007888189,-0.038455855,0.15644693,0.122557215,0.10890499,0.067243196,0.045168266,0.12253434,-0.083685726,0.13397703,-0.11917781,-0.04555814,0.12617224,-0.07972962,0.09280377,0.089458525,-0.08059796,-0.042289734,0.041784704,-0.10328108,0.12027189,-0.1516616,0.0070123216,0.06473118,-0.0023753867,-0.012836569,-0.08333675,0.037489906,0.09870573,0.06993559,0.06979072,-0.14622243,-0.14349106,-0.035504162,-0.017309306,0.09952247,-0.051034026,-0.16146097,-0.0006941259,0.017390914,0.12049088,-0.08904229,0.048859328,-0.13602838,-0.11280917,0.010409151,0.089506686,0.0206912,0.040050253,0.08640247,0.0265654,0.026689947,-0.08745054,-0.11476425,-0.029144984,0.02794775,-0.1550078,0.06395383,0.15858981,0.13232167,-0.0086198365,-0.09845875,-0.0041831285,-0.018085733,0.15207133,-0.052978456,0.13937034,-0.12185733,-0.076500714,-0.048471753,-0.15499525,0.15347716,0.070051044,0.087179065,0.07534119,-0.018758938,-0.010350212,-0.13643508,-0.023182526,-0.09448452,-0.12486929,-0.114678636,-0.17002964,0.09350498,-0.10137831,-0.008534904,0.104890406,-0.16131508,-0.16508411,-0.03594266,-0.025770722,0.03397572,-0.06697954,0.008770463,-0.16003242,-0.103899404,0.087765895,0.082879305,0.03383358,0.096640766,-0.002979975,0.101925164,0.12525582
0.13683984,0.049916193,0.06573913,0.041770954,-0.100392975,0.14438607,-0.01599755,-0.12776726,-0.013187759,0.018394524,0.09514184,0.03308381,-0.07366135,0.09589925,0.15001109,-0.02015759,-0.06536976,-0.14343774,-0.08679356,-0.1721051,0.11712604,-0.06261986,-0.14035036,-0.09564889,-0.06921779,0.11416113,-0.07741405,0.15661348,-0.01846619,-0.07459267,-0.1115948,0.12771145,0.12361318,0.15302476,-0.036922734,0.001333166,0.1297054,0.015190486,-0.023152925,-0.07602164,-0.1484281,0.085764356,-0.15694183,0.0890227,0.077818066,0.12581678,-0.1503663,-0.11207576,-0.028375974,-0.023990326,-0.05951786,0.09857834,0.015627962,-0.16769399,0.088183016,-0.12952676,0.08464923,0.13256317,-0.16887613,0.045227595,-0.062808745,-0.088298656,-0.10508686,-0.13297275,0.16424984,-0.07716856,0.07466608,0.04758589,-0.024111181,-0.0851615,0.14293283,0.013309891,-0.010990994,-0.17073151,-0.093269534,0.049866542,-0.05807419,0.1431707,-0.004960404,0.082671404,-0.12621775,0.004102118,0.07129555,0.079790324,-0.14529613,0.12689653,-0.05600368,0.009526163,0.08001731,0.13714042,-0.16184673,0.110665135,0.032142043,-0.0051690014,0.116586536,-0.16673963,0.14498472,-0.025524847,0.019683192,0.06477804,0.037176464,0.02157278,0.051304106,-0.060928255,0.016735818,-0.0013946819,-0.14386418,-0.043215405,0.0045862496,-0.022797853,-0.115495816,-0.16395883,0.14404015,-0.029275717,-0.09340229,-0.059576657,0.06657846,-0.0083317105,0.16969854,0.16725393,0.023178846,-0.08363457,0.03364812,-0.15029538,0.0057851756,0.020021923,-0.03398019,-0.118709356,-0.031567726,0.08631477,-0.13918194,0.055131868,0.11513378,-0.011631849,-0.14811735,-0.13566358,0.14094247,-0.13249889,-0.09544395,-0.04382237,0.13043916,-0.028354399,0.033156868,0.031909585,-0.048241742,-0.025209343,0.15816806,-0.092421785,0.10526529,0.16553205,0.07377431,0.017431216,-0.06270015,-0.12692262,-0.15891945,0.08217591,-0.03511632,-0.11387804,-0.011909876,0.17213431
0.06380233,-0.082437634,-0.12294078,0.050384425,0.069399655,0.14016968,0.11031306,-0.009931773,0.045287106,0.08878321,-0.12264446,-0.0464362,-0.10358032,0.08314048,-0.13473356,-0.060124733,0.01011468,0.0387819,-0.030786453,0.022270419,0.13067222,-0.13278036,-0.14689834,-0.1280629,0.13651116,0.03842326,0.052829634,-0.008004842,-0.17315768,0.0023372322,0.03130569,-0.07750256,-0.104561605,0.061755616,0.03335446,0.17043027,-0.12740855,0.07345773,-0.049555406,-0.16313191,-0.14035173,-0.011586084,0.0013200926,0.07515241,-0.07593643,-0.113365136,-0.14403751,0.11524078,0.060671914,-0.1252587,-0.16260469,-0.08786657,-0.16908026,0.105475165,0.0656055,-0.022312455,-0.11385792,0.049094018,0.11161332,-0.10276113,0.029383104,0.13695094,-0.040240962,-0.09523945,-0.067099966,-0.1651617,0.16799705,0.044312306,-0.10426966,0.041196495,0.056007415,0.15283887,0.15513742,0.030121513,0.07918031,-0.11294024,-0.14532727,0.16896306,0.04710482,-0.038572297,-0.11954298,0.03005889,0.013390136,-0.15434772,-0.07912074,0.0994477,-0.09065443,0.041137397,-0.027600361,0.004279396,0.046313234,0.0712973,0.084026575,-0.069507964,-0.14072108,0.0010871446,-0.1328557,0.0026981356,-0.038650066,-0.11226017,0.043871332,-0.106191464,-0.16348411,0.12365347,0.004594787,0.114445746,0.1265843,-0.10677245,-0.07607286,0.122926146,0.13716222,0.030852225,-0.16066088,-0.071715236,-0.026698902,-0.047286358,0.0585869,-0.059769012,0.10084516,0.12830263,0.061295822,0.10441603,-0.09167738,-0.047606464,-0.046302527,-0.013675484,0.12414744,0.10403097,0.049003072,-0.019375917,0.07120262,0.0751546,-0.09084456,0.07396868,0.043084186,0.15435226,-0.058204763,0.098105446,0.049449764,-0.14001653,0.090106,-0.0782449,0.092191055,-0.015986815,-0.046259236,0.07652066,0.11119757,0.0603276,0.13374853,-0.025693446,-0.049018618,-0.037474457,0.06344433,-0.103769,0.15540926,-0.13133082,-0.11919989,-0.1109134,-0.13580212,0.1123466
0.11766422,0.14519088,-0.102971554,0.08285811,0.09394165,0.15301439,-0.0882437,0.034840733,-0.10177206,0.012481195,-0.05105668,-0.020396676,0.046387438,-0.16760449,-0.15537971,0.07901471,0.037654117,-0.020934885,0.16120058,-0.10128433,-0.08463313,0.045951698,0.13540693,0.11439654,0.014037809,0.11832889,-0.02958997,0.14078581,-0.122382656,-0.16178754,-0.103032306,-0.10967543,-0.12291821,-0.15306488,0.142189,-0.0446699,0.07311977,-0.08329776,0.0011645298,-0.13669248,0.11817452,-0.069532044,-0.11060347,-0.00043741768,0.08060627,0.114583805,0.11288574,-0.07243532,0.11937746,-0.08070093,0.091893405,0.025280563,0.11775581,-0.09652939,-0.120424144,0.055730853,-0.051859386,0.14277992,0.09801661,-0.01825111,0.03375117,0.08788352,-0.1298562,-0.16946265,-0.0029099204,-0.1600174,-0.060399607,-0.03416224,-0.16483307,-0.11261104,0.12599564,0.019889638,-0.0950581,-0.16605392,0.010420707,-0.08139218,0.08088873,0.06179318,-0.013639726,-0.06815007,0.115095735,-0.12829536,-0.047099624,0.057634193,0.051369164,-0.020562178,-0.06749218,-0.024338126,0.16234246,-0.08063624,0.0678958,0.06885331,0.1659984,0.13679636,0.021633297,0.03701805,0.052594695,-0.16340521,-0.0421181,-0.029316185,0.10280001,0.13965772,-0.08972762,0.043108672,0.13362323,0.04526071,0.056725055,0.07270472,-0.11936429,-0.12658639,-0.08797048,0.12713848,-0.001264582,0.02098146,0.13414799,-0.10690741,-0.15619723,0.059109837,-0.04804726,0.10525029,0.046777308,-0.13416535,0.1139497,-0.061081745,-0.030461596,-0.038998224,0.058249753,0.074645564,0.031135978,0.049217775,-0.17087564,0.13871737,-0.09745473,0.12501633,0.04104657,0.07611009,0.014215978,-0.098722845,-0.052461516,-0.11967045,0.1023685,0.11380106,0.10256764,-0.11588678,0.143704,-0.041902542,0.11534087,-0.13846403,-0.059772193,-0.1399628,0.12192138,0.014164807,-0.08782458,-0.067497075,0.091662824,0.064596295,-0.1648975,0.0038645777,0.034527734,-0.027444933
0.10659453,-0.012749776,-0.11824765,0.07875559,-0.13551159,0.0029479899,-0.15153334,0.08068806,0.0071781515,0.14198908,-0.14094613,-0.020049924,-0.0878316,-0.12939945,0.14635582,-0.13578595,0.07729528,0.057945464,0.054128174,0.13032918,0.10683068,-0.01676239,-0.06971712,0.1457105,-0.15879373,0.026437465,0.016469566,0.0358125,-0.15820034,-0.16506994,-0.006037656,-0.019096863,0.037430644,0.16818056,-0.11223924,-0.10805595,-0.1387303,0.02388499,-0.108258456,0.021077039,0.045516312,-0.07933866,-0.1042727,-0.096205495,-0.07946092,0.16179676,0.056445595,0.0174568,-0.12016151,0.094747774,0.12454888,-0.09129912,-0.016594663,-0.09043012,-0.07992733,0.10101744,-0.12734479,-0.031641778,-0.068796135,0.10915007,-0.08736807,0.15836264,0.040575605,-0.1664801,0.074137,-0.009381179,0.14052026,-0.08698449,0.0356265,0.083936885,-0.05403013,0.13049607,-0.078052565,-0.10473833,0.14066936,0.10170335,0.04450379,0.1347916,0.014462007,0.0021132347,-0.16914715,-0.009179687,0.049733676,-0.023413833,-0.1656011,-0.07242143,-0.0043696263,0.12811631,-0.022960966,0.1024599,0.09378457,-0.005508262,0.12946546,-0.106434345,-0.10446804,0.13295501,-0.113687456,0.010506742,0.046494644,0.16966304,0.02857604,0.09584153,0.016984982,0.084065765,-0.075802915,-0.0628016,-0.12527461,0.030669224,-0.0027793795,-0.1627185,0.079132,-0.01232875,0.17251734,0.076085374,0.11572543,-0.0081736045,0.1644384,-0.13004693,0.0315758,-0.021501807,0.15562868,-0.06531694,0.0341002,0.14814375,-0.15114349,0.10409893,0.06659839,-0.02439037,0.020004075,-0.038820524,-0.100564666,-0.00341167,0.14022334,0.13997485,0.0052194013,0.117198825,-0.04516176,-0.16572121,-0.15544005,0.055576526,0.14019883,-0.025810463,0.0076762177,-0.13118252,0.1622729,0.14451782,-0.027140623,0.039192464,0.107985854,-0.046452597,-0.08536752,-0.07883685,-0.06337299,-0.08603544,0.12301068,-0.103963904,-0.060796395,-0.037478596,-0.06886494,-0.03192884
0.1635803,-0.1090211,-0.0020546839,0.14651437,-0.16650133,0.06601955,-0.020401537,-0.081242576,-0.11870853,-0.13761076,0.1423722,-0.15797253,-0.015711183,-0.06719932,-0.04766417,-0.11490927,0.1449198,0.04122895,0.0054034125,0.16666721,0.039463405,0.09542879,-0.08030024,0.05407332,0.17115368,-0.15187275,0.11125795,0.17196156,0.16382638,0.023217827,0.11631853,-0.09539454,0.034374528,0.025778117,0.124266654,-0.09684771,-0.1350467,0.07700002,0.061182216,0.05832671,-0.007814065,0.069972165,-0.07615365,0.06465909,-0.0077123404,0.02723442,0.063919984,-0.06350248,-0.07429464,0.043829866,-0.11571172,0.003004502,-0.1706289,0.14067341,-0.12176908,-0.116845235,-0.07565201,0.09300179,0.06654744,-0.044107925,0.009314587,0.009254944,0.11905683,0.07950804,-0.09865151,-0.105502285,0.104563765,-0.07558585,-0.15590495,-0.05873353,-0.118736,-0.13778338,0.14543007,0.03472716,-0.13967341,0.15293226,-0.02415474,-0.035699226,0.05379449,-0.1155345,0.02174285,0.12783007,-0.059862174,0.05596563,-0.055218462,0.10147607,-0.018920228,-0.1343706,0.043555394,0.010225232,-0.16121297,-0.13140562,-0.15738265,0.041242454,-0.113236055,-0.10508424,-0.0650431,0.13937803,-0.10633017,-0.09385568,-0.018883226,0.14216916,-0.04000366,0.1695467,-0.12489717,0.16283083,0.11341886,0.06904167,0.10761359,-0.06002868,0.08554552,-0.0012875915,0.14431925,0.020061262,-0.051331386,0.10924396,0.011488026,-0.0009820737,-0.14882343,0.014340451,0.12212488,0.035069704,-0.0092380615,0.082389906,0.03578015,0.031398837,-0.056421313,-0.15754037,-0.12878887,0.16832258,-0.05342795,-0.11862262,-0.032035895,0.06082017,-0.14442316,0.16544719,0.012586689,-0.09573295,-0.0066717844,0.122560166,0.06951966,0.013288792,-0.06435241,0.014554247,0.071236186,0.0067107794,-0.15761854,0.114404626,-0.11644769,-0.06962868,0.08021822,-0.02063409,0.15674222,0.15169592,-0.10534034,0.050918564,0.032532442,-0.052340377,0.10543819,-0.051230904
0.047019497,-0.011826841,0.09688262,0.09210546,-0.115217894,-0.09301079,-0.050348565,0.08573568,0.06619042,-0.032993328,-0.08477253,0.0012735089,-0.045834355,0.105315745,-0.09368344,0.12555811,-0.14316358,0.104700215,0.036662087,-0.0903175,0.01759884,0.10196775,0.09102791,0.05600722,-0.15442105,-0.1384354,-0.006318525,0.01414343,-0.012280941,-0.09965431,-0.16787882,-0.0247021,-0.15143968,-0.09564614,-0.13249066,0.12850243,-0.17040215,0.113350384,0.021428661,-0.03517557,-0.08234475,-0.07781928,0.031247227,0.09078145,0.11508581,0.06234665,0.079486854,0.14326313,-0.1680949,0.018889088,-0.11021615,0.04682568,0.021521116,0.14828196,0.14682171,-0.16518171,0.102317125,0.084406696,0.16434193,0.037668068,0.03249898,-0.11700118,0.15747327,-0.027961671,-0.01832242,-0.050895475,-0.015964579,0.11333677,-0.082101434,0.005538817,-0.16442145,-0.061888542,0.13782617,-0.0064146067,-0.14580621,0.06489612,0.09007557,-0.038193207,0.09832378,0.068678685,0.117889434,0.12745427,-0.077362336,-0.1306589,0.016829869,-0.048851337,-0.10020612,-0.16182074,0.05254289,-0.01438691,-0.16323528,0.00053808175,-0.14942916,0.16421379,0.111608125,-0.11707033,0.14352576,0.16193572,-0.10068545,-0.05537928,-0.14572555,-0.034146383,0.08395201,-0.032496482,-0.03893173,-0.008176964,0.012774981,-0.047754604,0.021607026,0.009280995,-0.015471814,-0.024972044,0.047515053,0.12272596,-0.031662732,-0.004177081,-0.036654085,0.06871277,0.04497061,-0.013107124,-0.018638432,-0.08709518,-0.14848521,-0.08530544,-0.048505947,-0.15553877,-0.15548597,0.17232338,-0.06848458,0.03554512,0.028847529,0.15843849,-0.13688387,0.11630718,0.01983376,0.052802984,-0.015541821,0.11081706,-0.04382471,0.14914973,0.07918982,-0.14160427,0.164037,-0.0425179,0.13494001,0.0019036597,0.0006572779,0.16829655,-0.04872541,-0.071281895,0.08338484,-0.13173313,0.09740729,0.16305426,0.10839531,0.09603436,0.113530494,-0.0021230665,-0.027480114,0.11744717
-0.06432298,-0.15850958,0.117813535,-0.078576274,0.08988903,-0.1415669,0.07633562,0.12746781,-0.03317963,-0.17123559,0.100346446,-0.095801435,0.110842034,0.10136324,0.16357173,0.037462804,0.053980883,0.0266835,0.002262141,0.15016459,-0.06796528,0.0113723455,0.10280851,0.15877968,-0.09818517,0.1210241,0.09458634,-0.16884188,0.10573062,0.057627015,0.099681534,0.06405724,0.02193175,0.011841806,0.036414687,-0.0663269,0.06822724,0.10886116,-0.1629426,0.058605168,-0.11341694,0.0026896992,0.14344077,0.0696717,-0.06495535,0.15123996,0.15586603,-0.118515104,-0.101354055,-0.13210846,0.073390834,-0.15249711,-0.0065328297,0.026492361,0.12230286,-0.16680463,0.08269994,-0.16568522,0.021823604,0.09651916,-0.03609203,-0.10006357,-0.09747674,0.13404581,0.08429566,-0.15467471,-0.14698504,-0.09997104,0.13737616,0.037539057,0.12613715,0.16336083,-0.04776171,-0.03426341,-0.12042964,-0.026145328,0.06078362,-0.12522699,-0.047142558,-0.104355104,0.16078717,-0.024418458,-0.072102904,-0.10645867,-0.15538189,0.17022264,0.17099068,0.106244475,0.0030162705,0.023300158,0.15313083,-0.1234428,-0.053704947,-0.16797751,0.1578927,0.06960961,0.013854232,0.116609655,-0.056010198,-0.06563204,0.12622109,-0.08496889,0.16070949,0.08075759,-0.069060706,-0.08864004,0.08464244,0.013343857,0.0063591897,-0.123120844,0.10433693,0.107221544,0.08722721,-0.14749224,0.072584525,-0.13229702,-0.13454978,0.00039996734,0.11372782,0.0162878,-0.0055059493,0.053526912,-0.04460666,-0.0052351006,-0.09458698,0.142874,-0.1580329,-0.014947206,0.07200796,0.047338188,0.14984536,0.032172978,-0.16168453,0.13595583,0.17310065,-0.1419565,0.03440578,-0.06094875,0.03400747,-0.091769606,-0.10156556,0.068100184,0.15226246,0.11056715,0.043193135,-0.13581623,-0.14441267,0.10227828,0.11639574,0.09525907,-0.16383214,0.16995509,-0.10092959,0.08156134,-0.004158264,0.16411105,-0.05496047,-0.04983912,0.14650875,-0.13897584
-0.087704256,0.06755006,-0.13403273,0.09483017,-0.011968955,-0.0708006,-0.12655014,-0.09468626,0.034309912,0.16318734,0.14760731,-0.013985387,0.0595345,-0.034147754,0.10525662,-0.041243877,-0.011088422,-0.0853323,-0.04182409,-0.05488037,0.08186459,0.1142866,-0.06506001,-0.047584385,-0.122506194,-0.051503427,-0.14247516,-0.16345327,0.06573379,-0.115298524,0.008661198,0.13296205,0.009193504,0.03641496,0.13061383,-0.109686464,-0.13502418,0.022318246,0.07831991,0.013575587,-0.06096121,0.020432591,0.03932767,0.008720925,-0.024708426,0.059045598,-0.033862825,0.015368208,0.037972637,0.030060738,0.088937365,-0.090691596,0.113956995,-0.014862552,0.091693155,-0.031492993,-0.042110484,0.05330567,-0.08345536,0.073858984,-0.07064053,0.07120668,0.1056622,-0.10504205,-0.07106218,0.014231309,-0.0049194186,-0.13799141,-0.046743765,0.090384275,-0.09835361,-0.13983168,0.1285457,0.0077518835,-0.1272384,-0.14674044,0.17159885,0.03661844,0.09998453,-0.059289295,0.062145635,-0.16194983,-0.093155034,-0.032929655,-0.01603876,0.1575318,-0.069436654,0.09170416,-0.039085846,0.10543107,-0.14356716,0.02173539,-0.040664732,-0.03895301,-0.059193507,0.111325175,-0.109913394,-0.043805778,0.06910331,-0.09324426,-0.1071037,-0.022598702,-0.12749416,0.133715,-0.12548962,0.018114895,-0.06919098,0.0658182,0.15645838,-0.05540695,0.023967644,-0.053234775,-0.10024187,-0.09740274,-0.10430369,-0.018907428,-0.06956409,0.15933546,0.115554005,-0.12778598,-0.12519857,0.039164424,-0.0826486,-0.16638328,-0.013306752,-0.09897303,0.13905998,-0.10491466,-0.051105656,0.07455673,-0.07631151,-0.0058287783,-0.10773562,0.13889205,0.063707754,0.12277525,-0.12388455,0.04619375,-0.025285937,-0.01550948,-0.06378551,-0.15106013,0.12279985,-0.13707721,-0.056107774,0.12377842,0.016363615,0.15591024,0.16213235,-0.06229063,-0.09113356,0.15470187,0.006088351,-0.05458788,0.0013493957,-0.09121118,0.00853027,0.08898542,0.084057406,-0.15993132
0.03702496,0.11670829,0.037384406,-0.097598925,-0.10784266,-0.0083755655,0.11049197,0.029157624,-0.12091966,-0.16673392,-0.15570277,-0.10078453,0.080814935,0.006338849,-0.15869315,0.14020076,0.066055894,0.09184227,-0.14676705,0.09600358,-0.082847275,0.15877365,0.13889818,0.08541143,0.12304988,0.16708134,-0.12504551,-0.033703975,-0.06618395,-0.030115472,0.14653929,0.026993291,0.050104335,0.004212347,-0.06897919,0.0052378057,-0.14131239,-0.12656263,-0.084214814,-0.0926722,0.08388382,0.12753636,0.01707604,-0.12251416,0.06919397,-0.07640318,-0.15933785,-0.12567773,0.106255345,-0.08081094,-0.026226612,0.086840615,0.08489497,0.033203363,0.102194116,0.1480461,-0.14630094,0.14937784,0.091962,0.16110498,-0.13051066,-0.069955766,0.14723384,0.032350704,-0.03851506,0.03999815,0.14298643,-0.0972272,0.09037754,0.024263866,0.039249152,0.010347764,-0.034323495,0.05587194,-0.071960054,0.041738715,0.14933853,0.14585021,0.08170554,0.14245394,0.11242661,0.03165028,-0.014066086,-0.06993583,0.042253412,0.13929035,0.16539204,-0.0062422007,-0.10583719,0.07533445,-0.013236167,-0.06605281,-0.043375157,0.070943624,-0.08495653,0.027355256,0.08108249,-0.07734593,-0.08712132,0.1622574,0.07004286,0.08030642,-0.0135876285,-0.0815494,0.011708616,0.11860781,0.14399919,0.02535122,0.12618124,0.16529605,0.16239125,0.1473107,0.07460455,-0.062000487,-0.05778936,-0.019466912,-0.16929999,0.008735202,-0.08352039,0.15401803,-0.1496053,-0.120385185,-0.10203295,-0.14990258,-0.09979463,0.14847794,0.17067009,-0.08664404,-0.06851434,-0.03776439,-0.1325791,0.15374513,0.009408881,-0.074716724,-0.10728111,0.101098694,0.14956321,0.15193968,0.033516392,0.16052814,-0.17160225,-0.05851318,-0.08378065,0.16184115,0.016407754,0.16531545,0.124070965,0.053635366,-0.029268056,0.1667707,-0.0037347777,0.03215756,0.06737121,0.06422188,-0.08696726,-0.08712393,-0.097793125,-0.05926266,0.107872374,-0.028675381
0.10076347,0.052308604,0.10348413,-0.10562738,0.056174103,0.06776447,-0.08658206,0.09679806,0.12817591,-0.038039714,0.09149673,0.12290138,-0.16251092,-0.07395672,0.120893285,0.15599728,0.07121385,0.060370218,-0.07075826,0.018314432,-0.021524677,-0.04210175,-0.15659362,0.10545105,-0.16083016,-0.1685294,0.03179633,0.097939014,-0.1685969,-0.053776488,0.028453486,0.048838064,0.16425571,0.16663675,-0.12034869,-0.097006686,0.021003505,0.1465742,-0.12118046,0.010172833,0.14265525,0.07954031,-0.044295993,0.13589416,0.1703502,0.09407218,0.045562968,-0.026248828,0.09340312,-0.06788741,-0.053673834,-0.16832079,-0.062253132,-0.14425744,0.1513459,-0.0684165,0.048939988,-0.15513624,0.024507884,0.014769392,0.07952396,0.09724086,-0.15014392,-0.09851243,-0.030876089,-0.08910855,-0.12586512,0.049955796,0.16184297,0.04871872,-0.12050596,0.01091829,0.06162624,0.04493554,-0.007932618,0.002701205,0.056998152,0.109321795,-0.13495281,0.024810636,0.10758433,-0.1586695,-0.09921493,-0.012850836,0.07818093,-0.07076902,0.018770253,-0.1669495,-0.15635452,-0.017739346,-0.14830364,-0.14800961,0.16454245,-0.05107309,-0.11575148,0.13924748,0.009528193,-0.16026802,0.05738069,-0.0044681253,0.10721659,0.012767321,-0.12649524,0.09145862,-0.116726264,-0.024927294,0.14217448,-0.13479315,0.013829008,0.07189299,-0.13640547,0.07052815,-0.17115106,0.041268945,0.12623794,0.06060377,0.12507668,0.030154148,-0.0055367053,0.09497064,0.035326153,-0.13582176,0.17052823,0.10053561,-0.026397597,-0.10594563,0.09295603,0.048686177,-0.0121118305,0.028604452,-0.16332546,-0.064446025,-0.15508169,0.030946255,0.119384624,-0.076361716,0.058990233,-0.0066792318,-0.07002875,0.15355472,0.12519765,0.031788882,-0.07173694,0.10809183,-0.11102527,-0.099039696,0.08780401,0.014120327,-0.0005970001,-0.14697313,0.10205952,-0.057793327,0.07927184,-0.07964102,-0.031362273,-0.03195607,0.1640144,-0.12078441,0.10728818,0.08362516
0.023117319,-0.08588148,0.13013574,-0.09374651,-0.105812706,-0.0919652,0.07340879,-0.050777823,-0.02896997,-0.04970709,-0.022832885,-0.16659714,0.069334865,-0.012805879,-0.032666914,0.103844404,0.13592651,0.09728779,0.04224666,-0.13736497,0.056948744,0.1402884,-0.009845968,-0.010484919,-0.13995741,0.16871308,0.021656832,-0.13816871,0.034393296,-0.07001995,-0.038042765,0.07118485,-0.016254958,-0.10126136,-0.17017046,0.115848094,0.16766866,0.07078285,0.15993246,0.09559705,-0.11660771,0.019044459,0.1257115,0.04929445,0.043370668,0.14974639,-0.071145125,-0.08407622,-0.10084223,0.019251958,-0.13029364,0.13239251,0.089016706,0.10592994,0.07105837,0.057649076,0.1600451,0.036025573,0.06326063,-0.08840239,-0.07140951,-0.10607217,0.16805936,0.04331708,-0.076071076,-0.058630995,0.035386145,-0.12690479,-0.16921471,-0.15123937,0.13707943,-0.15520598,-0.08234767,-0.14322779,0.14002714,-0.075546384,0.102691054,0.046408,-0.053277224,0.09558631,-0.06685698,-0.06352703,0.1696813,0.10663784,0.057394672,0.12679149,0.14517544,0.110018104,-0.05799466,0.049334493,-0.112366244,-0.0932487,-0.015933251,-0.056469236,0.015931398,0.12568742,0.015287558,0.1664846,0.15417774,-0.036074027,-0.15739825,-0.032158438,-0.13427047,-0.10345545,-0.0064730244,0.037766084,-0.1591136,0.064949684,0.10391754,-0.16319814,-0.11750161,0.048392672,0.09413763,-0.07000692,0.106516175,-0.05276706,-0.03495793,-0.14101769,0.07345812,-0.11759439,0.046674356,-0.038011607,-0.05026391,0.13604724,0.09172516,-0.1129089,-0.1679072,0.08023071,0.1364854,0.027756482,-0.121063836,-0.12552837,-0.14968786,-0.005607173,-0.167311,-0.114054106,0.067801036,0.022625051,-0.11636569,-0.118765384,0.05561887,0.12552641,-0.013291091,0.13838872,-0.10737642,0.025483042,-0.103357874,0.014896424,-0.07545169,0.08637777,-0.056017585,0.008491627,-0.055145998,-0.17146686,0.0019189158,-0.099533804,0.094785325,-0.1283711,0.06279038,-0.07247066
0.04379697,-0.13986589,0.09088871,0.14037308,-0.060451046,-0.008970907,0.119583786,-0.061569653,0.004877845,0.096215814,0.09208507,-0.08429709,-0.1610702,0.12354728,0.029046526,-0.13746497,-0.08312649,-0.15237272,-0.11660812,-0.1541852,-0.10152322,-0.08187479,0.14719626,0.13330328,0.043559883,0.010026872,-0.13528723,-0.012907185,-0.00026659667,0.058699712,-0.13298911,-0.014753502,0.047355074,-0.15094264,0.16650143,-0.08994754,0.044349827,0.035639375,-0.10639146,0.1169795,-0.1368655,-0.010464518,-0.1561785,0.10944119,-0.111811794,0.16294195,0.17022704,0.055325642,0.052392233,0.0041395985,-0.1024237,0.023778046,-0.053297326,-0.010104597,-0.12256409,0.08847233,-0.16807513,-0.01850687,-0.07803876,-0.078128636,-0.0010076206,-0.16603155,-0.12642084,-0.114376605,-0.1586615,0.12526673,-0.16231097,0.06580286,-0.14330211,0.0041891187,0.11555702,0.08939911,-0.13588457,0.12871626,0.057171844,0.06434935,-0.035705276,0.018709006,0.13048214,-0.09410482,0.16768336,0.13882971,0.020195425,-0.13136669,0.11342761,0.1104451,-0.0742054,-0.12612876,0.08468994,-0.071264066,-0.13493067,0.13609372,-0.09787389,0.025839454,-0.04666612,-0.16439584,-0.01292327,-0.09701127,-0.09206757,-0.04789799,-0.056501675,-0.086537085,-0.046421107,0.15201527,-0.019944033,-0.16604802,0.12984091,-0.021278748,-0.13549982,-0.011794105,-0.13456628,0.10087183,0.15315446,0.08708677,-0.008020952,-0.021964172,-0.04821809,0.08380286,0.06373489,0.02107048,0.04848659,-0.09287422,-0.110624224,0.11936,-0.019695505,-0.0821759,0.031028599,0.013615519,0.037456136,-0.03967512,-0.11271137,-0.078645125,-0.11375578,-0.14622685,0.0074499445,-0.14789663,0.0759754,-0.007958602,0.07362178,0.061709877,-0.0048773685,0.05689376,-0.0027389987,-0.011297986,-0.035178088,-0.049746722,0.1332392,-0.12540679,0.093443274,0.018094897,0.08343473,-0.07923531,0.16485225,-0.14647602,0.16532165,0.02594617,0.15575895,-0.011244221,-0.17212446,-0.10674189
-0.12122902,0.11905312,-0.071486056,0.10804948,-0.047209248,-0.13798481,0.102221966,-0.026894733,0.019041138,-0.14463219,-0.10138098,-0.1604235,-0.018659994,-0.019655028,0.15680917,-0.16553609,0.08139555,0.042917334,0.00812147,0.075620845,0.16699456,0.030759841,-0.013881839,0.06484495,-0.13043977,-0.106915765,0.13845691,0.09244817,0.1400741,-0.05988943,-0.0686859,0.08850823,0.04058786,-0.09756676,-0.10414322,0.096303344,0.13021585,0.06944969,-0.157344,-0.13860281,-0.11160528,0.120689675,0.12563816,-0.1496548,-0.16943668,0.1327301,0.082747556,0.10573262,0.12452859,0.13637514,-0.1078407,0.14004457,-0.08749228,0.065325215,-0.060635213,0.1474702,-0.11298926,-0.12666373,0.10344464,0.13103738,-0.13974562,-0.050025973,0.017470244,0.09871635,-0.117373444,0.17021033,0.14332333,-0.009486147,0.12204367,-0.0032532811,-0.07582367,-0.14728644,-0.12369187,-0.15187563,0.13566488,-0.12004837,-0.048475772,-0.058087613,-0.10999679,0.1173499,0.15399164,-0.015793337,0.13573347,0.13161366,0.010027239,-0.037847675,-0.037650257,0.081228405,0.021087615,-0.16200063,-0.12700813,-0.15121457,0.03498712,-0.020700837,-0.12121807,-0.029078424,0.0152724525,-0.1393211,-0.13035788,-0.09344671,-0.08794107,0.1573523,0.039565213,0.1596331,-0.11872096,-0.030869387,-0.15466695,0.05133174,0.13213569,-0.11939716,-0.093158506,-0.16334249,-0.13204499,0.15870129,0.06021674,-0.09527219,0.1094573,-0.01919411,0.16310254,0.13486496,-0.10696752,-0.15418404,-0.06699017,0.062892064,0.1525543,-0.080197155,0.11255512,-0.009350628,0.17305051,0.10249848,0.07478276,0.055062886,-0.021318749,-0.09128241,0.16324824,0.005088879,0.14189197,0.13636433,-0.12976736,-0.11667793,0.036474124,0.16078906,-0.1036409,0.0299415,0.1423764,0.13756636,0.10980131,0.061545003,0.052076563,0.10359138,0.0117536,0.025096979,0.17281798,-0.13334528,0.16651306,0.059173156,-0.05219723,-0.14346239,0.08637881,0.05390069
0.03373687,0.13259247,0.15033953,-0.0655232,0.14721528,0.045030963,0.03192637,0.12845162,-0.08232039,0.13324808,-0.13997878,0.10734545,-0.16902766,0.0070841974,0.14946054,-0.0792911,0.1656031,-0.15341549,0.15053916,0.09559852,0.059357204,0.07572299,0.09863505,0.117999405,-0.009647019,0.014273142,0.027564744,-0.059612844,-0.12871137,0.05575647,0.041054226,0.15392938,0.17071381,0.14782608,0.1473755,0.07484501,0.013589732,0.15749095,0.09974903,-0.15581574,-0.11525657,-0.0055868304,0.14717044,-0.05150842,-0.008554889,0.120079175,0.0607583,0.048725456,-0.084822156,-0.058208536,-0.084298365,-0.071968,0.045592558,-0.13234538,-0.11582317,0.08573627,-0.14907478,0.11358546,-0.035965145,-0.077270746,0.15130535,0.09368584,-0.13811475,-0.0055018514,-0.04382664,-0.16651043,0.057048656,-0.050179392,-0.16672209,-0.08887546,0.03101292,-0.12794608,-0.1642382,0.03044187,0.04838008,-0.14316255,-0.02079657,-0.0880988,-0.14051005,-0.024806857,-0.058035187,0.082504235,-0.021300321,-0.16255657,0.14070289,0.056391124,0.03843162,0.12136373,-0.111067094,0.018213803,0.1498704,0.011565647,0.12743056,0.13355471,0.05704416,0.15408488,0.083534524,-0.07132188,0.14274558,0.14407276,0.1181102,0.13460769,-0.045777634,-0.079282284,0.11446219,-0.017942833,0.044469845,0.16836503,-0.11042097,0.11223465,0.15005979,-0.12418203,-0.062384058,0.03620681,0.019506771,-0.11651112,-0.08439434,-0.11508501,0.03343586,-0.08955612,0.12539604,0.0972836,0.050845407,0.020876734,-0.093926676,0.082148306,-0.09394702,0.098727256,0.16019395,0.08843043,0.10108036,0.13896324,-0.008506047,0.16713656,0.02345096,-0.1174388,-0.13633794,0.09000823,-0.023051405,0.09590478,0.080703184,0.077233605,-0.1084884,-0.110964745,-0.14861214,-0.075298086,0.033234898,0.053006437,-0.034826234,0.0151066035,-0.15188229,-0.1407466,0.17082314,-0.02101235,-0.04411292,-0.082500964,-0.17104769,0.0135571305,-0.1551213,-0.051119596
-0.071230896,-0.098042704,0.027165085,-0.1478526,0.111994475,0.106976986,0.14570656,-0.1483529,-0.11247496,0.09850082,0.046551824,-0.113132626,0.029635042,0.073134035,-0.16987255,0.11005443,-0.13331819,0.024050757,0.093149304,0.1032936,0.14772591,-0.16548967,-0.17139432,-0.07402341,0.13849679,-0.084232025,0.09970331,-0.066819854,0.0866335,-0.048088595,-0.064715035,0.12485719,-0.15972583,0.12697914,0.16359767,-0.05347643,0.02952069,-0.050642833,0.02014488,-0.16567521,-0.14770518,0.12258014,-0.12299609,-0.08445584,0.16543195,-0.119793974,-0.0351326,0.11878592,-0.11300808,0.09855634,0.11405033,0.031128615,0.05718653,-0.12022774,0.043659553,-0.14715943,0.016440779,0.10955775,0.090275586,0.04267098,0.10963458,-0.015196875,-0.1389908,-0.007241294,0.09452018,0.13682184,-0.12316801,-0.14351858,-0.14303741,0.04610105,-0.0038217604,0.028966382,-0.021164387,-0.06524287,0.020090044,0.121911526,-0.12872961,-0.12422818,-0.13089073,-0.13977161,0.08948669,-0.013942987,-0.06829777,0.16347346,0.15892339,-0.022009447,0.096619755,0.1298759,0.0056144297,-0.05720102,-0.12364067,-0.029021189,-0.02978383,-0.121047035,0.11200002,0.066322625,-0.16889389,0.12277004,-0.13509892,0.12395084,-0.11060432,-0.07312718,-0.16590911,0.019286886,-0.072613835,0.062305614,0.07333642,-0.09269418,-0.012994185,-0.08497451,-0.041288286,-0.13828453,-0.05146973,-0.057764955,0.122056544,-0.04978414,0.04359187,-0.08123716,-0.1540747,-0.001443103,-0.09009554,-0.013851896,-0.12481037,0.12136254,0.1593419,0.017988443,-0.15560411,-0.091117725,0.040010244,-0.14499535,-0.02932401,0.13597715,0.12819308,0.15445271,-0.10146262,0.09884241,0.0182987,0.13717926,-0.02088672,-0.0031226724,0.11807665,0.014806017,0.03586358,-0.14431405,-0.11019397,0.0179355,0.03895679,-0.093118526,-0.099480644,0.08701891,0.018434301,-0.14831586,-0.10538393,0.16196185,-0.14965214,-0.15370527,0.12765431,-0.10767033,-0.14626662,-0.10309919
-0.13621488,0.15218595,0.053675745,-0.032048784,0.08310607,-0.07590373,-0.029006597,-0.00876902,0.12367689,0.1654459,0.09614876,-0.14061376,-0.11943906,0.16140431,0.038928047,-0.006036838,-0.125834,-0.017326277,0.06992968,-0.1673669,-0.15527625,-0.045688596,0.097465955,-0.01319401,0.07390494,0.04557519,-0.08049466,0.022677688,0.055956915,-0.04359603,-0.10137383,0.13279772,-0.116515175,0.06635537,0.09223485,0.172055,0.15499167,-0.15437296,0.12501508,0.004672926,-0.042405695,0.08792818,-0.036424708,0.116517976,-0.1356298,-0.14905351,0.08675021,-0.1363688,-0.036064673,-0.018999273,0.07102951,0.002305548,-0.1431194,0.15815035,-0.018374655,-0.073289335,-0.0071139364,0.096302725,0.060933746,-0.00089642324,0.026083168,-0.12865292,0.11886411,-0.07830548,-0.028629458,-0.13768995,0.035670858,0.024149463,-0.0023837239,-0.0012046336,-0.06197523,-0.1508986,-0.013176815,-0.036385294,0.03668598,-0.0712263,-0.036463603,0.091644436,-0.104687005,-0.013816618,-0.15299305,0.12491268,0.083086945,-0.16493084,0.048734557,-0.010113141,-0.09287238,0.060337692,-0.059116457,0.10409693,0.05134585,0.13462617,0.09947876,-0.17147933,-0.030330867,0.078257106,-0.1504919,-0.09658502,0.054705177,-0.05007161,0.02448964,-0.08581141,0.050436687,-0.12858991,-0.09454559,-0.08913668,0.13388023,0.16708691,-0.16085774,-0.16606107,0.061732434,0.1282297,-0.044176467,-0.11837017,0.15963574,-0.14726064,-0.14213763,0.10166626,0.1378265,-0.07252558,-0.05376567,-0.13900867,0.15338744,-0.14081554,-0.14567645,-0.03189236,0.08728945,-0.09118537,-0.01771116,0.032046236,-0.12042372,-0.13597186,-0.08712675,-0.15792519,-0.088210754,-0.016521383,0.15880454,-0.054951034,0.11521855,0.12318635,-0.12889571,0.08396327,0.12149187,0.13505495,0.09912049,-0.00553379,-0.053635158,-0.025959805,-0.15573539,-0.021462321,-0.0780345,0.062052332,0.09807392,0.046457164,0.1730204,0.12041138,0.015994983,0.046711706,0.16558237,-0.08461955
0.04464811,-0.010350212,-0.06927168,-0.06355885,0.06510693,-0.12702465,0.036487415,0.13080445,0.0030944112,0.047347173,0.14239082,-0.15986225,0.051241413,-0.16511376,-0.14052022,-0.12073204,0.1557969,0.091917574,0.08337436,-0.14079759,0.11632249,0.09020901,0.10921285,-0.11231845,-0.027958976,0.16039485,0.12986395,0.0129302265,-0.017085776,0.1679208,-0.020417994,0.14638194,-0.16016926,-0.0038035463,-0.08775137,0.106600285,-0.07562484,-0.13498706,-0.15924437,-0.15633628,-0.15979092,-0.0268673,-0.097945325,-0.16356502,-0.081880584,0.14737704,-0.044943586,-0.16168533,-0.032636713,-0.16848002,0.055714056,-0.006150677,-0.116329044,-0.12819521,0.1104538,0.07024762,-0.0047676708,0.16528106,0.086261146,0.025077239,-0.1385714,-0.06705212,-0.15665922,0.010062516,-0.021261418,-0.14605746,-0.023347853,0.101137005,0.07386868,-0.06833407,-0.031818137,-0.15930103,-0.10356339,-0.09197175,-0.10515136,0.049077123,0.06621424,0.14742853,0.15775427,-0.026281655,0.08169648,-0.0941749,0.03644609,-0.08150897,0.009790748,-0.08300865,0.11601278,0.120456964,-0.12065063,0.03935249,0.15854114,0.16382016,0.10769662,-0.077957824,-0.16070077,0.052921176,-0.10811728,-0.14798611,0.09755232,0.08515233,0.10265657,0.10356697,-0.10629218,-0.11220926,-0.06985694,-0.10899356,-0.066142656,-0.16440699,0.027214885,-0.013449132,0.036727544,0.14968827,-0.13683993,-0.020954436,0.16660163,-0.053758025,-0.0646954,-0.08722711,0.072982565,-0.16849245,-0.14602397,-0.00411582,-0.15851344,0.12610665,-0.003920868,0.115659915,-0.17165709,0.10610077,0.017516905,0.0015391558,-0.12660787,-0.11119376,0.03707567,-0.16370162,-0.17014717,0.037440762,0.041704863,-0.006652549,0.14233413,0.15093258,-0.08669594,-0.1290374,0.0995726,-0.13832702,-0.039099958,-0.015750065,0.049157154,0.028250994,0.052052855,0.10181597,-0.10695431,0.056143492,-0.09628121,-0.10111792,-0.16763376,0.149158,0.119774535,0.053911682,-0.16341552,0.10141945
-0.118154675,0.0041050147,-0.087684065,0.11482971,0.1723659,-0.1236897,-0.07066994,0.13687912,0.13744728,-0.041728977,-0.09011247,-0.057401698,0.14328015,-0.11644344,0.04052771,0.053622376,0.08773004,-0.17186204,-0.16501966,0.11320254,-0.022434635,0.052351143,-0.064244494,-0.010109872,0.034398817,0.047498588,-0.037771087,0.09586083,-0.15875387,-0.15570867,-0.14244711,0.10693166,-0.094415374,0.15827343,-0.10635969,-0.071122095,-0.004088773,-0.14888412,0.059663758,-0.047645796,0.06802192,0.13980238,0.08881177,0.11088642,0.15173362,0.15291812,-0.13867006,-0.15122053,0.012453974,0.13581076,0.00627277,-0.07964711,0.026117088,-0.10404693,0.1255828,-0.019671634,0.0069915284,-0.03615842,-0.0028292828,-0.09461789,-0.0017454267,-0.01816771,0.08154741,0.093244106,0.053676844,0.056029968,0.15403832,0.038695857,0.0013441145,0.10550389,0.1508166,-0.17024262,-0.12665613,-0.026419079,0.16726385,-0.06709135,0.0073149507,-0.018033043,0.07445502,-0.06533984,0.14134836,0.083565705,0.1594145,0.0428149,-0.079431206,0.1319065,-0.14879844,-0.1638585,-0.047126886,0.0826446,0.024120864,0.12303445,0.062244505,-0.13300669,0.1393203,0.04169117,-0.075799376,-0.0376045,-0.1605182,0.13344055,-0.07648524,0.015171879,-0.045444317,0.09831989,0.15814446,-0.085616246,-0.121206954,-0.0027464826,-0.052638717,0.09989026,-0.15609778,-0.0799754,0.086838864,-0.13684995,-0.06318747,-0.15975367,0.027851913,0.11910313,0.08439225,-0.10296601,0.10831523,-0.009844453,-0.10208783,-0.046714075,-0.1544972,-0.025325075,0.055952005,0.10211012,0.032947954,0.14095765,0.013077297,-0.000745503,-0.0684177,0.13930486,0.03062737,-0.048765704,-0.15332527,-0.082791984,-0.11934617,-0.17319426,-0.11054126,-0.11027384,0.13712122,-0.011104479,-0.091584794,-0.12498161,0.042659983,-0.054947067,-0.00816904,0.011013001,0.15993786,-0.07649861,-0.09137438,-0.040539447,-0.063384615,0.0134781655,-0.027106188,0.012748673,0.09809229,0.11286892
-0.06425876,-0.010075852,0.11758989,-0.072232224,-0.00081864,0.07461633,0.04607813,-0.097693756,-0.13879332,-0.12966137,0.017012924,-0.14378217,-0.15704978,0.034619182,-0.01968506,0.07046594,0.012822032,-0.0072784573,0.0681629,-0.05393134,0.143695,-0.16344506,-0.06001468,-0.027099967,-0.047541767,0.15121883,0.14286375,-0.03631571,-0.16104501,-0.0063277185,0.08925736,-0.0035246313,0.09165594,0.0067827553,-0.10533933,-0.07915951,-0.005792573,-0.07492893,0.16311398,-0.17134225,-0.101317175,0.021440357,-0.0999764,-0.006753102,-0.10840341,-0.15173887,-0.083607264,0.15604103,0.024782926,-0.008920729,-0.11368255,0.15223783,0.07007107,-0.08307002,-0.000117853284,0.022277951,-0.08245963,0.06467791,0.05743219,0.16432354,-0.11357631,0.05199872,-0.16481139,-0.005736202,-0.07502784,0.16473484,0.15551603,-0.016838655,-0.07808427,0.15685287,0.11177611,0.00730823,0.04621701,0.036716282,0.043759808,-0.061427638,-0.13675644,0.06834608,0.12029502,0.10537079,0.046903953,-0.08161857,0.009319395,-0.12713268,0.076158375,0.025233254,0.11894241,0.11292839,0.07524951,0.057971835,0.009707987,-0.043608665,-0.10698467,-0.073761225,0.023082554,-0.13306369,0.1312533,-0.041327894,-0.13063008,0.12911353,-0.06657745,-0.018195659,-0.013127118,-0.10169127,0.076321736,0.05335015,0.10751957,-0.084014766,-0.069372445,0.11002532,0.016585395,0.15383989,0.116639435,0.14007863,-0.002286315,0.08180076,-0.100648314,-0.13425621,0.060811847,0.14300317,0.034561485,-0.11129697,-0.037831992,-0.011459619,-0.11180911,0.0037724972,0.074171826,0.12081382,0.052391022,0.11131343,-0.017174229,0.042947114,0.17194769,-0.12280832,-0.080347784,-0.034939095,0.05473779,-0.04172714,-0.123695016,0.14345396,-0.16338556,-0.011213869,0.08107677,-0.06412683,-0.11375615,-0.009483382,0.10345915,-0.036832064,0.07078226,-0.15705672,-0.16751318,-0.042148188,0.08453563,-0.14945498,0.10976061,-0.09180265,-0.09487217,0.12641552,-0.0027054548,-0.021758541
0.0049375594,0.15205866,-0.041960306,-0.16192178,-0.13677807,-0.108081914,0.012843593,0.041780114,0.14065832,-0.04544922,-0.11624157,-0.051960357,-0.069155924,0.034651555,-0.0877708,0.1726496,-0.12574425,0.1670166,0.16479975,0.16682133,-0.080338344,-0.14768425,-0.04171781,-0.077968806,0.059428986,0.12879579,-0.080072045,-0.071387686,-0.10404114,-0.1588975,0.115366556,0.07280857,0.037959084,0.0956097,-0.09231801,-0.0554794,0.091337666,0.038379285,-0.17153466,0.06707822,-0.04138483,-0.10262011,0.023473846,0.14392498,0.09763043,0.0025480676,0.08072645,-0.009969056,-0.16844468,-0.14214207,-0.03869159,0.16969787,-0.14039272,0.08905855,-0.07689966,-0.105288975,-0.13202214,-0.055283476,0.05680907,-0.042866897,-0.10852828,0.15714833,0.030740388,0.13933218,-0.0076113176,0.111752935,-0.16252598,-0.11864164,-0.06831429,-0.005470678,0.16971186,0.016722001,0.13499267,0.058787428,0.020221328,-0.06738195,0.049194816,0.070945404,0.033299454,0.14454745,-0.057656802,0.15053186,0.15969826,-0.047674436,0.1323641,-0.040533636,0.020936862,-0.07562909,0.05672422,0.059243616,0.033607617,-0.16326277,0.03311601,-0.13171048,-0.0062965625,0.13309635,0.12671877,0.15736681,0.10576041,-0.014694438,-0.14200564,0.12018216,0.045690462,0.027445406,0.12990722,-0.019494457,-0.051417075,0.122741885,-0.03608054,0.0436911,0.060868103,-0.07166221,0.021828063,0.12498483,-0.050420266,0.1294879,-0.0020873102,-0.06813616,0.03735178,-0.06250717,0.10317132,0.027327135,0.05799201,0.0651569,0.06590358,0.11767682,0.15624435,0.03579077,0.12615712,-0.11877918,0.11498811,0.15187702,0.15008666,0.11028313,-0.10898117,0.055312153,-0.13395487,-0.009562017,0.008259695,0.021255763,-0.123055674,0.14636946,-0.05841203,-0.15477003,0.036847,-0.14621946,0.062123932,0.12104494,0.04151562,-0.09925943,0.13657062,0.05351682,0.0432277,-0.023931665,-0.09097753,0.11766226,-0.07461251,0.075555965,0.16586098,0.14047211
0.06959577,-0.009335989,-0.13854961,0.02740067,0.078749485,0.018578922,-0.042977057,-0.07248735,0.021392303,-0.0150371445,-0.051013015,-0.16122223,-0.044423923,-0.06366832,-0.014661764,-0.01740282,0.13197617,-0.05348477,-0.123201385,-0.034554217,-0.02106607,-0.094109796,-0.09826766,-0.0045280308,0.157783,0.16749647,-0.06910351,0.02319488,0.046377733,0.118589945,0.04527956,0.06573322,-0.047192305,-0.048283428,0.02194132,0.08574372,0.097921975,-0.014297879,-0.11859941,-0.02543999,0.025636375,-0.11622455,-0.016320538,0.06409449,-0.1165124,-0.13333793,-0.12957545,0.114415795,-0.14348546,0.06397776,0.0925543,0.07860805,-0.10559589,0.10589182,-0.16853501,0.11519778,0.11378249,0.05550338,-0.092181586,0.12175782,-0.1602045,-0.10192445,-0.007977186,0.025710627,-0.06391609,0.17050828,0.00012933908,0.08875971,-0.0905856,-0.10502834,-0.09848564,-0.053279325,0.04222197,0.07720529,0.06551922,0.07926525,-0.099322796,0.04210737,-0.12728107,-0.16455962,-0.12023385,0.15603726,0.14625269,0.021864884,-0.17283872,-0.15737104,-0.07717812,0.028642714,-0.043433253,-0.049138233,-0.14246154,0.021226833,-0.11169282,-0.08113126,-0.076354235,-0.08280675,0.12037862,0.1324248,0.090087496,-0.1477788,0.10354777,-0.085059315,-0.012787472,0.026535705,-0.04190239,0.05838133,0.0062463204,-0.16109474,-0.1157849,-0.15325007,0.06213018,0.06397936,0.041596074,0.14141284,0.14868987,0.037683368,0.15095346,-0.022906682,-0.0158045,0.16466187,-0.06626733,-0.05317418,0.002314444,0.15709053,-0.11265803,0.12958607,0.11452252,-0.1564688,0.024636531,0.16639484,0.13324365,0.0049098646,0.028002402,0.015661798,-0.14655782,0.10656344,0.14339827,-0.09318496,0.13886933,-0.011810276,-0.120204054,0.13226779,0.13777487,0.15009916,-0.13821833,0.06671345,-0.09609693,-0.087618805,0.16628915,-0.14668085,0.06816787,0.16972162,0.040586676,0.035219815,0.17018205,0.107096404,-0.028284525,-0.17090327,0.026557997,0.06747115
0.07082893,0.09527149,0.16764562,0.14975584,0.12413884,0.16038448,-0.035825346,-0.10015702,-0.15786423,0.016092159,-0.119291484,0.10503313,-0.047193624,0.11976435,-0.16034727,0.1492212,-0.04308985,-0.14331871,0.13501158,0.13110763,-0.062247735,-0.107777916,0.1159072,-0.10775842,-0.17289455,-0.009407037,0.1200245,-0.03879807,0.008845046,-0.101124324,0.13665214,0.12555628,0.015002522,0.0077075884,0.04143036,0.11056592,-0.16823846,0.12821834,0.07456624,-0.15961026,0.08104211,-0.045514844,-0.003703476,-0.02069853,-0.12574479,-0.076686025,-0.05852932,-0.1333414,0.06749062,-0.12934612,0.034593202,0.089717664,-0.108163595,-0.120186985,-0.090906784,0.14869592,0.05092827,-0.13480626,-0.08996191,0.1637273,-0.04372258,0.059881236,-0.08861385,-0.03257841,0.0963148,0.16762799,-0.13377406,-0.022480851,-0.108873926,-0.04141733,0.081283085,-0.01834675,0.048614774,0.035410315,-0.057398293,-0.10715748,-0.031985294,0.14950328,0.10396312,0.07225763,0.05264528,0.06899993,-0.09425367,-0.16256234,-0.17243062,-0.15467626,-0.037308965,-0.14228274,0.07421145,-0.12312078,-0.14988996,0.11116056,0.1711022,0.038989257,-0.041927256,-0.014817802,-0.076387644,-0.03473705,0.0388265,0.0976968,0.16774647,-0.011066296,0.10335925,0.10882056,0.084212326,-0.083069056,0.10923801,-0.13709466,0.0009867102,-0.051462464,-0.058786403,0.16339189,-0.13800232,-0.15359133,-0.013165281,-0.11680568,0.026814185,0.10954481,-0.12406453,0.07623315,0.06460568,0.0236563,-0.14532246,0.13637753,0.16885763,0.06630672,-0.08105609,-0.12527853,-0.08425366,-0.12317666,-0.006568722,0.1494444,-0.04869233,-0.11775726,0.123603314,0.007919397,-0.00750166,0.062662475,0.16225089,0.020894622,0.06853633,0.17221344,-0.072038576,0.16406396,0.16962762,0.15025748,-0.1121253,0.068347536,-0.1408308,-0.016996443,0.08316383,-0.12560819,-0.04809448,-0.09232578,0.14647856,-0.14738254,0.07988275,-0.050613657,-0.08631433,0.07257413
-0.0571722,-0.059061415,-0.038191468,-0.040160257,0.042996258,0.05325728,-0.16279787,0.05618012,0.029206678,-0.07657291,-0.14015533,-0.10518119,0.17288509,0.15212916,-0.018413518,0.065298334,-0.15489748,-0.008908464,-0.13260995,-0.10309601,0.1229572,0.021320881,0.09283375,0.07192783,0.04052703,-0.15959056,0.14796466,0.022839878,0.11347324,-0.14210644,-0.110307865,-0.057885718,0.1325748,-0.12455221,0.117779374,-0.1372135,0.059222203,0.045817446,0.11629051,0.15254557,-0.10817005,-0.15687737,0.079585075,0.07163291,0.17109922,-0.11063519,0.029852236,-0.044052437,-0.08372025,-0.042074587,-0.041810133,-0.024477622,0.13345039,-0.013599992,0.0038540112,0.043432385,-0.08873619,-0.030832022,0.09941193,0.005963677,-0.073993206,-0.15101397,-0.052136023,0.09786764,-0.0674701,-0.03117995,0.11794999,-0.17021315,0.10779846,0.110268146,0.11797029,-0.07846675,0.07698047,-0.040348187,-0.13413692,0.12595844,-0.13912255,-0.051315907,0.076627284,0.02071996,0.02075763,0.1568811,0.108753055,0.12031029,-0.12828863,0.11257101,-0.09987609,-0.005305946,-0.04206562,-0.0791131,-0.042293098,-0.13140674,0.09787521,-0.088532984,0.03506041,-0.12802,-0.13057283,-0.034578152,-0.043474022,-0.1057228,-0.036954675,0.14813995,0.067613974,-0.051594816,-0.16756257,0.07110672,0.16028221,0.04414265,-0.118532814,0.099805266,-0.11709233,0.13115796,-0.089947075,-0.17050897,-0.107496895,-0.008612916,-0.1474707,0.09921539,-0.17090654,-0.043688327,0.14245677,-0.1286586,0.048605293,-0.11199763,0.0248269,0.13910803,0.14654335,0.15774798,-0.032384105,-0.08110878,0.16443771,-0.13303769,0.10510379,0.03005075,0.081525765,-0.0018960299,-0.07564331,0.13089901,0.008490308,0.11037141,-0.06173113,0.07131397,0.15495905,0.08244306,-0.093554765,0.13486984,-0.13179864,0.040428523,-0.04681319,-0.1318762,0.10869869,0.08189967,-0.027347542,-0.031609662,-0.0052613216,-0.1492237,-0.032165073,-0.08122732,-0.11002119,0.07213506
-0.057959206,0.12974726,0.10096693,-0.14693424,-0.039055876,-0.15453063,-0.11526537,0.077376455,0.16623169,-0.15008765,-0.012085686,0.15325874,0.14204586,-0.07904835,-0.0847776,0.042032424,0.08141147,-0.08597196,-0.077717684,-0.14709339,-0.02338693,-0.04446786,0.15297078,-0.11529246,-0.09905943,-0.09088586,-0.0750328,-0.11707373,-0.11319515,0.0053781476,0.13845937,0.030045705,-0.15568146,0.114415094,-0.122914,0.012761419,-0.037803393,-0.0070206146,-0.14822844,-0.10950491,0.028982982,0.17212658,0.077339984,-0.100786485,0.117159635,-0.13321744,-0.06327045,-0.048040107,0.014050766,-0.0017610253,-0.108586185,-0.11590157,-0.17111593,-0.04391534,0.010568829,0.1220902,-0.13592106,-0.16868174,-0.12108541,-0.12368819,-0.12457172,0.018174466,-0.0005443326,0.014120728,0.05718182,-0.062331337,0.14026912,0.15077521,-0.02679871,-0.055644922,-0.053149566,0.0808524,-0.011152156,-0.07508549,0.07734534,0.061887603,0.01851675,0.059314013,0.0588995,0.09479109,0.0016120523,0.15845351,-0.04104955,-0.015501032,-0.0789129,0.014955623,-0.0807075,0.13748541,-0.046235632,-0.029464625,-0.059353583,-0.15750957,0.13559656,0.13207121,0.0711855,0.063472755,0.037994694,0.06093946,0.049993582,0.09125765,0.029989615,-0.09888891,0.16452079,0.16335616,-0.08746069,0.116153814,0.11586941,-0.14370777,-0.04430759,0.13193327,0.16398948,-0.09684392,-0.008541348,0.11138612,-0.14279804,-0.042123687,-0.08793301,0.12270237,0.08625141,-0.0036436822,0.11145434,0.14176674,-0.011413639,0.08707058,-0.16601038,-0.062066436,-0.0706916,-0.02003768,-0.008701208,-0.024347344,0.1484146,0.05129228,0.12242036,0.13594055,-0.07120513,-0.07836795,-0.071740694,0.058126558,0.12895583,-0.048962995,0.07926795,0.1090977,-0.038004115,-0.17093273,-0.07628788,0.1414116,-0.16780028,0.12774386,0.101530105,0.10959023,0.15763643,0.089578934,-0.06475891,0.04914677,0.060550205,-0.112902485,0.044751916,-0.14909267,0.03825289,0.100989714
-0.15001838,0.0123747075,-0.15838492,-0.07849023,-0.13380998,-0.09432602,0.112469465,-0.07599782,-0.11379362,0.034423187,-0.07845251,0.04484783,0.0029440122,0.14798778,0.0023371861,0.0107051935,-0.03681931,-0.019368632,-0.1306509,0.01948931,0.0042476794,-0.12388902,-0.03304311,-0.12730712,-0.14520293,-0.03907247,-0.0948933,0.16499154,0.10566452,-0.08334148,0.0011847444,-0.047435857,0.15179844,-0.039629806,-0.119932935,-0.008051148,-0.078391224,-0.08702695,0.14357601,0.07551603,0.0032566786,0.020467602,-0.045409262,0.16560104,-0.04226464,0.1688116,0.03198296,0.06084636,0.09332341,-0.0047983998,-0.04412934,0.00042784715,0.11862072,-0.06519036,-0.10728506,0.15317577,-0.15315743,-0.029670382,-0.09882507,0.09292283,0.15723765,0.09464839,-0.10392721,-0.16393094,0.15907359,0.17051536,0.05223994,0.14118883,0.109378815,-0.14984083,0.1427519,-0.055463165,0.026540397,-0.0779259,0.04686605,-0.04577929,-0.06595685,0.037660033,0.041094244,-0.067726776,-0.1557059,0.114509456,0.16876774,-0.15968892,-0.08709849,-0.0077229096,-0.15364726,-0.14438818,0.06900583,0.012683676,-0.15366758,0.12238064,0.045867532,-0.024400368,0.011819327,0.16128561,-0.07529912,-0.13049547,-0.08651441,-0.15304069,-0.13418922,-0.109647244,-0.114298515,-0.037786245,-0.16666351,0.055880267,-0.11818137,-0.17201264,0.15466812,0.1449329,0.14377585,-0.16185862,0.1481066,0.08015138,-0.04738067,-0.08972264,0.08731007,-0.032573353,0.16755062,0.040761936,0.11943722,0.04804777,0.16995333,-0.09778841,-0.09110501,0.15991151,-0.032211617,0.14020783,0.12914988,0.09332916,-0.061793186,-0.10922389,-0.13184696,0.09069455,-0.027640041,-0.10394335,0.15096791,-0.0688238,0.057635654,0.03809918,0.17066377,0.036049593,-0.017369151,0.13633874,-0.0417925,-0.06948056,0.12346239,0.12828799,0.006305501,-0.16448599,-0.11607086,-0.1467992,-0.14057924,0.13468021,-0.07978113,0.1357618,0.11700284,-0.019551221,0.12099612,-0.039208356
0.080323786,-0.03810345,0.0032142433,-0.032080114,0.15760979,-0.01401299,-0.13012421,-0.15178083,0.1682725,0.024815693,-0.07466021,0.17017218,-0.15398002,0.15864842,-0.0069663124,0.12885426,0.120742954,-0.018777393,0.022220476,0.1463109,0.07996912,-0.050730977,-0.10216418,0.0411229,0.1318632,-0.12996578,-0.0096743405,0.05696777,-0.0930145,0.07439697,0.16182332,-0.04922156,0.031150939,0.09115667,-0.1534307,-0.10194783,0.13404077,0.020113641,-0.07924634,0.053166706,-0.13785349,-0.08747749,-0.124443926,-0.11420088,0.007862602,0.121471606,-0.09483259,-0.14589451,-0.027030347,0.03649398,-0.15376613,0.105199024,-0.02557767,-0.07483501,0.07978846,-0.116089374,-0.12437641,0.05296042,0.16038306,-0.1375103,-0.11599817,0.079514384,0.054794602,-0.025488243,-0.0918984,-0.13133529,0.082297854,0.12167471,0.054706126,0.07525441,-0.054934356,-0.0016007066,0.069586806,-0.09659371,0.16880979,-0.084139846,0.10781599,0.049406637,0.12462795,0.031766266,-0.08757496,-0.14355631,0.015264882,-0.15480536,0.12035572,0.08564248,0.1554971,-0.035519123,-0.0064511695,0.011194125,-0.0429045,0.06447988,0.13344344,0.07889894,0.13022918,-0.064450264,0.1626667,-0.12367029,0.062410012,-0.02626697,0.02192855,-0.15430185,0.09225115,0.1709266,-0.0036178513,-0.018415853,0.041348476,-0.16491471,-0.040760696,0.15501437,-0.017518032,0.053497165,0.0946519,0.026111,-0.10883253,0.1572974,-0.06518153,0.10827115,0.09077169,-0.17299302,-0.05295161,0.007287855,-0.043644197,-0.07848583,-0.009387404,-0.15345421,0.023024796,0.03306383,-0.11542597,0.12320893,0.09235523,0.17254557,-0.042750414,-0.07017549,-0.09859645,-0.16631138,-0.0913689,0.13708693,-0.15412836,0.018471172,-0.12737921,-0.0211031,0.16001649,-0.16929582,-0.022790497,0.041903645,-0.088911496,-0.16793619,-0.11686197,0.15933928,-0.14747362,0.008681018,0.10641885,0.08922948,0.16262689,0.12641606,0.14882725,-0.09157415,-0.09701651,-0.038591098
-0.05927054,-0.042344987,-0.15827654,0.10242818,-0.03533131,0.1506724,0.095528364,-0.0064278245,0.051831864,-0.027448053,0.06035012,0.041320004,-0.16590506,-0.16709623,-0.16194768,0.12511545,0.0089172395,0.17216069,-0.105437465,-0.13141991,0.12536316,-0.16843335,0.0868372,-0.121393666,0.105895825,0.0075241216,-0.124454916,0.16224423,0.06129062,-0.16988923,-0.102140054,0.018409379,0.06580537,-0.1060333,-0.08990377,-0.032640897,0.14833239,-0.005807669,0.11924788,0.07091281,0.0660765,0.14771108,0.017022971,-0.07088082,0.01909191,0.0774956,0.005857141,0.07609293,0.1426534,-0.05269607,-0.099233866,0.14015871,-0.05163164,-0.06982646,-0.095648825,-0.0038068849,-0.0084842155,-0.15823984,0.014466738,0.13252899,-0.15349683,0.080135524,0.008068181,-0.057971552,-0.07897766,-0.1035778,-0.08522936,0.17070042,0.16559151,0.0122666955,0.09339302,-0.15159857,0.04237117,-0.018927848,0.06416918,-0.17116384,-0.14921817,0.051125042,0.056575667,-0.11088676,0.09910709,-0.08197168,0.05613017,-0.08356292,0.14765257,-0.012744335,0.07644504,0.07883349,-0.030645834,0.16224898,-0.06468605,-0.06642186,-0.027218401,0.058916766,0.06867959,0.0028368144,0.07016529,-0.040908072,-0.037915602,0.011115239,-0.03002013,-0.17081773,-0.07150199,-0.1284614,0.14571531,0.044516914,0.1481467,-0.1650588,-0.03772913,0.10023904,0.051413134,0.06668469,0.15194471,-0.06522221,-0.053783886,-0.0951882,0.08442224,0.0021389949,0.14924851,-0.03495031,-0.13607836,0.0057633766,-0.028144887,0.14207,-0.073411405,0.0035155814,0.14162084,-0.0948232,0.04118981,0.057283383,0.0040432494,-0.1049566,-0.035366442,0.048975807,-0.1493656,0.15704925,0.057467766,-0.015212981,-0.04471511,-0.011911733,0.104039535,0.14760742,-0.16073744,0.09792739,-0.15616675,-0.15449195,-0.14087692,0.08685357,-0.13279064,0.0063964725,0.08513514,-0.054280978,-0.11742328,-0.12791304,0.104829274,0.06919614,0.063150615,-0.056682497,0.11059468,0.16552672
