0.10327062,-0.0006028674,-0.11473791,0.14881256,0.037156995,0.015187012,-0.06970779,-0.05475431,0.14438011,0.12173846,-0.09462705,-0.15012544,0.09873078,0.13469724,0.14548087,0.087779194,-0.029903535,-0.070371665,-0.03267807,0.006306715,0.061833903,0.043663487,-0.0051720683,-0.17173457,0.13456208,0.046052743,0.14872418,-0.16151777,0.020781038,-0.074348964,0.028300948,0.048793726,0.09677585,0.05671543,0.1643762,-0.12534514,0.043688465,-0.010926635,0.04116086,-0.04544849,-0.14794403,-0.13613075,-0.14082715,-0.0763718,0.032896493,0.035041675,-0.13912411,0.102390364,0.012675486,-0.03353949,0.14993167,-0.13372877,-0.020668706,-0.03875182,0.045610227,-0.11024458,-0.07760385,-0.15534651,-0.06297157,-0.08167788,0.03286594,-0.12971511,0.070173234,-0.0020127236,-0.14800352,-0.061147552,0.035277467,0.04516588,0.09849749,-0.12850556,-0.122299634,0.1312268,0.004109732,-0.17241022,-0.10389153,-0.112531535,0.0246879,0.14642058,0.1399429,0.10452954,0.16294253,-0.14668262,0.07375029,-0.10732109,0.08696071,0.1398954,-0.0062377276,0.01577039,0.043591835,-0.00980202,0.103963986,0.13223433,-0.14179522,0.087467834,0.009812947,0.02201342,0.11868213,0.15366921,0.12053091,0.025720919,-0.07127092,-0.14097075,-0.061323304,0.16435482,0.062173277,0.017314987,-0.1284771,-0.085881375,-0.039735645,0.06919704,-0.15033823,-0.0116782375,-0.048843622,-0.054362133,0.12688407,0.0076312306,-0.032132685,0.100824945,-0.10793716,0.027094457,-0.1480789,0.0416771,-0.023351349,0.15942016,0.16324505,0.013996072,-0.09503343,0.20248465,0.06061574,0.17820476,-0.11117553,-0.10344765,0.16373907,-0.05112328,-0.086330734,0.011628031,0.089685045,0.1669161,-0.07927096,-0.14030795,-0.040620252,-0.07276388,-0.11150744,0.1280282,-0.047327135,-0.07166896,-0.12141161,0.16676098,-0.008356967,0.16992302,-0.07999803,-0.08310839,0.016325861,0.098044425,0.18147,-0.057891734,0.1051677,-0.12186862,-0.06576232,-0.06413041
0.08607215,0.0666156,-0.13619313,-0.13630614,0.08578778,0.12788194,0.04346314,0.06921265,0.16282173,-0.15820988,-0.0448086,0.06181159,-0.0264866,-0.06779575,0.07638857,-0.003789192,0.14625844,0.0525164,-0.062763885,0.15960023,0.16847512,-0.13664517,-0.14135416,-0.14528936,-0.038044497,7.163989e-05,0.15021405,-0.12365938,-0.07167333,0.13451533,0.10009534,0.124038525,0.030320257,0.051837504,0.1289474,0.11566308,-0.09543116,-0.037596866,0.041312933,0.10116188,-0.16685729,0.0837647,0.1278291,-0.10964268,0.044731475,0.029015258,-0.097715475,-0.112707935,-0.08637002,0.0049693924,0.016536083,-0.15125445,0.10721694,0.13126063,0.065762885,0.11481924,-0.071594134,-0.15545326,-0.14252616,0.04311403,-0.06874181,0.04897759,0.051408038,0.1538252,-0.13553302,0.03468349,0.05559811,-0.083131045,-0.15970291,-0.15492377,0.12091764,-0.1499592,-0.037200537,0.07297252,-0.026402762,0.010456498,-0.005143506,-0.13611269,-0.015679281,-0.11018932,-0.08862936,0.034508824,-0.16271706,0.081455596,0.046185967,-0.16317059,0.16758016,0.17000793,0.09001648,-0.11684649,0.031242758,-0.11018559,-0.08371617,-0.0361887,-0.07353137,0.058933843,-0.17317295,-0.020431519,0.08328791,0.10643202,-0.1303021,0.08788052,0.13760337,-0.059875615,0.09250815,-0.1703047,-0.022070572,-0.0748245,-0.047655407,-0.014647893,-0.12576379,-0.14873387,0.0016526461,-0.043852434,0.015632054,-0.11119464,0.15209901,-0.1373181,-0.14272676,0.055256587,0.15899837,0.007099184,-0.10290262,0.09287169,0.113568164,0.01870445,0.07663864,-0.047986887,0.0547095,-0.10947821,-0.009957135,0.042025473,0.07277124,-0.026967563,-0.11086942,-0.05133752,-0.08400296,-0.16050099,-0.017538968,-0.099110104,-0.08166305,0.02789604,-0.084683314,0.1667021,-0.057006236,0.06486769,-0.04990761,-0.009315774,-0.03555332,0.15474679,-0.1252834,-0.13532183,0.08834547,-0.039435282,-0.09640521,-0.11943554,-0.058407493,0.15191147,0.12796767,0.021957483
0.1354779,0.08901216,-0.09964703,-0.031527046,-0.07411287,0.15009995,0.13212448,-0.18008026,-0.15813757,0.1193162,-0.06805997,-0.038917076,-0.112547554,0.08677359,-0.1573367,0.16969837,-0.08433475,0.16912052,-0.034514662,-0.05261604,-0.024228826,0.10016874,-0.02742844,-0.044749353,0.0060792025,0.031661652,-0.15722635,-0.0005200356,-0.15635729,-0.14581035,0.07822738,-0.036347732,0.015725762,-0.038505763,-0.112201735,0.15358886,-0.11253026,0.0056956396,-0.16115725,0.07250599,0.09274304,0.07514234,-0.058548678,0.03481282,-0.050491434,-0.12596422,-0.037518535,0.19106941,-0.10287646,0.07587161,-0.12874593,0.1507321,0.0427541,-0.15491213,0.06357013,-0.03396212,0.13615532,-0.037120894,0.12616529,-0.12724096,-0.002012198,-0.11116247,0.036621466,-0.02594246,0.06346422,-0.014078513,-0.1693943,0.04292701,-0.10947522,-0.10063304,0.14483781,0.12848419,-0.019358644,0.012434468,0.14374979,-0.042448305,-0.12831044,0.059518665,0.053065915,-0.022465583,0.027943254,-0.15457088,0.09805346,-0.1327829,0.13302076,0.14274938,0.10056054,0.046702355,-0.13757056,0.16760385,0.09008115,0.06824217,0.17282471,-0.14236219,0.116853215,0.05351041,-0.06501606,-0.11563352,0.008863612,0.048345268,0.1248725,-0.17103678,0.001067148,-0.034237795,-0.0028611678,0.11846752,-0.0016247496,0.08448886,0.107964456,0.033272166,0.13819714,-0.1647678,0.0850484,-0.08908393,-0.0006534046,-0.045077063,0.0842172,-0.018387828,-0.10482314,-0.021714076,-0.13066055,0.08414618,-0.063650034,0.15836313,0.17002957,-0.13044444,0.058290854,-0.02721994,-0.025829665,0.031957723,-0.1255024,-0.07341086,-0.10730527,0.14587899,0.01795232,0.1628502,0.042341694,-0.1690938,-0.020923512,0.14899866,0.0913561,0.08073924,0.12655967,-0.13218997,-0.14123495,0.039484154,-0.06260205,-0.16147028,0.08243842,0.069617644,0.09242026,-0.06871479,-0.10841372,-0.108935334,0.1302933,0.013089041,0.025670577,0.17425068,-0.1345767,0.08108037
-0.12353879,-0.15166356,-0.03273219,-0.16428347,-0.035490282,-0.100930326,-0.04175456,0.023401767,-0.04570236,-0.14485252,0.10625165,0.12780972,0.16607797,0.045523208,-0.108811736,0.11153908,0.10579063,-0.023135453,-0.09154885,0.145156,-0.07355029,0.08194733,0.015485624,-0.11373233,-0.04525293,0.11912303,-0.102403075,-0.112119116,-0.0559526,-0.13237178,0.16843535,0.116752,0.11802583,0.12933904,0.08323886,0.09986469,0.0010023954,0.070944734,0.07395937,-0.05814485,0.118456006,-0.08814966,-0.10837157,-0.11981518,0.09727599,-0.14579953,-0.13933049,0.15172058,-0.11871498,0.16678639,-0.08274394,-0.10690643,-0.036851536,-0.12816171,0.0886808,-0.017405108,-0.1175997,-0.17032118,-0.10007342,0.12850589,-0.02352127,-0.102172524,0.04929365,0.12128663,-0.06124821,-0.002709348,0.07086173,-0.10394265,-0.09610438,0.1143604,0.07405128,-0.13528366,0.005058664,0.0514905,0.03274446,0.0013534061,-0.11579308,-0.029144723,-0.085646786,0.122027054,0.13260594,-0.115944676,-0.12305997,0.07949658,0.042819455,0.1246493,-0.112846404,-0.061810147,0.107746825,-0.11469691,-0.058852077,-0.13474403,0.14748572,-0.11112289,-0.16429226,0.0020829511,-0.16782236,-0.06563683,-0.11249525,-0.16164252,0.093588136,0.04102711,0.05383356,0.0047588646,0.12511462,-0.10920368,-0.12688735,-0.07375359,0.15184598,-0.107721426,0.1468296,0.115288585,0.030130908,0.14218527,-0.082773514,0.158961,0.15039468,-0.14994772,-0.038525563,0.16159189,0.024604112,-0.1493436,0.029807732,0.014973638,0.16494186,-0.047256887,0.0981763,-0.15357631,-0.09414884,-0.11315788,-0.023338895,0.11603913,0.11165168,0.10782468,0.13765092,-0.027082706,0.12901177,-0.07455579,-0.09290561,0.1310659,-0.12459637,-0.1677094,-0.022149418,0.15621968,0.017373532,0.14001985,0.079773545,0.12231153,0.052414574,0.1216808,0.08921393,-0.040018,-0.091894016,-0.0016045719,-0.0954403,0.08194061,-0.027746124,-0.016442517,-0.15575683,0.08448627
-0.16539815,-0.008538149,0.115757115,-0.102287136,0.17504184,0.09809135,0.057242956,-0.10771709,0.17120151,-0.14068432,0.023083022,0.17235917,-0.05982627,0.055997446,-0.11770777,0.13622682,-0.055094287,-0.009213433,-0.14896557,-0.07418616,-0.037486244,0.06660368,0.06145261,0.13639769,0.011341579,0.050590724,-0.16661279,0.13838121,-0.09082568,0.029543051,-0.09393971,0.07274568,-0.076426305,-0.057177693,-0.11641026,-0.16092122,0.10692237,0.17407508,-0.010241315,-0.02733198,0.055915132,0.07802347,0.1416647,0.15070277,0.18284126,-0.048866905,0.06805329,-0.029435504,-0.14856106,0.009007363,-0.053942356,-0.13726275,0.07611484,-0.15883766,-0.07144441,-0.11887917,0.1344544,-0.10736541,0.08299699,-0.017791009,0.07349141,-0.001921712,-0.01272735,-0.16118053,-0.022214683,-0.08416831,-0.09717134,0.006881416,-0.16624556,0.023897173,0.12005273,-0.14460543,0.029476075,-0.10203683,0.14308208,0.036276646,-0.0354973,-0.012141345,0.0942634,-0.0432756,-0.046241954,-0.03394559,0.13152066,0.14771843,0.059770755,-0.038987067,-0.16734146,-0.018563494,0.16537058,-0.1008359,0.12918778,-0.03888243,0.04174121,-0.13687634,0.14217106,-0.02662053,0.046863098,0.13833389,-0.13002987,0.020566573,0.14344543,-0.06323347,0.02654549,-0.12338459,0.094428174,-0.002289244,0.043750066,0.12854126,-0.13710658,-0.044011205,-0.04965198,0.091522,0.032469213,0.07138711,-0.10588933,0.04849457,0.051693033,0.01280739,0.10839544,0.10418499,0.04185544,-0.06501363,-0.14432292,0.10733103,-0.04449602,0.122438766,0.1379767,-0.09174713,0.032274455,0.10121224,-0.041454837,-0.108939976,0.02017621,0.12849364,-0.1519781,0.018794471,-0.028463487,-0.029357746,0.024721367,0.049330056,-0.07543919,-0.045967884,0.076437995,-0.03185631,0.16410612,0.054177642,-0.051352523,-0.17147493,0.017869202,0.09558722,0.089333154,-0.042310916,0.011831016,0.0805116,-0.066453,0.06974291,-0.064747095,0.14942592,0.031565513,-0.089338064
0.025362924,-0.0343554,0.023948342,-0.17188281,0.12610713,0.0060977614,0.08866352,-0.16845442,-0.007012024,0.06905739,-0.122831054,-0.11219512,-0.019643042,0.096179016,0.02450645,0.13235992,0.02081424,0.10752213,-0.06251061,-0.047002077,-0.15900618,0.02357471,-0.05281086,-0.08667608,-0.09538801,-0.13431835,0.060427964,0.10809377,0.07544546,-0.009981364,-0.021693498,-0.04291447,-0.094646744,0.060192615,0.057589684,0.10577241,0.03186822,0.052250367,-0.06336616,0.07406488,0.025415033,-0.095454246,0.07810536,-0.12876432,-0.038650468,-0.018324329,0.07902303,0.17234689,-0.0067754085,0.00026800262,-0.02333455,-0.07958318,0.03708558,-0.036121204,0.022746844,0.100062475,-0.16350994,0.1688188,0.0366946,0.13874087,0.046003133,-0.1229216,0.106890716,0.12917787,0.15542778,0.018697,0.11934814,-0.13944873,-0.12217808,0.0077250893,0.1443257,-0.12225103,-0.17168537,0.16785398,-0.07031763,-0.025274083,0.061447542,0.0012197569,0.100088745,-0.056806568,-0.16791362,-0.05670701,-0.15526041,-0.01953964,0.043149218,-0.08804496,0.12777567,0.043011576,-0.093824565,-0.1358898,0.16712731,0.15120819,-0.0321168,0.007530785,-0.08469769,0.16720976,0.08561206,-0.013895869,0.104767144,0.09718388,-0.12198073,-0.1224569,-0.07434656,0.14159778,-0.15635891,0.10229684,-0.05463939,0.06317158,-0.14871712,-0.0951792,0.027357116,0.042565677,-0.13442685,0.008206576,-0.07383044,-0.015868103,-0.11202098,0.125165,0.02195955,0.15482149,-0.16758983,-0.12729853,0.017521188,0.05519243,0.07720631,-0.14239922,-0.11656592,-0.13873543,-0.13239947,-0.12865421,-0.10247196,-0.11115315,0.038775783,0.0043304875,-0.04428739,-0.12153929,-0.0478144,0.038199395,0.05231215,-0.12868068,-0.028037608,-0.14711908,-0.022366723,-0.09793785,-0.026611669,-0.023241607,-0.03318891,0.12118146,-0.09347061,0.01959661,0.16301945,-0.05076754,0.12285349,0.09229848,0.04746411,-0.025172235,-0.13849542,-0.05812133,-0.16420572,0.102999136
0.06587337,0.14191028,0.006682694,0.16567105,-0.14057538,-0.022022614,0.111041546,0.13185245,-0.03288223,-0.09981053,0.05247481,0.09496462,0.14559579,0.117592394,0.08496927,0.14879462,-0.031526864,-0.029133722,-0.10372298,-0.17285416,0.08473685,-0.152027,0.10922094,0.10011675,-0.16125327,-0.09114306,0.12547535,0.110993296,0.0731044,-0.0150951585,-0.06287177,-0.0053021056,-0.041959386,0.11418173,0.15539354,0.055129442,-0.13058777,-0.08258435,0.07251227,0.16734923,-0.012480974,-0.070679225,-0.14496425,0.011514363,0.12191246,0.0036381204,-0.042657208,-0.011336268,-0.028824085,-0.06026964,0.1193811,0.13021591,0.12706156,-0.06843927,-0.12023705,-0.065598875,-0.09882568,0.12881175,-0.09200764,-0.14267187,-0.094072595,0.16135094,-0.0812369,0.14887895,0.09259818,-0.027981315,-0.011923105,0.0016736984,0.1684218,0.11702669,-0.15691176,-0.062838644,-0.10558291,-0.16790375,-0.0743293,-0.15757768,0.030239495,0.006990723,0.0040288623,0.06854493,-0.16607825,-0.1586569,0.06793398,-0.14628476,-0.091552004,0.13845211,-0.057122607,0.13737369,-0.012089661,-0.056908395,-0.05146873,-0.045128457,0.031392705,0.12863997,-0.113054544,-0.16465837,-0.056255683,0.10047197,0.015084737,-0.07256848,0.022976346,-0.004796411,0.1354528,-0.03370928,0.07854024,-0.09169189,-0.08878715,0.14270559,-0.09149139,0.026642863,-0.120696865,-0.103629015,0.05944625,0.12025404,-0.13419615,0.13292369,0.14818986,-0.08836337,0.1377726,-0.050962184,-0.06283577,0.10992223,-0.06970176,-0.09746653,0.034747377,-0.12182594,0.070347294,-0.08351289,0.027286803,0.06754429,-0.15634206,-0.051290646,0.12747142,0.07087166,-0.13626206,0.053738702,-0.078356504,-0.11592217,-0.004315085,0.147028,0.16652957,0.11107743,-0.09922688,0.084240995,-0.15066734,0.108431526,0.038060494,-0.15386562,0.031011,0.13203585,-0.15201707,-0.13022998,-0.13313472,-0.017745584,-0.08479136,-0.028942103,0.11268039,-0.034611225,-0.16200885,0.09624074
0.08194935,-0.01837482,0.14352918,0.05867476,0.16168503,0.051723905,-0.01738727,0.15811384,-0.042653006,0.07228622,-0.013100712,0.05802596,-0.16318595,0.13400686,-0.1389318,-0.14005314,0.14174138,0.093100816,0.14376053,0.06320928,-0.029173132,-0.088393636,-0.106880605,-0.08717945,0.16184947,-0.16277474,0.00607343,-0.10180863,-0.10716116,0.15294582,0.03823607,-0.124204144,0.068066314,0.059631005,0.010320186,-0.1093187,-0.03862014,-0.10362593,-0.14203723,-0.072294764,0.06942187,0.13026239,0.00052794686,0.11844321,0.023517018,-0.06286847,-0.048282877,-0.12870584,0.034959,-0.051859982,-0.011006567,-0.065416634,0.027529022,-0.10187661,-0.1533099,0.075917535,0.035528213,0.0034686476,0.061505698,0.08378291,0.069146484,0.042742208,-0.11123587,-0.1460285,0.024625035,0.08164607,0.057421666,-0.064980604,0.111993045,0.0777095,-0.08662571,-0.14663666,-0.008244485,0.05137062,0.1432559,0.1351531,0.0549401,0.1568865,-0.100049004,-0.047920357,0.15651819,-0.043148115,0.05781177,-0.14450048,0.13806418,0.0890055,0.053452797,0.06538006,0.060814604,0.026187886,0.105279274,-0.06346397,-0.15453088,-0.112221,-0.13734514,-0.005067989,0.07274024,0.018286094,-0.013850951,0.07758558,-0.04725814,-0.16558166,0.101909846,0.088127054,0.123095036,0.096642084,-0.066697784,0.045017794,0.026481569,-0.11410208,0.09942612,0.08537185,0.17331883,-0.017878562,0.00941303,-0.05510904,-0.13889953,-0.1131645,-0.057225384,-0.056927565,-0.10995479,0.07297536,-0.15283741,0.12369771,-0.0024405837,-0.1468557,0.054813415,0.11787418,0.11102843,0.1040351,-0.023666933,-0.0927768,0.069387995,-0.009412333,-0.104935676,-0.017964423,0.15338159,0.12667331,0.15605749,0.07558669,0.08734569,-0.005147104,-0.096220754,0.04386281,0.03890885,-0.04614386,-0.038327873,0.090111285,0.034370277,-0.079450995,-0.103209026,0.08132079,-0.11383593,-0.14587043,0.022394937,-0.0393271,-0.09888463,0.13980256,-0.052867897,0.08006086
-0.079183586,-0.15030088,0.118747,0.067276806,-0.07242117,0.1498874,0.007852416,0.096314736,0.04814645,-0.12353687,0.1378264,0.15616372,0.16087008,0.023596339,-0.089278735,0.17174165,-0.10683346,-0.09499812,-0.13423571,-0.0043472797,-0.1391621,0.052543286,-0.025704298,-0.03559466,0.1570662,0.12348113,-0.050931484,-0.09850699,-0.08228702,-0.034290385,0.10417837,-0.09726621,-0.100044325,0.15818569,0.12127653,-0.06576596,-0.17023477,-0.05522349,0.148393,-0.05657253,0.09861836,-0.030069334,-0.045195356,0.055959545,-0.05996035,0.05685786,-0.11670569,0.013793978,0.15952225,-0.13494028,0.009470386,0.11286595,0.07216845,0.08360001,-0.02662385,-0.17157826,0.026267134,-0.14331739,0.024431685,-0.077951215,0.1528133,0.1640993,-0.06073136,-0.16648825,0.062343422,-0.041805677,0.14331935,-0.017528832,0.16520508,0.0030696548,-0.042067997,0.10285151,0.04493966,-0.12573285,-0.044171356,0.00616264,-0.0111540705,0.06535704,0.025867688,-0.014346172,0.16001278,-0.039374527,-0.093809105,-0.100133084,-0.16376273,-0.05608202,0.040712636,-0.043857545,0.02978564,0.09747832,-0.17295396,0.049152263,-0.12910244,0.16643718,-0.118533626,-0.06763465,-0.038130224,-0.09026217,0.14067599,-0.051421095,0.10649133,-0.06505687,0.05068517,0.10244222,-0.076515205,-0.089579135,0.111924455,0.1531848,0.14231224,-0.10687785,-0.11958238,-0.12371623,-0.06953939,0.15249681,-0.08622694,0.04440236,-0.040780477,0.15482241,0.050124265,-0.015779395,-0.14768937,-0.012783046,-0.08335282,-0.13577159,0.0878505,-0.1608996,-0.13216543,0.15971446,-0.16857015,-0.055255875,0.12727563,-0.10762465,0.0317951,-0.085594505,0.1349429,0.122650184,-0.07029319,0.09803051,0.002468243,-0.059318587,0.09332841,0.10958023,-0.014937182,-0.14615798,0.09334789,0.1362253,0.093221664,0.03123185,-0.16475609,0.03303274,0.13616467,0.15711841,0.058851838,0.1392957,0.02809182,0.0043470454,0.018495325,-0.060278874,0.010459701,-0.040306408
0.07663658,-0.12914406,-0.027689293,0.060050562,0.08809182,-0.15963738,0.15278488,0.048791602,0.08545807,0.15627709,0.040238976,-0.10850768,-0.13896458,0.002353996,-0.08920071,0.08810139,-0.14521809,-0.04758908,0.1515148,-0.0027281344,0.083141714,0.015089184,-0.14303894,0.09525615,0.076954395,-0.019961745,0.028038487,0.108103305,-0.12165503,-0.16201054,0.010516629,-0.035744935,0.16741842,-0.047122285,-0.057729393,0.16799477,-0.15790926,0.011527881,0.16276821,0.026993379,0.15399581,-0.16785015,0.07548159,0.029375866,0.0013041496,-0.13716221,0.019111842,-0.13904688,-0.04291466,-0.07036179,-0.0020598471,-0.09173022,0.008113787,-0.16806588,0.09004924,0.10965198,-0.14977342,-0.023838371,-0.027728602,0.14012903,-0.002715826,-0.09577534,-0.039315775,-0.07756337,-0.040779978,-0.10374406,-0.06672422,0.10256776,0.12659073,0.12230697,-0.12877822,0.15967974,-0.04530777,-0.16502221,-0.1695736,-0.14819655,-0.1629159,0.15387428,-0.02783671,-0.03267087,0.07120365,0.13623953,-0.16321206,0.08782104,0.15126595,-0.0088644475,-0.022959039,-0.11061547,0.035841763,0.015198901,0.09617013,-0.092001446,0.048305854,-0.16929036,-0.16045445,-0.03993529,0.106288105,-0.12441876,-0.054172173,-0.13095407,-0.018685639,-0.0835644,0.0021187812,-0.15156485,-0.066076,0.12596852,0.13222349,0.15854198,0.06754856,0.09691554,0.04616691,-0.07214039,0.09306708,-0.17195937,-0.05555375,-0.023268014,-0.12221805,-0.07408898,-0.17299443,0.10536951,0.12829706,0.0041508377,0.008607835,-0.12943634,-0.039446473,-0.13820408,-0.0619945,0.12970573,0.1643374,-0.0048474967,-0.0043225437,-0.11460819,0.0018009692,-0.13843241,-0.11050666,-0.14271039,-0.033560157,-0.16557577,0.030518517,0.04985884,-0.05029694,0.1274459,0.12725627,-0.11074894,0.03674093,0.075424016,0.03386855,-0.13432595,-0.08075942,0.15641499,-0.059897073,0.039392054,-0.08211097,-0.05610632,-0.157029,-0.05419629,0.1073457,0.048859492,0.014827862,0.12587672
0.15496445,0.049495924,0.07593122,-0.061379626,-0.14056836,0.13277268,-0.12622558,0.14374828,-0.090374716,-0.08509978,-0.06907396,0.14987716,0.05031071,0.12688978,-0.029177694,-0.031626653,-0.16253805,0.17067343,0.10154763,0.14799318,0.005536087,0.11419337,-0.14557333,-0.16446878,-0.13983211,0.0042933165,-0.14322014,0.0018016696,0.11622166,0.1296026,0.07471826,-0.055811748,0.06943571,-0.13759328,-0.13682468,0.12534207,-0.16585484,0.13708499,-0.16811077,-0.11619252,-0.09202994,0.023056354,0.02748903,0.15186512,0.044647012,-0.17649184,0.13274078,0.051858965,0.098429404,-0.11258561,-0.03389538,0.10187677,0.05709123,0.118034385,0.12668738,-0.12067295,-0.15061636,-0.022049665,-0.13940625,-0.06864202,0.06949486,-0.11293209,0.13339533,-0.1473139,-0.111229606,0.047909956,0.062198635,-0.087248564,0.0907366,0.12233749,0.038224578,0.0908049,0.16767012,-0.11164732,-0.1846054,-0.03627357,0.11398067,0.14117889,-0.09082461,0.02549009,0.108151495,0.07697932,0.13557251,0.0010969333,-0.15127374,-0.04769071,-0.13155323,0.1789345,0.15877372,0.078748934,0.13478415,-0.045867257,-0.12593834,-0.16297399,0.15700968,0.015939524,0.16937324,-0.11191788,0.17574272,-0.08413964,-0.07754956,0.024145208,-0.1650695,-0.17184754,0.014020957,-0.10167008,0.06838974,-0.16501242,0.033856634,-0.14685228,0.097318456,0.15814316,0.06366258,-0.013564721,0.027832074,0.15030184,0.11221692,0.15932843,0.07351465,-0.07709577,0.01993902,0.15271804,0.124385424,0.138402,-0.04699853,0.088425964,-0.07421742,0.15180166,0.05117243,0.10348455,-0.04339701,0.08447915,0.0058670053,0.07566499,-0.080623046,-0.15527476,-0.076056615,-0.09710092,-0.07432162,-0.003925949,0.08677118,0.017357916,-0.08025766,0.11426482,-0.04852495,-0.023912678,-0.105257325,-0.13565996,0.06684574,0.1046054,-0.16556573,-0.025183784,0.12922369,0.02292113,-0.16033508,0.11375984,0.013325424,-0.07033266,-0.17360403,-0.021995513
-0.056258127,0.07171118,-0.038724855,0.10378066,-0.15303479,0.014862174,0.052017882,0.0799087,0.013050804,0.026910108,-0.04292542,-0.10905794,-0.13063556,-0.067303136,0.058893286,-0.010037551,-0.03397438,-0.12930664,0.003939424,0.03060089,-0.018987041,-0.14012511,-0.091097444,-0.060864627,-0.0014511986,-0.08256058,0.16441263,0.14221242,-0.125659,-0.18092565,0.07661558,0.14036828,-0.005678363,0.16279957,-0.11322321,-0.025796125,0.05598436,0.11674278,0.17609867,0.07727333,-0.07913709,-0.0050118337,-0.10214306,0.008310313,0.009074891,0.012087774,0.10837859,0.03152502,-0.024396626,-0.11658071,0.12422184,0.012011652,-0.14797719,0.02165966,0.011946519,-0.10382808,-0.09951249,-0.1678646,0.16664204,-0.036877945,-0.025674615,0.16089533,-0.11432059,-0.13144167,0.053412553,-0.12451657,-0.13568623,-0.06010966,-0.072694674,-0.091557465,0.15134826,-0.09577437,-0.09523892,0.091637254,-0.06315623,-0.16584347,0.036567714,0.13088816,0.09360366,0.10925184,0.14266405,-0.045948334,-0.06151018,-0.1005893,0.061797675,0.15418585,-0.0015864372,0.043017656,-0.0965726,-0.14862144,-0.028702034,-0.05595283,-0.13440058,0.0121992165,0.16556934,0.020971302,0.09916332,-0.0750375,0.048668947,-0.05505735,-0.11908262,-0.16073523,0.010448015,0.112751834,0.033730734,0.1429016,-0.15121202,0.0362207,0.035589986,-0.05635924,-0.024473907,-0.1661081,-0.005532873,0.016884089,0.004419509,-0.070924275,-0.12789784,-0.10034625,0.09105325,-0.09398081,-0.1255237,0.064198166,0.008376677,0.044898078,-0.1150505,0.15303081,-0.14249508,0.07534268,0.12830423,-0.08872605,0.1754937,-0.02978166,0.05753824,-0.15759863,-0.13492857,-0.049196083,0.04004745,0.041435257,-0.16032672,-0.13466056,0.04223439,0.13947849,-0.12502861,0.101442434,-0.068014726,-0.060809486,-0.13752127,0.07906619,-0.12487448,0.12837788,0.13182223,0.052043427,-0.1614884,0.11409333,0.09104924,0.16953817,-0.12478529,-0.103181474,0.12677532,0.008468359
0.060755223,-0.030817274,0.004072312,0.055948142,-0.1020038,0.12601964,-0.040216926,-0.018722212,0.04337176,-0.024267992,-0.030472914,0.16747516,0.020028817,0.14271438,0.03327866,-0.1664008,-0.12559834,0.016459107,-0.16802914,0.16313985,-0.131207,-0.095637046,-0.029896814,0.055916518,-0.1065621,-0.09633659,0.02074028,0.118802875,-0.07048714,-0.120855436,0.10585266,-0.121175885,0.15503627,0.033653647,-0.016045628,-0.063986875,-0.06616145,-0.043758918,-0.050797183,0.017101966,0.022666663,0.13455091,-0.014122934,-0.16554198,-0.029527638,0.03480541,-0.067733526,-0.029463422,-0.0564443,0.11479999,-0.1290393,-0.09292921,0.094013065,0.14384219,-0.16288546,0.16137603,-0.09358319,0.03763312,0.07287762,0.08170894,0.14298996,-0.164671,0.11362355,0.09028321,-0.07775817,-0.06422086,-0.09373165,0.11967814,0.009982515,0.032974567,0.039702743,0.054293048,-0.050884433,0.13498715,-0.031377286,-0.1533907,0.035226356,0.124641865,0.04163978,0.0943128,0.0652522,0.11937524,0.13795337,0.10366476,-0.020770334,0.0007606432,0.046448767,0.038295906,0.026478942,0.16528645,-0.0519165,0.10473091,0.14292964,-0.07884333,-0.17083147,-0.13437763,0.046089403,-0.16701227,0.0034638878,-0.110545196,0.047813844,0.03094914,-0.13155729,0.13653009,0.07413364,0.061891273,-0.06866134,-0.046761855,0.11301428,0.08426683,0.08506632,-0.0016605784,-0.101003006,0.13527536,-0.17889015,0.05843942,0.019173982,0.038221523,0.045182977,0.080438584,-0.1411716,0.0052003493,-0.1599,0.14026164,-0.11982913,-0.10728442,0.16484675,0.039827205,-0.01719826,-0.123411514,-0.08428624,0.1348083,-0.07909254,0.16009133,-0.14967372,-0.13375835,-0.054061625,0.085404605,-0.10654969,0.011956935,0.026613496,-0.026518757,-0.023977553,-0.006351214,-0.027435374,0.16815215,0.013018655,-0.12869918,0.08119571,0.01844549,0.17001987,0.13069911,0.09121348,0.009734288,-0.1375208,-0.10576155,0.012059797,0.09546255,-0.064207,0.16222826
0.011484891,-0.10182226,0.039292812,0.097867906,0.08258,-0.040145814,0.09542009,-0.14706366,0.1487076,0.16745424,-0.15995619,0.17038932,0.11298478,-0.12252818,-0.14328985,0.13043308,-0.14719267,-0.007169813,0.10483092,-0.13672653,-0.01690866,0.10673529,0.1470339,0.018961772,-0.14097174,0.018199041,-0.027370408,-0.033808842,-0.06346589,0.114572376,0.17201552,-0.0069939345,-0.14379527,-0.14235455,-0.02916807,-0.08525887,0.07378642,-0.15063256,-0.11276679,-0.08966826,-0.10519187,0.1640009,-0.09440186,0.01681669,0.16041037,-0.10710285,-0.010356694,-0.14548692,0.12840557,-0.16983059,-0.13833714,-0.15091379,-0.16784123,-0.13490227,-0.14765745,-0.0032295883,-0.0026149005,0.06340589,-0.073634,-0.028936371,-0.10349711,0.104993075,0.03508222,0.08631131,-0.120509,-0.060270794,0.16588739,-0.079316474,0.14533892,-0.05829382,0.07835823,-0.076132156,-0.11084801,-0.06260575,0.1338692,-0.08385595,0.10087943,-0.007407844,0.112686485,0.16930485,-0.09294789,-0.11431219,0.060283184,0.012021929,-0.0070904493,-0.03400223,-0.013614446,-0.047612622,0.09078744,-0.007718429,0.07313861,0.08525494,0.036129847,0.046652794,0.03107898,0.08963552,-0.16608457,0.013789043,0.08779064,0.13330027,-0.12248841,0.03264588,-0.07321526,0.119757175,0.12932357,0.00853239,-0.041669533,-0.019321993,-0.0046564937,-0.13563085,0.030269414,0.11859757,-0.0670879,0.110595435,0.044086754,-0.011441067,0.027588367,0.036906645,-0.1370683,-0.16605702,-0.10602942,-0.102795996,-0.16493677,0.026488096,-0.17172465,-0.024320915,-0.008313194,0.116646826,-0.09387452,0.00906837,-0.07314708,0.12216756,-0.069638304,-0.02937682,0.075173065,0.1542199,0.04134202,0.12074846,0.05753234,0.17207184,-0.12570399,-0.00025495887,-0.15125167,-0.05564283,0.11821604,-0.08333534,0.11139706,0.11027709,-0.151627,0.09392235,-0.08568991,0.15169492,-0.0809559,-0.05950348,0.106226325,-0.07390419,-0.08309479,-0.09855935,0.015491933,0.13634485
0.1722604,0.12508492,0.098853976,0.069437735,-0.027503341,0.084556006,0.09814135,0.107332,-0.08399963,-0.08937872,0.0085604,0.01618848,0.14611267,-0.08045814,-0.10880731,0.01803938,-0.060645953,-0.09439406,0.0351755,-0.08804234,0.10258884,0.024584973,0.07229141,-0.105290346,-0.120191395,-0.012671722,-0.017877027,-0.14882874,0.09679675,0.0405082,0.16803741,0.14854,0.09104645,0.020656496,-0.085875966,-0.16775443,-0.05141956,-0.1174823,0.055144276,0.15148757,-0.022841424,-0.05069598,0.05467747,0.09167807,0.13035649,-0.13930936,-0.015941933,0.14347932,0.05032173,-0.061879445,0.008883735,-0.050031796,-0.059788574,0.07424567,0.019660098,0.09487192,0.1353772,0.03766364,-0.05790561,0.08109763,0.07897257,-0.08703514,0.015018053,-0.11439451,0.07681029,0.088378645,0.060800213,0.1573531,-0.13060847,-0.10769008,0.024508223,-0.042649742,-0.06810892,0.15469858,0.12344938,0.10882161,0.0813302,-0.17405659,-0.07391683,0.11800267,-0.09981832,-0.009000325,0.092381865,-0.072282284,0.16592625,-0.14119077,0.1434362,0.051674925,-0.123677805,0.16547503,-0.06499702,0.05099214,0.101767525,-0.017921828,0.047620587,0.122987196,-0.11966534,-0.05837901,0.14264274,-0.09984834,-0.100213096,0.14439546,0.06947139,-0.00062038004,0.13621765,-0.106114045,-0.050989136,-0.084612355,0.011180824,0.11964809,0.06128951,0.010286522,-0.01877554,0.02853237,-0.17248699,-0.10908936,0.035785984,0.09638259,-0.014929211,-0.16798344,-0.012633026,0.06665017,0.029759586,0.15757859,0.023535311,-0.12880386,-0.16089945,-0.12222235,-0.014757727,0.057189003,-0.09492184,0.16281295,0.08711689,-0.16321635,-0.096561134,-0.103654325,0.12925833,0.1552383,0.05168152,0.13035782,-0.103794076,0.042493593,0.056311946,-0.055540226,0.060485356,0.06833187,-0.1685153,-0.030237332,0.03201638,-0.13614771,0.062433135,0.13339911,-0.11167889,-0.046459943,0.13080171,-0.087753356,0.02331248,-0.059829935,-0.13044105,-0.17644666
0.12829912,0.14434099,0.16601864,0.008518406,0.14701325,0.0028158594,-0.1656138,0.029175261,0.16138066,0.03820143,0.06886122,0.12992756,-0.13870293,-0.046930347,0.090107456,0.023278106,-0.060638778,-0.13827676,0.059970774,0.1106796,0.03971038,-0.090862684,0.13856477,0.053012356,-0.14699152,-0.101905406,0.0005559502,0.12013215,0.11989614,-0.02222219,0.04032407,-0.1313157,0.11245346,0.10311884,0.1287335,0.05608454,0.09472535,0.05742566,-0.01693091,-0.10813307,0.10555977,-0.03254793,-0.1595023,-0.12512498,-0.173028,-0.17158864,0.07937932,-0.10051657,-0.0820513,-0.06626315,0.16852693,0.08318565,0.07145803,0.08919505,-0.12098787,-0.009254418,-0.14029594,0.096497625,-0.029035607,0.051908217,-0.10277407,-0.08471702,-0.12432231,0.018113766,0.06892915,0.0033117768,-0.16282138,0.03891401,0.1287429,-0.06624747,0.1243571,-0.08212881,-0.08448087,-0.078543514,-0.073134094,0.016595464,-0.036708403,-0.16424625,-0.09113412,-0.15273285,0.17250293,0.05131733,0.02059777,0.053864285,0.15137713,-0.13068508,-0.042438358,0.061251298,-0.14691097,-0.024643814,0.092284426,-0.076761365,-0.0074290624,0.102014095,0.17300071,-0.023366693,-0.13605921,-0.072263815,-0.05580456,0.13954283,0.07376979,-0.09102092,-0.060405355,0.07330367,0.12996213,-0.16547301,-0.09377238,0.09673822,0.119584516,0.01548901,-0.11712999,0.013191164,-0.12622316,-0.02694428,0.052451767,-0.066271126,0.13918984,0.143787,0.10490161,0.09252514,-0.006906435,0.00087902,-0.005644597,-0.06044277,0.06215417,-0.053829946,-0.14295012,0.1305193,-0.023853762,0.06732858,-0.033742405,-0.073753074,-0.019816114,-0.0393943,0.028114071,-0.14880733,-0.07478391,-0.10062564,0.08567788,-0.0807822,-0.03363198,0.0520031,-0.09501001,0.092092164,0.17162023,0.057648577,-0.16417648,-0.03464362,-0.082240514,0.09041745,-0.10581443,0.031975955,0.14201519,0.12814888,-0.037614107,-0.11910892,-0.08289219,-0.11701603,0.14499323,-0.007190482
0.09196055,0.033654317,-0.10671558,0.049424127,-0.10818743,0.109984934,0.155981,-0.10579375,-0.16980478,0.035744965,0.061534807,0.10009384,0.026367337,0.010052025,0.06797926,0.033053875,-0.16657041,0.1438554,0.0005695522,-0.10734447,0.14187834,0.02723521,0.06761123,0.04096201,0.0963389,-0.15835397,0.15250927,0.12800574,0.046631068,0.09697452,0.13476732,-0.14585656,0.11757761,-0.011239514,0.058003515,-0.08119343,0.07228154,-0.09002898,-0.1623383,0.037025824,-0.14726833,0.036322817,0.0063031167,0.09964484,0.0124480575,0.014025286,0.06439793,-0.16723432,-0.017991126,-0.06523321,-0.045361042,-0.012736708,-0.06514802,0.14114195,-0.05554434,-0.075291716,-0.10648131,0.16663557,0.11920011,-0.12681454,0.0035164654,0.11346519,-0.15531273,-0.13918431,-0.11977932,-0.010033771,-0.12777144,-0.06918513,-0.14003615,-0.16873218,-0.003185153,-0.114731416,-0.07868833,-0.15325077,0.01871784,0.070858866,-0.038227484,-0.11893445,0.122259974,-0.067104295,0.13715193,-0.09276207,0.16627848,0.14999884,0.077246964,0.029431537,0.024683282,-0.04202433,-0.004901752,0.16923764,-0.072292395,0.08411938,-0.030210406,0.13762954,0.16597629,0.05250889,0.10908514,-0.014323324,-0.1562102,0.12390971,0.009314448,-0.06080065,0.10447425,-0.06537204,0.094132066,0.14123464,-0.030535892,-0.14981699,-0.112700015,0.046391487,0.069544315,-0.10636371,0.07538319,-0.1668356,-0.1302566,0.05233784,0.0033031702,-0.04822495,-0.17207564,-0.119209856,-0.0023328066,0.12348923,0.088620394,-0.0018519759,-0.0453275,-0.1604167,0.061658397,-0.08213538,0.048313692,0.030226633,-0.0028547794,0.019639596,-0.17233151,-0.16747065,0.01692459,0.14709541,-0.041658744,0.07918963,-0.10576241,-0.10624193,-0.16184519,-0.0616133,-0.02289246,-0.0055244416,-0.14948712,-0.16713127,0.03354694,-0.11478518,-0.070586115,-0.042035773,-0.05505152,-0.10292013,0.14123759,-0.028949827,0.041298613,0.10708746,0.00096808374,0.012691334,-0.10374517,-0.16416314
0.121148884,-0.16136844,0.07931653,0.060448363,0.017269,-0.06674012,0.16724655,0.09577021,0.064498186,0.0117326975,-0.023753345,-0.07840918,-0.09668153,-0.15250808,-0.09170928,-0.10499291,-0.15076153,0.15446395,0.16029125,0.07521069,-0.105252616,-0.15863985,-0.1115703,-0.09755137,0.1670906,-0.08660881,-0.14543658,0.119546324,-0.100919455,-0.116668,0.10823491,0.13440272,0.15131223,0.16084284,0.14425278,0.1136587,-0.12810709,-0.16206439,-0.09931959,-0.104089536,0.15623036,-0.039283574,-0.10483966,-0.08247408,-0.059975736,-0.097118184,-0.029551044,-0.041815832,0.11521387,0.051379457,-0.14329174,-0.10013782,0.10488057,-0.012289897,0.04285094,0.018843338,0.01697059,0.13291627,-0.0478393,0.16824618,-0.059948646,-0.15326609,0.13634327,0.004370615,-0.06982694,0.022593647,-0.16634858,0.091902584,0.053497657,0.1648032,0.1235483,-0.07903819,0.08820462,-0.11743675,-0.14403109,0.005816892,0.08884984,-0.027834445,-0.092966765,0.0048322976,0.15509361,0.027707174,-0.10745134,0.09335041,0.12945089,-0.04507023,-0.10476884,-0.11835384,0.111379474,0.10403031,-0.10008653,0.14080507,-0.03512785,0.06545575,0.03641759,-0.07564408,-0.11122301,0.014943078,0.03327538,0.1287235,0.008074388,-0.06281545,0.027062222,-0.12629431,0.1561425,-0.17093205,0.122192204,0.14376715,-0.11760937,0.05562924,-0.004867807,0.042624846,-0.03255409,0.11352897,0.060277805,0.015850425,-0.1083992,0.080904126,0.10591838,-0.0844558,-0.00030373037,-0.040191397,-0.13652125,0.027102232,0.04738368,0.14887416,0.06315923,0.052908093,-0.0818537,-0.12637801,0.01059927,0.046375707,-0.060552508,0.16979602,0.11875394,-0.06986398,0.0010059178,-0.05603645,0.15271616,0.08540383,0.17101973,0.07328588,0.09272197,-0.085240535,-0.17056572,-0.017620206,-0.11314605,0.05163929,-0.030645669,0.16152617,0.104029,-0.17267406,-0.13561925,-0.09757615,-0.14987104,-0.02719903,-0.01490505,-0.007307902,-0.103699006,-0.15088174
-0.024073467,-0.14785855,-0.15793411,-0.15700398,-0.11323641,-0.0720058,-0.06957056,0.021938927,0.0011267919,-0.08682352,0.085621595,-0.13035205,0.07712106,-0.13301843,-0.15319456,0.03786118,0.07138932,-0.039121777,-0.120730914,0.071459375,0.13622026,0.15751418,-0.08059379,-0.08666667,0.058028672,0.017545851,0.07950802,0.05381027,-0.014497643,0.10440137,-0.030194337,0.083217114,0.02443487,0.1102218,-1.5308695e-05,-0.16270046,0.1138276,-0.06548517,-0.11643218,-0.16173038,0.09544805,0.16111705,0.09509457,-0.012127571,-0.022191193,0.15642427,-0.1673736,-0.038650904,0.07516704,0.13683516,0.051128637,-0.06518903,-0.049154323,-0.0074126613,0.14343917,-0.09481549,0.10054201,-0.04921843,-0.120573625,-0.018304454,0.013463496,0.053449105,-0.12662767,-0.020967579,0.1353259,0.037105843,-0.13995829,0.14662907,0.13026522,-0.00950574,-0.06566178,0.16715072,0.0064054034,-0.013661817,0.13871816,-0.15950462,0.023337929,0.17070012,0.11601759,0.11309606,-0.08457977,-0.10376446,-0.011922223,0.11213495,-0.043455478,-0.105166726,0.102131106,-0.07951827,0.05459427,-0.021281462,-0.03363582,0.03576581,-0.02749483,-0.090073794,0.08193445,0.09369936,-0.058440473,-0.0447333,-0.05402312,0.07112855,0.14199877,-0.13232473,0.06533347,0.017530825,0.13951333,0.03097822,0.16091034,0.10793391,-0.115218885,0.011365017,0.06280975,0.121569686,-0.077277154,-0.05291234,-0.09247636,0.15488848,-0.0744268,0.08744544,0.0654115,0.07777406,-0.008719876,-0.026673002,0.14360335,-0.12972009,-0.16890669,0.149685,0.16948816,0.11120616,0.090985715,-0.039828345,-0.0015001936,0.013822805,0.16800256,0.074316934,0.17180873,0.0709223,0.017466698,-0.1380342,0.15839006,0.06687031,-0.087587036,0.06381929,0.117663346,-0.014307746,0.108607545,0.15918872,0.16231415,0.0721038,-0.04787555,0.108001076,-0.14148039,-0.048687592,-0.019789437,0.003441885,-0.022467025,0.17744374,-0.08628929,-0.066825196,-0.13556384,-0.090541355
-0.11200254,-0.05929626,-0.12808876,0.17187281,0.14252634,0.022690276,0.046735637,-0.09629545,-0.16039686,-0.02385937,-0.12798807,0.03936219,-0.060619757,-0.091286525,0.1687759,-0.004381081,-0.14022304,-0.059435055,0.014359446,0.07792818,-0.06525762,0.0075265416,0.15568699,-0.12819918,0.12924105,0.14790468,0.16930512,0.011332631,0.08296612,-0.08693434,0.03873773,-0.065674044,0.10071098,0.15416002,0.03086253,0.122210704,-0.0030040778,0.060340736,0.12037725,0.1521986,-0.09740849,-0.08717249,-0.17107801,0.009481624,0.094084226,0.0019363065,0.0027400232,-0.1129173,-0.08471096,0.032140814,-0.16591492,0.073359594,-0.03310734,0.025443086,0.033538643,0.10365341,0.07538822,-0.052110717,0.025695518,-0.026227612,-0.07703476,0.17428398,-0.06566937,0.044950537,-0.04316128,-0.0741762,-0.06724108,0.12532103,0.057327468,0.12366276,-0.12788461,-0.07245682,-0.013858784,0.15110609,0.169595,0.08551312,0.013497429,0.098681085,-0.090670705,-0.052632883,0.15961522,-0.16264485,-0.1492226,0.077287965,0.1350972,-0.1010722,-0.020532707,-0.11920054,-0.0947825,-0.13501975,0.12511691,-0.071821615,0.14750877,0.008747583,-0.15778926,0.13637365,0.09378319,-0.109037,-0.060262073,0.088107154,0.07610485,0.05745134,0.15384173,-0.013712303,-0.14706327,0.09070734,-0.03871577,0.108118154,-0.045167904,0.108949624,0.029042132,-0.048717987,0.09485204,0.13341373,0.10345154,0.12386823,0.054949004,-0.0053015733,-0.16716675,0.15441048,0.1624187,-0.043142006,-0.086722,-0.016843831,0.062427577,-0.13620172,0.17053828,0.026913933,0.10588751,0.10425672,-0.019103745,0.11252431,0.10971022,-0.04916259,-0.058756135,0.06779597,0.097918786,0.08111969,0.02396763,-0.16986576,0.068047196,-0.0932413,0.111153975,-0.12648137,0.08977159,0.16170515,-0.0984981,0.086900026,-0.16790758,0.066040695,-0.14613916,0.1402897,-0.057940733,0.1392422,0.119381994,0.018029971,-0.09293135,0.08573469,0.03528992,-0.14251183
-0.14184579,0.054391537,-0.14802384,0.005730027,0.11376194,0.16503085,0.05109628,0.06585855,-0.13076529,0.047694694,0.1612727,0.16333489,-0.13027972,-0.13728799,0.024179809,-0.1666744,-0.13875934,-0.053226016,-0.12629466,0.09515062,0.040480256,-0.12546366,-0.12678844,-0.02765408,0.016773663,0.0012112238,0.021662844,-0.06858589,0.12786402,0.06646769,0.058933932,0.10239078,0.073364414,-0.15376747,-0.13908185,0.020069849,-0.07465544,-0.08756396,0.00308391,0.15657598,0.13422152,-0.15616915,0.019515587,-0.11822902,0.051720135,0.009480999,0.009311272,-0.1439285,0.08925278,-0.016945431,-0.11513506,-0.03479459,-0.11585076,0.112193115,-0.0623246,0.168481,-0.16443352,0.030628517,0.111880675,0.10269542,-0.018268216,-0.11536237,-0.14258191,0.03854341,0.15996668,0.09726962,-0.05321983,0.026877463,0.023619568,0.11379458,0.13465302,-0.07271039,-0.09786036,0.10726717,0.041625723,0.06897663,0.03298164,0.01653623,-0.003730055,-0.15437154,-0.04107876,-0.091246285,-0.032645386,0.12012397,0.04218009,-0.09930964,-0.05025987,0.037388567,-0.11174188,0.122333154,-0.07654932,0.16104293,0.04968914,-0.045401674,-0.037254233,0.062011015,0.029113008,-0.013206452,0.11675333,0.09972804,0.0032875289,0.018015178,0.13606502,0.16131794,-0.1401373,-0.017865362,0.15632631,0.04569811,0.005380365,-0.1699504,-0.15019388,0.067541294,-0.010716791,-0.14619328,0.041208442,0.05368335,-0.03432907,0.14304169,-0.067777954,0.12860428,-0.047269374,0.030376665,-0.07816484,-0.021827077,-0.049626492,-0.16547999,0.09012449,0.03270644,0.0733506,0.11558654,0.15619805,-0.050397735,0.06973604,0.04280447,-0.13179319,-0.102411635,0.09658274,0.08736959,0.06327467,0.09939519,-0.01585803,-0.05255928,0.10745161,0.09353116,-0.016284516,0.09582923,0.06702472,0.07935682,-0.06721123,-0.10177737,0.072543375,0.023614949,0.105685614,0.14200318,0.16967808,0.16699527,0.10924612,-0.11329303,0.05736975,0.10746387
0.0236419,-0.124509044,-0.12716082,-0.13917238,-0.0055354787,0.01733305,0.06732668,0.005053473,-0.1122064,0.15315309,0.15405199,-0.09773881,0.11443648,-0.033038363,-0.063959695,0.09659178,0.10189977,-0.08015246,0.085026935,-0.15422633,-0.09334011,0.021081684,0.0033093488,-0.16367519,-0.16916046,0.03127596,0.114221126,0.13743305,0.01121147,-0.08785577,-0.11227663,0.13397288,-0.010117799,0.03302233,-0.11023097,-0.015757201,0.12658085,-0.1146711,-0.051152736,0.1428867,-0.0088626,0.12857063,-0.11040111,-0.059162006,-0.14707868,0.09239477,-0.028883502,-0.071010925,0.12639122,-0.111205414,-0.028046146,-0.017267926,-0.06501569,-0.16823713,0.14454608,-0.037026625,0.014442295,0.099642485,0.11091777,-0.039843813,-0.16577956,-0.03991526,-0.10800504,-0.11331296,-0.12051766,0.062430657,0.07426247,0.1277057,0.00798139,0.1622119,0.1424603,0.12279405,-0.043620482,-0.04204829,-0.013153049,0.007184744,0.10746643,-0.05837569,0.14914088,-0.10380977,-0.009868056,-0.04069148,-0.086401634,0.08683566,0.080750495,0.02577728,-0.10028561,-0.031215187,0.046223134,-0.14335816,-0.10820146,0.018782156,-0.039281476,-0.08211072,-0.017691804,0.10040964,-0.09649322,-0.054487757,0.07888557,0.14750057,0.058067836,-0.07569015,-0.00313196,0.014193818,-0.012926644,-0.039827786,-0.060095042,-0.14883196,0.11564553,-0.100774474,0.14761111,0.15458515,-0.071727656,0.02671121,-0.013388584,0.146678,-0.08716871,-0.08626637,-0.10998302,-0.07537007,-0.08540584,0.11771237,-0.13836572,-0.03424922,-0.13351336,-0.1632354,-0.027371526,-0.13368258,0.15834202,0.12506554,0.039201662,-0.14467314,-0.025478445,-0.047779113,0.012924887,0.08893386,0.08007628,0.147392,0.16470674,-0.0064394325,0.15936214,0.12804584,0.08528932,0.06620513,0.04499475,0.008367828,0.014956668,-0.07585197,0.011574328,0.087426454,0.029942712,-0.0072902674,-0.005616267,0.08862975,0.11715952,-0.05129365,0.12106115,0.026456302,0.029449444,-0.007233025
0.10758075,0.11561426,0.046280175,0.07187464,0.06699458,0.15121353,-0.13318416,0.02167755,0.12788497,-0.16407765,-0.105045795,-0.12151611,0.026516987,0.16556917,0.15791287,-0.10286375,-0.16940947,-0.057429843,0.08866766,-0.04034541,0.103779934,-0.09205865,-0.07254219,0.048646737,0.124281004,-0.0041968115,0.046615634,-0.00125058,-0.14654416,0.13660541,0.0039838343,0.1137215,-0.14481673,-0.03364122,0.009311019,0.018632906,-0.121756,-0.0458278,0.11671012,0.08331722,0.13477185,0.08396125,-0.017314352,0.11932391,0.14971699,-0.15953368,0.1714616,0.07784765,0.102062516,0.05705064,0.037834425,-0.010921416,-0.043383263,0.009647561,0.11863846,-0.08614984,-0.12174703,-0.1043072,-0.12772359,-0.110054016,-0.14816625,0.11961239,0.04475087,-0.017940063,-0.1586519,0.02533933,0.017289976,-0.14329554,0.035873447,-0.09920203,-0.085818075,-0.004323716,-0.0092043085,0.07032132,-0.03265766,-0.080960006,-0.060714718,0.01866522,-0.06750952,-0.055009898,0.13979891,0.15059184,-0.057001207,0.041413493,0.07396465,-0.012803889,-0.16454877,-0.04516089,-0.073055066,-0.04734023,-0.104251444,-0.10423991,-0.046465322,0.0053170496,0.07738788,-0.05502777,0.037852526,0.08606017,-0.047329612,-0.09265231,0.11949854,0.15239802,-0.1508335,0.11996641,0.05689098,-0.080337375,0.104628,-0.0507223,0.08009852,-0.02847163,0.08012208,0.16466695,0.08596218,-0.12050277,0.14685513,0.12979488,-0.0003113731,-0.07532887,0.1299356,-0.05693294,-0.14359237,0.11897746,-0.09212288,0.14657213,0.031200957,0.04125895,-0.013754979,-0.1359466,-0.10258158,-0.035899773,0.019717863,0.11965566,-0.09952677,0.057667125,-0.06579103,0.15183403,-0.09411724,0.116393626,0.022407068,0.009061856,-0.114602566,0.13115664,0.10111105,0.1499007,0.16719238,-0.058278993,0.07831912,-0.047402218,-0.11628318,-0.011581175,0.097233206,0.059620973,0.03845578,0.049295947,-0.06591464,0.17077167,0.17660081,0.13045949,0.045641523,-0.022398075
0.0845083,-0.08877195,-0.011767805,-0.05885622,0.04080245,-0.06566098,0.046875,0.16962585,0.056210726,-0.043941423,-0.07199891,0.030830547,-0.082302295,0.10101047,-0.14647537,-0.053907968,-0.031507164,-0.10799607,0.052372977,0.010984421,0.03619513,0.018057734,-0.13989748,0.13801152,0.005863726,-0.08434195,-0.09311687,0.12528852,-0.14827856,-0.008746341,-0.07856829,0.03369169,-0.090140924,0.0631841,0.004032895,0.09119308,-0.14563885,-0.16240144,0.010911092,-0.10803414,0.073143244,0.0017425418,0.0063269734,-0.0905431,-0.09966214,0.012784153,0.113509536,0.08061308,-0.048686467,0.14742488,-0.042389587,0.08946347,-0.08297929,0.053844288,0.02951087,-0.1080583,-0.018357575,0.09981534,-0.12107149,-0.035703257,0.052563354,-0.14560944,-0.09349836,0.12697014,0.06298393,0.06639774,-0.12197271,0.08476114,0.07854846,-0.15249412,-0.09639564,0.05419278,0.019980818,-0.13831732,0.09607503,-0.024675429,0.08774641,0.006292373,-0.12424359,-0.075406015,-0.07078045,-0.15156308,0.091573,-0.11141458,-0.02677612,0.011028692,0.010857314,0.0900085,0.035514623,0.16997579,0.03492996,0.040296957,0.07018295,0.0071663857,0.10575366,0.024272144,-0.1454697,-0.01697369,0.040169314,-0.014485821,-0.06155227,-0.11259616,0.113027066,-0.109628886,0.067295656,0.13017309,-0.156135,0.15328017,0.099765,-0.035879925,-0.15762642,0.07476929,0.020089716,0.12545016,-0.15636101,0.14152241,0.020328313,-0.08790247,-0.026498169,-0.039123878,0.05846329,0.06799719,0.15363461,-0.1223696,-0.16824129,-0.049218476,0.05910395,-0.00046163797,0.046368808,-0.13728064,0.00068566203,0.14422998,-0.05299621,0.058800966,0.10039204,0.09718722,-0.15339233,0.016191185,-0.029476017,0.0936524,0.15837178,-0.047234237,0.08092591,0.043197617,-0.12532094,-0.08817734,0.07150179,-0.011277497,-0.00572522,0.036482424,-0.01949741,-0.062605835,0.12391904,0.025373444,-0.11685135,0.1237534,-0.048107833,-0.14233518,-0.015961215,-0.06360143
-0.17118049,0.025270902,0.06716425,0.040487837,0.08411677,0.1430073,0.055379737,-0.1260809,0.018347984,-0.06243857,-0.08011771,0.09827222,0.08319524,0.11381603,-0.15323988,0.094683334,0.041421775,0.040051118,-0.10516043,0.1347548,-0.13975143,0.00242789,0.17093709,-0.04587101,-0.1184188,0.07430086,-0.064493455,-0.028098688,0.00973551,0.066462815,0.053167257,-0.0960471,0.11040437,0.031579345,-0.0126548745,-0.06379507,0.07578209,0.12800987,-0.020799534,-0.09668761,0.1101262,-0.016538756,0.019728499,-0.14179163,-0.095699616,0.0029079386,0.14344393,0.1370562,-0.046508804,-0.046472877,0.1707355,0.15340976,-0.025037372,-0.16094702,0.013258685,-0.16544732,0.08116633,-0.019935563,-0.08443386,-0.035660043,-0.09375705,0.1573492,0.02376703,-0.08906803,0.09925144,-0.06823635,0.10562876,-0.13043825,-0.14977056,0.0043941336,-0.038645342,-0.08307735,-0.03214404,-0.14015111,-0.13720281,-0.1639888,0.14053148,-0.10176764,-0.08497381,-0.13828021,-0.02554755,0.004469957,-0.053503525,-0.118790515,0.05162209,0.030427948,-0.059348878,-0.16680647,0.0983278,0.12589209,0.015056225,0.15446243,0.15297772,0.11556061,0.09782108,-0.12697111,0.13113442,-0.05084592,-0.03587124,-0.07527993,0.06275876,0.016488113,0.024643347,0.0295617,0.17325512,0.076081336,0.06530834,0.096965574,0.00096839346,0.08378,0.04451083,-0.1388883,0.081282906,-0.05069767,0.03018246,-0.1326155,0.07433446,0.102738045,-0.04650387,0.06594684,-0.09029153,-0.024479974,-0.09621979,-0.14123769,0.012255999,0.07825832,-0.040760458,-0.12894171,-0.003674874,0.17214632,0.13409124,0.07306826,0.021386728,0.11295034,-0.12344619,-0.01719318,0.13128157,-0.035390735,-0.058649957,0.056736007,0.17838807,-0.056781348,0.10236478,-0.02964449,0.01934939,0.05096682,0.05466097,0.000374794,0.1298153,0.011824717,0.027300393,-0.03595948,-0.040784404,0.085921705,-0.10792871,0.057448667,-0.13479626,-0.15634358,0.16724436,-0.103755556
-0.0034574568,0.1115295,-0.0017006248,0.13767129,0.052514955,0.09888658,0.093224645,-0.07921022,0.10501233,0.101355195,0.058054224,-0.087274164,0.11848995,0.021148518,-0.17209741,0.14096758,0.086128265,0.14359787,0.11423093,-0.09312406,0.013891831,-0.14270994,0.057510942,-0.11407722,0.10189912,0.046128884,-0.14351016,-0.008301467,-0.06649499,-0.12018615,0.075333744,-0.0169103,0.11852023,0.15600035,-0.13142538,-0.1626995,0.14955312,-0.016553432,0.020438954,0.027836338,-0.025822416,-0.07897955,-0.10278811,0.12222746,0.007666886,-0.082389794,-0.10662684,0.15352362,-0.16985285,-0.028022587,-0.059407346,-0.13563605,0.022916213,-0.09800607,-0.08450775,0.15690726,-0.07403386,-0.15667151,-0.16922595,0.10376176,0.160371,0.15528527,-0.111829594,0.15983206,0.07018013,0.011750832,0.047155738,0.17174137,0.036506042,-0.057711184,0.1554811,0.10809654,0.10661572,-0.0008085221,-0.08206968,0.103974104,0.15668389,0.03113307,-0.067508906,-0.10073256,-0.057067186,0.05398923,0.019117877,-0.083354704,0.08313882,-0.15484625,-0.15482998,0.15634525,-0.12873966,-0.15332143,0.108047575,0.038480654,-0.013919622,0.084747225,-0.13463984,0.058485672,0.043986976,-0.07353819,-0.0842969,0.090620905,-0.14625369,-0.13977583,-0.10694659,-0.07729272,-0.12887266,-0.03881751,-0.109949954,-0.15685742,0.09261122,-0.11702897,0.0144800395,-0.015014887,-0.01910755,0.10762021,0.056864098,0.055484414,-0.11777079,-0.111725494,-0.12743413,-0.03384225,0.15677026,-0.152623,-0.08201207,-0.13104574,-0.17148331,-0.10169767,0.07559663,-0.17244004,0.11052424,-0.0007157773,0.04997042,0.026332855,0.08406082,0.089194864,0.10215464,0.039813265,0.08247137,-0.00642246,-0.011511445,0.092292964,0.13836426,-0.05262831,-0.11464717,0.14559624,-0.07104759,-0.15295365,0.013334706,-0.027380273,-0.1496022,-0.11705142,-0.090449445,0.06709021,0.107889205,-0.013394952,0.15679407,0.07981965,-0.045289353,-0.0552701,0.05707994,-0.1225867
-0.13105868,0.09041151,-0.06006569,-0.11710609,0.15196927,-0.118461035,-0.059234317,0.17886913,-0.11406575,-0.040360633,-0.12706025,0.07880907,-0.035280205,-0.09540652,0.15738586,0.065547474,0.14209235,0.04036984,-0.119363114,-0.016103894,0.131026,-0.020931186,0.07052928,-0.021013118,-0.0447958,0.052521996,0.0026402175,0.023010284,-0.08582167,0.04821237,-0.033884674,0.16564687,-0.15414566,-0.081504636,-0.17158578,0.098135926,0.058885448,-0.117281675,0.13789473,0.06268343,-0.02076435,0.16215254,-0.073825106,0.0739984,0.00558059,-0.11878275,-0.07000548,0.07619383,-0.044506736,0.062171306,-0.007649663,-0.027704934,0.14699419,0.102441795,-0.012964232,-0.10474363,0.14586563,0.14620695,0.1594257,0.12814191,0.16118056,0.061771713,0.14191431,0.100882635,0.12846233,-0.090800025,-0.16338898,0.026399717,-0.1726479,-0.019957544,-0.08067663,0.00981335,-0.06699523,-0.0141842365,0.011586429,-0.022561012,-0.15345983,0.10650884,-0.008936473,-0.022771204,0.08537921,-0.11723041,0.08081123,0.08346112,0.06707815,-0.046231214,-0.13206652,0.18972643,0.10873181,-0.041254755,-0.0679394,0.16019632,0.08214122,0.10190466,0.14151998,-0.0885932,0.17192194,-0.042784214,0.042172853,0.13390045,0.09558971,0.1512136,-0.10055249,-0.17459996,-0.11214432,-0.11644693,-0.16060695,-0.131738,0.104362726,0.08894311,-0.0938639,-0.16069525,-0.1439366,-0.13456336,0.1462561,-0.02625979,0.12469416,0.06853174,-0.12363093,-0.090742886,-0.0045333505,-0.12222208,-0.00860878,-0.11195039,0.15684228,-0.013237752,-0.15103582,0.11021346,-0.06595924,0.078346744,0.17478493,0.07667199,-0.14998049,0.09888981,0.013492078,0.10114972,0.0126877725,0.044390306,0.04519589,0.067449816,0.070833705,0.03861199,0.02767695,-0.15695429,-0.018677823,0.08639973,0.08710271,-0.05414009,0.1265226,0.13179997,0.06123888,-0.095702,-0.093829766,0.09731802,-0.06768774,-0.0075429073,0.14093904,-0.035951212,0.10287899,-0.15765058
-0.1425937,0.12816916,0.13885921,0.05446008,0.055451296,0.07937167,-0.024844775,0.11585158,0.11449154,-0.06108869,-0.05445501,0.083181106,-0.10234943,-0.12850715,-0.09965754,0.14934514,-0.17121188,0.100904495,0.058799334,-0.05391408,0.040040087,0.05118754,-0.12151385,0.10748335,0.018356888,-0.0025533957,0.012178581,0.118946314,0.12041811,0.11898123,-0.043209083,-0.041280035,0.035722844,0.11173338,-0.10708924,-0.1240705,-0.15580656,0.012757987,0.11193175,0.13832217,0.11267367,-0.12776001,-0.14767848,0.12747194,0.14941321,0.16130584,0.15288565,0.12112057,-0.09437246,0.100331865,-0.059164695,-0.08608685,0.046464153,-0.007645348,0.17026107,-0.04023435,-0.08940087,-0.044606566,0.16207308,0.005155808,0.15238251,0.11278301,0.055922754,-0.14356586,-0.084678866,-0.018567057,0.0039561093,0.1659872,0.10948311,-0.09577719,0.15851994,-0.15440607,0.17238694,0.112852275,0.068061024,0.16225399,0.103448495,-0.08405114,-0.1545627,0.07358862,-0.03272471,-0.12905045,0.057758436,-0.05734624,0.05397629,0.11822701,-0.024207847,-0.083338276,0.1157053,-0.13142456,0.13468598,0.062020205,0.1722196,-0.040841974,-0.11953011,0.05567334,0.057508163,0.094268024,0.09110452,0.07935121,-0.0701964,0.14718068,-0.1027251,0.112979546,0.15975764,-0.07808871,-0.0127383,-0.12343194,-0.16400553,-0.09205106,-0.12377958,0.15717763,0.056387495,-0.16795719,0.019367695,0.014373573,-0.09007584,0.095762916,-0.040298734,0.02822557,-0.08956915,0.072326384,0.0793431,0.03305228,0.017038934,0.10649077,-0.13702638,0.17458095,0.10733733,0.07557249,-0.05456528,0.053814195,-0.071639605,0.13575889,-0.008536549,-0.16008157,-0.109531544,-0.15830392,-0.050926,-0.08834393,0.11626898,-0.13999808,0.020004138,-0.11111626,0.067821644,0.13120547,0.1518086,-0.1666259,-0.13636218,0.13015659,0.072681285,-0.16150935,0.12878971,0.15248281,0.08671806,-0.012656535,0.15703869,0.1184745,-0.10431533,0.043028627
0.16996935,0.10309074,-0.111559935,0.10823535,-0.06553237,-0.14186732,0.033382062,-0.094199926,-0.102423966,-0.011162763,-0.140791,0.12757425,0.017192557,0.005163576,0.021253293,0.16963711,-0.1472165,-0.16068356,-0.13346298,0.07850476,-0.05578836,-0.16367565,-0.110194534,0.068910435,-0.031243477,-0.015418583,0.024899526,0.14442006,0.14253771,0.18409689,-0.12879004,0.011673299,0.15912047,0.12414968,-0.07759,0.0031328313,-0.03269743,0.05498967,-0.061859336,-0.11258347,0.07248846,-0.1463895,-0.08621312,-0.059179094,-0.02219665,0.060455795,-0.07704692,0.049752034,-0.08497085,-0.002530588,0.05629273,-0.01267747,0.12090962,-0.15290461,-0.07123887,0.017686663,0.089410536,0.020991683,-0.010562392,-0.14706266,0.12339236,-0.01133397,0.044390533,0.07551953,0.07051053,0.09492763,0.11784656,0.13413501,0.031804852,0.17337218,-0.1267292,-0.13908072,-0.048305787,0.08576214,-0.16006914,0.021978002,0.12571093,-0.09205289,0.058564615,0.0962782,0.0013177395,-0.023447385,-0.007314243,0.11572066,0.013985274,0.05112326,-0.122445814,0.011147391,0.070932925,0.019867878,0.060251698,0.1705863,-0.027930817,-0.009926639,0.16102614,-0.042082176,-0.14352481,-0.16907658,0.025772693,-0.00019087491,0.095811516,-0.046422396,-0.08929519,0.10346414,0.17353451,0.062794246,0.05728505,-0.020715496,-0.1315443,-0.15464668,-0.092047274,0.14436969,0.14125247,0.010839805,0.049252283,-0.12879182,-0.11089601,-0.0005180595,0.079219684,0.07355537,0.0020425469,0.08190023,-0.012554364,0.017204573,0.055132642,-0.049409397,-0.068803355,-0.024531957,0.15451302,0.072650835,0.07301157,-0.02226959,0.0058776345,-0.077645384,0.093653336,0.12723917,0.0912357,-0.03598419,0.10809391,0.09843451,0.102450326,0.024109444,-0.03940246,-0.09622398,0.11725121,0.016149495,-0.07681565,0.09092364,-0.14799036,0.106695324,0.054076172,0.008553147,-0.105325155,0.008690923,0.11904507,0.15490337,-0.028948614,0.15737735,-0.075128354,-0.0101212
-0.055787854,0.12861505,0.110462934,-0.08212003,-0.0037505473,0.08479753,-0.13657841,-0.15650657,0.13559052,-0.14221808,-0.119002886,-0.14349884,0.14661542,-0.08052669,-0.010649252,-0.070748135,0.1608662,-0.0033881217,-0.030560952,0.066606775,-0.027693018,-0.09665025,-0.03500374,0.13305953,-0.02140551,-0.15884483,0.026417315,0.10734889,0.10024738,-0.1704609,-0.09072926,0.1239349,0.14964941,0.042318985,0.09487611,-0.05769713,0.015223392,-0.09874654,0.06532141,-0.04201482,0.074858695,-0.090456076,0.11386582,-0.15072185,-0.027047127,0.009441982,0.07475838,0.02214841,-0.12988181,0.110713966,-0.15766577,0.038260605,0.042324215,-0.12787089,0.17263184,0.1360206,0.07782492,-0.17010152,-0.15683852,0.12264955,-0.06660855,-0.02442699,-0.061960753,0.1412249,0.12536398,0.08048611,0.105908446,0.00016795099,-0.081641525,-0.013373856,0.14050478,-0.022382928,-0.012522045,0.036264464,0.09214084,0.15761378,0.12866995,-0.16643858,0.039515212,0.12935491,0.08276355,0.05741263,0.074488774,0.13387147,-0.05672919,-0.12107926,0.16891298,0.17004229,0.12791085,0.13094182,-0.03332057,-0.05543747,0.17401166,-0.041486647,-0.08324571,-0.024154639,0.15771699,0.045202747,0.05297435,0.0149324685,-0.010312517,-0.060108818,-0.14008518,0.15379864,0.14644061,0.024940165,0.013307179,0.078086674,-0.083883226,0.023986718,-0.07933842,-0.14610171,-0.101690285,0.15199354,0.12293958,-0.04400552,-0.09800427,-0.14717014,0.0045832726,0.09421268,-0.07070715,-0.03512086,0.13067648,0.0022958745,-0.024321476,-0.15684266,0.12479079,-0.03728226,0.09385309,0.028050795,-0.11498312,-0.06286364,-0.13462149,0.06722613,0.10540233,0.108479016,0.08977419,0.06300388,-0.14575012,-0.07352869,-0.107494935,-0.13711047,-0.12264396,0.05311337,0.14465101,0.05265521,-0.093568064,0.063678935,0.074864104,-0.09186337,-0.03975867,0.16097476,-0.0304362,0.15177941,0.10446789,0.055979837,-0.040947787,0.16972522,0.033359665,-0.07691213
0.15029705,0.07343125,-0.053968515,0.06710252,-0.0088423835,0.04373335,-0.05352761,0.08022678,0.13567907,0.004447023,0.08311119,0.052241255,0.043044228,0.14592937,0.0066584134,-0.007891149,0.062060397,0.07037492,-0.07809319,0.13568373,0.07560059,0.114385284,0.17745064,-0.013901092,-0.14902149,-0.087941065,-0.013606915,0.0019626468,-0.0811634,-0.106413856,0.02298735,0.034019526,-0.09789567,-0.022295877,0.1457271,0.09060522,-0.08768731,0.11308307,0.12151477,0.13477463,-0.02367121,0.15741731,-0.07347582,0.14241485,0.07571754,-0.0504019,-0.09546145,0.05722486,0.06989143,-0.037020534,-0.0692478,0.17109413,-0.027096715,0.09864918,0.1538358,0.064320475,-0.04388124,-0.15315068,0.16838062,0.052070297,-0.116956145,0.17932543,-0.060515154,-0.026811877,-0.14363922,0.006213885,-0.09785913,0.051169425,-0.011568034,-0.11240351,0.1413929,-0.066886865,0.14134817,-0.084724225,-0.021517742,0.08589761,-0.103899986,-0.08063215,0.09942634,-0.11068964,-0.15284133,-0.09798167,-0.04750231,0.02972931,0.21825947,0.1621915,-0.07735644,0.08338631,-0.09419955,0.054923404,-0.040140595,-0.104923524,-0.045656268,0.13724178,0.12409405,0.1757508,-0.12770024,0.05476418,-0.04884014,-0.128997,0.027191792,0.0010377611,0.13343029,0.046233423,0.026711471,-0.027615368,-0.1112411,-0.10029068,-0.058875658,-0.14248902,0.09111957,-0.034720547,-0.12192428,-0.097314954,-0.03547878,-0.050132476,0.10539307,0.14201026,0.06745376,-0.060045335,0.014896616,0.15308076,-0.167789,-0.017966619,0.2028854,-0.11839669,0.016306773,-0.00053953024,-0.006908418,0.17369649,0.085010126,0.003492012,-0.15701115,-0.061919723,0.075510845,-0.10819552,0.16991457,-0.10906558,0.16044024,0.028637325,-0.027656067,0.099192314,-0.10352323,-0.12600541,-0.056665316,-0.06387917,0.070618615,0.038960844,0.14270152,0.15225688,0.18051939,0.03687319,-0.08643872,-0.15172991,0.14409424,-0.046565186,-0.045460444,0.09427689,0.095973074,0.0740042
-0.14690347,-0.047257338,-0.06198011,0.13444893,-0.0023263237,0.018002843,-0.15620132,-0.15190339,0.07883779,-0.16865705,0.021781772,-0.16136687,-0.13809313,0.10897248,0.104249075,-0.10706005,0.01923585,0.06867464,-0.14906226,-0.13626015,0.12155992,-0.13260435,-0.12330846,-0.11906047,-0.057177585,-0.062175054,-0.12828474,-0.14063753,-0.13220486,0.07645553,-0.16116272,0.034650177,0.15351069,-0.029938638,-0.10092153,0.032220975,-0.14559695,0.049769703,0.08171346,0.0018019467,0.052429304,-0.008714815,-0.008295744,-0.045910485,-0.0025257801,0.09546687,-0.14154127,-0.052659698,0.019253066,0.009361014,0.087266356,-0.1413251,-0.123315215,0.0994369,-0.052583963,0.00013798154,-0.12617026,-0.052533165,0.10495702,-0.1496554,0.00088219065,-0.014634344,0.15146485,0.0630613,-0.06585207,0.078426495,-0.12962227,0.05346553,-0.16381621,-0.10559811,0.0042835902,0.13079625,0.15668523,0.048428208,-0.10383512,-0.10563011,0.08713908,-0.08848153,0.09770913,-0.1533177,0.012830779,-0.013029679,0.0059178174,-0.0064669997,-0.14018346,0.13528341,0.13895229,-0.04011604,-0.060589015,-0.05539212,0.11844917,-0.05950543,-0.106731094,-0.011957552,-0.15597272,-0.10600014,0.041106418,-0.041337878,-0.09650686,-0.050292812,0.14238298,-0.040343385,0.002744553,-0.1710976,-0.16238694,-0.13813195,-0.068796955,-0.08526858,-0.15519631,-0.062338214,0.12121185,-0.062210727,-0.117634945,-0.16370472,0.14955185,0.09075884,0.1009729,-0.015805762,-0.07287185,0.16158333,-0.12559274,-0.09619541,0.16762596,0.10915362,0.08094092,-0.014774734,-0.08117386,-0.16524416,-0.13587373,0.087062605,-0.047546215,0.091848426,0.05696956,0.14918546,0.114626415,-0.13940832,0.08377409,0.03747177,-0.16573238,0.13628876,0.13491169,0.14415562,0.0051403977,-0.05349317,0.02156991,0.086927645,-0.14388326,-0.008053407,0.16558585,-0.078961425,-0.0046085566,0.06337481,0.0060093403,0.10654265,0.1208201,0.08653863,-0.08136463,0.024577972,-0.12810536,-0.13396032
-0.1682992,0.09736902,0.08929123,-0.11200013,0.041909862,-0.1052404,-0.15457277,-0.13478954,-0.1015256,-0.1530819,0.117668726,0.033570193,-0.0383276,0.0009622926,0.049340233,0.13049886,0.13698658,-0.09477013,0.027753925,-0.05509213,-0.12644348,0.09181324,0.10091691,0.026047792,0.109590806,0.04021476,-0.17264594,-0.06638696,0.15419526,0.15374012,-0.016239949,0.03051159,-0.1000389,-0.0118893385,0.08520556,0.031719193,0.08246542,-0.06612898,-0.13521574,-0.06612983,0.10186583,-0.13525975,-0.028232304,-0.12795797,0.053884193,-0.10249225,-0.025661785,0.05948903,-0.006513015,-0.1768894,0.107031144,-0.118311174,0.09256689,-0.0066260598,0.106456704,-0.04480846,-0.1088156,0.1495583,-0.15011132,-0.079337,0.084667906,0.059464578,0.14662004,-0.13570218,-0.09277178,-0.019950742,0.16523376,-0.11551946,0.07151779,-0.038325433,-0.1480242,-0.092498094,-0.15957594,-0.085545175,0.15273947,0.14908175,0.052029517,-0.126683,0.08900107,-0.06202175,-0.17077795,-0.069116324,0.0709257,-0.10466926,-0.039773967,0.051043198,0.09398249,-0.016747113,0.062061235,-0.15745288,-0.05483073,-0.006178483,-0.013506636,-0.11771306,-0.07101051,-0.034351822,0.019618997,-0.15882237,-0.1041853,0.028271511,0.017684182,-0.0110860355,0.11501893,0.058369666,0.16959792,-0.113663234,-0.037679903,-0.15050276,0.036564272,0.030224476,0.07039393,-0.084514484,0.12878448,-0.1411213,0.09930129,0.12913041,0.13778569,-0.10179065,-0.07282054,0.1298448,0.045292035,0.1413825,0.030999606,-0.1118521,-0.023318421,0.048235267,0.12565562,-0.020608595,-0.078114614,0.1389228,0.15159407,-0.008596565,-0.023578981,-0.11988979,0.11848351,-0.16339879,0.053562954,0.1400119,0.09081188,-0.17119557,-0.1007107,0.12660429,0.09607748,-0.045801792,0.14882888,0.0028364856,0.036382996,-0.08406032,0.113278486,-0.06283472,-0.0832262,-0.03186146,-0.010346227,-0.028490871,-0.12892655,0.14047328,-0.14674534,0.101041146,0.028640408,0.03500957
-0.08272388,0.07763698,0.05870148,0.01004777,0.12328449,0.18187787,-0.057104196,0.06919138,-0.028508281,0.18100415,0.07281004,-0.12935549,-0.11600734,0.048198137,0.1799429,-0.15466505,-0.16227424,-0.108186565,-0.13084307,-0.0049310913,-0.1456104,-0.14890438,-0.06270668,-0.106197655,-0.047870178,0.050993245,-0.14783478,0.13281557,0.12898166,0.07583539,0.06681091,0.047491625,-0.0007364603,0.17043978,0.08579743,-0.13976984,-0.08148152,-0.10762706,-0.05579087,-0.066183075,-0.1301676,0.18061234,-0.083110526,0.08751734,-0.024659533,-0.055024948,-0.16843003,-0.054959662,-0.018397843,0.16624089,-0.0032302772,0.13315228,-0.04472953,-0.1152443,-0.055109944,-0.14262767,0.16873516,0.1553571,-0.12863511,0.008236185,-0.01420335,0.059563614,-0.062163625,0.02324065,-0.04489984,0.045654353,0.13840833,-0.043442577,0.008449189,0.10855399,-0.07667553,-0.005532995,0.0017846486,-0.0059472322,0.032096934,0.037719112,0.10255589,0.14036167,-0.018917073,0.14408705,-0.08293349,0.024714367,0.09924594,0.025046282,0.10571104,0.14555219,-0.13257322,0.028260112,0.13192937,0.078510016,0.10092623,0.07541883,0.019769901,0.05427037,0.17629692,-0.1512232,0.13563219,-0.06588175,-0.14268467,0.088261925,0.17570831,-0.01933504,0.0062175035,0.15997277,0.100736186,0.1329094,0.010165418,0.14824271,-0.061723858,0.10932438,-0.011806224,0.06480403,0.039029017,0.15087563,-0.09077067,0.11442118,-0.006132894,-0.05906685,0.045570433,-0.10725872,0.13891804,0.1515884,0.1245782,-0.1460291,0.15841454,0.112742625,0.17159149,0.043932147,0.11795833,0.071459144,0.098399244,-0.10735783,-0.09153931,-0.11792181,-0.01751626,-0.10997198,-0.06379792,-0.12545998,-0.023334758,0.13176958,0.09339978,-0.053691372,0.08458844,-0.05167171,0.081617884,-0.100133516,-0.14651886,-0.117297426,-0.13369593,0.1518665,-0.08879226,-0.007597387,0.08491914,-0.1598797,0.15824243,0.009750449,-0.010951361,-0.016264426,0.04948551,-0.051771555
0.059709013,-0.14436564,0.05893758,0.031058291,0.19946499,-0.039738707,-0.008365325,0.043654304,0.08542321,-0.065203086,-0.13851215,-0.017237166,0.057083804,-0.16504824,0.1628127,0.16694745,0.14545049,-0.026706055,-0.07624427,0.015427937,0.022044128,-0.16511865,-0.11808179,0.1689445,0.07425444,-0.08259039,-0.13844116,-0.17039716,0.10749777,-0.08526692,-0.032588743,-0.09350761,-0.11039823,-0.13822597,0.1605898,-0.041925695,-0.056347363,0.05677661,0.014616937,-0.013601226,0.16840905,0.08001393,-0.1664446,0.016361598,0.09178475,-0.1128866,0.15998459,-0.0392762,-0.020869857,-0.053107742,-0.081826515,-0.033426434,0.115742445,-0.10079007,0.06615183,-0.16998507,-0.15478,-0.097557686,0.15169539,0.1280116,-0.03969455,0.0051464736,0.0020335014,0.035562087,-0.055026136,0.02291724,-0.02448261,-0.109626204,0.11374887,0.0708519,-0.00087708794,-0.11407723,-0.12145447,-0.1303381,-0.05478829,0.01564668,-0.009772955,-0.07861664,0.1625737,-0.059793696,-0.07185714,-0.14189029,0.15366866,-0.018822754,-0.070570916,-0.076548144,-0.09989744,-0.014289336,-0.008836065,0.08664439,-0.118612796,0.032043338,0.16823652,-0.15687497,-0.122151576,-0.1549323,0.04091482,0.08581224,0.110733815,0.15271063,-0.11595557,-0.12852362,-0.048499174,-0.04304111,-0.12383157,0.14266606,-0.11655614,-0.0009883216,-0.056999568,0.06852722,-0.053149994,-0.031817827,0.11427428,0.08915132,0.015148866,-0.0223275,-0.1527459,0.16907899,0.10485945,0.15711424,0.11096802,0.044775657,0.012062257,0.07243273,0.0031051051,-0.001435954,0.15935346,0.12863782,0.057242583,-0.098654106,0.08571406,0.12624139,0.0985657,0.03130935,0.02169043,-0.09362651,-0.09344401,0.073837906,0.050922673,-0.004078521,-0.12842049,-0.042239778,0.0018369883,-0.15530944,0.051999785,-0.04102424,0.1667118,-0.10485705,-0.14235246,0.108181365,0.17132336,0.05452048,-0.012804055,0.04513453,0.11390075,0.07304711,0.056954373,0.03266853,-0.022987993,0.08149304
-0.087790065,0.073269255,-0.0344728,-0.15572035,0.044493455,0.14781599,-0.12840657,0.15844184,-0.087629914,0.0468315,0.13084073,-0.033081513,0.031913303,0.06617887,-0.14829512,-0.14433269,-0.11624053,0.07339387,-0.005372202,0.1490246,0.051538747,-0.10095737,-0.07302876,-0.075636104,0.09947297,-0.05198104,0.029876439,0.14077976,0.13230756,0.0014882738,-0.10009964,-0.1590075,0.042397466,-0.007492706,-0.07619097,-0.118537895,0.11763498,0.025190039,-0.08587787,-0.116588295,0.08869025,0.07420761,0.07524367,0.073890395,0.15940367,0.1291464,0.054888874,0.026373988,-0.021557309,0.02091278,0.14104688,0.020338254,-0.1765306,-0.13543111,0.12671967,0.1240131,-0.04608711,-0.14849211,-0.069880776,0.0045924466,0.17459929,-0.0803302,0.12570491,-0.13817786,0.10753594,0.06497043,-0.12968002,0.10067433,0.07026144,0.08263883,0.0030353826,0.10352549,0.03136028,0.10309324,-0.053493332,0.14934729,0.11636157,-0.15426214,0.1253361,-0.0035021827,-0.11621784,0.10429647,0.16482764,-0.11568619,0.040315747,-0.1531925,0.06658975,0.07028926,-0.16004911,-0.1294484,0.1264543,0.14043243,-0.019893412,0.1640111,0.058197755,0.0019339373,-0.1606684,0.05046679,0.1360915,-0.1299465,-0.056320246,-0.033725668,-0.036938168,0.16207959,0.09460498,0.100700565,0.07154936,0.044990797,0.09030137,0.07460845,0.14617218,-0.115566574,-0.13740775,-0.059846893,0.048038892,0.15085903,0.12007831,0.10735661,-0.12938872,0.006857784,-0.040252686,0.0086613735,-0.022095867,0.05131456,0.1495672,-0.10346448,-0.024827689,0.15974474,-0.10742496,-0.09007559,-0.05484934,0.119114585,0.11304471,0.03226328,0.0022743435,-0.14855924,-0.057865106,-0.16545378,0.10277523,-0.012557504,0.08264848,0.05665055,0.07203531,0.023358861,0.061020482,0.118256554,0.13035662,0.006371781,-0.018864749,0.061697125,0.026516221,-0.088102005,0.0022355276,0.0891228,0.02161465,-0.11971876,0.097097486,-0.055895466,-0.085451715,0.16637245
-0.06559954,-0.07337978,0.11845854,-0.12885758,-0.12847483,0.15573427,-0.061525382,0.033352196,-0.060963854,0.13639393,0.06587526,0.048373744,-0.084784225,0.15712696,0.03399393,-0.08598232,-0.09809151,-0.11929761,-0.16911548,-0.15548658,-0.11437582,-0.013047993,-0.1713282,0.11995283,0.076506615,0.013806388,0.09158391,-0.0801978,0.049889073,0.05953388,0.009946138,-0.15019657,-0.05138202,0.1328811,-0.07282221,-0.0017120242,0.120268166,-0.15558238,0.1730119,-0.09127845,0.076242745,0.14130366,0.15401837,-0.15473084,-0.099548124,-0.124359004,-0.029754177,0.0037178546,0.09229967,-0.15540795,0.03111419,-0.015200719,-0.125317,-0.14042577,-0.06832697,-0.07637695,0.16872594,-0.060026444,-0.15987189,-0.05288232,-0.002691418,-0.08991013,-0.029150397,0.15729618,0.13781792,0.10392848,0.11283749,0.09619576,0.066479295,-0.14642619,0.12266883,-0.12598893,0.09628749,0.037044704,0.07406351,0.0037201345,0.13046241,0.038856238,-0.075151436,-0.0075435787,-0.039447963,-0.0912374,-0.014280707,-0.106211,-0.12065506,-0.11897901,0.11066535,0.04682301,0.09211075,-0.08866772,-0.07325263,-0.14420025,0.034488812,-0.16342536,-0.073183626,0.086779654,-0.13454759,-0.035605937,-0.14211425,0.14117223,0.08757299,-0.01734288,0.016114011,0.10945234,0.03280747,-0.05408331,-0.12747262,-0.1568644,0.13230029,0.058378562,0.10282254,0.1370739,-0.10334886,-0.035397097,-0.12209086,-0.05080653,-0.05086851,0.014469922,-0.1350601,-0.12879586,-0.12236734,0.030030444,-0.08678713,0.010503501,0.1483761,0.14224228,-0.14932293,0.16948828,-0.13811335,0.11816937,0.120761275,-0.12889938,-0.044549674,-0.094564565,-0.0039865673,0.062213287,0.039444536,-0.15270947,-0.08163228,0.058155566,-0.025177509,-0.15146,-0.011881232,-0.030231133,0.13462916,0.021188006,0.11152136,0.036876008,0.16241232,0.020562336,-0.12229346,0.06657556,0.020674288,-0.13329948,0.11499888,-0.038320854,-0.07555641,-0.0305506,-0.020666152,-0.10182337
0.13889119,-0.082153305,-0.16676614,0.010245259,0.0060747364,-0.15842432,0.11496284,0.14964813,-0.11647236,0.13706976,0.07250637,0.10550877,-0.030580278,0.051241897,0.009963005,0.038283654,0.16134405,-0.08829482,-0.118769236,0.068965405,-0.038215008,0.102692276,0.15891314,-0.08724579,0.16051978,0.04831924,0.0884659,0.111581564,-0.069295384,-0.10461548,0.17657223,-0.12899075,0.017546466,0.064381,0.009116381,0.047063313,0.07575654,-0.121773966,-0.006123911,0.0414383,-0.15486959,0.11361301,0.09856622,0.027622767,0.0037109551,0.0915631,-0.0122267585,0.026534112,0.17939116,0.0488803,0.062480047,0.036091782,0.16715832,0.024355594,-0.11140436,-0.13071878,-0.022091946,-0.01706694,-0.062354896,0.069776714,-0.05149276,-0.07662447,0.02961593,-0.09619022,0.060479686,0.01209208,-0.004719416,0.068430126,-0.06780624,-0.048874337,0.041741326,-0.12910323,-0.024148934,0.033401877,0.0885642,0.054836888,-0.08585637,-0.111083515,0.0527235,0.14562926,0.018002108,-0.024471462,-0.049310803,0.008444752,-0.05709471,0.015120705,-0.04793353,0.083008625,0.016524782,0.14149117,-0.06908459,0.034167413,0.03371177,0.075307496,0.10720997,0.048754513,-0.084423915,0.00844498,-0.016693685,0.024880644,-0.16381276,-0.076702714,0.11731293,-0.119865,-0.05617866,-0.11887587,-0.04581682,-0.054869868,-0.14652593,0.065317795,0.09202056,0.03167464,0.009884432,-0.045936614,-0.13377231,-0.16503356,-0.044464257,-0.05034732,-0.008950023,-0.032293707,-0.102031626,0.15292512,-0.12663558,-0.03671504,0.12601075,-0.064770095,0.09589782,-0.057402495,-0.055371113,-0.008016044,0.15522346,-0.049525294,-0.11363977,0.17785005,-0.043551803,0.18116066,-0.061824575,0.16395587,-0.05552384,-0.093968675,-0.038663924,-0.1338049,0.0476325,0.04102496,0.1556854,0.07366424,-0.12900195,-0.087879226,-0.085942894,0.15047494,-0.013036955,-0.022461368,-0.00896943,-0.13663572,0.111634016,0.019502802,0.17597644,0.16808586,-0.0961739,0.017994907
-0.10929423,0.03131916,-0.112099625,0.15697312,0.06973356,0.02068695,0.111231476,-0.004296825,-0.11355507,0.068174206,-0.018136643,-0.1382627,0.09987765,-0.008461301,-0.18060233,0.012956691,-0.10783432,-0.13000283,0.03151101,0.068669066,0.04701212,0.021251371,0.12510875,-0.13468665,-0.12917873,0.05788247,-0.022062272,-0.08008783,0.0012606978,-0.17136492,0.13874882,-0.11995527,-0.113650315,0.11130965,0.1641145,0.13162233,-0.06531874,0.0075183264,0.08598044,-0.05472296,0.0072223395,-0.02784388,0.15758902,-0.14991571,0.13691983,-0.03613297,0.013904959,0.0009678149,-0.10942861,-0.0805664,0.008091145,-0.15248017,-0.15905902,-0.051884945,-0.056173045,-0.16796835,-0.03728582,-0.11657183,-0.087315835,-0.07779356,-0.1517685,0.06013204,-0.12975138,0.09529057,0.06396916,0.014810607,0.15543866,-0.015032485,0.12750298,-0.023566091,-0.122023575,-0.043082915,-0.06893816,-0.05666162,-0.00011875572,0.15931466,0.035638783,0.1367871,0.16420427,-0.16883983,0.099556684,-0.076880015,0.12352827,0.14184713,-0.12133673,-0.05726094,0.11060637,0.13959941,-0.04466784,0.08924848,0.09487709,0.11808353,-0.023113908,0.12978067,0.10971862,-0.055307817,-0.07545227,0.07012208,0.17370097,0.051975336,0.15343557,0.03961436,0.15838422,0.16936746,-0.15905318,0.13281685,-0.06745038,-0.04807505,0.110328466,-0.022928689,0.006053043,0.16572766,-0.01288186,0.09621069,-0.012941149,0.15649217,0.13375133,0.06468048,0.12199828,-0.168808,-0.032455876,-0.14813769,-0.10847195,-0.0010078883,-0.017592471,-0.10372626,-0.101648524,-0.043285817,-0.026370721,-0.043439966,0.057773672,0.10050514,-0.04639034,0.030031864,0.037737284,0.03537428,0.1474264,0.1317493,0.16015296,0.075659506,-0.1193815,-0.096123256,-0.05964114,0.003909059,-0.14281401,0.11360719,0.076379806,0.0629891,-0.14853364,-0.1674242,-0.010004165,-0.035233255,0.008446127,0.109393865,-0.040753156,-0.10802211,0.085814446,-0.12474832,0.08753797,-0.054077517
-0.10735149,0.0400883,0.022252962,0.09959418,-0.005744773,-0.10089938,0.09961301,-0.061510593,-0.15095197,0.13646111,0.15565808,-0.15380277,-0.049874473,0.14778325,0.1129451,-0.16806006,0.061628327,0.16658768,0.12960957,-0.049511626,0.085069455,0.077393144,-0.049137797,0.019153815,0.07544634,0.13500395,0.1118056,0.05530767,0.12142745,0.16810887,0.15321958,-0.07589385,-0.04024245,0.14328349,-0.10298545,-0.16882697,-0.10324221,-0.0030666033,0.13634562,0.13390978,0.03018105,0.119550884,-0.08903033,-0.08213621,-0.15261964,0.11474435,-0.09294281,-0.11252095,0.10724583,-0.15415908,0.12653701,-0.052158296,-0.1476924,0.061739385,-0.1744753,-0.09305882,0.14540595,0.12645453,-0.015264974,-0.12927452,-0.06059386,0.025802672,-0.01799009,0.04811498,-0.16269214,-0.0803295,-0.12362337,-0.117740154,-0.101233475,-0.012495449,-0.13105412,-0.083983645,0.1117385,-0.08567571,-0.16948092,0.16743131,-0.060834255,-0.077281214,0.009580993,0.008852537,0.17209476,-0.079834014,0.0532268,-0.01816252,-0.017746015,-0.06856571,0.15671629,0.026517428,0.14329499,0.058146544,0.05565917,-0.123434186,0.14469399,0.010502777,-0.12126583,0.15570249,-0.043373287,-0.145455,-0.08216122,-0.03222099,-0.045483295,-0.079221375,-0.16918895,-0.04699984,0.029093247,0.0020177814,0.04555096,-0.071854375,-0.009203032,0.12535001,0.03942856,-0.10867797,0.06732692,-0.020006835,0.16361888,0.1248945,-0.019154882,-0.060227666,0.16613704,0.011738575,-0.14288776,0.13916844,0.011092782,0.13606119,-0.15413071,-0.15453191,-0.1280252,-0.1490751,0.098859526,-0.13131997,0.116601095,-0.06738114,-0.17269672,-0.17603448,-0.11269593,-0.062989995,-0.1313147,-0.020403266,0.10381392,0.0035899282,-0.024143202,-0.071446836,-0.070053756,-0.12703884,-0.16431607,0.06674124,-0.14871679,-0.0052668005,-0.08430049,0.1391001,0.16376851,0.011300168,0.17059237,0.10924572,0.12725405,-0.10883523,0.037548292,-0.12181761,0.10988719,0.024202252
