0.049340155,0.042869885,-0.12739299,0.040286474,-0.0818491,-0.046589382,-0.038758874,0.12259445,-0.049055107,0.20290814,0.022248704,0.17239761,0.11035587,0.014651938,-0.21372631,0.1361228,-0.080658615,0.16940343,0.087183036,0.022430152,-0.029545361,0.01903733,-0.054625567,-0.013935166,0.018251492,-0.09769621,0.10653427,0.055970553,0.17239691,-0.12313059,-0.118142396,0.105851136,-0.08912085,0.035621,0.068038344,-0.07062041,-0.10254129,-0.13644354,0.19119011,0.049742132,-0.17858285,-0.034555484,0.1788811,0.15103398,-0.00027726972,-0.13526644,0.05069775,0.0942636,-0.106137946,0.11184686,-0.053992596,0.06010375,0.065538876,0.042191662,-0.14373407,0.110758275,0.008849369,0.12639464,0.20254609,0.10288432,0.102464296,0.089591295,-0.0039326674,0.114416726,-0.071953446,0.021357851,0.18788023,-0.17493534,9.774692e-21,1.3865163e-25,2.576027e-21,-4.5108162e-20,0.062875226,-0.037435688,0.12768587,0.032236286,0.005777584,0.009893397,0.005538449,0.008895807,-0.089590855,0.11172936,0.07192815,0.06840018,0.10896259,0.09761075,-0.019891085,-0.1107015,0.036731947,0.03517507,0.022640694,0.037921783,0.13762501,0.14489958,0.068574965,-0.035883874,0.031075764,-0.080392525,0.20758557,-0.10061509,0.17501129,-0.1361307,0.1766156,0.19135502,0.06853723,-0.10669279,0.10480021,0.16832125,0.20833741,0.10364027,0.0004717182,-0.1779407,-0.026327066,0.10975459,0.06265988,0.09073926,-7.2749746e-05,-6.739154e-05,-3.2235268e-05,-6.602574e-05,-0.08563564,0.11215808,0.16101204,0.103388466,-0.021297658,0.19210199,0.0039354498,-0.2015278,-0.15130317,0.07603466,0.054938488,-0.016016586,0.0911073,0.04643718,0.043442946,-0.026288314,0.11438086,-0.028101806,-0.043360494,-0.08915102,-0.14473787,-0.0074068275,0.037213657,0.0890757,-0.05183952,-0.103786625,0.059582863,0.16903655,0.16961104,0.03241152,-0.16452833,0.030529104,-0.013916274,0.10369609,-0.010674383,0.065503806,0.02572572,-0.04536341,-0.107345775,0.16119114
0.12022472,-0.043268878,0.16591659,-0.0927932,-0.09265278,0.10273412,0.03042183,0.085829325,-0.1099843,0.11911806,-0.04310695,0.021282459,0.02404206,0.10184403,0.13482696,-0.1612389,0.034505215,-0.03893904,0.18186836,-0.05072595,0.080746576,0.09980773,0.08112457,-0.048961405,0.07522908,0.13807064,0.046532862,-0.0016273163,0.014892233,0.119367406,0.08806287,-0.04362257,0.18922809,0.0023321274,0.20309888,0.2425713,-0.048989836,-0.086002074,0.040591147,0.06997186,0.23145342,-0.11692281,-0.28752774,-0.1456381,-0.087561026,-0.043234345,0.043419022,0.05214122,-0.07311011,-0.043299634,-0.03841164,0.1519743,0.115785904,0.1532108,0.1321845,-0.022469332,-0.17180401,-0.24741806,-0.044010222,-0.16468947,-0.003612815,0.12337424,0.17609373,-0.120511666,0.03447781,0.060660522,0.05709737,-0.06639387,7.217487e-24,1.5556051e-32,4.2634784e-24,1.623039e-32,-0.09649921,-0.0992632,0.05832144,0.20986496,0.004732111,0.00599958,0.0066629155,0.006230374,-0.12877865,-0.119357444,-0.08246104,0.0023208251,0.19686149,0.016167479,-0.18430966,-0.24198715,-0.026129201,-0.008084944,-0.025592329,-0.31279606,0.035516806,0.022535082,0.093458995,0.201653,-0.011054171,-0.13356051,-0.017023213,-0.011937757,0.09023571,-0.11080215,-0.12886421,0.059955,-0.034543723,-0.057190742,0.11902963,-0.12601234,-0.1496506,-0.10383638,0.010140502,0.027144551,-0.13239442,0.19299997,0.06309801,-0.04057401,-5.8785764e-07,-3.2061942e-07,-4.8926267e-12,-3.440933e-07,0.19061384,-0.09057363,0.09625828,-0.09556159,0.002475701,0.11141139,-0.018049145,-0.022934582,0.15989698,-0.0055364287,0.22661221,-0.067624345,-0.1441652,-0.121864155,-0.05590132,-0.10397758,0.137162,-0.14124785,0.27887216,0.023959933,-0.14461374,0.029133277,0.029268524,0.15900065,0.13817808,0.1941764,0.041949958,-0.08645825,-0.021361878,-0.026828356,0.12426498,0.20336361,0.051282357,-0.15161027,0.00080171746,0.14324237,-0.072418764,0.1250947,0.044743545,-0.00038680906
