0.049285293,0.04635711,-0.12999907,0.04426883,-0.11220143,-0.03499785,-0.037546434,0.1548142,-0.05082084,0.18252626,0.009544138,0.15104477,0.11732331,0.021179635,-0.23471594,0.12927708,-0.10622255,0.14400175,0.06471755,-0.0067199934,-0.0159508,0.02761464,-0.042753518,-0.02097586,0.007508108,-0.116390154,0.09661148,0.03476116,0.16779959,-0.16081822,-0.12426194,0.101335615,-0.08429694,0.026336765,0.073297635,-0.07166787,-0.11333189,-0.15200405,0.20455979,0.061423827,-0.18538116,-0.04054496,0.1741115,0.14735025,-0.010931486,-0.16412222,0.057400044,0.11733147,-0.1383777,0.13334897,-0.073731124,0.089648314,0.05174633,0.01167432,-0.16568837,0.084484056,0.0008223369,0.11405489,0.18877544,0.09747797,0.08313256,0.07351478,-0.021146242,0.09017177,-0.056519438,0.047430933,0.20920579,-0.20293462,-0.0011655121,-0.0010984696,-0.0036309138,-0.0004443154,0.047502663,-0.06368171,0.11765695,0.014061284,-0.0018715315,-0.0019895139,-0.0019662168,-0.001798325,-0.09790414,0.108146265,0.06531657,0.06599375,0.106859066,0.10037323,-0.025060758,-0.12442664,0.02851957,0.03307625,0.021714728,0.031596344,0.12017307,0.12912503,0.05546502,-0.049013015,0.029072085,-0.09720652,0.21661566,-0.11950045,0.16168185,-0.15777348,0.14668737,0.16372316,0.051487006,-0.13529775,0.08369218,0.1386196,0.20645997,0.09892236,-0.007874164,-0.19720934,-0.03795043,0.096501596,0.04347201,0.06631924,-9.403303e-05,-3.2881013e-05,-1.9953832e-16,-9.041954e-05,-0.09717218,0.088705614,0.13787314,0.08064528,-0.008671546,0.21785584,0.011496573,-0.22102498,-0.16136482,0.09240057,0.067127176,-0.008060484,0.086055,0.032505024,0.039177593,-0.033103757,0.12668747,-0.019957822,-0.02771241,-0.091036335,-0.17639157,-0.021058802,0.05324456,0.12089105,-0.055852182,-0.12170804,0.052051306,0.15144898,0.17068774,0.011596097,-0.15715674,0.028873282,-0.030892588,0.09269063,-0.039266184,0.049374346,2.6623216e-05,-0.0455688,-0.14368571,0.17676944
0.13886093,-0.0769831,0.17926285,-0.10005805,-0.074018955,0.08991179,0.0066409456,0.06813384,-0.124431334,0.11897399,-0.062244616,0.004925487,0.011321455,0.06545108,0.10650338,-0.17735863,0.012161354,-0.062414344,0.17819302,-0.08618221,0.073351555,0.06767466,0.035814743,0.018698921,0.06600502,0.13560519,0.030618627,-0.02567962,0.039560523,0.07603107,0.070060104,-0.06687862,0.19135866,-0.021290535,0.23696971,0.26877263,-0.0779144,-0.08460642,0.05263988,0.07687662,0.26534373,-0.11406786,-0.3576349,-0.20523977,-0.10390158,-0.050392564,0.06977292,0.0656658,-0.074132755,-0.0450034,-0.059963845,0.14960198,0.0993954,0.10701014,0.106746204,-0.016787821,-0.1988442,-0.25793245,-0.0727538,-0.20488082,-0.032001913,0.09951677,0.16188677,-0.13880995,-0.005899843,0.040925913,0.045747865,-0.10089632,0.00039168185,-0.00012035847,0.006578556,-0.00015459677,-0.10616106,-0.10235301,0.064290196,0.20605282,-0.0016079695,-0.0011115737,-0.001012241,-0.0010060943,-0.14991897,-0.11773975,-0.113734156,-0.018342175,0.2033375,0.02332339,-0.21505122,-0.26060173,-0.042550012,-0.026727997,-0.057576295,-0.39601868,0.0021853135,0.027330695,0.087192975,0.20235325,-0.01243259,-0.1520981,0.0013245809,-0.023259912,0.106234714,-0.11831194,-0.169154,0.0005936281,-0.060630597,-0.07786118,0.09437005,-0.17404851,-0.19901563,-0.13579255,0.008305651,0.021511015,-0.19267173,0.18531115,0.03937869,-0.059864834,-8.488395e-06,-1.3936066e-05,2.9748204e-08,-1.5608839e-05,0.20873986,-0.1105975,0.0530379,-0.122061044,0.0027442118,0.10633819,-0.035426248,-0.06357865,0.17269404,0.0021784676,0.27432513,-0.07221028,-0.18679038,-0.17298463,-0.06869422,-0.16087243,0.15525477,-0.14876537,0.31669977,0.00813429,-0.14800316,0.03825476,0.034371063,0.15161254,0.14914325,0.19316833,-0.00607399,-0.09970061,-0.033209886,-0.06601454,0.15379633,0.23337229,0.05201905,-0.19034508,0.007672688,0.12479122,-0.06651026,0.10352183,0.025844287,-0.0006021495
