0.24913028,-0.057138022,0.30626026,0.06350192,0.06848175,-0.22542848,0.081774555,-0.20892128,0.20409265,0.0024188748,0.20806651,-0.08257656,-0.013960104,-0.016545195,-0.11209464,0.16326417,1.9004797e-07,1.6300935e-07,2.1781437e-07,2.0039943e-07,0.03648171,-0.00026142958,-0.036494944,-0.10673881,0.004072245,0.245436,0.055852946,0.20863456,-0.113699675,0.13809098,0.17969821,-0.20390911,0.0092525445,0.058577985,-0.02342754,-0.20642784,0.008340742,0.057279393,-0.1385825,0.13223916,0.0702505,0.011674996,0.12803009,0.061458383,-0.008990414,-0.10999106,0.10909348,-0.07135623,-0.022223538,-0.020972027,0.018939158,0.019222258,0.013670991,-0.20278816,0.110153474,0.04609967,0.21137118,-0.057152826,-0.008714767,0.15189183,0.024291912,-0.04143703,0.004102838,-0.026683973,-0.013548264,0.16015099,-0.013131967,-0.1298306,0.20895708,0.089772746,0.17957678,0.081262276,-2.423074e-08,-3.342444e-08,-2.5851444e-08,-3.7114688e-08,-0.08132289,0.19582258,-0.22159436,0.19606568,0.14222872,-0.077561855,-0.122615494,0.060258754,0.27397296,-0.09724785,0.1812061,0.029316023,0.10749494,-0.015616558,0.28926763,0.12559424,0.1408241,0.14921321,0.23043984,0.26426002,0.15012346,-0.120275535,-0.15768795,0.12731694,0.3002767,-0.013466624,0.2952785,0.054946844,-0.1053702,0.05476107,-0.02895493,-0.11154246,0.02358412,0.020022903,-0.10476929,0.22052468,0.08527005,0.19268797,0.17894924,0.15830104,0.013838826,0.0120253,0.01679972,0.016595175,-0.009900809,0.27461907,-0.034276515,-0.16462046,-0.04886333,0.16539468,0.12636107,-0.24379699,0.00071400084,0.094925486,0.046790455,-0.14189185,0.25582114,-0.08846067,-0.012048929,0.009227867,0.106946304,0.06858814,0.21918665,0.20655107,0.22023895,0.12337529,0.28218904,0.099686466,-0.07078661,0.15654798,0.2035187,-0.21605845,0.012319486,0.0105559705,0.015142859,0.014739787,0.29203844,-0.032856587,0.10000834,0.109054685,0.18128242,0.021660192,-0.18753381,-0.012313338
