-0.07041171,-0.13278514,-0.05126424,0.12941585,0.07709247,-0.01045146,-0.04666269,-0.112893306,-0.053181615,-0.13985324,-0.06302179,-0.34610665,0.048870426,-0.043098487,0.20192052,-0.065553084,0.0076427218,-5.6279143e-33,-0.061647322,-0.102041416,-0.055730227,-0.06903305,0.09600278,0.06515966,0.19108064,0.17572276,0.06994001,0.19140063,0.12269288,7.928612e-33,0.02650437,-0.111158006,-0.085515976,0.08176414,0.052641362,0.0019357353,-0.042716105,0.09015074,0.0026534393,0.039782826,-0.13033274,-0.09127616,0.049907576,0.09061695,0.16502814,0.0068445196,0.09450202,-0.046763606,0.038199365,-0.014299275,-0.14360538,0.12295033,0.032333195,-0.12340041,0.24632384,-0.091244526,0.055378906,2.5292195e-32,0.124318294,-0.04152966,0.20040095,-0.28640926,-0.08605702,-0.022743821,0.15204008,-0.117386274,-0.114936545,0.16010901,0.048252128,6.511163e-33,-0.021953976,-0.075227425,-0.1021902,0.0088624405,0.053936347,0.10097559,0.084181495,-0.11242399,0.12270614,-0.058703378,0.17973688,0.11496601,-0.011574558,0.025234442,0.10658925,0.053947166,-0.0467478,0.20649335,0.09050382,-0.31744418,0.020038046,-0.25753736,-0.3141016,-0.17640169,0.088392735,0.08421415,0.10407353,-2.4436052e-33,0.065775834,-0.14466707,-0.1779459,-0.17361175,0.060656026,0.00066024106,0.0065675355,0.01431209,0.11103526,0.10276913,-0.019273726,1.9816583e-33,-0.0006262214,-0.18099268,0.03168127,0.04383871,0.19755362,-0.32605842,0.08259666,0.0985591,0.025793541,-0.055699263,0.04739453,-0.1387785,-0.22617437,-0.0068806005,-0.061428577,0.006870807,0.0044329027,0.077046536,0.13868581,-0.22316046,-0.3844037,-0.23603268,-0.022026118,0.02233781,0.10365379,-0.13011846,0.027073907,3.1981983e-33,-0.071377374,0.12922242,-0.115214124,-0.03267385,-0.13249107,-0.09757367,-0.07107842,-0.042972315,0.03498036,0.32526073,0.07357327,1.9382283e-32,0.009924181,-0.17479579,-0.06244441,0.19489479,0.23099814,-0.059432305,-0.18769118,0.00037710764,-0.12619127,0.07306515
0.31440282,-0.13077308,-0.0028144852,0.22472179,0.0020860333,-0.014430571,-0.09288488,0.029700143,-0.057734318,-0.20009524,0.18824258,-0.21830912,0.40454865,-0.044733737,0.04713374,0.18577243,0.28300202,2.0104262e-32,-0.073265515,0.0020777609,0.10228053,0.26342645,0.07986431,-0.12876743,0.14206533,-0.010742212,-0.016917236,-0.19494319,-0.20177558,-1.6201871e-32,0.038695287,0.11951007,0.036769226,0.008993789,0.2571088,0.16011044,-0.12151301,0.15675628,0.1637509,0.2048222,0.12438046,0.08511572,0.079035535,-0.14463101,0.18475817,-0.037871446,-0.07756006,0.037213285,0.17439003,0.1881474,0.020708356,-0.027487712,0.25379825,0.072335996,0.0046123755,-0.16723175,0.18387434,2.0485575e-32,-0.04742623,0.06301818,-0.102323264,-0.060065538,0.15028867,0.09114414,0.22436999,0.03121437,-0.07831249,0.036887668,-0.1556451,-1.1368021e-32,0.182144,0.35291064,-0.019671878,0.17831065,0.099498086,0.10981314,-0.23552848,0.0702155,0.19648756,0.18811208,-0.16562852,-0.07999968,0.05124485,-0.13846399,0.06198385,-0.06947782,-0.17948167,-0.113690384,-0.27717227,0.06357094,0.13263282,0.091166005,0.01695615,-0.17948398,0.085928,0.0725356,0.14071402,-2.954453e-33,-0.04258477,-0.14623015,-0.0028569563,0.027112952,0.3831933,-0.10682572,0.18707494,0.10191316,-0.033311047,0.14796877,-0.09486996,-4.7034688e-33,-0.02650289,0.14840658,-0.17859665,0.256292,-0.30150348,0.08888933,-0.06650257,-0.18086892,-0.05909218,0.1814797,0.19082993,0.08744422,-0.06133239,0.20037374,-0.024349153,-0.010439533,-0.21737145,-0.09730467,-0.21791065,0.072597384,-0.085493214,0.27019727,0.009849381,0.096005045,0.12160735,0.034952566,0.055161726,-5.72511e-33,0.118534654,0.11807777,0.10705994,0.14123932,0.23049669,-0.10060061,0.17187092,0.10163702,0.02869824,0.29297873,0.05242859,1.529063e-32,-0.101389,-0.0049769366,-0.2355298,0.026536657,0.16117877,0.12602144,-0.28737202,-0.04228963,0.0010844043,0.15455262
0.17913651,0.024635436,-0.066899225,0.027278783,0.1219775,-0.001450113,0.14831524,0.03186294,0.11688127,-0.1765297,0.13968894,-0.11845873,0.08678154,0.0076722475,-0.03568489,-0.03511339,-0.008785114,1.1511052e-32,-0.00030422735,-0.023113683,0.09785709,0.29817083,0.05380248,-0.004427496,0.14926943,0.0823649,-0.0366879,-0.10930923,-0.09954539,2.374548e-32,0.16060764,-0.124504834,0.03991879,0.015727883,0.22394423,-0.07280255,0.052052144,-0.00045992163,0.1083397,0.21104974,0.0210155,-0.03238835,0.123884186,-0.092785716,0.14064664,-0.079598196,-0.0788504,-0.2262389,0.0008932013,0.057641182,-0.18867332,0.10512751,0.39682937,0.03460129,-0.1741591,-0.040990323,0.23744185,1.6858834e-32,-0.031830993,0.057919525,-0.1814434,-0.094864175,-0.06860703,0.1446676,0.373194,-0.034852117,-0.07715599,0.12783325,0.005447855,1.4899908e-32,0.16676076,-0.011262306,0.27129412,0.12428102,0.08606286,0.26700383,-0.2399497,-0.0020576103,0.21322647,0.2634071,-0.13532533,-0.030992035,-0.04271721,0.14015897,0.03851006,-0.115034774,-0.10256571,0.021883467,-0.21962683,-0.23634891,-0.11452313,-0.11368954,-0.098990895,-0.011500465,0.37802345,0.0718604,-0.21548001,-2.3108911e-32,0.13888833,-0.07618178,0.2824288,0.013004374,0.14145638,-0.14577985,0.04183578,0.026703512,-0.03393547,0.019973096,0.18962732,-9.422961e-33,0.15619847,-0.13060282,0.023586316,0.11919915,-0.18670087,-0.18558072,0.023172015,-0.19375317,-0.08915181,-0.047156695,0.17196687,0.048216194,-0.20630611,-0.06667818,0.060773373,0.04047866,0.11305669,0.14670216,0.029214218,-0.062132563,-0.4277523,-0.1546614,-0.15264978,0.015624857,0.030099716,0.11896775,-0.024741396,-2.1535593e-33,-0.04067744,-0.12878084,-0.18760401,-0.26337078,0.15827698,0.17945786,-0.059301298,-0.14720602,0.19890091,0.03917341,-0.043181755,-9.523878e-33,-0.04323487,-0.10987576,0.025003739,0.008314831,0.07179769,0.14827104,0.009312265,0.011007788,-0.10325719,-0.15277548
0.07760828,0.0065437965,0.16738853,0.07325628,0.07518434,0.002594865,0.009252173,0.079113774,-0.024980227,-0.030891407,-0.009696332,-0.012691845,-0.0452522,0.03756296,-0.003863752,0.07907349,0.11140702,-1.9616232e-32,-0.13995522,0.039884076,0.000755763,0.08932969,0.0024471355,-0.0054085026,-0.10224164,0.05806536,-0.18345925,0.03951791,-0.05786545,1.8671053e-33,-0.13074316,0.17030646,-0.08731453,0.01755226,0.026061501,0.006234638,0.065882884,0.012510917,0.13240758,0.038828112,0.06904251,-0.055354256,-0.13353138,0.06626069,-0.022704614,-0.0043313415,-0.055517666,-0.116124354,-0.10106041,-0.011665875,0.102713324,-0.055455666,0.09124157,-0.115647286,0.1376754,0.024801597,-0.089578114,-2.188499e-32,-0.11584831,0.08902084,-0.013134469,0.03866959,0.0130619705,-0.030120311,-0.01428184,-0.039305903,0.14424571,-0.03010569,0.148478,-4.7750046e-33,0.1710982,-0.028791307,0.014065488,0.019568669,0.04981149,0.026836226,-0.010568569,-0.08962669,0.103613384,-0.047085837,0.06195153,-0.050116353,0.03911244,-0.097005896,-0.12417797,0.022844316,-0.108084135,-0.050253257,-0.03668372,0.024793033,-0.019131511,-0.028255114,-0.10848808,0.056875415,-0.014878838,0.14287856,0.058900505,-1.4570796e-32,0.11390575,0.04051919,0.0014293306,0.14691676,-0.011225308,-0.08289323,-0.01935394,-0.026546365,-0.0047177738,-0.047401287,-0.047957566,-4.978174e-33,0.08816518,-0.05967145,-0.13151291,0.011376955,0.13418113,-0.025087796,0.043857943,0.14928117,0.011660351,0.086625256,-0.05800187,-0.0083536,-0.022101298,0.060384907,0.07184732,0.0045978394,-0.023771802,-0.05589434,-0.0307282,0.12304065,-0.05959122,0.007558733,-0.012403285,-0.05711451,-0.015379552,-0.15523802,0.059879202,-3.235945e-33,0.068268694,0.033994082,0.08911332,0.006916992,-0.0056718527,-0.114036545,0.098991126,0.03287551,-0.046247374,0.081236124,0.15603344,-1.2244484e-32,0.15010732,0.012587485,0.12937874,-0.011794052,-0.08730614,0.014841315,-0.02094765,-0.12637219,0.065685235,0.042084977
0.29336718,0.0884092,-0.06700161,0.2296099,-0.050608937,0.002146094,0.11912663,-0.00916366,-0.010283208,0.25362968,-0.019011876,0.10390862,0.019305298,-0.087618366,-0.03722837,-0.0049011214,-0.016914899,1.6066416e-32,0.06420473,-0.049907744,0.019584289,0.035546288,-0.09842531,-0.12104564,0.11072523,0.045432642,0.15096177,0.019568142,-0.03425284,1.775013e-32,0.22243686,-0.035228543,0.21922633,-0.06459503,0.04383713,0.11821079,0.12929319,0.0632672,-0.077691264,0.06170303,-0.05273831,0.028508585,-0.0036410447,0.17491162,0.20715411,0.11226727,-0.010059764,-0.17033787,0.13728018,0.3372318,0.019160476,0.025356004,-0.09202283,-0.06663398,0.015200294,0.16749498,0.13849998,-2.4425368e-32,-0.12727971,-0.07955638,-0.01967043,0.13028714,-0.05100928,-0.0065004146,0.0068016043,0.11632878,0.17126042,0.0009207752,0.1213253,-7.738867e-35,-0.04797921,0.05586437,0.049058527,-0.093257755,0.22349001,0.1144856,-0.031244885,-0.077419035,0.16283914,0.058565818,-0.11290265,0.1280334,-0.03745584,-0.18466067,-0.09099516,0.11497436,0.057305288,-0.07801382,0.14905596,0.060051836,0.059816077,0.21859305,0.17936853,0.065726444,0.15103339,-0.14020751,0.052347593,-1.7774956e-32,0.16295734,0.15933017,0.3037534,0.026718536,-0.026163496,0.013281423,-0.057965487,0.057548963,0.12606184,0.122199394,0.061977237,9.517386e-33,0.15553823,0.10929472,-0.09841112,-0.13717939,-0.0759016,0.04015934,0.17592081,0.10967432,-0.062028825,0.017567819,0.12012401,-0.07531127,0.032984123,0.109294035,0.057730284,0.08331696,-0.03993429,0.05329669,0.016167937,0.298582,-0.23306867,0.23418899,0.06526923,0.02192449,0.062086824,0.1802013,0.11868413,-2.1326957e-32,0.007883241,0.06015116,-0.12507723,0.2655443,0.022307174,5.3770964e-07,0.2150912,-0.07820375,0.077867754,0.11983408,-0.024261082,1.9596302e-32,-0.15575852,0.25922132,0.120780796,-0.09978609,-0.039003965,-0.077507034,-0.1077513,0.09904556,0.115720235,-0.016854765
0.16175856,-0.06081174,-0.0025988258,0.13386281,0.09450819,0.0054725595,0.025129475,0.17246132,0.21438202,0.11135058,-0.00590335,0.14452651,0.2864176,0.1595776,-0.0455789,-0.122935854,-0.03631843,2.566507e-32,0.04273332,-0.08524652,0.02637388,0.023568166,-0.06843084,-0.05284866,0.156571,-0.07826352,0.17741016,0.09449528,-0.088918485,4.6080752e-33,0.01333168,-0.047251586,-0.027757315,-0.16374613,-0.037676636,0.02250566,-0.10292955,0.04834898,-0.057573482,0.11752091,0.04642209,-0.006822717,0.0493349,0.102743864,0.17602152,0.104632,0.13802606,0.05961476,0.21119659,0.31878912,0.14978331,0.07044789,0.041974295,-0.09897368,-0.006633875,0.011671123,-0.023570303,1.9586889e-32,-0.13938223,-0.11850863,-0.14236392,0.28693298,-0.009598011,0.03412478,0.34970865,-0.15488724,0.19916083,-0.030415045,-0.0807804,-1.1459672e-33,-0.0552419,0.1332573,0.27554467,0.0038083976,0.06090285,0.15371116,0.07171547,0.15056711,-0.14419289,0.13517411,0.09298473,0.13903888,0.23143345,0.111086145,0.18211913,-0.041038435,-0.1155175,0.0797086,0.05387663,0.42470923,0.1453614,0.29437378,0.27998078,0.109872945,0.21677856,0.08868094,-0.06273278,-8.07672e-33,-0.061908845,0.07479179,0.24068844,0.34503734,-0.1255261,0.15893346,0.09855081,-0.14359127,-0.12603776,0.08231083,0.042746875,2.0224999e-32,0.011863904,0.22823451,-0.08376438,-0.22994742,-0.018486356,0.38696322,0.20344365,0.021226661,0.06617329,-0.026962345,0.13986973,0.031079674,0.14905053,-0.047764633,-0.14919962,0.09897595,0.121878095,0.09162433,-0.21254618,0.19287139,0.3402845,0.3462015,-0.13234435,-0.07025177,0.16277373,0.034904063,-0.016265173,1.7393984e-32,-0.019962478,-0.080669224,0.14099927,0.60513306,0.21634348,0.034588374,0.0043239873,0.0032338277,0.22094665,-0.1450232,0.007938947,2.0211497e-32,-0.1289807,0.18083096,-0.13966048,-0.17417799,0.10087027,0.15869583,-0.06034915,-0.14708264,-0.09626589,-0.0049158717
0.0035541842,0.09993005,0.26395038,0.08025669,0.15511289,-0.04327401,-0.11779351,0.04584651,0.11233132,-0.010257967,0.007046082,0.16911444,-0.02278563,0.14284673,-0.15456234,-0.069350764,-0.11503385,1.2067609e-32,-0.06739695,-0.06044517,0.2033682,-0.205241,-0.14111969,0.18247841,0.08423557,-0.08375234,0.16018952,0.26822814,0.03369718,2.2382467e-32,-0.010919924,-0.21508394,-0.017202213,-0.07570623,0.0071368474,-0.16210328,0.056678817,0.12807222,0.0911435,0.0461599,-0.08678482,0.053112555,0.07005328,0.047475718,0.096320085,0.095055915,-0.14084615,0.06087188,0.12804256,0.026104543,0.32299778,-0.17355102,0.08742824,0.14647572,-0.05380556,0.0059331423,-0.014193583,-1.8558176e-33,0.0994237,0.056665573,0.12774864,0.10559092,-0.09994318,0.044595696,-0.13627453,0.0063565243,0.07131186,0.14720063,0.036991127,-2.7907118e-34,-0.019937573,-0.08906508,-0.15960948,-0.05587178,-0.2005918,0.005250962,-0.0091573065,0.10446168,0.05241116,-0.12189449,-0.05670641,-0.12500447,0.20147714,0.07000701,0.19151635,0.14583111,0.0049288166,0.017879596,-0.11809057,-0.027529271,-0.123971865,-0.12351361,0.059454035,0.09209071,0.2563643,-0.012409701,0.005624607,7.361735e-33,0.119516246,0.09693383,0.22392523,-0.16647911,-0.14007886,-0.15021595,0.11817191,0.26758462,-0.00024819982,-0.22634222,0.00303694,-2.159593e-32,-0.058033526,-0.24862683,0.19772907,-0.16152535,-0.0055252584,0.06154831,0.09756854,0.12952957,0.12431014,-0.0013277291,-0.032202736,-0.08065071,0.17639601,-0.01971366,0.10377823,-0.034618318,-0.1374798,-0.07612046,0.0741052,-0.088454835,0.035171323,-0.15063354,0.001601853,0.07418156,0.17303701,0.10235064,0.08167279,2.1235965e-32,-0.029278528,-0.037499044,-0.16055751,0.02316656,-0.15185706,0.15696463,0.05649135,-0.009982671,0.14915271,-0.20024393,-0.08686208,-2.5148065e-32,0.12757081,-0.20249198,-0.04234513,-0.15727697,0.004540191,-0.2320812,0.071970105,0.19554377,-0.029446516,-0.088168494
0.15055987,-0.12191176,-0.03368634,0.13213912,0.14239384,0.044545826,0.14832705,0.09632453,-0.017943587,0.024390925,-0.052126803,0.16261768,-0.03820927,-0.09227616,-0.007659889,0.17824839,0.14964123,2.066995e-32,0.09607041,0.0858389,0.12623037,0.1713362,0.09845232,-0.033167467,0.043454573,-0.13276693,0.13155752,0.14217381,0.07426157,-1.0983366e-32,-0.016669648,0.17841734,0.14179352,0.028801663,-0.057158384,-0.12305624,0.011048883,-0.14348851,-0.09401876,-0.09025007,-0.059903774,-0.103029706,0.09847367,0.14554504,0.03911766,0.06378801,0.13884792,0.06503053,0.14862062,0.0959166,0.15220758,0.061998192,-0.06680702,0.10520682,0.049853094,-0.036219273,0.14895338,-7.6244356e-33,-0.17919357,-0.10375416,0.017286062,0.11166698,0.0045611467,0.15475221,0.09212504,0.030524995,0.14986823,-0.049633212,0.14620861,1.6273988e-32,-0.07991162,-0.057939094,0.13960859,0.021166429,0.19972575,0.08462868,-0.02609336,0.11267657,0.08362324,0.103987,0.11410731,-0.06189,0.18721268,-0.08987052,0.010958804,-0.07910358,-0.014493904,-0.12333614,0.0023341505,0.18689096,0.13205841,0.20432383,0.23004182,-0.072182536,0.11083108,-0.096728764,-0.009427659,1.63327e-32,0.17107053,0.039228853,0.23049352,0.27783278,-0.01749697,-0.12753421,0.03255554,0.05654672,0.03497545,0.2482649,0.05863485,1.1761695e-32,0.11769118,-0.0686038,-0.029141365,-0.18565524,0.14084508,-0.00860116,-0.03636857,0.10350596,0.18479957,0.11771882,0.12748733,-0.09633828,0.047875687,0.105492614,-0.116636775,-0.06622498,-0.10543276,0.021512166,0.038320344,0.083974086,0.113701314,-0.01763037,0.30666542,0.06629073,0.06665941,-0.10907224,0.18181463,-2.104222e-32,0.016890565,0.08205832,0.27708417,0.13733038,-0.078628026,0.10563367,0.2840329,0.1341508,-0.0030346755,-0.0062296726,0.18273628,-2.265144e-32,-0.104674906,-0.04481635,-0.011723774,-0.11289186,0.06669484,-0.045677625,-0.08877493,-0.14669344,-0.027862487,-0.060018994
0.006950881,0.00030378625,0.027242694,0.016096774,0.021021307,-0.00038951385,0.017592678,0.013957877,0.0136029925,-0.013954766,0.011091099,-0.011402056,-0.002932168,0.01721342,0.031852007,0.020999964,0.0077544786,-2.1930757e-33,0.020255852,0.017852772,0.018305507,0.0026935611,0.009907395,0.020157084,-0.013543622,0.020982357,0.018672464,0.020063529,0.024807632,2.5183754e-34,0.020580918,0.015249406,0.011498627,0.0070253275,0.004016213,-0.0001354603,0.017935988,0.0159944,0.020822095,0.018175941,0.008711397,0.0021362,0.02432203,0.015089643,0.018390905,-0.004289523,0.016762719,0.016838074,0.013412896,-0.0063425964,0.013113712,-0.0017733024,0.0028269072,0.01675726,0.027071396,0.019696707,-0.008265314,2.11501e-32,0.021796186,0.017372388,0.021635327,-0.0022515918,0.017743869,0.020835204,-0.0015560399,0.020948885,0.018061418,0.023228178,0.02182012,1.3621393e-32,0.018013367,-0.0020041377,0.0057322355,0.018482199,0.0041426653,-0.0061223796,0.0148757165,0.020098556,0.02197732,0.019092577,0.021360055,-0.010449851,0.023051007,0.022596253,0.020563059,0.009110766,0.021417087,0.024901554,0.017360866,-0.011662751,0.0033318528,-0.01444547,-0.012633222,0.021408,0.02606078,0.023100544,0.0021852297,-1.1626909e-32,0.022966173,0.01909884,0.0014253176,0.0041044955,0.0105771655,0.02214622,0.0015374111,0.02708603,0.025020748,0.022005232,0.021394588,1.17383984e-32,0.022356942,0.0039016893,0.014313996,0.02213299,0.019272951,-0.018625217,0.021074872,0.022596687,0.022946415,0.021983603,0.017176926,0.005237991,0.021381132,0.018082287,0.024011498,0.0068662167,0.017855227,0.017290441,0.018295787,-0.0015024276,0.008251979,-0.0030834614,-0.00572376,0.018992782,0.030103242,0.022274636,0.0036851533,9.410617e-33,0.019722005,0.017819371,0.015273289,-0.008589089,0.0081191845,0.022127852,-0.0055661085,0.018826002,0.019313745,0.023969518,0.021743454,3.553161e-33,0.021458479,-0.011781922,0.021333992,0.015981926,0.019950783,0.0013512777,0.016110152,0.019691508,0.019208772,0.012818528
0.0056123133,0.005183263,0.003394899,0.0025511612,0.0051020826,-0.0021067883,0.004761515,0.0042726216,0.005313342,0.0013223396,0.004756578,0.0024791625,0.001639907,0.0039592837,0.0048154816,0.0047001573,0.0031958362,-2.6738826e-32,0.005482124,0.002976169,0.005417173,-0.00035641567,0.0021060049,0.0048014536,-0.0052273064,0.0056182747,0.005870732,0.0058785155,0.0036021573,8.939998e-33,0.00550508,-0.0014155628,0.0056661083,-0.004730345,0.00803489,0.0065723294,0.004119769,0.0047159013,0.0050034514,0.0015032557,0.0043289205,-0.004040793,0.004421618,0.0046105166,0.00406306,0.004347238,0.0048983744,0.0048887716,0.003479987,-0.0013577976,0.003557727,-0.0007271808,-0.0025957928,0.004670649,0.0044002025,0.0046206033,-0.0023991626,-3.391307e-33,0.003976002,0.0030202474,-0.001631281,-0.0018578143,0.002459921,0.0044475645,-0.0041447333,0.005665473,0.005083026,0.0047988575,0.0043158275,-2.7204837e-33,0.0050803036,0.0032098622,0.0032927913,-0.0036749744,0.0033127181,-0.005741067,0.005298837,0.0036694417,0.0040392024,0.0033736005,0.0027118856,0.00032087174,0.0051374095,0.0032838753,0.0050194687,0.0013647425,0.0033006528,0.0026510172,0.0034851527,-0.00023590006,0.0024200622,-0.0038342797,-9.960982e-05,0.0034880117,0.00606327,0.004452045,0.0008322317,-2.1071381e-32,0.0045869015,0.0027462775,0.0075202608,-0.004538374,0.0033219897,0.0042714984,-0.011575314,0.0035497625,0.0034208794,0.004141398,0.0051730676,1.7751425e-32,0.004271742,0.0021670922,0.0039814473,0.0055576,0.0023824566,0.0016243195,0.0029144175,0.0038555618,0.0044214134,0.0023237618,0.0042950963,0.0020659973,0.0053550303,0.004908542,0.0043152603,0.001501067,0.0048352727,0.0046079634,0.0037070601,0.001116222,0.009721955,0.0008255388,-0.0021565012,0.004713885,0.0044914563,0.004640639,-0.0047608195,-1.8335721e-32,0.0050720125,0.0031233993,0.004150176,0.000683773,0.0032672451,0.004445614,-0.0051444136,0.0056958343,0.0053620427,0.0020322816,0.0047925706,-1.9870038e-32,0.0050240676,-0.0018895558,0.0030886265,0.0002456247,0.0014937551,0.0013241933,0.005390148,0.0041977186,0.0052675772,0.004641165
-0.08021759,-0.042882983,0.063154496,0.016614066,0.06288019,0.0008473379,0.13209574,-0.019478852,0.0827961,0.16743845,0.03762973,0.022094173,0.019920025,0.1049575,-0.1287083,-0.08222309,-0.08752353,-2.053152e-32,0.0012074731,-0.023315614,0.033384345,-0.078550264,-0.005748879,0.11238335,0.07607673,0.10831787,-0.12852141,-0.103061914,-0.08686072,1.9502186e-34,-0.108391434,-0.10096487,0.1370623,0.014773541,0.021655504,-0.0643986,0.1100158,0.00031319252,0.10455461,0.047754247,-0.11962704,-0.07019452,0.012150873,0.12993896,0.07619984,0.012851906,-0.113620296,0.00869164,0.099433705,0.0114923315,0.013865837,0.012516587,-0.009020382,0.15037708,-0.009328275,0.024664015,-0.082799904,-1.1602946e-32,-0.053051177,0.069841295,0.06971624,0.13408048,-0.0066793696,-0.10148358,-0.01519923,-0.0074822456,-0.17435355,0.14130515,-0.16472831,-2.5212432e-32,-0.014021465,0.08768869,-0.07995455,-0.010944465,-0.034931004,0.05949293,0.12427316,0.04233119,-0.0689039,0.09618302,-0.09292383,0.0002684834,-0.040933594,-0.107931376,-0.08715808,-0.00084474444,-0.08471078,-0.1580129,-0.14274362,0.0013786021,0.087533705,-0.023865862,0.23530509,0.0778739,-0.10053307,0.14434378,-0.056734268,-1.4568032e-32,0.1322083,0.0057067093,0.1911591,-0.092130534,0.004478148,-0.03132665,-0.05690889,0.013417088,0.056104563,-0.051182423,-0.08567214,2.0162767e-32,0.0056195436,0.13214585,-0.07056731,0.014284193,-0.1492332,0.1283627,0.14708883,-0.12510405,0.17196284,-0.071129516,0.09798215,-0.02244208,0.06870933,0.17395331,0.00034734578,-0.0015930071,-0.037143234,-0.07214948,0.05311576,0.0140997255,-0.0021899333,0.0052994657,0.018712126,0.1629235,0.09854593,0.17262526,-0.11306924,1.532126e-32,-0.1353653,0.094285205,-0.025645636,0.027399717,0.013675487,0.059387513,0.007797611,-0.10724845,-0.14711668,-0.0474159,-0.080037795,-1.7736831e-32,0.039536156,-0.09602339,0.09693584,0.0015461044,0.008595549,0.06407168,-0.11980336,0.043303404,0.087064095,-0.044505123
-0.08725816,-0.06904983,-0.063444786,-0.023186477,-0.0002727117,-0.0018302719,-0.0033469459,0.053441335,0.05058895,-0.15981518,-0.012327192,0.009991407,-0.23395482,-0.089501664,0.019645011,-0.12522615,-0.0783324,2.3017343e-32,0.16936323,-0.034930166,0.13153201,0.15996885,0.04784712,0.16635178,-0.035491318,0.20027906,-0.05604398,0.0068923673,0.14279757,-1.00061826e-32,-0.1442671,0.08175506,-0.22066079,0.060546134,-0.030268982,0.053112425,-0.1585116,-0.073442936,0.10535141,0.07863791,0.077207156,-0.052714188,-0.03573438,-0.0587631,0.09091691,0.00816782,0.0874879,0.0340175,-0.17002667,0.122779876,0.03637925,-0.042404428,-0.11839474,-0.020659687,0.23822866,0.0593551,0.02580131,-7.095525e-33,-0.03957028,0.019478645,0.10561673,0.13913387,-0.023772443,0.13858123,0.029288407,0.12038056,-0.06015944,-0.17276238,-0.07933359,-1.1342334e-32,-0.122595094,-0.12364027,-0.03351774,-0.0065522827,-0.013281567,0.1275995,-0.057170983,0.07290222,-0.10512732,-0.067414984,0.15133555,0.0331158,-0.0931769,0.13064522,0.11023528,-0.061689798,-0.08611666,-0.06710394,-0.12810872,-0.23475999,-0.0732568,-0.12961826,-0.027416639,0.06310873,0.033129115,0.04761615,0.16738608,-6.4115664e-33,0.05832461,0.051573593,0.1291708,0.18189393,0.04772569,-0.08620713,-0.12157959,0.1213955,-0.12928586,0.22074497,0.09584713,-5.479185e-33,0.13923171,0.19801544,0.06744252,0.09570176,-0.08117414,-0.033819366,0.125736,-0.06224569,-0.0857916,-0.13324368,0.0021784657,0.038911164,0.02081981,0.13590585,0.13230142,-0.01934615,-0.12758137,-0.10780964,-0.01754236,0.09047747,-0.059387196,0.04813604,0.018716402,0.13374701,0.063617066,-0.012300278,0.03130405,-2.5313445e-32,-0.09128669,-0.1474694,0.016305475,0.10517425,-0.001520286,-0.042528685,0.30252215,-0.12700768,-0.14156799,-0.025966179,0.010524819,6.205881e-33,-0.14048398,0.071266495,0.11196396,0.0200736,-0.05623341,-0.07154072,-0.108493045,0.13611844,0.15717736,-0.055884786
-0.0018491759,-0.004296558,0.004580303,0.0016898658,0.0024456182,-0.005991466,0.0010893162,-8.636553e-05,-0.00041540383,-0.006999147,0.00766535,-0.0026125046,-0.0037876985,0.0015634359,0.005848533,0.0023131145,0.0031284534,1.08071894e-32,0.0016767242,0.0015623259,0.0034371216,-0.003070913,0.0031680686,0.0022864689,-0.0099525545,0.0019437225,0.0013262556,0.008318923,0.003896506,-1.0117192e-32,0.0019167173,0.012797197,0.00020173258,0.004959328,-0.0046590776,-0.0027163853,0.0008812353,-4.649454e-05,0.0022857059,0.0008058915,-0.00015816692,-0.00399318,0.003999978,0.0027168298,0.0008924153,-0.006282825,0.00030357655,0.002482766,-0.0013330717,-0.011007625,0.005981069,-0.0036612567,-0.0027779727,0.0012870289,0.004498187,0.0018014957,-0.012934008,-2.8274606e-33,0.0025320093,0.0011733542,0.0016240035,-0.0045397575,0.00860137,0.0017685624,-0.0036100135,0.002920607,0.0019355277,0.002408747,0.0024794613,1.5114768e-32,0.0008832191,-0.004250507,-0.0035269586,0.0047125965,-0.002573262,-0.010964098,0.00020619296,0.002641495,0.0029251243,0.0050302367,0.005001038,-0.009340757,0.0052277986,0.006282895,0.0033294107,0.0003778095,0.0019239279,0.0035493344,0.0017048706,-0.005866132,-0.0029880635,-0.008004289,-0.0062209098,0.00428363,0.0038544356,0.0040011923,-0.004232933,7.112781e-33,0.003468501,0.0028495863,0.008119275,0.0014093037,-0.0014156122,0.0041577048,-0.0061430945,0.004441841,0.0027774633,0.005178112,0.0035347012,2.8599904e-32,0.0034354078,0.0037680164,0.00070605474,0.0061622676,0.00136862,-0.012628009,0.0018151774,0.0052428124,0.0059542856,0.008783079,0.0002855012,-0.0019157808,0.0045267805,0.00026289132,0.00447613,-0.00051021564,0.001955174,0.0008167984,0.0020929931,-0.0075531905,0.009190577,-0.006721635,-0.0047247643,0.0018682478,0.0053263013,0.0037333115,0.00087784027,2.829453e-32,0.0028841917,0.0021955615,0.0069495654,-0.0005639456,0.0020568608,0.0036370796,-0.008248131,0.002198892,0.0026480004,0.0023835248,0.0047070053,9.63084e-33,0.0031737816,0.0014792574,0.0050531044,0.00057769567,0.0010476623,-0.002207352,0.001602236,0.0013940703,0.002496426,0.00089865224
-0.06466291,0.04015706,0.050669383,-0.17672668,0.041608315,0.010136846,0.120121606,0.02606674,-0.038070768,-0.06958852,-0.12141105,-0.21681063,-0.063930154,-0.044057906,-0.014463363,0.059623055,0.06534303,3.417583e-33,0.11055526,0.015856294,-0.1229018,-0.022291286,-0.110644415,0.0351534,0.0737179,-0.026879031,0.017876793,-0.07565958,0.12042844,3.081307e-33,0.065826215,0.122522205,-0.26897076,0.11108036,-0.07215019,-0.21745795,0.028635759,0.07571089,0.024821928,-0.059026048,-0.14388457,-0.08754788,-0.064593606,-0.046100695,0.05626327,-0.012444129,0.04816721,0.21794648,0.12331882,-0.0009815813,-0.49874696,0.058403134,0.07669757,0.050383262,0.20151594,0.15069325,0.033679534,2.6213577e-32,0.0571788,0.0110375,-0.09790589,-0.50429595,-0.024331989,0.13238308,-0.26727104,0.24518181,0.22341377,-0.03513361,0.14386445,-3.4581383e-33,0.13079017,-0.14779446,-0.013070079,0.12614162,-0.034833405,-0.019635696,-0.132821,0.10140136,0.018181494,0.12272222,-0.22446547,-0.08706835,0.09241752,0.122275054,-0.1370988,-0.07805723,-0.015280912,-0.037297,0.04980047,0.0011813219,-0.21980213,-0.12604253,-0.052450113,-0.05841101,-0.40796372,0.15504153,-0.08310915,-5.591182e-33,0.17233694,0.05252701,-0.44563782,-0.13522972,-0.09930008,-0.05169026,0.009861597,0.1033643,-0.016730266,0.09557408,0.07759052,1.5898272e-32,-0.008633409,0.107488126,0.10850679,-0.09335009,-0.07232613,0.039853264,-0.10848221,0.19896978,0.08933239,-0.04163783,-0.125842,0.18142608,0.086403936,-0.13426442,0.10242351,-0.008256131,0.04587246,-0.008793741,0.12697703,0.16899772,-0.16184887,0.02243564,0.072203435,0.085400246,-0.24319498,-0.041322544,0.07154448,2.7710407e-32,-0.08866781,-0.04079817,-0.30538598,-0.1078047,-0.2767261,0.09059607,-0.13856015,0.14125642,-0.07204848,-0.38470286,0.04797306,-1.7354606e-32,-0.024858467,0.10343162,0.04649901,-0.12050937,0.045592632,0.11033766,0.1808159,0.10038717,-0.124675386,-0.020731157
-0.07667622,-0.15882821,-0.039542716,-0.053143352,0.13225377,0.004516618,0.12921122,-0.09671604,0.16215874,0.16597597,-0.19312972,0.34673932,0.049341373,0.0339489,0.13724132,0.049723566,-0.16578569,1.2469438e-32,0.1664406,-0.059113618,-0.0774669,-0.11461382,-0.1178983,-0.040346626,0.122020155,-0.026107915,0.07140378,-0.03774221,0.004451275,-2.5091553e-33,-0.08047672,-0.06718945,0.08346113,-0.088095315,-0.08609395,0.11284567,0.04461104,0.07929952,0.093617424,-0.039710954,-0.007048646,0.11537144,-0.18986218,0.08552942,0.04007239,0.011276165,0.018792963,0.14262597,-0.1484793,-0.12561597,-0.22086106,-0.04310078,-0.22417267,-0.12657407,0.08121123,0.08551025,0.23594859,-1.9210193e-32,0.10840182,-0.024845956,-0.09466003,-0.12166349,-0.06804049,-0.08131753,0.030048305,0.05423586,0.13010406,-0.040559646,-0.019345665,1.5357375e-32,0.027096171,0.034724396,0.08479562,0.019213451,0.11627256,0.009513582,-0.11921514,0.023131097,0.01647024,0.13841565,-0.054517504,0.13044938,-0.06901275,0.11565536,-0.10431758,-0.060126033,-0.010657959,0.024734236,0.10908715,0.023156404,-0.09802189,-0.0049429275,0.32819942,-0.026109718,-0.30092713,0.17683549,-0.09066017,-2.7181855e-32,0.15112577,0.10082329,-0.09731028,-0.026599701,-0.18683583,0.15945742,-0.10968031,0.11872291,0.13155977,-0.18348718,0.14799394,-5.6201685e-33,0.13121429,-0.13240425,-0.032724008,-0.13886565,0.12835658,0.15017454,-0.12579346,-0.12824622,-0.028496547,-0.020616487,-0.09413289,0.20433138,0.04530103,-0.034823895,0.09151788,-0.011553245,0.11806125,-0.032718286,0.07093397,0.105766095,-0.112277016,0.07419549,0.2395413,0.059156623,-0.14154065,0.10769867,0.035693243,-2.5234414e-32,0.12347662,0.039914124,-0.21358919,-0.14915077,-0.07203124,0.0328877,0.13299076,0.07067861,-0.15471768,-0.2184943,-0.10696125,1.2573142e-32,0.14432712,-0.007538635,0.03143399,-0.17362458,-0.12091885,-0.057981133,0.17343177,0.16174102,0.21702467,-0.043588992
-0.20811413,0.11681147,0.22836635,0.050106388,0.16201806,0.029501831,0.14758335,-0.16162904,0.107816294,-0.04587336,-0.020354506,-0.13847494,0.23234497,0.016461015,-0.14326122,0.107811436,0.015878407,3.361888e-33,-0.06420743,-0.100917876,0.25021067,-0.05194402,0.038108967,0.13309434,0.23900573,0.10951898,0.12757164,-0.030052293,-0.051667377,-1.9148023e-32,0.1177145,0.104787394,0.12616582,-0.01257074,-0.23022924,-0.029915273,0.10277808,-0.12269895,-0.1279139,0.02204246,0.032224167,-0.049811266,0.1943066,0.15093777,-0.049654398,-0.030154806,0.1682133,0.18327117,0.15429738,0.22769943,-0.31189993,0.117021725,0.26089486,-0.018197387,0.041921604,0.079006016,0.030227188,1.4154274e-32,0.040912546,0.076245755,-0.06589293,-0.4869811,-0.103658475,0.13302046,-0.20843685,0.04347402,-0.09391392,-0.017940681,-0.037817724,4.296793e-33,-0.014379542,0.009904986,0.03547027,0.0059992378,0.2117649,0.17822596,-0.08392203,-0.0460932,0.09626448,-0.11116666,0.08720254,0.111983925,0.13977863,-0.098060764,0.028095469,-0.087754406,-0.018360615,-0.08134156,-0.09421277,-0.07294036,-0.14367104,-0.039203733,0.0027880054,0.06989228,-0.05895146,0.10248915,-0.10773095,-1.4481059e-32,0.13087891,0.16277339,0.09949848,-0.28821585,-0.29977712,0.10903671,-0.14958511,0.25358433,0.1411549,-0.2528645,-0.15464029,8.666395e-33,0.15461226,0.017151818,-0.014487553,-0.26984417,-0.073449545,-0.06767465,0.009080126,0.09925527,-0.081061326,0.031101981,-0.001683392,0.12664224,0.16741136,0.06333745,0.0031655626,0.042970233,0.1857933,0.17882426,0.10060081,0.1138882,-0.16192977,0.2852003,0.2038311,0.057846613,-0.21955156,0.13727506,0.163137,-1.8339966e-33,0.0930243,0.13969518,-0.03321453,-0.26146945,-0.24220051,0.14659132,0.021175552,-0.034167394,0.11733199,0.059849087,0.07528802,-1.4102492e-32,-0.058633365,0.039136685,-0.09642081,-0.12159166,0.05452358,0.2986011,0.015583193,-0.043672975,-0.10925596,-0.062217876
-0.1122277,-0.13410255,0.033431027,-0.123725906,-0.068347,0.014140744,0.1557351,-0.10091652,-0.12697503,-0.13963392,-0.015122467,0.047358762,0.31332365,-0.06650252,0.09432682,-0.05126655,0.20592824,2.5977044e-32,0.028824618,0.124672875,0.090815865,-0.06782709,0.064014725,0.10600819,0.18557273,-0.15146403,0.09357775,0.20130205,-0.11883067,1.9978836e-33,-0.035990216,0.17497343,-0.115421064,-0.051723618,-0.08283039,0.15865901,-0.04636801,-0.02361526,0.14961052,0.08879811,0.1754147,-0.021968028,0.17645329,-0.10240793,-0.077311285,-0.042405214,0.07829637,-0.10156403,-0.097997226,0.15623796,0.13903165,0.14740933,0.25762805,0.16825692,-0.12582418,0.13620433,0.11113062,-9.655511e-35,0.002864198,-0.08128744,0.0071812123,0.2806838,-0.06221399,0.13586111,-0.10051232,0.08444096,0.17018168,0.16543081,0.09192242,-1.9932395e-33,-0.082753755,-0.012940006,-0.076181754,0.046656683,0.16121776,0.0721501,-0.05115217,0.03085765,0.025217678,-0.11377172,-0.019031327,0.14567478,-0.21645354,0.11734443,0.029538445,-0.04988448,0.074572705,-0.05692839,0.19780447,-0.030886574,0.0018793147,0.24829733,0.27212086,0.056830693,-0.08892906,0.12053283,-0.046775725,7.373022e-33,0.1185916,-0.013408669,0.17355163,-0.056892738,-0.03510674,-0.0475283,0.22680767,0.098572135,-0.01623686,0.046490546,0.11952594,-7.702321e-33,0.14191087,0.02449566,-0.13685969,-0.111069955,0.044941787,0.011508801,-0.01752948,0.12716186,-0.06718751,0.06819912,0.015265744,0.16507328,-0.1277445,-0.13368942,0.13433556,0.10945261,0.052831832,0.18360367,0.038747042,0.08937949,-0.04722915,0.1518282,0.22238387,0.11537734,-0.17031242,-0.12123437,0.15926158,2.3155327e-32,0.12007767,-0.0022452555,-0.15599264,0.30240723,0.079948604,-0.018373055,0.026543114,0.1390157,0.13026339,0.112889245,0.13881344,2.0197567e-32,-0.06593358,0.21946055,0.13944502,0.054927953,-0.11340623,0.0029225233,0.12319612,0.07735341,-0.16076572,0.23728648
0.03171712,-0.12902287,0.01067778,0.032083552,-0.15491658,0.020969497,0.022419399,-0.032187745,-0.02278544,0.059910793,0.010939163,0.08272644,-0.08737954,0.015695717,-0.03923068,-0.10775699,-0.08965428,2.492282e-32,-0.11379896,0.0076204436,-0.0116100935,0.10983788,0.0050539337,0.06421209,0.039045345,0.11490129,0.03329068,-0.13456288,-0.00930876,-3.7109578e-33,-0.038082924,0.011632342,-0.19004083,-0.05361528,0.16414869,-0.15861307,0.11010026,0.13238755,0.15017277,0.08629953,-0.06538378,0.007803737,0.1074678,0.10172704,0.14796357,0.011930731,0.047747638,-0.18974198,-0.029296812,-0.13372049,-0.049435303,-0.23312733,-0.26796308,-0.15791638,0.22387701,-0.1294688,0.0412439,-8.0410455e-33,-0.07537877,0.14791656,0.015881017,-0.12396721,-0.022764323,0.10727331,0.07957858,0.06528584,0.043296237,0.102895774,0.14257973,-7.469826e-34,0.06593272,-0.10524264,-0.028854357,-0.0001319529,0.1547979,0.006775241,-0.06699945,0.0056030685,-0.13301657,-0.15508646,-0.04927746,-0.07346928,-0.04360994,0.09659228,0.15629992,-0.028681152,0.12825252,-0.057504043,-0.010225438,-0.08282445,-0.08827352,0.009739359,0.032304417,-0.09522306,-0.0635766,0.092751116,0.0062760883,-2.4808773e-32,-0.16225728,0.11055364,0.21218756,-0.03103044,0.11719738,-0.09695525,-0.08876756,0.13018772,0.011256137,0.026265956,0.19510318,-4.545663e-33,-0.005990626,-0.021388324,0.17305885,0.024375089,-0.05068595,-0.10162384,-0.045085967,-0.11156959,0.05723214,-0.13840619,0.1286324,0.027269725,-0.1446778,-0.070480116,-0.14111264,-0.01713562,0.08266572,0.088584095,-0.103094526,-0.1990799,-0.23936202,-0.22408427,0.06132838,0.16204569,0.10550303,0.15391253,-0.073642716,2.9306226e-32,0.09116829,0.16200812,-0.021404149,-0.3354893,-0.10566827,0.09096032,0.24150655,-0.112567835,0.07399995,0.0769752,-0.039769813,1.8951643e-32,0.02241936,-0.10497883,0.040061254,-0.0038836019,-0.016596345,-0.16553487,-0.122742385,0.034815013,0.15986808,-0.09675569
0.030516187,0.14187817,-0.03541606,-0.07569988,0.021336226,0.0051731877,0.20974788,0.24342401,-0.0051688636,-0.10198856,-0.0028936653,0.11197658,-0.0810189,0.0955999,-0.17070459,0.00602091,-0.14890198,8.997838e-33,0.21439822,-0.04040492,-0.4477194,0.17540692,-0.0025479014,0.18407314,0.003946378,0.0727912,0.2113648,0.13348047,-0.13076438,-1.1276926e-32,-0.04717021,-0.16855495,-0.1862744,0.13195944,0.09618748,-0.17458425,0.0646941,-0.0534655,-0.09637248,-0.047696665,-0.11564206,0.19858165,0.16862242,-0.11572547,-0.013389502,0.07637352,-0.034436338,0.028823117,0.02783774,-0.011369855,-0.039981775,-0.11610337,-0.20414647,0.13110042,0.28528678,-0.008631482,-0.07517774,-8.467662e-33,-0.0064110365,0.012178552,-0.078262314,0.46670845,0.044472028,0.1859866,-0.070651986,0.10306593,0.17788737,0.0417831,0.092399135,4.266979e-33,0.21993996,0.051158782,-0.027895825,-0.1289543,0.033091486,0.018755974,-0.018073551,-0.22947514,0.064329416,-0.033095863,0.053111747,0.2339867,-0.11910347,0.09022836,0.13151194,0.033568308,0.03941263,-0.16231006,0.034672078,0.094847366,-0.054587692,0.20677169,0.09751596,0.03989042,-0.18134403,-0.090523265,0.15931705,8.703422e-33,0.13824524,0.038009293,-0.014298802,0.21716954,0.1418114,0.045382872,0.11106002,0.017784717,0.034072656,0.2286783,0.012645275,-2.7056968e-32,0.045475226,0.05124908,0.05338585,-0.008810339,-0.0951691,-0.068403855,-0.103457674,-0.024557993,-0.055115387,-0.005462421,0.0055590654,0.06646115,-0.120004356,0.052149463,0.04179638,0.028141962,0.120986074,0.1659931,-0.007098691,0.0762409,0.27812228,0.099772505,0.024183914,0.10158328,-0.042854056,-0.12368316,0.057494603,1.3517368e-32,-0.09531157,-0.0028551035,-0.10666872,0.43647015,0.2167782,-0.018008176,0.27930883,0.14661802,0.17960839,0.07380908,0.054810375,-1.5741008e-34,0.08868295,0.109897904,-0.06024324,0.11051587,-0.1076856,-0.008994423,0.19977419,-0.07779651,-0.0840037,0.09075951
0.00967394,-0.0061537703,0.036461323,0.015895328,0.024612043,-0.0017470038,0.021446861,0.018779851,0.017501807,-0.014514593,0.011411292,-0.016557597,-0.010380572,0.020504486,0.0416506,0.025485596,0.0097538205,-2.3158473e-32,0.028388781,0.022597479,0.005259383,0.011115974,0.012965077,0.027216861,-0.00922909,0.028177878,0.024869982,0.045187782,0.031355362,8.921457e-33,0.023504669,0.025501126,0.012434319,0.011238865,0.009564447,-0.00604598,0.018405003,0.024426498,0.02910922,0.024708837,0.012811168,0.0032996607,0.033018596,0.025591562,0.021221116,-0.009036897,0.023134744,0.025642889,0.015863238,-0.0033677402,0.006415159,0.0056776037,-0.0021032381,0.022288917,0.03453857,0.025080323,-0.00396321,-5.2193595e-33,0.027850948,0.021674963,0.011935444,-0.0013537126,0.022522083,0.025026482,-0.00035544724,0.029128851,0.027118538,0.027957868,0.028996808,-2.7282122e-35,0.022347167,-0.0031006287,0.0072530047,0.022235276,0.010057301,-0.0032038772,0.02182314,0.02634123,0.025418142,0.03246434,0.028419325,-0.0133137,0.02617788,0.0291025,0.028297935,0.016418733,0.026040327,0.03240316,0.023376612,-0.01617784,0.0006410337,-0.019726308,-0.013015354,0.027663909,0.022002842,0.03042049,0.0006264111,-2.4160535e-32,0.029659413,0.02532307,-0.008291963,0.0031918806,0.018110452,0.03030004,-0.00014010492,0.031316917,0.030634077,0.031482942,0.027227212,-2.3462388e-32,0.028038917,0.011762836,0.01975598,0.027600618,0.029958757,-0.03110227,0.024656797,0.0298322,0.026720606,0.024106208,0.024348225,0.002224563,0.0230176,0.0218043,0.027984986,0.014507417,0.02495962,0.02070353,0.02257452,-0.00057997054,0.018962594,-0.0052534477,-0.0055586835,0.023994585,0.031548243,0.02800162,0.021568809,6.9130176e-33,0.022465983,0.02216179,0.015238124,-0.00463834,0.010593819,0.025658702,-0.00012134938,0.024919517,0.028213091,0.024238994,0.02482657,1.485181e-32,0.027648801,3.2976463e-05,0.02788223,0.02069149,0.027248772,-0.0004116164,0.02361838,0.018504519,0.021396143,0.014985456
0.0012472966,-0.021693347,-0.14522186,0.018987792,-0.1294105,-0.025217878,0.01603147,-0.01108977,-0.04659414,-0.03418021,0.01958441,-0.1710445,0.04012165,-0.12655912,-0.023016708,0.12141619,0.1909602,-3.8906277e-33,0.032880675,-0.03522528,0.043737657,0.15361558,0.071726955,-0.023780374,0.09025593,0.14014149,-0.02996273,0.18324232,0.10955035,-1.7801654e-32,0.010884353,-0.109829746,0.024182454,0.033787336,0.2000085,-0.12824817,0.16530743,0.10370088,0.05021607,0.019658113,-0.11423101,0.04728265,-0.10667959,-0.022878826,0.1728562,-0.0063596303,-0.11263397,0.030414311,0.120659634,0.12458822,0.0354034,0.09282769,0.027580235,-0.11609725,0.090211295,-0.05299837,0.08689672,-1.1967917e-32,0.16092412,-0.081937976,0.041370552,0.16119352,0.050220497,-0.10789744,0.4732509,0.20943804,0.15594387,0.22175312,-0.047018073,1.3462042e-32,-0.04245168,0.20991513,0.19450565,0.09573129,-0.008162513,0.07890874,-0.077516474,-0.1316999,-0.12152876,-0.011319763,-0.031439163,-0.00042965406,0.09841377,0.025111403,-0.0068678185,0.010547162,0.12212861,-0.057170764,-0.24468818,0.0790355,0.02392668,-0.026649592,-0.0035768673,-0.07859848,0.039172757,-0.0021837787,0.25261667,2.4009012e-32,-0.12021794,-0.099443145,0.047541507,0.19489853,0.05929927,0.013930726,0.015734047,-0.19151297,-0.09050407,0.098320454,0.095152356,3.9593045e-33,-0.041191515,0.14003432,-0.005852659,0.07875545,-0.24589019,-0.031612955,-0.03591887,-0.18046872,-0.10426738,-0.056759194,0.12691383,0.018949922,-0.07385085,0.001110601,-0.079312585,-0.01111151,-0.11305967,-0.025715463,-0.21408798,0.09286003,-0.0064946376,0.103024244,-0.003088182,-0.04247302,0.12390301,-0.067857265,0.0299202,1.4251793e-32,-0.13339265,-0.0026864787,0.06419467,0.18598206,0.031061262,0.011177539,0.15409751,-0.029577434,-0.0069900462,0.15812758,-0.052488964,-2.1774195e-32,-0.14775275,-0.0028611177,-0.19855519,0.092769876,-0.16161111,-0.008303354,0.03669719,0.05264422,0.065112725,0.073776156
-0.101663776,0.12032823,0.0708917,-0.109072655,0.10049282,0.013838502,0.06755012,-0.1426805,0.045857143,0.022173643,-0.083298795,0.25349018,-0.14700092,-0.051817868,-0.11346214,0.11774164,-0.22107223,-2.3783836e-33,0.15884644,0.15845975,-0.1508433,-0.11257944,-0.12340435,-0.087934166,0.13565363,-0.10733905,0.14278762,0.13234371,0.038203128,-2.4779192e-32,-0.1382516,-0.08992685,-0.015270127,0.050137956,-0.17469266,-0.20461698,0.10829039,0.1954464,0.11443958,0.088331036,-0.12555191,-0.06408487,-0.012394864,0.11819223,0.03909898,0.043843437,-0.16624749,-0.13348186,-0.107707195,-0.20617679,-0.096498124,-0.1810218,-0.13561124,0.014840045,0.18248126,0.13317136,0.0036496085,1.771785e-32,-0.042197324,-0.039531946,0.2683581,0.012743062,0.03181299,-0.120063044,-0.2685622,0.11798955,0.17458567,0.02375257,-0.13063759,1.5823879e-33,0.099594444,0.09766571,-0.18508114,-0.034994353,0.09350919,-0.16730626,0.081664525,-0.16391638,0.01585683,-0.11805543,0.059787426,-0.103670456,0.14931078,-0.04442671,-0.029314782,0.056537494,0.14345565,0.11804738,0.03937845,-0.02821597,0.011922011,0.07467634,0.2995558,-0.0043368046,-0.21116853,0.1376078,0.16742991,2.0881902e-32,0.1454908,-0.04325355,-0.18611383,-0.06728128,-0.19538873,0.12951303,0.0050091776,0.0987429,0.00482962,0.009015862,0.04379573,-8.075132e-33,-0.12989515,0.10480024,-0.13899423,-0.050008234,0.026934365,-0.05571609,0.15937358,0.17535608,0.07936585,-0.04603355,-0.08844524,0.029070169,0.16065185,0.08696464,-0.16233042,-0.020169903,-0.06426539,-0.0641336,-0.051224764,0.15351582,0.12587571,0.0147791365,0.0019680033,0.10049264,0.011942781,-0.103251375,-0.19977085,-1.3286032e-32,0.21413173,0.12386137,-0.03600096,0.02645344,-0.11269728,0.020589259,0.2826564,0.18507943,0.06635399,-0.38818437,0.022652104,2.3896686e-32,-0.12190344,-0.010769287,0.13868167,-0.11366624,-0.13186204,0.20137298,0.07561507,-0.03167355,0.18427922,-0.15539575
-0.0058278386,0.0006116722,-0.0040383744,-0.036312886,0.0016859724,0.0030994639,0.059631802,-0.03173042,-0.054279957,0.049673364,0.012594293,0.034310535,0.060357504,-0.060360126,0.009253768,0.078200966,0.020157147,-1.07319725e-32,-0.033555713,-0.0023238563,-0.036048535,-0.010330921,-0.004306671,-0.06360909,0.01857665,-0.041593377,-0.032976523,-0.026380291,0.040513825,-1.9918924e-32,-0.07582489,-0.02088605,0.010103923,0.0017684626,-0.026342602,0.07986168,-0.06989243,0.0062568835,0.06114899,-0.035421178,-0.018316612,0.02711507,-0.099794835,0.038125288,0.07564488,0.018121896,0.0303436,-0.001248161,-0.020012803,-0.010527123,0.00787397,0.0038055812,-0.03944957,0.025566615,-0.010020333,0.012732283,-0.007699195,4.8699056e-32,-0.060590558,-0.0039996025,-0.010673716,0.014751045,-0.0047017457,0.016540403,-0.003356409,0.05979667,-0.018188955,-0.010997268,0.028568447,-1.33893e-32,-0.022435393,0.008865454,-0.02126859,-0.0040050135,-0.034421366,0.038327415,-0.067303985,-0.015641069,0.016155899,-0.04844533,-0.002712437,0.05522993,-0.03328305,-0.012067572,0.08813887,-0.011629481,0.015883153,-0.042670183,-0.0778115,0.028687248,0.023220409,0.02825535,0.035524927,-0.05589916,-0.036558915,-0.052984983,-0.032007262,8.868018e-34,0.056680106,0.0015788577,-0.011045294,0.006330494,-0.0017483273,0.00069900457,-0.00024072664,-0.083251625,0.06542901,-0.02615979,-0.03633666,2.3444747e-32,0.011140499,-0.00365458,0.058059804,-0.0020437432,-0.010687656,0.04949629,-0.036805857,0.036596302,-0.034416772,0.006974668,0.0007516382,0.0029706454,0.03155654,0.031887546,0.011071064,0.009781422,0.008078185,0.044438437,0.040424015,0.0052544903,-0.0012546515,0.019606257,0.052682288,0.042236883,0.024706319,0.11263828,-0.028756745,4.892763e-33,0.06298409,-0.017137244,0.012943861,0.012257688,-0.00044517225,-0.029373322,0.017439201,0.01588956,-0.06592706,0.014833483,0.03806167,1.5703746e-32,0.1012528,0.025321933,-0.050328597,-0.0033035967,-0.022687308,0.039822854,0.079623334,0.08428988,0.051398028,0.024991063
-0.009876426,0.02400429,0.009120311,0.0013738445,0.020218715,0.005323524,0.0016295997,0.0013844498,-0.003884347,0.027946943,-0.00033242555,0.02251141,0.037633214,-0.0014315604,-0.0056502223,-0.014644303,-0.0013878187,-1.1035306e-32,-0.029947529,-0.0046177283,0.019489078,-0.015242547,-0.0026460032,-0.024804236,0.016748613,-0.014850127,-0.006717218,-0.018924994,-0.0018618363,2.2763921e-32,-0.026413547,-0.006048706,0.009270132,0.00412827,-0.004188124,0.03154682,0.0042532263,-0.0004196778,0.0024720242,0.0076064817,0.014654954,0.007374644,-0.07385246,0.009566029,-0.0030296643,0.018655915,-0.017804239,0.0020538964,0.02884871,0.022145322,0.004451008,0.008359744,0.014535046,0.007607549,-0.0021986635,0.0051493766,0.008219027,-1.2213404e-32,0.015487294,0.0016834349,0.005831717,0.0098342,-0.0020088162,-0.006482886,0.006623826,0.0042550573,0.0026718236,-0.009471834,-0.007588604,1.4807652e-32,-0.036587458,0.005671861,0.014586132,-0.0030167256,0.0074650403,0.01656108,0.03532073,-0.014300201,0.005711059,0.0003999464,-0.0028607748,0.028797258,0.03533004,-0.0028239617,-0.0012913806,-0.0011927468,0.020537939,-0.008928312,0.0015118462,0.02304175,0.00842142,0.021887297,0.036786746,-0.019707182,0.023530368,0.037228953,0.001452155,3.7533417e-33,0.018869199,0.0020065417,0.03451808,-0.0012337259,-0.00080425834,-0.0038708407,0.008066939,0.0025706461,0.026200857,-0.0017557937,0.03369315,5.6653935e-33,0.0077575855,0.013826204,0.0078961,-0.0008564506,0.0010135429,0.045869555,0.002996387,0.0027711934,0.008646759,0.012931709,-0.010720456,0.024635566,0.011323277,0.009415842,0.0059873136,0.010045196,0.0060389987,0.0049334476,0.005158159,0.018831847,-0.0034061908,0.017278126,0.02476927,0.007920218,0.026247857,0.006906638,0.0029609024,-1.9791225e-32,0.005455971,0.008370299,0.014373231,0.021087509,-0.00028569938,0.03366821,0.021724772,0.0015240345,0.0034394343,-0.008290826,0.010076737,1.0093551e-32,0.005077175,0.03859966,0.008864043,-0.0028040307,0.004829355,0.017958594,0.0033241375,0.02183041,0.007407471,0.02749274
-0.0017316085,-0.0036281778,0.0063803396,0.0022276822,0.0046338546,-0.0072782356,0.0030398222,0.0011220917,0.0017714751,-0.0076217684,0.008366488,-0.002728224,-0.004150885,0.003090829,0.007290488,0.004371867,0.0027910871,-2.8284516e-32,0.0036579657,0.0026590424,0.0038924608,-0.004158456,0.0034339174,0.004537579,-0.011824244,0.003960524,0.0031338122,0.011339716,0.005893704,2.1880843e-32,0.003924545,0.012637231,0.0015305137,0.005942383,-0.0039403783,-0.0019211562,0.0027031184,0.0017846607,0.0035475837,0.0017544958,0.00049807143,-0.0034604769,0.0053748065,0.0031891293,0.0027601174,-0.007369374,0.002319492,0.004077685,0.00066130864,-0.01103798,0.007713145,-0.0045375978,-0.0033581324,0.0026622459,0.0062779896,0.0036953113,-0.012720409,1.6731255e-32,0.004446304,0.0024454473,0.0017259467,-0.0044593704,0.010962815,0.003906468,-0.0056006084,0.005042601,0.0038236245,0.004709565,0.0042309007,2.5358032e-33,0.0027487685,-0.0038020918,-0.0018636655,0.0059515927,-0.0009910959,-0.011491325,0.0017787273,0.0043780613,0.004136132,0.0056364876,0.0072952406,-0.009323661,0.006471185,0.009043434,0.004848911,0.0009346823,0.0037807687,0.006277248,0.0041079554,-0.005576065,-0.0038784272,-0.009481794,-0.007194301,0.006568791,0.004013496,0.0059549115,-0.003360095,7.651716e-33,0.004987543,0.004136297,0.00820138,0.0010722975,-0.0012038513,0.0061654146,-0.0055561434,0.005795734,0.0038507904,0.0060665975,0.0051989937,-4.296138e-34,0.0048994753,0.004291901,0.0022237895,0.008666385,0.0037926496,-0.014208622,0.0035976653,0.0077241613,0.007064166,0.011248631,0.0011702167,-0.0016942801,0.0057953703,0.0010888416,0.005656012,-9.966874e-05,0.0035258012,0.0023579278,0.004388466,-0.00861076,0.009734178,-0.008310127,-0.0064451564,0.003422362,0.0052978313,0.0048187296,0.0011555988,1.8154432e-32,0.0040176134,0.003294516,0.006652289,-0.0015957024,0.0026338547,0.005140456,-0.009081521,0.003507047,0.0033400275,0.0034797736,0.006118589,1.6030806e-32,0.0043866923,0.00075411005,0.006733043,0.0012134105,0.002674116,-0.002352844,0.003100975,0.0029886295,0.0034986767,0.0016329898
-0.030214613,0.14944084,-0.004380352,-0.005890069,0.108478636,0.018678943,-0.095146686,0.16137967,-0.06713027,0.24414094,0.051927693,0.19325142,0.06695909,0.11470305,0.113958806,0.19310272,-0.07746411,9.730804e-33,-0.17176916,0.031178333,0.23138383,0.07076717,-0.0401741,0.11950776,0.2583121,-0.10139619,0.09238985,0.042352777,0.16181189,2.5161897e-34,-0.041800804,0.03688456,-0.090130344,0.040306218,-0.117896125,-0.12646773,0.035085782,0.051377203,-0.04932111,0.16690512,-0.12457133,-0.17054376,-0.029697912,0.15302148,-0.020061664,0.09423322,-0.08079816,0.05524607,-0.0050316146,0.19603927,0.21610993,-0.03137645,0.12860687,0.07189445,0.00348663,0.120986,0.04548498,2.3111021e-32,-0.16694327,0.16087598,0.017553223,0.04910389,-0.060127445,-0.012010393,0.058230244,0.009013265,-0.15793861,-0.08324848,-0.1117664,6.0926342e-33,0.105202004,0.14344437,0.037315834,-0.17490648,0.14039409,-0.004992746,-0.108365856,-0.12213089,-0.13349475,-0.17597957,-0.12385909,-0.0021643229,-0.0171662,0.1414559,0.1506098,0.12619096,-0.11709359,-0.09978988,-0.0056210933,0.22350737,-0.042445097,0.007288785,0.4445852,0.1832205,0.20046607,0.16143875,0.16961113,-1.555032e-32,0.041866966,0.1473842,0.20571063,0.020974478,-0.15263772,-0.06210933,0.07318291,-0.08741459,0.16033569,0.2932155,-0.063549936,-7.421856e-33,0.0992865,-0.095727466,-0.14594322,-0.15565772,-0.023446416,0.21054113,0.09524372,0.1850005,0.06652532,0.04998873,-0.17526026,-0.12059339,-0.06839425,0.07686587,0.08629065,0.018180668,-0.10329282,0.055856816,-0.042910084,0.10969224,0.05673362,0.2043304,0.46976662,0.1036054,-0.19653907,-0.09436997,0.15337767,-2.5655408e-32,0.057245757,0.10491152,0.13363525,-0.17247166,-0.20768426,0.14725837,0.18028332,-0.135864,-0.01239378,0.09329441,-0.020558141,-2.1390744e-32,-0.07121164,0.17981659,0.10792237,-0.076343894,0.10082504,0.17276002,0.047786377,0.113214664,0.16226228,0.19802664
0.11984651,-0.03708415,0.016209522,0.070024446,0.12551646,-0.008700804,0.029240564,0.18747607,0.14768392,-0.1804445,0.061700553,-0.052925512,0.15672435,-0.011351219,0.0076713692,0.057581984,-0.13486925,5.1403185e-33,-0.018460212,-0.046324763,-0.025137853,0.18231598,0.021750983,-0.14863743,0.06918518,0.16974677,-0.042514462,0.22822174,0.026699709,-1.4638948e-32,-0.06611862,-0.050487258,0.015477672,-0.03539332,0.02441148,0.17661211,-0.07531136,0.24760646,0.20077682,0.049226742,-0.108255394,-0.02102631,-0.17967793,-0.18276216,0.046892542,-0.0032211521,0.17871994,-0.08708266,-0.18676719,-0.034272447,0.42013723,-0.24681097,0.08795927,-0.048541393,-0.023217639,-0.069557145,0.15743253,2.0045757e-32,0.076454155,-0.07335618,0.11165384,0.4952319,0.17853454,-0.1410094,0.25283477,0.095264584,0.15609813,-0.06736937,-0.17081237,5.5375746e-33,0.19569266,-0.13576746,-0.035433944,-0.025056805,-0.26690635,-0.13216838,0.02054279,-0.19675772,0.028014116,-0.06775231,0.00985563,0.01943667,0.06166381,0.11358716,0.1520222,0.024731614,0.060042515,-0.12807177,-0.07445772,-0.03251359,0.14632644,0.004243335,-0.033527285,0.14394537,0.29535878,-0.1288405,0.028716588,2.3116332e-32,-0.14213914,-0.0010455886,0.35635698,0.2503487,0.1903084,-0.11163163,-0.024951879,-0.15146175,0.11217959,0.24030802,0.21279788,3.5630865e-33,0.0036924263,0.13793539,-0.07113349,0.16503906,-0.10041061,-0.16547938,-0.056899846,-0.081199385,0.009399684,-0.022230424,-0.035965294,-0.029017184,0.102761015,0.103910245,-0.15633698,-0.0020439236,-0.072769076,0.034534622,-0.2946742,-0.18654038,0.20896088,-0.1540879,0.019987836,-0.17500582,0.30490038,-0.043588664,-0.23476623,-7.0253214e-33,-0.20052664,0.052989732,0.13974705,0.1584214,0.35690784,-0.17769882,0.15614511,0.09587365,0.062481325,0.047651306,-0.06082391,9.190823e-33,0.2102181,-0.20388255,0.02914803,0.100768656,-0.22769605,-0.3258433,-0.08035332,-0.19627032,0.047321912,-0.12297813
0.032445338,0.06571249,-0.020072965,0.14630623,0.09001853,-0.017066209,-0.10484713,0.049862545,0.1536718,-0.030304912,0.08867065,0.00575835,0.06438569,0.22133103,0.019171687,-0.0077580386,0.31865215,-2.6585445e-32,0.108046085,0.08500263,0.004931787,0.11002083,0.07458847,0.190372,-0.026646998,0.2129269,-0.09386827,-0.28413883,-0.07470065,-3.3227625e-33,0.082224526,0.03679867,0.17899923,-0.12635651,0.06984694,0.07969887,0.2623732,-0.12044724,-0.023530427,0.18468319,0.32600334,0.15092605,-0.16335735,0.29591814,0.14712028,0.02132877,0.052397065,0.021719689,0.1681453,0.15821844,-0.17894213,0.11000941,-0.01272879,0.03645523,-0.04148642,0.23346797,0.36361042,-2.267275e-32,-0.038775746,0.033951487,-0.16047303,-0.092562966,0.05524229,0.01494729,0.16831516,-0.1492293,0.024542194,0.09402048,-0.08403423,2.0168449e-33,0.025942259,0.12980288,0.17458086,0.087098084,0.11139419,0.02815084,-0.05293299,0.08429084,0.089654766,0.16251257,0.09223592,-0.015259319,0.02255659,0.061689,0.07557083,-0.13555036,0.05270393,-0.038858417,0.23729114,-0.0070629176,-0.19202252,0.032792207,0.25565308,-0.12301543,-0.12933816,0.0516847,-0.06773697,-1.3013171e-33,-0.12514417,0.016919583,-0.03487508,-0.11605652,0.0007787336,0.14166856,-0.19748977,-0.22467837,-0.1516897,0.044455655,0.19299687,-2.772619e-32,0.025981432,0.12924601,-0.09557633,0.04184373,-0.15830977,0.07008446,0.04605752,0.035067268,0.0472464,0.040553737,0.20306386,-0.031814735,-0.07796901,0.22707579,-0.05195638,-0.008992881,0.101501584,0.17726606,-0.08373345,0.03758224,-0.0099225715,0.13581628,-0.2043899,-0.050159875,-0.29586837,-0.010920014,-0.056743093,-8.899539e-33,0.113181695,-0.04954524,-0.06618997,0.08600271,0.048927147,-0.06162017,-0.14213495,0.12550779,0.07511092,-0.14452314,0.15265878,-2.4085818e-32,0.087396644,0.16616996,0.03455649,-0.075783044,-0.011852474,0.07265354,0.047406066,-0.074923344,0.014736838,0.0017140941
-0.00046155934,0.05199174,-0.032524314,0.055211015,-0.037153035,0.012719866,0.006407699,0.048279278,-0.076744206,0.027879106,-0.08382726,0.2849879,-0.028480895,-0.014305362,-0.2682003,-0.077115856,0.13409977,1.4289894e-32,0.109817505,-0.0457797,-0.104882315,0.071106404,-0.21778399,0.14681385,-0.119597934,0.15936631,-0.016255092,-0.047956605,0.1583286,-1.4414391e-32,-0.097676106,-0.03788159,0.055367287,0.054389942,-0.03294488,-0.035658512,-0.12158323,-0.06586959,0.028575314,0.15102339,-0.016879173,-0.063312344,0.083740756,0.019977208,0.14588316,0.0836501,0.06048324,-0.11816413,-0.061554614,-0.04094773,-0.09496829,0.031296507,-0.19258882,-0.028728684,0.12837622,0.21121494,0.17436646,-2.1590128e-32,0.013054935,0.08960886,-0.0873705,0.15452425,0.076887675,-0.085804455,-0.13321388,-0.02189844,0.13596095,-0.40524465,-0.007951262,-2.7708256e-32,-0.07157135,0.2065369,0.1451131,-0.11743557,0.077521965,-0.22929478,-0.026212495,-0.1663323,-0.08494131,0.16267239,0.025762288,0.11784245,0.20160557,-0.1490517,0.10556059,0.017593587,0.15202339,0.031280152,0.19304493,0.32119745,0.051408123,0.08312212,0.07765251,0.17612456,-0.44847244,-0.13506702,0.20498505,8.91423e-33,0.062262524,-0.020934826,-0.12712811,-0.011964607,-0.112448245,-0.065400556,-0.106248476,0.054845374,-0.012089368,-0.0076166065,0.044745427,1.9981694e-32,0.011029254,0.081493996,0.0022620598,-0.02776615,-0.12846273,0.14439881,0.106101185,0.10713555,0.07925454,0.11746111,0.025937727,0.035510205,0.17977358,0.09985643,0.16540623,0.026001604,0.01562014,0.1830187,0.06266007,0.0069064465,0.113737255,0.23922415,-0.05460809,-0.043086253,-0.08580611,-0.059990473,-0.15296115,-2.0765863e-32,-0.14952658,-0.1529728,0.008092487,0.45926198,-0.0038964488,0.099253625,-0.07938159,0.22179812,-0.07787134,-0.2286022,-0.009800747,-4.551033e-33,0.20211945,0.009859106,-0.1315353,-0.017461937,-0.09264217,-0.06845217,0.17015834,-0.14142509,0.081074014,0.051755283
-0.0678665,-0.0023195676,-0.09576266,0.05255573,0.12644449,-0.008651972,-0.087209985,-0.055350933,0.07847379,-0.020308409,0.0050532147,-0.0065716095,-0.0005419281,-0.01979755,-0.029332502,-0.035812084,0.06037404,2.6195989e-33,-0.031454835,0.024234572,-0.008305307,-0.0052247318,0.017613586,-0.043790378,-0.031561185,0.0041396176,0.08641635,0.07580368,-0.08648135,1.47235865e-33,0.09490808,-0.015777994,-0.08151501,0.009095245,0.07382178,0.0008515544,-0.079514675,0.042579874,0.013931232,0.0146542685,-0.029804915,0.005855554,0.07598625,0.05870307,0.046951964,0.0011851009,0.016918918,-0.09025402,0.10747626,0.06465052,0.016714089,0.04397275,-0.011916551,-0.002501088,0.12541096,0.03353432,0.011854039,1.5229255e-32,-0.088435665,0.0021504378,0.042204518,0.04160132,0.019202393,0.046593238,-0.023690326,-0.014459377,-0.080600075,0.017416421,0.0248143,9.063338e-33,0.13251534,0.008801769,-0.06413195,0.016829614,-0.031084757,0.006073025,-0.12170984,-0.06830102,0.09018164,0.032407258,0.042175148,-0.006926371,-0.026257798,0.054222897,-0.048100397,-0.0043977797,-0.056914188,0.06738843,-0.0329194,0.01793035,0.0129131535,0.012258138,-0.0029521654,-0.047633406,0.017951231,-0.1221644,0.051593825,1.1046008e-32,0.0155642405,0.0039937813,0.01669856,-0.00798444,0.022043565,0.08355668,0.023491792,0.0970284,-0.055756893,0.04123369,0.083823375,-1.5056735e-32,-0.06266271,0.100124426,-0.050768103,0.0177078,-0.024654843,-0.0056494433,0.020372692,-0.1054122,-0.07108778,0.0046816077,0.033571042,-0.019115824,0.014877944,-0.0052298275,-0.10496714,-0.0040456476,-0.101038724,-0.039985213,-0.025450509,0.075772375,-0.0020303703,-0.012345762,0.0038706632,-0.014269803,-0.0010001422,-0.077275224,0.0115599455,1.6430775e-32,-0.09920041,0.009186276,0.03800299,0.008366605,0.011412434,0.09091433,0.07834243,0.0068024234,0.12045618,0.038689684,-0.05085331,-2.701533e-32,-0.028198874,-0.004307575,-0.07168198,0.026832238,-0.037897628,-0.060306527,0.069840126,-0.034031812,-0.081165,0.026977843
0.059541617,0.13598523,0.1728456,0.016446033,0.1774972,0.0026275944,-0.050237834,0.13184805,-0.076746546,-0.023084952,-0.0018288369,-0.10596329,-0.08881731,0.00091436825,-0.13511443,-0.04621566,0.001359301,1.14910494e-32,-0.032294337,-0.14198591,-0.027781863,0.10974815,0.101108246,0.13584866,0.1902251,-0.19999985,-0.14845075,-0.055834975,-0.06886665,5.524875e-33,-0.09984077,0.14637631,0.010485448,0.09698274,0.060377724,-0.09948394,0.13592406,0.10769,0.15049006,0.027707022,-0.056086216,-0.07465398,-0.09348741,0.17394544,-0.030544426,0.01450982,-0.1261792,0.040992048,-0.16711575,0.071546435,-0.14448656,0.15881173,-0.016734952,0.0012090453,0.0037457491,0.09187187,-0.036785115,2.8664994e-32,-0.080179766,0.03424325,-0.11417353,-0.0704561,0.10267071,-0.13168764,0.0995908,-0.13770409,0.022616068,0.053869314,0.09361319,-3.5892794e-33,-0.024518965,0.10714358,-0.0043927836,0.029885085,-0.14838368,0.1375145,-0.04381989,-0.14036007,0.06012968,-0.042126294,0.1869531,0.16484183,-0.011883783,-0.024425505,0.07537771,-0.07391172,-0.0123235565,-0.07547255,0.009686931,-0.07809101,-0.02882714,-0.014282321,0.2771305,0.13195452,0.09081136,-0.07723468,-0.069319144,2.9417037e-32,-0.0827908,-0.07995133,0.2126591,0.22898918,0.021016244,0.0012005027,0.22297165,0.09581409,0.118334986,0.10419683,0.10540739,-1.5140754e-32,0.12932329,-0.04971724,-0.041385572,-0.07097338,-0.08036723,0.021549266,-0.02078674,0.23033471,0.114551924,0.21996279,-0.06188704,0.10215827,0.12291249,-0.030991847,-0.08738643,-0.007465385,-0.10733011,0.09018273,-0.030797336,0.046720084,-0.04450972,-0.012256647,0.12614933,-0.03972127,0.010558478,0.08882447,0.1898138,6.163508e-33,-0.16620228,-0.116878614,-0.08883628,0.14073151,0.051998638,0.17727216,0.21015412,0.105579816,-0.21043263,0.0715052,0.085601225,-8.371856e-33,-0.16438617,0.07104361,0.1478735,-0.065903895,0.069742255,0.2664994,0.10280676,0.12683176,-0.11684915,0.04070128
0.008794438,0.0063487287,0.011092833,0.0071184104,0.012760527,0.0025803715,0.013082812,0.011816255,0.013555872,0.009626016,0.008102068,0.011103534,-0.0015165554,0.011024624,0.015326142,0.012481154,0.011439362,-2.4317778e-32,0.013902,0.011098995,0.005723048,0.0038958918,0.004036118,0.012942588,-0.00046314206,0.013365139,0.013944005,0.013421361,0.0118017495,-9.355662e-33,0.012687946,0.010508177,0.012384519,-0.00029737086,0.015554693,0.0138130775,0.011760374,0.012194481,0.011882886,0.0076149637,0.008430735,0.0016831493,0.011752571,0.009398607,0.011100084,-0.0005652379,0.013856879,0.013492945,0.011252755,0.00196107,0.018535616,0.004406322,0.0017625318,0.011679829,0.01447213,0.012270428,-0.0021442545,2.041213e-32,0.013526464,0.011206312,0.0022622321,-0.0008773441,0.0059115468,0.012885285,-0.00017056202,0.014624039,0.013624896,0.012871803,0.011807371,-2.7285957e-32,0.012732132,0.0026119447,0.0073589412,0.0019500097,0.011992897,0.0011457781,0.013403582,0.011848585,0.011707579,0.011602802,0.010588072,0.006212212,0.009491708,0.010889001,0.010833689,0.012044494,0.011986286,0.012698473,0.011340276,-0.0007871356,0.005620388,-0.0013672786,-0.00062086876,0.010807333,0.012898872,0.011443849,0.006717673,1.8695288e-32,0.012171896,0.009704503,0.005035729,-0.0007931484,0.010682594,0.010709181,-0.0003618662,0.012201284,0.011900911,0.006190822,0.010020308,6.904279e-34,0.011433084,0.005541077,0.011258527,0.011755559,0.012235084,0.002769723,0.011787264,0.0113135185,0.0105929915,0.011240225,0.010243536,0.009029979,0.012832952,0.010982626,0.012656661,0.008570876,0.012477086,0.011664685,0.012868354,0.0016589717,0.021438472,0.0009198977,0.0013728342,0.012114316,0.0133931525,0.012132179,0.0040075905,-1.3059315e-32,0.01303415,0.01104364,0.007350893,-0.0047335783,0.0064306483,0.012169269,0.0020726682,0.013009028,0.013710607,0.0039099404,0.0122464,9.399949e-33,0.013370454,-0.006313062,0.013485418,0.0077600824,0.012011371,0.0070102476,0.01326839,0.011918319,0.013011802,0.012642964
0.04966875,0.11659677,0.011272361,0.20982954,-0.03512495,0.049426395,-0.09401904,0.16627353,0.023041902,-0.05152428,0.004763707,0.15011208,-0.080504075,0.018595254,0.027765514,0.11498931,0.051343963,9.807987e-33,-0.13281666,-0.104330584,0.037006315,0.51001483,0.024392528,0.090740286,-0.089489855,0.1325751,-0.103501305,0.1612771,0.013786076,-1.8407467e-32,-0.14800674,0.09287812,-0.16282195,0.022072738,0.12758891,-0.15209775,-0.01884636,0.15067053,0.024652315,-0.1266976,-0.14011624,-0.037916098,-0.14305735,0.04486531,0.16356638,0.010465302,0.11159394,0.0031393534,0.15325896,0.17695911,0.24955738,-0.064824626,-0.20032875,0.15771762,0.25280944,0.08937914,0.0728172,1.7040812e-32,0.057125214,0.066216655,0.2813454,0.31590995,-0.093924075,0.0734304,-0.08762082,-0.124878995,-0.14960644,0.019432582,-0.024056574,-1.9673795e-32,-0.1304512,-0.029089287,0.009108672,-0.14858942,0.07122184,-0.10716199,-0.16192536,0.032945193,0.06611457,-0.1478224,0.10922586,-0.033133723,0.16159882,-0.06788781,0.044628303,0.0436865,0.13316453,0.15328583,-0.074677125,-0.06420115,0.09203019,0.05015742,0.375137,-0.05653796,0.24492396,-0.024546288,-0.02582931,8.23799e-33,-0.11097529,0.13597251,0.23647432,0.42247054,0.0513762,0.05047406,-0.10560956,-0.026255438,0.12362876,0.2949131,0.14774492,-2.5564187e-32,0.05708199,0.12870699,-0.16846417,-0.0065170187,-0.03885376,0.061600413,-0.08429855,-0.17230837,-0.20858042,0.16520941,-0.02675184,-0.022420477,0.14905998,-0.049906887,-0.019317746,-0.013030438,0.059071153,-0.15050511,0.08492396,0.3022071,-0.09428414,0.034953117,0.21740668,0.03574961,0.0014437548,-0.16478184,-0.044262975,-1.0014773e-32,-0.19234544,-0.06939259,0.09270768,0.24741003,0.016447168,0.02407387,0.4264771,0.08864774,-0.20041925,-0.019040456,0.13758387,2.3236823e-33,-0.12329227,0.27715644,0.10200344,-0.031022936,-0.05090316,-0.0004744228,-0.13810499,0.08126392,0.12547821,-0.05791973
0.18799205,0.17426576,-0.07801886,0.08881614,-0.052129313,-0.013830409,-0.044515762,-0.1416403,0.064723976,0.23489982,-0.021500474,-0.11311966,0.15868728,-0.036665097,0.060135234,-0.112692505,-0.07349964,-2.3893219e-32,-0.0011217891,0.12903522,0.20081232,0.21291676,-0.07945537,-0.12514967,-0.043669373,-0.20294973,-0.114201635,0.19002566,0.046378013,3.1788967e-34,-0.0092061125,0.25087798,0.026330534,-0.03435236,0.129862,-0.09444197,0.100277305,-0.16633555,0.015254221,-0.017502824,0.11312824,-0.0051328246,0.080716595,0.1780485,-0.072771594,0.015631393,-0.045664877,0.18736401,0.08113404,0.09389725,-0.080925904,0.24483168,0.18883222,-0.047751013,0.015600276,0.08360917,-0.06515851,-2.7291085e-32,0.07370299,0.15212873,0.025088089,0.13739558,-0.08096689,-0.08992766,0.19336393,-0.06751922,-0.024387754,0.12836935,0.06743892,-5.6516354e-33,0.08413848,0.0026900424,-0.15494233,-0.048531972,0.037813168,-0.060982812,0.10143952,0.1908467,-0.007876575,-0.04429676,-0.01636279,0.093473546,-0.025014414,-0.06701071,-0.010841912,-0.021923916,0.076246835,0.0945089,0.13273266,0.22745523,0.09837036,0.17333652,0.2882669,0.17176208,0.37164205,-0.018918436,0.1352132,-9.86033e-33,-0.04449728,0.034670327,0.28872833,0.0026244891,0.019881845,-0.10186707,0.119931884,0.12116323,-0.053446736,0.20214815,0.10986379,2.2691383e-32,-0.041231953,0.17179327,-0.058698364,-0.059910618,0.0034796859,-0.011793315,-0.030655267,0.0372175,0.07825232,-0.024133822,-0.06137602,-0.078230724,0.108623095,0.034915805,-0.09556757,0.029044997,-0.014288893,0.066249415,-0.111199096,0.14589417,-0.08095713,0.23836857,0.16891956,0.046392262,0.021897456,0.15909523,-0.08299358,-2.7115375e-32,0.2003932,0.033238277,0.09017175,0.03381861,0.05836975,0.1563014,0.19742154,0.10839606,-0.08865631,0.08662016,0.01537115,1.3193455e-33,-0.15575127,0.11135135,0.017121797,-0.0141247045,0.09971108,0.07483036,-0.06206491,0.076084584,0.14511055,0.033390924
-0.0004624038,-0.0029617646,0.0046448535,0.001553204,0.0033105344,-0.007749661,0.0031563411,0.0017484372,0.0014774692,-0.0066169803,0.007046699,-0.0018175988,-0.0031336886,0.0024590122,0.0072484855,0.0038396372,0.004054551,-1.606288e-32,0.0038000392,0.00280876,0.00511924,-0.00215948,0.0033131035,0.0041234437,-0.010552513,0.0046187853,0.0028668041,0.010130011,0.0047587864,4.276311e-33,0.0034605283,0.0082045905,0.0008010176,0.0057933214,-0.0029242756,-0.0005763454,0.0026087742,0.0022136164,0.0028965333,0.0014164819,0.00034712482,-0.0017366026,0.004981713,0.0033562197,0.0023081687,-0.008055362,0.002993078,0.004730606,0.00075926975,-0.0073234546,0.007912809,-0.0016108099,-0.00012782252,0.002848362,0.006921029,0.0039143134,-0.013116974,1.9876102e-32,0.004999092,0.0025610863,0.0029395088,-0.0043192045,0.011006643,0.00380694,-0.006017004,0.0057726265,0.0051993676,0.004028726,0.004338781,1.0577004e-32,0.0030346594,-0.004883873,-0.0030166733,0.0076816157,-0.002144789,-0.0075354944,0.0027200629,0.004172229,0.0040894602,0.0059555233,0.0043996815,-0.010277906,0.0053840186,0.005475082,0.0038314164,-0.0005092365,0.0031618383,0.004734489,0.0034926648,-0.005249312,-0.0036290425,-0.008719248,-0.0074323434,0.005035656,0.0043354286,0.0042341957,-0.004997685,1.8462789e-32,0.004464903,0.0032521354,0.0069677685,-0.002479143,-0.00044355117,0.00475301,-0.003914571,0.004936003,0.0036775297,0.004211805,0.004423456,-1.7863767e-32,0.0036921531,6.489401e-05,0.0016441315,0.0107773375,0.0027227616,-0.014388905,0.0031384828,0.006036319,0.0053834235,0.011124412,0.00061843,-0.0010885608,0.005142119,0.000749269,0.0053490363,2.7837104e-06,0.0042035137,0.0016809562,0.004186093,-0.004397213,0.010516513,-0.0067924154,-0.0053929673,0.0031710698,0.0063346946,0.004518009,0.0036484161,-7.5308986e-33,0.0039547835,0.0031480088,0.008508068,-0.0028881654,0.0045878175,0.0042431224,-0.007445563,0.003749098,0.0041478816,0.0034172153,0.0055975993,-5.96617e-33,0.004633407,0.00067529257,0.006502375,0.00220809,0.0011067392,-0.00079302816,0.0036959006,0.0019506193,0.0030682962,0.0025385374
-0.05299758,0.13403578,-0.09295697,-0.12224028,0.092012644,0.0075727175,-0.048162334,0.017836075,-0.068423755,0.17007552,-0.0046551363,-0.03651159,0.088889726,0.14276072,-0.12497685,-0.028838327,0.08846877,2.3565303e-32,-0.117179595,-0.017474627,0.0115690185,-0.11064781,-0.005633869,-0.01055125,0.100449294,0.0416333,-0.034411937,0.0062321913,0.007183579,7.221867e-33,-0.09460558,-0.07014124,0.13012397,0.0073261033,0.05485761,-0.05778579,0.071543574,-0.088502645,-0.123343125,-0.10732458,-0.12569775,-0.10078875,0.07011293,-0.010650181,-0.007360045,0.024797663,0.12519091,-0.10204569,0.1418888,-0.15302615,-0.08426452,0.0050134994,-0.09964494,-0.074237466,0.0011130881,-0.059414107,0.11656906,2.4362032e-33,-0.039645165,0.015914936,-0.02715016,-0.03477108,-0.0024244336,0.060033835,-0.03634696,-0.16356602,0.102251984,0.07250424,-0.010383164,-2.5564991e-33,-0.07502916,0.053835195,-0.10824069,-0.0049689864,0.04678068,0.060676552,-0.026813919,-0.116161644,-0.055576786,-0.030216122,0.12347326,0.14690724,0.18554117,0.117005214,-0.15225248,0.0040303916,-0.053078536,0.1517753,-0.027575169,-0.07426074,0.0075472114,0.096960686,0.10445572,-0.08666922,0.031799503,-0.074978255,-0.08147448,-7.342158e-33,-0.047358405,3.0130297e-05,0.06560491,-0.03384796,5.53046e-05,0.12096734,0.05248154,0.005235307,0.036520563,-0.108117476,0.16337335,-9.465382e-33,-0.002216117,-0.040138684,-0.030491412,0.010886439,-0.14296804,0.14862654,0.17475763,-0.1638,0.17566815,-0.040468965,0.14578186,0.010923064,0.08280362,0.14714934,0.10671577,0.0072206426,-0.12643144,-0.0939854,-0.09298035,0.004351072,-0.014423229,-0.063040085,0.1634361,0.06471695,0.1295125,0.17008054,0.063474216,9.019919e-33,0.07419198,0.11221018,-0.0121035725,-0.1411839,-0.0006578428,0.04896146,0.030342903,-0.061416984,-0.12146474,-0.08593254,-0.06445475,-6.510327e-33,0.005280298,0.075776696,-0.042622525,-0.0025759689,0.13559845,-0.10452065,0.0024739923,0.0650428,0.17172042,0.11222276
-0.087962754,0.003979855,-0.038318682,-0.083533846,-0.09069372,-0.03833914,0.0980599,0.09193412,-0.05100898,0.08396787,-0.05062534,-0.25558755,0.18133706,0.06777002,-0.12467918,-0.029748878,-0.09125833,-9.5532705e-33,-0.08791881,0.1631059,-0.04911548,0.5501875,-0.010979255,0.052626345,0.26893595,0.17595363,0.14096056,0.18596922,-0.032339636,-5.9201973e-33,0.18869334,0.17761761,-0.059647657,0.105213016,-0.17136545,-0.029926343,-0.002400756,-0.06317928,0.15635659,0.096645646,0.19498274,-0.05023756,-0.054477774,0.06637006,0.019413672,-0.017925834,0.08158869,0.08723225,-0.06240047,0.26628244,-0.45924756,0.41689628,-0.052380566,0.11322172,0.16818127,-0.06632593,0.27306268,-9.8217725e-33,0.21919638,-0.0031093424,0.25023103,-0.3021788,-0.19997983,0.12622997,0.35956603,-0.09236439,0.23185228,0.16311882,-0.05091919,9.851271e-33,-0.05770582,0.055129226,-0.014901093,-0.042978078,-0.04516695,-0.0011321022,0.15145999,-0.010441401,-0.042592578,0.3647184,-0.07098448,0.089671634,0.12184639,0.18131113,-0.08675112,-0.09107861,0.06776415,-0.036776956,-0.02069503,-0.070359215,-0.13106413,0.08842487,0.4326226,-0.15176234,-0.08007038,0.1769117,0.16550583,-2.1079867e-32,0.11328582,0.14597766,0.06814703,0.1595698,-0.13174951,0.04339073,0.22185238,0.12617351,-0.041107446,0.19017829,0.076782726,1.403606e-32,0.14226192,0.118654944,0.052875333,-0.17075913,0.15424658,0.019536981,0.053329434,0.015481998,0.1310703,0.08270021,0.07586718,0.032298744,-0.06171955,-0.008434243,0.0771191,-0.027322644,0.10674865,0.035395026,0.004910749,0.48020884,-0.35367832,0.18049587,0.19147673,-0.116580635,-0.12286898,-0.036841985,0.03755626,3.823646e-33,-0.06717733,0.12989622,0.13848288,0.17347538,-0.107582785,-0.025944585,0.26691592,0.14202908,-0.11020867,-0.12148307,-0.018895013,-2.7872896e-32,0.1239899,0.15677446,-0.21539447,-0.19903812,-0.15293491,0.1832701,0.04784428,0.16892175,0.023671243,0.21248505
0.23487128,0.0731239,0.19032253,0.004079739,0.19062617,0.034866337,0.10795548,0.20990573,-0.02618763,0.012322882,0.05036712,0.10636882,-0.023844473,0.1143746,0.01797099,-0.09450077,-0.18021858,-1.7171297e-32,-0.020927893,-0.13946477,-0.17733368,0.5010135,0.03695695,-0.11204766,0.18211125,0.14490137,0.15091163,0.13647935,-0.08054841,-6.662276e-34,0.10865103,0.11129273,0.07492471,0.048573636,-0.04811222,0.0697048,-0.03777071,0.25389898,0.06620588,-0.11821701,0.02463284,-0.03646625,0.17280701,0.10578769,0.03949545,0.0019396871,0.0045873863,-0.094758265,-0.101060316,0.22148229,-0.17249618,-0.03152846,0.09792912,-0.06557343,0.20648135,-0.026099226,0.06979776,-4.2231163e-33,0.030371778,0.12803501,0.11055731,0.10387919,-0.10437617,-0.098070756,0.18159117,-0.17051603,0.1822483,-0.06745137,0.021286327,-1.1065753e-33,0.10364355,0.18064478,0.11152402,0.051825557,0.060535107,0.19457579,-0.101674765,0.16511166,0.18238835,0.25450128,0.1658357,-0.1260073,-0.005667228,0.24509703,0.07336939,-0.022600137,-0.02477598,0.118228585,0.0060781618,0.056130853,-0.054878652,-0.005000247,-0.04804344,0.0651799,0.09110914,0.21060774,0.04933892,-4.8153685e-33,0.07828315,-0.051861282,0.17616664,0.31658238,0.021138197,0.13571367,0.035898153,-0.011156621,-0.02216649,0.15981443,0.10547406,2.584583e-32,-0.079170935,0.19439286,0.18220675,-0.119543895,-0.112882294,0.14980741,-0.13301666,-0.1260303,0.016715547,-0.0015751957,0.19805896,-0.0034739394,-0.05253693,0.001795674,0.06340437,-0.0034328522,-0.020290323,-0.109997526,0.030646017,0.10367444,-0.1140736,-0.18120268,0.24475303,0.1991407,0.20414422,-0.093658276,0.029065497,-2.0168112e-32,0.13227133,-0.059514288,0.008391041,-0.0056371316,-0.119975895,-0.07957816,0.039477397,0.19474506,0.16639368,-0.053991847,-0.021067608,-2.7773717e-33,0.034437224,0.08409951,-0.004794093,-0.18298961,-0.007911159,0.18524645,-0.21601877,0.12389659,0.28464812,0.006196166
0.040336493,-0.014294492,-0.1925396,0.10947673,-0.16346608,0.006008871,0.09730782,0.016347857,-0.0028643487,-0.059755962,0.01029592,-0.011588087,-0.026781272,0.022826845,-0.17203543,0.04533241,-0.04655507,-1.0281629e-32,-0.15090802,-0.07481713,-0.012530047,0.37234402,0.06542831,-0.06410727,-0.075633004,-0.008633853,0.059200063,0.1631184,0.035763543,6.331986e-33,-0.12090159,0.14361258,-0.051141802,-0.0036612512,0.14583674,-0.008868286,0.118572,-0.019633437,-0.039286785,-0.06900822,0.09120354,-0.06807488,0.0071598766,0.048617166,-0.1245357,0.005364571,0.0975273,0.1492958,0.1294305,0.11671821,0.08327661,-0.07409277,-0.031950004,-0.0257436,0.05288492,-0.0383775,-0.11986093,5.1338276e-33,-0.06001852,0.0023542736,0.04981099,0.10526117,0.0015675926,-0.019823922,0.009635867,0.19255811,0.20713918,0.04627855,-0.080482855,8.180365e-33,0.012067003,-0.016253313,0.07559312,0.0070725814,-0.115311325,-0.09255794,-0.020966947,-0.14063638,-0.13102917,-0.030843478,0.000202484,0.07454763,0.18736297,0.046190422,-0.16943733,0.07435064,0.025302162,0.1566085,0.09268646,-0.01825652,0.007039585,-0.01393002,0.15369993,0.17415763,-0.016089393,-0.10966181,-0.034397494,-1.8894702e-32,-0.07323779,-0.016719181,0.016630167,0.08790782,-0.0028241028,-0.16400498,-0.010717085,0.06130773,-0.08098067,-0.045314033,0.08574278,-1.07194476e-32,-0.072412744,0.09147888,0.0358253,-0.0037071365,-0.07638688,0.09083975,-0.15304287,-0.13001496,-0.15420876,0.09522365,-0.13507289,-0.05854601,-0.022576723,0.16113381,-0.1670966,0.0006379796,0.017563628,0.075734876,0.14672936,-0.0752431,0.2100808,0.12720142,-0.02397443,0.15718465,0.053894877,-0.08448035,0.110808186,-1.1721483e-32,0.088755,0.11350899,0.06415334,-0.007443953,-0.0038955577,0.052501798,0.12926234,-0.11595605,0.061163493,-0.029257607,0.10639102,5.685751e-33,-0.038963884,0.048978116,-0.08021661,-0.011422491,-0.0985375,0.14772601,0.042072922,0.08814094,0.08958103,0.06576096
-0.030172946,0.03443358,-0.134599,-0.06785413,0.036667403,0.01792375,-0.1306663,-0.0567986,-0.012198043,0.067176096,0.3264507,-0.12838073,0.09284368,-0.1089771,-0.0073926286,0.15237826,0.12113032,-2.9288265e-32,-0.19474441,0.12297786,0.09147381,0.47256222,0.09631435,-0.1392815,0.21758008,0.11945398,0.036069434,0.13266522,-0.06595464,2.1469502e-32,0.14104746,0.084858425,0.14296111,-0.019957392,0.15380166,-0.0705559,0.22778445,-0.13970262,0.12500918,0.22044192,-0.017438952,-0.019669445,0.017153662,0.023633815,0.1329948,-0.023897227,-0.061383218,0.040734343,0.055076703,0.102104515,-0.23427185,0.17303988,0.15203243,0.14461218,0.09497186,-0.08256475,0.09044976,1.2308249e-32,0.18840578,-0.0687508,0.17347744,0.12442507,0.06936008,-0.015782325,0.32547402,0.14986593,0.038300797,0.21466205,0.022253392,-2.5941844e-32,0.10448903,0.1593425,0.2397091,0.22383359,0.24070783,0.19178137,-0.11563846,0.009902591,0.15808554,0.14066303,0.03178937,0.13623948,0.04974924,-0.117195465,0.109016396,-0.11523372,0.09434043,0.17052126,-0.065248445,0.050047066,-0.0063495687,0.1793607,0.15222585,0.123688474,0.112020105,0.029277489,0.11558721,1.8980534e-32,0.051308278,-0.12382668,0.06822324,0.22692947,0.09517957,-0.11504049,0.028345566,-0.10925586,0.08638464,0.31216586,0.099921495,1.4329477e-32,-0.14343041,-0.036566112,-0.0117075015,0.079995185,-0.034610987,0.116277784,-0.06724036,0.0010797811,-0.06230185,0.045054335,0.04004655,0.1460819,0.011786182,-0.0647664,-0.19808052,-0.023241824,0.1512275,0.19699691,-0.13592015,0.10734108,-0.044121694,0.26796418,0.0974906,-0.0017560727,0.21655525,0.069881186,0.23380058,-7.562775e-33,0.117295854,0.10030077,0.16812778,0.42222875,-0.15271594,-0.15936378,0.17568551,0.10239149,0.13689266,0.40419456,-0.15526865,1.3497705e-32,-0.099207826,0.35430843,-0.041480675,0.0004087503,-0.017629549,0.25159746,-0.017477386,0.06659015,-0.1179092,0.23168243
