-0.0075409412,-0.0140982745,0.027104769,0.07991633,-0.035319474,-0.07252073,-0.029820843,-0.123646975,0.1166564,0.11771269,0.09322078,-0.062940955,0.09572055,0.110420376,0.09504982,0.016966969,-0.066063605,-0.07446356,0.10010367,-0.09182034,-0.022630507,-0.13032591,-0.09361372,-0.12899342,0.07787782,-0.02822065,0.1302834,0.111210294,-0.09881866,-0.09514087,-0.08651322,0.04895235,-0.0042901486,-0.11759482,0.09454699,-0.110671505,0.089872904,0.09008298,0.037289225,-0.061978407,0.13765079,-0.07831573,-0.032727662,-0.093711995,0.012481466,-0.11081914,-0.040458083,0.051289275,0.00013567874,-0.10386079,-0.101424836,-0.022146681,0.0675379,0.078277215,-0.060200244,-0.08626185,0.12244581,0.0568571,-0.0015669514,0.0617237,0.008942419,0.0064454144,0.07205408,-0.11004955,0.070906915,0.09301936,-0.05135008,0.092754304,-0.06492648,0.1058914,0.06310816,-0.110395424,0.064365596,0.046739757,-0.065461,-0.027755238,0.08328828,-0.0769695,-0.01840657,0.007434264,-0.028074581,0.12129783,-0.044436555,-0.073812366,0.060313422,0.08620214,0.03449378,-0.12000126,0.048693318,0.017063143,0.05070221,-0.0699782,-0.10042614,0.049050856,0.100276,-0.12633495,0.06190514,0.122493766,-0.09778682,0.04551295,0.088194504,0.083397835,-0.009132296,0.11371118,-0.06754383,-0.06443171,0.03389857,-0.05011265,0.009323908,-0.13428451,0.13056557,0.011126066,0.09821824,0.12663764,0.07842833,0.010366461,0.01089809,-0.05020955,-0.06747678,0.11453975,0.055543046,0.037258983,-0.0067729047,0.0325647,0.12584369,0.12299612,-0.0708723,-0.1368013,-0.007998109,0.0048105717,0.08548127,0.008030266,0.06369639,-0.0077599,-0.10453195,-0.026531203,-0.06594915,0.10195147,-0.10283181,0.053791888,0.048080917,-0.035148375,0.040495418,0.049060777,0.11223376,-0.08040679,-0.09157286,-0.084491044,-0.012597282,0.07998805,0.027761849,0.05165527,0.10832268,0.08453593,-0.089491785,0.058592353,0.12232162,0.116302304,-0.042678107,-0.058792245
-0.12776424,0.011293317,0.08698196,-0.036672596,0.11938165,0.051891986,-0.13296868,-0.11757875,0.08697318,-0.06051576,0.10214923,-0.111177266,0.04454648,-0.08031002,-0.0019389638,0.11033674,0.09014266,-0.08765643,0.09526788,0.11299614,0.12599568,-0.09429479,0.106746905,0.11918186,-0.13043177,0.0056694793,-0.009744408,0.10588032,-0.025740549,-0.12954688,-0.097559266,-0.086653635,-0.015373319,0.113772154,0.1324133,-0.008433938,-0.122104704,-0.02485253,-0.104582906,-0.101013236,0.13060021,0.08788314,-0.069492765,-0.040941805,-0.076709524,0.095641315,-0.117981225,0.04267682,-0.075607136,-0.064568415,0.09621634,-0.1070456,-0.014013929,0.115232944,-0.006929836,0.0586879,-0.10786751,0.07299507,-0.11730384,-0.12546322,0.09139333,0.111658365,0.07243485,-0.04604551,-0.09498239,-0.024847666,-0.0670187,0.13242944,-0.12597264,-0.0046957913,0.0006823528,-0.09626625,-0.11385875,-0.11883357,-0.055260144,0.033828035,-0.13640358,0.009511054,0.059106186,0.03507267,0.08831161,-0.024678007,-0.044325814,0.02574435,-0.020431258,0.11278515,0.07061194,0.042151302,0.08485829,0.0014526134,0.057367302,0.08594938,-0.09595757,-0.047681097,-0.108814135,0.09566405,0.015123294,0.09007617,-0.055573594,0.12912285,0.033481985,-0.08321384,-0.02220352,0.004986599,-0.010299505,0.11880139,0.11650462,0.121620454,-0.07455203,-0.0843477,0.02381313,-0.011036275,0.12001916,0.05510382,-0.06681514,-0.12085406,-0.08858624,0.08304323,0.050133914,0.06816257,-0.1148613,0.027661549,-0.017514907,0.032853607,-0.017397156,-0.0792265,0.0036037373,-0.13062865,-0.12774423,-0.05936884,-0.008708239,-0.111300975,0.12370996,0.07327159,-0.07632977,-0.123326145,0.08644687,0.07144282,-0.028365886,-0.049240667,0.020406773,0.12470728,0.025216993,0.04844738,0.045955345,0.12249244,-0.08858154,0.0829562,-0.083547555,0.031111283,0.1011515,0.07558893,-0.12929498,0.019216707,-0.052693393,-0.058678024,0.07909186,0.0028265687,-0.09872025,0.07156533
0.08898472,-0.04735154,0.039727222,0.12932126,0.07502615,0.09484752,-0.07852663,-0.12508927,-0.12229897,0.027241347,0.00656992,-0.11108306,0.13435568,-0.05127231,-0.009115148,-0.11936408,0.043962825,-0.10445324,0.056539733,-0.062310744,0.055379204,-0.09404041,0.11138708,-0.04920943,0.061298236,-0.1144787,-0.0050906283,0.13748649,0.1140633,-0.0552344,0.05217055,0.019966852,-0.07506621,0.05099693,0.06454934,-0.1342314,-0.07037251,0.09578464,-0.06628462,0.052799754,0.12460683,0.086391315,-0.08646783,-0.12088499,-0.019718021,-0.047106802,-0.009190828,-0.09780605,-0.13334322,-0.08506379,0.12475975,-0.10306091,0.080219455,0.043516494,-0.10108861,0.0015185408,-0.100178495,-0.10173951,-0.028240375,0.13539834,-0.06550848,-0.038854662,0.020820618,0.09703025,-0.02779612,0.03509223,0.10636861,0.029756363,0.019843724,-0.01648104,0.1147843,-0.05037363,-0.109809116,-0.08858748,0.06129791,0.000183478,-0.028993445,-0.086240984,0.042514596,0.13729973,0.08292652,-0.031341687,0.10731914,0.1225178,-0.12183392,-0.07676636,0.005718584,0.072383076,-0.13471659,0.04210729,0.03676125,0.006802655,-0.09972357,-0.056883242,-0.066237085,0.043657877,0.12524526,0.06319252,-0.1130161,0.047790326,0.09969434,0.02837187,-0.07399279,-0.12063359,-0.035135612,-0.12827325,0.0009300363,-0.109819636,0.04471915,-0.049194705,0.03469062,0.058242146,-0.030116169,0.104933135,-0.06607118,-0.021487288,-0.05179757,0.04690398,0.07512422,0.13413769,-0.02449866,0.04250887,0.13041107,-0.07815064,0.11445503,-0.059424292,0.094328165,-0.12572363,0.050141707,0.03803833,-0.05561015,0.06651333,-0.09374471,0.032725044,-0.101102084,-0.08978995,0.017833384,-0.13507506,-0.07610609,0.10133825,0.12141458,-0.10926964,0.12767628,-0.12978289,0.05232965,0.017673716,0.10531993,0.043628428,-0.050342504,0.11602409,-0.09139076,-0.11459084,0.03234668,-0.108823575,-0.13519867,0.12119617,-0.06584808,-0.085870154,0.089918025,-0.086271755
-0.044921935,0.13642295,-0.0318076,0.11969394,0.07304397,0.101383,0.053941138,0.039090633,-0.038826827,0.10141061,0.06003817,-0.10556777,-0.0796097,-0.088898055,0.013673126,0.03829573,-0.011819705,0.022172088,-0.024358176,-0.08344921,0.070146486,0.06922562,-0.106915146,-0.0010581051,-0.11779164,-0.07766309,-0.09192496,-0.048913058,-0.10709841,0.08612604,-0.076282375,-0.11143543,0.044032782,0.06507531,-0.050349474,0.13660273,0.018544288,0.091351055,-0.12986818,0.004229761,0.05174916,0.03895796,-0.10470001,0.113364264,-0.07950755,0.010420695,0.03661467,0.13318565,-0.026133109,0.0009827848,-0.08983544,-0.06690096,0.13442373,-0.10379564,0.0027963696,0.08791669,-0.06991269,-0.0781956,0.12724446,-0.03485387,-0.08590787,0.13354261,-0.1349891,0.0070054075,0.121280506,0.021174347,-0.031656407,-0.08639979,-0.026374914,-0.1150571,0.060876705,0.03785508,0.07588461,0.12618443,-0.096965045,-0.10943544,-0.08927992,-0.055606008,0.031504843,-0.040385973,-0.097677745,-0.08809493,-0.1303274,0.0017177681,0.059287637,0.100470975,-0.08724948,-0.06615371,-0.06716945,0.06933096,0.08330601,0.023971925,0.10116722,-0.101779476,-0.025114754,0.1083693,-0.07200932,-0.0050271964,-0.058466867,-0.076462746,0.11739674,0.04012893,0.015029937,0.01993829,0.11731817,0.09688985,-0.034084585,-0.05789907,0.12065147,-0.0022737824,-0.026905566,-0.054248217,-0.012950453,-0.09961468,0.08601082,-0.12419336,0.075117745,0.08907825,0.04265468,0.042414118,0.117867365,0.090219,0.13684696,0.08131411,-0.09573636,-0.011745598,0.09034074,-0.11791281,-0.020147324,-0.081561,0.03349024,0.0030284524,0.029798212,0.010671842,-0.015422616,0.09423225,0.080013655,0.029486315,-0.042070016,-0.1066689,-0.0001945043,0.115501665,0.1292663,0.0662036,0.12682796,0.12194096,0.02690309,-0.069346316,0.1326185,0.12979454,0.10472691,0.037517708,-0.080281205,-0.09736107,-0.059326936,0.093192585,-0.03559773,0.072720304,0.122692965,0.048672367
-0.13121185,0.13050151,0.053350933,0.057011724,0.1355109,0.01260563,-0.00068528746,-0.014203507,-0.094677925,-0.026429325,0.07563536,-0.023472317,-0.115757875,0.08632001,-0.04049184,-0.03473411,0.01316848,0.064302556,0.09506897,-0.11390786,0.0008835106,-0.060930684,0.046731003,0.057993766,-0.09333121,-0.11858866,0.039263602,0.011762858,0.0864408,-0.07669088,0.056406584,0.118776605,-0.05520755,0.115060836,-0.03375677,-0.10230479,0.112651125,-0.06665112,0.0683292,-0.082837924,-0.019596538,0.08436207,0.09381932,-0.07341173,0.013716042,-0.106969066,-0.07698862,0.09968288,0.097816594,0.10285777,-0.015312249,-0.07329629,0.0023301574,0.074778624,-0.061433196,-0.13519801,0.03492895,0.03535219,-0.033605844,-0.06655743,-0.08899734,0.04859563,0.005788943,-0.079327926,0.12857038,0.10992295,-0.013780099,0.07728552,0.06599687,-0.08777049,0.09124534,0.04940847,0.045688167,0.123177946,-0.1107639,0.04859376,-0.08055809,-0.114013016,0.0011508707,0.06863737,0.09929522,-0.046457574,0.027233493,-0.13103916,-0.130725,0.06994739,0.04321242,0.030542647,-0.08184597,-0.049442362,0.03529969,-0.11860262,0.032289196,0.058173425,0.11413539,-0.082808,0.04685794,-0.107654415,-0.018867498,0.022508634,-0.1041868,-0.011480704,0.01658997,-0.10091162,-0.047631998,-0.027481165,-0.09724187,0.0873315,0.08244334,0.002102089,-0.097099,-0.05456423,0.08030329,0.052200936,-0.030709004,-0.03112897,0.076934695,0.13246916,-0.0069914665,0.079075016,0.08299362,-0.07451661,-0.12894972,0.08227607,-0.12464276,-0.07267639,-0.020514289,-0.05769887,-0.004994899,-0.13438289,-0.035840258,0.04924023,-0.045738917,0.10610081,-0.05347114,-0.010122313,-0.02269829,0.10160555,0.031697676,-0.06413284,0.12341519,0.08013749,-0.12655102,0.063394465,0.01560849,0.12910269,-0.11563665,-0.1099598,0.018667048,0.13362595,-0.09159383,0.12114339,0.11235512,0.09923515,-0.023975054,-0.13564177,-0.016774518,-0.058188498,0.07597045,0.018619636
0.084206656,-0.057039283,-0.1115554,0.13613175,0.012426408,0.020790659,0.08420478,0.039121613,-0.06635892,-0.12514207,-0.017438889,-0.015303384,-0.105967864,0.012148022,-0.014934135,0.08164097,0.037612576,0.113449916,0.0028263573,0.037618175,-0.054364823,-0.09395539,0.13348664,0.102157384,0.009325794,-0.044854723,0.028190926,0.087372355,0.1250848,-0.05453957,-0.08434171,-0.056953803,-0.018391289,-0.012372062,0.04826802,0.082387626,-0.11471698,0.03709424,0.024229221,-0.13229677,0.06427455,0.064137,0.04677952,0.1091194,0.08741774,0.059071824,0.020481408,0.009445369,0.10715829,0.1032554,-0.042292237,0.11895165,0.021822372,0.080753334,-0.049611382,0.019065015,0.08069149,-0.060581084,0.032264657,0.10593456,-0.11714349,-0.0280289,-0.023612617,0.04600984,0.00019597309,-0.0698122,0.03145722,-0.013624143,0.016004011,0.0016153599,-0.05357292,0.07626913,-0.026673943,-0.0606628,-0.058306873,-0.11069724,0.11648851,-0.013093467,-0.062017433,-0.07613152,0.0829397,0.12800719,-0.032959633,-0.025988284,-0.1126658,0.106430225,-0.07620824,0.012464992,-0.040549878,-0.09972943,-0.10030959,-0.044187613,-0.08916689,0.12578923,0.07200588,0.1225197,0.12828979,-0.092706576,-0.11481772,0.04231013,-0.013067439,-0.13108575,-0.12516777,-0.062412113,-0.12258327,0.04242877,-0.08213983,-0.037775096,0.02684749,-0.12241876,-0.07153293,-0.06402568,0.027520128,0.071966395,0.014720485,0.015453195,-0.07794356,0.08432759,-0.09498942,0.011444336,-0.07728049,-0.038401514,-0.006275736,-0.011569567,0.12239684,0.0647308,-0.03939087,0.021541312,-0.1297302,0.05429703,-0.123201974,-0.08642878,-0.051154327,-0.06337652,0.03940961,0.025953664,0.101564765,-0.100143306,0.12622973,0.0029529147,-0.12333953,0.032284927,0.060917974,0.06440694,0.13435985,0.11559397,0.033497978,-0.1266123,0.06896105,0.0667955,-0.0050771423,0.0138150705,-0.0637976,-0.085407846,0.011433576,-0.041453157,0.13302144,0.0463987,0.04406412,0.017332396
-0.11397393,0.028810846,-0.1303195,0.116439894,-0.06658643,-0.1291159,-0.078841984,-0.11755634,-0.0015837669,0.072482176,0.08592551,-0.08374322,0.06769425,0.012146376,-0.074548125,0.09281922,0.014509865,0.032739207,0.08110941,-0.011859617,0.028090965,-0.04316086,-0.08703089,0.11792564,0.042357024,-2.784899e-05,0.03042272,0.095059425,0.08384204,0.087853365,-0.113508604,-0.09777056,0.03931929,0.01581806,0.10205428,-0.06155935,-0.04446632,-0.0029520215,0.03980812,-0.035288136,0.12851046,-0.015634557,0.0717121,0.13019018,0.04073751,-0.04039684,-0.0716749,-0.041542083,-0.035290156,0.11418108,0.0063593355,-0.017698947,-0.12682286,-0.0038846917,-0.01954598,-0.025181022,0.014442811,0.016197283,-0.113548495,0.077675655,-0.04081072,0.036750425,-0.009150361,0.08757298,0.0940926,0.025386374,0.038720872,0.12216349,0.030169426,0.0062086694,0.071066216,-0.002624655,-0.10546754,0.13622314,0.13365242,0.06512056,-0.009273644,0.05502483,-0.07152482,-0.11125294,-0.002182181,0.10672484,0.028575795,-0.0552523,-0.104545586,0.123214886,0.04588754,0.06303242,-0.05926005,-0.051152207,-0.081294246,0.0011750967,-0.12218291,0.057682578,-0.06642953,0.04813011,0.11782474,-0.048717428,-0.03487488,0.03631447,-0.08292195,-0.047418512,0.016326442,0.028595507,0.10084737,0.098489985,0.015173718,0.10976926,-0.06990743,0.0012937707,0.09748877,0.054256387,0.09404807,0.11341368,-0.060982633,-0.0018255531,0.055755716,0.08271202,0.0900816,0.09780086,0.10109063,-0.11838641,-0.016232207,-0.05080967,0.106778465,-0.0062091695,0.039863758,0.070983686,-0.1049228,-0.016509555,0.068480104,-0.093113825,-0.045014847,0.06627005,0.08342033,0.06673489,0.069914654,-0.034615207,0.10298771,0.103210635,0.11043199,-0.13113348,0.037332993,-0.124454,-0.017112305,0.109485015,-0.11669143,-0.06485864,-0.026640154,-0.13227415,-0.071968436,0.06354605,-0.015826615,-0.050178617,0.089341246,0.09620863,0.020991342,-0.051640186,0.08096498,0.05137312
0.052215688,0.02605946,-0.010094799,-0.087423585,-0.13404205,0.03657311,-0.080535494,-0.12318967,-0.10007943,0.007942798,0.07281966,0.0063750804,0.05720459,-0.06456158,-0.052406866,-0.12906447,-0.02360834,0.02407446,-0.120695025,-0.13817152,-0.048642293,-0.01902645,0.12349493,0.10141698,-0.008702725,-0.06523647,-0.08680959,0.018373122,0.1344335,-0.042783,0.040280737,-0.07333134,-0.10785912,-0.029456072,-0.0227307,-0.08244564,-0.056280255,-0.023958094,-0.06409822,0.0878423,-0.025942253,0.07066536,-0.06434216,0.1047878,-0.028802417,-0.111218736,-0.090072185,0.11296971,0.039483916,-0.096080124,0.08863452,-0.06603721,-0.04191914,0.05887511,0.09954332,-0.01385292,0.092707165,0.110931255,0.026506856,-0.034369677,0.06587821,0.12798065,-0.00069010915,0.060352813,0.11937083,-0.034626406,-0.013667095,-0.033906866,-0.049224198,0.08610698,0.038253535,0.04730574,0.0879966,0.10443796,-0.1196689,0.056577742,0.087750226,-0.034729157,-0.011240646,-0.056223415,-0.13068941,-0.0066148057,0.09016114,0.05910792,-0.049013037,0.0789485,0.1299642,-0.06421252,0.00507119,-0.05124264,0.032617602,0.03497369,-0.10294605,-0.083185844,0.119609304,-0.04494662,0.0071589034,0.079228476,0.01310224,-0.1245371,0.07137096,-0.07985093,0.13303232,0.106246755,-0.11984566,-0.04203848,0.020143548,0.10692479,-0.06471935,0.031964276,-0.12928632,0.12514922,0.021395005,0.13357367,-0.1362172,-0.03881432,0.05730499,-0.08405424,-0.0036172948,0.057932235,0.067217916,0.13584179,0.030156361,0.029160582,0.013483525,-0.13556403,0.010849347,0.028192785,-0.05793304,-0.053891823,7.456541e-05,-0.014775194,0.12613012,-0.1085643,0.030338941,0.0059293755,-0.072896756,0.030161701,-0.10648292,0.11248009,-0.006020492,-0.12772429,-0.10989101,-0.084015355,0.056361564,0.056059822,-0.10768381,-0.043555934,-0.04494483,0.08064374,-0.09810667,0.07225521,0.024157375,-0.02219026,-0.089875005,0.058317684,0.10779863,0.1276731,0.111852884,0.07581734
-0.04083544,-0.09707609,-0.032066535,0.12805358,0.0022769244,0.014784211,-0.07206836,0.11099744,0.046024367,0.04876942,-0.054924246,-0.015342712,0.029897392,0.027061407,-0.044111963,0.064449124,-0.022764893,-0.045331806,0.024057714,-0.023022307,0.09154016,-0.06341557,0.08825458,0.10469689,0.02482108,-0.09840938,0.06511743,-0.104990885,0.059202883,-0.056686062,-0.11376187,-0.12544702,-0.008134022,0.115278065,-0.11676827,-0.071306445,-0.06346951,0.13165176,0.13385454,0.13003568,0.038990665,-0.13094707,0.13591142,0.11728229,-0.08772508,0.017477632,-0.12164883,0.070621386,-0.019931847,-0.03985036,0.12214123,-0.030829202,0.07375081,0.07200394,-0.13671787,-0.045005515,-0.0446321,-0.049839348,0.10030841,0.014842404,0.11610399,0.011579211,0.042672403,-0.10583934,0.13170078,-0.10506263,-0.040239032,0.12257376,0.10092435,-0.070230044,-0.028151713,-0.039094046,0.020634875,0.054647043,-0.12810063,0.09872767,-0.121245645,0.0026829264,0.04758121,-0.096826814,-0.021277988,-0.1222415,-0.027013568,-0.08705791,-0.0033850302,-0.0136834,0.13030827,-0.018204726,0.043587625,0.057643447,0.026166128,-0.015764924,0.036233656,0.07009798,-0.029840868,0.08865956,0.015589737,-0.05399406,0.10279461,-0.0946562,-0.070265405,0.13508394,0.06538889,0.008122817,0.13706136,0.11906538,-0.079539455,0.1351998,-0.12623784,0.04401297,-0.10459242,-0.13049383,-0.0513892,0.039312296,0.06556654,0.02893381,-0.09781159,0.09366542,-0.11344253,0.12177078,-0.08138201,0.09008273,0.020746987,0.017228495,0.05359533,-0.025864257,0.0723484,0.07308985,0.11244674,-0.11796513,0.041123062,0.063800916,-0.036049955,0.029673353,0.01293402,-0.049337003,-0.020926505,0.024969146,-0.11478464,-0.061892096,-0.013608732,0.061885614,0.09529114,-0.0029541338,-0.07570333,-0.005523683,0.12928724,0.022469826,-0.05636496,0.08366167,0.07970041,-0.090102635,0.12196247,0.03863844,0.048368137,-0.053432707,-0.00496541,0.116954595,0.03450237,-0.11474692
0.050958466,0.041905988,0.059464663,-0.03371166,-0.015328833,0.13345231,-0.08747722,0.02869157,-0.043546066,-0.007718333,0.07886386,0.0593577,0.010429945,-0.08556683,0.023126783,-0.012138298,0.0037357714,0.13462405,-0.11584933,-0.05935361,0.078745686,0.085636705,0.026691899,0.021538638,-0.13235967,0.054504544,0.011524969,0.13666625,0.13214172,0.079713136,-0.12523916,-0.056992374,0.10345504,-0.036685906,-0.01964613,-0.11340398,-0.014361971,0.13354897,0.12837943,-0.03154014,-0.07132934,-0.023147728,-0.121043205,-0.071252786,-0.048870444,-0.006437883,0.05213584,0.011648387,0.0351044,-0.05960049,-0.027950207,0.0029844085,-0.09440835,-0.05523574,-0.07662401,-0.059033163,0.051457368,-0.1073999,-0.05966219,0.13335024,-0.003558501,-0.05899965,0.04294786,-0.064682886,-0.070694074,0.12337773,-0.07085223,0.08171882,-0.012790397,0.023338124,-0.10721491,-0.11807373,-0.049795657,0.123654336,-0.09132436,-0.10175093,-0.09560338,0.055614695,-0.082712695,0.015168883,-0.04513732,0.09624146,0.04721942,0.04227524,-0.027015537,0.10087942,-0.077460185,-0.118056774,0.010053164,-0.11912806,0.05686821,0.10329911,-0.123817004,0.06578407,0.12713438,0.04290771,0.056787085,-0.09225936,-0.077015325,0.027959704,-0.000120699406,0.12301919,-0.08320865,-0.12117239,-0.056179393,-0.048277818,-0.110748455,-0.044155795,-0.11042904,-0.13338703,0.017484408,-0.038155165,-0.047460675,0.036709815,-0.07481368,0.054174718,0.0010363932,-0.06824384,-0.01940367,0.038902115,-0.066634424,0.10643111,-0.13067015,0.07204897,0.12458782,-0.05166908,0.121615715,0.07397963,0.13095811,0.11811572,0.044328615,-0.051058598,0.11206353,0.06359923,-0.08407939,-0.06694839,-0.06440634,-0.07156841,0.094462134,-0.11446851,0.1000156,-0.0010400409,-0.0845265,-0.09624443,0.08936719,-0.12114286,-0.04507807,-0.038115457,-0.061855927,0.022606466,0.040282518,0.005504502,0.12691487,0.0801295,-0.06075934,0.12156232,0.02926267,-0.075300716,0.08470562,0.10133199
-0.019986212,0.059440747,0.07773276,-0.096852355,-0.11105877,0.023916943,-0.044587288,0.08710226,0.12280363,-0.05500245,0.067662805,0.03776199,0.062820606,-0.11445706,-0.0790644,0.099898115,0.057005297,-0.008597294,-0.051355116,-0.12624523,0.13091365,-0.00842496,-0.0055131745,0.10767398,0.10105068,-0.028034171,0.11168392,-0.025207136,0.09241828,-0.024888767,-0.086572014,-0.11488511,0.02862534,-0.06934914,0.1285857,-0.032429643,-0.12858322,-0.05389153,0.052683532,-0.112005256,0.11063531,0.009037521,0.114648655,0.09408086,-0.00646165,0.050342813,0.024047405,-0.012650572,-0.11584354,-0.029746355,0.070949115,0.004576024,0.051936045,0.076203026,0.08724628,-0.04705692,0.12801874,0.03656629,-0.043738443,-0.12176602,-0.05349481,0.033221304,0.083942264,-0.024253847,-0.043908637,0.08907871,0.03933,0.023240125,-0.078275785,-0.030576257,0.088984124,0.118820906,-0.04312007,-0.13063984,-0.053280145,0.094542906,-0.03408011,0.093248114,0.010007324,-0.017013831,0.092419125,-0.014315791,-0.018283533,-0.030374695,0.10087871,-0.09904569,0.020786216,-0.0598166,-0.11901199,0.01369183,-0.048884396,0.025030782,0.06885828,-0.01923038,0.0066568973,0.088271685,-0.05073356,0.003016124,0.11627323,0.11934763,0.118171066,-0.11104218,-0.11308871,0.065582484,-0.08219563,-0.04521029,0.091724,-0.12071592,-0.09633339,0.08548199,-0.08544011,-0.025140287,-0.008515895,-0.078204855,0.036796626,-0.0128347445,-0.109904565,-0.023538059,0.050204735,-0.03151817,0.07624961,-0.008597427,0.07029916,-0.09941743,0.09293974,0.13371633,0.013266983,-0.07053199,-0.10504281,-0.08597821,0.037692502,-0.086408794,-0.09875492,-0.13185118,-0.082480446,-0.09056724,0.010066132,-0.11758131,-0.08099096,-0.0024708463,-0.12654011,-0.07315665,-0.07221148,0.02845306,0.10170785,-0.06957806,-0.11175035,0.105406955,-0.020075629,0.043945197,0.07239437,0.066983014,0.05626061,0.024716849,-0.096217416,-0.0067552878,0.0444746,0.061409228,0.10939074,-0.062424775
-0.08044424,-0.115805864,-0.026860315,0.10845813,0.1272922,0.10046795,0.12635873,-0.03780842,-0.09018106,-0.048956066,0.0118422825,0.015806677,0.119915076,-0.075149655,-0.0270742,0.109391466,0.037685942,0.11573976,0.043719836,0.11939136,0.0063210004,-0.017105225,0.01537119,-0.107884295,-0.102618024,0.10242028,-0.038399965,0.0411777,-0.05688816,0.108567916,0.03587783,-0.13401258,0.002028644,-0.031354293,0.033838093,0.12234026,0.041816935,0.03071062,-0.042533826,0.025372684,-0.07857441,0.10243938,0.12710282,-0.05606105,0.10825366,-0.012133352,0.04765193,-0.10523148,-0.009294824,0.03419786,-0.09075985,0.027280271,0.10980003,0.12317428,0.05262003,-0.041935563,-0.11452085,-0.106921665,0.045960147,-0.12587383,0.04232012,-0.11519026,0.039432053,0.12186769,0.0949941,0.014972042,0.107027285,-0.0696827,-0.12002602,-0.0141018415,0.09909144,-0.0025812855,-0.11130913,-0.024495982,-0.033111505,-0.103670694,0.045956183,-0.040524945,-0.014353638,0.07333003,-0.03528929,-0.03499851,0.05531298,-0.010714217,-0.0408973,-0.12501596,0.1170493,0.05125262,-0.07790835,-0.009736519,-0.045603614,0.042815685,0.11557468,-0.113519564,-0.071562275,-0.044720024,-0.0009819941,0.040725235,0.015960488,-0.056985218,0.0222079,-0.0102416575,-0.08864269,0.00019516051,0.13254851,-0.11718529,0.004564911,-0.11734966,0.050236363,0.017344045,-0.032736078,0.025049813,-0.032671854,0.07809506,-0.08078188,-0.06733528,0.0760617,0.0068535646,-0.13687772,0.019864272,-0.11345121,-0.06915307,0.074799284,-0.06606836,0.0023930208,0.060437493,0.055860415,0.079879545,-0.12447357,-0.10609195,-0.13459268,-0.06404507,0.13438542,0.028607005,0.024155265,0.03354834,-0.057804428,-0.12533168,-0.008761659,-0.10678248,0.07325488,-0.007772609,0.03560452,-0.027862001,0.108535096,0.10140262,-0.0913238,0.09101644,0.11264162,-0.020528194,0.027112247,-0.058974884,-0.013446994,0.10965675,-0.10045767,-0.05806902,0.0062248395,0.071044326,-0.0024863547,0.11151168
-0.031399403,-0.037419956,-0.12346233,-0.07599546,-0.09763992,-0.0145411305,-0.12880194,0.03074062,-0.08767913,0.046927907,0.13746434,0.007952432,0.1106878,-0.095327735,-0.010503527,0.08955422,0.08975892,0.023945186,0.046428353,0.057709616,0.030716494,-0.09339434,-0.031649794,0.11437315,0.11868273,-0.044930615,-0.13651928,-0.10736933,-0.08961418,-0.0281215,-0.03401382,0.054859217,0.06727192,0.010219663,-0.06651314,-0.038642623,-0.04011064,0.02936342,0.053616352,-0.021634191,-0.035966568,-0.06731654,-0.09535027,0.009890444,0.07418455,0.11180018,-0.053590946,-0.10859273,-0.012365677,0.038831074,0.050184634,0.09645756,0.122879684,-0.011403154,-0.09681579,0.008385985,-0.13065352,-0.05640231,-0.059403047,0.05096236,0.04527235,0.0058518555,-0.06763117,-0.039852332,-0.06483171,-0.017025443,0.08047334,-0.10102438,-0.12741356,-0.046832338,-0.077403545,-0.07244593,-0.013401486,0.13414526,0.064145654,-0.007616475,-0.019393282,-0.13017814,0.023755273,0.07011708,-0.12736455,-0.05177117,-0.09068215,-0.096440986,0.0072332975,-0.055453345,0.061023895,-0.01602108,0.061305046,0.043078642,0.12537035,0.08821062,-0.1037703,0.007326669,0.08346883,-0.10053009,0.1263343,-0.10211271,-0.10599145,-0.0021052714,0.021392733,-0.10370592,0.07830788,-0.014028266,-0.036989506,0.12044043,0.035095558,-0.015278823,0.022608731,0.119919755,0.062001232,-0.056739703,0.061428357,0.09602107,0.08242736,0.009203892,-0.1331901,0.10310438,0.051460456,-0.014703812,-0.07278022,0.04337067,0.048942283,-0.09293767,0.040104054,0.09087354,0.006862058,-0.03126583,-0.050477713,0.075357854,-0.036065586,0.07980581,-0.08233457,0.049232863,-0.04087914,0.11158661,0.11282044,0.112543605,-0.04382924,-0.06291614,0.07376737,-0.002036125,0.10772875,0.12532198,0.12453215,-0.00272959,0.017852021,-0.12225432,-0.11892448,-0.09663002,-0.05016471,-0.0567854,-0.0061577866,0.13707256,0.04575376,-0.05728022,0.0074834023,-0.073147036,0.13400432,0.0361213
0.09928039,0.019153746,-0.06754923,-0.11474688,0.08221945,0.01931057,0.11863618,-0.09466105,0.069522515,-0.10504212,0.06636592,0.12497335,-0.020988816,-0.024995571,-0.042500503,-0.0054262886,-0.116642766,-0.087532155,0.039321672,-0.034464467,-0.08980329,-0.12091111,-0.019486727,0.11464082,0.06472549,0.1359271,0.018458305,-0.0130943395,0.042688146,0.080819674,0.038799606,0.13588236,0.12089372,0.054599404,-0.11693947,-0.124264136,0.088275135,-0.025353592,-0.09190597,0.031433437,-0.0090896115,0.13631085,-0.009072592,-0.021033028,-0.13215461,-0.04307858,0.032977983,0.08678903,-0.042542707,-0.044215925,0.049401663,-0.023214623,0.13131066,-0.07466023,0.037803527,0.07979259,0.11895618,-0.086623594,0.111038156,-0.09721538,0.13149469,0.052748915,0.10434349,-0.003937999,0.031817723,0.03415251,-0.07361581,0.015850151,-0.12127045,-0.099041745,0.12652645,-0.02158833,-0.12578012,-0.115886055,-0.0033842921,-0.032890648,0.048646767,-0.10050442,-0.08992788,0.10213693,-0.1157313,0.06638376,-0.081253886,-0.1125394,0.10843258,0.08419576,-0.040870324,0.05038507,-0.12158022,-0.08869253,-0.046615828,0.021452796,-0.12254764,-0.056072485,-0.065487705,-0.083486274,-0.030473432,0.13091297,-0.028472336,-0.08774345,-0.07024297,0.030546606,-0.09963682,0.023714215,0.09247667,0.13133375,0.05145745,-0.100345716,-0.06564784,-0.0057766726,-0.009517212,-0.028325181,0.0398857,0.09425592,0.098666914,-0.06757595,-0.115542814,0.10070604,-0.08473708,-0.02211627,0.009589784,-0.04323489,-0.04817117,0.06988512,0.038093593,0.06670664,0.0656752,-0.0062611746,-0.07056245,0.029349148,0.04084769,-0.016070656,-0.12597936,0.089878015,0.011951228,0.012917496,0.13038385,0.1278246,0.03605733,0.005906717,0.01905139,-0.0141448155,-0.04914604,0.124352664,-0.04272729,0.0044204392,-0.051889542,-0.10350223,0.09362063,-0.01883699,0.13389358,0.031318698,-0.020538399,-0.091580935,0.12731765,0.08840804,-0.10711703,0.058428146,-0.065230675,0.08493479
-0.023469925,-0.02016928,-0.13359797,-0.016673712,0.07202307,-0.012154202,0.008385438,0.109212354,-0.033534717,0.120224126,0.13136502,-0.086206265,0.12660368,0.108361974,-0.12960747,0.09968631,-0.06621259,0.108570315,-0.08015463,-0.019124066,-0.10382988,-0.10369725,0.10291392,0.09715654,-0.026156865,-0.077545986,-0.110592596,-0.09059632,0.09807784,-0.13045721,0.032241575,0.08545418,0.09947525,-0.063213825,-0.08101763,-0.093996435,-0.0726106,-0.005722714,-0.09676042,-0.0323967,-0.08010987,0.098280214,-0.10755689,0.0012364823,-0.10491143,0.007823154,0.03029193,0.02036433,-0.104561545,0.10724937,-0.0780796,0.035194453,0.039861728,0.010072491,0.01193156,0.12493708,-0.07875653,-0.07004052,0.016224029,0.09566885,-0.040215418,-0.12487168,0.081758045,-0.09524583,0.06905861,-0.1307397,-0.108844355,-0.013416564,-0.107631415,-0.11419032,-0.08983567,0.09981191,0.0035897791,-0.03704819,0.10715388,-0.10144095,0.08523857,-0.027102793,-0.09836637,0.033024397,0.100683145,-0.12829874,0.11201363,-0.09793903,-0.087434046,-0.0021926675,-0.09126176,0.09470664,0.03954267,0.08284635,0.13233173,0.09170047,-0.030273687,-0.12882414,0.129498,-0.015540885,-0.091617405,-0.122043684,-0.09123692,-0.03545075,-0.02123303,0.09319842,-0.06904892,0.12301612,-0.036108907,-0.082878806,-0.06951996,0.12360192,-0.027010111,0.041725542,-0.030393478,0.13487571,-0.014816502,-0.047455993,0.07259018,0.039647672,0.11164884,-0.043138653,-0.123282574,-0.047819797,0.0056419526,0.11823573,-0.038533647,0.12280432,-0.12267295,0.10206204,0.12319077,0.111136295,0.1310068,-0.102415524,-0.09775457,0.08552654,-0.12961332,-0.10710649,0.08343292,0.054187894,0.040052354,-0.0042832345,0.017137928,-0.08092491,0.06306655,0.12556003,-0.06340915,-0.0792174,0.117264956,0.041662,-0.06272539,0.019423677,-0.05745512,-0.07541525,0.06915324,0.025227927,0.045448057,0.051547002,0.12654893,-0.120864406,-0.031466607,0.1145957,-0.00086074,0.09084627
0.03912679,-0.040357396,0.06642236,0.11635244,0.044279598,-0.016470343,0.01934418,-0.11544502,-0.04082981,0.11709853,0.044030502,-0.036792066,0.11690365,-0.021846792,-0.032852836,0.0990068,-0.023726191,0.020071935,-0.013112491,0.13431095,-0.010400328,0.13492301,-0.13357316,0.06684876,-0.06772934,-0.0789887,0.109577686,-0.07533338,0.047571395,-0.079812326,0.0555661,0.019779216,-0.058317423,0.13180137,-0.10883856,-0.08515803,0.078550644,-0.06000281,-0.114255674,0.06369164,-0.031261932,0.03208502,0.02446371,-0.09141879,-0.07135701,0.11444688,-0.08053253,-0.011057377,-0.1369958,-0.07100025,-0.095950514,-0.027918158,0.012982099,-0.06284662,-0.12467721,-0.058497917,0.0857722,0.035625894,0.02348779,-0.018229157,-0.029791597,0.033275846,0.10856889,0.039950546,0.035551894,0.08686991,-0.03096154,0.05069057,0.024628894,-0.090769276,0.05525692,0.011497378,-0.11976557,-0.07014765,0.04760757,-0.08292253,0.11831634,0.13102198,0.0007754076,0.074314535,0.012878448,0.0053619137,-0.0008828267,-0.10407093,-0.091736145,-0.004011851,0.029119384,0.048701886,0.110652775,0.084581904,0.07444189,0.083354205,-0.035873517,0.110010855,0.03451015,-0.011534635,0.027938638,-0.040014066,-0.08019105,-0.10734092,0.061523765,0.08487639,-0.085250385,-0.026498303,-0.0009324491,-0.00076929637,-0.000523145,-0.025507497,-0.05180837,0.055510223,-0.048479814,0.088044085,-0.01875688,-0.08180359,0.067114785,0.012811298,0.063756116,0.1167553,-0.10511384,0.12342917,-0.02521784,0.12977673,-0.06343179,0.058123082,0.12026384,0.015464496,0.13193765,0.10027252,0.070481166,-0.10872958,0.07788111,-0.07784012,-0.082569905,-0.0847594,0.07292502,-0.005549164,-0.12044614,0.09523449,-0.12721685,-0.09805549,-0.015392372,-0.062807314,-0.020547805,0.04693642,0.10087046,0.028353486,0.10721174,-0.12094682,0.13725083,-0.04256876,-0.118537225,0.04464948,0.05814963,0.009966615,0.009564239,-0.02384657,-0.01641263,0.115684606,0.07580126,-0.087244265
0.01627566,0.1338847,-0.0075923563,-0.09411113,-0.026032448,-0.11785061,0.04049207,0.08175041,-0.07830502,0.09054631,-0.00869169,-0.01295608,-0.1264584,0.061932474,0.027801968,-0.030260066,0.0029959388,-0.12126269,0.079109445,0.028813,-0.074704684,-0.10821601,-0.07444056,0.12015438,-0.1006605,0.04353294,-0.11066823,-0.000671231,-0.047023628,0.049051512,0.09615828,0.019815516,0.10983072,0.072054714,0.014891908,-0.116354436,0.11035993,-0.030558107,-0.09019382,0.045375846,-0.07801306,0.025060773,0.0979415,0.03855286,-0.095731184,0.106623664,-0.10460534,0.05135435,0.044095077,0.07450403,-0.12010807,0.08152695,-0.07080956,-0.091775395,-0.060506273,-0.061585154,-0.028411224,-0.06165703,0.12712577,0.059897423,0.0049413904,-0.10280026,-0.11297927,-0.020338366,-0.051719334,0.03890636,0.058057193,-0.055364,-0.037047107,-0.022850066,-0.10731382,0.036459517,-0.058376543,0.017853856,0.094696745,-0.07508512,0.06520275,-0.074654035,-0.13385619,-0.007846663,-0.03617233,-0.059181847,-0.04428562,-0.07915554,0.014833486,0.027812593,-0.08500499,0.028028816,0.12331959,-0.13249305,0.07905156,-0.045877848,0.07832006,0.12904702,-0.11831592,0.03743644,0.07317761,0.06677276,-0.020418892,-0.12219849,0.10989034,-0.09378272,-0.11126274,0.050741702,0.123120725,-0.07583405,0.0824293,-0.05058372,-0.011879338,0.058210522,0.079854965,-0.029925514,0.12290077,0.05700593,-0.13170792,-0.10069705,-0.0077600745,-0.07096647,-0.039427333,0.07941127,-0.10262119,-0.051225737,0.11819839,0.10940543,0.06879836,-0.1113272,0.023614757,0.037753314,-0.031837165,0.0032721907,0.043155983,0.049843386,-0.114639446,0.015775919,0.0070344596,-0.0007680934,-0.12410915,0.12268359,0.018292964,0.117535375,0.088874854,-0.11621636,0.0024004078,0.054350525,-0.060483444,0.07216023,-0.012003045,0.101965,-0.099892996,0.10932515,0.054798197,-0.07327295,-0.12864661,-0.116542965,-0.023543287,0.061394148,0.09875291,0.03387271,0.08327248,-0.10568726
0.12674353,0.073419936,0.089761,0.016556807,-0.09809624,-0.025466671,-0.04754167,-0.009725544,0.10233495,0.07630431,0.11173221,0.009744728,0.12977305,-0.07266004,-0.07035825,-0.08616721,0.1316679,-0.042792488,-0.12963368,0.13190976,-0.050928086,0.12595618,-0.0026355346,-0.08135254,-0.020466415,-0.054654405,0.13201322,0.01284615,0.06732427,-0.08128204,0.054562714,0.09592231,0.07507533,0.028971404,-0.089999065,0.03576526,-0.10091714,-0.048823763,0.05941343,-0.07256685,0.00015959656,0.06262963,0.054945763,0.033240892,-0.12730278,0.03238587,-0.0037372112,-0.005326584,-0.10713641,0.09784424,0.083995566,-0.13078804,-0.02742508,-0.018631594,-0.068820134,-0.08805656,0.11530867,-0.1285253,-0.053289026,0.04022923,0.016284822,0.06823364,-0.070100516,0.13302967,-0.089375325,-0.04498489,-0.085241124,-0.12817438,-0.022708064,0.08948316,-0.08024937,0.05473608,-0.053523757,-0.007289216,0.09635292,0.09856081,-0.029553581,0.13666244,0.103600666,-0.02679666,-0.0017874357,0.105441995,-0.11597248,-0.057182424,-0.057941638,0.027636059,-0.026481938,0.043829717,-0.091796204,0.029992713,0.1112175,0.02730893,-0.031306986,0.004224476,-0.112432405,-0.05148614,-0.08040524,0.058021322,0.029170766,-0.10030121,-0.08532897,0.124979645,-0.093615636,-0.03681486,0.079785794,-0.08705266,-0.09243868,0.10831924,-0.08147177,-0.072780676,-0.06719834,0.039088063,0.10008366,0.1295375,-0.09227805,-0.08787509,0.114773765,-0.13156684,0.07648567,-0.039959908,-0.06751101,0.124645166,-0.014410326,-0.0008142657,0.026219394,0.0092827305,0.040022403,-0.09227359,-0.11398751,-0.023411974,-0.05477064,0.019891992,0.033203404,-0.020338533,-0.11094572,0.12503827,-0.048247945,0.05310173,0.13669416,-0.09266791,0.058097135,0.08881556,0.13824537,0.11033114,0.04603758,0.11356425,0.045585822,0.07770987,-0.07294246,0.061158337,0.011403669,0.004205359,0.038059443,0.09009016,-0.10801473,0.041130397,-0.110740885,-0.03334649,0.10113126,-0.008593344
0.13629411,-0.12658568,0.08249862,-0.0638704,0.06273912,0.1138229,0.120318376,-0.053422704,0.1219141,-0.007385992,0.07585777,0.0118379565,-0.055724256,0.0865144,0.0150604695,-0.028229276,0.107152425,-0.10058184,0.04431491,-0.049766026,-0.07111501,-0.059637662,0.13163483,0.09930459,0.005409354,-0.116760455,0.043407988,0.030134127,-0.03231077,-0.065796785,0.07816325,-0.116830096,0.064310625,0.13379464,-0.11036437,0.0561828,0.05006888,0.10390009,0.082347915,0.02890794,-0.024360374,-0.017637849,-0.034321513,-0.06446277,-0.037307955,0.045971155,0.032490894,0.13521534,0.008984465,0.04136578,-0.020596119,0.027023073,0.101823166,-0.038555007,0.0060354653,0.059358064,-0.119746864,0.12532035,0.11347751,-0.10662437,0.019462168,-0.033853494,0.018587606,0.09779936,0.08266827,-0.112211294,0.091756895,0.11042988,0.082558006,-0.13252549,0.04192032,0.035362236,0.060227945,-0.028315067,-0.09048925,-0.06537158,-0.07031443,0.015613617,0.015607159,0.062816955,-0.13148856,-0.118605405,0.101554394,-0.09936532,0.027348053,-0.10697057,-0.104542464,-0.023028906,0.12410325,0.020134754,0.13313164,0.02950187,0.10912439,0.07398577,-0.05312558,-0.072291486,0.011688068,0.034207903,-0.0925237,-0.020036684,0.0057012737,-0.106118426,-0.08731441,0.049795523,-0.009045603,0.06429119,0.023302248,0.00066605443,-0.015263213,-0.053835426,0.11673864,0.09054649,-0.026951998,0.009246081,-0.08114869,0.04886174,-0.004993563,-0.008266532,-0.042789847,-0.09716621,0.08694907,0.04784097,0.10619603,0.12922361,0.0930258,-0.062301338,-0.13703603,-0.12872057,-0.052265257,-0.0029029846,-0.029320069,0.047577992,-0.08369495,-0.060103614,-0.11270578,-0.09654709,0.065717444,-0.03877745,0.0016702346,0.016259866,0.07581146,0.006958157,-0.019402985,-0.068712294,-0.12334203,-0.048529383,-0.0017335233,0.059324257,0.13675287,-0.004487129,0.09411167,0.12613678,0.048779465,0.123879194,-0.07221316,0.0877724,0.08265498,0.011760247,0.0072434954,0.07175398
0.09493634,0.054152474,-0.074897006,0.060769916,-0.08595839,-0.005890012,0.00088348985,-0.13148372,-0.0125376135,-0.026114903,-0.06635314,0.1242618,0.04241422,-0.054977424,0.060403123,0.027682632,0.12221265,0.07066983,-0.12895112,-0.11950831,0.095333084,0.032540113,0.0166689,-0.08224039,0.133506,-0.10481438,-0.07504522,-0.033007853,-0.0899671,-0.059470214,0.10850513,-0.027873255,-0.100338206,0.13065827,-0.023499042,0.04916106,0.019291818,0.09813082,0.11942124,0.006680414,-0.047311172,-0.01689417,0.1259686,-0.047875308,0.13285318,0.09377828,0.10449274,0.02509746,-0.12842086,0.04155475,0.054165468,0.049163386,-0.08843107,-0.075327024,-0.06866581,-0.10779066,0.11566302,0.042157188,-0.007859886,-0.010262266,0.033090875,-0.02802471,0.09182392,0.032235235,0.10594618,-0.08774862,0.016378641,0.0475841,-0.11026202,-0.10929894,-0.02378124,-0.108429395,0.02112542,0.04526764,-0.032618247,-0.04902617,0.018519685,0.046335652,0.039181724,-0.13120002,-0.03714724,-0.037199214,0.061844647,0.06856467,0.11891222,0.11806059,0.033224404,0.110385105,-0.01780244,-0.12772855,0.10776718,0.12881756,-0.021690898,0.04388234,0.12894115,-0.06342962,0.12715709,-0.078317285,0.095323786,0.12527174,0.11433908,-0.11649818,-0.06984954,-0.080977865,0.008288145,-0.06467777,-0.020276017,0.06521331,0.13328779,-0.08847253,-0.06800742,-0.017152369,-0.10675076,0.037002355,0.016749248,-0.07976827,-0.13443068,-0.12189539,0.12145841,-0.01652588,-0.017649554,-0.10920022,0.090546414,0.13630348,-0.12676564,-0.12141058,-0.032325007,0.08451684,-0.0499013,0.040149346,0.052934095,-0.12489931,-0.13436875,-0.06323158,-0.09916344,-0.09533711,0.057283565,-0.004854098,0.0078091174,0.015788645,-0.08331074,0.099997506,0.12968478,0.019445002,-0.071650475,0.023479551,0.11097059,-0.019849747,-0.13553104,-0.13528006,-0.09486683,0.04221934,-0.08192371,0.05999106,0.1291399,0.13465706,-0.04338611,0.08937083,-0.08493244,0.054173037
-0.12563394,-0.0857212,0.104766354,0.06954118,-0.044653755,0.04179165,0.09860592,0.037024684,0.1314496,-0.12742274,-0.026314983,-0.028323656,-0.057258744,-0.108076856,-0.103384756,-0.10433569,0.0045448253,-0.110722154,-0.10077843,0.014749786,0.0890046,0.044122994,0.044776756,0.00965208,-0.11064279,-0.11244228,0.01531317,-0.06263285,-0.0782456,-0.08884515,-0.13072598,-0.08081223,-0.107321,0.050721064,0.028296009,0.0956482,-0.030825203,-0.010804026,0.09517816,-0.08013053,0.123917945,0.04171546,0.07134773,0.11560199,0.13416648,0.11810559,0.066883,-0.026412413,0.088891216,0.12214628,0.12496539,0.08799019,-0.07721419,0.06594359,-0.13655324,0.024138078,-0.052760012,0.12349792,-0.10199842,-0.05973253,0.12071771,-0.039531328,-0.016399367,-0.11918051,-0.072381996,-0.07215652,-0.06824459,-0.045991156,-0.0049184607,0.05702369,-0.009835998,-0.035941258,0.13283339,0.11988464,-0.01794383,-0.1056613,0.066016614,-0.071651965,-0.05851766,0.016744416,0.08032576,-0.074956104,-0.09357229,-0.12153582,-0.09721528,0.09180403,-0.06235227,0.02553274,-0.088630326,-0.0059814756,0.09969503,-0.07170889,-0.039789684,0.023969766,0.10176792,-0.07434695,-0.020204537,-0.0392298,-0.047743905,0.05622377,-0.055144474,0.017337441,0.02411823,-0.0064579695,0.11884893,-0.12719402,0.059535246,-0.08199957,0.12262044,0.027664598,-0.06668554,0.05032449,-0.10483007,-0.091438174,-0.059070148,0.039324366,-0.09623275,-0.12529486,0.10961589,-0.008498707,0.014429807,-0.119640164,0.08193389,-0.059523743,0.058479786,0.10116386,-0.079355486,0.05027613,-0.08685161,0.031080574,0.011807829,0.07944797,-0.04763681,0.082276605,0.077165894,-0.011222562,0.031466994,-0.045595966,-0.0278759,-0.12320097,0.0838224,-0.00664397,-0.008545604,0.043026436,-0.006963554,-0.102269575,0.08582453,-0.103515185,0.13748051,-0.07352096,0.07739352,0.12637721,0.09368249,-0.03941406,0.01667406,-0.0964194,0.09647063,-0.013006699,0.05448805,0.13372314
-0.06527083,0.04471383,0.13799825,-0.0984164,-0.10485017,-0.08445537,0.1188834,-0.061113615,-0.013949696,-0.13229106,0.11456263,-0.1261992,0.106682554,-0.09862213,0.04500893,-0.076732755,-0.12429029,-0.0028541796,-0.06439662,0.038436115,-0.125009,0.03998934,-0.115160786,0.08361874,-0.028510887,0.11661953,0.11940548,0.07445399,0.018132465,-0.047594104,-0.12861075,0.07971175,-0.0491658,0.025453448,-0.10405253,-0.07936831,-0.08132217,0.1306684,0.064299785,0.07656049,0.10653081,0.0028668656,0.02564107,0.021424955,0.08768408,-0.11873429,-0.11943297,-0.027568176,-0.040810693,-0.04308166,0.040029425,0.0996766,0.0011520318,-0.006503584,-0.034815297,0.05479996,-0.005356829,-0.059377234,-0.036046173,-0.033593353,-0.028333731,0.089069806,0.024919262,-0.027063036,0.0751959,-0.03373011,0.046275575,0.024242895,0.07241678,0.041862465,0.1297184,-0.051531646,0.053596854,-0.10160656,0.12861577,-0.032591633,-0.10142655,-0.0742792,-0.13498046,0.085181504,0.08662396,-0.034909442,0.042932168,0.10840858,-0.122007124,-0.08747256,0.04604982,0.08703083,-0.07066096,0.13407253,-0.053686786,0.027074901,-0.09661575,0.097685225,0.071259305,0.03105176,-0.044443022,0.03857613,0.055528622,0.08241651,-0.041332327,0.05249764,-0.0011956841,-0.070432,0.117744215,0.114452235,0.08581484,-0.018303491,0.103482194,-0.07493789,-0.0109970365,0.053382196,-0.07741222,0.04713274,-0.008126887,-0.030125411,0.0033905185,-0.049047295,-0.053564988,0.06722437,0.05781731,-0.011147998,0.12732744,-0.040307093,-0.11890677,-0.12329862,0.08677502,-0.13618137,0.04987891,0.012386292,0.12782457,0.04732129,-0.12604976,-0.044601467,0.058260493,0.13445397,0.035297476,0.13057967,-0.0959193,-0.0030648625,-0.108992144,-0.12751806,0.0819509,0.035623256,0.0055768,0.05302436,0.0045176004,0.12989725,-0.055497397,0.11218072,0.07134321,0.06876135,-0.13226986,-0.02395935,0.061509166,-0.0922202,-0.07036324,0.11005066,0.018066805,-0.04643515
0.09564454,-0.06971651,0.05357314,0.053119596,0.11999452,0.036418986,-0.10699772,-0.024071384,-0.08099353,-0.04653257,0.07082665,-0.039778892,-0.054371424,0.05279922,0.08786463,-0.0098249335,-0.038432974,-0.08102437,0.09040538,0.066377126,-0.047590412,0.07230648,-0.0047243033,0.057947665,-0.05556572,-0.09074988,-0.04612577,0.065811776,0.062338166,-0.06778772,0.05907777,-0.11040706,0.003270954,-0.112342045,-0.062310845,-0.1319886,-0.097351745,-0.015500792,0.11363483,0.04363648,-0.058584727,0.0033592125,0.0142290145,0.04284795,-0.07438298,-0.13332625,-0.012064397,0.13242617,0.090148486,-0.0050987336,0.07147514,0.106296554,-0.102981254,0.018358905,-0.0035730433,0.04720161,0.040619686,0.08756007,0.049940303,-0.022811813,0.07480949,0.06760681,-0.08995482,0.007882279,0.027917096,0.008510164,0.120161705,-0.07097153,0.03728741,0.0772935,-0.10835658,-0.10062762,0.13646618,0.098624974,-0.029706016,0.1034928,0.12887695,0.122058064,-0.10984753,-0.008160283,0.07086579,-0.07353716,0.050875425,0.08375861,0.0651653,0.07338902,0.030318443,0.07652511,-0.026380349,0.13190521,-0.017941091,0.10945728,-0.09757762,-0.0047911135,-0.03751696,-0.13462582,-0.13077268,-0.014924246,0.01613532,-0.11961509,-0.07457991,-0.10060235,0.013900429,0.013277754,-0.00056203717,-0.13067776,-0.0021048533,0.08001034,0.11228914,-0.07405871,0.06518246,-0.011785551,-0.027024088,-0.1272102,0.09119883,0.10029343,0.12655295,-0.13494898,-0.124749236,-0.0034319316,0.072513916,-0.11108104,-0.02721326,0.012506084,0.017969731,0.0709821,0.029438833,0.019228091,-0.015748754,0.06587091,0.07720898,-0.08655365,0.0048299693,0.0076683788,0.08226722,-0.027949197,0.02417216,0.0025501342,0.11284831,0.095975496,-0.13429144,0.13233231,-0.0925793,-0.04011562,-0.09108747,0.116549544,-0.09507674,0.030630182,-0.05523373,0.018752623,0.1304981,0.13403317,0.030134887,-0.06273013,-0.0041240654,0.12157679,0.114749275,0.11962135,0.10760511,-0.13408442
-0.034560833,-0.0056477976,0.10002342,-0.0649103,-0.12944624,-0.10259649,0.08680421,-0.07826481,0.058691435,-0.101706706,0.11375583,0.13079476,0.094401285,0.010858122,0.11428536,-0.07008655,0.061917897,-0.031315677,-0.008045777,-0.051505428,0.110826574,0.10289358,0.022111898,-0.03444482,0.10025218,0.05849123,0.047596037,0.10903952,-0.113204956,0.12706116,0.10929741,0.09350853,-0.085430205,-0.12887228,0.101367176,-0.086704604,-0.027610082,-0.028454592,0.11192016,-0.12067164,0.09379149,0.1227766,-0.04808826,0.0870783,-0.009196311,0.12736657,0.09175958,-0.06628014,-0.07527291,0.09594878,0.12317975,0.121369615,-0.065245025,0.007412323,-0.058936298,-0.06902036,0.124640144,-0.075330265,0.03580658,-0.0996887,-0.09768187,-0.050195586,0.010314952,0.06044438,0.013559478,-0.037896376,0.13528945,0.06187707,0.009226947,0.080762655,0.13209166,-0.07422316,-0.092331216,-0.050815284,-0.11481615,-0.07140148,0.02113071,-0.07226626,-0.011769064,0.07117887,-0.056947414,0.09065523,0.13260585,0.024691623,0.10720516,0.024109747,-0.01484243,0.018365066,0.07484675,0.08604763,0.035152372,0.0072930623,-0.10293912,0.11862103,-0.08536687,-0.0259796,-0.0146975815,0.09641948,0.02794597,0.039996967,-0.12897971,-0.074309886,-0.12820292,0.030870527,-0.010799209,0.10790247,0.102974325,0.096616924,0.1267976,0.11383778,0.1333266,0.09797477,-0.0035036588,0.027138803,-0.05817371,-0.06777256,0.09853014,0.01289426,-0.101310626,-0.091886096,-0.09532377,-0.13438867,0.082644455,-0.02403801,0.08969825,-0.07170253,-0.023139773,0.08927166,0.12262136,0.073721394,-0.1007714,0.035333022,0.057013832,0.08339703,-0.10087333,-0.1032966,0.022394923,0.11059246,0.105630495,-0.0048163305,-0.068017,0.07484943,-0.054507595,0.09407233,0.13271122,0.020994032,0.018324358,0.045935277,0.093979664,-0.012806527,-0.029393477,-0.032593798,-0.0004319189,0.019590449,0.047287278,0.010928739,0.024177447,0.13611676,0.075702645,0.04964692
0.09008927,0.027114961,-0.07669848,0.10161295,-0.08735551,0.12467833,-0.042487487,-0.1291371,0.12553856,0.00852181,0.11131458,-0.115474075,-0.10634054,0.02898455,-0.03615596,0.07141064,-0.07961131,-0.03675061,-0.03636938,0.12700449,-0.067932665,0.05024126,-0.06485645,-0.0034887032,0.089649625,-0.033572588,0.12298522,-0.048436433,-0.10961495,-0.021204192,0.045592103,-0.07598514,-0.02580358,0.057556033,-0.08463438,-0.103687406,0.024734491,-0.06968989,0.1062597,0.015858639,0.062086742,0.0074026864,-6.0311955e-05,0.0482372,0.048799857,0.094244674,0.02315782,-0.0595802,0.10549911,0.045152146,0.12878981,-0.12167939,0.10013566,0.057807673,-0.10766681,-0.10724603,-0.052620992,-0.080749616,0.0032718382,-0.037839983,-0.101036355,0.08686267,0.0773948,-0.023094876,0.05157187,-0.04225709,-0.017794304,-0.058296405,0.120187946,0.042586803,0.05776073,0.07484705,0.018789187,0.08164823,-0.06501286,0.030607566,0.077531144,0.08185277,-0.10867288,0.02340048,0.13312267,-0.088595,0.01315355,0.060080513,0.086604156,-0.04155776,-0.009188059,-0.05007309,-0.09089253,0.056702092,-0.07264109,-0.11480289,0.12352559,-0.049854793,-0.073583536,-0.016205337,0.06803019,-0.10534976,0.023916649,0.100244455,-0.10612387,0.08254367,0.122926414,0.01996252,0.020594189,-0.0003969823,0.10144531,-0.12684865,-0.014982358,0.08539296,0.12333358,-0.11710986,-0.053473603,-0.04621511,0.11439989,-0.0032557878,0.011478647,-0.10700253,0.0020131236,-0.05754779,0.10958483,-0.06687579,-0.048604906,0.12466205,-0.102657236,0.1181987,0.004975962,-0.08315545,0.11042388,-0.020517245,-0.11241625,-0.10784436,-0.014738225,-0.013381831,0.044413324,0.06729389,-0.026693383,0.041938428,0.058741532,0.04401305,-0.11799763,-0.0022060145,0.082530364,0.021063635,-0.089488484,-0.029495986,-0.04349747,-0.1101492,0.08637195,0.09656371,-0.04505727,-0.09422774,-0.042106446,-0.04328676,0.08671181,0.0106703015,0.08305964,0.09772152,-0.13227643,-0.08823657
0.04454963,0.0053069275,-0.043560848,0.1299574,0.00012055758,0.063908875,-0.07125956,-0.0017212216,0.10827354,-0.005231423,-0.10626983,-0.029498238,-0.0018671569,0.1214574,-0.022788025,0.09614794,0.10700815,-0.09006883,-0.018380485,-0.04596573,-0.10003442,0.13044287,0.022605522,-0.060808286,-0.055050474,-0.11313877,-0.06498128,-0.103518695,-0.0661324,0.04875539,0.099258184,-0.101202734,0.0513359,-0.13572353,0.06733626,0.06744172,-0.08024096,-0.027489467,-0.10544402,-0.10619008,0.012363004,0.1170371,0.0630682,-0.020157283,-0.0016601533,-0.123540424,0.019132271,-0.0900003,-0.1269533,-0.017336868,-0.05314016,-0.053449493,0.015619,0.022450926,-0.13798591,-0.06894168,0.07229579,-0.09867617,-0.12876095,-0.13590658,-0.031779833,0.12874006,-0.05394563,-0.017315434,-0.041757476,-0.10194222,0.05940776,0.07665399,-0.017591055,0.0136825545,0.075313315,0.12148955,-0.13524568,-0.0060970783,0.020898536,-0.060598746,-0.06580406,-0.010477271,-0.11539363,0.09916017,-0.034631882,0.014256526,-0.048099708,-0.0145985205,-0.07033962,0.03189666,-0.058977794,-0.13168916,-0.12968838,-0.12086697,0.044964656,-0.075054385,-0.05106886,0.046473864,0.11903469,-0.026671063,-0.05256551,-0.07458582,0.04115033,-0.04178871,0.114385605,-0.13553268,-0.123866305,-0.059277207,-0.053557325,-0.030432807,-0.12440745,0.008702833,-0.007334917,0.0051249396,-0.068852775,-0.020194635,-0.09430493,-0.09999122,0.004875515,-0.08418236,0.009888574,-0.100239165,0.11528927,-0.117485136,-0.040900584,-0.069942884,-0.029755315,-0.13282827,0.018450523,0.046051826,-0.04073147,-0.06516667,0.07897815,-0.041115426,-0.041023657,-0.05906585,0.042771734,0.08857227,0.10843052,0.06736504,-0.083790764,0.13473718,-0.07463108,-0.107219055,0.011429813,-0.12507795,0.0013051847,-0.030017927,0.011896791,0.048017688,-0.019972622,0.1198164,0.031747937,-0.059219163,0.018244445,0.12733532,0.044878904,-0.11479065,-0.020094909,-0.12353295,-0.023695596,-0.02449243,0.11155084,-0.1310741
-0.05732388,0.09881553,-0.09499611,0.06807692,-0.048250943,-0.10490759,-0.030576222,0.045204565,0.12240592,0.13596684,0.10734221,-0.063684165,-0.09901503,-0.020722494,-0.0030401945,-0.124708235,-0.06446916,0.0042150617,-0.0067350417,0.03949383,-0.06903543,0.0511059,0.051062226,-0.10516432,0.121203184,0.08761105,0.13647687,-0.07090407,0.0982098,0.08920185,-0.13187711,-0.07192977,-0.046830148,-0.07417907,0.06680317,-0.10798468,0.11478582,-0.12996149,-0.016222008,0.12585369,0.123648286,0.13401204,-0.028828762,0.015864521,0.049490407,0.039296776,-0.06384077,-0.11694949,0.12949091,0.10594356,-0.08394618,0.040177315,-0.035148956,0.021573111,0.0044188797,0.08003551,0.1181823,-0.13163742,-0.01738704,-0.12587853,0.11427933,-0.082459964,0.0962567,0.06626353,-0.042899378,0.0848425,0.034725174,0.015183777,-0.06873257,0.051693186,-0.11307869,-0.064051144,-0.0094870925,-0.08245722,-0.072643295,0.09760946,-0.057532817,-0.053505607,0.07440646,-0.04980307,0.120964736,0.09468952,-0.036713593,0.023899198,0.040605083,0.027917922,-0.03630998,0.09273738,-0.037606284,-0.12891598,-0.12135959,-0.08354831,-0.023246288,0.13024792,-0.043519862,0.0907325,-0.06610927,0.06456113,0.10754228,-0.043838754,-0.111798376,0.018617854,-0.044134833,-0.027157836,-0.025326155,0.067127064,0.021154389,0.13235515,-0.033306964,-0.03481394,0.0011092424,-0.07297493,0.007322222,0.017895386,0.088500336,0.09395671,0.037363395,-0.13507807,0.108472675,0.022347793,0.046847805,-0.081940755,0.13021678,0.07693909,-0.06663514,0.11574194,-0.056282416,0.04307142,0.06794608,0.038720906,-0.013925396,-0.028698638,-0.10213326,0.060657084,0.0716681,-0.10293673,-0.021930985,-0.06928146,0.13314041,-0.0897071,-0.061938085,-0.049709633,0.057907566,-0.05718389,-0.055791534,-0.06374352,-0.05209866,-0.03452821,-0.03707809,0.034356073,-0.026737183,0.043825567,0.014833897,-0.03337986,0.026637703,-0.09786077,0.040520117,0.06980492,-0.018157989,-0.057876103
-0.07603137,-0.056171387,0.075367175,0.017106902,0.10091594,-0.04689982,0.013251579,0.063300915,0.07896246,-0.06882357,-0.09463369,-0.04556577,-0.12793852,-0.06401289,-0.05112795,-0.11999548,-0.10962111,-0.008770345,-0.06691754,-0.06942357,0.12167156,0.06046709,-0.067520365,-0.116780594,-0.1227855,0.04210581,-0.062663935,-0.11141824,0.040400464,0.020696152,0.091434225,-0.11992564,-0.050597854,-0.026992217,-0.1294844,-0.023377076,-0.12098349,0.0056467443,0.02444887,-0.10714467,0.06885067,-0.05410708,0.070613645,0.0854898,-0.029954202,-0.055577926,-0.07510301,-0.048304938,-0.13076915,-0.1287523,-0.09626786,-0.045911167,0.0786112,0.13325511,0.07067065,-0.027853899,0.10658904,-0.11490539,0.12110648,-0.13579333,-0.0001215075,0.009105843,0.08523424,0.02789729,0.018435476,-0.118846215,0.12076951,-0.039664544,0.11335275,-0.13163386,-0.11169767,0.04870485,-0.07369364,-0.06490989,-0.0050390363,0.07252078,0.08934584,-0.055975657,-0.055927187,-0.009221361,0.10012897,0.1281369,-0.0003362288,-0.021160424,-0.010301695,0.010277358,-0.10640916,-0.08611894,-0.12805149,-0.019070337,-0.06265812,-0.012629714,0.13049264,-0.021908654,-0.013040573,0.07004866,-0.02206587,0.12476431,0.09664669,-0.12208849,-0.09767087,-0.13659957,0.035532326,-0.07892245,-0.055525336,0.038748357,-0.13434075,-0.08292252,-0.07352578,-0.09640576,-0.03976928,-0.11996419,0.10910997,-0.012491532,0.014006937,-0.0966432,0.0017047055,0.11027351,0.13465208,0.1010308,0.09694091,0.11782839,-0.118534796,-0.039412156,0.018409416,-0.05289854,-0.0276708,-0.048392624,0.035216868,-0.02430173,0.076190576,-0.0860139,0.02914361,-0.1288584,0.12528472,0.003492867,-0.03056136,0.019085048,0.13670552,0.1279477,0.046920728,0.099646814,-0.048537992,-0.1294384,-0.025463274,0.06936402,-0.008532208,-0.062721536,-0.0016026709,-0.040782463,0.040341713,0.06130631,-0.010606776,-0.11653609,0.018371666,-0.09542529,-0.121669315,0.0020316099,-0.13319981,0.023289563
-0.019929,0.10537956,0.04323071,-0.065687776,0.04936312,0.06938323,-0.07634023,0.041617494,0.09227546,0.10436142,-0.13289177,0.061375313,-0.08280153,0.0024578404,0.01323851,0.08363308,0.10902202,0.082922995,0.056069285,0.016952408,0.09718145,-0.025090354,-0.057324063,-0.038373336,-0.07681243,0.11052579,-0.014985337,-0.12033431,0.11894688,0.12348019,-0.08440537,0.045809254,-0.030740239,-0.10243021,0.12520447,0.016685158,0.078327626,-0.08903148,-0.09757619,-0.07267154,0.035446927,-0.06626439,0.061564263,-0.11418612,0.057259247,-0.094331324,-0.08108619,0.04513964,-0.10647032,-0.047773413,0.026873525,0.018865563,-0.011083759,0.11854996,-0.006593764,0.04972781,0.09623591,0.10004515,-0.11871535,-0.020087652,-0.09451874,-0.10596225,0.08137644,-0.12560584,-0.12757337,-0.13464999,0.052981123,0.037956297,0.13809331,0.09718412,0.05082896,0.109739065,-0.07376158,0.015277788,-0.09996277,0.1111345,0.03215475,0.11990718,0.067318,-0.04210887,0.057177953,-0.094268724,-0.04470629,0.0051989965,-0.10883246,0.083477244,0.0966308,-0.06506857,-0.06209666,-0.08999861,0.06339834,0.0683887,0.12325102,-0.028300745,-0.08786503,0.13218915,-0.07687605,0.0383052,-0.1362218,0.052039612,0.13448787,0.054127112,0.12303129,0.007181421,0.13186789,0.09799555,0.12498275,0.089373685,0.021553794,0.119006984,-0.10310543,-0.016937608,-0.050654873,0.072005145,0.064849116,-0.13719895,-0.06598264,0.029709522,-0.04924427,-0.058425717,-0.09990839,-0.0022959732,0.09144901,-0.037591603,-0.029713886,0.06155614,0.083686136,0.116600744,0.12105298,-0.0016033798,0.07317051,-0.040939264,0.07689465,-0.07973629,0.070114985,0.07367764,0.036986735,-0.071971394,0.02250219,0.015738321,0.045661576,0.094081834,-0.020117806,0.024406651,0.12590668,0.10169194,-0.09867016,-0.13235739,0.10499278,0.11349682,-0.11732749,-0.012707445,0.04602765,-0.075389296,0.021875367,0.025461905,-0.09327554,-0.12603126,0.049236707,-0.07866494
0.09221584,0.12664887,-0.016917417,0.03929799,0.12480876,-0.042586945,-0.040861037,0.11544594,-0.047437515,0.100964725,0.06176354,-0.050805315,0.059389982,0.09790945,-0.07312878,-0.02370616,-0.024563665,-0.05940723,-0.035083283,-0.033230178,-0.04306467,0.06533802,0.07070099,0.027308745,-0.093738504,-0.045538906,0.07552458,0.13580723,-0.12615699,-0.044540394,0.0352713,0.075996295,-0.09866306,-0.062360764,-0.07797985,-0.0593806,0.013614584,-0.104287244,-0.06797359,-9.29542e-05,0.045909576,0.13123631,0.03989594,0.11657592,-0.018776424,-0.12300133,-0.048073247,-0.11530191,0.11877297,0.07405911,0.100312896,-0.1336715,-0.10868704,-0.090939954,0.025049988,-0.0724959,-0.12377429,0.05737604,-0.04123392,0.054019846,0.09794908,0.13377465,0.06545954,0.10624429,0.0040737274,-0.06688152,-0.077825844,-0.08347115,-0.059973348,-0.012817585,-0.1179701,-0.10313743,0.07558288,-0.0039857775,0.10311961,0.096058995,-0.004997374,0.07873997,-0.039009973,-0.044782378,-0.07130486,0.09529526,-0.07083979,0.054322332,-0.048606005,-0.098025404,0.02176171,0.06475334,-0.03270854,0.07270961,0.02301052,0.0440335,0.023834933,0.0150636975,0.095902115,-0.09027895,0.020034628,-0.07330719,-0.07871716,0.014268687,-0.013589822,0.020566672,0.04698895,-0.01828757,-0.09566083,-0.05693517,0.015628796,0.0012447417,-0.06958793,0.06831659,0.10384682,-0.061122317,0.116237596,-0.059864845,0.072630025,-0.011847007,0.0416162,-0.121902846,0.06250658,-0.08640819,-0.031843517,-0.053837657,0.064841606,-0.05598106,0.12878191,0.057882544,0.010177172,-0.06868051,0.017876476,0.06153898,-0.029292285,-0.030740365,0.08645206,0.07400199,-0.06721303,0.026019577,-0.07631752,0.025921369,0.058852147,0.039775956,-0.019138083,0.0688651,0.07779202,-0.0845163,-0.088930905,-0.014963249,0.103466064,-0.108615845,-0.098475374,0.043889813,-0.13100462,0.085094586,0.06791774,0.056882534,0.009020187,-0.037954476,-0.13104512,0.11910427,0.10412099,-0.11861166
0.039393466,0.06013092,-0.05582938,-0.09908031,0.122381225,-0.062963225,0.10469249,0.04054426,-0.122832276,-0.044406127,-0.018487593,-0.0080087725,0.10968667,0.059806716,-0.11882,0.086672865,0.012221914,-0.0033797852,-0.08712355,-0.06178384,0.051691625,-0.052147288,-0.031878963,-0.05276829,0.105084546,0.13494836,0.0068908534,0.028235648,-0.037422888,-0.01406371,0.07412602,-0.10504369,0.008122891,0.121713966,0.10676421,0.09050417,-0.11335841,0.041700393,-0.033605423,0.026085608,0.12586388,-0.13095541,0.1001514,-0.13007507,-0.0077777505,0.11006522,0.048320875,-0.13067535,-0.026984163,0.0096494,-0.07610512,-0.08690862,-0.011562957,0.13476233,-0.02373192,0.0032608393,0.12728891,-0.11040745,-0.10150764,0.055243187,-0.09530341,-0.012530268,-0.099789865,0.012083005,0.117124125,0.10206764,0.12635048,-0.09834998,0.022144169,-0.046244446,0.0807953,0.0035365752,0.104440644,0.022219777,-0.083889276,-0.09287864,0.028584078,-0.10256733,0.054475863,-0.0607577,-0.10208614,0.04797433,0.07207444,0.090260044,0.05802929,-0.054359436,0.03985822,-0.114926204,-0.0020602632,0.072939366,0.034942105,-0.09291133,0.051991463,0.054762185,0.0517854,0.09490285,0.03343773,-0.009080685,0.1116673,-0.07364727,-0.027714401,0.1209549,-0.104643926,0.019422993,0.12597157,0.09449257,-0.013507975,-0.082996294,-0.08218048,0.10273157,-0.10803533,0.12529501,0.0054541132,-0.04779106,0.025217308,-0.019820578,-0.058326676,-0.0056428756,-0.10491313,-0.11546393,0.095497794,0.063752495,0.08382179,-0.0043205325,0.033873793,0.062159058,-0.032635886,-0.040002726,-0.1302964,0.08411223,0.08997618,0.02286309,-0.03299337,-0.04310448,-0.13492343,0.015941635,-0.021123461,0.06048461,-0.07001027,-0.043867234,-0.10858057,0.08284447,-0.06780194,-0.022052728,0.025998052,-0.038019527,0.10795712,-0.13712871,0.027264897,0.10735486,0.0057355803,0.030232003,-0.1105076,0.0416341,-0.1073211,-0.012463045,-0.122323275,-0.041404847,0.118567556,0.03154375
-0.09171972,-0.003825493,-0.040983442,0.046845667,-0.03218249,0.1076894,0.059136905,0.13030276,-0.09548004,0.07880246,0.08715329,-0.021711241,0.11379334,0.020728424,-0.047752116,0.09610744,0.020679379,0.10673985,0.104851685,-0.010413584,-0.10028343,-0.034943286,0.117459275,-0.07005706,0.03815074,-0.101757854,-0.04053251,0.13479778,0.049701013,-0.11578318,0.13416967,0.06865182,0.06669815,-0.090225466,-0.103077635,-0.11958618,-0.12986305,0.10208163,-0.12774162,0.01724077,0.12436024,0.06330793,-0.07806898,0.12580918,0.12709498,-0.088891774,-0.06488837,0.034838617,0.070623204,0.065183386,0.13145019,-0.05368279,-0.077386014,5.3814787e-05,0.08042805,0.1251709,-0.11259651,-0.065702654,0.011391844,-0.13877782,0.009279173,-0.0315682,-0.1063948,-0.004116282,0.011566509,-0.0061100656,-0.13609038,-0.031992868,0.0845989,0.095712274,-0.021972723,-0.03619846,0.08336529,0.046301335,-0.113810666,-0.085648224,0.013191003,0.012318265,-0.12977687,-0.0067734015,-0.03552669,0.06912261,-0.10046597,-0.11161624,0.021056099,0.056825444,-0.068868145,-0.10535871,0.11587674,0.013378263,0.11251474,-0.10527212,0.034283385,-0.10130698,-0.00264244,-0.072052374,0.0010652323,-0.020619795,0.091598615,0.053683646,-0.1055362,0.033680737,-0.008471683,-0.05300924,-0.08321572,0.02389103,0.05448119,-0.01195815,-0.1181114,0.07343638,-0.09121952,-0.016225304,0.060725234,-0.10817916,-0.120677724,0.060084596,0.09240465,-0.11379989,-0.1350008,0.04832259,0.08517137,0.0813419,0.06358684,0.06682358,-0.025955485,-0.0057511786,0.0942373,0.067600854,-0.07920325,-0.0021741092,0.05131948,0.09961851,0.084374994,0.13176003,-0.13238972,0.0677575,-0.110718906,0.11775864,-0.006588494,-0.1228509,-0.10990848,0.10260615,-0.06958223,-0.09590451,-0.09962752,0.0010134362,-0.12433286,0.116150945,-0.10787336,-0.027813597,0.0065301275,-0.021268733,0.105680175,-0.10599848,0.0040606856,0.13320296,-0.021511743,-0.009454405,0.1374019,0.013463207
-0.11614273,0.121422306,0.111035824,0.033850268,-0.06902437,-0.030934704,0.13067295,-0.12516293,-0.107096985,0.016282493,-0.06669847,0.053391006,-0.0017614812,-0.06025374,-0.099597916,-0.1171971,-0.032743484,-0.049943797,0.040005747,0.1233762,-0.029703436,0.0059265676,0.09094313,-0.011999024,0.033868402,-0.07011766,0.009869478,-0.10379959,-0.09672085,0.11123821,-0.03963296,0.0045286994,-0.100116074,-0.028181344,-0.0006225109,-0.03677337,-0.060818966,-0.012808094,-0.062413074,0.008002284,-0.009384925,-0.12452255,0.13491185,0.13384506,-0.06571509,-0.035719655,0.08579256,0.04941888,0.02093683,0.08753622,-0.04955053,0.00600893,-0.08144103,-0.02851846,-0.13496937,-0.008911633,0.039321564,-0.13397755,0.13165784,-0.13489482,-0.093332954,0.068107784,-0.045394808,-0.060175583,-0.06483854,-0.02422538,-0.008404896,0.06939688,0.03402005,-0.09962602,0.041236542,0.01057679,-0.10658354,-0.029907152,0.12710586,0.0056076795,0.066509165,0.061889805,-0.014562695,-0.058918666,-0.1202047,0.083626464,0.09167677,0.095020525,0.064512454,0.10091052,0.00042629085,0.067564614,-0.113688596,-0.10745652,-0.046306048,0.09544509,-0.13472058,-0.054234054,0.018847063,-0.042114306,-0.10107443,0.10780739,-0.096251585,-0.009850629,0.0655306,0.015645787,-0.022197805,-0.07734056,-0.07594262,-0.054076076,0.066138126,0.09264696,0.097140245,-0.075337306,0.06405836,-0.13272423,0.09437141,0.071647204,-0.085106954,0.035745252,-0.056806337,0.1329405,0.097400635,-0.118314095,-0.03205383,-0.09177353,0.040220205,0.13014442,0.06272359,-0.0026490605,-0.10950168,-0.017912244,-0.06755376,-0.051117234,-0.008623749,-0.0066403598,-0.041756146,-0.058345165,-0.12566368,-0.10095725,-0.12689687,-0.027432635,-0.11464033,0.058331754,0.0044671483,-0.0029731311,0.07453438,0.022591447,-0.005855271,-0.09047146,0.07587187,-0.029812565,-0.032886975,-0.03137502,-0.11695038,0.12457176,-0.13124438,0.04240152,-0.010278406,-0.018601863,0.019446462,0.010780077,0.057514675,-0.064063996
0.05745526,0.10256949,0.009001027,-0.09416947,-0.01354305,0.055416092,-0.10852295,0.020300053,-0.040776975,-0.026217204,-0.008126056,0.0074100425,-0.011384478,-0.053219453,-0.13106674,0.10410702,-0.062018503,-0.04663858,-0.00516202,-0.025633771,0.113869615,-0.1288578,-0.022835247,0.1363323,0.07476452,-0.018204251,0.104070395,-0.0783936,0.0731698,-0.07312733,0.062033143,0.06455749,-0.0949094,-0.0419076,0.0107405335,-0.10356127,0.051910754,-0.13276342,-0.06155723,-0.042302184,-0.13085304,-0.0487671,-0.042474605,0.13185753,0.03088744,0.044548497,-0.080302075,0.0068594515,0.10326339,-0.03551791,-0.11828302,0.12526137,-0.100199066,-0.13612923,-0.012059825,0.078865945,0.028794512,-0.05637797,0.08023744,0.06966522,-0.0030833078,0.122388005,0.05610733,-0.07179554,0.11265918,0.051074322,-0.0896905,-0.002270631,-0.07418631,0.07191314,0.038390532,0.041903216,0.057391196,-0.13606495,0.08754921,0.13217124,0.07866517,0.015907098,-0.09676951,-0.042997036,0.0029922158,-0.12826535,-0.013570743,-0.096819036,0.1188641,0.10897237,0.08617682,0.042877465,-0.0345219,-0.054045048,-0.035333715,-0.032758225,-0.00012085616,-0.06957062,0.11030632,-0.030893244,0.06754923,-0.1027907,-0.052212507,0.052800912,-0.030168593,-0.05292727,0.032315046,0.09359017,0.038261052,-0.02318237,0.08012284,-0.053146426,-0.10286918,-0.030511241,-0.003815487,0.038984485,0.09189273,0.0994946,-0.13202555,-0.047765102,-0.0974525,-0.009062167,0.07019476,-0.04862012,-0.049015123,0.12100354,-0.0092013795,0.11506065,0.043945685,0.038608313,-0.10711952,-0.024509199,-0.07652494,-0.096034996,0.019556582,-0.052380435,0.02029913,0.111391395,-0.0918573,-0.07479133,0.04972397,-0.042920522,0.04296521,-0.10524618,0.11031571,0.09692952,0.02318273,0.104826204,0.011867559,0.12982953,-0.041499715,-0.026834195,-0.0072215535,-0.009294742,0.1132361,-0.10531033,-0.1164173,0.044729147,0.024292633,-0.05852011,0.031211782,-0.113465086,0.027969081,0.054629702
-0.020069301,0.12336731,-0.08835621,0.037791327,-0.02160184,0.13300824,0.08811495,0.0997154,-0.050825633,0.05488859,-0.016750067,0.091062784,-0.13365513,0.021243766,-0.0071620643,-0.1280528,0.08484922,0.052559987,-0.012697063,-0.096776865,-0.07309415,-0.11071908,-0.10533353,-0.021392442,-0.13402599,0.009817392,0.12289286,-0.07372929,0.10070287,0.10951637,0.10424793,0.10359828,0.08969349,0.11963835,-0.078248456,0.007722512,-0.016404465,-0.014987044,-0.023847088,0.003351286,0.07177548,0.04136406,0.08424631,0.10421714,-0.05989237,0.07568118,-0.103527896,-0.051271617,-0.020105831,-0.11423161,-0.13202849,0.034812167,0.122736335,-0.09148583,0.11622468,0.108608425,-0.12620007,0.03646806,-0.115304485,-0.12233207,-0.024943143,0.07723844,0.032337934,0.009063184,0.04766673,0.06534128,-0.127441,-0.05663281,-0.017113589,-0.046687745,-0.13503534,0.009370118,0.081559464,-0.09768836,-0.04510036,0.06746404,0.09388602,0.042547256,0.07473746,-0.13442442,-0.07598424,0.017354324,0.10194975,-0.10157265,-0.10795899,0.047532156,0.022145107,-0.09019488,-0.12912342,0.0750002,-0.05285874,-0.101756416,0.015551671,-0.121619254,-0.13321029,0.08452286,0.10680002,-0.042661086,-0.055062763,0.06148772,-0.09796191,0.058704123,0.09384489,0.098164216,-0.1103992,-0.09606115,-0.12918052,-0.03305594,0.09242354,-0.07985188,-0.029423915,-0.08605284,0.118196994,-0.062265106,-0.066246904,0.04917468,0.041235134,-0.004355505,0.10631326,0.026136607,-0.1006206,0.038015082,0.06061563,-0.05530598,-0.039312735,-0.051526524,-0.05894368,0.11845723,0.01137957,-0.0035453737,0.036545858,0.053209722,0.13685915,0.06356037,-0.08722225,0.09003843,0.08836375,-0.13604622,0.07977329,0.101414114,-0.0020319372,0.12334505,-0.08567829,0.07439838,-0.0076528043,0.035441175,0.08469483,-0.05064232,-0.12143458,0.10022691,-0.06707372,-0.09635131,-0.0069848895,0.0010147989,0.05801393,0.07964516,-0.046462126,-0.011579856,-0.058626555,0.044758648
-0.09086205,0.110363364,-0.06964919,0.12893556,-0.056698825,0.068425015,0.10335377,0.0038732642,0.031516068,0.10262757,-0.031080173,0.01888069,0.13290973,0.035985865,0.12899746,-0.09219266,-0.08170414,0.06993016,0.024636634,0.073076405,-0.018346513,-0.06318544,-0.11710066,-0.08952401,-0.091606505,-0.12807284,0.030034455,-0.03860786,0.03564158,0.11596949,-0.05552802,0.05864056,0.13345957,-0.07695353,-0.08854085,-0.023713008,0.10540362,-0.02126156,0.12101856,-0.1277408,-0.010308245,0.06646439,-0.042016182,0.058492657,0.0526122,-0.04359319,-0.06896573,-0.051505074,-0.07857975,0.06469245,0.10204424,-0.103681505,0.085104935,-0.004261669,0.014081829,-0.012976339,-0.13176386,0.12902556,0.06613506,-0.014807509,-0.065884426,0.088676065,-0.00022152299,0.050143704,0.099796966,-0.09919088,-0.0120163,-0.050617337,0.026113871,0.06925503,0.12768403,-0.09040454,-0.112092234,0.046481907,0.06839599,-0.025971748,0.00055423094,-0.08289301,-0.06637324,-0.077704065,0.053742077,-0.02379523,0.06618176,-0.10414019,-0.034294438,-0.13426204,-0.056551225,-0.12419021,0.11149391,-0.11720918,0.010066909,0.0154767325,0.076482095,0.05469758,-0.089337245,-0.00021474584,0.09822255,0.12153458,0.026514562,0.102640435,0.088358596,-0.07407858,-0.013845347,-0.05792605,0.07427822,0.082913786,-0.11730475,0.098642714,0.13536653,-0.058566213,-0.027383825,-0.024825307,0.045101352,-0.025961801,-0.05325681,-0.12706298,0.029386362,0.05384301,-0.01573296,-0.104757465,-0.0112255,0.037856266,0.03597392,0.06045848,-0.09823996,-0.09178319,0.025640298,0.070064925,0.08426377,-0.037787803,-0.04173924,0.07835424,0.082502365,0.057676435,0.111100085,0.05262209,-0.009880674,0.11755172,0.023370897,0.024228675,0.0032326807,0.040764857,-0.005406742,-0.10989015,-0.022010166,-0.024759047,0.07926431,-0.0708231,0.12723489,0.13512534,0.002766491,-0.008153954,-0.0571667,0.13385127,-0.10863931,0.11645628,0.12774144,0.059122313,0.13665505,0.12971611
-0.01822196,0.09653365,-0.12733783,-0.0112285465,-0.0763977,0.013153839,-0.034234777,-0.039971266,0.093932316,0.10556644,-0.06506484,-0.12024356,-0.098075055,0.11163292,0.13083197,-0.07691206,-0.019753559,0.08463894,-0.13253476,-0.08146162,-0.009772894,-0.011619168,-0.12209448,-0.016053168,0.109065026,0.08947773,0.08667739,-0.03417605,-0.0061089434,0.13357426,0.08594714,0.11209142,0.06527156,-0.051414445,-0.010358542,-0.053420037,0.060538884,0.09451897,-0.0006883379,0.023402594,-0.09332733,0.051770758,0.06643373,-0.07511402,-0.057551883,0.048727065,-0.06342955,0.020261496,-0.11266399,0.08530417,-0.045485687,-0.03122251,0.08843476,-0.12602921,-0.011360522,0.12957387,-0.081858285,0.09227169,-0.10340028,-0.13450454,0.08660564,0.049575545,0.08273808,0.07507194,0.06899595,-0.0731186,-0.0066333553,0.0142894145,-0.044353183,-0.09133901,-0.0745213,-0.11703401,0.09425686,0.020465732,-0.05674675,0.09977348,-0.09540454,0.03288807,-0.042919,-0.058304872,-0.118895106,0.11547426,0.08713182,0.0564592,-0.00070992875,0.11989822,-0.019358296,-0.005966884,-0.12276959,-0.065373674,0.13449696,0.122258306,0.016536474,-0.030570732,-0.08258816,-0.024409821,-0.057898566,0.11104486,0.122299105,0.13387418,0.058126867,0.0006581992,0.016279787,0.12815419,0.005559874,-0.009513623,-0.07670826,0.13132769,-0.12306866,0.115286715,0.08856391,-0.08618767,-0.02217087,0.052758284,-0.08128721,0.046709053,0.0405906,-0.069256045,-0.0074660084,-0.04405906,0.108922556,0.002961976,0.12235032,-0.00767509,-0.020457406,0.07584193,-0.047944404,0.09286583,0.11092204,0.05988404,-0.056730658,0.1331751,-0.08172512,0.092393555,0.09004404,0.096389316,0.11337853,0.081435025,-0.05935723,-0.118255265,-0.12479926,-0.006817756,-0.13192242,0.065963,0.0008810266,0.0063251117,0.080416486,-0.00062333944,-0.05040053,0.027191076,0.091546334,0.0129574165,-0.08952159,-0.08177398,-0.027245574,0.03833854,0.13514067,-0.060359612,0.09860127,-0.024676742
0.097807616,-0.090905435,-0.06344944,-0.05953989,-0.033502106,-0.048784,-0.061437055,0.120759845,0.0015935292,0.0441667,-0.036614344,-0.13507062,0.006171756,0.010336561,-0.11179386,0.07933471,-0.12289872,0.043718543,0.09132785,0.08366236,-0.13364048,-0.13482328,0.09205722,-0.05070252,0.008183226,0.054446924,-0.07680969,-0.038087204,0.11599825,-0.004470323,-0.10843654,-0.05185312,-0.048526414,-0.12945573,-0.013814494,0.028880581,-0.0976056,0.01066117,-0.005609841,0.05320868,0.080773644,0.116369076,0.09245765,0.04272002,-0.060689606,0.12736487,-0.05640559,0.00283508,-0.0031304006,0.038630553,-0.05112433,-0.05693602,0.07552187,-0.082060225,0.09043248,-0.09772565,0.05562441,0.034484208,-0.03600502,0.069483355,0.094959244,0.07762575,-0.07035867,-0.08541277,-0.050816562,-0.12252902,0.047534835,0.021784008,0.04905466,-0.022763206,0.06991568,0.0059927404,0.09789632,0.12120879,0.07035361,-0.03555303,0.075624704,-0.076450266,0.041083444,0.05711114,0.009625807,-0.12985416,-0.03409385,0.08934602,0.103667066,-0.10982226,0.060089976,-0.11766945,0.04384072,0.09259001,0.07418616,-0.11203656,-0.08206394,0.08197251,-0.06455185,0.008200858,-0.110105604,0.060841426,0.042414214,-0.06384446,-0.13117364,-0.11989965,-0.08451413,-0.009257749,-0.033363447,-0.08888179,0.12544525,0.0998581,0.101892486,0.0888572,0.10243781,-0.11547412,0.048146065,0.1154176,-0.124527924,-0.10060428,-0.0049125953,-0.106286064,-0.044901002,0.072666906,0.092264526,0.019574566,-0.07542422,0.10509841,0.041506283,0.121222734,-0.059820868,0.02574229,-0.0049008727,0.070198864,0.08440778,-0.061628528,0.11718081,-0.06255003,0.0011541278,0.10118519,-0.01451019,-0.026841551,0.019977368,0.11011892,-0.053548362,-0.052406725,-0.11141064,0.057512734,-0.09348637,0.05559241,-0.05154269,-0.09966217,-0.0641575,0.11497042,0.045043692,0.10966049,0.011566873,-0.08432569,-0.12767655,-0.01801229,0.07058604,-0.119355224,-0.05257009,0.07086446
0.049064163,0.1239347,-0.05725805,-0.048107296,0.0562448,0.0383542,0.02282421,0.07922902,0.1210672,-0.07876932,0.027880218,0.13368763,-0.021258662,0.1369539,-0.11806013,0.120849356,0.024027424,-0.008466134,-0.09217804,0.115349926,0.057695437,-0.056935865,0.096944615,-0.050140418,0.100155115,-0.07915751,0.092913434,-0.003606319,-0.07557595,0.11056562,0.09280155,-0.04057965,0.01022923,0.038187176,0.13478273,-0.026855886,-0.094720975,0.12074069,0.04577807,0.11983131,-0.034288097,-0.034560505,0.028353345,-0.08995842,-0.08324826,-0.08757487,0.099818826,-0.057080105,0.052239623,0.05443337,-0.1314276,-0.111755714,0.1219903,-0.13522623,0.07747061,0.0060460484,0.10041731,-0.06038002,0.030774409,-0.10904628,0.016124967,-0.104318425,-0.049256038,0.13465652,0.100112036,-0.09626883,0.11884239,0.11631935,0.13879707,-0.07081524,0.10900919,-0.03965609,-0.12070874,0.054697603,0.062437147,-0.08058552,-0.06186177,-0.1109296,-0.021883963,0.08726379,-0.01725544,-0.047285363,-0.11215329,0.07212555,-0.08947668,0.0016757895,-0.028927708,0.016824163,0.120110095,-0.011272413,-0.09327544,-0.017088883,0.11865466,-0.041577943,0.062255207,0.077278025,-0.07901154,0.019338425,-0.06657246,-0.0014056806,0.0011086911,-0.05514203,-0.09179026,-0.12489402,0.007261535,0.01892805,0.12723841,-0.11781908,-0.050028075,-0.11013147,-0.09634443,-0.06750386,0.05981253,-0.080472045,0.12474639,-0.090967625,0.042914666,0.12965511,0.027842639,-0.11477716,-0.09056785,0.11173746,-0.09690082,0.09051791,-0.041317686,0.07049493,-0.060213488,0.13167603,-0.09840232,0.0003335923,-0.013280593,-0.098768845,-0.09380865,-0.07190062,-0.039912406,0.11600359,0.07126699,0.072927415,0.105261356,0.052238766,-0.025725009,0.08455628,-0.011444286,-0.020651003,0.021350987,0.091097906,-0.11777506,-0.11736108,-0.039646365,-0.09914857,-0.036551554,-0.0062792674,-0.084228955,0.03664844,-0.06695473,0.116970204,-0.118831515,-0.104819514,-0.036532313,-0.026878145
0.042731643,-0.08578602,0.08776885,0.11294158,0.03216213,0.052202865,-0.008812383,-0.12671643,0.056172,0.07626556,-0.112252265,-0.089005515,0.026833951,0.015436724,-0.055179603,-0.11245977,-0.074246615,-0.08651154,0.120617956,0.0015453994,-0.06789658,0.08806124,0.058177173,-0.1369153,-0.08801119,0.11987811,0.09755631,-0.062103376,-0.10440825,0.10050464,-0.117971174,-0.009956554,0.014577091,0.0979276,-0.11864739,0.07653257,0.096243545,0.005955532,0.022580564,0.09293078,0.030410111,0.025426477,-0.05786334,-0.053782254,-0.08212641,-0.026951022,0.12407431,0.0921624,-0.0075427145,-0.10509521,0.08363381,-0.08312129,-0.033787556,-0.0078419,-0.090847254,0.13540971,0.10809372,0.060229897,-0.090553865,-0.034202985,-0.108705945,0.062393412,-0.06862784,-0.08844824,0.09090534,-0.092493206,0.109170154,-0.10153696,0.07271519,-0.082733646,-0.004541591,0.061285734,0.015063763,0.09274009,-0.056774862,-0.13394202,-0.028775878,0.105952635,-0.025629446,0.103613764,0.086170405,-0.035180368,0.041816443,0.043568924,-0.068219885,-0.07383138,-0.060158506,-0.062403135,0.047072455,0.06831682,0.046478808,0.012610614,-0.03740593,0.013948649,-0.003680572,0.110762924,0.023969159,-0.0028307736,0.03595929,-0.08016802,-0.06904441,0.029459476,0.07644273,-0.045841902,-0.1352291,0.012476429,0.014124513,0.11627361,-0.10170072,0.027998492,-0.050769873,-0.032223903,0.08889051,-0.027577579,0.10160977,-0.054081924,-0.102931604,-0.11041233,-0.09473729,-0.009705707,-0.11254459,0.06857827,0.09291178,-0.12415771,0.050159708,-0.07624574,0.018444136,0.0047121495,-0.009830743,0.009254813,-0.056926765,0.07764442,0.08184497,-0.016701229,-0.015138097,-0.10193607,0.1136097,-0.11000699,-0.07858521,-0.036767945,0.036051407,0.08110963,-0.012181632,-0.06940686,-0.017211102,-0.13014115,-0.113918856,0.10937469,-0.12828316,-0.0013443232,0.07748377,-0.015518658,0.006813392,0.08505401,-0.04266151,0.06434813,-0.03573265,0.017903998,-0.059881173,-0.02177973
