0.0,0.000999993,-0.0009955725,-0.0009950227,0.0,0.0009999948,-0.0009985432,0.0009999918,-0.0009507208,0.0009999984,-0.0007844218,0.0,0.0,0.0,-0.0009981152,0.0,0.0,-0.0009981747,0.0,0.0,-0.000994505,-0.0009972693,-0.0009920058,0.000999991,0.0,-4.0620445e-05,0.0,-0.0009988993,0.0,0.0,0.0009999978,0.0,-0.0009971265,0.0,-0.0009969894,-0.0008340681,0.0,0.0,0.0,-0.0007940035,0.0,0.0,0.0009999907,0.0,0.0009999885,-0.0009581473,-0.0009993839,-0.0009981345,-3.496333e-05,-0.0007905446,0.0009999977,-0.0009915873,-0.0009993264,0.0,-0.00065759924,-0.0009060353,-0.000998914,0.0009999874,-0.0009975481,-0.0009993468,0.0,0.0,-0.0009994428,0.0,-9.012021e-05,0.0009999918,0.0009999897,-0.0009897101,0.0,0.0,-0.00092851376,-0.0009877463,0.0009999998,-0.000110475434,-0.0009992803,0.0,0.000999995,-1.716148e-06,-0.0009988601,-0.0009509901,0.0,0.0,-0.0009703392,0.0,0.0,-0.0009935495,0.0,-0.0009802694,0.0009999949,-0.00012697242,0.0,-0.000995396,-0.0009900897,-0.0009674925,0.0,-0.00099942,0.0009999858,-0.0009989593,-0.0009954439,0.0
