0.43177623,0.2968256,0.40830982,0.07236527,0.110452466,-0.034293707,-0.27936947,0.2807981,0.06521566,0.32938316,0.34688446,0.31196484,0.07617766,-0.05396284,0.43423507,-0.41381702,-0.12432977,-0.26726896,0.4145112,0.090196125,-0.1114458,-0.37243196,0.4590974,0.32862946,0.3586329,-0.3269724,-0.061824642,0.054462213,0.35097203,-0.02521521,0.02052606,-0.3231806,0.04954907,0.04912025,0.050170965,0.049565595,-0.24825165,-0.11047179,0.06902198,0.33668074,0.22465533,0.23904471,0.12188398,0.17491865,0.14859612,-0.14199878,-0.14790097,0.15807365,0.14344744,-0.14696741,-0.14940266,0.16977404,0.12449061,-0.19563606,0.25185844,-0.033667516,-0.2255194,0.1962175,0.24070811,-0.20848785,-0.3824777,-0.09682735,0.11501952,0.4216319,0.240566,0.3373089,-0.24633302,-0.25173095,-0.21281885,0.300825,-0.22957073,0.21592699,-0.34853113,0.2282808,-0.08036473,0.17475785,0.124535024,0.1666738,-0.0016639705,0.2584179,0.050672326,0.29449564,-0.30793172,-0.0155699765,0.22074583,-0.0149596445,0.058247786,-0.20230287,-0.0018970348,-0.0014655996,-0.00047909102,-0.0016681068,-0.3191383,-0.080121785,0.34739566,0.09257777,0.081939675,-0.12244629,-0.2661818,0.33232823,0.23430094,-0.0969954,-0.03904548,0.032337792,0.35569215,-0.09436803,0.13782594,0.103254355,-0.1684882,0.16493352,0.16246942,-0.14981678,-0.05620787,0.19386737,0.19273247,-0.11406149,-0.24193303,0.25059953,0.03108191,-0.00848619,0.2819141,0.06383873,-0.026658079,-0.24861811,-0.08098341,0.31092575,-0.33409184,0.03815572,-0.2439692,0.385068,-0.34235132,0.31130356,0.47359592,0.281037,-0.19605908,-0.36943978,0.070420146,0.22489853,-0.042081725,0.053160593,0.3859227,-0.3210761,0.08785392,-0.0688258,-0.025315898,0.071772166,-0.34250107,0.37655768,0.09405762,0.41039267,0.37541714,0.03279165,-0.091408536,0.36004907,0.019918684,-0.23902316,0.059008114,0.32965773,-0.018915126,-0.2621479
