0.16141847,-0.13061309,0.22246116,-0.01431144,0.10240971,-0.19320221,0.10317969,-0.17890626,0.12778962,-0.056979477,0.1334924,-0.13921112,-0.017235842,-0.012150042,-0.0903376,0.15499002,0.011124745,0.011203844,0.011384223,0.011737172,0.05335964,0.016476123,-0.021136422,-0.091146685,-0.08101701,0.16279921,-0.031717073,0.12182861,-0.10808511,0.12364893,0.17726642,-0.17698273,0.026105048,0.08565385,-0.0006979909,-0.18865085,-0.00056461757,0.056646522,-0.118765324,0.1261501,0.0058059907,-0.04702279,0.07209867,0.0014491123,0.0050155423,-0.08846804,0.12682562,-0.061604567,-0.007596519,-0.008020608,0.018746775,0.012274518,0.010905231,-0.21134363,0.091489315,0.035414945,0.1615323,-0.08963,-0.04283017,0.10932988,0.017318316,-0.054978356,0.0012720636,-0.030585844,-0.008304525,0.14568755,0.00011832644,-0.09528267,0.13782401,0.023929251,0.10162822,0.0041674674,0.012771379,0.012795246,0.013162505,0.013457217,-0.08790216,0.17452747,-0.208663,0.18663418,0.13339539,-0.06541871,-0.089130715,0.06412891,0.18921188,-0.16656603,0.094672844,-0.05116324,0.022319518,-0.09357396,0.21002913,0.043029547,0.07107571,0.062222537,0.14937249,0.1707084,0.13454986,-0.11776238,-0.13353127,0.11945295,0.21619637,-0.091496855,0.20970878,-0.0291284,-0.098576464,0.078900814,0.0073996363,-0.10661858,0.0044951304,0.006360719,-0.10326556,0.192902,0.007728822,0.1167197,0.101596855,0.078874946,0.011881674,0.0113868555,0.012240792,0.01254965,-0.009327517,0.25523815,-0.024793593,-0.13936526,-0.05464821,0.14333943,0.11962092,-0.21241026,-0.006051984,0.07150948,0.047560845,-0.11346611,0.22005896,-0.09766851,-0.02366644,-0.0062215882,0.016063856,-0.012993681,0.13231584,0.13033678,0.13871133,0.05040016,0.20426299,0.021657633,-0.06955459,0.14281903,0.1989184,-0.18899666,0.010577777,0.010651591,0.0108646955,0.011221027,0.22398958,-0.086544886,0.03788998,0.04994321,0.1690248,0.024965942,-0.1483231,-0.0016226411
