0.061517242,0.05329566,-0.12796451,0.05358421,-0.10685697,-0.044773992,-0.043654006,0.13821164,-0.041073944,0.22592814,0.03727771,0.19582859,0.13001935,0.0374516,-0.19576123,0.16092381,-0.06881823,0.18700247,0.108322494,0.04373032,-0.023795882,0.043047246,-0.08370293,-0.026615778,0.036652792,-0.0836597,0.1250443,0.068996534,0.19250768,-0.10868199,-0.10679633,0.11531507,-0.076383434,0.057583224,0.07914247,-0.052345004,-0.11216776,-0.14961363,0.20538595,0.05841326,-0.17519543,-0.022181496,0.19567825,0.18589696,0.012970843,-0.11824723,0.06351648,0.106162496,-0.09346494,0.13769875,-0.038293723,0.08927597,0.07785241,0.05901945,-0.13238928,0.12960507,0.019642761,0.12488947,0.23997706,0.12866773,0.12311936,0.10830489,0.013383228,0.1316044,-0.0553036,0.045623988,0.20368375,-0.15149897,-0.0031089564,-0.0031249765,-0.010173528,-0.00087778986,0.08904558,-0.019434307,0.15366304,0.053515956,0.018354459,0.02949427,0.018804187,0.025986599,-0.09364186,0.119866304,0.091310605,0.09725958,0.13764642,0.118144274,-0.040015083,-0.15069728,0.058556966,0.048473258,0.048598036,0.05545063,0.1641847,0.17361584,0.09068892,-0.01684604,0.038349155,-0.11040465,0.23187709,-0.11795733,0.20634921,-0.12061561,0.20655073,0.21380082,0.0924984,-0.09087866,0.12694883,0.18829055,0.21883617,0.09490476,0.0018787584,-0.20536946,-0.006681572,0.13649563,0.086402506,0.10516408,-0.0021496655,-0.002138914,-0.0021361767,-0.0021405465,-0.07704325,0.12372174,0.17871048,0.12930287,-0.021626007,0.20467685,-0.0049422774,-0.21661334,-0.15537868,0.09232954,0.06286322,0.0038170044,0.095675774,0.042989593,0.050735336,-0.025748424,0.14090206,-0.021836983,-0.03732109,-0.07903003,-0.16592546,0.0029297955,0.034144115,0.10353012,-0.044866964,-0.09788595,0.0733628,0.18595332,0.18915837,0.0492406,-0.15091795,0.047812954,-0.00046068587,0.124363765,-0.00013965814,0.090938345,0.03615073,-0.031120246,-0.09871727,0.1769468
0.14091797,-0.05867133,0.20579875,-0.08556574,-0.11783998,0.101873904,0.0265478,0.10310238,-0.10095337,0.14645661,-0.021268394,0.06099669,0.05575238,0.11491363,0.18494421,-0.13474202,0.05962527,-0.03222985,0.23201719,-0.024664246,0.09523863,0.10756115,0.0815102,-0.06658081,0.10331951,0.15877569,0.081205636,0.024198154,0.0418419,0.13476186,0.12562129,-0.026322333,0.22229035,0.018225286,0.25469202,0.27695245,-0.069185376,-0.10483743,0.07011333,0.08663324,0.25232708,-0.115864195,-0.33266824,-0.17718604,-0.08536582,-0.029973049,0.07414154,0.08070452,-0.06517086,-0.024178535,-0.024478335,0.19175091,0.13216494,0.16597354,0.16159794,0.0058642877,-0.20573767,-0.29489073,-0.020134723,-0.190591,0.022007896,0.14062904,0.21475272,-0.093889266,0.059800815,0.08106876,0.10756658,-0.034817133,0.00067575707,-0.0006919539,0.014779711,-0.00047828536,-0.07482372,-0.077993356,0.094198845,0.2593855,0.015051501,0.022499403,0.028520597,0.03753349,-0.15267031,-0.12831695,-0.080750935,0.013594138,0.23438385,0.04735055,-0.18366688,-0.2542866,0.0058834,-0.001440872,0.0014335134,-0.33563802,0.065209456,0.058198337,0.13660134,0.2448984,-0.0011660937,-0.15320276,0.036670927,-0.00957206,0.12595204,-0.08293906,-0.096404426,0.09769446,0.0012224693,-0.04794302,0.17540517,-0.10242048,-0.1388343,-0.12004468,0.017308928,0.0014445334,-0.11950938,0.22758576,0.088098936,-0.0060587674,-0.0019797955,-0.0019295061,-0.0014116816,-0.001961131,0.2245629,-0.090743124,0.12114994,-0.07404047,0.0028345531,0.12303024,-0.017330576,-0.027271938,0.19368324,-0.0090246,0.3033769,-0.05083413,-0.13828051,-0.122830935,-0.04817065,-0.10675585,0.18565342,-0.1747682,0.3765448,0.027390296,-0.18264584,0.027835347,0.038914934,0.19008175,0.16826585,0.2153193,0.056774836,-0.066016,-0.0026390748,-0.009905506,0.15458763,0.24785313,0.07538424,-0.14119634,0.033203494,0.1787591,-0.05648794,0.13085447,0.07567173,0.019494297
