<<<<<<< HEAD
-0.009649067,0.3503129,0.35545757,-0.08278152,0.27630174,0.3066352,-0.07615104,0.08569518,1.2306398e-18,-3.6662941e-28,-0.02420852,0.05874001,-7.3494815e-18,-0.053196404,-0.01197633,-0.2530344,-0.12215108,0.07661951,0.19572078,-2.2616754e-15,0.3834593,-0.20842397,-0.009822606,8.004658e-22,1.3929409e-14,-0.12314162,0.11536937,0.36199582,0.029165523,0.055506993,0.05338252,6.4502724e-16,0.09454128,0.1173648,-3.0111533e-08,-0.016010208,0.22212574,0.15364951,0.018962506,0.19025837
0.14116344,0.17364827,0.2254667,-0.035761695,0.08842784,0.13897948,0.23277003,0.075007826,-3.6374515e-18,-9.908238e-32,-0.10378175,-0.25027174,-8.0312775e-19,-0.14246547,-0.20668256,0.3517455,0.234809,-0.25751603,-0.28358072,1.1626654e-15,-0.024052737,-0.23826712,-0.0070666336,2.1308436e-19,1.9808777e-14,0.038534015,-0.22016354,0.09023011,-0.094845235,-0.055761956,0.08187848,1.5526984e-17,-0.1283419,0.27140173,-3.2247936e-08,-0.11534897,0.10703255,0.08221938,-0.053562086,0.20318854
-0.31011567,-0.37408143,0.039975118,0.04301834,0.28371444,0.15173192,0.17126828,0.2262364,4.033641e-18,0.0009627656,-0.047554936,-0.00044311868,3.7769584e-20,-0.29431584,0.22078694,0.20333713,-0.17269345,0.15048149,-0.2883704,-3.6223724e-16,-0.14893162,-0.022342788,0.0053179194,1.6419805e-05,2.0906452e-14,0.18992376,-0.006583345,0.10563372,0.019505959,-0.05677863,-0.13088499,1.493172e-14,0.24347,0.034512877,-3.9857056e-08,-0.04031603,0.113576025,0.14062752,-0.09792272,0.05156385
-0.06270984,-0.13125825,-0.23810592,-0.017186971,0.28303364,0.1321019,-0.20827854,0.28845745,7.420107e-18,-3.875498e-27,-0.013952655,0.023260783,-1.2867215e-17,0.098992124,0.17060246,0.1415932,0.2191525,0.02311707,0.20716934,-3.7950337e-16,-0.08187757,0.022302829,-0.00010518586,4.5200414e-32,-8.5272696e-15,0.124292895,-0.28681257,0.22588544,0.06775586,-0.050780043,0.32323167,-2.2155136e-15,0.123159364,-3.9388113e-05,6.27944e-08,0.045148365,0.12939651,-0.096726015,0.13503386,0.20243378
-0.1520042,-0.19553226,-0.016902128,0.02390003,0.2281275,0.20455289,-0.048031725,-0.22559185,1.8566135e-18,2.0809589e-14,0.014631496,0.05868041,1.4161102e-17,0.27441135,0.12962405,0.122253835,0.0032158906,-0.0832906,0.048790533,-2.0308788e-15,-0.031601395,0.31444013,-0.00078836357,2.0366725e-10,2.2464124e-14,0.25096104,-0.278987,-0.08597439,0.13940348,-0.06504667,0.21652497,2.5360361e-14,0.20226093,0.17050518,6.909001e-08,-0.001995685,0.3406718,0.07267301,-0.052997958,0.28099278
0.29053482,-0.22905777,-0.036980476,0.05325327,0.083002254,-0.14151113,0.22432572,0.24318875,1.7437728e-18,-1.3705273e-31,-0.022440434,0.16482472,3.0966865e-18,-0.18784888,-0.021785688,-0.038877085,0.0036519503,0.1928183,-0.022631936,3.5167245e-15,-0.055236235,0.048779078,-0.003324911,2.181345e-25,-5.6742297e-15,0.27467176,-0.19560456,-0.3553812,-0.16106208,-0.016998561,0.096471235,-1.0339139e-14,0.27445754,0.05375317,6.525086e-08,0.047778524,0.27416608,0.17968915,-0.048355263,0.034757383
-0.12015844,-0.25657967,0.011782548,-0.025850106,-0.07956167,-0.032157704,0.08469854,0.23060472,7.771577e-18,1.1598618e-25,0.063918166,-0.06408546,1.2736942e-18,0.33649638,0.19503993,-0.046947252,-0.046894737,0.008153259,0.052582335,-8.7174265e-16,-0.13539185,0.16027167,0.001278001,1.1964773e-08,-6.9561395e-16,0.15924835,-0.15883552,0.18171227,0.048265748,-0.008877388,0.18271479,-2.253945e-15,-0.16291271,0.30847508,-1.4679556e-07,0.009558946,0.2573639,0.14778315,-0.15232328,-0.27567795
0.11784048,-0.044926308,-0.22010869,-0.019968808,-0.230265,0.14447632,0.20081978,0.2888142,1.6177108e-17,2.3661392e-31,-0.009506179,-0.07222982,9.2262816e-18,0.106822915,-0.024137741,0.21526518,0.100785226,-0.064495854,0.14267062,-1.2277794e-15,0.022716356,-0.045701306,-0.00081782765,-4.085223e-29,-1.3974686e-14,-0.2918176,-0.1053644,0.108802296,0.34285247,-0.0019822142,-0.12931587,-6.5299935e-16,-0.11549408,-0.26066163,1.14355686e-07,-0.009880056,0.18155168,0.13735093,-0.093428716,-0.18345013
0.33703762,-0.2461448,0.19405559,-0.017531287,0.25279045,-0.078610525,0.2266351,-0.23325832,1.5026815e-18,-1.0540041e-33,-0.0024871794,-0.044760376,1.6722004e-18,0.34405825,0.22400059,0.33167318,-0.054814488,0.16974407,0.09438083,-1.0648307e-15,-0.13703753,-0.015987447,0.0010287674,1.6826922e-32,1.0514064e-15,-0.1355634,-0.12730783,0.14559281,-0.03217975,0.0011986314,0.0133133475,-2.3794846e-14,-0.12516901,-0.26215607,1.7676127e-09,0.024339205,0.03719596,-0.041270733,-0.032220595,0.020339143
-0.17350544,-0.28988084,-0.17978095,0.0099918125,0.21718375,0.31934157,0.329108,0.22114079,1.4305894e-18,6.8198773e-32,0.097615354,-0.031718384,-4.2245753e-19,-0.26165763,-0.049780414,-0.15793256,0.27933717,-0.1099957,0.30456015,-9.483312e-16,-0.16161683,0.09948494,0.0006757407,4.274923e-06,3.0544868e-15,0.2631377,0.16278487,-0.20918897,0.12476858,-0.07527869,-0.004614617,-5.016659e-15,0.10317595,0.09609337,5.278236e-08,0.050137546,-0.11830487,0.014964663,-0.10727741,-0.12806624
=======
-0.014687388,0.36824894,0.36305675,-0.12297884,0.2817922,0.31425032,-0.076110065,0.08984427,-2.780779e-32,0.00019006548,-0.033227593,0.0643824,-5.828168e-33,-0.06024167,-0.015710749,-0.25706503,-0.12453492,0.084226444,0.19976848,-1.10846494e-32,0.4049674,-0.21114871,-0.022688007,-0.045043543,-0.00070158276,-0.11172398,0.11446101,0.3653104,0.01908228,0.052323066,0.052074794,2.2137633e-32,0.09880135,0.12490609,9.385839e-33,-0.009760104,0.22233456,0.15672706,0.02146289,0.19378018
0.139855,0.18917818,0.23389785,-0.044364,0.09047166,0.14756498,0.23656918,0.078935325,1.639053e-32,-0.0028660342,-0.13176447,-0.2598006,5.5344214e-32,-0.14313437,-0.20940097,0.35655305,0.23769608,-0.26353046,-0.28729013,-2.212333e-33,-0.028457925,-0.23800705,-0.034677222,-0.03552934,-0.0006298706,0.040742964,-0.22336905,0.09769148,-0.09244295,-0.10086297,0.09625502,1.3646871e-24,-0.12447985,0.27954924,1.369922e-32,-0.12829983,0.1085916,0.088604055,-0.070129186,0.20166598
-0.3201893,-0.3692236,0.047656033,0.050560847,0.29133084,0.1566942,0.17233516,0.22722888,9.230787e-33,0.010858131,-0.027973697,-0.006618111,-9.667137e-33,-0.2990772,0.2269983,0.20666933,-0.17587523,0.15228465,-0.2921886,-1.0303673e-32,-0.15636915,-0.02257631,0.026781116,0.027085971,-0.0006649249,0.19921857,-0.017288184,0.109707676,0.029417237,-0.10254585,-0.1329491,-7.4935755e-32,0.2493804,0.035872005,-1.5012406e-32,-0.039336424,0.11527317,0.14196186,-0.10603531,0.0532994
-0.06479353,-0.12225618,-0.23785533,-0.024627397,0.29174384,0.13349853,-0.20572223,0.29320997,1.761025e-32,-0.007421358,-0.025709953,0.026427431,6.4931105e-33,0.10916465,0.18164971,0.14642873,0.2243969,0.032020938,0.21804328,1.5887757e-32,-0.10834129,0.03054589,0.0144062275,-0.016892284,-0.0006079418,0.11467193,-0.295269,0.2343093,0.07721512,-0.102173224,0.30762392,-2.349892e-32,0.12557444,-0.007378319,1.11993814e-32,0.031225419,0.13290273,-0.09515418,0.12724553,0.20794491
-0.15206979,-0.1759877,-0.013871461,0.020418303,0.23113188,0.20404823,-0.04549739,-0.22688755,2.0636062e-32,0.0006362188,0.015844414,0.057781786,-1.5420274e-32,0.27689222,0.13340488,0.124935605,0.002709288,-0.07979083,0.04929706,-1.0189567e-32,-0.048982773,0.32050106,-0.012644403,-0.010016035,-0.0006196789,0.2537979,-0.26271164,-0.089803435,0.14451103,-0.07889096,0.20357618,6.390213e-32,0.20259503,0.17004147,-9.155913e-34,-0.010682623,0.34180605,0.07321695,-0.0965246,0.27799672
0.2982153,-0.21833418,-0.03241184,0.056283943,0.08799283,-0.14325248,0.23056522,0.24591315,-1.9294937e-32,0.002243908,-0.026711179,0.1690818,-2.6965623e-32,-0.19197251,-0.022496117,-0.037503637,0.0066865385,0.19754846,-0.023482827,-2.7476992e-32,-0.08161551,0.051114153,-0.011737003,-0.039677218,-0.0006845738,0.27998763,-0.19537953,-0.3619516,-0.16438672,-0.00059672585,0.10812901,-5.727173e-32,0.27837062,0.057938118,-9.340994e-33,0.063644454,0.27569732,0.1834757,-0.06940206,0.033973508
-0.1211225,-0.26273638,0.015633386,-0.03337546,-0.07410219,-0.029123375,0.08777648,0.23813772,-1.4774927e-32,-0.006703995,0.062300608,-0.06670323,8.195203e-33,0.34104624,0.20245558,-0.044523202,-0.04420033,0.019250663,0.060433183,1.675542e-32,-0.13482699,0.16670601,0.0387945,0.023982357,5.985284e-05,0.1592718,-0.1700687,0.18798731,0.058726158,-0.03959632,0.18982166,-2.7792746e-27,-0.16367745,0.31887883,1.4432656e-32,-0.0033682615,0.26517257,0.15397729,-0.18087488,-0.27176067
0.12038126,-0.046042766,-0.21856382,-0.048810255,-0.22855486,0.1491642,0.20977595,0.29857054,4.243384e-33,-0.0018067833,0.0012998184,-0.06903829,-5.725672e-32,0.11127638,-0.022893926,0.22251372,0.109428234,-0.06692519,0.14743282,2.2680368e-33,0.028307788,-0.046136975,-0.0070322743,-0.021818258,-0.0005122223,-0.29093552,-0.10493111,0.111201845,0.34881836,-0.015401943,-0.12766457,-1.20093484e-32,-0.11169264,-0.25561774,1.8183652e-32,-0.021438383,0.19208509,0.14394283,-0.10934082,-0.17620619
0.34279397,-0.24695982,0.2051437,-0.024900956,0.26122734,-0.07325444,0.23320875,-0.22764835,-2.0805426e-32,-0.001111179,-0.005062093,-0.041402932,-1.3716444e-32,0.34556696,0.23346119,0.33619842,-0.051580805,0.18069766,0.09963034,4.4634806e-33,-0.13109545,-0.01512835,0.0063204253,0.0036662319,-0.00020443123,-0.12730913,-0.1394369,0.14947091,-0.031612314,0.0027409564,0.0063582784,-6.1394095e-32,-0.11825746,-0.2566445,-2.765599e-32,0.029065713,0.042104475,-0.035713125,-0.027612964,0.026302308
-0.16801105,-0.3000906,-0.17855819,0.022232374,0.22194251,0.32824776,0.3320981,0.22580346,-1.2251612e-32,-0.0047024963,0.13779181,-0.03810455,1.619001e-32,-0.26353055,-0.05183088,-0.15799241,0.28217566,-0.112260066,0.3068567,9.174722e-33,-0.14730753,0.095163964,0.037014928,0.03148848,0.0006845738,0.274455,0.15470922,-0.21001047,0.125197,-0.093503,0.0018123904,-1.0926925e-32,0.10568204,0.10307586,-1.1753918e-32,0.060538523,-0.11370049,0.018589638,-0.105022535,-0.12375969
>>>>>>> 47d2039f7af34a40ee3264e90aedcff57159511d
