0.09432096,-0.061530747,0.015533288,0.11546638,0.0859685,0.09049403,0.05011819,-0.0369427,-0.10971281,0.12528926,-0.052737474,-0.114199266,0.08507675,0.08961911,0.13361964,0.12056337,-0.048061624,-0.1189034,0.025888294,-0.13633634,-0.043565847,0.0005534672,0.061623547,-0.04214365,-0.06965324,-0.047187924,-0.07796331,0.060890254,0.11505762,0.10704477,0.09910588,0.10665155,0.09107982,-0.11926283,-0.12646873,0.035862014,0.03177678,-0.009859906,0.12030937,0.12988237,0.12080785,0.00014502901,-0.03871701,0.116684936,-0.10992601,-0.02593201,-0.0126366895,-0.083905905,-0.10804184,0.042138487,0.00817326,-0.06141827,0.115108125,-0.020152532,0.0034651733,-0.10249568,0.060383677,0.098142326,-0.0005524716,0.049847707,-0.102146246,0.07003393,0.047515985,0.055238858,-0.115936376,0.08780587,0.06668803,0.033051345,-0.07859388,-0.015214545,-0.07218298,-0.06709611,-0.11199233,0.12875096,0.11320762,0.03371426,-0.07454496,0.07157932,0.059027527,-0.114157364,0.09348921,-0.113484204,0.015694425,0.11446909,-0.12293942,0.041561153,-0.10390438,-0.07078563,0.072618075,0.044794094,-0.09589378,0.04355375,-0.108355775,0.12329838,-0.023240792,-0.0826429,-0.12202659,-0.06188353,-0.0985263,-0.07678132,0.011832867,-0.09947323,0.05920565,0.067157984,0.075771816,-0.09777575,-0.09408585,-0.03175002,0.008616486,0.12834479,-0.019277114,-0.082962595,-0.060960576,-0.13487707,0.013352367,0.024752023,0.05157938,0.005439732,-0.08840446,0.10790569,-0.05290886,0.07843177,0.12584075,0.13462557,0.09211948,-0.12595472,0.08632226,0.07922958,-0.09358462,-0.12086278,-0.09503757,-0.07497731,-0.1091219,-0.12448783,-0.09227184,0.0054762485,0.025831932,-0.13059145,-0.13262677,0.018093422,0.02553532,0.13237424,-0.01069111,0.0374998,-0.032815453,-0.048185274,-0.06533725,0.008058116,0.029510394,0.0298924,-0.00944674,-0.031604595,-0.04639184,-0.017744975,-0.13137402,0.0038549183,-0.025999203,-0.11032417,0.052159067,-0.019783815
0.091457814,-0.08909882,0.114619404,0.04342003,0.12389213,-0.03947719,-0.0950211,0.123120874,-0.07847537,-0.033357434,-0.13087232,-0.05437701,-0.010359913,0.05842632,-0.00017142296,0.029104505,0.04385802,0.057382643,0.0515718,0.13691944,0.055589814,-0.06608122,-0.12822716,-0.12674722,0.08064277,0.04086943,0.03901048,-0.04427233,0.105536334,0.027558438,0.0905457,0.036258303,0.1117088,-0.08253669,0.02261506,0.12673098,0.04276556,0.073380396,0.0933643,-0.05320137,0.10027768,-0.055610888,-0.13516445,-0.091656394,-0.08485359,0.05234292,0.074049234,-0.043139048,-0.13247916,-0.106539465,0.0866428,0.11870627,0.05691011,-0.010664458,0.12205512,0.051748052,-0.08653818,-0.0109708365,0.038456146,-0.012733467,0.077493995,0.012332637,0.111148685,-0.10852364,-0.11035416,-0.09467282,-0.11393909,0.10573247,0.01876901,0.09231684,-0.033326577,0.016988399,-0.10394503,0.08248272,-0.035731964,-0.008050717,-0.000734338,0.073229566,-0.009740121,-0.054771,0.082604535,-0.004598762,-0.09343552,0.050151214,-0.068762146,0.09950085,-0.04281848,-0.041095115,0.08731392,-0.045563683,0.11582192,-0.11933504,-0.06990847,0.050000172,-0.06288395,-0.08110732,0.042269252,0.04685402,-0.019150577,0.13128322,0.11852364,0.10403095,0.09866822,0.06595749,0.008096622,0.13181,-0.10170549,-0.119672865,0.028106883,0.06655933,-0.091233015,0.043092683,0.021800121,-0.1323179,0.0035277358,-0.10879722,-0.00086595886,-0.084765695,0.12686631,-0.11783404,0.04987765,-0.026486129,-0.09764439,-0.031195223,0.028900817,-0.08060239,-0.06399,-0.052660182,0.053113572,-0.052525453,-0.06616092,-0.058185466,-0.016123617,0.049683224,0.105355226,0.11149042,-0.0784994,0.014871865,-0.02081764,0.06828305,-0.05559647,-0.08523913,-0.008786571,-0.12060647,0.1301265,-0.015609488,0.03591235,-0.08232056,0.09799948,-0.10421994,-0.034092605,0.11181156,-0.048708167,0.06534174,0.036080793,0.041869733,0.02567839,-0.10329163,0.08619002,0.09163717
-0.016111981,0.009981683,0.053266294,-0.10971997,-0.11738911,0.014630783,-0.03707361,-0.013694519,-0.07626715,0.13415627,-0.07357431,0.13150416,-0.0053572473,-0.12464847,-0.029590147,0.08842127,0.13070124,0.035519272,0.046819672,-0.11658189,0.07878723,-0.029772712,-0.09936819,-0.10679184,-0.08696202,0.07067456,0.011548829,-0.06688594,-0.0102982065,0.043150596,0.01404646,0.134939,0.010329075,-0.13813029,-0.056895748,0.09966734,-0.013434779,0.03632385,-0.048296124,-0.010559606,0.0072197383,0.0953316,-0.073821485,-0.048285704,0.09713985,0.047683597,0.07215336,0.09698336,-0.12315511,0.0029243862,-0.016168794,-0.05613427,0.07772932,0.12802729,0.101697356,0.0719754,0.067509174,-0.10296424,0.006697057,0.07106087,-0.0048918794,-0.056697566,-0.033769865,0.04832747,-0.04773013,0.016940333,0.09485806,-0.09415678,0.04543032,0.017037937,-0.05159916,0.038445503,-0.016274929,-0.008544939,-0.10680861,0.06712201,0.09417618,0.013862311,-0.02772031,0.05774734,0.0954751,-0.13192381,0.041892856,-0.059472952,0.11339629,-0.080800265,-0.061319392,0.0040552323,-0.020052625,-0.048174653,-0.039937366,-0.06572718,0.033586495,0.11553087,0.06921323,0.10081552,0.0023441762,0.08942552,-0.07495884,-0.12429228,-0.0075984155,0.06950296,-0.1297268,-0.1021218,-0.083991155,0.07603186,-0.023084464,-0.077165924,-0.03537985,0.08014134,0.04302265,0.032105923,0.12081529,0.124143265,0.03644684,0.06122541,-0.012039649,0.02937028,-0.06594112,0.06735874,0.019031664,-0.019819256,0.083463594,0.096105404,0.084461264,-0.025409387,-0.119124666,0.043950487,0.002930671,-0.121324316,0.10024692,-0.021373086,-0.13510542,-0.10011248,-0.05038323,0.023298988,0.029441046,-0.066844754,0.08013128,0.028173128,0.026936853,0.12053404,-0.09919389,0.10149629,-0.0030485527,-0.1174619,0.072517715,-0.09057148,-0.08718161,-0.08865238,-0.07172168,0.01345554,0.08976991,0.104280725,-0.112685725,0.12318859,-0.059709154,0.124332726,-0.059095576,0.024553748
-0.12267007,-0.04071351,0.025577154,0.025769524,-0.07060619,0.016130542,0.05562103,0.09637827,0.07889227,-0.04244099,0.085904144,-0.11369769,-0.13683389,0.10884694,-0.029650832,-0.08541681,0.09519336,-0.009270489,-0.03851997,0.042415947,0.110656984,-0.014404794,0.016287718,0.106918916,0.02304689,0.13393307,0.08393461,-0.10815256,-0.10706431,0.0116573265,-0.037539963,-0.11148397,0.050913364,0.02053602,-0.07627518,-0.0056165266,0.058855798,0.052402284,-0.120738156,0.07114603,-0.09694581,0.000111881236,0.06303886,0.08569447,-0.036346648,-0.01652128,-0.10763627,0.12577583,0.10111652,-0.118048154,0.09565201,-0.110398985,-0.013066034,0.01915494,-0.0030098143,-0.10813003,0.12918401,-0.13204591,0.06003054,-0.10629666,0.00043485672,-0.05390443,-0.03024757,0.041471504,-0.0807418,-0.12439656,0.09612201,0.037781868,-0.050722096,0.05538752,-0.10779068,0.09513249,-0.13394508,-0.085537046,-0.06388685,0.049426228,-0.0043089357,-0.016577315,0.10114592,-0.119588874,0.039404787,0.08514984,0.12043328,-0.12567127,-0.08041345,-0.06624263,-0.11298346,-0.02275724,-0.010045945,0.025630713,0.0788919,-0.02040088,-0.08012365,-0.081443205,-0.03524165,-0.029510695,-0.09161021,-0.11388288,0.06863614,0.1077394,-0.03864065,0.069337256,-0.12071111,-0.089534216,0.02286995,0.12033384,-0.12189788,-0.102379225,-0.0153628765,-0.0203679,-0.0980865,0.12416267,-0.11236744,0.044265408,-0.089007385,-0.003014766,-0.081103444,-0.13565451,-0.08780142,0.06910101,0.03310889,0.042299375,-0.014393457,-0.013976332,-0.090987965,-0.009802032,0.0423978,0.13356256,-0.08184783,0.05705771,-0.12539746,0.011379711,0.12782077,-0.1231121,0.11624385,-0.015898552,0.09602711,0.08348623,-0.033572897,0.045720413,0.05271871,-0.0133075025,0.011761675,-0.016252747,-0.00060029875,0.023091722,0.122798875,0.0267544,0.06590758,-0.020245753,0.10230857,-0.11813555,0.017441744,0.09364984,0.114772305,-0.10662554,-0.08277116,0.004125901,0.069180585,-0.10514883
-0.13419268,-0.1142231,-0.028836258,0.017689053,0.09021151,0.03027098,-0.06932479,0.079975106,0.04644132,0.11306842,0.057349984,-0.020969717,0.09909416,0.0093639735,-0.075107336,-0.028379584,0.07571393,-0.09948557,-0.016611904,0.0098635405,0.041896302,0.030051533,0.09305352,-0.13182175,0.0991004,0.12803945,0.016574817,-0.12930185,-0.0031192175,-0.081544474,0.04052601,-0.13101318,0.033756264,0.092936486,-0.0049367,0.03272997,-0.014269701,-0.122463435,-0.006159254,0.059860427,0.13441433,0.120252885,0.07038301,-0.02684713,0.06552301,0.027341176,-0.049754504,0.10865524,0.13419884,-0.03438786,-0.05768985,-0.0034135254,0.124853276,0.023533262,0.044032622,-0.0956928,0.11761735,0.010634836,-0.018132852,-0.08142114,-0.09269088,0.07318678,-0.10882895,0.10637235,-0.052256014,0.12341427,0.08499181,0.099487364,-0.010685728,0.05270563,-0.13524345,-0.10754329,-0.039359212,-0.0040306216,-0.11787361,0.1279209,0.12623513,0.09502426,-0.071011305,-0.0728456,-0.06740307,-0.053181034,-0.13199389,0.12746337,0.10140458,-0.078002974,-0.121428095,0.036978718,-0.07574163,-0.09040334,0.09896858,-0.016040951,-0.081701234,-0.019586844,-0.015491963,-0.0811911,0.08419323,0.09811166,0.13142315,0.0054746233,-0.032332856,0.06359829,-0.08460193,0.12118247,-0.058710434,-0.0759034,0.101946086,-0.105442934,-0.05894328,0.010354988,0.0039307415,0.027274288,0.11388744,0.07116702,-0.11659798,0.10474048,-0.08134542,0.070998736,0.11843846,-0.07762994,-0.10964728,0.020796016,0.06706672,-0.032633632,-0.13354746,-0.12905672,-0.12831096,0.13201208,0.11955521,-0.07734076,0.076068595,0.13394344,-0.0251427,-0.012275236,0.07310667,-0.013382957,0.10249693,-0.07913595,0.07528205,-0.06962392,-0.08294382,-0.051301986,0.05462831,0.03590647,0.003312948,0.088897206,-0.04897231,0.080524355,-0.11946656,-0.02157706,-0.095250726,-0.08650735,-0.019535445,-0.08946728,-0.085694864,0.046157956,-0.024811627,-0.008437409,0.013908192,0.10166327
0.11569647,0.12034475,-0.10556004,0.02118304,-0.030031595,0.0022300528,0.10251118,0.1093073,-0.01259589,0.036263343,0.05129987,-0.050120648,-0.10948005,-0.06971594,-0.04431828,-0.13389255,0.06393202,-0.072794,-0.10888645,-0.13306876,0.059002295,-0.01986429,0.09304794,-0.009574285,-0.09042727,0.102550656,0.0018650042,0.12001689,0.13922453,-0.04637416,0.023535522,0.0071889227,0.09903892,-0.12347052,0.08375715,-0.12462562,0.07364696,-0.07540436,-0.06580833,0.11334817,-0.058510426,-0.062165257,0.07037045,-0.057398494,-0.0010672284,-0.07064803,-0.01654463,0.007371191,-0.08127091,0.079533294,0.009910318,-0.044307947,0.09892151,-0.042357273,0.009691643,-0.108064465,-0.06139494,0.029695937,0.11693205,0.03805565,0.079460606,0.0913093,-0.04956338,-0.060004257,0.016397115,0.050224606,-0.018751048,-0.072829306,-0.023444626,-0.115419544,-0.093521096,0.08634642,0.1141199,0.015020814,-0.017257124,0.115362376,-0.115208074,-0.08213352,-0.09699829,-0.034239065,-0.10414573,0.058050867,0.05975834,-0.13499793,0.023389086,-0.136428,-0.12427503,0.10233054,0.057075597,0.028485538,-0.023566602,0.1148413,-0.062758476,0.029979598,0.08413698,-0.051088955,-0.11170203,-0.087984554,0.10084118,-0.04606542,0.045803808,0.062700965,-0.0072785844,0.050120186,0.12654686,0.11386586,0.026861219,0.11198639,0.0055578267,-0.022918895,0.018230699,-0.062023774,0.05290248,-0.12563106,0.11632759,-0.08061867,-0.031810243,-0.07369758,-0.1249718,-0.13418816,0.016457994,0.016160445,0.12884223,-0.120484896,-0.08439375,-0.06860012,0.13637823,-0.041676246,-0.09591248,-0.100469805,-0.11544522,0.111446425,-0.006268402,-0.11248011,0.01820024,0.023412641,-0.07049452,0.058695614,0.07789636,0.024042552,0.11509962,-0.024416268,0.048333745,0.13607337,0.0569232,-0.03730965,-0.13331045,-0.06358526,0.096145436,-0.04830095,0.004653111,0.059221864,-0.015841264,0.13488999,0.06567241,-0.11835125,0.0062342607,0.05326362,-0.0039269044,-0.010977411
0.10045828,-0.008050665,-0.01465404,0.120690346,0.010464743,0.012453839,0.01908803,0.12470162,0.06196387,0.034089997,0.07619311,-0.09935622,-0.12826562,0.11710143,-0.03513962,-0.0013518333,0.04721108,0.111228526,0.01583749,-0.10486547,0.0036519319,0.031337053,0.028799087,-0.050144523,-0.024531826,0.054078624,0.08999322,0.099416494,0.02049677,0.005519524,-0.120083585,0.05719261,-0.014342688,0.021641344,-0.07951545,0.12243685,0.12371069,0.057259604,0.0019264817,-0.009042963,-0.10132776,-0.07046184,-0.11569967,0.013232112,0.13218051,0.042872086,0.07008301,-0.09337742,-0.017151102,0.026468232,-0.030927137,0.061909914,0.12944084,0.11327112,0.07754949,-0.0437446,0.09493686,0.12517795,-0.07456955,-0.1074557,-0.06583252,-0.0935081,-0.10668817,-0.114131585,0.13543102,-0.11257058,0.0064334422,0.010901615,0.13184822,-0.080417186,0.08891319,-0.07125633,0.13160244,0.113093585,0.108287275,-0.08946927,-0.13207385,0.10768959,-0.11448799,-0.012760073,0.021279916,0.098946184,0.13660157,0.11730671,-0.005978644,-0.1087317,-0.10668285,-0.026952356,-0.08447914,0.043911785,0.10306813,-0.001335293,0.06867677,0.08235285,0.052879542,-0.0930562,-0.11676063,0.025321946,0.03553769,0.08767526,0.004735455,0.018501014,-0.07298753,-0.08482644,-0.10698343,0.034070536,0.0486857,0.13363147,-0.014686622,-0.11996201,-0.05277507,-0.07973144,-0.02651231,0.024634466,-0.042305432,-0.04790645,-0.13254775,-0.07545847,0.035923272,0.024229124,-0.061764367,-0.07469672,-0.014518954,0.006349638,-0.025311038,0.052550822,-0.03610816,0.083779454,-0.058442883,-0.0472304,-0.0059212893,0.13555163,-0.057453066,0.07216366,0.027137786,0.10208778,0.107940316,-0.040526964,-0.008023217,-0.12983088,0.06090413,0.11644155,-0.0040718764,-0.029319383,-0.082250014,-0.0037987828,-0.121532515,-0.08301535,0.023755282,-0.1288977,0.13054457,0.020309776,0.06804362,-0.07499668,-0.038473807,0.05134347,-0.016704068,-0.08356039,0.08813518,-0.11001756
-0.084365815,-0.089939475,-0.11072639,-0.12997146,0.084367126,-0.10834304,0.12490401,0.025619328,0.02636759,0.04969859,-0.07901846,-0.06590575,-0.092893824,0.011190221,-0.022477165,0.03031446,0.13254872,-0.073040776,0.1303131,0.023037389,-0.02467981,-0.10474216,0.10786532,0.048092052,-0.062607765,0.09772058,-0.07893966,0.09050746,-0.07381026,-0.05395271,-0.031822577,0.022148281,-0.035840057,0.122348934,0.021407127,0.111035585,-0.09090625,0.0367938,0.06279166,0.13441035,0.12497246,0.073792756,-0.037895307,-0.043296494,-0.020187609,-0.13089536,-0.104811445,0.012503147,0.054618835,0.11992106,-0.086283945,-0.100106806,0.019416958,0.09904693,0.087070644,0.009362087,-0.09735994,-0.07033899,-0.09268606,0.13419056,-0.10010867,0.046799883,-0.10309389,0.084057465,0.034680843,-0.06655365,-0.09282225,-0.093232885,0.037684962,-0.029930234,0.07120065,0.04719381,0.01250872,-0.02755694,-0.03216602,0.06325479,0.092221335,0.09378275,0.080096304,-0.09316149,0.096731976,-0.0853225,-0.022062615,0.01406461,0.07719894,-0.07182259,0.045944273,-0.09700513,-0.05952421,0.10640317,0.005173664,0.07050493,0.10598163,0.049516335,-0.13027206,0.036773503,0.00090037286,0.1160585,0.022533193,0.06874204,0.11886114,-0.10682173,0.009856075,-0.0019077808,-0.031067453,0.060973138,-0.13509423,-0.1315479,0.10295321,-0.07953523,-0.07150776,-0.121497616,0.09771082,-0.078083724,-0.10712636,0.09045014,0.058730245,0.08157596,0.0436859,0.06924714,0.115088165,-0.10303539,0.041640326,-0.12303894,-0.058650516,-0.040713735,0.12586278,-0.058097646,-0.029128037,0.136561,-0.10630487,0.040893137,-0.006431982,-0.07412641,0.11255902,-0.1175738,0.049713165,-0.07767146,0.10864335,-0.02626916,0.03501308,-0.07304437,0.055486098,-0.071269974,0.069109574,-0.053000137,0.035976272,0.09920856,-0.02880457,-0.13410908,0.07951872,0.00086542964,0.056801394,-0.1018776,-0.08702817,-0.10232414,0.11583701,0.090400845,0.10718861,0.047985688
0.110659875,-0.0015906111,0.077496044,0.029418765,0.042909462,-0.06711424,-0.002913372,0.06933292,-0.057412904,-0.047011912,0.021471892,0.09378576,-0.07832115,-0.13099882,0.0070797154,-0.008912532,0.01927863,0.10619286,0.03527446,0.04899372,-0.04162377,0.1273485,0.052294545,-0.00864322,0.107901566,-0.077739924,-0.068085305,0.10429218,-0.014089365,0.06757673,-0.08494734,-0.051767442,-0.13037616,0.10303706,0.05593898,-0.1357843,0.06653041,-0.10114452,-0.13095042,-0.118673645,0.014336027,-0.10826265,0.017775666,-0.014695765,-0.1328369,-0.068200156,0.05572997,0.039378792,-0.021777019,-0.04415352,0.04092683,-0.078479424,0.018452168,-0.05938524,0.018252844,0.055369303,0.018537877,0.10232028,0.04205472,-0.10538992,-0.09463683,0.056510653,-0.04382354,-0.057432212,-0.007908164,0.029411158,-0.07112128,0.017198311,-0.0965864,-0.018289492,-0.084822096,0.084254004,-0.03727486,0.027994124,0.08163162,0.024799665,0.034366608,0.071759276,0.027717536,0.04471451,0.060977835,-0.12848356,-0.11573094,-0.12070512,0.015122756,-0.06516707,0.095952615,-0.07199952,-0.09522367,-0.0010773308,0.07357871,0.09209428,-0.07178525,-0.03812619,0.03987644,0.10968766,0.018830061,0.051964156,-0.022563,-0.097979926,-0.10349767,0.110123284,0.012385927,0.09607877,-0.06034664,-0.12465,0.08968915,-0.07256634,-0.10321258,-0.057264168,-0.11450319,0.0015919262,0.023560144,0.100056745,0.08012282,-0.0029408822,0.07454323,-0.08745076,-0.016439127,0.09748746,-0.077427074,0.015849514,-0.036777604,0.10646488,-0.033785034,0.07725109,0.03563948,-0.037493803,0.08006316,-0.095858954,-0.09665881,0.063118786,0.032281384,-0.018709717,0.05665796,0.11982479,-0.105066955,-0.08449332,0.10986203,0.11027232,0.08768071,0.09963602,-0.13444562,0.1198801,-0.04808571,-0.11323695,0.06944154,-0.111673534,0.058834672,0.030997396,0.0048787743,-0.12668419,-0.060576424,-0.085127525,-0.11576917,0.006793569,-0.13815439,0.0488906,-0.016092297,-0.010356728
-0.109578386,0.06389,-0.0792703,0.025039777,0.02430934,0.07003043,0.05571617,-0.1259085,-0.06074887,-0.119172424,0.010508593,-0.011492443,-0.12901396,-0.134567,0.06840617,0.0041494444,-0.06631168,-0.103786424,0.12162396,0.037908524,-0.0035029256,-0.10567533,-0.061842095,-0.1258477,-0.048699766,0.02276389,0.06073628,-0.084344156,-0.048520416,0.06770141,-0.08131126,-0.12906516,-0.01180194,-0.057206053,0.03259051,-0.08396107,-0.101953715,0.061728027,-0.1292914,-0.050588343,-0.110182755,-0.1239143,0.060523294,-0.039285317,0.12427117,-0.1353382,-0.1324168,0.018679023,-0.13021348,0.08737497,0.12850985,-0.13462104,0.026011895,0.057706684,0.09406991,0.079402946,-0.09687304,0.10786401,-0.12522319,-0.08004801,0.12076472,0.044942535,0.04857557,0.08214768,-0.04133887,-0.12644717,0.09943422,0.080551304,-0.121057875,0.07285866,0.08322302,-0.121419005,0.071593724,-0.07739133,-0.04466101,0.012629301,-0.038728677,-0.07503043,0.05813979,-0.10767123,0.03292048,0.024044814,-0.022291347,0.11705392,-0.043563765,-0.12341407,-0.035390716,-0.027976587,0.039837867,0.12174609,0.029230947,-0.002120335,0.13230565,-0.062061016,0.10934098,-0.027038064,-0.07514121,-0.130204,0.028748097,-0.112048306,0.12362183,0.089616776,-0.032225404,-0.016763905,0.09577843,-0.033280622,0.04321107,-0.034165792,-0.056944855,-0.03399403,-0.10154314,0.099730656,0.09135613,-0.0050866418,-0.05300363,-0.0632598,-0.10708147,-0.10889018,0.09248724,0.13586986,0.029559983,-0.076179095,-0.015408003,-0.013997794,0.04760611,0.13358517,0.005516025,0.08550422,0.08407107,0.087496445,-0.11762435,0.111105904,0.13588652,0.11182508,0.089288205,0.012622214,0.13048305,0.059290607,0.087013945,0.09538115,0.1226754,-0.057614446,0.040825263,0.00044265564,-0.07889629,0.105709374,-0.029658543,0.040898383,-0.04793962,0.005698636,-0.010266513,-0.043012433,0.04513078,-0.057575062,-0.040561084,0.022783682,-0.06913472,-0.05403808,0.059361495,0.008069713
0.12072774,-0.06972246,0.10873531,-0.08747714,-0.06483209,-0.07974263,0.044454258,0.067485385,-0.06364337,0.028856235,0.070305474,-0.12802848,-0.007512695,0.13584083,-0.11376615,-0.02427704,-0.109870486,-0.10785605,-0.092996955,-0.035337105,0.0959698,-0.108089745,-0.057372633,-0.097281374,0.1271535,0.005602844,-0.00091273536,0.08460121,-0.09570213,-0.12585358,0.08269403,0.108111285,-0.11191872,-0.09521714,0.06193266,0.029934263,0.095964134,0.06531743,0.036413368,0.046210866,-0.13380958,-0.022165023,0.081413224,-0.03946206,-0.028495254,-0.03878568,-0.023251917,-0.06076972,-0.075271584,-0.042319212,-0.13214655,0.0004504802,-0.029136604,0.0019884938,-0.101184964,-0.014354836,0.00069755124,0.007453213,0.10916476,-0.0985343,0.09845057,0.13023521,0.029891925,-0.025886005,0.04392433,0.115547344,0.08494388,-0.064456,0.0037794583,0.011141649,-0.00012573077,-0.108389616,0.05030969,0.04323145,-0.11082328,-0.0527412,-0.018392833,-0.010353897,0.049503457,-0.022686034,-0.05135479,0.13285384,-0.00040498946,-0.054921,-0.043879587,-0.0562478,0.067593545,0.11789169,-0.024212737,0.029523702,0.067396976,0.045227755,0.09130854,0.064234264,0.043225694,-0.123975195,0.0031069778,0.020645015,-0.10469813,0.034719832,-0.10710628,-0.08783073,0.12719372,0.079487875,-0.019951848,0.113433935,0.019542713,-0.059829704,0.086521156,-0.13797538,-0.119260274,-0.108845875,0.04244431,-0.1072415,0.13159037,-0.13315539,-0.13104129,0.13807343,-0.03599217,0.12937814,-0.002532175,0.03545757,-0.019108003,-0.047117542,0.007924544,0.0563694,0.08762293,-0.035458487,0.06458345,-0.0887998,-0.13144656,-0.08169142,-0.10833311,-0.021320878,-0.121255115,0.04977106,-0.048247732,0.023660012,-0.0423116,-0.083064646,-0.07030197,0.07971314,-0.0750836,0.03248336,0.10323401,-0.032292567,0.12515047,0.087260045,0.13323274,0.038224936,-0.0591854,0.02297683,-0.014570395,0.01586308,0.115433544,0.03378891,0.038604215,-0.034162406,0.06538636,0.028304504
-0.1289166,0.09992363,-0.073960826,-0.0837092,-0.044441782,0.0011515424,0.09435461,0.054002184,0.028909286,-0.07324865,-0.046644982,-0.13399133,-0.0664995,0.08208525,0.064079344,-0.079771966,0.13215148,-0.0398056,-0.07595669,0.06706944,0.0443662,-0.028393652,0.055765264,0.02132669,-0.05826004,-0.0656748,0.018173566,0.025090996,0.08311365,0.034948636,0.05771115,0.011160339,0.10234433,-0.09313749,-0.13197158,0.12745972,0.0441731,0.04442914,0.04599261,-0.06852822,0.10532077,-0.021135839,0.013365425,0.060454108,0.10374657,-0.058271967,0.13111384,0.032612864,-0.031984765,0.031162122,-0.12744926,-0.10855492,-0.016890803,0.12799515,0.08987871,-0.09362618,0.11341465,-0.0396576,0.12019716,-0.052917346,0.042862598,0.09000385,-0.07955644,0.08293982,-0.12648061,0.014404262,0.07847156,0.099152364,-0.11615435,0.01308423,0.04787604,-0.13130116,0.046759874,0.087580234,0.014891797,-0.12704566,0.058600105,0.114916734,-0.11793903,0.055028785,-0.11387334,-0.024983028,-0.010856817,-0.11515978,-0.10355602,0.09686126,-0.013798824,-0.0774842,-0.0063907197,-0.015526563,-0.0049218666,-0.025452001,0.040495843,-0.0667365,0.020185376,0.13453053,-0.13066263,-0.037545748,0.096837685,-0.0066052713,-0.12941577,-0.056936342,-0.1339614,-0.005400033,-0.09453639,-0.02274006,0.038572025,-0.05957808,0.06898432,0.020767728,-0.044396058,-0.08790978,0.015349259,0.065262854,-0.036720473,-0.12019807,0.00807224,0.13766496,0.08563036,0.1256204,-0.07036989,0.11032555,0.06872415,0.12709282,0.09366107,0.061996937,-0.09614844,0.07008757,-0.026480896,-0.08426645,-0.060531538,0.040139165,0.117262796,0.10384662,0.10549881,0.014243959,-0.121701814,0.04155097,-0.10202484,-0.09954859,-0.13419233,-0.010832311,0.024228383,0.12297795,-0.11849961,0.10081121,-0.12173665,-0.08465736,-0.11992623,-0.050037272,-0.055775963,0.09481372,0.097072884,0.064598136,-0.0043884655,-0.020620594,0.11723266,0.08936848,-0.032462407,0.072768934
0.029512286,-0.027597403,-0.018613543,0.08442971,-0.11293434,0.098372266,0.12870395,0.08428167,0.122661695,-0.06569133,0.07053078,-0.12468759,-0.11995962,-0.011448825,-0.0071868245,-0.061521336,0.04555291,0.06212981,0.037530124,0.11816922,0.0030883832,-0.07501873,0.029526606,-0.044616662,0.092881836,-0.10728177,0.12207318,0.06618091,0.0096529005,-0.009956162,0.1180576,0.124847494,-0.12240216,-0.13115059,-0.08230988,-0.123588115,-0.070573,-0.08142458,-0.12882262,0.08951093,0.08053736,0.0685237,-0.054269884,0.09182129,0.09869376,-0.09563829,0.11279324,-0.059831418,-0.0021221112,-0.024487587,-0.10347871,0.12523925,-0.12835373,-0.12848717,-0.07769877,0.020053698,-0.13130033,-0.09533325,0.11245444,-0.028198078,-0.104448,0.08243726,0.0630781,0.130507,-0.0302689,-0.12170625,0.08647225,-0.08588757,0.13471708,-0.026477557,0.09537996,-0.00077843794,-0.015345067,0.06935328,-0.020895524,-0.12212776,0.10607948,-0.004396108,-0.13201886,-0.09645997,-0.0628505,-0.073748454,0.09061967,-0.097518235,0.11090261,-0.0017369129,0.03287267,0.1055189,0.055596102,0.09886659,0.066922404,-0.015579162,0.09243282,-0.11572188,0.0606881,0.090601765,0.019775588,0.119049236,0.105534494,0.07902491,0.12322332,0.119863175,0.037202466,-0.03750716,0.065746084,0.09362085,0.08269173,-0.05771829,-0.027028983,0.13026224,-0.014853257,0.056856703,-0.046435226,-0.10518861,-0.06530843,-0.033581242,-0.093681455,-0.10727735,-0.04004621,-0.1031345,-0.034323875,0.01698037,-0.05906661,-0.07824956,-0.05309636,0.12528165,-0.09829391,0.027277121,0.10203923,-0.041054096,-0.10847496,0.06391464,-0.10769927,0.06359002,-0.1302213,0.08989561,-0.046638627,-0.061374262,0.11657681,0.06097119,0.08213825,-0.096225165,-0.08669631,0.051951636,-0.10991797,-0.057004377,0.024366977,0.031500626,-0.10031571,-0.0534425,0.02538459,0.10461497,-0.055563953,-0.08888652,0.036663607,0.025491957,-0.054009788,0.019071247,0.10831664,-0.059101954
-0.045985803,-0.016579844,0.018324852,-0.010144532,0.001498387,-0.008775696,0.0812254,0.097512595,0.045987263,0.08180891,-0.11879599,-0.07319276,0.13021678,-0.015038816,-0.041011523,-0.073117934,0.0037352145,-0.12788637,0.03009285,-0.11152774,0.019854154,-0.11492779,0.026878148,-0.00801374,-0.09395498,0.06848533,-0.01363419,-0.079563476,-0.13045606,0.117610805,-0.016915455,0.05870773,0.0051599294,-0.05228938,-0.0058918297,0.0106176585,-0.020668587,-0.09348799,-0.11558002,0.01609847,0.13101998,0.11875141,-0.119632535,-0.12108132,0.10992792,0.08108542,-0.00947547,-0.08286949,-0.12606996,0.12537797,-0.047124103,-0.09629823,0.05012174,0.08069245,0.12038358,-0.06877903,0.090769626,-0.060318872,-0.008501157,0.025128804,-0.043878876,-0.0062777745,-0.054869816,0.08361116,0.057015553,-0.060260434,0.020124152,0.0011251122,0.027445069,-0.075795025,-0.052579515,-0.07064213,0.08036968,-0.029463843,-0.13597015,0.04055576,0.020982966,0.10596671,0.046790615,-0.102718025,-0.114581555,-0.08356974,-0.13166282,0.054817975,0.039869815,0.033674926,-0.12277466,0.05512786,0.062145703,0.043818653,0.07916652,-0.022203416,-0.06089916,0.12279316,-0.070186004,-0.099914156,-0.13649389,-0.12881885,-0.04433404,0.05739256,-0.118007,-0.07330266,-0.09618413,0.04664652,0.12084669,0.13268737,0.12450805,-0.027059473,0.054228902,0.07198353,0.12322977,-0.05884555,-0.029620811,-0.11985133,0.012151921,0.035952434,0.056153297,-0.097474545,0.05036116,0.09473915,0.084718175,-0.044857536,-0.13046096,-0.09402135,0.02490507,0.05107002,0.13065279,-0.061694436,0.12152517,0.031528324,0.03028445,0.03810343,0.019213494,-0.05373282,0.014450337,0.08678706,0.1054679,-0.02564509,-0.08876778,-0.13295336,0.0009288937,0.020025223,0.12630717,0.01921233,0.028306052,-0.015181944,-0.11954063,-0.080522045,-0.13149372,-0.113408975,-0.10327211,0.099066064,-0.097939186,-0.047195144,0.01946655,-0.058717906,0.043043286,-0.10157758,-0.049971625,-0.05599966
-0.0659111,0.13257895,-0.014448757,0.04195415,-0.09562908,0.05867379,-0.0899016,0.07071095,0.073669285,0.0046573817,0.09328552,0.12679105,-0.014050536,0.11750581,0.0795643,0.12868337,0.06848596,-0.06505543,0.13043377,-0.11271376,-0.012797202,-0.044385485,-0.0058073434,0.11375282,0.11524774,-0.005441087,0.13251875,-0.13181539,0.09790724,0.042642865,-0.10751485,-0.1328363,0.08502918,-0.032195453,0.12798531,-0.008560545,-0.12695058,0.013522811,-0.06636849,-0.055861354,-0.044056285,0.049386255,0.13037343,0.1241473,-0.044684827,-0.010981886,0.02540062,-0.013634751,0.11016708,0.058595918,0.11446375,0.08277723,0.0023402697,0.0752408,0.116865814,-0.012474618,-0.05590139,0.10771563,-0.105725735,0.026036138,0.025096204,0.0060224235,-0.055436824,-0.048491534,-0.048250463,-0.048850246,-0.05080709,-0.12343199,-0.016784253,-0.10992798,-0.00535795,0.10442049,0.052173518,-0.0838602,-0.068409376,0.06510667,-0.10549436,-0.051293258,0.13138607,0.113872625,0.04783008,-0.03653132,0.06168179,0.07345444,-0.116695195,-0.009456666,0.02391497,0.05751614,-0.12883377,-0.0006144183,0.13496846,-0.037441984,-0.07939697,0.06345732,-0.001951341,0.07309621,-0.0022536984,0.07280242,0.051563583,-0.054402463,0.0065996554,-0.0069459523,0.07621785,0.0714979,-0.12091088,0.13165745,0.032269344,0.048063487,-0.12196363,0.04505432,0.020228665,-0.10543839,0.025964199,0.059775572,-0.11968465,0.12967283,-0.08551111,0.06888266,0.12528242,0.101297095,0.055726964,-0.05965979,0.09134832,0.011001309,-0.063722216,-0.035698898,-0.11904662,0.08123714,0.0888003,0.008153313,-0.03506846,-0.110850476,0.11618422,0.10646219,0.09182584,-0.11708282,0.10946996,-0.0051519894,-0.11119979,0.13427997,-0.009375935,0.07548978,-0.05233497,-0.10574735,-0.07705315,-0.12784451,0.028084585,-0.05774098,-0.106010854,0.088382885,0.08189818,0.04206185,-0.09552627,-0.06836908,-0.09598315,0.13282822,0.051168792,-0.06886193,0.12918465,0.07374467
-0.095912345,-0.027249083,-0.13657624,-0.12946625,0.013421638,0.12521984,0.029338391,-0.03864357,-0.02597331,-0.08247453,-0.0479882,-0.06313752,-0.109078474,0.029686436,-0.11929328,-0.07286193,-0.05436644,-0.011518538,-0.037441775,0.006867066,0.125395,-0.09012977,0.08152278,0.035622373,0.065668926,0.061734118,0.074593455,0.13078818,0.10691321,-0.059135474,0.030270278,0.09538324,-0.06715397,-0.01567386,-0.11383639,0.035216928,-0.07607128,-0.020658411,0.04324743,0.009071603,-0.078107685,-0.10606624,-0.0586289,-0.07873587,0.13141891,-0.00750573,-0.028245173,0.0062227193,0.03496611,-0.027205123,-0.046153255,0.06382409,-0.06770837,-0.1244551,-0.031522095,-0.11403158,0.07303943,0.0045837127,-0.083611876,-0.068769,0.06548816,-0.0357631,0.08745407,-0.019339643,-0.09161584,0.057942342,-0.06379735,-0.10015552,-0.03167316,0.006918356,0.041330725,-0.036013186,-0.06877396,0.13562152,0.12816098,-0.019880667,0.055481862,0.12751792,-0.13167115,-0.07238415,0.0030044015,0.047105018,-0.089285105,0.082014725,6.982684e-05,0.018912137,-0.019876257,0.1337888,0.034761306,0.037171587,0.015172243,-0.08028429,0.03432381,-0.08088203,0.06962682,-0.09842618,0.12931669,-0.1109479,0.04864727,0.0050218166,0.02347965,-0.05790015,-0.119507045,-0.12011558,-0.10282864,-0.029424144,0.12858742,-0.061825223,-0.06817842,0.040130705,0.04849136,0.05461152,0.10076836,-0.08226869,0.026662707,0.039823487,-0.04586126,0.02547428,-0.059524603,0.062440086,-0.08686026,0.06086923,-0.06869117,0.06421909,-0.032372154,-0.023028404,0.020473465,-0.028387286,-0.10544142,0.0596212,0.0028384477,-0.03655248,-0.069688454,-0.02666339,0.094833955,-0.022720946,-0.08355536,0.0027243102,-0.13232219,0.056879863,0.038489416,0.024673507,-0.07882743,0.02479662,-0.016968668,-0.009413943,-0.10315919,0.06805697,-0.13522328,0.130458,0.00079374015,0.10215078,0.010820794,-0.12908068,0.060055673,0.015722018,-0.10525984,-0.090410344,-0.05674094,-0.039067946
0.02270464,-0.08321022,-0.08511723,-0.10935887,-0.09615495,-0.110552154,-0.09661424,-0.12649398,-0.03767968,0.03885958,-0.032001976,-0.03298172,0.13315405,0.02681275,0.08493575,0.008830861,0.08925846,0.024166346,0.024412885,0.08303709,0.06854845,-0.043784462,0.04445804,0.06735371,0.012347913,-0.042109597,-0.12511171,-0.049074475,-0.09005261,-0.09143213,0.07650152,-0.121990815,0.09855723,0.10210713,-0.06033056,0.040868256,0.039634313,0.085933946,-0.05387674,0.06320025,0.12792537,0.09066576,-0.09617358,0.022278132,0.10493271,-0.05668993,-0.13145807,-0.05871038,-0.06684461,0.034115035,0.09500805,-0.077971764,-0.03833414,0.039252087,0.040054202,0.101590075,0.018552763,-0.024524271,0.09501056,0.038279083,-0.12130336,-0.11641905,0.075257726,0.055102434,0.0024947324,0.12460275,0.10337443,0.09285598,-0.11452865,0.13291934,0.1178603,0.0806924,0.0042785043,0.005610767,-0.0051463363,-0.13042302,-0.05118987,-0.084819406,-0.072304435,0.003184341,0.018830951,0.04843952,0.09037555,0.089407936,0.0059114234,-0.07157816,-0.11443862,-0.12700526,-0.058507375,0.12826635,-0.012315872,0.0077496115,-0.12115906,-0.0021654598,-0.07964412,0.13722788,-0.13671352,0.091246106,-0.07143638,0.036621697,0.1322053,0.13263588,0.08325579,-0.11169386,0.071250506,-0.108061224,-0.071234286,-0.003777654,0.09189858,-0.090690434,-0.10260591,0.1170707,-0.029863449,-0.01989833,-0.107531406,-0.08956129,-0.06172431,0.060989916,-0.0015837923,0.035577264,0.11981125,-0.038346708,-0.054426238,-0.07384983,0.11309442,0.13564149,-0.060260985,0.036199648,-0.023549974,-0.030094936,0.12395361,0.02214097,0.015325296,0.11113716,-0.0028305298,-0.13296008,-0.032123998,-0.019682653,0.03377041,-0.0126673635,0.08278749,0.043810453,-0.02623851,0.059936386,0.02423909,-0.032756146,-0.11497611,-0.06500991,-0.07838382,-0.10330926,-0.04986663,-0.043389045,0.12892711,-0.0019789315,0.03246891,0.04775102,0.009926589,-0.1323595,-0.015971681,-0.09171456
0.086728014,0.123467326,-0.017901307,0.071758874,-0.013289162,0.0017237897,-0.009743092,0.0504362,-0.11720501,-0.09742449,-0.06320515,0.07978331,0.0025245873,0.13818127,0.03640113,-0.030332804,-0.13161577,-0.10049762,-0.029580198,-0.03846705,0.12943494,0.11421365,0.009396161,0.051244974,0.011124214,-0.045113113,0.0889884,0.041961007,0.11518868,-0.100975685,-0.12858036,-0.12131228,-0.072509944,-0.01615656,0.03647678,0.043881893,0.012590624,-0.13343892,0.07616122,-0.07096196,-0.07834339,-0.13030364,-0.113678746,0.087049685,-0.015655063,0.08347412,-0.1054958,-0.060730547,0.08703732,-0.014126524,-0.036067978,0.03987106,0.1290198,-0.084560595,0.111161396,0.13335042,0.017664518,-0.056793448,-0.06378879,0.08989831,0.10661152,-0.0040790187,0.031032827,-0.12382589,-0.008373113,0.052812885,-0.118154384,0.0876716,0.09895835,0.050212134,0.10301373,0.1332443,-0.09881304,-0.07763722,-0.08009382,-0.0013602307,-0.009315779,0.12931484,-0.06033155,-0.018613217,-0.03640705,0.10116651,0.07889067,0.06801979,0.0642828,0.0637871,-0.044180814,0.03334104,-0.09294529,-0.12618168,0.05755025,-0.024035523,0.12577277,0.10387434,0.035350494,0.040132347,-0.04617544,-0.1109622,-0.052432604,-0.087215364,0.09101362,0.024543675,-0.047516096,-0.13853279,0.11329656,-0.13408276,0.0322462,0.0798473,-0.00962379,0.102293,0.03676738,-0.03741332,-0.06443651,-0.03790324,-0.063337125,0.071857475,-0.034383234,-0.051438507,0.031882513,0.09571381,0.13502721,0.013333217,0.05162802,-0.043068048,-0.11285236,0.03443634,-0.04233209,0.03720434,0.10984497,0.056923192,-0.08977529,0.060624465,0.0637615,0.12057143,0.06073984,0.04391886,-0.0735061,0.062857285,0.09716811,0.11032986,0.11595288,0.035318967,-0.03584522,0.11297816,0.08779331,-0.005343043,-0.0759573,-0.09546923,0.050344095,0.004929498,0.026273787,-0.08472954,-0.070055336,0.03892448,-0.05008691,0.06657284,0.06421144,0.048087563,0.036209002,0.04081956
-0.038557075,0.056270014,0.027474191,0.043937933,-0.06875445,-0.031043155,-0.10157653,-0.0060235355,-0.023378557,0.019383261,0.02899979,-0.028471299,-0.07625406,0.09665664,0.07775025,-0.08571569,-0.062964104,-0.04186271,0.12140569,-0.07960859,-0.10953201,-0.034385856,-0.1256752,-0.044136394,0.07998267,-0.07682839,-0.09008871,-0.019815266,-0.0064385054,0.006406365,0.041978136,0.036104787,0.11034007,-0.041908287,-0.11228477,0.052972313,-0.13523361,-0.06699081,0.005827565,-0.10337998,0.018843886,0.038661607,-0.100807905,0.052955642,0.09460886,0.01433097,0.1300477,-0.10965623,0.010119722,-0.051660314,-0.008271787,0.058417156,-0.08554213,-0.055870026,0.015136311,0.0032223389,-0.014099251,-0.006165373,-0.07226714,-0.00821016,-0.12844609,-0.09806451,-0.0908242,-0.050014794,-0.08733089,0.12967134,-0.0036552404,0.07512715,-0.058646884,-0.13878155,0.09124715,0.13043866,0.11443942,-0.11170273,0.031066328,0.122090876,-0.027675811,0.11215355,-0.10307045,0.011339933,-0.0077055753,0.10478485,-0.015397649,-0.074009046,-0.05875894,0.056054503,0.124411575,0.10352811,0.05838717,0.103641436,-0.06382685,-0.059657864,-0.06467827,-0.09047672,0.057343535,0.1351523,-0.097885974,-0.036269754,0.06894677,0.0055419826,-0.081718646,-0.002227217,-0.026214894,0.091108926,0.033661555,0.13030377,0.023943052,-0.085544854,0.054839406,0.06460683,0.046585057,-0.061458662,-0.103232294,0.023839798,-0.0038037193,0.12950706,-0.108900726,-0.008701422,0.13851388,0.040134605,0.08700102,-0.07457475,0.015907116,0.042209473,-0.0042356495,0.060057405,-0.062162243,-0.117214024,0.09185208,0.08589869,0.12357399,-0.012459815,0.071477644,-0.061835736,0.077211455,0.11799558,0.08194484,0.003414198,0.09063969,-0.13559887,0.08328093,-0.07588723,-0.0934715,-0.02369222,0.1022266,0.12031245,-0.062221557,-0.081422836,-0.082295425,0.0914401,-0.096061796,0.07188758,0.015771963,0.017514478,0.063476436,-0.053478744,0.0676479,0.09779143,-0.07435017,-0.096389465
-0.069330044,0.018001683,0.008834284,-0.13530783,-0.03392902,0.12782711,-0.028664157,0.12794726,0.11485906,-0.124500126,0.108364955,-0.030582694,0.046917833,0.107235335,-0.045077607,0.13021989,0.006643653,0.05238314,0.050566062,0.0828992,-0.11239534,0.02723812,-0.010619527,-0.10454582,0.10312311,0.007625563,-0.12256445,-0.035844807,-0.0053766402,-0.12258654,0.084010504,0.12849274,-0.094508514,0.12811725,0.13080566,0.011662853,-0.03704737,-0.065941565,0.0037810053,0.13620512,0.023607153,-0.04022422,0.031794075,0.06650079,0.07537184,0.01845818,-0.040338982,0.011348612,0.038002737,0.009072003,-0.11286234,-0.05635929,0.06479719,-0.05481162,-0.03809536,0.019289184,-0.021126328,0.016855622,-0.10893264,0.12538037,0.010262272,-0.022925278,0.11353925,0.040046696,0.020783873,-0.10106158,0.011650482,-0.085657954,-0.066184185,0.103913836,0.034974255,0.059467237,0.049561508,-0.13597028,0.11965347,0.020868367,-0.017861102,-0.013459944,0.07651952,-0.03602146,0.054465305,0.084624924,-0.10617021,0.13302295,0.060605768,-0.043327667,-0.080198236,0.070408165,-0.12983786,-0.068995394,-0.01884152,0.09388301,0.11451371,-0.007858042,0.1296052,-0.022115737,-0.12902814,-0.056223925,-0.06714975,0.09712952,0.12041501,0.06589357,-0.037230216,-0.11759065,0.0043814885,0.06505351,-0.06600166,-0.014471384,0.04345601,0.117136605,-0.10174026,-0.09676967,-0.0017715486,0.12152837,-0.012083888,-0.109004736,-0.10893826,-0.033165466,-0.10047978,0.08046914,-0.061336312,-0.027786873,-0.03881502,-0.11464766,0.10687659,0.095203005,0.10180153,-0.09091045,0.0939421,-0.02275356,-0.075871415,0.11605673,-0.031985726,-0.059050173,0.10092571,0.07336535,-0.04527156,-0.079346195,0.065231726,-0.1320021,-0.02653568,-0.1199101,-0.07916761,-0.056318156,-0.0014078263,0.0634685,-0.13792352,-0.11678088,0.12454638,-0.00621821,0.04153262,-0.120044574,-0.040610354,-0.04740874,0.08455015,-0.021603324,-0.09628364,-0.06021452,0.067171626,0.026955763
0.020823453,0.034838445,-0.13585904,-0.04419385,-0.12516299,-0.05337067,-0.061727084,-0.03646467,-0.10311718,0.020299302,0.014352037,-0.1327826,-0.1241407,0.010760806,0.06982759,0.095969096,-0.12100739,-0.13200937,0.04804696,0.05510713,0.11490625,0.0817532,0.023741378,-0.10572945,0.008278141,-0.08610515,0.12478717,-0.051738456,0.106010504,-0.06864102,0.13260989,-0.031348016,0.06175974,0.07652717,-0.09255208,-0.062976934,0.00846101,-0.07361008,-0.01510832,-0.07354309,0.10858148,0.04635451,0.1146671,0.12152044,0.124873914,0.096861154,-0.1267825,0.11203736,0.07313884,-0.0013629745,-0.02021604,0.032895047,-0.023244388,-0.10132285,0.067218795,-0.054837715,0.029683916,-0.08903752,0.08669369,-0.039409917,0.09736543,0.00047534835,0.13175745,0.053403396,-0.025593286,0.084636964,0.022768306,0.015205059,-0.07601406,0.009293762,0.088523455,0.059670497,-0.08657362,-0.03577859,-0.124353915,-0.0735781,0.109125346,-0.08451409,0.017986335,-0.13828544,-0.077242635,0.11050413,0.08183712,-0.0820993,0.06989755,-0.11745031,0.070637174,-0.026656667,-0.058676586,0.07029388,0.03352961,-0.022709727,0.05715426,0.045987327,-0.09672756,0.018832654,0.06820455,0.0610965,-0.053736985,0.06419563,-0.019079547,-0.08303646,0.03948046,-0.13501771,-0.03575991,0.04963702,-0.07463776,0.09436423,-0.07617676,0.048341356,0.0202881,-0.05504342,0.046138894,-0.069682635,0.058712717,-0.06803586,0.12157184,-0.010066463,-0.03693367,-0.007993211,-0.0024220424,-0.02092303,-0.025503362,-0.098579,-0.051622212,-0.0535411,-0.06966223,-0.045948774,0.07825628,0.091590926,-0.11694773,0.06259369,-0.0068582166,-0.01806801,0.13160011,0.05423616,0.016515426,0.10940736,0.1125975,0.13463661,0.114769526,0.03099098,0.073157705,0.09798837,-0.11217353,-0.11421709,-0.13418315,-0.124922566,-0.040512078,-0.060350105,0.10654117,0.08539975,0.12640052,-0.04437497,0.11428521,0.12662287,-0.027610566,-0.11180141,0.002952909,-0.07216762
-0.018993761,0.11717199,0.06186201,-0.03811006,0.018054636,-0.027623266,-0.12944639,-0.036628112,-0.08412937,-0.08250372,0.13110256,0.012916526,0.05740688,0.08744928,-0.11491906,0.0921262,-0.018448845,0.13016951,0.048233345,-0.09563599,-0.08603745,0.094454035,-0.09619518,-0.0031021123,0.088145494,-0.04891497,-0.08764402,0.0067615723,0.12671359,-0.12504083,0.04750443,-0.055010643,-0.006895871,-0.057785988,0.08328469,-0.07473859,-0.12835038,0.124578975,-0.04078742,-0.03573417,-0.12606728,0.07782139,0.092205256,0.02997495,-0.08497812,0.12090352,0.1287606,-0.1014477,0.10545116,-0.053691912,-0.10965666,0.057932075,-0.09196611,0.01971094,-0.12010294,0.020232609,-0.024572063,0.051497035,-0.08691766,0.028044065,0.029175315,0.036856975,-0.010904636,0.09833815,-0.090824924,0.0917711,-0.01170422,-0.006003966,-0.003126594,-0.12532346,0.053892724,0.11042484,-0.039452597,-0.08809045,0.06031481,0.08137279,-0.04125311,0.13342774,-0.07993462,0.13145414,0.045485824,-0.0968109,-0.047201935,-0.11377571,-0.09744911,0.07386725,-0.010578394,-0.025863176,-0.019758394,-0.03894344,0.071887776,0.09600207,0.11264752,-0.113460764,-0.110823154,0.12569459,-0.091785006,0.109445125,0.01399142,0.11112207,0.12831578,-0.06857377,-0.07449219,-0.13074064,0.10802061,0.05782795,0.07128896,0.033237074,0.00939195,-0.080042794,0.113155454,0.10528516,0.076965325,-0.08211843,-0.11193433,-0.103881374,0.05451504,0.08969947,-0.09222102,-0.05341784,-0.025758253,0.12940189,-0.023459118,-0.11733593,0.068905875,0.04569946,-0.054320186,-0.12481052,-0.04183742,0.09688092,-0.12505338,-0.11645117,-0.0038471038,-0.020053899,0.10207152,-0.04576805,-0.05734454,0.020996172,0.06402516,0.008002563,0.019183394,-0.028427674,0.02780296,-0.061797068,0.0451249,0.033738304,-0.092383504,0.07302751,-0.050539903,-0.0959335,-0.0055624247,-0.11184513,-0.12272024,0.0136686275,0.11795596,0.07582647,-0.016723732,0.12248085,-0.06251613,-0.123048455
-0.1066768,0.07329156,-0.077279225,0.091649055,0.1046257,-0.018428618,0.08379176,-0.09170638,-0.0161934,0.089721784,0.00033672538,0.033234794,0.123428494,0.037165504,0.06192119,0.13017982,-0.001606062,-0.04089362,-0.13628456,0.12499103,-0.067224294,-0.02487399,-0.047651898,0.011944001,0.124525085,0.09071194,-0.033505835,0.01607476,0.06793253,0.05454207,0.08209233,0.057179794,-0.114080586,-0.08019377,-0.08108864,-0.12850389,-0.10648476,0.075654656,-0.031751033,-0.028603537,-0.016061278,-0.06288961,-0.01558212,-0.010185473,-0.13755801,0.0024626304,-0.0064230384,-0.111768715,0.05715209,-0.11030177,-0.0050312323,-0.11291808,0.12506455,-0.089142226,-0.068538405,0.11977711,0.074659415,0.13056217,0.0968362,-0.111899465,0.08471156,0.06243999,0.11962472,0.12806416,0.08477803,0.09690886,-0.07302191,0.024907207,0.10408648,-0.08963491,-0.050951533,0.054053597,-0.1167557,0.023177,0.12754706,-0.05475963,0.11522646,-0.0220672,0.07876151,-0.13116601,-0.091336966,-0.05338387,0.12924053,-0.08436267,0.1100599,0.09222219,0.047065794,-0.03817137,-0.022691198,-0.09327204,-0.095352076,0.037661448,0.07832579,0.03600386,0.13938877,-0.07868022,0.09264978,-0.12885354,-0.0872153,-0.08122139,-0.014298147,-0.12334809,-0.100244425,-0.108161345,0.022691583,-0.1105586,0.118836135,-0.067401305,0.014593104,-0.13512117,-0.06742013,-0.02975659,-0.05901774,-0.10106584,0.07597184,0.015423646,-0.054006875,0.028834328,-0.112988114,0.031573776,-0.089709036,-0.08918638,-0.105083115,0.07641615,-0.021507457,-0.004399066,-0.016779998,-0.10263725,-0.035659805,0.12871793,-0.07643217,0.12726599,-0.035166476,-0.05051947,0.0048847417,0.096891694,-0.06136797,-0.06600686,-0.05588016,0.07447794,-0.09306088,-0.067093305,0.12249615,-0.10477323,0.07503875,0.078215346,-0.06758793,-0.11850554,0.018178403,0.08202034,-0.109552994,0.058750615,-0.0046303966,-0.045968197,0.00089703285,0.02121423,0.014487605,0.103635065,0.0672974,0.0029230122
-0.116116054,0.024072155,-0.09806342,-0.102191046,-0.07128875,-0.076593906,0.03528808,-0.0060164905,0.06316418,0.0046160608,0.11947654,-0.051154364,-0.026865996,-0.06784172,0.13580686,0.11173798,-0.10674985,-0.11281112,-0.07726318,0.10610807,0.13260482,-0.12438025,-0.061100665,-0.0108034015,-0.12828714,-0.05062977,-0.013082504,0.05922234,0.08139806,0.06633117,0.071747735,-0.0008017693,-0.10365616,0.0068346676,-0.0037048524,0.11877897,-0.015984813,0.11448037,0.052521072,-0.07533304,0.043578435,-0.048317216,0.058191113,-0.006328091,-0.06528568,0.08627666,0.03565576,-0.015845405,-0.076171644,-0.09007319,0.09422854,-0.06483377,0.12191334,0.12345551,-0.10452208,-0.076124795,0.030619739,-0.08153685,-0.113111965,0.12151197,-0.13117175,-0.014231524,-0.050070588,-0.124575414,0.11274704,0.0135251675,0.09692122,0.09429736,0.05097703,-0.054771736,0.06555694,-0.031565934,0.08765768,0.04046805,-0.02014213,-0.06263683,0.025030911,-0.026100334,0.057246506,-0.1351535,-0.00799843,-0.032761145,-0.10175185,-0.046264015,-0.07384443,-0.04876993,-0.04099371,-0.13796686,0.1258425,-0.047710653,0.0092652505,0.042806026,0.121299855,0.020559156,0.07775065,0.0214869,-0.06431228,0.051723365,0.03646855,-0.08071521,0.12016117,-0.010345514,-0.029826302,-0.0693258,0.005948424,0.067234166,-0.08563543,0.10569601,0.040639777,0.052983407,0.11066036,-0.01902409,-0.04189935,0.13523622,-0.09848533,-0.12850983,-0.067997046,-0.0025801552,0.09944099,0.1006792,-0.056869823,-0.10395448,-0.025246952,0.08847537,0.06633309,-0.032057215,-0.115412265,-0.01038826,-0.09632583,-0.09595095,-0.028288292,0.050972886,-0.12407745,0.042253785,-0.008472006,-0.031364627,-0.12657745,-0.050232198,-0.090720795,0.12754606,-0.05518643,-0.1104885,-0.118343815,0.11539792,-0.0799682,-0.12143615,-0.1060884,-0.029203735,0.07037017,0.044018507,0.021540403,0.10648018,0.082873784,0.13402562,0.084461875,-0.09742032,0.121770695,-0.035454094,-0.021555558,0.054490082
0.03327545,0.12857373,-0.12570986,-0.036759526,0.03220061,-0.07372593,0.11160297,-0.1181204,-0.13460894,0.11440793,-0.004745665,0.06363944,-0.072635666,-0.086867414,0.12080563,0.057134807,-0.01740209,0.0068732947,-0.020863175,-0.066389896,0.06722496,0.04747479,0.048064962,0.11691268,0.07866617,0.120707,-0.11583575,-0.12072047,0.08750028,-0.09663148,0.10976403,0.045292202,0.09888447,0.10868813,-0.031546216,-0.05299551,-0.033308394,0.09125722,0.111143135,-0.079901166,-0.13084608,0.050637,0.105208464,-0.041637175,-0.05147576,0.10273806,0.013884194,-0.123669356,0.08456731,-0.06307105,0.10115476,0.014886493,-0.087152936,-0.12985785,0.1018208,-0.080214806,-0.015520788,-0.093024656,0.106990896,-0.05509549,0.13844398,0.020503063,0.049776554,0.039034884,-0.0029610922,0.0046140198,-0.12160759,0.10771474,-0.0882398,-0.13217682,-0.10914424,-0.013137374,-0.110789664,-0.055046707,0.098745845,0.13342279,0.048938967,0.030855775,0.059127387,-0.0225257,-0.08321227,-0.005872503,-0.012576872,0.13056332,-0.11176796,-0.01082301,0.02262424,-0.058197264,-0.04062223,-0.11570164,0.12872867,0.07871587,0.0958872,0.0016480504,-0.06183625,-0.104250245,0.11220591,-0.060760017,-0.0009043045,-0.13209888,0.022072045,0.05296887,0.0080357175,-0.071872324,0.022512557,-0.0714917,0.08250288,-0.09309521,0.106729634,-0.07947294,-0.0053232997,-0.0784353,-0.10652146,-0.012223407,0.112500444,-0.011157794,0.09850505,0.05012118,-0.08546151,-0.11066924,0.0022362345,0.090811506,0.09033042,-0.019605355,0.039763745,-0.05035934,0.06962344,0.03062369,0.10760302,0.083285116,-0.029488977,-0.134601,-0.08152118,-0.09026007,-0.07528686,0.09714273,-0.006533381,0.12913083,0.008345305,-0.08053534,0.047104087,0.1262556,-0.11328257,-0.07098728,0.12344723,-0.05053308,-0.1036936,0.073596306,-0.06035406,-0.020475559,0.07470432,0.044039994,-0.085011296,-0.12288374,-0.13088341,-0.12468017,0.12147711,0.09742874,-0.065324165,0.083689235
-0.112985365,-0.090088174,-0.033894043,-0.049016356,0.110144876,-0.049175553,-0.031979695,-0.13081558,-0.011448001,0.098878734,-0.06498236,0.012352129,0.02597933,0.07570044,-0.057753142,0.004290627,0.0029412806,0.0072641373,-0.02606371,-0.07902914,0.13061625,-0.134344,0.014258488,-0.09143524,-0.06237802,0.025888396,0.10043581,-0.060902935,-0.104128696,0.094456926,0.12165085,0.08729879,-0.011891206,0.119978115,-0.10960571,0.0027510559,-0.1192101,0.049253847,-0.0055165966,-0.005226869,0.12291915,-0.040424865,-0.07849305,0.103372484,0.059786152,0.092485234,0.114651345,0.0147071825,0.07021012,0.10181931,-0.054890998,-0.02375367,-0.022097675,0.12853938,0.0011409095,-0.09199972,0.0041049942,-0.12868339,0.06767503,0.005720276,-0.081671044,0.006916102,0.091830194,0.07404327,0.10967817,-0.12678212,-0.1264313,-0.04649503,0.057179283,0.13414079,0.0016978702,0.1194035,-0.07899797,-0.12975547,-0.06609659,-0.06198997,-0.00015717352,-0.068601504,-0.06343074,-0.03542043,0.09226757,0.024662606,0.014228072,0.10815315,-0.08737217,0.031563126,-0.103309855,0.10015827,0.10775642,-0.08552767,0.03131173,0.094894715,-0.047281224,-0.12686472,-0.023760436,0.02632728,-0.06158643,0.11543804,-0.016746212,-0.084105805,-0.007878488,0.028660988,0.07154575,-0.0045074066,-0.009639891,-0.033420313,-0.038364172,-0.06699369,0.1324301,0.11467948,-0.06790682,0.13443807,0.102706045,-0.049661666,-0.07345489,0.094570264,-0.07556077,-0.009507316,0.09348328,0.054563772,0.042767685,0.0366392,-0.07771261,-0.10942115,-0.025516659,0.0745321,-0.05588761,0.015891504,0.033342548,0.08908751,-0.027317049,0.10185901,0.052116167,0.050372902,0.05403952,0.13035297,-0.07762944,0.043986,0.05355678,-0.0062107425,0.113737,-0.12933853,0.046125595,-0.12606679,0.11033717,0.006330538,-0.09307254,-0.023594849,-0.08408803,-0.084967665,-0.123854816,0.089090735,0.016494567,0.015430797,0.0043028374,-0.06675189,0.0660324,-0.033212036,-0.11334004,-0.11837311
-0.03744208,0.096905425,-0.12847027,0.029212337,0.09776828,0.10541429,-0.014088379,-0.10370831,-0.08853061,0.045556895,-0.1304557,0.099897765,0.055826165,-0.111053355,-0.0866265,0.09288397,-0.0024950355,-0.1171681,-0.11502777,-0.050177462,0.065333776,0.031189606,0.029175833,-0.0733699,0.058933012,-0.0837952,0.016437517,0.10582732,-0.10520393,0.05954484,-0.017694583,0.0709054,0.003943737,0.04576947,-0.11638914,0.07224567,0.02890177,0.11471332,-0.08166002,0.091133356,-0.0033174849,-0.013973019,-0.07931523,-0.06564553,-0.04991384,0.027114982,-0.11100988,0.040781777,0.028300153,0.066581175,0.06342178,-0.048355557,0.040931437,0.13437694,-0.02185096,0.007900133,-0.07650289,-0.10297272,0.10908505,-0.10672165,-0.037899453,0.11432025,-0.040215958,-0.104734614,-0.12810269,0.05159446,-0.09539771,0.07974086,0.1151646,0.11845095,0.12598008,-0.10654363,-0.122663766,-0.03412793,-0.115990706,0.034128554,0.098278716,-0.06835078,0.11933678,0.084330454,-0.08940648,-0.05699014,-0.089785464,-0.013149217,-0.06981252,0.008664459,-0.10256916,0.1023723,-0.07743763,-0.018199423,-0.007997404,-0.02922258,-0.124520116,0.028337497,-0.045659337,-0.0390123,-0.014126285,0.060980096,0.1035254,0.035116024,0.13144472,-0.10806541,0.12179011,0.098066755,0.0023263264,-0.12929964,-0.11381393,0.02251893,-0.09476303,0.025936928,0.015531027,-0.052595384,0.08703542,-0.12856244,0.12435664,0.04933328,0.1337068,-0.13520195,0.12895307,-0.034342326,0.007849516,-0.08550635,0.0017601635,-0.025248853,0.06722689,0.07995374,-0.12578315,-0.082170255,0.13110363,-0.045561954,-0.05364961,0.035890296,0.022798078,0.022223394,0.12694657,-0.012390094,-0.07788956,0.047811437,-0.030262822,-0.011583895,-0.023434516,0.07499966,0.015965173,-0.07870056,-0.087660365,0.08402231,0.030555783,-0.009532899,-0.057610027,-0.09157884,0.1010094,-0.03280054,-0.10768279,0.010830463,-0.050191224,0.12249462,-0.05483261,-0.036569487,0.030727943,0.12949494
0.09286219,-0.12850407,-0.12165047,-0.09167379,0.047157478,0.050032116,0.0009937239,-0.119064964,0.07676866,0.08204262,-0.035975594,0.04196779,-0.07499366,0.08473611,-0.049493827,-0.13463934,-0.057288624,0.05267912,0.10338634,-0.11035794,-0.0396248,-0.09865235,-0.053789914,0.11791017,0.05991625,-0.08187258,-0.09045138,-0.0741886,-0.09598887,0.1343828,-0.042400386,-0.08937954,-0.073659435,0.13554026,0.016895054,-0.08156376,0.012851987,-0.03598929,0.08570247,-0.05324531,-0.019591423,-0.030448856,-0.08057636,0.11218555,-0.13674764,-0.12952635,0.038659286,0.008959495,-0.022499155,0.024414152,-0.11098361,-0.041964047,0.10986362,0.049356956,0.09778309,-0.07755964,0.07577007,-0.019647794,0.02970238,0.10232973,0.059963033,0.071390525,0.11840295,0.024322232,0.055857364,-0.048895776,0.099210285,0.018292543,-0.00035020706,0.09403625,-0.01598159,0.090500645,0.040005572,0.021110889,-0.04103543,-0.044771932,0.13137396,-0.10887768,-0.11766392,0.032023598,0.11696946,-0.026648263,-0.1212091,-0.0841022,-0.07210493,-0.056771662,-0.07469563,-0.046688404,-0.1021919,0.070470296,-0.037623756,-0.13394734,-0.03255669,0.021569474,0.038145408,-0.109793976,0.038903594,-0.12841956,0.06030084,-0.0324484,0.09762825,-0.040890247,-0.057020757,0.09966497,-0.07051679,0.04459737,-0.022558047,-0.0876203,0.10552358,-0.0073847934,-0.12818156,-0.110046364,0.09062778,-0.03638954,-0.066691555,-0.097309746,0.13643788,0.039449565,-0.036950313,0.10381924,-0.070654914,0.008121596,0.022397254,0.06918556,-0.028177561,-0.070967145,0.11607584,0.05930029,0.024411585,0.018516919,-0.08752792,-0.11206099,0.022632416,-0.12978415,-0.105766974,0.1001664,0.056750495,-0.023805503,0.07802364,0.10712469,0.13215724,0.021953586,0.030707842,-0.09134105,0.07326703,0.10832523,-0.09904009,0.08418104,-0.07542513,0.025779754,0.049736857,-0.108681396,-0.097524084,-0.102153845,0.028715737,-0.014577194,0.05405921,0.10441991,0.09549071,-0.08166122
-0.13137637,0.025851088,0.042997807,0.10635587,-0.04621406,-0.038115203,0.06872461,-0.053229477,-0.08288535,-0.10530547,-0.027267426,-0.040059004,0.020762365,0.012673932,0.07839194,-0.0017924509,-0.039672367,-0.01915349,0.084969,0.080111444,0.12860613,-0.06278664,-0.13771926,0.053838197,0.05601587,0.08013153,0.058265448,0.04000573,-0.03795477,0.063178815,0.08692418,-0.08355745,-0.11473868,-0.11595811,-0.07050392,0.12392008,-0.0253741,-0.13639164,0.04734251,-0.06394683,0.06798439,0.06090575,0.12546256,-0.0037684045,-0.0035125415,-0.006387816,-0.012302183,0.002496324,-0.001205072,0.10315341,-0.046798743,-0.1223963,-0.119993016,0.07600348,-0.016470727,-0.09863829,0.115646295,0.027460435,-0.03139033,0.09698039,-0.108510524,0.03435725,0.032862205,-0.07073366,0.091041744,-0.032717884,0.06515332,-0.026940126,-0.07526295,0.006536267,-0.1140051,-0.112609036,0.0043357313,0.038847417,-0.07990565,0.06271774,0.11594048,0.086561605,-0.032574855,0.13089386,-0.1301471,-0.038097266,-0.020068007,-0.109268226,-0.03486353,-0.08410282,-0.07859495,0.10189225,-0.042251423,-0.049383663,0.019705033,0.04251206,0.05171749,-0.11433135,-0.09130934,0.028207079,-0.011139289,0.007824302,-0.014568344,0.009972915,0.05102758,-0.0117278835,-0.07567003,-0.05747704,0.0967651,0.030157492,0.12784043,0.09900635,-0.029195074,0.01763325,0.067853585,0.08658043,-0.011537948,-0.05566477,0.04255115,-0.06265494,-0.08485729,0.03285492,-0.07183245,0.06517433,0.13834451,-0.052904584,0.08357425,-0.043169264,-0.0251702,0.019124985,0.03874781,-0.105779275,-0.019072138,-0.13572891,-0.10143658,-0.03939928,-0.11108757,0.00026298332,-0.12346879,-0.10116186,-0.09313814,0.11050443,0.12039941,0.043239124,-0.12921661,-0.06377701,0.07399892,-0.1324158,-0.04096546,-0.13231364,-0.051361367,-0.05460517,-0.06396571,-0.08196442,-0.0027719736,0.07261495,0.09852284,-0.13218687,0.0047501824,0.0779275,-0.020219358,0.06628398,0.03581302,0.0022530565
0.010440946,-0.014806144,0.052155107,0.074644476,0.014198393,-0.1273157,-0.03512284,0.106468335,-0.118720576,0.035649076,0.07800858,0.045809314,-0.11607286,-0.06561796,-0.12518735,0.0733424,-0.038321838,0.0017556846,0.04832168,0.024137318,0.07376984,0.09605406,0.1262052,0.033390313,-0.10706848,-0.029137798,-0.009198427,0.13487226,0.1285263,-0.0782135,-0.07896231,-0.026361383,0.035269886,-0.0058941543,-0.053592317,-0.07127181,0.13028952,0.0052580684,0.0929108,0.09594312,0.13635051,0.09654595,-0.05026453,0.07395981,0.019953921,-0.07298475,0.071184054,0.033498168,-0.10846116,-0.13672334,0.114510745,0.023773283,-0.13459074,0.022995695,-0.12149549,-0.13042636,-0.05975225,-0.031065695,-0.027651064,0.13141483,-0.11000747,-0.063524164,-0.12231715,0.03381726,0.054444492,0.096046686,0.10517441,-0.080031306,-0.07813296,0.02902259,0.011128485,-0.01152125,0.046864435,0.12581459,0.046744585,0.035648882,0.056900218,0.080052,0.1063126,0.097516805,-0.022315957,0.06911884,-0.004482344,-0.058726057,0.116974056,0.06725177,-0.11316902,0.008442655,0.11169009,-0.07838613,-0.040752,-0.062407218,-0.075680755,0.026365861,0.024843633,0.094771504,-0.03186188,-0.015803829,0.116000086,-0.10759373,0.043110043,0.01684761,0.13484249,-0.040546,0.11411595,-0.090758756,0.12927929,0.016669169,0.11898473,0.0124744475,-0.11175682,0.11056185,0.07228604,-0.11286841,0.11682522,0.081673175,0.13212565,-0.107555434,-0.03509806,-0.033870675,0.02568847,0.039588436,-0.006365776,-0.086116835,-0.038665183,-0.057050303,-0.07350292,-0.022386245,0.08672677,0.118612826,0.08339393,-0.058821425,-0.00069214404,0.08190638,0.05248572,-0.017873444,0.08477652,0.1104102,0.013147458,-0.0020614862,0.055378452,0.12135956,0.052027464,-0.09130565,0.070313394,0.07645318,-0.020546332,0.09792642,0.002371341,0.06827408,0.0023423135,-0.11548117,0.10041039,-0.010816187,-0.028371155,-0.109880574,0.042556643,0.06077203,-0.07238725,-0.094645485
-0.078881904,0.09551458,-0.004846627,-0.02897137,-0.024469877,-0.11998874,0.022009013,-0.093421064,0.052153416,-0.04962567,-0.102368854,-0.08543813,0.00014619669,-0.122179076,-0.12727915,0.120752096,-0.08350189,-0.1113234,0.04469341,-0.00730893,0.04637333,-0.0036463253,-0.019032475,0.032031357,0.10336116,0.02347257,0.004821457,-0.0998709,-0.046099674,0.07867118,0.018598212,0.058970742,-0.04215464,0.05130502,-0.01036787,-0.09231095,0.04858005,0.030347515,-0.0083862,0.106707454,-0.07417275,-0.050565995,0.081894115,-0.047678668,-0.08670755,0.12756799,-0.12186161,0.052856177,0.044290017,0.091419816,0.0584664,0.07900904,-0.079988256,0.037810292,0.0317979,0.11980589,0.10810579,-0.04050424,-0.10538795,-0.12663832,0.09708009,0.08418328,0.06414314,-0.0853529,-0.00645342,0.10990968,-0.03206275,-0.12325548,-0.022025978,0.040039975,0.11837818,0.054798294,0.09611965,0.032649733,0.051025327,-0.13016544,-0.07504287,0.043335903,-0.13013306,0.045832414,0.06732781,0.11123034,-0.07997035,-0.06734683,-0.092473865,-0.115964696,0.026609495,0.010626733,0.098622516,0.09596516,-0.09549172,0.07884779,0.060052667,0.092094295,0.10197068,0.04191629,0.09394482,0.1257124,0.07250726,0.035789814,-0.024668444,-0.010876605,0.036278136,-0.1339235,0.1251242,-0.09177617,-0.12730718,-0.008451753,-0.13783763,-0.04212505,0.11717139,0.0064628893,-0.0072557605,-0.07418192,-0.006099701,-0.118608475,-0.002811755,-0.015926173,0.07691489,0.10775454,0.00950573,0.04444919,-0.032785106,0.05873066,0.04711998,-0.007223094,-0.10377791,0.04164843,0.045985386,-0.06321196,0.11309558,0.08077017,0.035324857,-0.07796987,-0.12765074,-0.020562368,-0.09023764,-0.004569021,-0.027971283,0.020826967,-0.080195084,0.017793076,0.093659274,-0.05114492,0.022460267,-0.02553343,-0.12022305,0.056216616,-0.13599123,-0.0108679235,0.10644792,0.13541347,-0.025675463,0.09291433,-0.060507298,-0.030649548,-0.026187142,-0.08235455,-0.035251565,-0.12388666
-0.088654906,-0.13582079,0.12976979,-0.056910828,0.13824469,-0.039379004,-0.079662345,0.0708034,0.003423709,0.11337386,0.027155705,0.126283,0.13250962,-0.036995895,-0.047219366,0.0035001175,0.059654534,0.11940694,-0.0960761,0.07879497,0.0053150896,0.049914002,0.07528305,-0.020246247,0.09493741,-0.09923974,0.054917105,0.01898997,-0.097430766,0.10289937,-0.07583921,0.044716984,0.003502186,0.09464359,0.025017938,-0.12842014,-0.09136089,0.05068401,0.040257227,-0.015642919,0.07086116,-0.032868672,-0.11582276,-0.04890639,-0.1387301,0.025153544,0.09355102,-0.03231271,-0.043319117,-0.012514506,-0.02868816,-0.050427016,0.06821856,0.045067683,0.018548924,-0.12773265,0.10403768,-0.12050156,-0.0960302,0.11485234,0.09966863,-0.033166174,0.08186825,-0.11682652,0.038682286,0.13120341,-0.004024267,-0.13318579,0.08624909,0.036969434,-0.019733224,0.044798207,0.054006394,0.06831167,-0.010514941,-0.014177246,-0.03404158,-0.12468118,0.10485504,0.036764916,0.117065705,0.06797132,-0.01591371,-0.09715545,0.035979845,-0.109612405,0.0066548353,0.024074188,0.11045778,-0.108743496,0.036925916,-0.12758493,-0.005097465,0.005100437,-0.01951605,0.047135442,0.11923945,-0.12477728,-0.09747171,-0.04368256,0.08514188,-0.061531767,0.0025497205,0.08486906,0.04795429,0.0993261,0.07603232,-0.04876115,0.12504256,0.12265852,-0.036703516,-0.034997523,0.013554201,0.103292614,0.11968434,-0.10640664,0.123267025,0.019183356,-0.063836485,-0.015618705,0.12763478,0.054639947,-0.029717026,0.11494035,0.032315183,0.029510316,-0.059251145,-0.03463405,-0.1348697,-0.08757936,0.10003386,-0.105226204,-0.013407417,-0.011039005,0.0029701525,-0.07810245,0.08783158,-0.07739363,-0.118590645,-0.05635336,-0.06710569,0.017884905,-0.134375,0.1222717,-0.11646674,-0.06541998,0.043595243,-0.1043834,-0.06550687,0.025624618,-0.12635063,0.085525334,0.086944416,-0.09720981,0.019768342,0.023620008,-0.12930652,0.12753345,-0.119767725,-0.024404524
-0.032086425,0.077441335,0.04143457,-0.13127162,-0.06776236,0.04986386,-0.06427737,-0.026674556,0.07068521,0.0017227218,-0.122093484,-0.022906361,0.027675834,-0.012326486,0.05845418,0.0132172275,0.10992204,-0.028473929,0.042722493,-0.064359464,0.046618953,0.07755494,0.049184803,-0.10128151,0.013356626,0.04684605,-0.1295761,-0.09667024,-0.0922338,-0.085282445,-0.03554701,-0.10429977,0.03140691,-0.093542844,-0.10399778,0.10298596,-0.07463857,-0.007986369,-0.06417622,-0.09334361,-0.077213034,0.13311163,0.027206294,0.045134544,-0.12669802,0.06318899,-0.08267729,0.10153481,0.032339215,0.1137439,-0.048925232,0.07466068,0.03730657,0.10546401,-0.07877738,-0.05410582,0.061511107,0.07156786,-0.09175328,0.06544405,0.02896892,0.09088659,-0.074930534,-0.019715764,-0.075073086,0.011869796,-0.071290635,-0.080588296,-0.07364282,0.05037393,0.06942162,-0.083592154,-0.10276616,-0.12219491,0.0084032295,0.035087578,0.061134115,0.087427706,-0.06049121,-0.11098394,0.06767703,0.06969352,0.07615223,0.04067898,-0.04128509,0.04892461,-0.12261074,0.00046893954,-0.11754722,0.078746885,0.0019167662,-0.041509125,-0.043054335,0.09641121,-0.10107024,0.06365089,-0.0117286,0.072709605,-0.06754674,0.1213828,-0.009298041,-0.12970097,-0.0733772,-0.049976684,-0.02701712,0.003716767,0.009186704,-0.097780526,0.0951049,-0.024330884,-0.11419384,0.027769083,0.04823576,-0.07691412,-0.089996934,-0.025348581,-0.11940874,-0.06447774,0.13403507,-0.1041798,0.11462721,-0.110262826,0.053449363,-0.12843522,-0.10410787,0.011610538,0.03436713,0.05935709,0.047605485,0.104152694,-0.104394965,-0.0579523,-0.07387131,-0.03387195,-0.13669905,0.10339731,0.10899548,-0.074028455,-0.09830542,0.122932225,0.05108143,-0.08833894,-0.067515954,0.020896576,0.020421788,0.13075243,0.11460662,-0.05550879,-0.120650105,0.031565025,-0.09515461,-0.11798087,0.109533325,-0.058320284,0.06321621,-0.03457451,0.05550035,0.019272745,0.0495191,-0.07463737
-0.12829386,-0.028128834,-0.08604139,0.114311,-0.10270238,0.06967129,0.0611848,-0.07617537,0.07670963,-0.035589505,-0.036558315,0.005371853,0.12361262,-0.09511733,0.051333882,0.09994329,0.07643516,-0.05934465,-0.029309258,-0.049987555,0.12764494,0.045813236,-0.025812428,-0.032767676,-0.012272128,-7.24479e-05,-0.080924496,-0.02195552,0.005230285,-0.0759834,0.09703567,0.09513881,-0.08734592,0.11424436,0.13072884,-0.07136129,0.103054166,-0.0134841995,0.1001853,-0.07843106,0.0071084537,0.10672342,0.016853137,-0.07710436,0.06380444,0.08747807,0.025439203,-0.10563338,0.027769348,-0.040613905,-0.06826581,-0.12402054,0.12206645,0.066653326,0.036964733,0.07618203,-0.09405948,0.049964085,-0.07822708,0.036087345,-0.10610792,-0.1348572,-0.0037733482,0.025338871,-0.044026922,0.08578135,0.06271503,-0.09885342,0.045089673,-0.08813465,0.05707035,0.06308785,-0.13740535,0.11148212,0.096347205,0.041043073,-0.023567958,-0.11164869,0.009840727,-0.09395902,-0.07572979,0.11078315,0.10497285,-0.09729578,0.002984479,0.0826357,-0.10964856,-0.037906047,0.086860225,0.09258028,0.013425725,-0.026406711,0.06765214,0.11303724,-0.040391278,-0.09280195,0.13202679,0.11555815,0.00037331236,0.107892625,-0.13521071,0.13195385,-0.0056852656,0.09072427,-0.06157175,-0.038215954,-0.00669362,0.02519342,0.052494183,-0.09574506,-0.02799057,0.04024154,-0.088294014,-0.13484421,0.118184574,0.12886621,0.067608245,0.09822062,0.014410645,0.11189779,-0.084985115,0.05097805,-0.07842781,-0.12864411,-0.092319846,-0.028897494,0.04120487,0.07775525,-0.13354293,-0.012618236,0.07985745,-0.06724985,-0.01555415,-0.01086313,0.08258333,0.13736892,-0.074658945,0.012965113,0.12656152,-0.0894975,0.11802458,-0.054972026,0.01459163,0.06740977,-0.023702841,0.03662475,-0.028951216,-0.08318283,-0.02510295,-0.019057252,-0.10957735,-0.11281996,0.010063799,0.01053634,0.07959584,0.13430254,-0.07030215,-0.034419622,0.06731612,0.036713645
-0.12561363,0.03728235,0.098551,0.09631187,-0.033130925,-0.09075014,0.015016687,0.037054338,0.04424812,0.049523864,0.0664147,0.014579468,0.121151894,0.12873812,-0.11731914,-0.014525403,0.13162798,-0.015094772,0.026583776,0.06714943,0.040619597,-0.068971366,0.084883854,-0.061107203,-0.016334103,-0.0506578,-0.07737518,-0.03057759,0.05274734,-0.09126275,-0.06624923,-0.0682665,0.052446157,0.024400974,-0.061122045,0.09923748,-0.040554237,0.12895022,-0.047100727,0.0373602,0.12281092,-0.12950294,-0.123691805,-0.09445007,0.08819909,-0.13341193,0.0782093,-0.071767405,0.13652988,-0.0895934,-0.06819799,-0.03440597,0.044076324,-0.09985911,0.13122983,-0.10190878,-0.08141357,0.12046116,-0.06954932,0.0214694,-0.11641786,0.095330805,0.017415432,-0.12424626,0.07462974,-0.08459551,-0.0962917,0.06937036,0.11991727,0.01277488,-0.09724446,0.020742439,0.11782385,-0.037937734,0.06108621,0.06693205,-0.089772984,0.0012239072,-0.09784538,-0.026690476,0.02220191,0.09741526,-0.06853824,-0.010205268,-0.11797616,-0.1156802,0.106285065,0.045371313,0.097615674,-0.014010248,-0.13076027,0.1227904,-0.037128672,-0.062282465,-0.11424091,-0.11701693,-0.043496713,0.13282408,0.0414372,-0.05574173,-0.12693332,0.059988506,0.048813574,-0.039977208,0.01415355,0.12948632,0.08034122,-0.08180817,0.02533483,0.13114718,-0.013215242,0.09936239,0.10602319,0.09244068,-0.030031553,0.044005778,-0.09462079,0.11041727,0.080160506,-0.121997796,-0.03500946,-0.096976504,-0.12059705,-0.068133324,-0.10261273,-0.014221982,0.018374288,-0.034999777,0.01891981,0.10386029,-0.036754854,0.086996056,-0.099773936,0.078566544,-0.053512137,-0.036688294,-0.13107315,0.123699635,-0.12223612,-0.0961227,0.035573702,-0.031843565,-0.116927385,-0.023968756,0.029249273,0.12197494,0.13384548,0.007746851,0.001438871,0.048306376,-0.059933767,-0.0029672682,-0.001246062,0.08574086,-0.046979282,-0.064624876,0.02875388,-0.12375585,0.025976265,0.061089735
-0.02365999,0.06436341,-0.13001329,-0.080393866,-0.0075544748,-0.02700972,-0.06279197,0.07196664,0.005707938,0.020494653,0.1326446,-0.06491951,-0.08423957,-0.06228508,0.120631,-0.07852512,-0.017851211,-0.020946294,-0.12558219,0.11413106,0.037154842,-0.011325039,0.13698378,0.09913411,-0.11521358,0.096477136,-0.07799412,0.08850286,0.027509771,-0.046437975,0.017827692,-0.067792155,-0.09978488,-0.0035010744,0.052216213,-0.027888952,-0.097814016,0.08041661,-0.075817235,-0.0023303416,0.09527734,0.107764944,0.0041334694,-0.08246436,0.11906346,-0.11702349,-0.11459194,0.1278896,-0.10237378,0.12549394,-0.1216485,0.07025604,0.0722446,-0.01254305,0.023229482,-0.07326194,0.02992869,0.086431146,-0.002001201,0.023760304,0.12663336,-0.0860652,-0.07769222,0.115584105,-0.043424286,-0.10925481,-0.01698535,0.13394587,-0.06499847,0.049697347,-0.109119065,-0.021095393,0.11310281,0.10852754,0.105510324,-0.10480808,0.060497474,-0.08400382,0.036312062,-0.12702915,0.041352566,0.0049171317,-0.03134835,0.077205606,0.034755047,-0.070698544,0.099359155,0.06574767,0.05225016,-0.013310941,-0.110848315,0.05300904,-0.11568341,-0.008869965,-0.012171436,0.06442644,-0.12720877,-0.1254087,0.119864956,-0.117250085,-0.11784665,0.12721987,0.07566294,-0.10257325,0.06232128,0.121062,-0.062096912,-0.023614686,-0.029628592,0.048280895,0.08021434,0.0825259,-0.11992963,-0.1353136,-0.03354091,-0.10706942,0.086912006,-0.066187605,-0.03119074,0.0031976951,-0.046548788,0.0077263736,-0.09750096,-0.01190017,-0.008584975,-0.10925242,0.07531737,-0.053422034,-0.078469716,-0.10354705,-0.018912356,-0.10975418,-0.038747363,-0.07577711,-0.002036589,-0.038776338,0.09424793,-0.025328323,0.083568424,-0.0747309,0.10623181,-0.03591817,-0.09504187,0.04925191,0.010995767,0.027895914,-0.072400115,0.11860765,-0.12939769,-0.11971869,-0.021426491,0.009711713,0.024881396,0.12770489,0.0866166,0.029644793,0.047709595,0.050465595,-0.04946664,-0.12861328
-0.03097319,-0.031837225,0.016425468,-0.08722948,0.061116666,0.011164164,0.007309513,-0.08806422,0.0058922432,-0.092325345,0.10249423,0.0698018,-0.13960545,-0.08537612,-0.03944985,0.101782724,0.12089962,-0.04059484,-0.015067153,0.02007769,-0.0015204323,-0.013517275,0.047348022,-0.03200706,0.031331003,0.035191834,0.017069992,-0.018105935,-0.10049263,-0.058649275,0.051902816,0.024147773,0.047474988,0.0710872,0.055641726,0.093947336,-0.044710156,0.09173484,0.1315335,0.09774203,-0.11982642,0.06380889,-0.06489203,0.044588298,0.054863263,-0.0064200265,-0.10588161,-0.1181786,0.09156763,0.09518412,0.13468266,-0.032950122,0.10299673,0.09343361,-0.07573226,-0.0832875,0.13057525,0.024357114,-0.06264029,0.12308553,-0.07724043,0.07917762,0.08493178,0.11604056,-0.09718961,0.115726635,-0.12003301,-0.009671259,-0.04766385,-0.13702756,0.075208314,0.05898288,0.026004544,0.056689776,0.03831179,-0.10839775,0.016354628,-0.036364518,-0.1317146,-0.10023475,0.07920424,-0.046623677,0.071198836,0.08938933,-0.02212749,0.0110471845,-0.10015412,-0.08771114,-0.113253675,0.109200925,-0.02439324,-0.13051338,-0.0285769,-0.046508983,0.05011964,0.051534727,-0.09782965,0.027274817,0.09837915,-0.029142633,-0.053250816,-0.10641891,0.1351693,0.06935742,-0.07601149,-0.09298708,0.08522788,0.12355007,0.0662511,-0.044140212,0.10018361,-0.121382244,0.13037413,-0.094263524,0.01858231,0.00040571528,0.07092961,0.032192983,-0.01543798,-0.04935863,-0.1123721,-0.11930252,-0.024992857,0.07995572,0.07470598,-0.124358945,0.05603771,0.1089134,0.0680173,-0.006207034,-0.12830257,-0.006454463,0.12301045,-0.095038384,-0.13217033,-0.015517314,-0.031181293,-0.08735169,0.09662406,-0.08733073,0.03936304,-0.07309535,-0.078012615,0.11009672,0.012011871,0.07862302,0.08668253,-0.08662569,-0.07229388,-0.052629396,-0.06678721,0.015665442,-0.04805796,0.13028103,-0.0934974,0.062004264,-0.07782894,0.069096625,0.0010359392,0.119402446
0.02050154,0.10469643,0.09284484,0.07178394,0.128529,-0.012553978,-0.0806528,0.10427786,-0.12704043,-0.13069846,0.103739105,-0.017608192,0.12317862,-0.047336765,-0.07756503,-0.06308683,0.08390263,0.094417125,-0.0635923,-0.0062481463,-0.095716886,0.09061349,-0.032873243,0.076628104,-0.07778371,-0.051076885,0.12240455,-0.109301694,0.0097393505,-0.05655375,0.073097676,0.07466997,0.05443023,-0.120495535,-0.0002175566,0.03321783,-0.092310615,0.02253516,-0.018706124,-0.04773549,0.055385154,-0.0024373683,-0.09620595,0.118783765,0.0082065165,0.03323295,0.102957346,-0.0024014197,0.07172092,0.060409874,0.115108475,-0.043637812,0.06569435,0.08273252,-0.0353046,0.07029235,0.09780989,-0.10365313,0.008056291,0.008283166,0.11658094,-0.116429925,-0.090257816,0.020532265,-0.07778597,0.053421233,-0.09057897,0.078865156,-0.060721006,0.098608464,0.013052993,0.054176103,0.024493635,-0.03638418,0.0044984175,-0.040239092,0.045122426,0.04094759,-0.11162512,-0.09763874,-0.053912334,0.13233252,-0.008588327,0.03153688,0.06413629,-0.09695687,0.036672533,0.016329112,0.06854695,0.12361304,-0.13072295,0.081531934,0.016545804,0.09722463,-0.057509072,0.04190749,0.11588619,0.026552152,0.10934589,-0.09768567,0.028961124,-0.053301744,-0.0018462529,-0.11109455,0.12546283,0.043270037,0.05653337,0.10829237,-0.09846048,0.12031332,-0.10284248,-0.094924256,-0.041117154,-0.05487695,0.03890358,0.00454649,0.1331953,-0.009545827,-0.06442136,0.12071657,-0.07547049,-0.063289165,0.06211577,-0.116476156,-0.0030652964,-0.13572396,-0.13521236,-0.034478188,0.03338606,-0.02331062,0.06508855,0.030235333,-0.06766217,-0.1070407,0.01807954,-0.08023625,-0.06263699,-0.099367335,0.1342585,-0.05056633,-0.13058175,0.10190527,0.046339627,0.11354466,0.13239986,-0.05749663,0.020491673,-0.0046784906,0.055338204,-0.10767143,0.017086327,-0.12302196,-0.11289112,-0.10320237,-0.011598009,0.10656402,-0.002051956,0.13527226,0.03895513,0.029299643
0.08882151,0.031588726,0.046322078,-0.073503815,-0.1293311,-0.006229125,0.018637467,-0.016842317,-0.023025304,0.07303327,-0.11821527,0.027409956,-0.014617526,0.0798886,-0.0030826281,-0.13720846,-0.12672558,-0.06951952,0.057943314,-0.004340619,0.002196621,0.0059364564,-0.055222385,-0.09490168,-0.017688159,0.13262102,-0.017567586,0.12173937,0.03470976,0.0016387303,0.07263891,-0.09654654,0.1105612,0.04677567,0.13099247,0.038431767,0.017717801,-0.080451734,0.016142676,-0.0067708227,0.1139484,0.023361353,-0.053479556,-0.07388446,0.036769748,0.061354265,0.12832324,0.07920515,0.11372511,0.11420905,0.06911957,0.024266312,-0.07879653,0.067071274,0.1304829,-0.047529634,-0.113397874,-0.10769784,0.12646572,0.059979483,0.005826069,-0.007866809,0.0069484697,0.07655728,-0.0065937946,0.07520114,-0.11634952,-0.0238474,0.011207069,-0.083938755,-0.053599484,0.12571299,0.10106545,-0.12275192,-0.07085897,0.017611884,0.089563735,-0.026417194,0.006104169,0.02070523,0.0119020315,-0.09327046,0.043493714,-0.0709117,0.027517164,-0.016346157,0.014397502,-0.11830652,-0.031425245,0.089802474,-0.12678708,-0.08192705,-0.06545235,-0.12739769,0.01153021,-0.072473474,-0.09315323,-0.044587187,0.09917679,0.060290147,0.08237275,-0.11495947,-0.035756182,0.055038393,-0.088231415,-0.0060531087,0.066290945,0.028166033,0.0033601844,-0.007854755,-0.12514888,0.042311087,-0.12818106,0.062811635,-0.1317316,0.07183558,0.018876573,0.13278674,-0.03530825,-0.0586295,-0.013959824,-0.052505817,-0.059209283,-0.09185741,-0.10899365,-0.13785988,0.035570525,-0.0541546,0.11647186,0.06911291,-0.11646381,-0.035579357,-0.08535577,-0.09351584,-0.064229734,0.078886755,-0.100299835,-0.13260978,0.029754817,0.12464945,-0.056064516,-0.1268111,0.12886885,0.017400386,0.065074764,0.12711799,-0.09741937,0.11752182,0.030133069,-0.10401456,-0.007900849,0.10828817,0.018892631,0.13124126,0.06507628,0.1014094,0.034376506,-0.12539883,-0.08657112,-0.033639677
-0.04609961,-0.1232608,-0.09730084,-0.026545547,0.08123466,0.12425915,-0.06701663,-0.051518768,-0.103151545,0.0745182,-0.13715364,-0.019953793,-0.115408316,-0.033069555,-0.08290517,0.035554044,0.103892565,0.030777067,0.11262976,0.018262789,-0.11300819,0.07236933,-0.06481032,-0.089533195,0.10589212,-0.0024061427,-0.068085454,0.03140837,-0.019973777,0.10387229,-0.035642046,-0.06793224,-0.087869085,0.076561905,0.043486536,0.13309535,0.075347714,0.033025775,-0.03286825,0.082025014,0.07702453,0.07948179,-0.061243273,-0.014507304,0.02150229,-0.041126534,0.13239406,0.049907956,0.0068017514,-0.04959348,-0.13130698,-0.11304929,-0.12074637,-0.028295325,0.112481125,0.12498605,0.03526574,0.10718952,-0.0036785882,-0.007795649,0.12283131,-0.08723366,-0.019510886,-0.13719207,0.08862441,0.055533756,0.089336455,0.11185046,-0.10576618,-0.11495798,-0.07693781,-0.06740917,0.056414887,0.13310477,-0.05672804,-0.07112931,0.12400095,-0.0346829,0.12635097,0.0633762,0.086788595,-0.004767247,-0.064134344,0.12265905,-0.003506958,0.015889764,-0.0033067316,0.012025744,-0.08856738,0.058378063,-0.07878619,0.08488792,0.037854187,-0.12518382,-0.006321869,-0.12892166,0.13645789,-0.08588481,-0.082911566,-0.11984367,-0.13317132,-0.015186124,-0.11810966,-0.06835508,-0.05365457,0.0358275,-0.059459727,0.025382856,0.0790748,0.025997147,-0.13614514,0.10759074,0.07923142,-0.063401446,-0.12111137,0.00084777176,0.075274035,0.047541328,0.13857658,0.10371624,-0.058028102,0.077872634,0.066411965,-0.009452515,0.011761131,-0.02179143,-0.050387546,0.09016982,-0.10660698,-0.05563441,-0.011470646,-0.0533062,-0.12350529,-0.12989868,-0.04030536,0.08999194,0.07430256,0.10760345,0.032127146,0.10282614,0.13808247,0.088725016,-0.0012776526,-0.095998794,0.014884258,0.074885175,0.12040347,-0.08125768,-0.044663124,0.080301985,0.11832398,-0.08412531,0.07250576,-0.07745068,-0.015428034,-0.048667256,0.02227262,0.08698868,-0.05884648,-0.064749494
