-0.16565268,0.06878905,-0.048082113,0.051266477,-0.07197647,0.17154889,0.13534285,-0.18266462,-0.024665356,0.035120174,-0.13646172,-0.009006187,-0.037279934,0.050791204,-0.09956402,-0.03828977,0.096830115,0.17618941,-0.13863179,0.07921092,-0.113814384,-0.009334624,-0.07431841,0.12753396,0.046789408,0.048360422,0.011162937,-0.1039229,-0.1422254,0.046383217,0.13311149,-0.16148293,0.10216199,-0.08301591,-0.04886721,0.14827342,0.0074408203,-0.056140497,0.013056144,-0.06605938,0.101345316,-0.10081925,0.17492215,-0.078743726,-0.088436246,-0.10250674,-0.10727103,-0.08903848,-0.10581652,0.000743106,0.095931366,0.1136841,0.16141845,-0.1380597,0.06885056,0.16980566,-0.08328301,0.006377265,-0.106946334,-0.14301032,0.10859235,0.1796176,0.155993,-0.023530036,0.124601796,0.06345616,-0.13860957,0.08096577,-0.07555576,-0.15356956,-0.03992337,0.10063265,0.017900795,0.16977213,-0.08808542,-0.020088091,-0.09376879,0.07662247,-0.008855924,0.1518005,0.17116405,0.05359821,0.09551923,0.14332955,0.024453223,-0.18753083,-0.14855076,-0.020049602,-0.14784251,-0.12241899,0.1834987,-0.0342876,-0.052920043,-0.027886853,-0.16468252,-0.012641206,-0.16246116,0.15451948,0.017470434,-0.0389715,0.01519233,-0.09470698,0.13467439,0.14860617,0.15683956,-0.10685189,0.082598194,-0.114827,0.15428106,-0.07597576,0.10122271,0.16718741,0.101898,0.10644813,0.17647867,0.08037664,0.102051035,0.085495904,-0.1457718,-0.17103566,0.113195136,-0.086717464,-0.17647584,0.013978377,-0.10436261,-0.09830648,-0.1244704,0.11581655,-0.13018902,0.041883975,-0.10468666,-0.07546555,0.033093393,0.016444549,-0.11193221,0.01001288,0.07471745,-0.079748,0.047967464,-0.1675122,-0.08762524,0.0684032,0.11742203,0.08682518,-0.024631798,-0.017255232,-0.16729526,0.0418164,0.0016602278,-0.14824997,0.18335058,0.055439204,0.04508923,-0.056955457,-0.0037628412,0.12485395,0.01273182,0.18401088,0.17820899,0.03575073
