-0.024288466,-0.043604754,-0.03184564,-0.021443961,-0.012779464,-0.03041489,0.030406006,-0.03666328,-0.013094869,0.0062353746,-0.021175828,-0.020827832,-0.078472964,-0.04529622,-0.058329083,-0.09674172,0.0050412426,-0.0758816,-0.003391762,-0.061515775,-0.04577053,-0.06453093,-0.012991861,-0.048725095,0.011542816,-0.00026233675,0.037750635,0.09130734,0.040986873,0.00024613336,0.015257214,-0.09271094,0.077146456,-0.0067381994,0.032550924,0.039950512,-0.009936885,-0.06633962,0.05380488,-0.04190535,-0.008775078,0.003220913,-0.023616703,-0.029236024,0.00039229915,0.0013898729,-0.018337261,0.0034315002,0.13999166,0.10427066,0.051938314,0.011643095,0.15071951,0.08680989,0.087418884,0.09569803,-5.471101e-12,6.579886e-11,-6.1098834e-11,9.3528796e-11,0.055893466,0.0023755482,0.119427815,0.07525007,0.051178623,0.1328194,-0.0052084588,0.09175985,0.10548244,0.09716941,0.10891022,0.033848424,-0.03427351,-0.012139825,-0.00016001349,-0.031477854,0.07105052,0.04100719,0.030589828,0.07950884,-0.012743262,-0.030131074,0.0068134717,0.014459658,-0.10170955,-0.016627429,-0.10515903,-0.03847668,0.06738689,0.0100171985,-0.056998685,-0.0831172,0.022079565,0.037323967,0.043792374,0.08529793,0.028315948,-0.027836544,0.11790682,0.01386996,0.004358045,0.09144242,0.020037828,0.051517446,-0.05153533,-0.02932531,-0.08651415,-0.00014086146,0.030946987,0.06553124,0.008173996,-0.022394577,-0.036117643,-0.026099704,0.013365003,-0.045662362,0.0566958,0.108630426,0.037318807,0.074852206,-0.057065986,-0.0037722904,0.0074619264,0.020972548,0.008492724,0.0016965412,0.047598682,-0.04196233,0.0245308,-0.03188992,0.035032954,0.027389381,0.0067839315,0.06515073,0.084337994,0.13924113,-0.03385495,0.00828938,-0.0067013553,0.0694568,-0.00011616654,-0.04117738,-0.033562172,-0.046689376,0.10446573,0.012927247,0.01896983,0.08269412,-0.005207633,-0.008739927,-0.040731605,-0.07568268,0.07829519,0.051606044,0.073426016,0.096131474,-0.0014004932,0.0053276904,0.007463835,-0.010251376
-0.057033133,0.054554854,0.02635025,0.033303987,-0.07067931,0.029680932,-0.004844725,-0.0022884589,0.023137325,0.06297921,-0.05866993,0.013018951,-0.068360016,0.056434814,0.026952982,-0.025229543,-0.014277651,-0.03493053,-0.007991104,0.07389953,-0.03205494,-0.034593575,-0.002374665,-0.071013704,-0.04472272,-0.04478613,0.04411728,0.029796308,0.026029795,0.06448711,-0.055961225,0.08248819,0.013349232,-0.019460943,0.01782855,-0.021067156,0.062865056,0.056754183,0.09112068,-0.09921237,-0.029393135,-0.032840095,0.012109366,-0.0014752188,0.021630153,0.05105098,0.004361626,-0.025400072,-0.04101627,-0.012027083,0.047624487,0.052566543,0.012965709,-0.03069032,0.01477895,-0.021094296,7.059822e-11,5.1297803e-11,7.313865e-11,5.5386872e-11,0.0023362366,-0.018684838,0.04696639,-0.031190626,0.008800829,-0.005876269,-0.005513205,-0.03756007,0.044416785,-0.08970695,0.08893393,0.009974199,-0.027618425,-0.04850834,-0.054841533,-0.07234434,-0.024764681,0.061694533,-0.066137955,0.028250307,-0.0012201965,0.007819393,0.02335138,-0.0029965625,0.032605056,0.022994252,0.08057384,-0.03464523,0.07624855,0.009561711,0.0024884816,-0.02921606,-0.06706773,0.053252842,0.06578822,0.019388769,-0.013891556,-0.008121673,-0.004714523,0.015881844,-0.05872496,0.01718282,0.030261833,-0.05515622,0.030190747,0.04328293,-0.034672555,0.07625673,-0.007638754,0.07892628,-0.07486585,-0.027428985,0.061429564,-0.0022254325,0.01535779,-0.03615629,0.04430049,0.061624955,0.011342852,-0.023767052,0.049679376,-0.013353241,0.030940432,-0.0011385793,0.0478636,0.008419781,0.019583728,0.018187525,-0.053846065,-0.071168676,0.037918385,-0.015491971,-0.022893831,-0.037800863,0.0001883995,-0.008259816,-0.065406315,0.001279293,0.06789877,0.07957698,0.01822466,-0.0016955989,0.079547144,0.081520684,-0.013300098,-0.0011995428,0.033818096,0.029541822,-0.010063661,0.011190685,0.038404226,-0.012839906,-0.02784866,-0.026652228,0.0332871,-0.0032403038,-0.0012170374,0.03158532,0.03964672,-0.036815755
-0.100122385,0.0023371007,0.09045038,0.027680112,0.0018006419,0.030967632,0.04444649,0.10929293,-0.039499506,0.107818864,0.021382779,0.047956675,-0.10530258,0.050401613,0.0777702,0.04328571,0.08592812,0.081914425,-0.08955781,-0.022354113,-0.025756644,-0.05625318,-0.045233786,-0.09694972,-0.04842688,-0.0049373847,0.12326254,0.017520454,-0.05680396,-0.04328596,-0.041699644,-0.0010781093,0.010591774,0.043255866,0.016750496,-0.023585662,-0.024303203,0.069257215,0.114909045,-0.07738872,-0.026519157,0.022793468,-0.0063095638,-0.020000678,-0.08934353,-0.0060845255,0.03444933,-0.026354952,-0.097243644,0.004156359,-0.058150526,-0.047169868,0.016592242,-0.07820926,0.018106563,-0.03429712,-6.340822e-12,1.0240794e-11,5.044472e-12,2.4211131e-11,-0.059564207,-0.081332535,0.008079308,0.06616507,0.08605596,-0.10032885,-0.0068861726,-0.041449986,0.07012656,-0.070305526,0.04780774,-0.015166483,0.1039647,0.04036909,-0.08336552,0.05370781,-0.07252276,0.040855616,0.061342888,-0.077061534,0.023857476,0.00021815415,0.07682108,0.017755257,0.09422798,0.008448768,0.030199729,-0.08907133,0.07334884,-0.0025754415,-0.0007798425,0.05889158,-0.020440415,-0.06330424,0.08442107,-0.017006876,-0.02148082,-0.013998133,0.005655586,0.06816545,0.016415117,-0.0081583075,-0.07838409,0.08908997,-0.037186783,0.043379497,0.085191116,0.008672215,0.06818501,-0.029237641,-0.017622037,0.033786554,-0.04845989,-0.012601895,0.07619586,-0.045060243,-0.09414435,0.06573159,0.07777099,-0.027163276,-0.10908911,-0.05075994,0.06718674,-0.0038671903,0.047010597,-0.028267277,0.07062413,0.009970149,-0.08789926,0.071779266,-0.083856694,-0.10073327,-0.03360653,0.016308596,0.025917944,-0.013996455,-0.013972571,-0.11530128,0.03384822,0.10769372,0.12261679,-0.12957989,-0.09824258,0.02167096,-0.091935165,0.028643781,-0.051948644,0.03718064,-0.010167897,0.057972595,0.08346502,0.042984255,0.07006927,0.03739906,0.0665851,0.07254826,0.058483995,0.04474136,0.040989973,-0.030024651
-0.041955322,-0.050041635,0.049453612,0.038739063,0.031331852,0.09745963,-0.024939848,0.0646109,0.06725245,0.037507825,-0.07047542,0.08040872,-0.07718356,0.057627816,0.061052553,0.0058108913,0.035236847,-0.04460112,-0.022245957,-0.02999024,0.05434757,0.1025774,-0.064960256,-0.020574333,-0.061473794,0.014980572,0.1426498,0.057797834,-0.053800315,0.04615599,-0.10958898,0.14031523,-0.0090243,0.03190733,0.011845916,-0.064978786,-0.107511416,-0.05092219,0.026523668,0.072223365,-0.015435711,0.00057355134,0.04243145,-0.020216415,-0.031177176,0.06588058,0.017819485,0.072520815,-0.07180624,0.052879628,-0.00966396,0.11654455,0.012171375,-0.033249184,0.014579728,-0.017900737,6.015381e-11,6.166617e-11,8.3728656e-11,7.9292004e-11,-0.013824119,-0.07384977,0.07890317,0.05806335,-0.054239832,-0.070119575,0.039689478,-0.05762052,0.023818923,-0.14066356,-0.072898015,-0.066857174,-0.025724877,-0.07631306,0.0055435426,0.07452828,0.10796359,-0.07296051,0.07324941,0.0036542017,-0.054670803,0.056704834,-0.028102338,-0.029509965,-0.0025910116,0.09559725,0.08024605,0.03879175,0.096860304,0.017839042,-0.05672925,0.08205036,0.07221979,0.030552272,0.16587505,-0.028782194,-0.025050996,-0.0138183525,-0.004378072,0.05052128,0.07271331,-0.017760495,0.012101722,0.012377542,-0.06964841,0.0050380537,-0.003925224,0.08710742,0.005765929,0.0070235445,-0.013776054,-0.0447323,0.013714432,0.030059693,-0.010512098,-0.028328562,-0.09611144,0.024365474,-0.05315639,-0.052837465,0.01928168,-0.09382613,-0.009735068,-0.057730515,-0.04605636,-0.05359746,0.087731466,-0.045028385,-0.05161529,-0.05087034,0.07463877,0.028836723,-0.024924044,-0.0025894581,0.01010645,-0.0024276893,-0.10641871,-0.07929689,-0.031221122,-0.070624895,-0.088104144,-0.08076379,0.013093138,0.06795118,0.0434177,0.040692657,0.08812106,-0.051071614,0.024359038,0.026599485,-0.043293,0.040264845,-0.06039598,0.059616487,0.027498838,0.037095066,0.07901784,-0.0060062306,-0.0127863465,-0.04144688
-0.008560563,-0.013479625,-0.01515229,-0.0029197182,-0.04107719,-0.027088277,-0.04278659,0.0018382203,-0.010023189,0.04439015,0.030770184,0.044329867,-0.04911522,-0.00048298022,-0.071972854,-0.046213645,0.08435305,0.05183878,-0.029195927,0.05043124,-0.023214089,-0.030633066,-0.014117834,-0.027689554,-0.011728489,-0.0684145,-0.018274875,0.014571237,0.020461326,0.014356779,0.024432212,-0.033329487,0.051440787,0.011436863,0.052567005,0.059547354,0.018334853,0.034011588,-0.03859469,-0.004741412,-0.016596446,0.030004462,0.010377771,-0.0034852624,0.06434379,-0.039395455,-0.015472128,0.03352538,0.05993188,-0.033125594,-0.051337063,-0.00925793,0.10395106,0.029518373,0.0755759,0.063639395,-4.947539e-11,-4.822319e-11,-5.5187133e-11,-5.859627e-11,0.045814816,-0.0076929065,0.033469077,0.00924292,0.023976192,-0.007777755,-0.05994128,0.013657664,0.1113573,-0.014320567,0.08670725,-0.03415743,-0.036508724,0.033583835,-0.004598452,-0.06992231,0.08145794,-0.009967457,0.00520699,0.057565495,-0.018481148,-0.0039380006,0.0064764083,0.0038334657,-0.03442605,0.019032206,-0.0012697398,-0.013756805,-0.03459824,-0.0121874465,-0.011856613,-0.05539571,-0.07199475,0.043736704,-0.041593246,0.08727819,0.06978322,-0.042325903,0.07081599,-0.033031724,-0.02474467,0.03836442,-0.01686154,0.029438026,-0.08211014,-0.010318706,-0.027354674,0.007612777,-0.053467225,0.03350114,-0.019351976,0.040907312,-0.06447593,0.047298897,-0.039227515,0.06284233,-0.03927575,2.4706678e-06,-0.06883788,-0.020062093,-0.014504294,0.0044074007,-0.05912126,0.025953097,0.000747915,-0.015175533,0.036779605,0.009965408,0.11192031,0.02099566,-0.035577197,0.042657956,0.012103369,0.027250234,0.022529835,0.04838198,-0.005049166,0.05536768,-0.0341991,-0.012132968,-0.017552016,0.04512918,0.009291103,0.020050203,0.07290709,0.023769068,-0.03802531,0.08254717,-0.006851286,0.009454392,0.017070556,-0.011409831,0.04270111,0.011583893,0.05976729,0.05954002,-0.034386907,0.047038157,0.009401026,0.0126428455
-0.044140212,-0.018324023,-0.040156435,-0.036477704,-0.00044776686,-0.037401773,-0.02753079,-0.009598762,0.011641992,0.048255056,0.012202275,0.043220688,-0.051745668,-0.07232389,-0.08858157,-0.07332891,-0.09395452,-0.092034206,-0.051996112,-0.124121696,0.020023491,-0.0061517735,0.12168072,0.07418863,0.0034241925,-0.05537662,-0.04795907,0.012929265,-0.0060553835,0.015137205,0.033156898,-0.061535154,0.0035803742,-0.02172987,0.015929807,0.01835087,-0.048538595,-0.042539973,-0.03602416,-0.02796461,-0.05120406,-0.018558528,-0.03015747,-0.029294468,0.0097035635,-0.019415352,-0.01132707,-0.0045130374,0.07191872,0.052180015,0.01697839,-0.0032469698,0.13232382,0.06113221,0.06726644,0.04905554,7.417872e-12,-4.4996843e-11,6.185008e-11,-6.6410676e-11,0.05666323,0.023923429,0.045226604,0.031479888,-0.017230516,-0.013288106,-0.026347097,-0.030636065,0.026603125,0.012871015,0.040812086,0.06686226,0.012473297,0.06143964,0.024337804,-0.01803365,0.020370238,-0.0006424625,0.005083363,0.02894528,-0.037167888,-0.0006046651,-0.018497968,-0.0153015815,-0.055012703,0.006852187,0.008752892,0.082696766,-0.007349465,-0.0109023135,0.048628025,-0.02146605,-0.044305768,-0.015677273,-0.05945385,0.012722135,0.11054562,0.008699118,0.07965457,-0.028165817,0.012511111,0.08932605,0.00041093258,0.037007604,-0.029727986,0.017870786,-0.011564783,0.034616757,-0.03807146,0.02022688,0.009901646,0.0063757673,-0.03752035,0.0061997618,0.018392093,0.0024993187,0.047940947,0.09319255,0.0017103249,0.060248137,0.033356186,-0.046671744,-0.044170894,-0.05772336,0.013314247,-0.002507664,0.028188284,0.0052613514,0.033005655,-0.0076940623,-0.037044797,-0.019346882,0.058756433,0.095608,0.022936555,0.05812465,0.034020677,0.04705469,-0.02620621,-0.008221017,0.008322848,-0.0077500134,0.012756997,-0.03525883,0.010073156,0.010867419,-0.06436333,0.045374885,-0.042861555,-0.01481461,0.059606392,-0.01456742,0.020822361,0.028892435,0.053027615,0.05115063,-0.0014363882,0.053550906,0.033413813,0.039419044
0.011293702,-0.0049715145,0.019706577,0.012092595,-0.005700249,-0.019153867,0.03403846,-0.02251469,-0.017230242,-0.0030615323,-0.004122094,0.0028135984,0.0025950049,0.03910435,0.021201547,0.0027562834,0.025890455,0.01787947,0.040302366,-0.008720625,-0.026613379,-0.021504786,0.054193344,-0.019763198,0.010714423,-0.016601536,-0.0076276534,0.040845264,0.056783557,0.04265708,0.04971253,-0.05134862,0.084965475,0.05822904,0.06438552,0.056512285,-0.028528025,-0.09615831,-0.006715826,0.0039687054,-0.026428513,-0.013266146,-0.011579267,-0.03062221,0.06268345,-0.002654543,0.059262566,0.009237614,0.0820777,-0.019685468,-0.021195743,-0.050761033,0.16359988,0.09638654,0.09258511,0.113640495,6.6752246e-12,5.1887713e-11,-5.1085604e-11,7.058268e-11,0.046091944,0.0016659023,0.05215838,0.0026024384,0.022229448,0.071980625,-0.005349387,-0.0008311035,0.1202609,0.089496695,0.093825005,0.07335124,-0.02334768,0.033216797,0.0018363722,-0.06151503,0.060847465,0.04365589,0.014937281,0.10174863,0.004136828,-0.0072193337,0.03762531,-0.0014716557,-0.14312124,-0.04451184,-0.04704447,0.002476093,-0.017739465,-0.045407563,0.002348244,-0.10112323,-0.008403697,0.028627574,-0.001087916,0.06663901,0.11587152,-0.03321006,0.109152555,-0.071930595,-0.006755265,0.08094427,-0.029284569,0.009973425,-0.08408908,-0.035777327,-0.048793983,-5.4904245e-05,-0.022291917,0.017034065,-0.028906945,-0.008052356,-0.014708034,0.0025415476,0.03759789,0.004785412,-0.0539407,0.037847225,-0.05326878,0.029293466,0.026782887,-0.022834877,0.005084795,-0.030012729,-0.0039707446,-0.05081,0.021196414,-0.0242853,0.046822134,0.016246093,0.014031263,0.0792794,0.004822477,0.044865627,0.037042126,0.0739811,-0.09693312,-0.05124369,-0.09653062,-0.013731967,0.03532478,-0.01883055,0.004595891,-0.057864442,0.095023036,0.061521564,-0.004689591,0.09970784,-0.030685123,-0.002368594,0.01176108,-0.06101235,0.031500787,0.053146686,0.06360923,0.051239107,0.021050261,0.019130385,-0.023523826,-0.0038642883
0.0037540111,0.045715887,0.066884995,-0.0027077633,0.04120857,0.07394821,0.036283523,0.017292313,0.018885715,0.05168229,0.04746591,0.053262446,-0.0109689245,0.01620891,0.005834739,-0.013935929,-0.049409233,-0.02884832,-0.016086876,-0.0336231,0.0041663856,-0.019483244,0.0036041716,0.044127233,-0.056036413,0.010850248,0.037383188,-0.0006469435,0.0050251675,0.036330827,-0.017961493,0.086636625,-0.022502985,0.0063344105,-0.004465603,-0.008911688,-0.015339834,0.04697546,-0.027597232,-0.08929763,-0.026264159,-0.031161737,-0.019647175,-0.04210345,0.11555234,-0.015121733,0.107763074,0.0073492453,0.094332896,0.07936109,0.045301713,0.032496475,0.009986081,0.08881357,-0.007118615,0.096797764,8.15454e-12,5.89573e-11,2.8446245e-11,3.7350054e-11,0.035970613,0.047071546,0.04380551,0.03343466,0.062934965,-0.049478564,0.009768038,-0.044461176,0.0044386415,-0.02697103,0.0038674946,-0.07264346,0.019946596,-0.03678389,-0.048849907,0.0037507839,0.0023024783,0.015104623,0.018861907,0.024285182,-0.004144386,-0.0030383759,0.026515037,-0.015391433,-0.10372086,-0.14560081,-0.042048205,-0.0946933,-0.0045088977,0.008836037,-0.061396167,-0.035558205,-0.0040663085,0.024555149,0.09301751,0.0083863605,0.048582315,0.008755163,0.07817666,0.05308731,-0.0044674166,0.0050169094,-0.027597079,0.0076114517,-0.02112896,0.03498252,-0.001707085,0.024529928,0.041501008,-0.009865229,-0.016220171,-0.023699325,-0.009247483,-0.013228389,0.010372015,0.003978058,0.07398528,-0.016729824,0.051171,-0.04459222,-0.030677745,-0.030925773,0.036781188,-0.02189198,0.0074124364,-0.05080656,0.039040454,-0.057936024,-0.018238312,-0.03092038,-0.004097455,-0.028817324,0.024108434,0.0864166,0.007485549,0.088957734,-0.018409777,-0.007826012,-0.041346755,0.015040806,-0.015328877,-0.07186226,-0.03183023,-0.00019083006,-0.045929153,0.035602808,0.045994714,-0.06110629,-0.03452584,-0.014147311,0.015216355,-0.029991912,0.03548348,0.064383365,0.032155912,0.06041983,0.05898577,-0.018298194,0.0029426976,-0.04357712
0.12485543,0.09259967,0.12812914,0.080792,0.0418261,0.08046262,0.07183699,0.05954312,-0.10492626,-0.07429832,-0.039522026,-0.11364927,0.16667387,0.20300458,0.18503086,0.1943276,0.23317496,0.23242542,0.16863704,0.2414579,-0.047895946,-0.06696688,-0.066276476,0.0056526684,-0.021092918,0.005158677,0.08754978,0.021662012,0.040583298,0.028958118,0.0078027914,0.08845134,0.1679661,0.16777822,0.1345455,0.19236878,-0.039531156,-0.04681811,-0.027230095,-0.110414065,0.0001733736,0.06058434,0.052370552,0.01737882,0.10559174,-0.025138808,0.07999987,-0.022717303,0.015465374,0.03679515,-0.07069737,-0.116801836,0.05899534,0.08230865,-0.013865295,0.023104407,3.9835184e-11,2.3810547e-11,3.835117e-11,2.9630333e-11,-0.071230106,-0.07601251,0.011500445,-0.041767154,0.15524809,0.045863558,0.039927464,0.061906945,-0.029921744,-0.08296822,-0.03023766,-0.1268478,-0.04313336,-0.05425188,-0.100898355,-0.02624865,-0.0028319003,0.05859528,0.06325702,0.03426299,0.041674722,0.017120449,0.09371941,0.0047336225,-0.18826291,-0.19498324,-0.1761464,-0.1765243,-0.054332156,-0.030511703,-0.09296352,-0.066793665,0.02208493,-0.0065567633,0.13263421,0.013041728,0.051100574,0.07442439,0.12932365,0.0017527886,-0.070857905,-0.04257349,-0.07068002,-0.0040029036,-0.05658282,-0.0025534027,-0.02215766,-0.010772727,0.022495115,0.001094667,-0.06484535,-0.067096874,-0.00416499,0.005199374,0.14478001,0.056307614,-0.09789855,-0.12452847,-0.097535186,-0.07403795,0.18918832,0.1548656,0.1685335,0.10301815,-0.07840399,-0.10707583,-0.062199585,-0.13593349,0.09582152,0.14316206,0.06766917,0.1348646,-0.043558534,-0.021290533,-0.015198553,-0.031021724,-0.15628557,-0.11204682,-0.12829477,-0.088114396,-0.015550868,-0.13556711,-0.097996935,-0.06880469,0.06539403,0.042841636,0.14709604,0.07736232,-0.046832,-0.032234766,-0.006216491,-0.022176819,-0.043261733,-0.024980148,-0.07389082,-0.07502724,-0.0025875415,-0.058537096,-0.026036263,-0.036005482
-0.009989014,-0.015562393,0.064689726,-0.024700321,0.075015366,0.087375306,0.04100597,0.055424448,0.052031327,0.08356551,0.09526243,0.051513582,0.006895842,-0.06083996,-0.008487961,0.018306285,-0.07393797,-0.07862504,-0.00992443,-0.018313145,0.0061939554,-0.03913109,0.102467075,0.08773818,-0.07590239,0.008203487,0.0170606,0.011586182,0.034176357,0.032981988,0.022695266,0.080367886,-0.023191905,-0.077674456,-0.022762123,-0.048301365,0.01756627,0.14121625,-0.030163618,-0.05278205,0.015240977,-0.030225873,-0.018190159,-0.008076172,0.09633771,-0.026700363,0.15525022,0.017829364,0.120160565,0.08534128,0.029616812,0.026139855,-0.021991013,0.05974514,-0.043169968,0.09779754,1.053203e-11,3.8170966e-11,2.3328284e-11,1.1841953e-11,0.055131305,0.084606074,0.04213342,0.07696444,-0.02906043,-0.05567744,0.0952582,0.02515478,-0.027953956,0.052584495,0.06256652,-0.035247717,0.06747849,-0.009991267,-0.04163019,0.060755394,0.041797437,0.037063565,0.04511331,0.009002503,-0.0016431535,-0.01028335,0.020051816,-0.008355023,-0.114087604,-0.1293684,-0.053255513,-0.07249153,-0.07683307,-0.014261184,-0.06976045,-0.0050226026,-0.016441312,0.07390795,0.081267364,0.02064001,0.05995841,0.0028332977,0.06165978,0.033023667,0.01877174,0.016320808,0.008432977,0.021043343,-0.033108205,-0.02258125,-0.026573371,0.035388153,0.0038650779,-0.018927736,-0.012563931,-0.014802547,-0.02602945,-0.048778433,-0.034335364,-0.025440913,0.100087754,0.017733783,0.07780428,-0.020879406,-0.02480099,-0.039804477,0.0051625604,-0.050303813,0.0032801726,-0.04132172,0.07513117,0.013010669,-0.03798871,-0.09910539,-0.009571275,-0.05048659,0.06243257,0.1267746,0.0115766,0.12174557,0.033893973,0.044927765,-0.12191628,0.057195283,0.013340092,-0.025000386,0.022684738,-0.035567455,-0.036211092,0.024448976,0.04683976,-0.019796098,-0.08158396,-0.050995,0.0066951048,-0.030518146,0.010106628,0.05709395,0.053477917,0.053438965,0.028933153,-0.014146203,0.016317561,-0.038714383
-0.018199008,0.011007218,0.0760947,0.0501401,0.016950304,0.10096251,0.021214416,0.073949724,0.06331676,0.05181583,0.031673614,0.06288454,-0.003687223,0.081229456,-0.017394848,-0.051544916,0.008006968,0.054009523,-0.058511864,-0.03224044,-0.04191381,-0.0028120482,-0.09365851,0.03049013,-0.09171791,-0.006377624,0.0665682,0.034631588,-0.01857147,0.067702234,-0.07578468,0.10994175,-0.004323898,-0.051915728,0.010626305,-0.033486452,-0.05132373,0.015291692,0.05437392,-0.025789075,-0.031387236,-0.024522876,-0.027168967,-0.015368225,0.070752844,-0.017840037,0.053148933,-0.009446137,0.0052356194,0.03020333,0.07633988,-0.05060236,0.013647497,0.0007127733,0.013605328,0.012403378,4.9207874e-11,1.9072341e-11,4.1973702e-11,1.2126569e-11,-0.005273819,0.01656843,0.020931847,0.0008485288,0.011833966,-0.029775029,-0.015026463,-0.017215805,0.033312973,-0.08566084,-0.028781999,-0.12019949,0.050505113,0.012550538,-0.060469113,0.053844802,0.05077896,-0.057102453,0.03371402,-0.021928856,-0.01987812,-0.009583038,-0.007589851,-0.021851633,-0.06389441,-0.08319369,0.05803178,0.041689605,0.045848984,-0.020879077,0.0595396,-0.048999097,0.025055068,0.032940604,0.048073087,-0.009646091,-0.010913922,-0.009329346,0.005400167,0.03259874,0.04998574,-0.018574804,-0.007238257,0.023998266,-0.0688487,0.04449016,-0.023715688,-0.01353863,0.09829351,0.07156047,-0.008921504,0.03270282,-0.024146216,-0.028251715,0.085822865,7.121754e-05,0.048632294,-0.053100333,0.0017342096,-0.085551426,0.03059963,-0.0334887,-0.067206144,0.0822074,0.024188958,-0.044372775,0.037859224,-0.039612412,0.017993411,-0.09887989,0.034900025,0.042995047,-0.014425567,0.014116002,0.00896176,0.027201831,0.04044144,-0.045455594,0.05722501,-0.010792419,-0.0323093,-0.09594918,-0.03896036,0.041341823,0.005793535,-0.0030527508,0.0070361593,-0.05976187,-0.026342515,-0.0081177885,0.006863809,0.03151528,-0.014756332,0.038434763,0.06491451,0.05691889,0.036133777,-0.026297132,0.0060929107,-0.041860055
-0.059795573,-0.057965577,0.04756099,0.07008574,-0.042022698,-0.050203875,-0.009570368,0.09602134,0.026668407,0.072008364,0.06649499,0.061617848,0.03693744,-0.016668905,-0.05120408,0.096598886,-0.111182146,-0.09815483,0.034612615,0.034711905,0.14305419,-0.076620914,-0.11393953,-0.0064796405,-0.10744503,-0.120071605,0.09134071,-0.047918558,0.029270262,-0.020176345,-0.107458755,-0.04285114,-0.03974435,-0.10853244,-0.020087065,-0.0552968,-0.08275491,0.056361426,0.10382717,0.024061665,0.03961905,0.069160864,0.043942317,0.02065219,-0.083811864,-0.020101568,0.01792637,-0.092574,-0.14543916,0.07587073,0.08115335,-0.001015286,0.012442934,-0.10114132,0.028486963,-0.023411302,-3.61429e-10,-2.8526467e-10,-4.163296e-10,-3.3177433e-10,-0.031935073,-0.0003686749,0.09072648,-0.010020714,-0.11329977,0.05421845,0.046561945,0.113713466,0.071864985,-0.065861724,0.13665074,-0.011668363,0.12762982,0.076551706,-0.13883922,-0.08381077,0.001104515,-0.055971682,-0.0062383357,0.11117391,0.027720487,-0.09978163,0.0233668,0.06949794,0.049201965,-0.014385875,-0.01290796,0.08749115,0.032931734,-0.08830488,0.061766867,-0.025131805,-0.05920687,0.097460784,0.1432083,-0.050770115,-0.011925381,-0.04551973,-0.032048155,-0.0067097885,0.029662648,-0.08415579,0.023309791,0.06810274,-0.03057847,-0.09050705,0.044424284,0.10981068,0.019933222,0.12990475,-0.045212362,0.06655406,0.10577127,-0.02693038,0.07295009,-0.02299729,0.039909884,0.08648586,-0.04807768,-0.0797647,-0.114967935,-0.08987456,-0.078951366,0.028423194,-0.07953048,-0.070721135,0.034070436,0.11449992,0.12131873,0.066938475,0.015492898,-0.114511,-0.03421862,-0.09952197,0.00055114506,0.021508234,-0.066566266,0.09968281,0.109976895,0.08836355,0.13773142,7.675708e-05,0.003054765,-0.035546836,-0.05957234,-0.017478507,0.05737311,0.03901986,-0.0752031,0.10616855,0.06580573,0.13878943,0.10016483,0.020489404,-0.029510358,-0.026144965,0.040642932,-0.063556775,0.063262835,-0.110122055
0.0271886,-0.010195306,0.02659812,0.00863145,0.02751985,0.01981307,-0.017656405,0.039340567,-0.029687952,-0.03436969,0.017036207,-0.036977347,0.09078937,0.018113764,0.027497774,0.05871239,0.056196887,0.040389325,0.05621851,0.022009937,0.0018551598,-0.019897528,0.06776875,0.09943401,0.0037951581,-0.04031614,0.0011174089,-0.0063633355,0.025536023,0.003274223,0.0398244,-0.0024025624,0.04700091,0.028879063,0.016152006,0.07170704,-0.008667311,0.025842847,0.02815507,-0.04257463,0.019305453,0.020832995,-0.018551832,0.027403222,0.029106665,-0.034484215,0.020434886,-0.006485316,-0.0054024244,0.028083803,-0.063873105,-0.058303606,-0.045203574,0.028349841,-0.061591227,-0.047270246,-2.762658e-11,-2.0999757e-11,-1.99524e-11,-2.4969523e-12,-0.0038369654,-0.010441329,-0.013298647,-0.024765017,0.025151554,0.014012662,0.0070241564,0.029894488,-0.0060287695,-0.025974061,0.04488941,-0.044472143,0.024867581,0.03080384,0.024917025,0.0015780304,0.020850118,-0.024786305,-0.013113676,0.021491332,-0.0013200738,0.014539463,0.021319676,-0.0017023601,-0.08144941,-0.0716703,-0.08004705,-0.03185833,-0.045553736,-0.03376548,-0.009086292,0.018209053,0.049721595,0.01367987,0.028804278,0.020020092,0.031332538,0.034677308,-0.0085699465,-0.017510137,-0.016456775,-0.010166749,-0.017126124,-0.01822465,-0.018365547,-0.008180536,-0.011159022,0.04422944,-0.026945513,0.027814884,-0.0008252268,-0.011467901,-0.020525368,0.0089478595,0.017313315,0.041933678,0.045470435,0.03857544,-0.05630191,-0.04747823,0.096135266,0.0884021,0.04678765,0.028046401,-0.021004263,-0.045455277,-0.014387656,-0.0003437229,0.00859806,0.053700037,0.0011973808,0.028476954,0.013233594,0.031044722,-0.04796394,-0.03828742,0.0628197,0.0068301843,-0.10433488,-0.046875183,0.029546116,-0.043178327,0.03525185,-0.054390877,0.017669735,-0.014626516,0.049717586,0.0146370055,-0.020573502,-0.05228645,0.0060002725,0.024854546,-0.019708287,-0.015038448,-0.0064780246,-0.048188444,-0.016343456,0.015871644,0.028200446,0.012739711
-0.05524968,0.034310695,0.033064716,-0.031209955,0.022098321,0.053787295,0.09411372,0.025967896,-0.060501184,-0.028453646,-0.083820716,-0.073396176,-0.067856595,0.013992266,0.0049985973,-0.052093115,-0.006796584,0.0007764668,-0.05672697,-0.033607744,-0.046308808,-0.05707037,-0.06737141,0.040170453,-0.033754133,0.06534609,0.08955736,0.057245765,-0.04022299,-0.041234247,-0.05991395,-0.006005082,0.00015033946,0.024878938,-0.0041111736,0.003453529,0.0112301335,-0.03973738,0.0006333543,-0.07392806,0.0114521375,-0.0039565684,-0.029354544,-0.0213041,-0.03405652,-0.054500863,-0.08693422,-0.06018413,0.18746096,0.18466227,0.028710581,0.038980868,0.037496697,0.067958295,-0.030209277,-0.0017172568,5.882742e-11,3.5071907e-11,-1.3942347e-11,-2.4941837e-11,0.0056061167,-0.04002043,0.1352131,0.0929358,0.13177353,0.08352092,-0.014667413,-0.021697674,-0.017282378,-0.06984769,-0.018859588,-0.0563226,0.0149932355,-0.053465206,-0.023465147,0.037751228,-0.065270886,-0.045845672,-0.01537415,-0.036881033,0.00043373098,-0.01826997,-0.01648402,-0.016543722,-0.112920284,-0.06220966,-0.112256974,-0.089612395,0.095878534,0.10544404,-0.05964521,-0.040671676,0.018562254,-0.027529426,0.14473134,-0.027571825,-0.021647818,0.04024651,0.14480308,0.11981517,-0.02379764,0.002417947,0.008576593,0.04881334,0.020200016,0.043893144,0.017547663,0.009851723,0.08061727,0.031294525,-0.0075326376,-0.051451307,0.0021852998,-0.017655194,0.06424129,0.015043589,0.03218057,0.04798721,0.035179578,0.01558768,0.0249574,0.08111005,0.10446737,0.08137247,-0.030208595,-0.019677486,0.0066971416,-0.06492236,-0.024583641,-0.021832105,0.0032524697,-0.02836751,-0.003738268,0.03580962,0.11401212,0.10379888,0.029761288,-0.03900075,0.052800406,0.04743531,-0.007055568,-0.07315473,-0.047344632,0.004813007,-0.034146864,-0.0005621538,0.032219015,-0.022048533,-0.0057877805,0.009984886,-0.016463263,-0.024363894,0.01715368,-0.010169914,0.0146529935,-0.012643847,0.04582313,-0.04462287,0.051079772,0.024755668
-0.06371761,0.029151252,-0.0053832796,-0.010134973,0.019978499,0.020977212,0.07172948,0.024027282,-0.05880165,-0.033225212,-0.072533704,-0.059299607,-0.06520638,-0.027978035,-0.010799013,-0.052073263,-0.05749681,-0.0095388265,-0.030837405,-0.02291663,-0.04673183,-0.03908142,-0.048378147,0.014050212,-0.023602003,0.02589447,0.08789708,0.045144815,-0.02705358,-0.05226593,-0.034674402,-0.032282915,-0.008529287,-0.00740401,-0.014110323,-0.012239948,0.017540175,-0.032130003,0.021923786,-0.050193995,0.0017520892,0.009044172,-0.023176154,-0.003256076,-0.06378864,-0.049268775,-0.093021914,-0.055000532,0.1593492,0.14542103,0.035634357,0.016051741,0.019582441,0.030851716,-0.036209054,-0.030415466,-5.3433136e-11,-5.0517875e-11,4.393583e-11,1.3711386e-11,-0.018915692,-0.047907006,0.10332503,0.0701594,0.07928439,0.08488848,-0.014761685,-0.0010083852,-0.008409508,-0.031481616,0.00807661,-0.023546338,0.016657354,-0.032491937,0.00013076206,0.03270618,-0.058042433,-0.05427013,-0.04910235,-0.027580822,-0.0009505525,-0.0047266376,-0.019655988,-0.0062188483,-0.09150833,-0.04449395,-0.09758524,-0.053002246,0.0778361,0.08386521,-0.045468178,-0.030198373,0.015899444,-0.020408778,0.07951167,-0.012150985,-0.053448692,0.013297941,0.09633736,0.08922732,-0.018913979,-0.011009825,0.01463861,0.040104654,0.018852724,0.0165113,-0.01383459,0.008119144,0.041409414,0.021034628,-0.0028809202,-0.039522346,-0.00057048374,-0.008881899,0.023605572,0.0008454687,0.016950764,0.036494765,0.044490907,0.034641013,-0.011744704,0.05473401,0.053589772,0.06784065,-0.02701398,-0.006347172,0.012038467,-0.044650476,-0.030627597,-0.012921047,-0.018805934,-0.043953307,-0.01727983,0.008970765,0.08989744,0.072089694,0.030507356,-0.040679116,0.05224747,0.041677862,0.0073296707,-0.032859575,-0.031554837,0.00064767624,-0.020884955,-0.014394662,0.025935115,0.011069984,-0.013785269,-0.0033549573,-0.030909419,-0.010782624,-0.010296538,-0.025343494,0.01976104,-0.015325877,0.008400412,-0.018627426,0.026918845,0.02424991
-0.017706737,0.0027200307,-0.020024985,-0.023674525,0.053995993,0.022963995,0.004513362,0.06308097,-0.041191533,-0.019954672,-0.023655683,-0.018763153,0.045239907,-0.043056183,-0.029964456,0.017259683,-0.018499335,0.020484626,0.008564153,-0.022197686,0.026030824,0.011763863,0.17032656,0.20716542,0.0052145575,-0.006681089,-0.03048175,0.0021255629,0.0055418974,-0.036771696,0.03180709,-0.03578729,-0.006431338,0.024512343,-0.006331769,0.03128019,0.006407245,0.0637975,0.02165762,-0.022802154,0.029581646,0.02823374,-0.026173865,0.0037406352,-0.07272224,-0.0126117105,-0.03877064,-0.043680206,0.035211254,0.03266422,-0.05886374,-0.08114341,-0.019521123,-0.0014933229,-0.08091549,-0.11426105,4.2866245e-11,2.980938e-11,4.7812768e-11,6.1289224e-11,0.047534756,0.018651148,-0.005814812,0.014046761,0.002713847,-0.031477306,0.01913617,0.0020324914,-0.003525587,-0.05675245,0.07864592,-0.012126462,0.09221071,0.07287849,0.088668525,0.0571614,0.01758325,-0.033134263,-0.015445114,-0.019131904,-0.04682751,0.0035297782,-0.023977568,-0.011879491,-0.108414955,-0.063244976,-0.066051535,0.04233331,-0.045629844,-0.026918788,0.029846583,0.064391024,0.046657577,0.049272977,0.03134135,0.023959048,0.08457642,0.056059968,-0.033912107,-0.012151844,0.012573926,-0.00081692974,-0.02146789,-0.0008784663,-0.01564328,0.02104122,0.040756136,0.11527442,0.03502059,0.06331208,0.031913385,-0.0006800954,-0.008052579,0.030498037,0.064153895,0.03997974,0.10358907,0.1084452,-0.052343357,-0.032860614,0.14069165,0.08125317,0.021253137,0.04099081,-0.02618495,-0.026684573,0.01623023,0.051160257,0.03379737,0.052289404,-0.030816456,-0.04378085,0.08249841,0.08858207,-0.04165407,-0.050287735,0.17193557,0.088821046,-0.11831052,-0.12713678,0.022766214,-0.02213973,0.0728682,-0.06113715,-0.012508348,-0.03765654,-0.0028420552,-0.01779081,-0.05564051,-0.09447271,0.04759275,0.047914397,-0.011514157,-0.030984223,-0.0041870996,-0.071096025,0.0186496,0.025507769,0.08635766,0.028827935
-0.07646261,-0.09298786,-0.082159586,0.007954729,-0.11764432,0.046866804,-0.11079865,-0.0056180363,0.021333417,-0.023186956,-0.06531309,0.09775386,0.017527338,-0.08773432,-0.03365483,0.10191384,-0.10731168,0.025179362,-0.1077762,0.04446763,-0.044379395,-0.06393667,-0.03891695,-0.05222269,-0.045010764,-0.09154916,-0.06106815,-0.0056859483,0.0068575894,0.04751548,-0.028732894,-0.043811645,-0.009155819,-0.04468522,0.062169503,-0.013487978,0.0071506305,0.0780914,-0.03883268,-0.053157132,0.14098176,0.02399691,-0.009274064,0.05980146,0.04418367,0.033125218,-0.045053635,-0.08351626,-0.022634385,-0.10271851,-0.028950192,0.092603594,0.02468503,-0.0091602355,0.030200206,-0.011259054,-8.62689e-11,-8.181058e-11,-8.816611e-11,-7.6868914e-11,0.08496649,-0.013670286,0.016264325,-0.021285988,-0.050989214,0.0033310137,0.060013406,0.09508966,0.12265829,0.06266601,0.14305207,-0.07013488,-0.010830653,0.1333558,-0.08621661,-0.047046423,0.04714891,0.084137,-0.08734755,-0.057770036,0.019831004,0.039960288,-0.03767538,0.072357506,0.09024553,-0.023497986,0.011963244,0.024585309,-0.09158704,-0.052718118,0.12097796,-0.0050705485,-0.01663493,0.05972274,0.043094013,0.107457414,0.023918929,-0.020476144,-0.009607469,-0.029745044,0.029737255,-0.01972137,-0.053422917,0.01987902,-0.092818275,0.069129325,0.035546035,0.05898026,-0.028609777,0.14281988,-0.089535125,-0.03980841,-0.048749343,-0.017457802,-0.023200775,-0.07024776,0.120185226,0.081983894,0.046315607,0.036524773,0.0017674706,0.017105006,-0.015929224,0.045746215,0.016997622,-0.114817314,0.020782407,0.027670885,0.122007035,0.1137925,0.11244294,0.058705237,-0.01134667,-0.007477065,0.024856467,-0.022593677,-0.00043842528,0.110491246,0.028204033,0.034540217,0.13193634,-0.11228798,0.031611852,-0.02651443,-0.07012522,-0.009232411,-0.0026019032,0.030671725,-0.06221087,0.017573649,0.10971458,-0.03219648,0.059858266,0.034801427,0.11770988,0.074405804,-0.021854915,0.0034572459,0.08912873,-0.03928996
0.008859093,0.033926345,0.08091992,0.014561931,0.047507156,0.035523623,0.044399176,0.050427854,0.020178784,0.014331091,0.01639946,0.021456668,0.04360454,0.007387612,0.07645392,0.06244493,0.044202875,0.054638192,0.04848227,-2.786707e-05,-0.046615817,-0.05501792,0.02146493,0.0063626845,-0.049899418,0.0017407826,-0.0028031769,-0.011076397,0.014500654,0.017123194,0.0111318035,0.06535469,0.032938145,0.0136959385,0.022005206,0.03217051,0.018731281,0.09518811,-0.03970828,-0.05830847,0.0105316155,-0.021618782,0.00025423753,0.01950606,0.074275576,-0.008590854,0.074488476,0.008765726,0.033988267,0.04656629,0.015364319,-0.0106419455,-0.0026067628,0.04481596,-0.027555995,0.07164096,3.3121655e-11,6.1305934e-12,4.0205225e-11,-8.044086e-14,-0.02249904,0.016599685,0.0017568163,0.018589796,-0.01228583,0.017127274,0.07175183,-0.010164992,-0.031876832,-0.06067243,0.010645521,-0.05254885,0.027184904,-0.022791063,-0.048954025,-0.0021877282,0.0328025,0.037271287,0.030927973,0.035221502,0.015173524,0.009090319,0.031866383,-0.013893424,-0.107627414,-0.101428054,-0.059070628,-0.1278815,-0.04328553,0.002995745,-0.035999876,-0.056775328,-0.0090826955,0.028110823,0.0641592,0.017251449,-0.00634754,-0.005696575,0.0457217,0.011433744,-0.022935292,-0.029881945,-0.020169932,-0.008771306,-0.011607711,-0.011150876,-0.033834442,-0.004439825,0.0309442,-0.0030624713,-0.0061367936,0.0010024771,-0.0075753215,-0.005958377,-0.0004915547,0.042119555,0.0022807207,-0.034897115,0.017136367,-0.056559563,0.0025244437,0.020365555,0.030488325,-0.009202208,-0.03776923,-0.04845133,-2.73471e-05,-0.053357612,0.015402514,-0.011344815,0.01428614,0.012061808,-0.006588223,0.034710694,-0.021520566,0.041259114,-0.055464752,-0.011019291,-0.053056724,-0.01774673,-0.023065193,-0.056213338,-0.014365437,-0.06378659,-0.0334807,0.053894747,0.06066095,-0.008322197,-0.041240357,-0.015465063,0.0027109017,-0.024743784,-0.030360002,0.03321235,0.004836145,0.03932512,0.034755904,-0.00999532,0.0014854044,-0.04178513
0.0033415942,0.055310685,-0.09146775,0.039360054,-0.004832062,0.019517064,0.03534967,-0.0115629,0.010291317,0.048251692,-0.07609485,-0.04140179,0.038475733,0.010319049,-0.07561715,-0.05211792,-0.06751749,-0.031517487,0.06172583,-0.038395423,0.13403475,0.08848841,-0.0033325239,-0.12945974,-0.042492833,0.00042104573,0.022682015,0.13693978,-0.09367395,-0.04074909,-0.115481965,0.07956369,0.049422923,0.03964164,0.01741995,-0.040677328,-0.075743504,0.0025576132,0.03329414,-0.020301908,-0.009519097,0.0477501,0.07896446,-0.028300332,0.043627895,0.025776159,-0.06661153,0.08158354,0.037438147,-0.09554764,-0.035856258,0.06319095,0.015626146,-0.09008367,0.022246363,-0.04999151,-1.2868451e-10,-9.0722006e-11,-1.3535072e-10,-9.6390035e-11,0.030498698,-0.08198473,0.014032057,-0.061337676,-0.0661913,0.040614683,0.05654836,-0.049361028,0.03655982,-0.05379138,0.13116647,-0.12163661,-0.068670504,-0.026298393,-0.07956732,-0.115890175,0.0056064012,-0.048398923,-0.030538378,0.117674954,-0.03296738,0.003473182,-0.067906536,-0.039822917,0.1361458,0.008724845,0.13856584,0.090574324,0.047001794,-0.07980974,0.047815826,0.026167633,0.073692486,0.013328364,0.105961874,0.11318127,-0.015303621,-0.030504221,-0.016498351,-0.010197591,0.08813917,-0.12531391,-0.04908459,0.0675618,-0.016432986,-0.0193769,0.07064617,0.10645591,-0.026902894,0.01911783,0.058221348,-0.11804775,-0.046672672,-0.03879907,-0.075393535,-0.05749623,0.022277325,-0.05537824,-0.040867623,-0.01576476,0.03838919,0.01746296,0.006270524,-0.10270358,0.06571663,0.043794096,0.10187356,-0.029113429,-0.010475969,-0.024813602,-0.052503843,-0.0068147387,-0.038631808,-0.07189694,0.022665897,-0.019717192,-0.07958376,-0.05642338,0.047316127,0.062230255,-0.073978424,0.0949194,-0.01477198,0.11660725,0.054217216,0.03938382,-0.039211776,0.01662249,0.06647722,0.03694714,0.056253772,0.025667666,-0.066530444,-0.105895594,-0.06389515,0.04147599,0.0406253,0.04243298,-0.05967593,-0.007306155
0.014769203,0.06509485,0.10675491,0.06065659,-0.07458127,-0.006246475,0.05248112,0.06516097,-0.03962242,-0.019031815,-0.070947535,-0.073308304,0.110805705,0.06898071,0.1555971,0.10384324,0.056624096,0.17836234,0.090706475,0.14887968,0.039371416,-0.05172969,0.03972295,-0.04462158,-0.0438166,-0.058445826,0.056681,-0.030291975,0.031669825,-0.039350342,-0.004603285,0.050559606,0.058161758,0.118627146,0.08915572,0.06558695,0.049065247,0.0172925,0.07882652,-0.023226298,0.0342644,0.029392824,0.01509338,0.01412926,0.053185333,0.0071756993,-0.017177096,0.01627543,-0.06346067,-0.018884186,-0.06033286,0.016688608,0.036390062,0.01506791,0.019186847,0.019282635,-1.11261495e-11,-5.414592e-12,-2.238039e-11,-2.2990184e-11,-0.04378774,-0.054617364,0.0100293355,-0.036422603,-0.036304932,0.0515787,0.027391883,-0.021549348,-0.0060125203,-0.014578093,0.092443004,-0.076963216,0.063134,-0.034424018,-0.08253781,-0.09631451,0.03930292,0.11404556,0.09704309,-0.017106548,0.03546542,0.018876264,0.053594824,0.015782336,-0.083256714,-0.0717615,-0.028160246,0.013236186,-0.05242542,-0.028213367,0.04094635,-0.036801428,0.0217095,0.051824156,0.07329424,0.09362051,0.023832507,-0.0035509656,0.008946874,-0.022680074,-0.08643772,-0.048404336,-0.07889838,-0.001277343,-0.07206186,0.02196152,0.035465956,0.019540424,-0.057136804,0.06938359,-0.057351872,0.015465367,0.09013098,0.06900865,0.1120543,0.10640835,-0.08780679,-0.11252689,-0.034808334,-0.010186809,0.078068726,0.07444405,-0.03786269,0.06876137,-0.07514371,-0.0643549,-0.05403161,-0.038113665,0.07955285,0.11449459,0.019684957,0.111014105,-0.053244717,-0.040270727,-0.051610008,-0.033352904,-0.11576292,-0.012761988,-0.096192695,-0.09092469,0.040186644,-0.10326067,-0.005483121,-0.07744473,0.026185539,0.059323788,0.037525844,0.10356799,-0.018405465,-0.046723347,-0.022526117,0.024740785,0.0065690097,-0.047922883,-0.030614192,0.009036509,0.018333744,0.01314894,-0.03375374,-0.028329447
-0.02968037,-0.015388774,-0.017784879,0.0055757756,-4.600654e-05,0.006696328,-0.06940105,-0.028063782,-0.008372996,0.06388992,-0.023044802,0.024866454,-0.048954014,-0.101415515,-0.092135586,-0.0068368255,-0.11288114,-0.06060401,0.05282926,-0.0914362,-0.02510654,-0.010755226,0.11696966,0.13567632,-0.031416804,-0.07290356,-0.061653513,0.01884341,-0.029746681,-0.046797354,0.016482988,-0.07678002,-0.001472645,0.0024094624,0.02072175,0.0142293265,-0.04960807,-0.03259078,0.021255095,-0.056961905,0.014157996,0.0037442632,-0.014891634,0.0035805984,-0.05605345,-0.041603647,-0.038912024,-0.002923853,0.059423797,0.036778606,0.010923343,-0.06284785,0.044860624,-0.0041526062,0.0054175183,-0.036435444,2.7481508e-11,-2.2177808e-11,5.1089584e-11,-6.377239e-12,0.0326311,-0.0002513089,0.024474215,0.022196107,-0.068637356,-0.09118026,0.0023757191,-0.03977533,-0.034305416,-0.047903664,0.042083967,0.011938998,0.12523216,0.1276236,0.059259534,-0.032092445,0.07047396,-0.04920897,0.05007073,0.02136922,-0.050510854,0.0004279787,-0.02671843,-0.01670093,-0.10644777,-0.027190888,-0.026298303,0.111772545,-0.05977784,-0.041113507,0.059459243,0.0031464768,-0.042308524,-0.018267412,-0.007988417,-0.0022539443,0.08913057,0.03871868,0.0062842607,-0.024714386,-0.0090221185,0.04692989,-0.025080953,0.041417237,-0.04912934,0.028515924,0.03280534,0.13123462,0.015689265,0.08245156,0.053808298,0.0570525,-0.045490947,0.02596604,0.08190747,0.025661848,0.11132515,0.025605137,0.008894627,-0.050275426,0.15167795,0.017784443,-0.06883162,0.044291213,-0.012792241,-0.045430537,0.04833277,0.015875468,-0.004657646,-0.00095376355,-0.005879792,0.036691748,0.05793884,0.06945114,0.0006264822,-0.0027237232,0.10051356,0.007856529,-0.04728591,-0.07840486,-0.046963193,-0.07530553,0.013903041,-0.100195214,-0.026714196,-0.059449717,-0.067186296,-0.022814544,-0.06756673,-0.06710021,0.085410744,0.01216411,0.026971117,-0.021235978,0.020794967,-0.016884798,0.009742891,0.033040784,0.067186646,0.06092714
0.030684149,0.026287613,0.06408637,0.017580483,0.028833775,0.01974443,0.04560671,0.029310685,-0.006539128,-0.028733118,-0.014959349,-0.009588915,0.06704178,0.034534477,0.091632694,0.06810931,0.07964783,0.10222537,0.07493122,0.049583096,-0.055452697,-0.03847327,0.02861112,0.005670952,-0.030315949,0.005858891,0.0015981479,-0.006231157,0.016958414,0.00033372527,0.01256939,0.022746686,0.052351408,0.03924363,0.038718313,0.05526797,0.018122476,0.06932929,-0.020355651,-0.03688117,0.027384385,-0.0034578666,0.0032167758,0.02333619,0.046703294,-0.017824916,0.034231313,-0.0049292697,0.009482826,0.026897965,-0.017060578,-0.046801414,-0.0054936362,0.021301493,-0.038920306,0.039328452,-3.0931202e-11,-1.0034758e-11,-3.2287804e-11,-7.8377235e-13,-0.033801645,-0.012518811,-0.012064005,-0.012008987,-0.006930872,0.040941224,0.0580622,-0.0039992677,-0.039481655,-0.05710952,0.003834497,-0.01666656,0.016734961,-0.009826489,-0.03647637,-0.010692201,0.018430071,0.026411109,0.018003985,0.014847471,0.023059053,0.011015304,0.024132563,-0.0053384155,-0.10458238,-0.07957253,-0.05596474,-0.098997004,-0.04190325,0.0016777642,-0.01690112,-0.04858027,-0.004029148,0.010801663,0.03773783,0.0029849592,-0.0026884335,-0.007876871,0.020632943,-0.0021667301,-0.03260971,-0.02840391,-0.027967678,-0.016420785,-0.009056141,0.0021913736,-0.024180768,-0.00647775,0.02180224,-0.00688014,-0.0121650845,-0.007872157,-0.0026187184,0.007128689,0.030039035,0.040771008,-0.046858266,-0.050370716,-0.018743822,-0.065454036,0.042572808,0.04758892,0.03947517,0.008627327,-0.04414109,-0.042017464,-0.017889751,-0.050705045,0.04052828,0.010618263,0.0014087891,0.022283895,-0.023317385,0.0057359864,-0.042055897,0.0038745822,-0.061895177,-0.033399735,-0.065443225,-0.035758868,-0.008199001,-0.049868148,-0.012243817,-0.05966708,-0.011890616,0.043842983,0.051708438,0.015757233,-0.03147714,-0.015815184,0.0015723297,-0.019094031,-0.034876112,0.0066055264,-0.021688454,0.011238928,0.012959039,-0.0025063308,-0.00074649695,-0.029320639
0.032001972,0.02625763,0.029669534,0.019387491,0.004486657,0.019714614,0.028373405,0.00778475,-0.04061137,-0.023026124,-0.025361303,-0.036661245,0.03270963,0.052365232,0.04495175,0.043612774,0.06268493,0.056596246,0.045262102,0.081120335,-0.0324129,-0.027688488,-0.031113595,0.009152606,-0.018437143,0.018888012,0.028512921,0.012717835,0.0011022035,-0.003204832,-0.017216457,0.017505309,0.049080867,0.03223041,0.035161998,0.05003171,-0.022689678,-0.0061560906,-0.0066666044,-0.036386963,0.0001428117,0.020238401,0.015000461,-0.0001970528,0.008618481,-0.023202874,0.0014274534,-0.012167061,0.04365659,0.03411776,-0.02131126,-0.04166477,0.034331538,0.018625632,-0.009246981,-0.013488655,3.901494e-11,1.7967395e-11,3.76703e-11,1.7670268e-11,-0.033294827,-0.04000635,0.019263435,0.0027876962,0.04435962,0.034190502,0.0037755445,0.015582744,-0.009657376,-0.023704562,0.011462499,-0.02298721,-0.011953537,-0.021163965,-0.04638104,0.0009370366,-0.019180743,0.0057354607,0.010797443,0.012155127,0.013941425,-0.0013977513,0.020171614,-0.004272244,-0.069495186,-0.043628875,-0.060966518,-0.05432875,0.0046673664,0.009934031,-0.025098203,-0.01815346,-0.0021202795,-0.017744994,0.03989703,-0.002498023,0.00446087,0.014558361,0.05802271,0.01483258,-0.023608617,-0.0019997938,-0.022099597,0.027930243,-0.010769987,0.0033154576,-0.013345186,-0.000507829,0.010118773,0.0025108058,-0.015840929,-0.027341316,-0.016434293,-0.0053448575,0.04441849,0.011458879,-0.041711036,-0.026710931,-0.050394073,-0.015169107,0.0379363,0.04998088,0.05097125,0.035332177,-0.0264947,-0.019026006,-0.012384681,-0.044752806,0.030310938,0.024305731,0.018645763,0.028859152,-0.021031009,-0.018753551,0.016956327,0.0051958095,-0.041017905,-0.050878502,-0.020549903,-0.00943207,0.0040626707,-0.048416317,-0.03254649,-0.013571154,0.017863974,0.014655791,0.040974908,0.014085404,-0.011891851,-0.0013782486,-0.0011506065,-0.008794237,-0.01107765,-0.0121606765,-0.010759228,-0.021167004,-0.01241843,-0.02252129,-0.00081154035,-0.017107876
0.027570682,0.025881132,0.1030859,0.018752282,0.0582758,0.06260461,0.036761504,0.10151008,0.060299862,0.07671668,0.062291473,0.0337209,0.04620272,-0.0016762055,0.061336678,0.089860655,0.05738194,0.0015907616,0.0066349674,-0.02400441,-0.03781597,-0.040256187,0.017357117,0.045500312,-0.097103626,-0.005845552,0.03964197,0.0064120083,0.001906851,0.029214753,0.03042796,0.110351056,0.025856463,-0.008004753,0.027820665,0.018329423,0.0037911737,0.10073175,-0.05697611,-0.104627706,-0.018956637,-0.04387956,-0.018083598,0.010052211,0.109130464,0.008289793,0.1295642,0.020655349,0.040480185,0.081251554,0.039788447,0.0045975675,0.008243818,0.057405923,-0.01174423,0.089969516,-4.2829205e-11,-9.229229e-12,-5.5371388e-11,4.579696e-13,-0.0014994323,0.04725831,0.019356713,0.037073832,-0.005251053,-0.031728096,0.070966884,-0.01169249,-0.012591778,-0.095785044,-0.026625939,-0.11684359,0.06558298,-0.041166734,-0.06806018,-0.007640508,0.056934655,0.072333306,0.05422941,0.059599984,0.008071045,0.009115118,0.045939095,-0.023814647,-0.09921326,-0.12794073,-0.019742455,-0.1419229,-0.05126118,-0.010448506,-0.046207625,-0.05190455,0.017561257,0.022307545,0.07517358,0.02076575,0.008485865,-0.00010455701,0.0623256,0.027063448,-0.011671668,-0.030324308,-0.0052811424,0.002056617,-0.021403749,0.00043474574,-0.024045985,0.0075900676,0.051542353,0.011479583,-0.001165073,-0.024415607,-0.026284272,0.0035087804,-0.01858271,0.020173429,0.023918062,0.0076271566,0.08169103,-0.034443464,-0.031452768,0.038219366,0.0629965,-0.042284828,-0.017648168,-0.051559754,0.042743433,-0.051742457,-0.004536692,0.018209908,0.014234562,-0.043622907,0.005760491,0.06598542,-0.0023433233,0.06651035,-0.04522443,-0.020469332,-0.03724315,0.030580923,-0.044005826,-0.093929045,-0.043897055,-0.052699186,-0.052576996,0.06816693,0.074516244,-0.03386215,-0.054890387,-0.007983642,0.0045887567,-0.023411857,-0.0144048175,0.07301679,0.0452866,0.052278295,0.038737614,-0.026169242,-0.0014792411,-0.06114399
0.040458575,0.07364697,-0.061991915,-0.032516334,-0.13695846,-0.06501655,-0.11121804,-0.005159313,0.08903174,-0.041553773,-0.1232343,0.026672356,-0.10710282,-0.0130550545,-0.08596672,-0.04823606,0.046916466,0.016454682,-0.08351521,0.04855355,0.12950662,0.07792851,-0.12229232,-0.018835263,-0.051539965,0.018079326,0.15820755,0.10052435,-0.0991268,0.094076276,-0.027672283,0.12152159,0.040579878,-0.01562283,-0.023317976,-0.046810616,0.030932186,-0.040164813,0.03623783,-0.11724473,-0.04157921,0.0018367991,0.11151039,0.0047582067,0.032701846,-0.0839652,-0.05626955,0.10529337,-0.12615752,-0.099735476,0.09080267,0.1476241,0.020390498,-0.000653348,0.027174914,-0.01704017,-3.4395814e-10,-2.8275382e-10,-4.0790626e-10,-3.3659003e-10,-0.058622736,-0.11616205,0.05568891,-0.09288985,-0.09228951,-0.12370294,-0.037370484,0.0913784,0.07804549,-0.10331332,0.086351186,-0.007675416,0.060802326,0.05628753,0.049363405,0.025738025,0.0016274329,0.061470184,0.0040291,-0.05136201,0.011243057,0.04075434,0.0887757,-0.07040714,0.016271599,0.036484506,0.11165808,-0.04612074,-0.016172234,-0.018565213,0.02795771,0.11889376,0.09419256,0.08373408,-0.023403147,-0.0097051915,-0.004018331,-0.037896108,-0.033255104,-0.009975613,-0.06157057,-0.11950915,0.0145684965,0.08180884,-0.010455066,-0.022023166,-0.030997057,0.103828445,0.08842988,0.050991237,-0.11380187,-0.022833074,0.09924269,-0.06580318,0.12929606,0.081128955,-0.11655995,0.088555716,0.03638075,0.012815831,-0.039205093,0.07927631,0.06406423,0.04752837,0.030773534,-0.094691545,0.12037328,0.04788599,-0.031995587,-0.019608248,0.023365133,-0.0477828,-0.0029351027,-0.076830775,0.05559822,0.016629525,-0.08315867,-0.020963779,0.1229613,0.060446575,0.13458681,-0.056502223,-0.05169577,-0.04841075,0.107391484,-0.09266597,0.0029286959,-0.0021919545,0.041776832,-0.02448829,-0.016070211,0.12503304,0.10255071,-0.121423185,0.07410493,-0.020170247,0.06012501,0.058164638,-0.00016774758,-0.111003235
-0.055818398,0.07854237,0.08443386,0.018304734,-0.01775792,0.029187106,-0.078401856,0.12020921,-0.0662223,-0.038533237,-0.055715334,0.06477727,-0.07789268,0.09549221,0.048115555,0.0030561686,-0.027533723,0.0292969,-0.04823099,-0.08248553,0.07303663,0.047394093,0.043302756,0.04350338,-0.013905562,-0.084031865,0.036593392,0.01774739,0.060123492,-0.056763664,-0.00025732114,-0.01006686,-0.01769097,-0.04722994,0.010661809,0.024656605,-0.020300655,0.08631474,0.07137636,0.030326732,0.067574896,-0.052303884,0.05328873,0.080201246,0.003786686,0.06924375,0.010053011,0.07925083,-0.041467674,-0.10814233,-0.027957873,0.11970269,0.009136328,-0.028726391,0.026522078,-0.011465919,6.4739006e-11,5.6401328e-11,8.009467e-11,8.010956e-11,0.018709017,-0.015738467,0.016891813,0.038382087,-0.05801506,-0.10194085,0.037991643,0.107697494,0.09523861,0.050022665,-0.04396531,-0.08823909,0.08916192,0.06475452,-0.07629376,0.00775809,-0.019952968,0.0077986624,-0.01106282,-0.050353207,-0.055694368,0.038620684,-0.02911054,0.030482655,0.042741958,-0.040475667,0.051282708,-0.06367284,0.026015824,0.024374774,0.024297165,-0.057269298,-0.01180388,0.0025290921,-0.017503597,0.050459757,0.0012015492,-0.02258513,-0.020517258,0.013485804,-0.015414211,-0.07640025,0.0747909,0.01860448,-0.06814661,-0.002817589,-0.046645593,0.04561706,-0.070166335,-0.01893213,-0.0034775375,0.079176694,-0.013613365,0.10605879,0.056497794,0.011135962,-0.0026740734,-0.07042158,-0.11335273,0.05628708,0.018139333,-0.0174173,-0.07710009,-0.021753311,-0.020713879,0.008800558,-0.03468481,0.055392455,0.085502,-0.0155265,0.07583554,0.1186538,-0.023334958,0.007076116,0.03725369,-0.028716221,-0.05663142,-0.015122742,-0.06371377,0.017917177,0.118041664,-0.0817002,-0.03226066,-0.06837838,-0.08104856,-0.07585934,0.045808364,0.013715529,-0.011654428,-0.012319542,-0.002494226,-0.029993072,0.040109903,-0.07249111,0.054742858,-0.033301312,0.0046701436,0.053139742,-0.042722415,-0.069615945
0.045536846,0.039681304,0.13428764,0.018064484,0.07194928,0.0662171,0.008665696,0.06634534,0.03673846,0.1032659,0.09199393,0.033938665,0.06636971,0.009387462,0.037555363,0.038436644,-0.063891605,0.024103679,0.05849187,-0.030277288,0.03726538,-0.009399187,0.0368042,0.09466181,-0.10493745,-0.010852359,0.022908619,-0.013873037,0.030271785,0.10940738,0.0037075526,0.10584491,0.016205061,0.03959543,0.024128633,0.0028989632,-0.012867163,0.090346806,-0.06148449,-0.12597327,-0.01427274,-0.058573086,-0.018387396,-0.03171459,0.17092556,-0.010225494,0.19349132,0.039436083,0.061726496,0.055819873,0.008793955,0.06921486,0.0028011343,0.08026501,-0.0024560571,0.11014407,-3.6680527e-11,-4.9843185e-11,-5.8126864e-11,-3.5290576e-11,0.042501137,0.07013198,0.019968837,0.036571242,-0.025819726,-0.11347809,0.04734391,-0.01568873,-0.06961412,-0.047369104,0.019465182,-0.14879908,0.05790893,-0.024687763,-0.0452607,-0.007138108,0.023135656,0.07596693,0.11087725,0.104156144,0.009259317,-0.00087434275,0.032895252,-0.014217341,-0.0737956,-0.14590356,-0.010191965,-0.13086884,-0.08146524,-0.03726759,-0.028465932,-0.035006225,-0.010926953,0.08255345,0.08826382,0.009191276,0.050869714,0.009575497,0.0474706,0.030309953,0.011541129,-0.018624052,-0.009102795,0.024267128,-0.027154505,-0.007598252,-0.042185634,0.03692214,0.04788309,-0.010056025,-0.039967358,0.0061505795,-0.045417685,0.0047048954,0.007635371,-0.026197031,0.15015554,0.030550323,0.05339063,-0.05275519,-0.027274122,-0.06600245,0.07434927,-0.024448382,0.011883305,-0.06179844,0.058569044,-0.03920243,-0.01851036,-0.0013342345,0.020425327,0.028471595,0.021453291,0.091609895,0.0015780802,0.078450106,-0.046404604,0.032099947,-0.07740699,0.0127561595,-0.052865826,-0.10249062,-0.013690983,-0.07088453,-0.02900412,0.040903766,0.08577492,-0.03655714,-0.05496771,-0.01890543,0.036657345,-0.03965833,0.005699206,0.052926045,0.06240712,0.088626325,0.054067716,-0.016765116,0.00019080222,-0.06883872
0.06682193,0.036669128,0.1025438,0.032248233,0.057950925,0.10009302,0.016541481,0.028742526,-0.004531922,-0.008251811,0.037520688,-0.0153501425,0.08426685,0.081635796,0.08743588,0.074814245,0.10792252,0.112149864,0.0737623,0.10251453,-0.003711435,-0.02886688,-0.019521613,0.05534979,-0.041324966,-0.011383711,0.046280287,-0.001896482,0.021760548,0.07247326,0.006985211,0.08102761,0.0664179,0.083093226,0.061451495,0.067354776,-0.029227428,0.03169412,-0.0044978177,-0.07992882,0.0044028866,0.010847324,0.008326799,-0.00012157181,0.10445122,-0.014013059,0.085016675,0.015818268,0.01940443,0.0076724878,-0.040331483,-0.051138867,0.0007273219,0.073062256,-0.022708979,0.062114187,1.5902451e-11,3.574315e-11,3.9920192e-11,9.805313e-12,-0.0032798164,0.0021735553,-0.01342959,-0.026201129,0.06835508,-0.012348266,0.058568887,0.0062965383,-0.024615042,-0.050848886,-0.041565493,-0.102349386,-0.014268753,-0.03559865,-0.05568113,-0.015700137,0.02489817,0.03461729,0.03598398,0.05233871,0.019205714,0.0068477495,0.05996752,-0.0014698014,-0.113832906,-0.1437856,-0.06419023,-0.11256759,-0.035688084,-0.030056275,-0.050371364,-0.02476298,0.03914984,0.013098896,0.10074697,0.028116586,0.044019856,0.02609731,0.046589047,-0.00085066195,-0.030410947,-0.019305462,-0.04818448,-0.024324717,-0.031602234,0.010935532,0.0028541167,0.009070104,0.0053647347,-0.008882569,-0.020978807,-0.03397539,-0.002835032,-0.0011360773,0.0647099,0.057914242,0.024836367,-0.06767909,0.009652727,-0.07892748,0.054926515,0.030910855,0.04877785,0.027138269,-0.002385371,-0.06029666,0.0046931063,-0.059589222,0.018361272,0.025243439,0.051431302,0.025629945,-0.010953587,0.047092542,-0.03879238,0.0069329306,-0.061400663,-0.026414933,-0.14262445,-0.020912435,-0.017166745,-0.112337224,-0.05247672,-0.029437186,0.006899656,0.022834763,0.07850176,0.009786037,-0.031273916,-0.035944097,0.030605158,-0.018597055,-0.013655997,0.0043596867,-0.017924417,-0.002572355,0.031604245,-0.03574504,-0.01479974,-0.0340175
0.074844874,-0.0027035563,0.033489436,-0.016500846,-0.11846793,0.06446452,-0.051299877,-0.024596274,-0.062994555,0.029813556,-0.029225588,-0.076060906,0.024513071,0.11254147,-0.033472482,0.1524345,0.12516125,0.09975012,0.027983557,0.1327504,0.032475952,-0.06241385,0.03646464,-0.05053702,-0.07839498,-0.05442716,0.06093581,0.044030085,0.029688183,0.04352821,0.006525315,-0.018303698,0.057688393,0.09487849,0.075806215,0.04717113,0.00872502,0.045705825,0.08593502,0.059524495,0.084877275,0.03600379,-0.03357487,-0.011488731,-0.03933796,0.01076934,0.060551483,-0.028781153,-0.02762459,-0.11122919,0.039457757,0.0284379,0.034561407,-0.00051886373,0.031572193,0.016118325,1.0230496e-10,7.84046e-11,1.0762423e-10,9.921495e-11,0.011656502,-0.035398766,-0.004430528,-0.061513513,0.018470202,0.060875855,0.07652453,0.06030773,0.06636617,-0.0206094,0.13909215,-0.10774659,-0.0017935192,-0.06667163,-0.029497722,0.04021616,0.083201334,0.011285272,0.046791684,0.053761438,0.047255803,-0.018246641,0.028374849,-0.014464532,-0.08757551,-0.06077145,-0.017374095,0.06829615,-0.02664372,-0.021745032,-0.03113184,0.05941817,0.0162855,0.07694314,0.104666814,0.12088108,0.02497694,-0.0025578542,0.0018715078,-0.014372815,-0.021586874,0.014507404,0.027875815,-0.068434544,-0.0132244155,-0.055096075,-0.041729946,-0.046078697,0.03394587,0.0629085,0.054482102,-0.026862977,-0.041897155,0.09642986,-0.010111693,0.0181211,-0.023297422,-0.085196495,-0.098951586,-0.036149833,0.1306077,-0.033556283,0.12266822,-0.052586358,0.017575705,-0.032970857,0.012424374,-0.07353236,-0.020026492,-0.050401885,0.09041493,0.06937639,-0.05250619,-0.018746808,-0.03219112,-0.030784544,-0.05517449,-0.11351279,0.0047510904,0.057321616,0.09865556,-0.11940428,0.08227601,-0.020118207,-0.058348328,-0.04880319,0.0037954324,0.0040083677,-0.02385088,0.023689108,0.02588366,-0.018322067,-0.015087449,0.008416709,0.02349622,0.031209817,0.059662994,0.048967957,-0.021390967,-0.06769132
0.0065090894,0.057756294,0.052290164,0.055939734,-0.013334728,-0.018724501,0.022353828,0.036824863,0.01284139,-0.04265376,-0.026301911,-0.039686445,0.05746803,0.004811018,0.061885647,0.086040996,0.01358701,0.0035764193,0.09900229,0.023551187,-0.047934722,0.05126988,-0.06489003,-0.0020616713,-0.040409602,-0.040723655,0.012927457,0.065421455,0.008881412,0.019030081,0.0052826265,0.03472548,0.053901177,0.072617635,0.06445009,0.03453268,-0.0523356,0.051018465,-0.026471868,-0.06928683,0.009200577,0.022715015,-0.008703245,0.030926323,-0.034331024,-0.041554876,-0.02844578,0.0009924559,-0.043291323,0.011336598,-0.030897897,-0.045704577,0.015667556,-0.0047656377,0.002843296,0.0025874802,-2.5140643e-11,-1.739527e-11,-2.284746e-11,-2.970387e-11,-0.022776308,-0.031008393,-0.01565431,0.022188572,0.028614873,0.08341446,0.079542175,-0.037496362,-0.018697206,-0.10719458,0.06287553,-0.0900416,0.020395346,-0.029310398,-0.076554455,-0.060674317,0.05787287,0.006277645,-0.055601332,-0.048265945,0.03788435,0.01914764,0.037802223,0.015048114,-0.018348942,-0.012512643,-0.04488625,-0.08375766,-0.04961366,0.023177724,0.041338958,-0.045071557,0.06563349,0.00018533881,-0.006397136,-0.004991006,-0.019966708,-0.0034598324,0.0363952,0.015464018,-0.046057165,-0.048707522,0.005057984,0.019472593,0.021366928,0.025333557,0.024196958,0.024491781,-0.03402672,0.02385995,-0.033098914,-0.040725313,-0.012464537,-0.039788723,0.0021342512,0.08760126,-0.06908444,0.031599525,-0.040684726,-0.0073917657,0.060645126,0.073590934,0.11691073,-0.019572904,-0.018470146,-0.017895676,-0.057817638,-0.026388533,0.079897024,-0.03368848,0.032857638,0.08155121,-0.04911799,-0.04031605,-0.015630292,-0.009005556,0.022433229,-0.086283565,-0.014255946,-0.08217494,0.06002663,-0.01916539,-0.039967358,-0.03707274,-0.03178503,0.02473436,0.037015032,0.036280874,0.011531288,-0.00046054774,-0.012594011,0.0044209263,-0.020861523,-0.041782938,0.012651418,0.034267247,0.0067874873,0.032416724,0.0034550733,-0.017600352
-0.026992561,0.04067264,0.07187358,0.014092842,0.0743052,0.11275808,0.030875668,0.014007943,0.032490086,0.08109516,0.06329932,0.07376698,0.02139588,0.014936111,0.032184515,0.05083232,-0.09193932,-0.03973108,-0.056091852,-0.0035363354,0.03883109,-0.04911859,-0.024952855,-0.03130704,-0.09861818,-0.024252947,0.06646146,-0.014407814,-0.007230662,0.08660242,-0.015319775,0.15145475,0.01511153,0.046116926,0.022024097,-0.016465068,0.0035820394,0.04141673,-0.017400082,-0.06429959,-0.03850034,-0.048828464,-0.018342132,-0.03459654,0.1617639,0.0036286176,0.1421646,0.05275342,0.05624315,0.06388182,0.07909561,0.08579818,0.013793619,0.07719739,0.0054646344,0.098744996,-3.1902966e-11,-5.867814e-11,-4.3199e-11,-4.9794224e-11,0.029808125,0.055262122,0.042550553,0.043174807,0.08095272,-0.085020944,0.04907508,-0.024596423,-0.050551426,-0.09341175,-0.045657728,-0.16057764,-0.01822095,-0.0142713515,-0.078792,-0.044056345,0.015024095,0.00059987715,0.013733362,0.0059516905,-0.008865629,-0.0125608,0.028784415,-0.028536858,-0.049201936,-0.14499983,0.0035665191,-0.09836292,0.011878817,-0.0034601763,-0.048223976,-0.04684546,-0.031512257,0.056352597,0.1575163,0.0004397722,0.027893143,0.008912462,0.06895809,0.057090048,0.016344195,-0.007762301,0.012012438,-0.02941873,-0.015527228,0.054590575,-0.00823839,0.035047602,0.009150604,-0.046599798,-0.009288664,-0.027043287,-0.015787119,-0.054453723,0.0037575683,-0.000746335,0.032397643,0.012137534,0.122309096,-0.035284944,-0.08530867,-0.016426131,0.061967216,-0.039491955,0.011713357,-0.046609443,0.031677235,-0.052722424,0.03070126,0.0469792,0.057898216,0.03520218,0.014896587,0.08871217,0.014454169,0.08869615,-0.006511101,-0.0170184,-0.051886015,0.04944875,0.002901627,-0.10482423,-0.049346898,-0.024426045,-0.06440194,0.038522672,0.06655005,-0.060124107,-0.019510074,-0.015654938,0.01807614,0.00018056807,0.05131317,0.08891886,0.052951563,0.06890756,0.05270184,-0.038035765,0.009419051,-0.07476404
-0.0075008925,0.030509576,0.021124544,-0.025753045,0.02748219,-0.034829844,-0.01475764,0.052282684,-0.05129687,-0.005425675,-0.080150925,-0.01384039,0.06399264,0.02543552,-0.0034249902,0.08854922,0.10431075,0.040058926,-0.016886145,0.08016343,-0.05708059,0.06492329,0.08218964,0.058279857,-0.06484189,-0.05962318,-0.048233885,-0.006848836,0.0067269346,-0.043405455,0.021576695,-0.035063665,0.017278532,0.024773963,0.058380924,0.042651664,-0.012178583,-0.02554894,-0.031481612,-0.1019891,0.044531498,0.03239325,-0.01231853,0.023284785,-0.06335257,0.012931723,-0.030299649,-0.030167798,0.040494468,-0.0128762135,-0.036073916,-0.08812155,0.037044674,0.006107336,0.00038534077,-0.024878923,-4.0574637e-11,-3.0776503e-11,-6.053582e-11,-6.7386145e-11,-0.012579758,-0.011569061,-0.005168648,-0.0027030194,-0.044555917,-0.069263734,0.076376714,-0.043569956,0.0026836307,-0.054365102,0.05272827,-0.042599496,0.09383021,0.04721434,0.0051803947,0.0154298525,-0.0033069444,0.022886142,0.06576852,0.018886736,-0.030758876,0.01385997,-0.0026523499,-0.0017467476,-0.09463397,-0.006507044,-0.01866754,-0.010289199,-0.0953671,-0.038167547,0.04753628,0.036681615,0.0011639717,0.04753078,0.06596881,0.035691354,0.07863437,0.03743048,-0.04007681,-0.014556404,-0.015313683,-0.021456834,-0.02142043,-0.020708917,-0.06657831,0.019820206,0.0026867748,0.0606595,-0.003165623,0.049315955,0.015409503,0.015647821,0.029865345,0.056791022,0.008281822,0.0061892136,0.035638593,0.05195988,-0.09082289,-0.07769591,0.17630076,-0.018712724,0.048912738,0.07350651,-0.007984621,-0.06268047,0.013835551,-0.028321927,0.13334574,0.10377367,-0.0061896285,0.022143457,0.033571303,0.052380227,-0.044622835,-0.03823559,0.060941756,0.107250616,-0.02120737,-0.11969349,-0.027601885,-0.103529744,0.020944603,-0.069919445,-0.053777028,-0.014354084,-0.04334274,0.041092195,-0.074672475,-0.06041868,0.07497731,-0.026338864,-0.01129664,0.0005386035,-0.017516235,-0.0035341193,0.023301955,-0.012002252,0.05306989,0.0047722617
-0.03267835,-0.07357654,-0.03998329,-0.01694177,0.02858186,0.065105125,-0.026202494,0.046064176,0.041048855,0.10828206,0.040392593,-0.029838163,-0.03876386,-0.060428724,0.061574165,0.08913945,-0.022418909,0.0035682253,0.092049666,-0.05940035,0.07411774,-0.037778214,0.020885034,-0.02458777,-0.06059711,-0.08801295,-0.0022369954,0.043588795,0.021442076,0.053013735,-0.07395818,0.12878688,-0.0012134638,-0.005136253,0.010671334,0.018992279,0.063821554,0.01936353,-0.05011001,-0.009282895,0.011382573,-0.059970308,0.016996296,0.073076755,-0.025596198,0.031466357,-0.021986514,-0.003487004,-0.001589193,0.03680354,0.042649854,0.07758731,-0.0043639024,-0.008880655,0.008432404,-0.01575701,8.184701e-11,6.787369e-11,1.02269956e-10,8.635264e-11,-0.027169485,0.010532157,0.020700812,0.0550858,-0.054716334,-0.12152852,0.023907544,0.118121594,-0.038534682,-0.11307364,-0.03721966,-0.08624261,-0.061176166,-0.028636435,-0.055215858,0.07600704,0.008629768,0.10375163,0.07578843,0.0518493,-0.03460187,-0.041069396,-0.0055344747,-0.015665907,0.0042625666,0.068908386,-0.020997206,0.07620798,-0.09408108,0.016222544,0.073902234,0.017812153,-0.016969943,0.04249268,0.07974017,0.02989871,-0.004869737,-0.022292657,-0.026147211,-0.0019321933,0.0011046545,0.030164065,0.051120274,-0.030281976,-0.07731289,-0.041245755,-0.012012178,0.04768883,-0.033281114,0.05190294,-0.061391752,-0.07125025,0.040264558,-0.103623725,0.08003896,0.031398047,0.11433226,0.008997233,0.008519093,-0.12472017,-0.08892856,0.06404232,0.08351413,-0.03696593,0.058804248,-0.05000837,-0.022038765,-0.0045696353,-0.0968832,0.066768736,-0.07680557,0.026181836,-0.014067786,0.014675366,0.017201845,0.010449586,-0.020344974,0.037787404,-0.045108493,0.047880836,-0.0139871,0.019362891,-0.033855163,0.094854034,-0.016323255,-0.062356945,-0.03418878,-0.0651419,0.0054938225,0.010773383,-0.014807079,-0.05198266,0.00095376326,0.040233824,0.010852029,0.041792378,0.04791279,-0.06747474,0.07031323,-0.08949793
-0.051332034,0.018890373,-0.0045180116,0.022210145,0.025663806,0.027531225,0.10783632,0.01766875,-0.06585584,-0.07065899,-0.09438011,-0.096092336,-0.059631594,-0.01659167,0.011417239,-0.022193596,-0.031170547,0.046973906,0.034021042,0.04641293,-0.070673905,-0.04124199,-0.047972,-0.018866763,0.0047070077,0.041698083,0.15360317,0.13581972,-0.013777094,-0.060303897,-0.009933099,-0.080532186,0.041225802,0.042249996,0.018059645,0.029907873,0.06354176,-0.06505162,0.04686008,-0.05561626,0.0088745905,0.025132969,-0.019673212,0.0251378,-0.08337469,-0.029015284,-0.09352492,-0.062434968,0.1542655,0.15745851,0.008436354,-0.012384562,0.022588205,0.03538285,-0.06595367,-0.025431022,1.8928097e-11,5.7841135e-11,6.7102296e-12,2.5349929e-11,-0.03778239,-0.07477439,0.12943265,0.11009834,0.11719323,0.18342179,0.008002773,0.042409968,0.025750775,0.0018476848,0.013865585,0.02018952,0.009920981,-0.025002502,0.018886918,-0.0070436336,-0.047688738,-0.04482061,-0.04326825,0.00033270335,0.003684056,0.010141711,-0.015665283,0.017128874,-0.14291163,-0.076038525,-0.17113805,-0.11514577,0.07045034,0.078690976,-0.059048977,-0.072062254,0.07411923,-0.009119537,0.115617484,0.04497049,-0.0850753,-0.0008277254,0.12933247,0.09468472,-0.04083806,-0.009493065,0.033616785,0.042789083,0.019360073,-0.01578812,-0.0411671,0.017027546,0.068977885,0.044309944,-0.004214896,-0.055937827,0.014808671,0.0071675996,0.0584709,0.0028448142,0.010517875,0.010025022,0.008762531,0.037389986,-0.0068044546,0.0880289,0.1282343,0.08930199,-0.070513055,-0.02887773,-0.0070277853,-0.060099278,0.020098269,0.042654082,0.018228209,0.037087962,-0.030913409,-0.014543492,0.08501521,0.08439448,0.0089472495,-0.06521463,0.027435629,0.018616451,0.009808696,-0.029829675,-0.0136978375,-0.040686276,0.04606256,0.0039985985,0.05621991,0.08177467,-0.013960884,-0.03406629,-0.08270312,-0.024985429,-0.023660244,-0.026744327,0.033139985,-0.037368566,-0.016982326,0.0046564257,0.023854569,0.019923279
0.01485932,0.020252954,0.054537546,-0.007724881,0.055488314,0.018022846,0.043042053,0.06970207,-0.013948841,0.008036449,-0.0249416,-0.011483176,0.058038056,-0.0054005426,0.06856635,0.074251786,0.080316104,0.08657152,0.058534876,0.052808072,-0.026697842,0.002374759,0.12721096,0.11463345,-0.06720876,0.005594455,-0.054965593,-0.013872722,0.015209195,-0.039180283,0.016449517,0.010737884,0.034504917,0.054313604,0.04087241,0.0499109,-0.04171933,0.100504756,-0.021383652,-0.04588992,0.042288885,0.005782371,-0.028840179,0.02644821,-0.011536826,-0.005009523,0.04855024,-0.025641352,0.025787296,0.032226056,-0.05260256,-0.08414551,0.010399473,0.0071456693,-0.0444905,0.018489763,2.7133962e-11,2.9833275e-11,5.0611453e-11,6.267546e-11,0.022104528,0.014792639,-0.018748438,0.014939277,-0.040912226,-0.03044887,0.08913978,-0.019283636,-0.04750297,-0.07449173,0.021104869,-0.044539373,0.09029569,0.023412364,5.2222502e-05,0.012308877,0.025138944,0.053897046,0.041107263,0.023871697,0.00011894539,0.0001097589,0.015349392,-0.019568752,-0.13152203,-0.07551701,-0.056799263,-0.027216522,-0.07118215,-0.029843362,0.010170446,0.0025015825,-0.0038819688,0.05891359,0.097418636,-0.02298761,0.06453428,0.044324175,-0.024328168,-0.0033752902,-0.012632276,-0.0135622,-0.019664558,-0.019673899,-0.014630859,0.014741358,0.0027180444,0.064477704,0.049090955,0.030686507,0.0111600775,-0.00867571,0.007562646,0.009594247,0.032877058,0.04479397,0.03242918,0.087746866,-0.04175883,-0.060206607,0.12209104,0.07701216,0.023813745,0.031239577,-0.039922148,-0.045478594,0.0036192203,-0.011341076,0.057929177,0.044948567,0.0029957187,0.027210709,0.04745248,0.061132163,-0.04535056,-0.015386213,0.06132854,0.046550658,-0.089395575,-0.08897562,-0.021882324,-0.07521843,0.013750397,-0.082998164,-0.04945301,-0.0020220976,0.01791044,-0.0091924975,-0.06022419,-0.06279337,0.055742417,-0.015715666,-0.019684307,-0.022550799,-0.04583722,0.006008682,0.046386626,-0.020786066,0.06734998,-0.02283201
0.027773764,0.02336594,0.04305406,0.07092154,-0.05577287,0.02455558,-0.08413656,-0.038035683,-0.012359146,0.05314794,-0.07040704,-0.061291773,0.12325005,0.041250445,-0.06603282,0.024778193,0.10578938,-0.016493043,-0.008129828,0.033523697,0.108715445,-0.011552889,-0.049558073,0.11715747,-0.06783531,-0.04737269,-0.0060382537,0.013249987,-0.007391098,0.04983565,-0.011793951,0.09428193,-0.035728212,-0.008944449,0.00047486913,-0.034370657,0.03822004,0.025251042,-0.006151856,-0.051888,0.018367391,-0.022887724,-0.033202216,0.08865162,-0.018503213,-0.012570466,-0.0089249825,0.085317366,0.066793635,0.06287686,-0.07761915,-0.0080152685,-0.006172362,-0.031245286,0.0061814105,-0.034691326,7.6697884e-11,6.102098e-11,9.7139e-11,1.0208644e-10,0.046340905,-0.054805513,0.09404474,-0.066133864,0.0701513,-0.08731367,-0.013736119,0.124798305,-0.03758155,-0.018818356,0.0247824,-0.102167465,0.09816014,0.0756728,-0.052608628,0.055693693,-0.0037487315,0.109172136,-0.09331308,0.061567534,0.021786755,-0.0021006379,-0.030714087,-0.027174965,-0.033453535,0.012977864,-0.058478463,0.08733666,-0.105285265,0.043921907,-0.015745388,-0.015378847,0.08664824,-0.027901957,-0.00027328604,0.045203485,0.013959454,-0.006997265,-0.02935277,-0.011157796,0.08312474,-0.011083371,0.050920807,0.041607197,0.013358092,0.06382625,-0.058010075,0.059605613,-0.013246191,0.0383537,0.09755877,0.012801263,-0.059897155,0.016638832,0.06252424,0.05444497,-0.048843376,0.11033071,-0.008060528,-0.10325201,0.027007349,0.0853966,-0.037179608,-0.04933691,0.029365795,-0.086244896,0.09036269,0.057313472,0.012775084,-0.105066575,-0.044728626,0.0191234,0.01195461,0.05546451,0.013682023,-0.013983766,0.11829419,0.06526827,-0.06675945,-0.017596329,0.08653419,0.06940261,0.108943544,-0.09040545,-0.027194474,-0.06251831,0.070819885,-0.0093570305,-0.036856867,-0.034817465,-0.038836326,0.034484275,0.059999667,0.023883553,0.030307904,-0.022094604,0.0030165515,-0.0010229979,0.097949356,-0.061217636
-0.021355009,-0.026859412,0.036792994,-0.022845829,0.020010944,0.0318757,0.013568356,0.07700941,0.038776647,0.05234355,0.020733884,0.02786992,0.033482548,-0.088841766,-0.012773436,0.042567044,0.027038133,-0.008579015,-0.008507596,-0.017134713,0.009903249,-0.012499009,0.1358831,0.14565465,-0.08797641,-0.00047698113,-0.033234872,-0.008677443,-0.007564235,-0.031899773,0.016705273,-0.0005083046,0.009211553,-0.0021822734,0.0024907743,0.009979016,0.016371883,0.08651314,-0.03313277,-0.07131727,0.046609946,-0.01571876,-0.026583103,0.0068649845,-0.0066692554,-0.010704426,0.06239411,-0.0166316,0.06940546,0.04835781,-0.011221877,-0.012113149,-0.010497176,0.010276063,-0.041639797,0.029076753,2.5189616e-12,1.5081998e-11,2.1324732e-11,6.9391166e-11,0.052652363,0.044441972,0.037939686,0.08598142,-0.07996016,-0.07580759,0.073554575,0.0010673815,-0.037112273,-0.078161344,0.019729108,-0.1094381,0.102560975,-0.0016993183,-0.016730245,0.029438462,0.04792102,0.06598364,0.06816131,0.01993603,-0.036836218,-0.020058712,0.00038173667,-0.029248534,-0.09307291,-0.06612898,-0.07862382,-0.017562846,-0.06561544,-0.027578747,-0.014584144,0.024350416,-0.021861587,0.08547412,0.13372682,-0.003690963,0.070202395,0.032895256,-0.0012923104,0.0143015655,0.037104107,0.00029612577,-0.00048830296,0.0040672314,-0.018290145,0.0054301596,-0.021053137,0.069839515,0.04717603,0.044299446,0.014618836,-0.02545589,-0.020331977,-0.024385316,-0.015738841,0.045480177,0.15365982,0.108094074,0.021792144,-0.028586801,0.11453419,0.07632441,0.069588885,-0.008524295,-0.007440015,-0.022613542,0.05719535,0.033644166,-0.001305145,0.033782087,0.0098666465,-0.0037231164,0.07511884,0.09638619,0.00894684,0.047346458,0.10747366,0.12302955,-0.08148415,0.0025910395,0.014786016,-0.06167339,0.06964939,-0.099436216,-0.044537686,-0.02030367,0.023466099,-0.056485962,-0.07129989,-0.07153801,0.044955287,-0.0010616694,-0.005150126,-0.011116267,0.009887451,0.022401497,0.04216637,-0.010363202,0.057678223,-0.03888379
0.04929422,-0.018230757,0.00582663,0.0377466,0.044332713,0.087267585,-0.03570143,0.06289392,0.01092384,-0.020892363,0.05269552,-0.0545172,0.06224793,-0.004753571,0.04955063,0.037508264,-0.002403238,0.093553595,0.029964542,0.11305058,-0.049782395,-0.002845705,0.0378529,0.119726084,-0.060775947,-0.09081379,0.029238619,-0.054674037,0.016429847,0.030135887,0.04060117,0.045447826,0.05549698,0.01951468,0.033783987,0.04032348,-0.035465326,-0.0064512515,-0.02157167,-0.071008764,0.04510045,0.010930078,-0.030160962,0.023205722,0.0775296,-0.026526779,0.072344646,-0.004705345,-0.032599512,-0.014467985,-0.063870415,-0.06257806,-0.037969336,0.061604355,-0.03701461,-0.010923728,-1.8033398e-11,-8.11088e-12,-5.3565685e-12,4.1358205e-11,0.00080551126,0.006645066,0.0014984088,-0.025307309,0.02316148,-0.015209866,0.07686936,0.071490884,-0.012696279,-0.05003202,0.011195822,-0.09497041,0.023151902,0.027687663,-0.018781215,-0.01614311,0.012219559,0.01251172,-0.033789515,0.0014040944,-0.013050868,-0.0005546131,0.033675842,-0.011673665,-0.110555924,-0.14392856,-0.11350631,-0.041595306,-0.062542535,-0.053031854,-0.030517524,0.042906057,0.04195997,0.022919144,0.0059967437,-0.013508258,0.046609364,0.053033754,-0.006155137,-0.013304697,-0.006164144,-0.039629154,0.013400563,-0.048448324,-0.03823401,-0.039670274,-0.019601485,0.061223794,0.021737037,-0.01554632,0.0010608182,-0.013462488,-0.029884016,0.028377717,0.010118908,0.07700784,0.0891175,-0.045014955,-0.09208364,-0.070690885,0.052098937,0.13786487,0.040356845,0.03232006,-0.012521182,-0.081420615,-0.019170562,-0.009195502,-0.055627607,0.07699568,0.028824518,0.028543107,0.019357473,0.07669726,-0.041098442,-0.022047138,0.10411112,0.03781289,-0.10403695,-0.076126,-0.029825218,-0.07796787,0.035118915,-0.045249444,-0.0029140746,-0.036261544,0.08115727,-0.005741604,-0.040692616,-0.09831183,0.011293655,0.0075046667,-0.02135684,0.0006955192,-0.008119526,-0.039309047,-0.013120762,0.0041650455,0.029481508,-0.012479779
-0.049238283,0.041198827,-0.05665706,0.05911543,-0.09541596,0.07973493,0.010278312,-0.017474271,-0.07619898,-0.02112417,-0.083685905,-0.09159214,-0.0047336863,0.039500523,-0.036959536,-0.11891264,0.09683525,0.06639089,-0.06641733,0.082402684,0.06734502,0.043146923,-0.03072019,-0.025957894,-0.013259445,0.0008626814,0.067114845,0.09766604,-0.029775882,0.05345931,-0.04973953,0.05346983,0.04938321,-0.017156463,0.019559857,-0.0036479302,0.08339365,-0.09680332,-0.020498095,-0.038897075,-0.022473961,0.02600184,-0.029169446,0.025775617,0.007079499,-0.07393661,-0.09905674,0.025104573,0.06552091,-0.025283946,-0.047660246,-0.009694375,0.044538926,-0.009884415,0.028116846,-0.003415196,9.524275e-11,7.052778e-11,1.03459505e-10,8.742581e-11,0.0047197607,-0.06542075,0.07140988,0.08502172,0.013156177,0.02187616,-0.04237561,0.07812364,0.012456761,-0.093861654,0.08597131,-0.011480643,-0.05531991,0.058800977,0.025018055,0.0005176205,0.057376493,0.0082036005,-0.0075748535,0.03524932,-0.024322651,0.025280572,-0.011404692,0.032993156,0.065986335,-0.068105675,0.042631388,0.016798824,-0.03058096,0.039145757,0.014503287,0.027570806,0.0875589,-0.055302415,0.019542877,-0.0053815274,-0.039105974,-0.0078099454,0.04619282,0.061331585,0.043567497,-0.049154866,0.0634029,0.045786407,0.033547,0.004288036,-0.0038382974,0.0031709657,0.0899792,0.083557546,0.06384987,-0.108300306,-0.033386704,0.06710908,0.0047347746,-0.002292192,0.015176569,0.06227649,0.065678686,0.09134903,0.089586675,0.04564062,0.07472107,0.055453423,-0.029051615,-0.001685448,0.064015634,0.0026507184,0.08232044,-0.0005459893,0.07024627,0.04655857,-0.04079734,-0.028645977,0.014544205,0.0461176,-0.074292764,0.042338215,0.043947596,0.0038358055,0.08860029,0.054641895,0.04594929,0.009539479,0.05275888,-0.0709553,-0.02716278,0.09250159,0.024209356,0.005371202,-0.051515784,0.005233728,-0.0027889092,-0.010531192,0.11967071,0.056355763,0.018303407,-0.012739421,-0.030051239,0.0177969
0.0013572798,-0.0040121344,-0.0031373852,0.03376165,-0.009366731,-0.04841851,0.012069456,-0.040912714,-0.00019740395,0.010605908,0.022506965,0.0086493855,-0.006656369,0.012806205,-0.03544375,0.00700861,0.07360072,0.02837314,0.027023211,-0.051835045,-0.04066123,-0.036057457,0.07969859,-0.019425273,0.015960146,-0.027678238,-0.031132888,0.067871705,0.083311856,0.0573864,0.06114516,-0.06861204,0.13002919,0.04005587,0.10397297,0.09323248,-0.06526164,-0.078897566,0.038042292,-0.0071192263,-0.038925037,-0.01805929,-0.017344011,-0.0318363,0.11251246,0.014386753,0.07830972,0.008029639,0.100228615,0.011940485,0.0060296943,-0.06389899,0.2302727,0.11711991,0.15149142,0.15915059,4.232282e-11,-7.9123354e-11,7.984636e-11,-7.031407e-11,0.05593499,0.0275895,0.07416146,0.04325759,0.030030666,0.08898741,-0.026399143,0.015577597,0.1968972,0.15286168,0.14977737,0.09137018,-0.017341353,0.08468347,-0.024118662,-0.07288847,0.13868687,0.094035365,0.041435942,0.15922745,-0.011218257,-0.015030232,0.040980794,0.025068695,-0.1754472,-0.02544208,-0.056020733,-0.01954036,-0.03693024,-0.056872845,-0.009671722,-0.13938683,-0.04201634,0.05449664,-0.0080699865,0.104571216,0.15569596,-0.05635704,0.16013354,-0.09262007,-0.012067947,0.1258339,-0.016247293,0.04153704,-0.11020429,-0.028804926,-0.07348421,0.012841826,-0.013174265,0.027465528,-0.017453529,-0.028467588,-0.037200104,-0.02991769,0.013289652,0.012155676,-0.06797833,0.03690155,-0.0356113,0.061280984,0.057328127,-0.062612385,0.04100496,-0.10825107,0.0038705096,-0.03588055,0.021037433,-0.031146968,0.119989835,0.020848786,-0.026423361,0.046968743,0.027283868,0.06810394,0.07018431,0.099355824,-0.13957678,0.0027566268,-0.078288004,-0.015803764,0.080590695,-0.029945806,-9.005546e-05,-0.054509185,0.15266047,0.07108837,-0.016754193,0.1538775,-0.038063545,-0.0049329908,0.02720482,-0.07264401,0.0666765,0.108932495,0.11868844,0.09401595,0.005180701,0.05146813,-0.0036863338,0.023892684
