0.29916462,0.19007815,0.28794083,0.021028304,0.09648104,-0.014977082,-0.22720487,0.23609808,0.010101209,0.2382721,0.21049866,0.18285467,0.057036474,-0.05642107,0.334183,-0.33655018,-0.12536508,-0.24514262,0.2931916,0.062144257,-0.10571127,-0.33734843,0.32360238,0.23565947,0.29123223,-0.27802798,-0.047087464,0.03219931,0.28646576,-0.020141441,-0.010252104,-0.28433147,-0.0011267061,-0.0011178505,-0.0012095876,-0.001171527,-0.18284185,-0.062365044,0.025296338,0.21890925,0.16075271,0.16274498,0.07586227,0.10055049,0.11112943,-0.11275299,-0.120006725,0.11935825,0.09335512,-0.11797727,-0.11750291,0.13968676,0.08757597,-0.16729169,0.19258673,-0.04132458,-0.1890498,0.16362219,0.20826493,-0.18290329,-0.29403496,-0.07642599,0.090367734,0.32435912,0.16737035,0.2526198,-0.20219931,-0.20497397,-0.1520036,0.21210387,-0.1726816,0.15467443,-0.2318719,0.16615412,-0.07890702,0.101280175,0.053884078,0.079554364,-0.027347438,0.17534138,0.010352736,0.20352116,-0.24304509,-0.00644127,0.1516937,-0.011059846,0.008532927,-0.16721411,-3.0999476e-20,-2.2326442e-19,1.18813105e-20,2.5060612e-21,-0.24603826,-0.08862546,0.255995,0.081869714,0.04732125,-0.108701,-0.2221269,0.29894117,0.112869486,-0.045682166,-0.046253018,-0.017637441,0.2529412,-0.08650593,0.060381703,0.084100924,-0.13075148,0.13799475,0.11920626,-0.12757714,-0.023048101,0.1711479,0.14802557,-0.10526311,-0.1857669,0.18817228,0.00957081,0.005386255,0.20161362,0.037671827,-0.05138254,-0.2062618,-0.099794276,0.24124078,-0.24018571,0.035014443,-0.20189834,0.3083556,-0.28651872,0.2593913,0.32872516,0.14684734,-0.15324028,-0.283848,0.037807856,0.15810572,-0.04844346,0.027530218,0.2497475,-0.2375041,0.03291477,-0.04898206,-0.025165476,0.07444554,-0.28409326,0.27391365,0.035950374,0.3064461,0.2921825,0.008789869,-0.0773522,0.29578242,0.0028514073,-0.20072824,0.030945372,0.24514392,-0.035734646,-0.22613865
