0.17070748,-0.12926254,0.24033962,-0.0005324599,0.14745691,-0.22742666,0.15720747,-0.16915378,0.1369394,-0.09346469,0.1246304,-0.1679462,0.0018388153,-0.029170843,-0.12359409,0.16528186,-2.4001984e-05,-9.067271e-05,6.439777e-05,2.8009708e-08,0.0954055,0.04351222,-0.016005388,-0.16799204,-0.06909088,0.20436028,-0.020253828,0.12082651,-0.13414511,0.13308737,0.19058806,-0.1881632,0.06946142,0.10977338,0.024493996,-0.27278903,-0.012064689,0.013893748,-0.13859871,0.14491612,-0.03879854,-0.09380092,0.11129399,0.018449927,-0.024796149,-0.13226092,0.16649586,-0.013703253,-0.04412262,-0.058991462,0.06310562,0.037223045,0.0033163144,-0.25565767,0.13483475,0.06965903,0.15880309,-0.11768439,-0.073472634,0.1095714,0.058573067,-0.11723257,0.0499283,-0.027551038,-0.032462195,0.16010553,-0.003530668,-0.11188237,0.18147928,0.015712038,0.11097449,-0.009431204,-0.03143835,-0.044002436,0.042144794,0.030645454,-0.12741095,0.1852741,-0.26040554,0.2033719,0.12828669,-0.09494799,-0.11618935,0.08368256,0.20101047,-0.18837678,0.07513246,-0.088851914,-0.0044670803,-0.1055515,0.25110695,0.049322274,0.068459995,0.049228147,0.12886484,0.2182912,0.1440256,-0.13416576,-0.15338916,0.14409916,0.22810607,-0.08571303,0.21986565,-0.01755161,-0.064684875,0.1352099,-0.036940977,-0.08961574,-0.006368473,-0.011286345,-0.14772582,0.20058432,-0.03219286,0.1226834,0.12782155,0.08574839,-0.027899345,-0.03603931,0.03993223,0.021045346,-0.03887803,0.27162287,-0.027479865,-0.1566051,-0.07137991,0.16201109,0.13055265,-0.21996567,-0.03074744,0.10463798,0.050295155,-0.11915724,0.21857464,-0.12482504,-0.04511593,-0.006038904,0.0014297278,-0.01515052,0.17464177,0.16670358,0.1294186,0.046505094,0.21865723,0.009807413,-0.11827163,0.1284097,0.20219027,-0.21069698,-2.1698236e-18,-2.4977312e-18,-1.4569747e-18,-1.8942502e-18,0.23375241,-0.09293689,-0.0034112725,0.044429965,0.17534155,0.005827231,-0.17973399,0.0014129985
